2.068093479663173362e-01 -2.352641605754552945e-01 7.028947656455133419e-01 -3.962839854398210182e-01 -4.685847161000760153e-01 4.018388295034407420e-01 4.509488217847024139e-02 -6.788749225910879481e-01
6.943167134953454056e-01 2.576099645955376438e-02 -9.627856769311118335e-01 6.777628947780431901e-01 -9.315948196259311587e-01 1.294000073763619252e-01 -9.923750111954630082e-01 7.922673190977835844e-01
2.065413679269689773e-02 -4.420905497782081639e-01 -9.212741586663526494e-01 -5.188445576243538859e-02 -9.593418183325643778e-01 2.731643903678979690e-01 6.178517446342968178e-02 1.799542600429064887e-01
7.010821975115835158e-01 2.698971214482723813e-01 -6.028646152197218999e-01 1.912959969764280732e-01 5.905598774194158462e-01 -2.471285699753202891e-01 -6.264274167267624982e-01 6.520709963906887729e-01
1.000000000000000000e+00 1.000000000000000000e+00 1.000000000000000000e+00 1.000000000000000000e+00 1.000000000000000000e+00 1.000000000000000000e+00 1.000000000000000000e+00 1.000000000000000000e+00
