7.700381467098642574e-01 -8.846603265587271725e-01 3.018054547311632696e-01 5.752221921460147769e-01 4.665933465164049387e-01 -8.653508265922349452e-02 9.106246682665388725e-01 3.705583899734119502e-01
1.872819354455788066e-01 -4.060264760529594952e-01 -4.391397346784324807e-01 2.669260638068768898e-01 -5.636412428972501498e-01 -3.246438068264998478e-01 -8.382048941375479512e-01 6.876770538574947800e-01
3.796813683897619640e-01 7.108404678322264303e-01 -1.152688295332544577e-01 -9.765316847040466097e-01 2.462615588390852928e-01 -2.263038396206837888e-01 -6.907157266944179419e-01 -3.533083616296195384e-01
6.476961937048233420e-01 -6.417796515308160643e-02 -7.452902326581314352e-01 -1.344897810097844815e-01 -5.707074107258389706e-01 -6.289093868431516743e-01 -9.704135165198781721e-01 5.264582492022453764e-01
1.000000000000000000e+00 1.000000000000000000e+00 1.000000000000000000e+00 1.000000000000000000e+00 1.000000000000000000e+00 1.000000000000000000e+00 1.000000000000000000e+00 1.000000000000000000e+00
