7.677068035933953816e-02 5.136133421185691272e-01 3.884052659264118912e-01 -7.350079616003031280e-01 9.870023259674733929e-01 1.129744548702573681e-01 -1.551557281097566410e-01 5.009798620268077762e-01
1.442840377700669308e-01 7.728331454020753721e-01 8.928663919751547162e-01 1.728762470614244595e-01 -8.829539561864427899e-01 9.350232416567660909e-01 7.319885978099849311e-02 2.495406773423058944e-02
7.227792789032316811e-02 5.954445487556985217e-01 -5.033012452949139348e-01 9.759236465253717796e-02 2.391973432890797113e-01 -5.770372036682422934e-01 2.980016892418764218e-01 3.782363493546492261e-01
1.215477222442102878e-01 -2.154123186713148286e-01 -1.045148365536825441e-01 -1.479820097702349013e-01 -5.862122063056540711e-02 -1.262627425200069098e-02 -9.257115895644729697e-02 -9.943374094558175003e-01
1.000000000000000000e+00 1.000000000000000000e+00 1.000000000000000000e+00 1.000000000000000000e+00 1.000000000000000000e+00 1.000000000000000000e+00 1.000000000000000000e+00 1.000000000000000000e+00
