-9.738026601528981807e-01 4.039915163610150461e-01 -7.698158035929514309e-01 -6.348464757416683035e-01 5.022252976431191840e-01 -2.774391175885431160e-01 -1.951542498606260168e-01 -4.365680088562042815e-01
7.353234243781832102e-01 -7.312663468641389386e-02 -3.244783626533072063e-01 -4.536670101957047674e-01 -4.500714473219422640e-01 7.523278046180130740e-01 1.129065295818771908e-01 7.735765644384182682e-01
-8.093255038397513257e-01 9.520487025673873838e-02 -3.315321612186172828e-03 4.555468165082054988e-02 1.577329478210462987e-01 3.042621060441246250e-01 -6.968181119463876527e-01 2.117994089933996626e-01
-2.780229472336590568e-01 -3.093711636611973237e-01 -4.143774162029023600e-02 -9.802794990526808583e-02 -1.861059217128817611e-01 9.195712341225243946e-01 3.802104330337430227e-02 -6.015574175159490444e-01
1.000000000000000000e+00 1.000000000000000000e+00 1.000000000000000000e+00 1.000000000000000000e+00 1.000000000000000000e+00 1.000000000000000000e+00 1.000000000000000000e+00 1.000000000000000000e+00
