3.733745665502004041e-01 3.910865628984077080e-01 -1.764677014057183246e-01 -6.225084351118916892e-01 8.596306170077343545e-01 -7.731156304404587232e-01 6.360407567341996860e-01 7.779236010940984158e-01
-5.607847563109413791e-02 -3.452745962481136299e-01 -7.734275170892292994e-01 -6.479716097136516417e-01 6.516030740427802836e-01 7.206341392778443655e-01 9.846467303182993014e-01 -3.344691698332373786e-01
7.434339734760906371e-01 8.824660798656467353e-01 9.454545187657352745e-01 2.949116867653172047e-01 -6.580532940883794257e-01 5.136673979862729222e-01 -9.713279104786203266e-01 3.900228010260837763e-01
-6.817703004866886296e-01 -6.282943803300244934e-01 -8.488407071617400934e-01 -4.561710088399300034e-01 -6.236588896727845999e-01 -6.071557469054120748e-01 -4.883277199818540915e-01 6.543615202949621956e-01
1.000000000000000000e+00 1.000000000000000000e+00 1.000000000000000000e+00 1.000000000000000000e+00 1.000000000000000000e+00 1.000000000000000000e+00 1.000000000000000000e+00 1.000000000000000000e+00
