-2.140050363890035889e-01 6.935053241396680335e-01 8.398112244187074804e-01 6.646162679161673470e-01 -6.979722002770716305e-01 -2.379420129757001678e-01 -5.453670976991216168e-01 -7.711456889104453261e-01
5.820308847098760729e-01 -1.456164535238497759e-01 6.673353616388750797e-01 -5.811417332016783899e-01 -3.237678821217702119e-01 -7.764309659570141076e-01 -1.738126390512080288e-01 -8.520836684924180116e-01
-2.377434980368553497e-02 2.708085352139695257e-01 -5.656769155119087955e-01 -2.786657117812334494e-01 2.026846235481680747e-01 -3.657790468236985504e-01 2.671369426130800750e-01 6.347230126942535744e-01
9.531839421620191821e-02 3.069032659165871202e-01 -9.694696854087379023e-01 -7.723610750331626473e-01 3.510666619928899390e-01 7.173515870880691203e-01 7.838891795912508176e-01 -5.638758079461287931e-01
1.000000000000000000e+00 1.000000000000000000e+00 1.000000000000000000e+00 1.000000000000000000e+00 1.000000000000000000e+00 1.000000000000000000e+00 1.000000000000000000e+00 1.000000000000000000e+00
