-3.965247240869438361e-01 -1.849933688329143955e-01 2.968363027634233209e-01 7.195188869087523198e-01 2.547154044104771309e-02 -8.671907751647767171e-02 7.890859794556916995e-01 -5.704188929169513589e-01
-4.520242381768579953e-01 -9.428711021991627028e-01 -2.244942772256042218e-01 3.888886985921220507e-01 -4.281837167166382407e-01 -7.024204594297913662e-01 5.180901576225749317e-01 2.238687250831301601e-01
2.122246757640562365e-01 -7.683840389532134996e-01 -9.204957146096530707e-01 -9.422252000764033131e-01 9.328846864878781453e-02 -2.931543520788881807e-02 8.465547514922202588e-01 -7.289739938446140322e-01
4.667457156525522954e-01 -9.929744109113378681e-01 -6.539466786808825205e-01 6.275703873029783164e-01 -8.617544093922244741e-01 8.744099737620139035e-01 5.539852111600389595e-01 -9.823581053439844890e-01
1.000000000000000000e+00 1.000000000000000000e+00 1.000000000000000000e+00 1.000000000000000000e+00 1.000000000000000000e+00 1.000000000000000000e+00 1.000000000000000000e+00 1.000000000000000000e+00
