-3.682074471647767133e-01 1.422354926241369277e-01 7.154492790695836657e-01 8.256569010917247375e-01 -3.079813964014850303e-01 6.996241122400173040e-01 -5.106291988541300508e-01 2.818405348183563586e-01
6.524993946577899440e-01 2.923925145609507226e-02 3.668655219539249668e-01 9.920882824272485578e-01 1.140577358127778940e-01 -8.486463142778142288e-01 -7.609103053863124355e-01 -5.136445416961812338e-01
-4.583267016990255627e-02 9.986353575766715451e-02 9.265871305467008323e-01 2.553933651034889785e-02 -2.736292951903092074e-01 6.912905341403001724e-01 -2.469038314833145176e-01 -9.574570886001674275e-01
6.802337151283084360e-01 9.281782985456454860e-02 -9.643254466812802850e-01 6.484101888509166134e-01 -9.771367387175238228e-01 4.487105665755273254e-01 7.727453891235593897e-01 -7.225783713197173608e-01
1.000000000000000000e+00 1.000000000000000000e+00 1.000000000000000000e+00 1.000000000000000000e+00 1.000000000000000000e+00 1.000000000000000000e+00 1.000000000000000000e+00 1.000000000000000000e+00
