-4.027383802420634318e-01 3.067711529555017247e-01 -2.883404870235128925e-01 -4.243604812780525926e-01 7.459131800232872145e-01 -1.967226964276049817e-01 7.559242163510728751e-01 8.957284109091516733e-01
-1.834751530283809107e-01 -1.645443680362443928e-01 -1.361405747243911168e-01 4.316018418505507270e-01 -9.983141629933693917e-01 6.347705223056443469e-01 -9.602386149900399293e-01 -3.176094519572789654e-01
4.135869874430662119e-01 -5.831710178841735814e-01 9.719156510088364787e-01 8.342327982180575141e-02 3.794388269384885159e-01 9.886459006270875705e-02 -9.532718990724022845e-01 4.234370809731169416e-02
1.480668217012688359e-01 3.426255214060516252e-01 -1.174003533324006199e-01 1.730472322768163984e-01 -8.979091691502369965e-01 -4.145877928787993216e-01 -6.023181956903622680e-01 5.872571259322532100e-01
1.000000000000000000e+00 1.000000000000000000e+00 1.000000000000000000e+00 1.000000000000000000e+00 1.000000000000000000e+00 1.000000000000000000e+00 1.000000000000000000e+00 1.000000000000000000e+00
