-6.955883171980425939e-01 8.551603507674705451e-01 9.281477643307052272e-01 9.850095155510112388e-01 -4.493282667027513888e-01 -8.990526390468054352e-01 -3.518502850036435703e-01 -6.800110639389436162e-01
2.012701919687858165e-01 7.191364421139370133e-01 9.292265090073374978e-01 -2.847241347789351007e-01 -4.853775855316759813e-01 3.612676825457730168e-01 6.991610285735454511e-01 -7.141611550734285885e-01
7.808153257533716474e-01 1.318680970903773897e-01 6.559025523072463670e-01 9.398542028523935166e-01 7.385024262025909891e-01 -1.604786598916674301e-01 4.373845420775133164e-01 4.357308829806547656e-01
8.770163194051388000e-01 -9.886666500481888775e-02 -3.738570250098671721e-02 -3.156754116331395021e-01 -3.044529323428748491e-01 -6.199041585253239894e-02 -1.409406245479178921e-01 9.196675845887261058e-01
1.000000000000000000e+00 1.000000000000000000e+00 1.000000000000000000e+00 1.000000000000000000e+00 1.000000000000000000e+00 1.000000000000000000e+00 1.000000000000000000e+00 1.000000000000000000e+00
