-1.589249025184360509e-01 -4.416341108531776083e-01 -7.478519701682360132e-01 -6.911121576611569672e-01 9.276510426668904685e-01 3.981283512324680363e-01 3.225771981280529666e-01 -5.769178722860535125e-01
-3.786748378416051608e-01 6.178301343917438349e-01 2.581171010985716663e-01 2.410730777185279283e-01 8.091586655309654930e-01 9.373779709676250960e-01 7.895164182734155656e-01 6.009157700304634808e-01
-9.066014821268499890e-01 -8.995735565863571814e-02 7.533521423529254690e-01 -6.418509206259752631e-01 7.390535804781528384e-02 7.709715004160111462e-01 -4.072660787130037985e-01 -4.420440436096491066e-01
7.690715048761347372e-01 -2.513069784789438987e-01 -6.583262669274152490e-01 4.734953654025142455e-01 8.107708670018880515e-01 -1.359968198787289140e-01 -6.897396793437964302e-01 4.529896589277477847e-01
1.000000000000000000e+00 1.000000000000000000e+00 1.000000000000000000e+00 1.000000000000000000e+00 1.000000000000000000e+00 1.000000000000000000e+00 1.000000000000000000e+00 1.000000000000000000e+00
