-4.767683179526618353e-01 -3.033289221230295318e-01 2.098294621358518519e-01 -3.584097128818020117e-02 3.096781272910964500e-01 -1.915725449746410458e-01 -5.759121352986336095e-01 7.299234430566210463e-01
4.670027785190735692e-01 7.643077463780956204e-01 -8.778026594671763938e-01 -5.295841798484697271e-01 -7.106037938042732982e-01 -8.795160409693267844e-01 7.166307970155281204e-01 -8.343077282131741157e-01
-2.542649360566278105e-01 -3.032530225201557350e-02 2.680377152301849364e-03 4.381760834894716794e-01 -1.566757116502348612e-01 -6.297002323390921141e-01 -2.342539252119162363e-01 8.172306803985280865e-01
7.712687819339727469e-01 8.993922855244096404e-01 8.354534835289029182e-01 1.150925011805585818e-01 -7.063289373332506393e-01 -4.785585455789211906e-01 -6.345646218859217758e-01 -7.432433047566686657e-01
1.000000000000000000e+00 1.000000000000000000e+00 1.000000000000000000e+00 1.000000000000000000e+00 1.000000000000000000e+00 1.000000000000000000e+00 1.000000000000000000e+00 1.000000000000000000e+00
