-2.061012198762739445e-01 -7.594230175282603579e-01 9.110565883546088983e-01 2.767030836437918140e-01 -9.188663562907177784e-01 -7.666495108684281412e-01 -3.090160465351878827e-01 6.806014728940972258e-01
-6.739158195761256742e-01 2.039728485525624802e-01 6.675062092664436619e-01 4.984303319026281986e-01 -2.715163422930886306e-01 8.613051834979024157e-02 -8.408739764937440686e-01 -7.565993943325468596e-01
2.624416231710364755e-01 6.561210520904645627e-01 8.380003539814984137e-02 2.032590761072394780e-01 -3.745360721823649541e-01 9.535882171752803060e-01 -9.563129064670428114e-01 8.699255060579766941e-01
-1.570006608606877574e-01 1.538205178912843696e-01 1.962312856836725405e-01 6.448960809156560892e-01 -6.806398431386608827e-01 5.864569830403745243e-01 -3.030244120469482993e-01 -7.134842071143558950e-01
1.000000000000000000e+00 1.000000000000000000e+00 1.000000000000000000e+00 1.000000000000000000e+00 1.000000000000000000e+00 1.000000000000000000e+00 1.000000000000000000e+00 1.000000000000000000e+00
