9.509428560557318111e-01 -3.075824956921981990e-01 4.149095193414737981e-01 1.452666298662541600e-02 -6.584165987064094505e-01 -8.115363078453623480e-01 -2.443747307572421423e-01 -1.016073166761526370e-01
3.735288272349868155e-01 1.345210671594279095e-01 -8.967265067920568988e-01 -6.879236001784996279e-01 2.282479113898525647e-01 3.692819967264815428e-01 8.954520796353426793e-01 -5.477867104470002246e-02
-5.895525376806978191e-01 5.619383256582044517e-01 -4.542041523374351630e-01 -9.811299370949799759e-01 4.356094532746586090e-01 4.869047977699381136e-02 1.886571075426359823e-01 7.951067084738301372e-01
-6.996493675344463981e-01 5.130834182311487801e-01 5.211112996807700792e-01 -4.746658642345373824e-01 8.198934300055071844e-02 -5.442775081742767807e-01 1.665319959524766968e-01 8.049616052407613243e-01
1.000000000000000000e+00 1.000000000000000000e+00 1.000000000000000000e+00 1.000000000000000000e+00 1.000000000000000000e+00 1.000000000000000000e+00 1.000000000000000000e+00 1.000000000000000000e+00
