-5.444644313844133610e-01 3.748192122454088171e-01 8.826545350855585781e-01 8.776776584684211624e-01 2.073750610531388539e-01 -3.797858787648771273e-01 -1.529691508159647384e-02 2.669518154849706004e-01
-6.873796295874077256e-01 1.853362585817865948e-01 -8.272392085450048782e-01 2.903983435289509973e-01 -7.595209763671129100e-01 2.324344133075419983e-01 -4.076367951225525754e-01 -9.511330777417812410e-01
-7.667643668293275816e-01 3.702794757695349048e-01 4.714006149005289803e-01 -8.157531197319971561e-01 -1.770851419192558396e-01 -2.112235002716260635e-01 4.754718167796252448e-01 6.140406651150511763e-01
1.262887124500688962e-02 -6.590173259230931446e-01 1.416695105857301851e-01 7.981738036784045143e-01 7.096912999836577640e-01 -4.826135599261227593e-01 -1.352183692236739176e-01 -2.525666754603874686e-01
1.000000000000000000e+00 1.000000000000000000e+00 1.000000000000000000e+00 1.000000000000000000e+00 1.000000000000000000e+00 1.000000000000000000e+00 1.000000000000000000e+00 1.000000000000000000e+00
