4.597924432996753907e-01 5.676401015027756625e-01 2.763341364112097409e-01 4.010589273764535445e-01 -8.590192948213730695e-01 -3.183382959325797845e-01 2.368450809181046335e-01 4.355184724086518244e-01
3.928585848204799724e-01 -1.426632429159502280e-01 -9.955984141561933232e-01 -4.456982839651488781e-01 -7.993719184168879277e-01 7.358180221423133993e-01 -3.051272185865989695e-01 6.891060186547670607e-01
8.935026597998680931e-01 2.111834654172091152e-01 -5.227882602138962387e-01 9.733292397236945614e-01 8.631716180999620125e-01 -4.921055043107698257e-01 -7.942193506703598693e-01 7.366030080599668128e-01
4.582644423287840496e-01 -6.398975426599669003e-01 -2.483334490374589087e-01 -3.980286044241994059e-01 -9.840923577374947051e-01 9.520378747608511105e-01 1.106965007186491157e-01 -9.070251235287485336e-01
1.000000000000000000e+00 1.000000000000000000e+00 1.000000000000000000e+00 1.000000000000000000e+00 1.000000000000000000e+00 1.000000000000000000e+00 1.000000000000000000e+00 1.000000000000000000e+00
