-5.097825686673460588e-01 8.385868817529673613e-01 -6.345917000934038210e-01 7.434785808964905485e-01 -1.641367595050506889e-01 -6.131955674566365033e-01 9.259399790141831232e-02 9.352793104310057615e-01
4.383063586986883919e-01 -6.160221567511368068e-01 3.579819030605779773e-04 5.198960462008741512e-01 -8.700508799678998706e-01 3.351659682136352014e-01 -3.513798860737060714e-01 -3.407563712414081181e-01
-2.799217755395528862e-01 4.379995311487341336e-01 9.940460051386124096e-01 -6.265980631714718196e-01 -2.316262558190484988e-01 -9.517909524160683699e-01 4.870825781189667136e-01 1.825577940586760040e-01
2.429020680570617152e-01 1.837814402060304886e-01 6.026652953299793669e-01 9.929548363062932204e-01 -1.938239104862311546e-01 4.819837794710497558e-01 -9.966594565207380629e-01 -1.205865694460039883e-01
1.000000000000000000e+00 1.000000000000000000e+00 1.000000000000000000e+00 1.000000000000000000e+00 1.000000000000000000e+00 1.000000000000000000e+00 1.000000000000000000e+00 1.000000000000000000e+00
