5.334427961059986512e-01 -8.759526630081126974e-02 -4.726662514157284889e-01 7.429328074731937903e-01 6.486097074998697920e-03 6.440714822010542573e-01 6.991612733024816784e-01 9.660987624592005663e-01
-5.833639381212252228e-01 -6.639302856616844384e-01 5.380099814856798002e-01 6.340105815215351104e-01 -3.805108910386403309e-01 -4.430087695477535892e-01 -1.764086160861757513e-01 -2.280286088871954497e-01
-9.244749419429891812e-01 7.250496326303581540e-01 -6.887325609846191021e-01 -3.944938659980283813e-01 2.367765602742573083e-01 2.536773054823646678e-01 7.405813598857879931e-01 9.774925712603415029e-01
5.212206916430019987e-01 6.281197646733343021e-01 3.819347147581009239e-02 6.231551159628474501e-01 -3.180250650109495147e-01 -5.165353251564166470e-01 9.752292341295176747e-02 -1.992438301337253748e-01
1.000000000000000000e+00 1.000000000000000000e+00 1.000000000000000000e+00 1.000000000000000000e+00 1.000000000000000000e+00 1.000000000000000000e+00 1.000000000000000000e+00 1.000000000000000000e+00
