1.387203237972740588e-01 2.797918140645434537e-01 6.185266359335950259e-01 6.417230590332025919e-01 -3.412809260290685653e-01 -8.945577299256148862e-01 4.903105562254683747e-01 -3.003181271478383429e-02
-2.245305309794505266e-01 -9.424690977122094360e-01 5.902422812905419036e-01 -3.644728386335338577e-01 2.757374795294926795e-01 2.065939653210135951e-01 2.375029005718189978e-01 -5.680712414265085553e-01
-9.729178990817144435e-01 -1.688948192026986650e-01 -1.343193726347515771e-01 -7.950912586406126970e-01 2.001637842798953404e-01 3.775075720288338932e-01 -1.051500592538912038e-02 6.608103869506385397e-01
-3.519112846534211414e-01 -7.446144200960751469e-01 6.065787638746251709e-01 1.817293861503355146e-01 4.284176435088227208e-02 3.394209861530532724e-01 -5.467598450167905355e-01 8.056051615605168692e-01
1.000000000000000000e+00 1.000000000000000000e+00 1.000000000000000000e+00 1.000000000000000000e+00 1.000000000000000000e+00 1.000000000000000000e+00 1.000000000000000000e+00 1.000000000000000000e+00
