-5.300395454705064680e-02 -9.339777563649085401e-01 4.307714588212430140e-01 -6.169040381754964386e-01 6.381080133627785589e-01 7.066195426732342355e-01 -7.539033446505358782e-01 1.689280578893723739e-01
-5.770296799692673506e-01 3.864131325931907668e-02 -4.550440540484250729e-01 -4.340724317613877670e-01 5.939048062755933888e-01 -4.400070409994187859e-01 -8.190477088421399543e-01 3.180706210920642985e-01
-2.253231153070460735e-01 9.096291501894668841e-01 -9.098320015638203806e-01 4.091804487882262364e-01 -9.498880001639604664e-01 -1.547350151121797968e-01 4.314682014477801975e-01 -8.740130232338345628e-01
-5.151796207473595679e-01 -6.566443407178643721e-01 -2.239591930227124994e-01 8.429035683120944533e-01 5.587717080752370169e-01 3.963698194977982592e-01 4.100593063202848665e-01 -6.984415682194278219e-02
1.000000000000000000e+00 1.000000000000000000e+00 1.000000000000000000e+00 1.000000000000000000e+00 1.000000000000000000e+00 1.000000000000000000e+00 1.000000000000000000e+00 1.000000000000000000e+00
