2.892249752666788964e-01 -8.933097762352557591e-01 -6.823794874204112126e-01 6.146987032994464251e-01 -4.693326588330013482e-01 6.741585622387202825e-01 -4.602736441281181090e-01 -9.301088210693886360e-01
1.687074797966969797e-01 -8.284679054126176112e-01 -5.943771477847785700e-01 8.127857538012512872e-01 8.591089748618809807e-01 -8.694299501615048165e-01 -8.924250350042906010e-01 -3.415164568351383156e-01
-1.743425467986561284e-01 1.070971822197830381e-01 -1.474793280781885318e-01 -4.609309438516937529e-01 2.369810404325318753e-01 -2.157060810669082507e-01 -4.210188456287460301e-01 4.871746362409958842e-01
1.492602498750783546e-01 -9.469028144534623603e-01 -4.260677146010221072e-01 -1.620992056135504011e-01 1.578241016793520135e-01 -3.708610547184110207e-01 -2.474684141610548060e-01 -7.925912034212421187e-01
1.000000000000000000e+00 1.000000000000000000e+00 1.000000000000000000e+00 1.000000000000000000e+00 1.000000000000000000e+00 1.000000000000000000e+00 1.000000000000000000e+00 1.000000000000000000e+00
