8.156892126381343200e-01 -1.976852301614391294e-01 3.322879894512653642e-01 -5.353620166489554411e-01 1.688567054540199841e-01 -3.357235814067087709e-01 5.408064733689719183e-01 5.210014071248985079e-01
-8.328135895862243121e-01 6.300407424422396208e-01 1.101627457473646210e-01 -5.197415446087174651e-01 3.181779570515246292e-01 7.668680080036305302e-01 -6.344118972929777556e-01 -3.534395692971712410e-01
-5.446719416316410101e-01 -2.237692452118853481e-01 7.438094426529822112e-01 -7.352195702418191647e-01 -3.093859208660711957e-01 -9.786328626093836469e-01 -3.307334210573229516e-01 -7.192859540300793331e-01
6.073498094053422225e-01 -5.099596386511413559e-01 6.276481274148493217e-01 -4.606613805150894247e-01 -2.581167419802945506e-01 6.575752252868067860e-01 -6.322588661167360957e-01 -4.538693213604960697e-02
1.000000000000000000e+00 1.000000000000000000e+00 1.000000000000000000e+00 1.000000000000000000e+00 1.000000000000000000e+00 1.000000000000000000e+00 1.000000000000000000e+00 1.000000000000000000e+00
