-7.626264795856183554e-01 1.301968713654955145e-02 -8.752424358766071055e-01 -4.869075333575465514e-01 -7.887078279554637916e-02 2.682220414757894300e-01 -2.564173686609669822e-01 -3.746133995665528182e-01
-1.399853957047771935e-01 3.862933830644046385e-01 -7.464539345050207331e-01 8.031761021018348767e-01 6.434553554363731109e-01 8.666505467270948504e-01 -5.174393272914084019e-01 -8.694283340428168305e-01
-8.084425088787388081e-01 2.655818291896443473e-01 -2.526122620160227150e-01 -5.588297881792054778e-01 -2.996047528844676400e-01 1.035270324527708397e-01 -7.046634982266271052e-01 -9.244231514859375665e-01
-2.934484724896742058e-01 8.717404550381502304e-01 7.280004288992349970e-01 -8.628087931685883838e-01 5.052690541978852590e-01 -1.271637116899477782e-01 -7.632261432847529115e-01 9.029430834480287604e-01
1.000000000000000000e+00 1.000000000000000000e+00 1.000000000000000000e+00 1.000000000000000000e+00 1.000000000000000000e+00 1.000000000000000000e+00 1.000000000000000000e+00 1.000000000000000000e+00
