-5.838810660088855631e-01 -7.248152586041258783e-01 -3.927592437324991526e-01 -1.592471618810995526e-01 -4.951384599522195007e-01 3.337857935349004546e-01 8.835404287589463390e-01 3.816949991862561564e-01
-9.498749698596775648e-01 9.576199609187336925e-01 5.497435627638933564e-01 -3.798462103289990122e-01 -9.781169290958418028e-01 9.695205587442221606e-01 9.717701601066006667e-01 -1.160796411557150076e-01
-2.685324362732848247e-01 6.899802874324516555e-01 2.399018096054335025e-01 -1.143445613812399397e-01 -9.832329552910230586e-01 6.288652436899269116e-01 -6.176295130702880165e-01 -2.756716918955857132e-01
-3.346507872554838059e-02 1.335266048167205177e-01 -3.586450203128850323e-01 -8.387883831413645019e-02 -5.071108181231276379e-01 3.913339095997312445e-01 -2.104467970349439554e-01 -3.192991115452907813e-01
1.000000000000000000e+00 1.000000000000000000e+00 1.000000000000000000e+00 1.000000000000000000e+00 1.000000000000000000e+00 1.000000000000000000e+00 1.000000000000000000e+00 1.000000000000000000e+00
