5.945655918414070040e-01 4.328773467779325479e-01 5.672311925657025355e-02 5.415656664897408046e-01 6.709404836051646726e-03 -2.836932036354664621e-01 9.797312861418845387e-01 -5.680983216265902414e-01
-6.707522686266864653e-02 -8.258955671273169319e-01 -9.761371084097034689e-01 7.037502662123256147e-01 2.670918530001540336e-01 9.806387856609795062e-01 -4.683899852026187638e-01 -9.920178805907700070e-01
-9.219825661896989821e-01 -5.382253013832252186e-01 -2.720932684751882213e-01 9.736072585254917922e-01 7.188750887505901410e-01 -8.793727327253597625e-01 -3.422244592439611655e-01 4.290970006998049424e-01
-1.743769296845751882e-01 7.977542603585461300e-01 -5.022353035955542389e-01 9.889110292074241304e-01 4.705770462181748659e-01 1.499168569915720894e-02 6.150983636284452771e-01 -7.461580252651678347e-01
1.000000000000000000e+00 1.000000000000000000e+00 1.000000000000000000e+00 1.000000000000000000e+00 1.000000000000000000e+00 1.000000000000000000e+00 1.000000000000000000e+00 1.000000000000000000e+00
