6.255626332316148730e-01 -2.831125280683479684e-01 -6.950243568866543153e-01 -9.961833497663463710e-02 -5.767478823844731650e-01 -4.520965009942750079e-01 -5.961783991587141784e-01 8.281703077270816671e-01
-8.958110803333299010e-01 5.122111194634140219e-01 9.950362528589260513e-01 -4.918915107335750658e-01 3.446246185267873852e-01 3.986106968914431281e-01 9.093999861302946019e-01 -1.883581721126830200e-01
-5.215348576190468322e-01 -8.391748494422901494e-01 -1.718968440789461205e-01 7.213044659426770533e-01 -9.106402898869947471e-01 -7.027059580944665651e-01 5.603585046710399808e-01 -9.406138990824330914e-01
2.538266799534552032e-01 4.964620974079094751e-01 -3.348887114437153478e-01 5.297153037656425756e-01 7.536323460210434533e-01 3.002147917320445725e-01 9.045123130507475295e-01 -4.834616657659165373e-01
1.000000000000000000e+00 1.000000000000000000e+00 1.000000000000000000e+00 1.000000000000000000e+00 1.000000000000000000e+00 1.000000000000000000e+00 1.000000000000000000e+00 1.000000000000000000e+00
