-7.555227867574496603e-01 -3.207987154667391039e-01 1.506051574857838471e-01 -6.049385494938657182e-01 2.975552744944467420e-01 -2.742887902590276372e-01 2.299401649762589095e-02 -9.931164154275062828e-01
1.780088417622456287e-01 -5.453015323596637209e-01 5.279412505390790322e-02 -3.317559812159407429e-01 8.666725551941774075e-01 -9.827180274427653739e-01 -1.799933410720295779e-01 7.368979029281395032e-01
2.501736278992372497e-01 -2.084516208706044260e-01 4.436274534573458883e-01 6.354613282918191164e-01 2.598708197662751296e-01 4.093629731715333619e-01 -1.094771847736450976e-01 9.353405342365967989e-01
-5.197870031450737560e-01 -5.680239382433196482e-01 -3.139672479056352383e-01 3.656367076692057516e-01 5.279905045986481582e-01 -2.806382235427276051e-01 3.909643417270864951e-01 -4.411527684974736463e-01
1.000000000000000000e+00 1.000000000000000000e+00 1.000000000000000000e+00 1.000000000000000000e+00 1.000000000000000000e+00 1.000000000000000000e+00 1.000000000000000000e+00 1.000000000000000000e+00
