8.705691093936458458e-01 -8.809447866813964190e-01 9.247334676206759863e-01 -6.667135852910361926e-01 -1.500878485125034523e-01 -6.598314769398101465e-01 -9.819880223469199532e-01 -6.164238538138564483e-01
7.805775789753728322e-01 7.966597743211201177e-02 8.048629892213698955e-01 -3.670750684520542872e-01 4.775513943074050083e-02 8.466052073416892032e-01 2.462397932492896846e-01 3.204409857101684356e-01
-9.030616586797179934e-02 -6.540579407226521091e-02 -7.541250428576582454e-01 3.780741828727156584e-01 4.155805529502254458e-02 5.767921037629395453e-01 8.432294378997027273e-01 -8.536948615851398525e-01
-7.783963183389248641e-01 -1.762096863442388361e-01 8.770589185652488684e-01 -7.406147654735162345e-01 -9.582543920533037607e-01 -1.821205564402259558e-01 3.525471009633678321e-01 2.074713949911564104e-01
1.000000000000000000e+00 1.000000000000000000e+00 1.000000000000000000e+00 1.000000000000000000e+00 1.000000000000000000e+00 1.000000000000000000e+00 1.000000000000000000e+00 1.000000000000000000e+00
