-6.422644192506661298e-01 2.558968970889663463e-01 5.565637937977039318e-01 5.216659354716566277e-01 -7.042613122189442798e-01 1.591225893874208541e-01 -5.240646555173329446e-01 9.053783868041473948e-01
-5.501190754341895861e-01 -7.723014973667985394e-02 -3.984246620456957100e-01 -6.629063432042943127e-01 9.334916951803053919e-01 -6.774764473116854369e-01 7.638971364832958244e-01 3.669451410277693171e-01
-7.841773403901939332e-01 3.410926060010908145e-01 9.788435252088918404e-01 1.552190652443172780e-01 1.752337095743619066e-01 -5.903622221921442925e-01 2.151488476406604455e-02 -3.498164941804025041e-01
-9.473252384595693965e-01 -4.079334344770284559e-01 8.538329101105859298e-01 1.697583849285821955e-01 9.790690981993039887e-01 -8.361664659645495767e-02 3.639837252819311253e-01 7.206125430189602721e-01
1.000000000000000000e+00 1.000000000000000000e+00 1.000000000000000000e+00 1.000000000000000000e+00 1.000000000000000000e+00 1.000000000000000000e+00 1.000000000000000000e+00 1.000000000000000000e+00
