4.201715470862590340e-01 1.204537217008434524e-01 3.423015062855450097e-02 -6.566623562538549397e-01 3.122753297195224320e-01 -1.493561852362357278e-02 -6.882722218321619678e-01 -4.361022068444231348e-01
4.315921235809134782e-01 -1.510660833987789164e-01 1.854923279248343881e-02 -3.037861979443496896e-01 -8.137226260211123385e-01 2.142955056859352503e-01 -9.712769820101612162e-01 -2.966398126633813526e-01
9.649545025665062781e-04 5.979106869136054936e-01 -7.630834420261221052e-01 7.974294158360129003e-02 -7.660304276668616907e-02 2.409781538066193551e-01 2.522695756070205686e-01 -8.185590089082623866e-01
3.708743997816115190e-01 7.695003820277879214e-01 8.417186490921346742e-01 -1.081804439491462766e-01 -8.653707806246571099e-01 1.936008924446674939e-02 1.964901913605174855e-01 2.627771912915566332e-02
1.000000000000000000e+00 1.000000000000000000e+00 1.000000000000000000e+00 1.000000000000000000e+00 1.000000000000000000e+00 1.000000000000000000e+00 1.000000000000000000e+00 1.000000000000000000e+00
