-9.521516348619603054e-01 -6.824788623654913788e-01 3.764975367609677548e-01 -2.831803436094839643e-01 -1.224245167059720973e-01 7.739606247312267318e-01 5.532629982713792582e-01 -5.234859995003371402e-02
1.749001478439378143e-01 4.163591561238302319e-01 -4.831428830468125213e-01 3.068034743412475507e-01 -6.547160875983961681e-01 2.896147776609969693e-01 -1.824465556392107501e-01 2.765555225992222255e-01
-9.266360076849546878e-01 8.337902732239681480e-01 1.526980390075820537e-01 -2.119793936045286653e-01 5.073966895960202450e-01 8.737350054737280658e-02 6.083369630197421607e-01 -1.420957753851188610e-01
5.596432869314635905e-01 -4.040542074758397550e-01 -7.876765655178326053e-01 -1.919123229242176709e-01 -2.549037120070443141e-01 -9.694674204267137441e-01 -2.303045929655627155e-01 -6.753204426976213703e-01
1.000000000000000000e+00 1.000000000000000000e+00 1.000000000000000000e+00 1.000000000000000000e+00 1.000000000000000000e+00 1.000000000000000000e+00 1.000000000000000000e+00 1.000000000000000000e+00
