-2.878269595670313041e-01 7.516372538084947763e-01 5.653601018454392779e-01 8.866222706182709246e-01 1.038223539686837782e-01 4.215772370834047766e-01 6.299000816812183601e-02 8.552466945119567843e-01
-4.777393118394177574e-01 4.083785304122067306e-01 3.633124921363433124e-01 3.953684884456241111e-01 9.261777675823332778e-01 -9.428762014621308030e-01 3.594684684241999939e-02 -6.027861964027625419e-02
-1.359925430201687213e-01 1.457744328326542327e-01 7.030486726174063339e-01 3.860457140125512776e-01 7.229358746919900547e-01 9.608680450164754916e-01 -1.450179935778692641e-01 9.893163393667334660e-01
-3.915210979698646732e-02 3.852898654796992339e-01 -1.723629707327649641e-01 4.009949866600897028e-01 -8.761247287194713351e-01 -5.614815012754759138e-02 -1.208315212094832614e-01 2.150325433973252487e-01
1.000000000000000000e+00 1.000000000000000000e+00 1.000000000000000000e+00 1.000000000000000000e+00 1.000000000000000000e+00 1.000000000000000000e+00 1.000000000000000000e+00 1.000000000000000000e+00
