-5.782485079592243338e-01 -6.518342626131616857e-01 2.241348356843462231e-01 -3.092015699691410546e-01 1.730031952491888347e-01 -2.849605955407574776e-02 3.779834336927174743e-01 -7.225149522749638731e-01
-1.309468973421170634e-01 -9.386528217040401856e-01 -9.392978345175648780e-01 3.229299248447972115e-01 7.769337797601454376e-01 -1.971464439968300120e-01 -9.917622810128425836e-01 -6.053838183483033486e-01
7.151861460821953287e-01 5.486610661769855124e-01 -8.566167846895171856e-01 -5.108848485560657515e-02 -5.753360740045783128e-01 -5.882353820965373625e-01 3.114982064841238518e-01 9.052816706495796506e-01
-8.708059763213937821e-01 -1.391714591739052764e-01 9.608204159954347734e-01 5.781906377694714383e-01 2.071078555562564372e-01 2.761701277004871002e-01 -4.082623553497191082e-01 -4.615420610108313948e-01
1.000000000000000000e+00 1.000000000000000000e+00 1.000000000000000000e+00 1.000000000000000000e+00 1.000000000000000000e+00 1.000000000000000000e+00 1.000000000000000000e+00 1.000000000000000000e+00
