6.028188891805825733e-01 -8.417526642707289231e-01 6.596947595616138305e-01 6.604748679302061554e-01 -5.687195369565754000e-01 3.910249104677760990e-01 -7.186515490844611609e-01 5.600449528057529491e-01
-6.403548793495412728e-01 2.509889775793960887e-02 9.063623991029716720e-01 -8.270674531674933050e-01 -7.685149321223816443e-02 8.169032770054962533e-02 2.602906328510961043e-01 4.338682254793324589e-02
5.616802785842887058e-01 8.496805819604631438e-01 -3.543704573497237220e-01 -2.638635160271576297e-01 -3.226059332838424609e-01 -6.780045995903722922e-01 -6.347833507953259957e-01 6.788656638217487327e-01
-5.189222162728563958e-01 3.096976569665357282e-01 3.763019195705563646e-02 2.857129657638290965e-02 -6.457837469435054878e-01 8.475898586004448898e-01 -4.497170328714081844e-01 -6.322685634115967623e-01
1.000000000000000000e+00 1.000000000000000000e+00 1.000000000000000000e+00 1.000000000000000000e+00 1.000000000000000000e+00 1.000000000000000000e+00 1.000000000000000000e+00 1.000000000000000000e+00
