-5.737252000363020077e-01 -2.910981289388059334e-01 -7.497056903443812814e-01 3.181903700146220260e-01 9.045658677686014837e-01 -4.213768099651140631e-01 1.871531824561627477e-01 -3.831689983652659670e-01
-3.487420427050651472e-01 4.857509211446959796e-01 7.726445921986380139e-01 -7.399341313247600471e-01 -9.366731482726331492e-02 -5.400680953828909114e-01 -4.306447452932049558e-01 2.479129419514414234e-01
-8.699074282757848220e-01 6.778312678530959978e-01 2.200600397849858947e-01 9.046193539261770944e-02 -5.471612715719278430e-01 5.425881535375258746e-01 -8.956383333709079242e-01 9.837782687340737020e-01
-5.027662566471986505e-01 1.821875300658140073e-01 -9.826747586458475237e-01 -4.485656552481622761e-01 -4.599664362444477739e-02 3.631797226671027445e-01 -7.260442077182549525e-02 -1.890454217256705149e-01
1.000000000000000000e+00 1.000000000000000000e+00 1.000000000000000000e+00 1.000000000000000000e+00 1.000000000000000000e+00 1.000000000000000000e+00 1.000000000000000000e+00 1.000000000000000000e+00
