6.907623540756226976e-01 -4.734273484537498966e-01 3.892002191074026562e-01 -5.756050907371745851e-03 -6.375284197121422469e-01 -9.826964752849463025e-01 -7.597021712744937982e-01 2.913514071851004417e-01
-4.462748091066919276e-01 -9.993382835874611292e-01 -4.728330403655012226e-01 -7.940646988513866411e-01 2.453264441678726371e-01 1.309050112423746359e-01 1.443868540377608589e-01 -9.986833177300300513e-01
-9.159573747848761549e-01 2.514784498177500272e-01 3.573789248574630317e-01 9.542003764240081232e-01 -6.893895767258535479e-01 -5.360773347375968889e-02 -1.009045869904103832e-01 -5.494842409254152571e-02
-2.728953931450046611e-01 9.825887391382945868e-01 2.983094902553238281e-01 -3.737372302353720865e-01 -6.852552525631296909e-01 7.479777129789266787e-02 -3.478199627391298510e-01 3.724665189094162887e-01
1.000000000000000000e+00 1.000000000000000000e+00 1.000000000000000000e+00 1.000000000000000000e+00 1.000000000000000000e+00 1.000000000000000000e+00 1.000000000000000000e+00 1.000000000000000000e+00
