<neuralNetwork>
    <neuron name = "0" type = "sensor" linkName = "Torso" />
    <neuron name = "1" type = "sensor" linkName = "BackLeg" />
    <neuron name = "2" type = "sensor" linkName = "FrontLeg" />
    <neuron name = "3" type = "sensor" linkName = "LeftLeg" />
    <neuron name = "4" type = "sensor" linkName = "RightLeg" />
    <neuron name = "5" type = "sensor" linkName = "BackLowerLeg" />
    <neuron name = "6" type = "sensor" linkName = "FrontLowerLeg" />
    <neuron name = "7" type = "sensor" linkName = "LeftLowerLeg" />
    <neuron name = "8" type = "sensor" linkName = "RightLowerLeg" />
    <neuron name = "9" type = "motor"  jointName = "Torso_BackLeg" />
    <neuron name = "10" type = "motor"  jointName = "Torso_FrontLeg" />
    <neuron name = "11" type = "motor"  jointName = "Torso_LeftLeg" />
    <neuron name = "12" type = "motor"  jointName = "Torso_RightLeg" />
    <neuron name = "13" type = "motor"  jointName = "BackLeg_BackLowerLeg" />
    <neuron name = "14" type = "motor"  jointName = "FrontLeg_FrontLowerLeg" />
    <neuron name = "15" type = "motor"  jointName = "LeftLeg_LeftLowerLeg" />
    <neuron name = "16" type = "motor"  jointName = "RightLeg_RightLowerLeg" />
    <synapse sourceNeuronName = "0" targetNeuronName = "9" weight = "-0.9720200098323404" />
    <synapse sourceNeuronName = "0" targetNeuronName = "10" weight = "0.2655155791615247" />
    <synapse sourceNeuronName = "0" targetNeuronName = "11" weight = "-0.09103393540370153" />
    <synapse sourceNeuronName = "0" targetNeuronName = "12" weight = "-0.07440288976229059" />
    <synapse sourceNeuronName = "0" targetNeuronName = "13" weight = "0.75875492888692" />
    <synapse sourceNeuronName = "0" targetNeuronName = "14" weight = "0.013853823433632284" />
    <synapse sourceNeuronName = "0" targetNeuronName = "15" weight = "0.26761420465124863" />
    <synapse sourceNeuronName = "0" targetNeuronName = "16" weight = "-0.6980898754874492" />
    <synapse sourceNeuronName = "1" targetNeuronName = "9" weight = "-0.49054619999989924" />
    <synapse sourceNeuronName = "1" targetNeuronName = "10" weight = "-0.11515658611177848" />
    <synapse sourceNeuronName = "1" targetNeuronName = "11" weight = "-0.3107030554215584" />
    <synapse sourceNeuronName = "1" targetNeuronName = "12" weight = "0.6467766886206108" />
    <synapse sourceNeuronName = "1" targetNeuronName = "13" weight = "0.821870293538181" />
    <synapse sourceNeuronName = "1" targetNeuronName = "14" weight = "-0.9839993552923341" />
    <synapse sourceNeuronName = "1" targetNeuronName = "15" weight = "0.06232702830448744" />
    <synapse sourceNeuronName = "1" targetNeuronName = "16" weight = "-0.09961527914882407" />
    <synapse sourceNeuronName = "2" targetNeuronName = "9" weight = "0.735954060517678" />
    <synapse sourceNeuronName = "2" targetNeuronName = "10" weight = "0.30358289340942" />
    <synapse sourceNeuronName = "2" targetNeuronName = "11" weight = "-0.4540605802860749" />
    <synapse sourceNeuronName = "2" targetNeuronName = "12" weight = "-0.22537029528510422" />
    <synapse sourceNeuronName = "2" targetNeuronName = "13" weight = "-0.15378169067033975" />
    <synapse sourceNeuronName = "2" targetNeuronName = "14" weight = "0.7865662525560666" />
    <synapse sourceNeuronName = "2" targetNeuronName = "15" weight = "-0.8478121561103977" />
    <synapse sourceNeuronName = "2" targetNeuronName = "16" weight = "0.5865226023164303" />
    <synapse sourceNeuronName = "3" targetNeuronName = "9" weight = "-0.19870306407635718" />
    <synapse sourceNeuronName = "3" targetNeuronName = "10" weight = "0.45071269948632064" />
    <synapse sourceNeuronName = "3" targetNeuronName = "11" weight = "0.035695281795848244" />
    <synapse sourceNeuronName = "3" targetNeuronName = "12" weight = "0.37707465334239365" />
    <synapse sourceNeuronName = "3" targetNeuronName = "13" weight = "0.08872107321118117" />
    <synapse sourceNeuronName = "3" targetNeuronName = "14" weight = "0.15503029357356124" />
    <synapse sourceNeuronName = "3" targetNeuronName = "15" weight = "-0.48558043543542384" />
    <synapse sourceNeuronName = "3" targetNeuronName = "16" weight = "-0.3176553125613748" />
    <synapse sourceNeuronName = "4" targetNeuronName = "9" weight = "0.1378561378014136" />
    <synapse sourceNeuronName = "4" targetNeuronName = "10" weight = "-0.7969823883558576" />
    <synapse sourceNeuronName = "4" targetNeuronName = "11" weight = "0.6259183733733293" />
    <synapse sourceNeuronName = "4" targetNeuronName = "12" weight = "0.2908692250719094" />
    <synapse sourceNeuronName = "4" targetNeuronName = "13" weight = "0.07568772567896853" />
    <synapse sourceNeuronName = "4" targetNeuronName = "14" weight = "0.40319248565057775" />
    <synapse sourceNeuronName = "4" targetNeuronName = "15" weight = "-0.4254726194489049" />
    <synapse sourceNeuronName = "4" targetNeuronName = "16" weight = "0.6916723723786036" />
    <synapse sourceNeuronName = "5" targetNeuronName = "9" weight = "0.872320682084379" />
    <synapse sourceNeuronName = "5" targetNeuronName = "10" weight = "-0.7350738553142331" />
    <synapse sourceNeuronName = "5" targetNeuronName = "11" weight = "0.3391214423172" />
    <synapse sourceNeuronName = "5" targetNeuronName = "12" weight = "0.11281378259982966" />
    <synapse sourceNeuronName = "5" targetNeuronName = "13" weight = "0.5928234168352138" />
    <synapse sourceNeuronName = "5" targetNeuronName = "14" weight = "-0.4278991841672617" />
    <synapse sourceNeuronName = "5" targetNeuronName = "15" weight = "0.2618461368049314" />
    <synapse sourceNeuronName = "5" targetNeuronName = "16" weight = "0.9013187684088368" />
    <synapse sourceNeuronName = "6" targetNeuronName = "9" weight = "0.22820530747827528" />
    <synapse sourceNeuronName = "6" targetNeuronName = "10" weight = "-0.27420324405800045" />
    <synapse sourceNeuronName = "6" targetNeuronName = "11" weight = "0.25204684931131704" />
    <synapse sourceNeuronName = "6" targetNeuronName = "12" weight = "-0.4751709453568871" />
    <synapse sourceNeuronName = "6" targetNeuronName = "13" weight = "0.7427424815618864" />
    <synapse sourceNeuronName = "6" targetNeuronName = "14" weight = "-0.07233059627504779" />
    <synapse sourceNeuronName = "6" targetNeuronName = "15" weight = "-0.730725290502642" />
    <synapse sourceNeuronName = "6" targetNeuronName = "16" weight = "0.3830913999039136" />
    <synapse sourceNeuronName = "7" targetNeuronName = "9" weight = "-0.681748962476523" />
    <synapse sourceNeuronName = "7" targetNeuronName = "10" weight = "-0.2528500620171765" />
    <synapse sourceNeuronName = "7" targetNeuronName = "11" weight = "0.550999589747801" />
    <synapse sourceNeuronName = "7" targetNeuronName = "12" weight = "0.6367595266284831" />
    <synapse sourceNeuronName = "7" targetNeuronName = "13" weight = "-0.1870105588174873" />
    <synapse sourceNeuronName = "7" targetNeuronName = "14" weight = "0.35634518393724113" />
    <synapse sourceNeuronName = "7" targetNeuronName = "15" weight = "-0.12323761117131826" />
    <synapse sourceNeuronName = "7" targetNeuronName = "16" weight = "-0.413009860562668" />
    <synapse sourceNeuronName = "8" targetNeuronName = "9" weight = "0.7038076182267496" />
    <synapse sourceNeuronName = "8" targetNeuronName = "10" weight = "0.20978059274538485" />
    <synapse sourceNeuronName = "8" targetNeuronName = "11" weight = "0.45306807104826796" />
    <synapse sourceNeuronName = "8" targetNeuronName = "12" weight = "0.26639111900099954" />
    <synapse sourceNeuronName = "8" targetNeuronName = "13" weight = "-0.36042421581998285" />
    <synapse sourceNeuronName = "8" targetNeuronName = "14" weight = "0.33704700486128836" />
    <synapse sourceNeuronName = "8" targetNeuronName = "15" weight = "-0.27386253503535163" />
    <synapse sourceNeuronName = "8" targetNeuronName = "16" weight = "-0.3596980224609194" />
</neuralNetwork>