<neuralNetwork>
    <neuron name = "0" type = "sensor" linkName = "FrontLowerLeg" />
    <neuron name = "1" type = "sensor" linkName = "BackLowerLeg" />
    <neuron name = "2" type = "sensor" linkName = "LeftLowerLeg" />
    <neuron name = "3" type = "sensor" linkName = "RightLowerLeg" />
    <neuron name = "4" type = "motor"  jointName = "Torso_FrontLeg" />
    <neuron name = "5" type = "motor"  jointName = "Torso_BackLeg" />
    <neuron name = "6" type = "motor"  jointName = "Torso_LeftLeg" />
    <neuron name = "7" type = "motor"  jointName = "Torso_RightLeg" />
    <neuron name = "8" type = "motor"  jointName = "FrontLeg_FrontLowerLeg" />
    <neuron name = "9" type = "motor"  jointName = "BackLeg_BackLowerLeg" />
    <neuron name = "10" type = "motor"  jointName = "LeftLeg_LeftLowerLeg" />
    <neuron name = "11" type = "motor"  jointName = "RightLeg_RightLowerLeg" />
    <synapse sourceNeuronName = "0" targetNeuronName = "4" weight = "-0.9633433236573894" />
    <synapse sourceNeuronName = "0" targetNeuronName = "5" weight = "0.14224636949217762" />
    <synapse sourceNeuronName = "0" targetNeuronName = "6" weight = "0.9358625492154815" />
    <synapse sourceNeuronName = "0" targetNeuronName = "7" weight = "0.8686004372574856" />
    <synapse sourceNeuronName = "0" targetNeuronName = "8" weight = "-0.07603246439647426" />
    <synapse sourceNeuronName = "0" targetNeuronName = "9" weight = "-0.7938095116934476" />
    <synapse sourceNeuronName = "0" targetNeuronName = "10" weight = "0.9053830498740114" />
    <synapse sourceNeuronName = "0" targetNeuronName = "11" weight = "0.08047585589443895" />
    <synapse sourceNeuronName = "1" targetNeuronName = "4" weight = "-0.8045340650055721" />
    <synapse sourceNeuronName = "1" targetNeuronName = "5" weight = "0.014012964152614993" />
    <synapse sourceNeuronName = "1" targetNeuronName = "6" weight = "0.5635802275979485" />
    <synapse sourceNeuronName = "1" targetNeuronName = "7" weight = "0.7087653624004135" />
    <synapse sourceNeuronName = "1" targetNeuronName = "8" weight = "0.8330586536346556" />
    <synapse sourceNeuronName = "1" targetNeuronName = "9" weight = "-0.9797248188436143" />
    <synapse sourceNeuronName = "1" targetNeuronName = "10" weight = "0.543429731503206" />
    <synapse sourceNeuronName = "1" targetNeuronName = "11" weight = "-0.15774511242144507" />
    <synapse sourceNeuronName = "2" targetNeuronName = "4" weight = "0.09784371011825499" />
    <synapse sourceNeuronName = "2" targetNeuronName = "5" weight = "0.5702359316496628" />
    <synapse sourceNeuronName = "2" targetNeuronName = "6" weight = "0.43162505269057294" />
    <synapse sourceNeuronName = "2" targetNeuronName = "7" weight = "-0.6727482425145717" />
    <synapse sourceNeuronName = "2" targetNeuronName = "8" weight = "0.9724179325622664" />
    <synapse sourceNeuronName = "2" targetNeuronName = "9" weight = "-0.5317998848819303" />
    <synapse sourceNeuronName = "2" targetNeuronName = "10" weight = "0.17636848216641332" />
    <synapse sourceNeuronName = "2" targetNeuronName = "11" weight = "0.37732610282418144" />
    <synapse sourceNeuronName = "3" targetNeuronName = "4" weight = "0.4962416424801923" />
    <synapse sourceNeuronName = "3" targetNeuronName = "5" weight = "0.5364496010637909" />
    <synapse sourceNeuronName = "3" targetNeuronName = "6" weight = "-0.3129565505955332" />
    <synapse sourceNeuronName = "3" targetNeuronName = "7" weight = "-0.22691568185631117" />
    <synapse sourceNeuronName = "3" targetNeuronName = "8" weight = "0.47102775144698894" />
    <synapse sourceNeuronName = "3" targetNeuronName = "9" weight = "-0.7406150668268552" />
    <synapse sourceNeuronName = "3" targetNeuronName = "10" weight = "-0.9786625545952712" />
    <synapse sourceNeuronName = "3" targetNeuronName = "11" weight = "-0.23275624724498867" />
</neuralNetwork>