<neuralNetwork>
    <neuron name = "0" type = "sensor" linkName = "FrontLowerLeg" />
    <neuron name = "1" type = "sensor" linkName = "BackLowerLeg" />
    <neuron name = "2" type = "sensor" linkName = "LeftLowerLeg" />
    <neuron name = "3" type = "sensor" linkName = "RightLowerLeg" />
    <neuron name = "4" type = "motor"  jointName = "Torso_FrontLeg" />
    <neuron name = "5" type = "motor"  jointName = "Torso_BackLeg" />
    <neuron name = "6" type = "motor"  jointName = "Torso_LeftLeg" />
    <neuron name = "7" type = "motor"  jointName = "Torso_RightLeg" />
    <neuron name = "8" type = "motor"  jointName = "FrontLeg_FrontLowerLeg" />
    <neuron name = "9" type = "motor"  jointName = "BackLeg_BackLowerLeg" />
    <neuron name = "10" type = "motor"  jointName = "LeftLeg_LeftLowerLeg" />
    <neuron name = "11" type = "motor"  jointName = "RightLeg_RightLowerLeg" />
    <synapse sourceNeuronName = "0" targetNeuronName = "4" weight = "0.4895012339426277" />
    <synapse sourceNeuronName = "0" targetNeuronName = "5" weight = "0.5961670049938981" />
    <synapse sourceNeuronName = "0" targetNeuronName = "6" weight = "-0.9035177930821219" />
    <synapse sourceNeuronName = "0" targetNeuronName = "7" weight = "-0.5193992331773594" />
    <synapse sourceNeuronName = "0" targetNeuronName = "8" weight = "0.40081864697892855" />
    <synapse sourceNeuronName = "0" targetNeuronName = "9" weight = "0.7308393209114223" />
    <synapse sourceNeuronName = "0" targetNeuronName = "10" weight = "0.6979243529355146" />
    <synapse sourceNeuronName = "0" targetNeuronName = "11" weight = "-0.7685550410287902" />
    <synapse sourceNeuronName = "1" targetNeuronName = "4" weight = "0.4910037506869953" />
    <synapse sourceNeuronName = "1" targetNeuronName = "5" weight = "0.021514627659632524" />
    <synapse sourceNeuronName = "1" targetNeuronName = "6" weight = "0.8277598995672513" />
    <synapse sourceNeuronName = "1" targetNeuronName = "7" weight = "-0.8974330657303993" />
    <synapse sourceNeuronName = "1" targetNeuronName = "8" weight = "0.30995195235033157" />
    <synapse sourceNeuronName = "1" targetNeuronName = "9" weight = "-0.968302746193169" />
    <synapse sourceNeuronName = "1" targetNeuronName = "10" weight = "-0.09650490625980179" />
    <synapse sourceNeuronName = "1" targetNeuronName = "11" weight = "-0.7938118310193456" />
    <synapse sourceNeuronName = "2" targetNeuronName = "4" weight = "-0.03777479596182376" />
    <synapse sourceNeuronName = "2" targetNeuronName = "5" weight = "-0.33133011149095437" />
    <synapse sourceNeuronName = "2" targetNeuronName = "6" weight = "0.7065161465544831" />
    <synapse sourceNeuronName = "2" targetNeuronName = "7" weight = "0.4079846318323941" />
    <synapse sourceNeuronName = "2" targetNeuronName = "8" weight = "0.8973733048620705" />
    <synapse sourceNeuronName = "2" targetNeuronName = "9" weight = "0.36234407825021187" />
    <synapse sourceNeuronName = "2" targetNeuronName = "10" weight = "0.6238124088990358" />
    <synapse sourceNeuronName = "2" targetNeuronName = "11" weight = "0.14778866231192356" />
    <synapse sourceNeuronName = "3" targetNeuronName = "4" weight = "-0.10149492341066946" />
    <synapse sourceNeuronName = "3" targetNeuronName = "5" weight = "-0.5509947609624606" />
    <synapse sourceNeuronName = "3" targetNeuronName = "6" weight = "0.10681569217810094" />
    <synapse sourceNeuronName = "3" targetNeuronName = "7" weight = "0.15703922656283464" />
    <synapse sourceNeuronName = "3" targetNeuronName = "8" weight = "0.7767027811698712" />
    <synapse sourceNeuronName = "3" targetNeuronName = "9" weight = "-0.46920434896683094" />
    <synapse sourceNeuronName = "3" targetNeuronName = "10" weight = "0.7173773802581427" />
    <synapse sourceNeuronName = "3" targetNeuronName = "11" weight = "-0.16886839205413806" />
</neuralNetwork>