<neuralNetwork>
    <neuron name = "0" type = "sensor" linkName = "FrontLowerLeg" />
    <neuron name = "1" type = "sensor" linkName = "BackLowerLeg" />
    <neuron name = "2" type = "sensor" linkName = "LeftLowerLeg" />
    <neuron name = "3" type = "sensor" linkName = "RightLowerLeg" />
    <neuron name = "4" type = "motor"  jointName = "Torso_FrontLeg" />
    <neuron name = "5" type = "motor"  jointName = "Torso_BackLeg" />
    <neuron name = "6" type = "motor"  jointName = "Torso_LeftLeg" />
    <neuron name = "7" type = "motor"  jointName = "Torso_RightLeg" />
    <neuron name = "8" type = "motor"  jointName = "FrontLeg_FrontLowerLeg" />
    <neuron name = "9" type = "motor"  jointName = "BackLeg_BackLowerLeg" />
    <neuron name = "10" type = "motor"  jointName = "LeftLeg_LeftLowerLeg" />
    <neuron name = "11" type = "motor"  jointName = "RightLeg_RightLowerLeg" />
    <synapse sourceNeuronName = "0" targetNeuronName = "4" weight = "0.1823707258548981" />
    <synapse sourceNeuronName = "0" targetNeuronName = "5" weight = "0.06285889921999521" />
    <synapse sourceNeuronName = "0" targetNeuronName = "6" weight = "0.5278352290754842" />
    <synapse sourceNeuronName = "0" targetNeuronName = "7" weight = "0.38225966812738066" />
    <synapse sourceNeuronName = "0" targetNeuronName = "8" weight = "0.2742922138604684" />
    <synapse sourceNeuronName = "0" targetNeuronName = "9" weight = "-0.1953148400069591" />
    <synapse sourceNeuronName = "0" targetNeuronName = "10" weight = "-0.7257787994128668" />
    <synapse sourceNeuronName = "0" targetNeuronName = "11" weight = "0.6232673810756051" />
    <synapse sourceNeuronName = "1" targetNeuronName = "4" weight = "0.30879503467700276" />
    <synapse sourceNeuronName = "1" targetNeuronName = "5" weight = "-0.3558922715687636" />
    <synapse sourceNeuronName = "1" targetNeuronName = "6" weight = "0.29783229814480294" />
    <synapse sourceNeuronName = "1" targetNeuronName = "7" weight = "-0.06047764885641249" />
    <synapse sourceNeuronName = "1" targetNeuronName = "8" weight = "-0.08462387714828545" />
    <synapse sourceNeuronName = "1" targetNeuronName = "9" weight = "0.41937593800104067" />
    <synapse sourceNeuronName = "1" targetNeuronName = "10" weight = "-0.7249837190677555" />
    <synapse sourceNeuronName = "1" targetNeuronName = "11" weight = "-0.6180710181699554" />
    <synapse sourceNeuronName = "2" targetNeuronName = "4" weight = "0.13669629762288849" />
    <synapse sourceNeuronName = "2" targetNeuronName = "5" weight = "-0.17946493293719246" />
    <synapse sourceNeuronName = "2" targetNeuronName = "6" weight = "0.16828769017950407" />
    <synapse sourceNeuronName = "2" targetNeuronName = "7" weight = "-0.18384146038453775" />
    <synapse sourceNeuronName = "2" targetNeuronName = "8" weight = "-0.29284668391293445" />
    <synapse sourceNeuronName = "2" targetNeuronName = "9" weight = "0.31770891882286034" />
    <synapse sourceNeuronName = "2" targetNeuronName = "10" weight = "-0.03233974686847607" />
    <synapse sourceNeuronName = "2" targetNeuronName = "11" weight = "-0.5798678341998649" />
    <synapse sourceNeuronName = "3" targetNeuronName = "4" weight = "-0.7714454451659352" />
    <synapse sourceNeuronName = "3" targetNeuronName = "5" weight = "-0.4603808740284303" />
    <synapse sourceNeuronName = "3" targetNeuronName = "6" weight = "0.05494271376748294" />
    <synapse sourceNeuronName = "3" targetNeuronName = "7" weight = "-0.6508053028587939" />
    <synapse sourceNeuronName = "3" targetNeuronName = "8" weight = "0.7033817409615322" />
    <synapse sourceNeuronName = "3" targetNeuronName = "9" weight = "0.6460190209952978" />
    <synapse sourceNeuronName = "3" targetNeuronName = "10" weight = "0.660155122452172" />
    <synapse sourceNeuronName = "3" targetNeuronName = "11" weight = "-0.889173317726609" />
</neuralNetwork>