<neuralNetwork>
    <neuron name = "0" type = "sensor" linkName = "FrontLowerLeg" />
    <neuron name = "1" type = "sensor" linkName = "BackLowerLeg" />
    <neuron name = "2" type = "sensor" linkName = "LeftLowerLeg" />
    <neuron name = "3" type = "sensor" linkName = "RightLowerLeg" />
    <neuron name = "4" type = "motor"  jointName = "Torso_FrontLeg" />
    <neuron name = "5" type = "motor"  jointName = "Torso_BackLeg" />
    <neuron name = "6" type = "motor"  jointName = "Torso_LeftLeg" />
    <neuron name = "7" type = "motor"  jointName = "Torso_RightLeg" />
    <neuron name = "8" type = "motor"  jointName = "FrontLeg_FrontLowerLeg" />
    <neuron name = "9" type = "motor"  jointName = "BackLeg_BackLowerLeg" />
    <neuron name = "10" type = "motor"  jointName = "LeftLeg_LeftLowerLeg" />
    <neuron name = "11" type = "motor"  jointName = "RightLeg_RightLowerLeg" />
    <synapse sourceNeuronName = "0" targetNeuronName = "4" weight = "-0.12607116770333615" />
    <synapse sourceNeuronName = "0" targetNeuronName = "5" weight = "-0.9190616842604966" />
    <synapse sourceNeuronName = "0" targetNeuronName = "6" weight = "-0.3716108132909779" />
    <synapse sourceNeuronName = "0" targetNeuronName = "7" weight = "0.24472596787596945" />
    <synapse sourceNeuronName = "0" targetNeuronName = "8" weight = "0.38733430390007273" />
    <synapse sourceNeuronName = "0" targetNeuronName = "9" weight = "-0.6456290133027329" />
    <synapse sourceNeuronName = "0" targetNeuronName = "10" weight = "0.9868018500153255" />
    <synapse sourceNeuronName = "0" targetNeuronName = "11" weight = "-0.3529215598311799" />
    <synapse sourceNeuronName = "1" targetNeuronName = "4" weight = "0.9211903922127427" />
    <synapse sourceNeuronName = "1" targetNeuronName = "5" weight = "-0.19644514909078592" />
    <synapse sourceNeuronName = "1" targetNeuronName = "6" weight = "-0.7503225191917682" />
    <synapse sourceNeuronName = "1" targetNeuronName = "7" weight = "-0.9997856863523464" />
    <synapse sourceNeuronName = "1" targetNeuronName = "8" weight = "-0.5797480928160348" />
    <synapse sourceNeuronName = "1" targetNeuronName = "9" weight = "0.10794687385523427" />
    <synapse sourceNeuronName = "1" targetNeuronName = "10" weight = "-0.1586916015406603" />
    <synapse sourceNeuronName = "1" targetNeuronName = "11" weight = "0.5956935398881031" />
    <synapse sourceNeuronName = "2" targetNeuronName = "4" weight = "-0.6230595220640918" />
    <synapse sourceNeuronName = "2" targetNeuronName = "5" weight = "0.049462267168235874" />
    <synapse sourceNeuronName = "2" targetNeuronName = "6" weight = "0.18747412216962167" />
    <synapse sourceNeuronName = "2" targetNeuronName = "7" weight = "0.7665026932778489" />
    <synapse sourceNeuronName = "2" targetNeuronName = "8" weight = "0.7188062949037703" />
    <synapse sourceNeuronName = "2" targetNeuronName = "9" weight = "-0.45599134678502606" />
    <synapse sourceNeuronName = "2" targetNeuronName = "10" weight = "0.24658647285465118" />
    <synapse sourceNeuronName = "2" targetNeuronName = "11" weight = "0.09140600277171118" />
    <synapse sourceNeuronName = "3" targetNeuronName = "4" weight = "0.21074518689575128" />
    <synapse sourceNeuronName = "3" targetNeuronName = "5" weight = "-0.5200689575750321" />
    <synapse sourceNeuronName = "3" targetNeuronName = "6" weight = "-0.4694504139161726" />
    <synapse sourceNeuronName = "3" targetNeuronName = "7" weight = "-0.7044004669100763" />
    <synapse sourceNeuronName = "3" targetNeuronName = "8" weight = "-0.7608516977903776" />
    <synapse sourceNeuronName = "3" targetNeuronName = "9" weight = "0.5327023950128196" />
    <synapse sourceNeuronName = "3" targetNeuronName = "10" weight = "-0.4825002420734168" />
    <synapse sourceNeuronName = "3" targetNeuronName = "11" weight = "0.13389818068963133" />
</neuralNetwork>