<neuralNetwork>
    <neuron name = "0" type = "sensor" linkName = "FrontLowerLeg" />
    <neuron name = "1" type = "sensor" linkName = "BackLowerLeg" />
    <neuron name = "2" type = "sensor" linkName = "LeftLowerLeg" />
    <neuron name = "3" type = "sensor" linkName = "RightLowerLeg" />
    <neuron name = "4" type = "motor"  jointName = "Torso_FrontLeg" />
    <neuron name = "5" type = "motor"  jointName = "Torso_BackLeg" />
    <neuron name = "6" type = "motor"  jointName = "Torso_LeftLeg" />
    <neuron name = "7" type = "motor"  jointName = "Torso_RightLeg" />
    <neuron name = "8" type = "motor"  jointName = "FrontLeg_FrontLowerLeg" />
    <neuron name = "9" type = "motor"  jointName = "BackLeg_BackLowerLeg" />
    <neuron name = "10" type = "motor"  jointName = "LeftLeg_LeftLowerLeg" />
    <neuron name = "11" type = "motor"  jointName = "RightLeg_RightLowerLeg" />
    <synapse sourceNeuronName = "0" targetNeuronName = "4" weight = "0.23938200044061242" />
    <synapse sourceNeuronName = "0" targetNeuronName = "5" weight = "0.8803321683429046" />
    <synapse sourceNeuronName = "0" targetNeuronName = "6" weight = "-0.49245988674417585" />
    <synapse sourceNeuronName = "0" targetNeuronName = "7" weight = "0.6764116644293021" />
    <synapse sourceNeuronName = "0" targetNeuronName = "8" weight = "0.42088070968068614" />
    <synapse sourceNeuronName = "0" targetNeuronName = "9" weight = "-0.8451083775485313" />
    <synapse sourceNeuronName = "0" targetNeuronName = "10" weight = "0.7387351657177634" />
    <synapse sourceNeuronName = "0" targetNeuronName = "11" weight = "0.062321978091016694" />
    <synapse sourceNeuronName = "1" targetNeuronName = "4" weight = "-0.1763714100406777" />
    <synapse sourceNeuronName = "1" targetNeuronName = "5" weight = "-0.8106694912251313" />
    <synapse sourceNeuronName = "1" targetNeuronName = "6" weight = "-0.2678779836327805" />
    <synapse sourceNeuronName = "1" targetNeuronName = "7" weight = "0.6798995328424504" />
    <synapse sourceNeuronName = "1" targetNeuronName = "8" weight = "-0.19081062803190063" />
    <synapse sourceNeuronName = "1" targetNeuronName = "9" weight = "0.14952461624194258" />
    <synapse sourceNeuronName = "1" targetNeuronName = "10" weight = "0.7335556030673254" />
    <synapse sourceNeuronName = "1" targetNeuronName = "11" weight = "-0.5161945888120203" />
    <synapse sourceNeuronName = "2" targetNeuronName = "4" weight = "0.9239352526250224" />
    <synapse sourceNeuronName = "2" targetNeuronName = "5" weight = "0.8413156200146545" />
    <synapse sourceNeuronName = "2" targetNeuronName = "6" weight = "-0.13203168337959714" />
    <synapse sourceNeuronName = "2" targetNeuronName = "7" weight = "-0.8128829742121089" />
    <synapse sourceNeuronName = "2" targetNeuronName = "8" weight = "-0.804237637145728" />
    <synapse sourceNeuronName = "2" targetNeuronName = "9" weight = "0.06312312606803161" />
    <synapse sourceNeuronName = "2" targetNeuronName = "10" weight = "0.3882583654073819" />
    <synapse sourceNeuronName = "2" targetNeuronName = "11" weight = "-0.01694970170564103" />
    <synapse sourceNeuronName = "3" targetNeuronName = "4" weight = "0.17967628589848283" />
    <synapse sourceNeuronName = "3" targetNeuronName = "5" weight = "-0.18434959069264556" />
    <synapse sourceNeuronName = "3" targetNeuronName = "6" weight = "-0.25890878416195284" />
    <synapse sourceNeuronName = "3" targetNeuronName = "7" weight = "-0.31321968171641434" />
    <synapse sourceNeuronName = "3" targetNeuronName = "8" weight = "-0.7249370448489543" />
    <synapse sourceNeuronName = "3" targetNeuronName = "9" weight = "-0.038725301646855836" />
    <synapse sourceNeuronName = "3" targetNeuronName = "10" weight = "0.5740627917308434" />
    <synapse sourceNeuronName = "3" targetNeuronName = "11" weight = "-0.33535383802628815" />
</neuralNetwork>