<neuralNetwork>
    <neuron name = "0" type = "sensor" linkName = "FrontLowerLeg" />
    <neuron name = "1" type = "sensor" linkName = "BackLowerLeg" />
    <neuron name = "2" type = "sensor" linkName = "LeftLowerLeg" />
    <neuron name = "3" type = "sensor" linkName = "RightLowerLeg" />
    <neuron name = "4" type = "motor"  jointName = "Torso_FrontLeg" />
    <neuron name = "5" type = "motor"  jointName = "Torso_BackLeg" />
    <neuron name = "6" type = "motor"  jointName = "Torso_LeftLeg" />
    <neuron name = "7" type = "motor"  jointName = "Torso_RightLeg" />
    <neuron name = "8" type = "motor"  jointName = "FrontLeg_FrontLowerLeg" />
    <neuron name = "9" type = "motor"  jointName = "BackLeg_BackLowerLeg" />
    <neuron name = "10" type = "motor"  jointName = "LeftLeg_LeftLowerLeg" />
    <neuron name = "11" type = "motor"  jointName = "RightLeg_RightLowerLeg" />
    <synapse sourceNeuronName = "0" targetNeuronName = "4" weight = "0.017249378060373965" />
    <synapse sourceNeuronName = "0" targetNeuronName = "5" weight = "0.870552854145666" />
    <synapse sourceNeuronName = "0" targetNeuronName = "6" weight = "0.733004673438544" />
    <synapse sourceNeuronName = "0" targetNeuronName = "7" weight = "-0.42068054494045803" />
    <synapse sourceNeuronName = "0" targetNeuronName = "8" weight = "0.9286877016805282" />
    <synapse sourceNeuronName = "0" targetNeuronName = "9" weight = "-0.36033251724550763" />
    <synapse sourceNeuronName = "0" targetNeuronName = "10" weight = "0.21039191946129576" />
    <synapse sourceNeuronName = "0" targetNeuronName = "11" weight = "0.9046109823200239" />
    <synapse sourceNeuronName = "1" targetNeuronName = "4" weight = "0.2934343811094786" />
    <synapse sourceNeuronName = "1" targetNeuronName = "5" weight = "-0.7052015529658529" />
    <synapse sourceNeuronName = "1" targetNeuronName = "6" weight = "-0.373259308203455" />
    <synapse sourceNeuronName = "1" targetNeuronName = "7" weight = "0.5263542383036934" />
    <synapse sourceNeuronName = "1" targetNeuronName = "8" weight = "-0.9443050900899712" />
    <synapse sourceNeuronName = "1" targetNeuronName = "9" weight = "0.22684790811810607" />
    <synapse sourceNeuronName = "1" targetNeuronName = "10" weight = "0.14333201717167054" />
    <synapse sourceNeuronName = "1" targetNeuronName = "11" weight = "-0.16107303517043214" />
    <synapse sourceNeuronName = "2" targetNeuronName = "4" weight = "0.4685817158759087" />
    <synapse sourceNeuronName = "2" targetNeuronName = "5" weight = "0.00015359576988149826" />
    <synapse sourceNeuronName = "2" targetNeuronName = "6" weight = "0.15106274124990748" />
    <synapse sourceNeuronName = "2" targetNeuronName = "7" weight = "-0.811269955949306" />
    <synapse sourceNeuronName = "2" targetNeuronName = "8" weight = "0.03244617989676102" />
    <synapse sourceNeuronName = "2" targetNeuronName = "9" weight = "-0.7602230607688594" />
    <synapse sourceNeuronName = "2" targetNeuronName = "10" weight = "0.7544435862952876" />
    <synapse sourceNeuronName = "2" targetNeuronName = "11" weight = "0.09811909429977295" />
    <synapse sourceNeuronName = "3" targetNeuronName = "4" weight = "0.5673238193933772" />
    <synapse sourceNeuronName = "3" targetNeuronName = "5" weight = "0.6366348764716334" />
    <synapse sourceNeuronName = "3" targetNeuronName = "6" weight = "-0.7765972397946765" />
    <synapse sourceNeuronName = "3" targetNeuronName = "7" weight = "-0.40585138075343097" />
    <synapse sourceNeuronName = "3" targetNeuronName = "8" weight = "-0.1174828516806492" />
    <synapse sourceNeuronName = "3" targetNeuronName = "9" weight = "-0.1535100401808862" />
    <synapse sourceNeuronName = "3" targetNeuronName = "10" weight = "0.6727352476620228" />
    <synapse sourceNeuronName = "3" targetNeuronName = "11" weight = "-0.7144132178651998" />
</neuralNetwork>