-8.794574662217633509e-01 -6.179339731483319831e-01 -1.037660990269786421e-01 8.972205513580699954e-01 6.199156656286370914e-01 -5.263438304683276669e-01 -8.979712414897782491e-01 9.322739078514432620e-01
-2.060990841534171558e-02 -4.046748739535050987e-01 6.365200151791474692e-01 2.169445206432472073e-01 5.607994769333020102e-01 -2.625311328893720209e-01 -2.331127259251766226e-01 -3.831997222303962225e-02
-5.215406801986088858e-02 1.691192007730464297e-01 9.903460772708045923e-01 -6.448884786123545432e-01 -2.319208518199780134e-01 -3.444347171282748921e-01 2.673913214689582762e-01 6.952275464942971883e-01
3.632315447165856970e-01 1.732239393436509900e-01 7.903558033660673665e-02 9.703412642148689926e-03 8.637849256979097667e-01 3.472089151488715331e-01 -6.177224012343662807e-01 5.456147474517647478e-01
8.967218073491457497e-01 8.018796379047525846e-01 1.300679817535730365e+00 1.387729908251182032e+00 5.809703958270450164e-01 1.212008540939970569e+00 1.323514326595524260e+00 7.507360916820781105e-01
