6.553745771300596434e-01 6.206048116639630852e-01 6.424783061750065638e-01 -2.046924047316878159e-01 2.994434197964290778e-01 -7.420494684031540000e-01 4.507818357891961725e-01 5.251059737803474015e-01
-5.042902681219567640e-01 -8.500025647971547471e-01 7.125236322157402213e-02 -5.185163524742855135e-01 -1.992404526941107257e-01 9.195998882142450981e-01 8.005082719051621609e-01 2.777959725308372096e-01
-1.511542442277138409e-01 8.905327812898795603e-01 -4.156293276749336574e-01 3.921248773111030150e-01 5.665717040627815670e-02 -3.993469068022121871e-01 5.678459138910625370e-01 -6.283469103257695032e-01
-3.876400901418159961e-01 -3.528644697602436597e-01 9.938424344047891434e-01 4.932470587466921685e-01 2.433691628151264386e-01 4.701093711013941689e-01 5.295588425741848404e-01 -8.012017746452715361e-01
1.248360803175626366e+00 8.275670095454693564e-01 7.773282067119222649e-01 1.149637686238822010e+00 1.379477835164211630e+00 9.997951677275793703e-01 1.373127023242384670e+00 1.392508801607408753e+00
