-5.172205020799092168e-01 5.218643055282272680e-01 -2.675220387566461522e-01 -8.336391243332372802e-01 2.072353454471098644e-03 4.320445188596491182e-01 1.322856917403474331e-01 2.949930131207612050e-01
5.812115368771608725e-01 -6.219119127128847069e-01 1.319642879436162541e-01 4.242633427491582232e-01 4.134907749324809867e-01 -6.000842764639808813e-01 -2.634612547883126155e-01 8.745383556665144997e-01
6.187482544803140083e-01 -4.681866310284599209e-02 5.990778922734705247e-01 5.312930527234589473e-01 9.777939689101580178e-01 -2.415834117122648284e-01 4.518167246900675060e-01 4.122986955516494412e-02
4.702257620897691837e-01 9.257888703361691896e-01 1.185045044046693086e-01 -1.775595152338842464e-01 -8.124732938529295456e-01 -4.705732541754035214e-01 -7.783647521392176305e-01 4.730555232826818557e-01
1.430660457035950905e+00 9.351914178166491620e-01 1.278613555730607754e+00 1.175418295220897358e+00 7.209688447726719795e-01 5.330635891117539993e-01 6.125997341522947393e-01 7.206735730178932542e-01
