8.796796922653657980e-01 9.500730371711303412e-01 -6.620387982742887978e-01 6.083787021562869768e-03 -5.399208991179627048e-01 -9.268257793976768522e-01 8.567788653544876620e-01 2.116287230869651204e-02
8.303706146401272914e-01 -1.814743208364428817e-01 -3.555564007638611912e-02 -6.296290191247400081e-02 -5.563930292730148164e-01 4.549713545164564277e-01 -1.549251487482461442e-02 -2.391033491953646895e-01
-9.023365492769939156e-01 5.399788194781758310e-01 9.243345182030349161e-01 -1.341854927922889740e-01 6.159337904818642517e-01 2.260114492840232803e-01 -6.576691361102249278e-01 4.994281343222926051e-01
-2.399974157309900935e-01 -8.534620711830220863e-02 5.642836496278960112e-01 -9.066150518755611287e-02 2.201600672671637504e-01 -9.769313128135128643e-01 -6.586787066628934095e-01 -3.330543195828539194e-01
1.066088044983550365e+00 6.027101996303633191e-01 1.390926095626877190e+00 1.003927007547595451e+00 1.358790412044771578e+00 7.925665954764791188e-01 8.241109578272564073e-01 8.974847701174547554e-01
