-9.920065304305736298e-01 6.298829003452504072e-01 9.942851026451409169e-01 -7.863275894625987306e-01 6.561027476114125179e-01 8.069288552177706908e-01 -8.198552555769014205e-01 -5.927185751019199422e-01
1.524943995282512788e-02 -2.544819116628462830e-01 -7.571926576953049715e-01 -6.484840170722125929e-01 8.666830182746043665e-01 -6.520323765266908822e-01 2.330642820392989645e-01 9.129838274120327668e-01
-6.784735138461261972e-01 -3.818976336777484271e-01 9.295652145128496802e-01 -2.619895495598711932e-03 -6.390815979110744394e-01 -4.538364038243880572e-01 -3.964792610389125116e-01 1.022830923174402606e-01
6.013609835066906495e-01 -8.670961552878684309e-01 -6.001691315154822348e-01 7.765994223644636651e-01 5.433944667024610542e-01 3.504258907545152457e-01 1.802934702253742305e-01 -2.301745253481679576e-01
8.889195422072155850e-01 1.000613317599644780e+00 1.313550264312197680e+00 1.467745399465446798e+00 7.546066064816131513e-01 1.142910114815886669e+00 7.385228813934028302e-01 8.341528681622396579e-01
