5.187425401881169407e-01 -6.486392044893594111e-01 -1.026099332020347088e-01 2.117424719933356236e-01 7.739859968092608344e-01 -8.362240157967493204e-03 8.482100783782247078e-01 1.624965132087317077e-01
-6.707982197896420473e-01 -7.355005265668805858e-01 -3.131164386855693760e-01 5.793766416240644368e-01 7.498213846740773292e-01 -8.472438933604653499e-01 7.363411683257641283e-01 2.780900859785089274e-01
-2.067746031149764185e-01 -5.632189646316103637e-01 9.329820854174553091e-01 5.596839121008521101e-01 3.825428431193520495e-01 -5.888743839767784927e-01 9.740826224584919757e-02 -8.643068492695915594e-02
-2.158044262654503775e-01 -4.499056841392543582e-01 6.528768914573184201e-01 3.725792075917442325e-01 8.074872789325060474e-02 3.401663736553601769e-01 -9.845033047008251437e-01 2.136064537866269042e-01
9.353499063379958622e-01 1.436868171134773053e+00 1.448212917329875449e+00 1.383437670253743867e+00 1.354621086795930740e+00 1.365165980087562847e+00 1.150885175478652878e+00 1.128437463513388472e+00
