7.856637824231134104e-01 8.323510525426796036e-01 -2.257506628099137380e-01 -6.780029448227369304e-01 4.941470467515458598e-01 2.605997820706751344e-01 -3.215866013400889845e-01 -5.757729912288926943e-01
2.276613898829822347e-01 2.750445842134243701e-01 9.214755584110663200e-01 -6.090610416988773146e-01 6.196815013829140018e-01 -1.680351438142648757e-01 -7.678861872910089925e-01 2.182925010761387341e-01
3.246061257261503297e-01 5.950863116308529044e-01 -6.927434014500879478e-01 -1.263706807929110276e-02 -8.007756681433473300e-01 -8.671042279496570249e-01 -8.520520474141251022e-01 3.657240545709607993e-01
2.089004482754590608e-01 9.790191736719038307e-01 -4.417458816477481953e-02 -5.354964457202104899e-01 -9.963036769491688815e-01 3.704460688699611204e-01 1.308153834300385121e-02 8.603921056140646506e-01
9.007432838468569791e-01 7.283672496620963166e-01 6.802294918096036813e-01 1.153299969742634934e+00 6.238192434829713529e-01 8.715385896793049758e-01 8.008891392337831316e-01 6.881147594905605569e-01
