-6.087677131484381388e-01 3.580692989154865558e-01 8.860684976617847486e-01 5.938803737538058680e-01 -1.770509926203536200e-01 9.247346790033383890e-01 -6.289938526502143468e-01 1.682890969167922801e-01
-9.505054337110625529e-01 4.863039536599633728e-01 -2.746671740845363363e-01 8.589263639579010068e-01 2.465908356708756966e-01 2.730625611539134745e-01 -5.580830984666778072e-01 -6.156478816040547031e-01
-4.398396178149894808e-01 7.070424347484660643e-01 -1.397629222658602899e-01 9.328717643422226313e-01 -1.499681353526571836e-01 9.609399643192231277e-01 -8.084973758515887621e-01 7.766917103561750135e-01
5.431128112844898492e-01 -5.165949108559257930e-01 -3.702750858832981606e-02 6.420140296557841353e-02 6.808007035035812393e-03 6.544601967072258830e-01 -4.644919232823068178e-01 -3.044392548852892233e-01
7.600474162366254172e-01 8.234829014109541490e-01 1.395274435577103844e+00 9.614644331024669865e-01 1.373001911797239849e+00 7.381894744707839795e-01 5.731221323442965421e-01 1.139818997876323792e+00
