-9.459629428315374788e-01 -2.673422054647238699e-01 -6.988671426475401294e-01 8.673373420875751805e-02 -6.235675299424441320e-01 5.609677755244901753e-01 9.477264879904765404e-01 -9.908247620435894909e-02
4.777260943447991792e-02 -9.859344432516614631e-02 -4.108843686837855280e-01 3.774207168186878292e-01 7.426478105912526217e-02 3.234660587534430309e-01 -2.731775975037973314e-01 -8.420225715621347806e-01
2.204186661406026815e-01 5.067931452050045138e-02 5.577699600141321490e-01 -1.613509493144640317e-01 2.547939938805872107e-01 5.365516692311966818e-01 -5.937603341437975857e-01 5.989451094405910947e-01
1.671389062002024417e-01 -4.420557972873941921e-01 6.324549346620971235e-01 -5.607620895143679007e-01 -1.912681881412359175e-01 5.118871915163656361e-01 3.981215512591465000e-01 6.702747375121544948e-01
1.200908765339268047e+00 1.348525429302640966e+00 8.588839749188743600e-01 1.303363401336263827e+00 1.029479571416258565e+00 8.609181402345673639e-01 1.236239153315529915e+00 7.050219511109079296e-01
