9.161497900300805686e-01 -8.353694047550475066e-01 5.028456410288861811e-01 2.874998583445418365e-01 9.119278824408141304e-01 -8.775402488938062184e-01 5.926901999361633422e-02 -9.298014454720258115e-01
-5.715230340292507538e-01 8.593687348649752256e-01 5.999096388763032195e-01 7.160442658715886477e-01 4.715334173866951861e-01 -9.994552913274135086e-01 3.901379235050792538e-01 3.374861953765315725e-01
-3.480428896268445982e-01 -4.664659843879062073e-01 2.397046907047588604e-01 -5.860694769231546974e-01 3.602105051019912629e-01 -9.886937539060092206e-02 -6.885315301970778012e-01 1.909488919246919991e-01
-7.689378141989395843e-01 -3.502006102592785108e-01 6.465239434421363729e-01 -9.990651338947544868e-01 1.901277305046122912e-02 8.938700368464296275e-01 -5.450880347893474198e-01 1.338664061166252583e-01
1.027554524466528063e+00 7.083706905649217456e-01 6.228175411538704465e-01 6.582694404566445945e-01 1.257907647558635489e+00 1.490442192655992315e+00 1.162839421463222056e+00 5.569727723184472179e-01
