-5.228091784152222310e-01 8.658997435402291387e-01 9.633930231698819568e-01 1.075952253251313273e-01 1.510841192091016971e-02 -9.889229059035005154e-01 -5.696901518009331866e-01 -8.122289794369266236e-01
-2.319079785034028340e-01 1.403727821147287003e-01 -1.894413633631213401e-01 5.105508323386234171e-01 4.352684696719024693e-01 -6.971071388515559519e-02 -2.269160012362436696e-02 2.530483979174198428e-01
2.354428021530541315e-02 -7.555515230384202141e-01 -7.011134738451438864e-01 -3.036622694875656947e-01 8.746725942780784191e-01 5.353172344017820272e-02 -8.865239464070351350e-01 4.571687048239203577e-02
7.916414802121591876e-01 5.807086227328621675e-01 -2.252200023539521201e-01 -1.761069133080539473e-01 -2.678765166206005244e-01 2.294470823692953410e-01 -7.017297070408625714e-01 9.730134320798742298e-01
1.493884502213455701e+00 6.367295182336223380e-01 5.366332615130826600e-01 7.840352136182979770e-01 1.311957432355872699e+00 1.176259883604337642e+00 1.218257842133041446e+00 1.295146721365975528e+00
