3.038131220866902016e-01 1.697258871027216287e-01 -4.593417071211900460e-01 -8.180269441558098986e-01 -5.478740129009556092e-01 7.167563030712758021e-01 9.798629172103525686e-01 9.042866952334649433e-02
4.215862565193004841e-01 -2.400271551293116090e-01 -2.801534898930797546e-01 -4.176946684114917208e-01 -6.800049058431711924e-01 -1.033645823883222459e-01 2.703018047201095619e-01 -7.327065740751232958e-01
9.637136574753673024e-01 -6.305757012598385280e-01 6.899950267645913460e-01 -2.185597020522467293e-01 1.654544252138752114e-01 -6.151260426452795915e-01 -4.515739745688682749e-01 -2.404211949786176916e-01
4.397670777524620433e-03 -8.726466444245239984e-03 1.048979789201280877e-01 -4.154216449077430262e-02 -9.323005335587994935e-01 5.876728962453539040e-01 7.139264662892985669e-02 9.749185915116196366e-01
9.779305063781512652e-01 1.335941853745174601e+00 5.862819970717879636e-01 8.595224130303370513e-01 6.599670341464304313e-01 8.391514225408076566e-01 1.204511607467224632e+00 1.415462494516955605e+00
