6.854318985957068566e-01 -4.971462751302007099e-01 -5.067039655236891260e-01 5.371821036994124388e-01 -4.381436694267952792e-01 1.301486176978747800e-01 -8.220234349658073203e-01 2.068070077088415282e-01
-8.260963375969259115e-01 5.048237365172991709e-01 -4.375729047590493082e-01 8.188235552660423355e-01 9.891857595587107976e-01 -5.878046678552630855e-01 -8.678978577068865441e-01 -1.417789364881794079e-01
-9.521406177523819014e-01 7.347777933459866961e-01 9.133420447684579280e-01 7.027612086128449675e-01 -4.883000316403207641e-01 -8.037194618089633646e-01 -2.755151001022679846e-01 1.678813561319645320e-01
4.123011337694020284e-01 4.899618967870751352e-01 -7.231745260599804492e-01 -4.039936098370726647e-01 7.685822668513651035e-01 -4.609070689104901586e-01 1.020304497769137786e-01 -9.149352391449598887e-01
8.375481866581093726e-01 1.224175515863958896e+00 1.077587912072575760e+00 7.197586258767911804e-01 1.101323908384856054e+00 8.067507394090627226e-01 8.996616790622090631e-01 1.253628449085171681e+00
