6.365989007909145236e-01 -5.375182901071462460e-02 -6.544231068354111613e-03 -3.136369504927465357e-01 3.655293035174653760e-01 -3.417036495378007466e-01 4.063987810232485565e-01 7.849620272352078043e-01
3.709703512110396062e-01 8.014482096367192554e-02 -4.806055147404455496e-01 -3.017996323861813490e-01 9.477537632597028416e-01 1.187731101311495507e-01 2.218714436232449572e-02 -8.492221769287935373e-01
2.598638808992586036e-01 8.540420658551599598e-01 -8.919821131959337901e-01 1.381607210536377472e-01 3.111086077398579341e-01 3.069851288929794642e-01 3.148968824054876325e-01 5.413598239060939399e-01
-5.058032046913034652e-01 -8.669127841783041966e-02 5.642875090900225654e-01 8.917511398086475083e-01 4.905248197816316491e-01 -4.079376070442073399e-01 -9.397712849382324762e-01 5.409595521186223444e-01
1.223731774073230749e+00 9.280774674659442169e-01 1.105530216837836477e+00 1.389167902651771147e+00 1.025094889335636861e+00 5.963930228386351562e-01 8.764857157383967312e-01 5.199075514037753143e-01
