-4.944236029592865567e-01 6.818414984131309087e-01 -7.380918677998882238e-02 -6.516423178302348518e-01 9.778217060097897928e-01 3.521184808825084112e-02 -6.589745038498644458e-01 3.007528164980257657e-01
-9.066211982443947992e-01 -2.207055559288506608e-02 -8.344535177645839852e-01 -2.031323777071203374e-01 -1.290189963109416027e-01 8.091010553926996085e-01 7.741250164483097773e-01 -8.052740573165761973e-01
-5.513106228634538919e-01 -1.164884451917513886e-02 8.737348004630551834e-01 -9.727603263388693300e-01 -7.482980669555523434e-01 9.864260375143296677e-02 4.565311498907809185e-01 4.883404192736757743e-01
6.673374135280674135e-01 -3.546489820745568622e-01 7.509213080656447215e-01 -4.447246232528694332e-01 4.028554967276221088e-01 -5.081961199667024420e-01 -1.362190982012565499e-01 2.821929300334520274e-01
1.481380088973705211e+00 8.006342679056889233e-01 1.490103565046089873e+00 1.255773774913263141e+00 1.311456990259353361e+00 1.211065986990987664e+00 6.207708696535053638e-01 5.388786389862811887e-01
