-7.574396969548848890e-01 -1.147887676977725757e-01 -2.128140018092299357e-01 -8.021228303627518930e-01 1.993685511066400906e-02 -4.609429995201774766e-01 -5.343941069492696982e-02 5.293054004850772376e-01
-3.513360726448619964e-01 7.538695619054989194e-01 3.305666704461767136e-01 -8.147819801986797561e-01 -7.719461542500078988e-01 5.292507466601170663e-01 6.612205473734844574e-01 -3.445517735447582996e-01
8.063957299642452448e-01 8.789449659716703778e-01 8.625817873690944104e-02 -7.216987592805175211e-01 -7.362251549910325821e-01 5.061695309473963622e-01 -8.493556245892381895e-01 4.574959051471547689e-01
-5.125160859612580833e-01 -4.621937622767764431e-01 -5.924640921809385397e-01 9.656814301216343210e-01 4.952251345001101868e-02 6.056061567463530970e-01 1.737725923746482604e-01 8.053741275659387355e-02
1.329220755819758848e+00 8.794657408394017661e-01 1.105858505873504871e+00 9.794043098720702778e-01 1.144248075601639769e+00 6.167970021366766531e-01 1.004507061022314129e+00 1.449233462032141873e+00
