-5.511084427679733277e-01 3.058847105658801802e-02 6.990311996595766075e-02 -5.523118953257522001e-01 -4.293583611529205868e-01 4.306861589639616739e-01 -3.713663444682182568e-01 -9.109512548044493840e-01
5.917972428695676967e-01 5.256968490427711416e-01 7.524016609437333969e-02 8.075594237400283149e-01 1.796036698869609705e-01 9.052633535700269629e-01 -5.984841459184497836e-01 6.088726351414606164e-01
6.818196850538165155e-01 -6.315888239469136245e-02 9.110249367719811531e-01 -8.664108585049232758e-01 6.439950102690088496e-01 8.308221956412291664e-01 -6.270351177940418630e-01 5.887502215042472731e-01
-1.662777357668920875e-01 7.712145322726216001e-02 -6.678904731886725621e-02 8.603029157446602238e-01 9.235832153643661613e-01 -6.570658687297423750e-01 4.925308514529234127e-01 1.931032698821721905e-01
1.000000000000000000e+00 1.000000000000000000e+00 1.000000000000000000e+00 1.000000000000000000e+00 1.000000000000000000e+00 1.000000000000000000e+00 1.000000000000000000e+00 1.000000000000000000e+00
