<neuralNetwork>
    <neuron name = "0" type = "sensor" linkName = "FrontLowerLeg" />
    <neuron name = "1" type = "sensor" linkName = "BackLowerLeg" />
    <neuron name = "2" type = "sensor" linkName = "LeftLowerLeg" />
    <neuron name = "3" type = "sensor" linkName = "RightLowerLeg" />
    <neuron name = "4" type = "motor"  jointName = "Torso_FrontLeg" />
    <neuron name = "5" type = "motor"  jointName = "Torso_BackLeg" />
    <neuron name = "6" type = "motor"  jointName = "Torso_LeftLeg" />
    <neuron name = "7" type = "motor"  jointName = "Torso_RightLeg" />
    <neuron name = "8" type = "motor"  jointName = "FrontLeg_FrontLowerLeg" />
    <neuron name = "9" type = "motor"  jointName = "BackLeg_BackLowerLeg" />
    <neuron name = "10" type = "motor"  jointName = "LeftLeg_LeftLowerLeg" />
    <neuron name = "11" type = "motor"  jointName = "RightLeg_RightLowerLeg" />
    <synapse sourceNeuronName = "0" targetNeuronName = "4" weight = "-0.9934446480155499" />
    <synapse sourceNeuronName = "0" targetNeuronName = "5" weight = "0.9495845321230045" />
    <synapse sourceNeuronName = "0" targetNeuronName = "6" weight = "0.2019206896944068" />
    <synapse sourceNeuronName = "0" targetNeuronName = "7" weight = "0.07473908812270769" />
    <synapse sourceNeuronName = "0" targetNeuronName = "8" weight = "-0.1790354463176076" />
    <synapse sourceNeuronName = "0" targetNeuronName = "9" weight = "0.6264745747628813" />
    <synapse sourceNeuronName = "0" targetNeuronName = "10" weight = "-0.44541963965234377" />
    <synapse sourceNeuronName = "0" targetNeuronName = "11" weight = "-0.32165920497395173" />
    <synapse sourceNeuronName = "1" targetNeuronName = "4" weight = "0.992021278812601" />
    <synapse sourceNeuronName = "1" targetNeuronName = "5" weight = "0.8731391801617643" />
    <synapse sourceNeuronName = "1" targetNeuronName = "6" weight = "-0.9969997519301619" />
    <synapse sourceNeuronName = "1" targetNeuronName = "7" weight = "0.6092385887536313" />
    <synapse sourceNeuronName = "1" targetNeuronName = "8" weight = "0.20534464249436524" />
    <synapse sourceNeuronName = "1" targetNeuronName = "9" weight = "0.0016384648525824552" />
    <synapse sourceNeuronName = "1" targetNeuronName = "10" weight = "-0.5378749906469109" />
    <synapse sourceNeuronName = "1" targetNeuronName = "11" weight = "0.030499923229120762" />
    <synapse sourceNeuronName = "2" targetNeuronName = "4" weight = "-0.23814251092469285" />
    <synapse sourceNeuronName = "2" targetNeuronName = "5" weight = "-0.3851542109552357" />
    <synapse sourceNeuronName = "2" targetNeuronName = "6" weight = "-0.13380793208298458" />
    <synapse sourceNeuronName = "2" targetNeuronName = "7" weight = "-0.19489345095200883" />
    <synapse sourceNeuronName = "2" targetNeuronName = "8" weight = "-0.7675200066748937" />
    <synapse sourceNeuronName = "2" targetNeuronName = "9" weight = "-0.719029707013483" />
    <synapse sourceNeuronName = "2" targetNeuronName = "10" weight = "0.2751254752596366" />
    <synapse sourceNeuronName = "2" targetNeuronName = "11" weight = "0.008679665149772253" />
    <synapse sourceNeuronName = "3" targetNeuronName = "4" weight = "-0.5595029733974521" />
    <synapse sourceNeuronName = "3" targetNeuronName = "5" weight = "0.9476864642880747" />
    <synapse sourceNeuronName = "3" targetNeuronName = "6" weight = "0.06314083296374884" />
    <synapse sourceNeuronName = "3" targetNeuronName = "7" weight = "0.3849938671018369" />
    <synapse sourceNeuronName = "3" targetNeuronName = "8" weight = "0.08630320772463618" />
    <synapse sourceNeuronName = "3" targetNeuronName = "9" weight = "-0.1679412267676592" />
    <synapse sourceNeuronName = "3" targetNeuronName = "10" weight = "0.7796591089093676" />
    <synapse sourceNeuronName = "3" targetNeuronName = "11" weight = "-0.6718688326065214" />
</neuralNetwork>