<neuralNetwork>
    <neuron name = "0" type = "sensor" linkName = "FrontLowerLeg" />
    <neuron name = "1" type = "sensor" linkName = "BackLowerLeg" />
    <neuron name = "2" type = "sensor" linkName = "LeftLowerLeg" />
    <neuron name = "3" type = "sensor" linkName = "RightLowerLeg" />
    <neuron name = "4" type = "motor"  jointName = "Torso_FrontLeg" />
    <neuron name = "5" type = "motor"  jointName = "Torso_BackLeg" />
    <neuron name = "6" type = "motor"  jointName = "Torso_LeftLeg" />
    <neuron name = "7" type = "motor"  jointName = "Torso_RightLeg" />
    <neuron name = "8" type = "motor"  jointName = "FrontLeg_FrontLowerLeg" />
    <neuron name = "9" type = "motor"  jointName = "BackLeg_BackLowerLeg" />
    <neuron name = "10" type = "motor"  jointName = "LeftLeg_LeftLowerLeg" />
    <neuron name = "11" type = "motor"  jointName = "RightLeg_RightLowerLeg" />
    <synapse sourceNeuronName = "0" targetNeuronName = "4" weight = "-0.2987978078918059" />
    <synapse sourceNeuronName = "0" targetNeuronName = "5" weight = "0.06661804722576758" />
    <synapse sourceNeuronName = "0" targetNeuronName = "6" weight = "-0.16798083695065746" />
    <synapse sourceNeuronName = "0" targetNeuronName = "7" weight = "0.3390537374964473" />
    <synapse sourceNeuronName = "0" targetNeuronName = "8" weight = "-0.5135748066144172" />
    <synapse sourceNeuronName = "0" targetNeuronName = "9" weight = "-0.04130282548881303" />
    <synapse sourceNeuronName = "0" targetNeuronName = "10" weight = "-0.0237542644443709" />
    <synapse sourceNeuronName = "0" targetNeuronName = "11" weight = "0.6306250154294974" />
    <synapse sourceNeuronName = "1" targetNeuronName = "4" weight = "0.019049684783557286" />
    <synapse sourceNeuronName = "1" targetNeuronName = "5" weight = "-0.7284925737245795" />
    <synapse sourceNeuronName = "1" targetNeuronName = "6" weight = "0.9769615266230585" />
    <synapse sourceNeuronName = "1" targetNeuronName = "7" weight = "-0.6726114506638201" />
    <synapse sourceNeuronName = "1" targetNeuronName = "8" weight = "0.5271028819044623" />
    <synapse sourceNeuronName = "1" targetNeuronName = "9" weight = "0.10916204997772105" />
    <synapse sourceNeuronName = "1" targetNeuronName = "10" weight = "-0.14364443678588046" />
    <synapse sourceNeuronName = "1" targetNeuronName = "11" weight = "-0.1990647306274531" />
    <synapse sourceNeuronName = "2" targetNeuronName = "4" weight = "0.003944519472528496" />
    <synapse sourceNeuronName = "2" targetNeuronName = "5" weight = "-0.9690674552927507" />
    <synapse sourceNeuronName = "2" targetNeuronName = "6" weight = "0.513800414430893" />
    <synapse sourceNeuronName = "2" targetNeuronName = "7" weight = "0.06848155294801961" />
    <synapse sourceNeuronName = "2" targetNeuronName = "8" weight = "-0.01735208344149064" />
    <synapse sourceNeuronName = "2" targetNeuronName = "9" weight = "0.6173880870048087" />
    <synapse sourceNeuronName = "2" targetNeuronName = "10" weight = "0.0713385794120367" />
    <synapse sourceNeuronName = "2" targetNeuronName = "11" weight = "0.458778932168447" />
    <synapse sourceNeuronName = "3" targetNeuronName = "4" weight = "0.7423423459920306" />
    <synapse sourceNeuronName = "3" targetNeuronName = "5" weight = "-0.30765712235985476" />
    <synapse sourceNeuronName = "3" targetNeuronName = "6" weight = "0.8302148226267434" />
    <synapse sourceNeuronName = "3" targetNeuronName = "7" weight = "0.033141061239607694" />
    <synapse sourceNeuronName = "3" targetNeuronName = "8" weight = "-0.37244431670135447" />
    <synapse sourceNeuronName = "3" targetNeuronName = "9" weight = "-0.9381921384887968" />
    <synapse sourceNeuronName = "3" targetNeuronName = "10" weight = "0.3411132565789483" />
    <synapse sourceNeuronName = "3" targetNeuronName = "11" weight = "-0.33223886912066325" />
</neuralNetwork>