<neuralNetwork>
    <neuron name = "0" type = "sensor" linkName = "FrontLowerLeg" />
    <neuron name = "1" type = "sensor" linkName = "BackLowerLeg" />
    <neuron name = "2" type = "sensor" linkName = "LeftLowerLeg" />
    <neuron name = "3" type = "sensor" linkName = "RightLowerLeg" />
    <neuron name = "4" type = "motor"  jointName = "Torso_FrontLeg" />
    <neuron name = "5" type = "motor"  jointName = "Torso_BackLeg" />
    <neuron name = "6" type = "motor"  jointName = "Torso_LeftLeg" />
    <neuron name = "7" type = "motor"  jointName = "Torso_RightLeg" />
    <neuron name = "8" type = "motor"  jointName = "FrontLeg_FrontLowerLeg" />
    <neuron name = "9" type = "motor"  jointName = "BackLeg_BackLowerLeg" />
    <neuron name = "10" type = "motor"  jointName = "LeftLeg_LeftLowerLeg" />
    <neuron name = "11" type = "motor"  jointName = "RightLeg_RightLowerLeg" />
    <synapse sourceNeuronName = "0" targetNeuronName = "4" weight = "-0.36501877552317374" />
    <synapse sourceNeuronName = "0" targetNeuronName = "5" weight = "0.806390546464395" />
    <synapse sourceNeuronName = "0" targetNeuronName = "6" weight = "0.15793748842177413" />
    <synapse sourceNeuronName = "0" targetNeuronName = "7" weight = "0.35240197125924877" />
    <synapse sourceNeuronName = "0" targetNeuronName = "8" weight = "-0.6252990445134579" />
    <synapse sourceNeuronName = "0" targetNeuronName = "9" weight = "-0.7847720065511656" />
    <synapse sourceNeuronName = "0" targetNeuronName = "10" weight = "0.15625800392594935" />
    <synapse sourceNeuronName = "0" targetNeuronName = "11" weight = "-0.4721126777836939" />
    <synapse sourceNeuronName = "1" targetNeuronName = "4" weight = "-0.6846393846031953" />
    <synapse sourceNeuronName = "1" targetNeuronName = "5" weight = "0.7304619911849024" />
    <synapse sourceNeuronName = "1" targetNeuronName = "6" weight = "0.24004031580591656" />
    <synapse sourceNeuronName = "1" targetNeuronName = "7" weight = "-0.1170198406153653" />
    <synapse sourceNeuronName = "1" targetNeuronName = "8" weight = "0.02876863043407485" />
    <synapse sourceNeuronName = "1" targetNeuronName = "9" weight = "-0.6556454551550448" />
    <synapse sourceNeuronName = "1" targetNeuronName = "10" weight = "-0.11032677949929104" />
    <synapse sourceNeuronName = "1" targetNeuronName = "11" weight = "-0.36674376245793927" />
    <synapse sourceNeuronName = "2" targetNeuronName = "4" weight = "0.002926337814997071" />
    <synapse sourceNeuronName = "2" targetNeuronName = "5" weight = "-0.6665459754942016" />
    <synapse sourceNeuronName = "2" targetNeuronName = "6" weight = "-0.3241400547241253" />
    <synapse sourceNeuronName = "2" targetNeuronName = "7" weight = "-0.8790186378859917" />
    <synapse sourceNeuronName = "2" targetNeuronName = "8" weight = "-0.5963292863402834" />
    <synapse sourceNeuronName = "2" targetNeuronName = "9" weight = "-0.19272080094529698" />
    <synapse sourceNeuronName = "2" targetNeuronName = "10" weight = "0.03676143123477682" />
    <synapse sourceNeuronName = "2" targetNeuronName = "11" weight = "-0.8861091977499658" />
    <synapse sourceNeuronName = "3" targetNeuronName = "4" weight = "-0.28683941121309453" />
    <synapse sourceNeuronName = "3" targetNeuronName = "5" weight = "0.24228092488237984" />
    <synapse sourceNeuronName = "3" targetNeuronName = "6" weight = "0.8719165652074696" />
    <synapse sourceNeuronName = "3" targetNeuronName = "7" weight = "-0.3528376671121407" />
    <synapse sourceNeuronName = "3" targetNeuronName = "8" weight = "0.12587897474934917" />
    <synapse sourceNeuronName = "3" targetNeuronName = "9" weight = "-0.12806291278737292" />
    <synapse sourceNeuronName = "3" targetNeuronName = "10" weight = "0.8207774588844186" />
    <synapse sourceNeuronName = "3" targetNeuronName = "11" weight = "0.7848675853977538" />
</neuralNetwork>