6.084116048075498551e-01 7.648100048504375970e-01 -9.552866737941645425e-02 3.869145651149725751e-01 8.747487548770214172e-01 2.638704921553174376e-01 -8.293960412879131106e-01 3.061997917377992096e-01
-4.370628630459745256e-01 2.706487239965635894e-01 7.124218079641122525e-01 5.249662156171281957e-01 7.973703494303101547e-01 -4.676561296299432957e-01 7.593710668189193047e-01 1.444814928158746348e-01
7.814547883273321727e-01 -7.381827816022747957e-01 5.900001833747250402e-01 -8.807342487898588423e-01 7.308543107271241457e-01 -6.094540485265453889e-01 -5.339360967470014874e-01 8.995462861206164895e-01
-3.840983002292308601e-01 6.086793772565788352e-01 -3.463592647667306235e-01 -3.871315644038393344e-01 -4.848552648592736602e-01 2.986159867312423444e-01 9.539683994255863109e-01 6.131336568249246000e-01
7.427872403000630452e-01 -4.429615445574188737e-01 8.187957327256574214e-01 -4.934753470587418533e-01 -2.265761949763878125e-01 -8.130687463395858128e-01 -2.570616820573272676e-01 -5.498606395190139828e-01
-9.899793150972688860e-01 -8.625290581797926404e-01 -2.577645654777427353e-01 5.803981408195992842e-01 -6.175227934284748255e-01 7.517134715415942914e-01 2.751591425611050745e-01 -2.199513892121778280e-01
-5.431821774074188092e-01 -9.551582059613756837e-01 3.516694315233486190e-01 3.176059797695780507e-01 -3.508909935447583894e-01 3.216426718121381256e-01 -7.787788656814389476e-01 -1.698148608536749204e-01
3.924317026237351680e-01 7.996457294324168519e-01 5.545300324248538804e-01 -3.600709879540402447e-01 -1.326702755378494913e-03 -1.419575054633461786e-01 9.860774439871906605e-01 5.609300029998358639e-01
-8.483468824873410252e-01 -6.432057360808405289e-01 -5.371757980925928599e-02 -4.303551129770621930e-01 4.801146784827330372e-01 -7.929503592759168384e-02 9.616398786771651608e-01 -6.412078904289897352e-01
6.740382435440664954e-01 1.046754610481335668e+00 7.204942176584060443e-01 1.314044442207355168e+00 5.462264229866709009e-01 1.015016067130131150e+00 6.235170940532267503e-01 1.320645160971441578e+00
