-8.523686813149522479e-01 -8.477082619458042867e-01 -3.362805146147977986e-01 -2.839326148685423767e-01 -1.940331631720537686e-01 -7.448096525564278370e-01 -9.828850439169298792e-01 -1.931138237075005204e-01
8.750237388549704232e-01 1.440255801760004228e-01 -3.992674921739374216e-01 -9.782702435373618055e-01 -7.798158955480214427e-01 -8.801923682324601650e-01 8.158531989994775024e-01 4.680685532937627347e-01
-1.906694092718821398e-01 -6.810652452535868040e-01 9.053849034676992868e-01 -7.808892632466482020e-01 6.390939773123682777e-01 7.127428482874180737e-01 -3.131542040910464397e-01 -3.647951776083391273e-02
-1.396188041214732056e-01 3.513246016229627511e-01 -1.536661041780291725e-01 7.798512752134330039e-01 5.912171264678987015e-01 9.446122997013373102e-02 -6.724393290830033010e-01 2.430116068677612429e-01
-9.858975063867962962e-01 3.327693495731254281e-01 -5.687752361342397478e-01 2.237999716112426540e-01 -8.403780721994738023e-01 8.089262167762025779e-01 3.645365874515500426e-01 9.411562815063685417e-01
-2.102917985792940314e-01 -9.359319549131963623e-01 2.657789209517316120e-01 -1.398093903229689072e-01 5.101522331929708720e-01 7.961964261620522176e-01 6.053658475690415486e-01 8.445540094860863878e-01
-4.998525095243619987e-01 -9.508279338169658423e-01 -5.649159970657224861e-02 -5.726592557894736313e-01 -9.230995900595666548e-01 2.763345383871067540e-01 -7.591161636444068161e-01 4.444542187828717239e-01
1.554987568890737748e-01 9.295121107737605026e-01 2.732241477052343992e-01 3.438345114894991728e-01 8.803818258690392362e-01 4.723805245872936265e-01 8.755006707667241095e-01 2.187283643847732773e-01
4.489282598969344118e-01 2.773576318881643132e-03 -7.142107675717412896e-02 -5.954738695509917967e-01 -4.939163291454162774e-03 3.301955640502685085e-02 7.244399214146626242e-01 1.959400879713670829e-01
4.019508466388743706e-02 4.093491253661651896e-03 7.252088219081915810e-01 8.474047891017488787e-01 -9.630759624358826709e-01 5.899514712654490012e-01 -3.465445035985237343e-01 9.822006609591715787e-02
