6.730771929689816080e-01 -4.957477381882824385e-01 7.001350541898319069e-01 7.437404396813385166e-01 8.305138455543774612e-01 8.660762192441644469e-01 -2.674313450825875904e-01 -4.560330666890364260e-01
1.388169786270589956e-01 8.575697705086939848e-01 2.429469412133822281e-02 -1.617438269630682157e-01 -3.723449523847686127e-01 5.918411616056207247e-01 1.112173842885360031e-01 6.742549831069044597e-01
2.542736213484679819e-01 8.070604945425594590e-01 -7.290171108066154648e-01 -9.974539846557697320e-01 -7.972035555646421745e-01 9.912939880713926843e-01 1.230537879108408728e-01 3.445606969943841857e-01
-2.206238787444556593e-01 -9.879384865877023358e-01 9.580851988623135806e-01 -6.153955931597989704e-01 5.133079472654920039e-01 -5.823377373771567722e-01 7.641546520160291678e-02 -8.308133142862401677e-01
-8.342690141784556701e-01 1.340041793892814415e-01 -4.571608900587031954e-02 4.429519639563068711e-01 -6.505545529475362798e-01 2.227750161421515607e-02 -1.234655641573703111e-01 -7.023785240239994732e-01
-5.830719755784792291e-01 2.096207089854593697e-01 7.092621378881402983e-01 -4.051820677332400589e-01 5.266035152882602155e-01 -4.020918492663385635e-01 -5.659201286308939149e-01 -1.119066992682367090e-01
-8.925442292565775038e-01 -1.135442341188477311e-01 5.912264874843411455e-01 9.670286667163285887e-01 5.395981140886887406e-01 -5.534510632561013832e-01 -3.373753553941432060e-01 -2.690955098421197178e-01
4.087631594749163710e-01 -9.323870337219384297e-01 -4.274516802729881881e-01 5.875884143415035510e-01 5.701289477591409138e-03 -3.408044786358368494e-01 8.973432409621100447e-01 4.060601105831305180e-01
-2.218094062324833526e-01 -8.324687200584943714e-01 -8.309185342923790518e-01 4.164893153838016282e-01 1.980345658561630806e-01 -4.612853138268282471e-01 9.841089867554630999e-01 -8.743701014821101403e-01
1.140264635742346488e+00 1.194257651031254142e+00 5.230622507430648938e-01 1.210758457346502004e+00 9.617490493479678992e-01 9.986661633100345492e-01 5.091865965599898791e-01 1.212289014688794575e+00
