-5.324390666298846053e-01 9.254585280461484764e-01 4.490659688602891553e-01 -6.085110970644753703e-01 3.040347209108209547e-01 -5.313543156434397119e-03 4.164033848476407229e-01 -5.230957107580884724e-01
-3.958265213442406782e-01 -8.697941603894054907e-02 4.150183019713116206e-01 -1.439289595821884316e-01 -8.487268524360276345e-01 -6.449525771260411489e-02 4.469384467916008852e-01 1.027795215052438316e-01
9.623629895386616173e-01 -5.616810037732022920e-01 9.642789354908236632e-01 5.447977644788333240e-01 -9.137569568071572945e-01 2.706339801836854519e-02 6.516271523814656241e-01 3.348437984618990448e-01
6.251691190025336908e-01 2.968266038630917869e-02 2.610371255520904654e-02 -5.234641522928078494e-01 -8.195738663957365944e-01 -2.233532421268256130e-01 -2.732298505640697872e-01 -3.415791519962680933e-01
-8.919056621168439669e-01 9.949588512429792253e-01 -9.903160654904876736e-01 2.827353750001138089e-02 4.950515119862919367e-01 5.343704184688666814e-01 5.473086243420175467e-01 1.652939392550787367e-01
-8.264564205008955167e-01 -8.857014523736743694e-01 2.669501519188783867e-01 -8.208762733029695280e-01 -2.528131619398894525e-01 3.955481712592823218e-01 -5.111108574891967127e-01 6.750223376144339760e-01
-2.234058145447954669e-01 -3.251036526377573121e-01 2.204605126769068058e-01 -1.078142088998301773e-01 -4.959426567024562971e-01 -1.751437842392289390e-02 9.467146876413012890e-02 -5.928820082422812110e-01
6.305172885667715832e-01 7.669401042922552314e-01 -6.429620825188770983e-01 4.347341999766141107e-01 -8.497190489071271280e-01 2.614038486974514797e-01 -2.222628788389358068e-01 -7.320068033023632292e-01
2.147354764583422337e-01 -3.565067904655938591e-01 5.135685263706681880e-01 -1.784021121724563841e-01 8.039726313842336936e-01 -7.136561451924767763e-01 -8.700576932249082240e-01 1.243667213952335260e-01
4.370004301830854310e-01 2.083287363914045898e-01 9.871186101314124439e-01 7.612798869498620391e-01 3.839826422870493694e-01 6.327084773623359304e-01 -7.899325067097251463e-01 9.786844469149702519e-02
