2.478955867485670428e-01 7.826054951975542906e-01 -5.103840627590172652e-02 9.712397624638950955e-01 -3.440963652078796731e-01 7.892650301659944745e-01 -6.023175757029908262e-01 4.357417773181939680e-01
2.045988481792950786e-01 7.450295958476356173e-01 1.805482377671394634e-01 5.361292746103987206e-01 3.328035851921902211e-01 7.915250470743671052e-01 5.344684167374436079e-02 6.945000491090513872e-01
-2.753117335806753996e-01 5.728377214181898935e-01 9.580928157926174027e-01 -6.611569768943963421e-01 7.132219929161200955e-01 -8.138392030148100531e-02 5.911916183589274176e-01 -6.631978449623223693e-01
-6.950131415234443999e-01 8.833806590729016417e-01 -5.744930890314885463e-01 -7.853794150737749558e-01 3.863115647805814845e-01 -1.763393117562039869e-01 2.373643804892799913e-02 4.887894268648838025e-01
-2.892017762952898696e-01 -7.595925137451846609e-01 4.203016141986235521e-01 7.844962451976720264e-01 3.058775003736606823e-01 -3.354501535788032562e-01 3.927695166359563839e-01 5.034237863676813696e-01
6.964897389017314921e-01 -9.996127738289586340e-01 -2.515307165111591026e-02 -8.229334702887145525e-01 -9.272250401005779352e-01 7.867599158401950010e-01 5.553451973096845684e-01 -7.433222156071552789e-01
6.241675685068635016e-01 7.747806737050579873e-01 2.819881947143669798e-01 4.326117798148221283e-02 5.430990394558579126e-01 -9.677840843069773769e-03 4.088599318372605484e-01 -4.836014200908640426e-01
-2.385547239744683079e-01 -7.155060303591722626e-01 8.494017980670127699e-01 6.761383502680542446e-01 -6.897160732695353236e-01 3.031528120046851349e-01 8.896851551842508421e-01 -2.419515751902936440e-01
-4.991614878354133644e-02 1.607949171588227699e-01 -2.052427777785954532e-01 -1.321971988955557009e-01 -7.594535341917982851e-01 2.670464227457869377e-01 8.987405964245720469e-01 -5.661695250404938928e-01
1.335606259636380466e+00 5.961867948106978066e-01 1.375441645202652552e+00 1.190817208514815206e+00 9.857318655622416825e-01 6.967115836528209316e-01 5.298426489707859233e-01 1.466738190253477736e+00
