-2.471283941992172828e-01 -8.196550592068714280e-01 -2.529697965337140975e-01 -3.220567410747354753e-01 7.872484584976906508e-01 -8.900746826276400014e-01 -1.871037279999576697e-02 4.034555982979910471e-01
8.408472588840283368e-01 2.224130593135182909e-01 -6.901627545051969292e-02 -7.518062664785600813e-01 -5.023011847221936499e-02 9.015893674984407635e-01 4.336916821499996466e-01 -9.281616556505545290e-01
-6.171430207254884337e-01 -3.185667596129675427e-01 -1.667928778597085326e-01 3.298437400874574266e-01 9.603347426157344824e-01 -5.766784062898360208e-01 2.971611063310215517e-01 -9.918640822712379013e-01
9.715466089098538927e-01 4.228032220954807130e-01 -4.772594274034251960e-01 4.698460951215155390e-01 3.385636389749291375e-01 8.051103421617824552e-01 2.080521328812547921e-01 -4.930216835982743628e-01
4.841552697259579041e-01 6.671818872339929651e-01 9.137664957377977792e-01 -3.572884917995491350e-01 8.584337316691430519e-01 -6.160871651918704561e-01 5.873544351238038086e-01 2.783229361684425029e-02
-4.182141809577122338e-02 -1.585171121550221773e-01 -1.688307462959626193e-01 3.155135074552295471e-01 6.056237298212181486e-01 8.913091121491349966e-01 4.365848520852384507e-01 3.289396755556839302e-01
-8.727598157921374611e-01 8.758748337112869375e-01 -8.446008201617587474e-01 6.911370761320536626e-01 -1.623372071811766126e-01 9.393178967778994526e-01 9.770426338095314911e-01 -9.938887057164731420e-01
6.006884854021550257e-01 -1.094131438873409135e-01 1.959092506509378939e-01 7.639665315878068075e-01 1.274222745324160577e-01 -4.557141428350364176e-01 8.095259783839343637e-01 -5.867423086142269373e-01
-9.139379949534807146e-01 -3.456575711849820820e-01 -5.998114744205600424e-01 -7.933255361645126236e-01 -2.677887944811629950e-02 -6.852105731567204039e-01 1.060174038776429128e-02 8.367386152852114289e-01
7.935624571451275200e-01 6.337520172774522287e-01 1.069854002873402932e+00 1.454737082033219497e+00 6.878802977085924919e-01 1.176416695685689850e+00 7.317078439566633286e-01 7.110625715911987887e-01
