-1.400665101531664014e-01 -4.817919259502427831e-01 2.503186619996085049e-01 -8.647436040075615615e-01 4.730381663862750496e-01 9.024261441117320537e-02 -2.560094274489568278e-01 -9.263589488065249178e-01
8.322373149442998663e-01 -6.893388361215635474e-01 -8.534468940158930206e-01 -3.688138571486201389e-01 1.371062481156208879e-01 -4.577190975042102483e-01 -1.251917037213647887e-01 -3.284696613083939454e-01
9.318589642267132156e-01 4.557454796234312600e-01 -3.595607189047334007e-01 -5.473372943608760810e-01 -1.598541309871541749e-01 9.596981061616816078e-02 7.356952699294945219e-01 -5.619766154009431247e-01
2.270979692948555950e-01 -3.929931372625510289e-01 -8.758097532961219844e-01 5.474467219108947180e-01 9.204852005019679151e-01 -7.349694229624637032e-01 3.026096876506485511e-01 -7.639267539937297791e-01
9.045589511378178127e-01 7.562060349434063244e-01 9.521720972297038621e-01 -1.796601397650046117e-01 -2.578113400422021861e-01 -4.986280151397057825e-01 -6.231160407161426829e-01 5.401308809991278714e-01
8.929750651575847353e-01 -9.507877295921762784e-01 4.699679926485726966e-01 3.596931388620272507e-01 4.576243498946988009e-01 -1.790773506988097008e-01 5.195796184183014699e-01 -9.618552222746317160e-01
-3.750295126534670676e-01 -8.707937515636743342e-02 7.218632972397169834e-01 -2.591332031038851014e-02 4.463606737899241672e-01 3.875033986867559843e-01 1.055525406230595209e-02 -5.753919203134150173e-02
5.982622355333369057e-01 -6.695207830967726537e-01 -8.248552376100095618e-01 3.139006868474090162e-01 -6.053640877976442791e-01 4.969939869837634028e-01 2.984882214635147246e-01 3.453505440640938229e-01
-8.481509270964338043e-02 -3.518498462921209047e-01 -7.711218839897637789e-01 3.692967400746260953e-01 -8.463192293860548610e-01 5.691932112339552763e-01 3.755475786375483960e-01 9.402917617120820637e-02
-2.627605851778653800e-01 3.981360470905066506e-01 3.574255868263360725e-01 9.705356227378452161e-01 -7.977002399445332070e-01 -9.442970281579738945e-01 -6.754436312879885662e-02 1.066787841451637409e-01
