9.629371830860840031e-01 -2.000140669007233196e-01 1.676269153636458231e-01 -9.983229099999597622e-01 -8.003698132067402771e-01 2.251509056889251514e-01 8.278141077751022259e-02 8.566205193757165937e-01
7.164898594321380543e-01 -6.650520844226970318e-02 3.996322082448326984e-01 8.661649945002876105e-01 5.399892646905188887e-01 -7.143217272643513915e-01 4.103847698562403945e-01 -6.733648396356182175e-01
5.750180156473971849e-01 3.345033643307959714e-02 2.104719983892033852e-02 -6.866735266438863672e-01 8.214568139992801665e-01 -1.096303456226164208e-01 3.290398873375692812e-01 1.675995686126861006e-01
3.446288418208185433e-01 -4.862703695501340295e-01 9.719890093261547293e-01 -8.859176664536279056e-01 8.205269914475381565e-01 4.015679651957324570e-01 3.231763548684731813e-01 -5.529544265051733465e-01
-4.530372298043336965e-01 5.802426615123559284e-01 -9.577400978090628847e-01 9.366657139385543562e-01 6.535167800384156234e-01 -4.211645870915081691e-01 4.169265853260035737e-01 -4.700523797374109858e-01
1.607584496932230600e-01 7.165169213327597930e-01 -7.655367678978866053e-01 -1.011772992017532236e-01 -9.756500514485046960e-01 7.052093483866224144e-01 2.442516235201275254e-01 5.676271752814261440e-01
-7.419434061456380292e-01 1.972138278049286875e-01 -8.240755732054629856e-01 -7.758161643184742218e-01 -1.174747818260866161e-01 -9.618857068691237799e-01 -5.439484884839917989e-01 3.883379592840352501e-03
-5.442618119395814524e-01 -9.327383779031885869e-01 5.210040782895999367e-01 -3.043625107439407174e-01 -8.059933114478003979e-01 -5.992646109538759536e-01 9.784409080771967471e-01 -5.745376489254521157e-01
8.954289746937567074e-01 -3.662178120850327900e-01 3.573026896421942489e-01 -7.206191530406602652e-01 2.141646952673066373e-01 -2.429923210232964870e-01 2.652925649870407909e-02 -1.020594955841920282e-01
-3.682761546656354579e-01 -4.154917403803808362e-01 5.708685552593837365e-01 7.859652052919496867e-04 -9.622964287346682521e-01 6.425698056192781227e-01 8.435474255635355689e-02 6.268630719567873655e-01
