1.258615061924561740e-01 -1.625729273398672792e-01 7.749314873357799893e-01 8.329140358470470407e-01 -4.515924077386923585e-01 5.033867239224998347e-01 -7.210643672907643964e-01 -6.003272393391545503e-01
9.260262075358318690e-01 -6.620840507669665254e-01 -9.322983712987020777e-01 -7.549019086704642501e-01 -1.375392855843575735e-01 8.839161594776441255e-01 -4.420952309679715420e-02 -9.388546849889907175e-01
-5.296129985253184014e-01 6.728956337003819677e-01 -5.661112241716559357e-01 -2.137484968848257783e-01 9.150958884352951017e-01 -3.757463124080029360e-01 6.841441792623585982e-01 1.883680887191430120e-01
-6.002055070409293425e-01 5.431385055747688373e-01 4.743045093084232722e-01 2.708123701219034007e-01 5.977808007215341668e-01 -8.596832066144950435e-01 5.037858587679744371e-01 5.440561126216820753e-01
-6.386729036990888009e-01 -3.852062848836286246e-01 3.850314543593795769e-01 -8.454334456383065799e-01 -4.278841049333501623e-01 -2.422802126914027632e-01 -8.670090869236091180e-01 3.191154383282015505e-01
-1.353359968590541751e-01 -1.545947770997726511e-01 -3.182845245599619233e-02 4.353437158672723850e-01 -1.208184712617410561e-01 8.108907305729220472e-01 9.868707538113692390e-01 -3.233815081040878336e-01
-7.808173885874654108e-01 -1.363730960194609043e-01 -9.993620609502844587e-01 -3.579318236400255149e-01 -8.187884452115334888e-01 3.454079636845570622e-01 -3.898123138755069661e-01 -4.818284799912702088e-01
1.372738193794678097e-01 -3.880796792253449201e-01 8.166271284479102999e-01 -6.286479547978764959e-01 -7.762350605000674086e-01 -9.962619777372196950e-01 2.391380420814992469e-02 -5.185248971184195366e-01
-9.854700960264004550e-01 8.066589772573897754e-01 -9.391430841575305610e-01 3.198014464813325741e-01 1.941792244233362386e-01 8.373215928437138800e-02 -1.666347273637440729e-01 -7.660325937207108637e-01
-9.837500525985209965e-01 -2.319859083257183041e-01 1.744798587262870182e-01 -7.887436033410624159e-01 2.234010785854900760e-01 4.464355924296437017e-02 -6.872469110804104719e-01 -2.296948537485279385e-01
