6.398079464967465491e-02 -1.112129425596741772e-01 -9.246172377915435892e-01 -8.399915175626404551e-01 4.512249935228449527e-01 9.338502507694146360e-02 -4.932727406746155729e-01 -7.959743227063535986e-01
4.624538450232607012e-02 -3.098186409460839119e-01 -1.100898919091397588e-02 -3.512327912250965412e-01 -1.987724686719261058e-02 2.072022652369562845e-01 -6.376980713870974427e-01 3.630405441620137008e-01
-4.693561133851116285e-01 -5.766163545831057835e-01 -9.629701196366950988e-01 -9.893836433940439434e-02 4.386058316422651870e-01 -9.811254505220912137e-02 2.797613544912103123e-02 -5.680180855667460449e-03
4.500520690047529193e-01 9.168737681658341021e-01 -4.481807470520782211e-02 -4.876030696621502791e-01 -5.658094366003618703e-02 9.715272012109130717e-01 -6.877588753580572423e-01 -8.023208886973989262e-01
-9.730694435906304118e-01 -7.172906497411286608e-01 1.171700093732026549e-01 -1.127906754443805948e-01 -7.802117015590213089e-01 -1.897600370278205162e-01 -4.170472690673991956e-01 5.569929848220154245e-01
-6.640928529143421688e-01 -8.265893375298096757e-01 -8.368666867293774736e-01 -1.442941240855253326e-01 -8.014060589425751058e-01 7.226847519700356770e-01 -4.265758003260300413e-01 -4.442185336772559445e-01
8.369301771840642612e-01 -8.134052466109753521e-01 -4.342942668131584139e-01 6.832545531486189372e-01 -3.407163181517058881e-02 -3.407005007255903273e-02 -9.556215207978866477e-01 2.900611122076273141e-01
5.517250135052478299e-01 -5.037729800188386342e-01 -8.122071071321632640e-01 1.666720231357092796e-01 -6.819727932417327665e-01 -9.504188938182582813e-01 -3.921528480797364935e-01 3.541453948639503579e-01
9.206370997250798993e-01 -9.507956971190454354e-01 -7.823998525170088314e-01 4.317285299055795278e-02 8.798749681165438652e-01 -6.395895594117564364e-01 2.334874160074973393e-01 -5.600543121002423685e-01
-8.061316108069480624e-01 -1.203924478377915719e-02 -6.370613644187013147e-01 4.079797237123601317e-01 8.596110679796495901e-01 3.648005033195276248e-01 -4.828699368167914674e-01 9.353836275056246485e-01
