-9.199414936158973877e-01 9.637816723288139542e-01 -6.366391571327898458e-01 4.082312471681968091e-01 2.263719492300753089e-03 -6.615524142774846794e-01 5.130479797861084990e-01 -7.984936215280256100e-01
-2.765134759590106572e-01 6.663470556392048216e-02 6.724732515480789097e-01 -6.430493519117614909e-01 2.805698937450318287e-01 9.499724733623744477e-01 4.982494825887395784e-02 -6.805074125612315949e-01
-2.718110828765507581e-01 1.259591400719428655e-02 -7.187929867780618043e-01 -6.939461228838239570e-02 8.801977885791130163e-01 3.959240636281786685e-01 6.269266303532650131e-01 4.007139529412220291e-01
9.132561850264306891e-01 9.781031247575688869e-01 -5.538382558203318595e-01 1.650074750154699732e-01 8.833015104299641873e-01 -1.334380892689592812e-01 -9.876334384834208890e-01 3.312311016694866606e-01
8.342934419711631744e-01 -3.938662848463654331e-01 -1.794611044911857967e-01 -7.107007577471513571e-02 -2.250859884788887211e-01 1.997043664447777367e-01 5.387585331323301308e-01 -7.193268823221032893e-01
7.363159744436318377e-01 -4.715025923686884113e-01 3.457180228662790622e-01 2.353067543614757451e-01 5.080645554318516943e-01 -5.797276990269495389e-01 4.594653955577858717e-01 2.567310614516626899e-01
-2.281497494047384222e-01 1.658172943683573486e-01 6.249177281941382667e-01 7.664335980055358988e-02 8.047991780734251588e-01 7.165510171538631568e-01 -3.689998871666482216e-01 -4.142390078106226170e-01
-4.450084129446598702e-01 8.358703929093551643e-01 -8.830758185527489701e-01 7.326144323583971829e-01 -4.558907536215093259e-01 -7.275968008145738963e-02 -3.636595725985847238e-03 8.148545561424271888e-01
-1.020299454146895712e-01 7.315160197254124697e-01 8.163465017012494496e-01 7.231084653820092356e-01 -9.973316062143626759e-01 -2.587193901582136579e-01 1.572811670287057595e-01 -3.059829820797110855e-02
5.955010012399193364e-01 8.436087832577641166e-01 -4.056604023511103385e-01 8.858638878098223923e-01 -9.553548695660762924e-01 7.217685432777520838e-02 -3.905306396204781816e-01 -1.629165733802739879e-02
