-4.211467944196978230e-01 1.713873545515118835e-01 2.215614768992453243e-01 1.213402744260636545e-01 5.434957773378126245e-01 7.339445418017518374e-01 4.095682245936982380e-01 -4.256484028744482728e-01
-3.273319518994743937e-01 4.054655032774290291e-02 -7.768456852277441094e-01 4.580407600816216451e-01 3.922015552094091362e-01 4.553514820843456157e-01 -6.727691653430991625e-01 8.960065229168545642e-01
-1.132817973240667353e-01 4.689077551173714831e-01 -7.368550384630776495e-01 -8.885872229203450878e-01 -8.639997209635574826e-01 -1.493865198175072795e-01 9.179427055310738215e-01 -7.753347308511462366e-01
-9.750317986739005516e-01 5.615405448920622877e-01 -6.685004236722447146e-02 2.095516027012063187e-01 7.574532038461352368e-01 5.953123622360478873e-01 -8.814701330820384761e-02 -6.086779401695019409e-02
1.795257422486031817e-01 -6.046988411290987742e-02 -3.660490352610055176e-01 -6.177070706158200863e-01 -5.728752118037589991e-01 1.538266734140747438e-01 -5.753718327024432977e-01 5.138572586439027479e-01
-7.313562690095747332e-01 3.469631332692175718e-01 4.747032543174580788e-01 1.030051726418028668e-01 5.774362886739490275e-01 -2.926098089284809856e-01 2.474417312160959170e-02 -5.514144602093091763e-01
-5.435792867274562568e-01 -7.007863286506563760e-01 -3.060782244556186082e-01 1.089978008401006893e-01 -2.153565140880298046e-01 1.377939067030466980e-01 -7.901447681653572808e-02 3.023322280773375059e-01
-6.311556706826482177e-02 7.214967374553367119e-01 -6.917520372572543153e-01 -3.766005981066620212e-01 -3.139633722108854386e-01 2.317525354557026240e-02 -3.709545556823625745e-01 -7.720609627432704070e-01
3.733782773016764978e-01 5.033319683515238285e-01 -7.377965727643929217e-01 -7.427007990389564718e-01 5.755778812350733631e-01 4.357409189231753466e-02 -5.653968310089669824e-01 -6.932163137191571511e-01
-8.911652415694351070e-01 -5.226567747097683458e-01 6.190885551021740874e-02 1.092299965367429238e-01 -9.704924379930648382e-01 -4.154869194964083690e-02 1.473892987723328662e-01 -4.780789529575915076e-01
