-4.412976429848716187e-01 6.142170154626049872e-01 -8.724279341531027132e-01 1.985101896666119359e-01 3.814368267232006726e-01 -3.797068230632520969e-01 9.285467961462794406e-01 -8.455515334734031718e-02
5.084249310426003365e-01 7.351880848421956660e-01 -1.266958972590979116e-01 -7.255617537942982143e-01 -6.384808612924124382e-01 -7.479429198257201428e-01 7.615704757153221038e-01 6.081061561137819371e-01
-6.204146516145052637e-01 7.649217524780802524e-01 5.680264287990262062e-01 9.013462526162228095e-01 3.500096812149668946e-01 -6.506441391639030680e-01 -6.256128820319299955e-01 -4.450465577928877092e-01
-1.508439098337091000e-01 -7.330962405661693992e-01 -4.945274667178551908e-01 2.476733133227391193e-01 -9.564589511792778165e-01 -8.462047827038021719e-01 1.739892474843629522e-01 -3.109241921732430747e-02
-2.681154435928019275e-01 -2.897501397429391723e-02 3.446919765949463255e-02 -9.551493848120127250e-01 -1.688575514053101134e-01 9.584027939953199127e-01 8.143322451348136148e-01 1.346721858028219199e-01
-4.166857950310871583e-01 -1.980618066942025912e-01 -4.253294337796915681e-01 -1.601617160514685612e-01 1.774707789603520158e-01 -2.885940962494224493e-01 -6.155524912937162529e-01 8.532483109767774465e-02
-4.996256297727226237e-01 2.762152790709528905e-01 -1.653395586709458520e-01 -4.921668022629677175e-01 -2.815392144127648599e-02 -8.849788169600372179e-01 -5.099634199632996356e-01 -8.029429222841213409e-01
-2.602902681866514634e-01 -4.424797629325245563e-01 -3.968845669896892137e-01 7.159300051762222949e-01 -8.966695241442617093e-01 3.404805804653958656e-01 7.690727351503108267e-01 -6.232135485989587220e-01
-6.438498719167413675e-01 -4.108273799910300283e-02 -4.238528229962250649e-01 3.293514523700562524e-01 -6.041842526139122871e-01 -6.904449921649467026e-01 -5.095781215053136748e-01 -3.973564479796798388e-02
6.359125366765896459e-01 9.685379408970328230e-01 1.343709488760938653e+00 1.233734596624979085e+00 1.450537784927651508e+00 6.210766369789177954e-01 1.261784660482790921e+00 7.300428358049619870e-01
