-3.005035308179371256e-01 -4.477216586320873493e-01 9.134056324292318951e-01 1.044957447565808550e-01 9.655706939519403953e-02 1.144599177046259353e-01 -3.626454625083534999e-01 3.578322012207557634e-01
-1.916370465730494743e-01 4.917296312859575913e-01 6.213272933842954870e-01 -9.246659611077507890e-01 -5.517726873943384902e-01 5.265120489267141046e-01 -4.441235358531130384e-01 -3.682937097398899517e-01
8.234876742625685253e-01 1.615718199213715955e-01 5.290856445208462766e-01 6.356531996395891060e-01 4.298772008024560609e-01 -7.884195934661641925e-01 2.408712264298618067e-03 -1.826989225114612481e-01
1.691078167222936912e-02 -4.940986162617189148e-01 -7.874993649111750038e-02 9.060268755244993422e-02 -2.788049554424976151e-02 -3.637393033218838667e-01 3.783192917851758708e-01 4.863594255595611315e-01
6.919009990987423642e-01 -1.771698141775450708e-01 5.431657837196910421e-01 1.810550328519420216e-01 3.204628854930000603e-01 9.056189461232508897e-01 -9.331536690006343449e-01 1.774165021881801696e-01
2.716512463759634954e-01 -7.957323021936040242e-01 -7.308638414538688455e-01 1.498427782994582458e-02 3.335345147442947411e-01 4.827695409439822782e-01 5.828461573769856408e-01 5.154485978666327739e-01
-5.271284454570899225e-01 8.773848288293364384e-01 1.889266566087717258e-01 -8.814142621110285791e-01 -5.037400021079871948e-01 6.928500081280772882e-01 -6.724710142708050231e-01 2.076491953732308993e-01
-4.037415591897737244e-01 3.335947032796748868e-01 1.241246086902358936e-01 8.331890381770130638e-01 3.248767663648217674e-01 -5.570679094220634120e-01 -3.003156189690943112e-01 -6.809418152747506170e-01
2.441730814010723005e-01 -1.691753629798673497e-01 -1.400453278640474419e-01 6.541638844754311677e-01 2.613293322446601508e-01 -8.767309920058772299e-01 -4.565991017899257987e-01 -5.512080541483446172e-01
9.450244801454754651e-01 7.272570109831421048e-01 8.753790323083945335e-01 1.388281856580985352e+00 7.753986850276517462e-01 1.054924191034410041e+00 7.748363904024563320e-01 1.401393012983246811e+00
