-5.822917190666987430e-02 4.762761772114032510e-02 7.675329963051178428e-01 3.138827926038878502e-02 2.825116644958836076e-02 7.745185786308470544e-01 4.658197421109715464e-01 2.845602252050405401e-01
9.383372011511292854e-01 4.489475171000203435e-01 -1.524031304636201956e-01 -9.081015664730847092e-01 8.380367768777419180e-02 -9.023551675782839343e-01 5.122930526900606463e-01 6.664506594007708618e-01
5.233421159999100958e-01 2.949122096370522250e-01 -7.932663088247342564e-01 3.219261210985913113e-01 4.752950839654273008e-01 -5.658437390452635274e-01 4.247207890617898940e-02 -2.830250488878762738e-01
7.789503120774388112e-01 7.881753031648761620e-01 6.801686474966837093e-01 -7.480227629079789775e-01 -5.139967221986676549e-01 -2.017294613646636314e-02 6.200282462991757448e-01 -1.080881832559801303e-01
7.647943773346388419e-01 9.522542161602065569e-01 1.442933680397504581e-01 -4.683320923751634890e-01 1.612729411506959032e-01 8.903146951801101938e-01 -7.983870690950571891e-01 -1.499227937254814513e-01
5.804787088152427721e-01 7.509160987725804759e-02 5.180481678003521218e-01 7.069302207937913085e-01 -6.064905221546279535e-02 1.334177744319740011e-01 -5.784602273956740426e-01 8.155715609319240667e-01
9.661497042977120753e-01 -9.370900578482790344e-01 -3.352508454278806393e-01 -5.949577173649958084e-01 -4.909346871803050849e-01 -9.376699034401323463e-01 2.010021930320171624e-01 7.302246509425258658e-01
-1.404510683210926647e-01 6.819454013568073680e-01 1.012228078580470481e-01 -3.916632911899535774e-01 -5.124186366719616359e-01 4.815494343634518781e-01 -5.824809774737071955e-02 9.757604573796716529e-01
7.583957107783652063e-01 -6.392134240768374553e-01 -8.468842654630259759e-01 6.833875860553664250e-01 8.190612079455843464e-01 4.643408877744330532e-01 -9.235591899380348746e-01 -3.862455584054464985e-01
7.422067514216286188e-01 -4.449359307137401576e-01 1.470799646496079305e-01 -2.444505225820576833e-01 7.771188606312571245e-01 5.523007992413029310e-01 -4.116703679617621514e-01 -8.734791868456242003e-01
