-2.803486778425845483e-01 -5.015239128514776823e-01 9.787132409858898541e-01 2.688204315697468871e-01 -3.473772845581299951e-01 6.444855052872984214e-01 -5.528105008541379650e-01 -7.557878084688183229e-01
6.889310195898852296e-01 -7.365449302947710830e-01 2.137842748213931721e-01 8.731594140491882872e-01 -4.689079547210150967e-01 -6.137777363061398539e-01 -1.698360632219055866e-01 9.211582236543676139e-01
-7.856550917727858074e-01 -3.283919206504912758e-01 -5.876601097854927680e-01 -7.280732996358718623e-02 3.249705162108338374e-01 2.108985402439271795e-01 6.694219411535564657e-01 3.245781454647422848e-02
-3.163949446838052459e-01 -2.328845981358855788e-01 8.100883539994223614e-01 -1.750735555132962862e-01 9.775852159828595234e-01 3.153786385269725656e-01 3.524244391103634744e-01 -7.901212323132700277e-02
-3.658990638988779409e-02 7.400971023720614994e-02 -7.142865890816614272e-01 8.868811766911099959e-01 6.972027336061055180e-01 -2.309151206617912067e-01 -1.940503248098630618e-01 5.464691966903816311e-01
1.580791627550144351e-01 -2.475893582228501089e-01 -2.755555046639948102e-01 -1.794016796653961077e-01 1.646045838585266097e-01 -7.174020143178849729e-01 9.294146583164719644e-01 2.893176088289750592e-01
5.220786775186190276e-01 5.487127475976478763e-01 4.855524321608355454e-01 5.544710557443310872e-01 -4.378157057916665096e-01 -2.147396445216667171e-01 6.914328775876086297e-01 1.802899228186665148e-01
8.746193087900875351e-01 1.728172048476654954e-01 8.162632616250586892e-01 -1.060168308993603148e-01 -1.672020249184225094e-01 7.437905168039697923e-01 6.405223159328297111e-01 1.767244319967431476e-01
-2.798467656036613960e-01 6.125241276798143453e-02 -6.903082255549621848e-01 -8.032673960513483369e-01 2.408724847140588654e-01 3.704547887035054554e-01 -6.162967354568249512e-01 -1.997739219939429489e-01
5.675181710355761133e-01 6.270952552796580370e-01 1.424893367837345215e+00 1.231737147464835758e+00 1.295285771207467240e+00 1.498703493478672044e+00 1.318270247013151319e+00 1.425100784899421047e+00
