-3.491036830814671088e-01 3.307450344318214608e-01 1.285006574408797952e-02 -5.031612566126564268e-02 -1.972271555522240316e-01 4.254139428884518015e-01 1.690630848080174609e-01 -8.987214903674425326e-01
2.817324374112541996e-01 7.278749544640710223e-01 -8.112044628104797539e-01 2.257451450404324156e-01 -5.012451580296792830e-01 -4.887067923896077914e-01 7.569425677619046056e-01 9.809508563990798624e-01
-5.680516780483113592e-01 6.512022898996150388e-02 -2.319525429428126451e-01 -3.786543891336346945e-01 -3.785063516940301298e-03 -3.944725981313550456e-01 -5.618450048986169953e-01 9.358496393960962223e-01
-5.515956454338282189e-01 -4.503191603617031635e-01 4.389919081666422418e-01 -6.923932935338503736e-01 -4.451992441596841488e-02 -3.442776691678006706e-01 -7.485945690136284192e-01 1.169882005418405591e-01
1.243551153624462557e-01 8.539398568718483684e-01 -3.283833650513492408e-01 7.830241480784549957e-01 -2.286658934413652311e-01 9.228317756365462809e-01 6.876053654610458921e-01 5.690194164763362483e-01
-6.857932997667868236e-01 -9.530562576565941857e-01 1.735075749254879618e-01 2.134113656957239424e-01 -9.201940269379889070e-01 3.093954098284878995e-02 5.622803832807774516e-01 3.583390013903904325e-01
1.070533738410639479e-02 -5.891514609613635045e-02 5.835934230195023442e-01 -4.164121223040280206e-01 5.802752529596499897e-02 -1.653972389386537678e-01 8.224727466878856141e-01 -9.746560613976935628e-01
-8.131369183616334873e-01 -9.330050571583057284e-01 2.987615051466550042e-01 -2.359261657696156700e-01 7.637192801112433482e-01 -7.874474820410994891e-01 8.846481770500427277e-01 2.316883278420989178e-01
-3.433144875584044353e-01 3.061303106955075570e-01 6.980057169399782602e-01 6.670554351169803997e-01 7.137142463986896335e-01 -3.461283114373669978e-01 -5.649301114362725862e-01 5.817942881855902026e-01
6.433474511476680036e-01 7.807068096472185026e-01 4.557492241647314035e-01 7.625248937358439782e-01 1.661827122837566950e-01 2.339473225526671474e-01 7.440421583244294368e-01 -8.362136942440905329e-01
