5.858010576084862198e-01 -1.163746254248720913e-01 2.130021306899443356e-01 3.046085077601490276e-02 -9.082026300521652828e-01 7.305282494585934039e-01 -9.385615515663245922e-01 -7.558632880245881314e-01
5.103630115376733833e-01 3.927198694555118497e-01 9.569450531038041774e-01 4.757274267019389047e-01 -8.160548654498669396e-01 2.860977270522497840e-01 -6.131690890906862368e-01 3.430939492233582300e-01
-8.635251936173071741e-01 -2.493485436933573496e-02 4.817994675542836003e-01 -5.266760545486288692e-01 -4.703631080092036676e-01 8.432015717268406263e-01 8.186779477975298924e-01 9.498341341369398450e-03
2.819818128376785360e-01 -8.331261073994593591e-01 -3.254487933089929008e-01 4.131285687835266618e-01 2.697564406869346065e-02 -1.105823313407139352e-02 -7.624303404512384752e-01 -8.938363210313429175e-01
-5.981082561643802364e-01 -1.557843787596586704e-01 -6.925559654293378387e-02 3.112433690708664713e-01 -7.987895547222603199e-01 1.603168461020751945e-01 -2.984744834010444325e-01 -9.354266877803565361e-01
5.848566406827355735e-01 -6.926252428236336911e-01 -8.218766208045298338e-01 -7.309016603078322127e-02 -7.310323377027430070e-01 7.202246060058867805e-01 -3.702520740277006617e-01 6.114595443881327697e-01
7.092047400043961503e-01 -3.262776315035285091e-01 -8.595776300848056994e-01 -5.249748474952973254e-01 -3.374220568179544522e-01 6.435963300101830153e-01 3.818790083196428320e-01 4.873619121321834946e-01
1.770236669913136662e-01 4.023271819538773997e-01 4.453190966531470618e-01 5.931522839091893928e-01 9.352690810115726894e-01 4.642285579731055822e-01 7.095988086922344618e-01 1.453839970530446113e-01
5.231145225748432548e-01 -5.717219230487964321e-01 -5.890047025275888526e-01 -8.213462318296418374e-01 -8.883956145035214469e-01 8.786089899324796004e-01 -1.339042474032310359e-01 -8.839915212706774827e-01
8.495193902791542406e-01 -7.775727735993305245e-01 -8.064405658897615403e-01 6.866767947310015163e-01 -4.676137582274695337e-01 -9.769483123455864337e-01 -2.358471372770232222e-01 -5.644866956479817066e-01
