6.211935631988825257e-01 7.906635744861882920e-01 -9.642192671875990939e-01 -5.561182715481367556e-01 -1.263782530146326799e-01 2.926392642666184596e-01 9.243235574809105515e-03 -8.180381581179474448e-01
-8.568340052224507897e-01 1.613501454016821324e-01 -6.761929448646850638e-01 6.752033508167094578e-01 5.531868963739114964e-01 -9.828856888304153827e-01 7.848667154745627705e-01 8.749472955154367071e-01
-9.988399218075942887e-01 -3.631057677955569218e-01 -8.479163968947918129e-01 5.274736795792100974e-01 7.242255422715615509e-01 6.991847050395778584e-01 8.765168089456230049e-01 -2.035696228686671994e-01
4.537450211828137903e-01 6.123549885264076842e-01 3.165489036988442528e-01 -5.960269670809787979e-01 7.982170203011040854e-01 -9.668054767771689928e-01 -1.555607426951914896e-01 2.380348790293829175e-01
6.820400736113052531e-02 -9.912388866835024626e-01 8.409335693858777105e-01 -3.537614434732594404e-02 5.729148548312090750e-01 2.687924038806475124e-01 -7.879349731960652026e-01 -5.292045080950817937e-01
-7.438489641247914008e-01 8.190540347276713540e-01 6.440269413604871040e-02 1.634113712931488660e-01 7.495706248435600738e-01 -1.394017578783874889e-01 -9.009945489392607865e-01 3.864205054844578324e-01
6.224705189288093354e-01 9.614496508109220407e-01 -7.491394186093289775e-01 -3.606036985828151575e-01 4.826609992266439608e-01 8.199792535395333815e-01 -1.344695884480449077e-01 6.678986018098396205e-01
4.313296993411142033e-01 -4.918319622391476020e-01 -3.656049276265815884e-02 9.147432276393416828e-01 -8.768037689762313569e-01 1.345751158506700573e-01 -2.033062033556005677e-01 -4.450033533505628469e-01
-6.468474833951372016e-01 2.829508496489197000e-02 -9.198099562578399002e-01 3.942557653229243897e-01 -6.293418399559171927e-01 -1.202860946826700417e-01 -9.040122759436761690e-01 6.939972913508054564e-01
8.464815842026265358e-01 1.358989385381366599e+00 9.514226268126690922e-01 1.081769199250219193e+00 6.422537916597717000e-01 1.264587750218216566e+00 5.082877310171377561e-01 1.092048463352025323e+00
