2.020883193754328122e-01 4.957242596857713846e-01 7.834845288302159094e-01 7.990694870937826710e-01 9.728767505331119558e-01 2.190505909244881977e-01 4.977155095907350724e-01 2.792233668188899287e-01
-4.109150965109811260e-01 -3.144246288647214449e-01 -8.860216953051951450e-01 -6.242787129798053058e-01 -7.915648022416446050e-01 1.629312828640767652e-01 -8.390033822239151284e-01 5.505981378545949934e-01
-4.131957188711878892e-01 9.703822135130744098e-01 4.394721854929783955e-01 -3.316867490469985746e-01 -1.931872981265596589e-01 -5.625627795492105232e-01 -1.315543173318225456e-01 -6.539903870603198666e-01
-2.099126637052539657e-02 -3.328728842039458957e-01 2.250159436236536248e-01 6.977373212819233395e-01 -3.992540384129161790e-01 9.337530518159065096e-01 -1.555455675497039447e-01 2.895353122026882442e-01
2.483146365860282589e-01 -7.928004073096928117e-02 5.313745049130196296e-01 9.174028494029065062e-01 -6.112666645341922056e-01 -3.830755655914064306e-03 1.870077619650816203e-01 -6.102768484015261841e-01
-9.835001334554394070e-02 8.732167948127300683e-02 -7.088427413346267691e-01 9.658327281054950308e-01 2.205570783254173772e-01 4.129586660330135661e-01 2.684076551422445167e-01 -4.428151205876946772e-01
4.770751212901513938e-02 2.465678741101784421e-01 8.698945666282429379e-01 -7.364152331784312722e-01 -9.158125858317733847e-01 -7.464782975822905620e-01 8.344333247182429414e-01 2.110076867455425997e-01
-2.638110071700503489e-01 -4.428408622421757812e-01 -5.724035990760087955e-01 -7.613768894133263743e-01 -9.967456694835141739e-02 -6.525091956125050885e-02 7.260577191681631959e-01 5.877108281831076031e-01
-3.026401519543320262e-02 -7.746609098160259776e-01 7.475923797950962957e-01 -8.848315789187846114e-01 8.123307840373072963e-04 -6.609325620047021843e-01 -3.195650578204114467e-01 -6.634949371462388612e-01
6.784598891248029284e-01 1.281393415449346040e+00 1.127372333221736023e+00 1.082430602789129059e+00 1.478817295243364693e+00 6.189232339758626855e-01 1.211883571807954141e+00 6.827067213223079190e-01
