7.436787587146256318e-01 -3.076403208836091530e-01 -2.633293534212737264e-01 5.572333140326253265e-01 6.198228400126715165e-02 9.287640870728599563e-01 4.133685540503682088e-01 -6.244926210065717687e-01
-5.043214504018058708e-01 -7.175288085333699772e-01 -4.324932860876493645e-01 7.151092651831638669e-01 9.314147154307805820e-02 4.673051744742804381e-01 5.840798357674610308e-01 1.277659739197711808e-02
6.208261633092038156e-01 -4.538492885986924463e-01 6.086865411987210095e-01 9.899981469721967908e-01 3.935851819543132457e-01 3.886348800920820246e-01 5.086127786158767261e-01 -2.767735176870622649e-01
-3.400176622597808063e-01 1.066734005393510376e-01 7.789438458439246205e-02 -2.612303207972344055e-03 6.443822739713331860e-01 3.555961614285030326e-01 4.173902481351317029e-01 -1.001409543313451778e-01
-9.813473593724622024e-01 -5.002401418724908844e-01 4.445476520132680687e-01 6.894285278641538728e-01 6.205315883490316597e-01 3.126845662445785212e-01 -3.911136219222308696e-01 6.269721541530013376e-01
-9.413119756265493354e-01 -1.505639529971760648e-01 -8.448165229524751130e-01 -4.236066171643255718e-01 -5.778235439325032363e-01 -9.102907588451121246e-01 9.108972712063598820e-01 -1.927508612086903383e-02
-7.780489327259005883e-01 -2.902073905240676321e-01 -2.392376830752334094e-01 6.300240906271203922e-01 5.251525259456186756e-01 5.134045634241348743e-01 9.219859591851615743e-01 7.716179029864878025e-02
-5.309252352904048067e-01 -1.741527314988671193e-01 -3.509541047648387924e-01 5.980363290370624973e-01 -1.529667603508453322e-01 6.853134646881959835e-01 -5.797768577966619929e-01 -8.938727414920422110e-01
-6.974227543266278140e-01 -2.897093529415732949e-01 -6.157190313157379080e-01 4.214015649056994661e-01 7.552007779039640045e-01 4.278335519451412772e-01 3.372111933712274023e-01 -5.077167224303231752e-01
5.039384499704886444e-01 -4.023048181183108696e-02 9.912083514639902226e-02 -4.049417217571318339e-01 -2.576267036063157878e-01 9.040013119900565108e-01 2.237051381695602803e-01 2.175880419829228085e-01
