-5.287677559917822734e-01 5.932566566345915948e-01 7.171115323447430079e-02 1.836208823308651539e-01 2.761722153761230203e-01 1.525641675967290833e-01 -9.559467080852253051e-01 -8.693722892122903723e-01
9.095406483946129050e-01 -7.402649476434659537e-01 8.875005806522588969e-01 -8.476410647482732763e-01 -7.953507344845855975e-02 1.914082924317461742e-01 -2.943467194920428298e-01 8.853486000986006133e-01
3.377614222558356083e-01 -5.868997577660874931e-01 -8.207282940583211506e-01 -2.406179683900986355e-01 -2.029994377834833941e-01 -7.826576046806044129e-01 9.810133992663763181e-01 6.868762232620668762e-01
3.802798573572367946e-01 -9.040476062951146030e-01 -1.542888072021315615e-01 9.696041323021409308e-01 -6.599085776902580136e-02 -4.755634887991191384e-01 -7.926890546046925223e-01 -3.477820552050157055e-01
-6.661982776715147381e-03 3.716274187169803511e-01 2.189230457183537482e-01 -4.714373442216499566e-01 9.468779863931602314e-01 -2.624109839983417292e-01 -8.446271927936241930e-01 5.370700426169983110e-02
8.692247119481200102e-02 -9.217750827010469106e-01 3.770851191643551648e-01 -8.976723620350299804e-01 -1.228912549731786541e-01 -7.804901034075744093e-01 7.359928118933829477e-01 3.727462135132941778e-01
5.944129898838024229e-01 8.023335810730787276e-01 -9.225252202095601817e-01 -9.554759249452453584e-01 -1.132773895371819162e-01 -9.139687763079649141e-01 -9.092548138099298960e-02 -1.007805229593692342e-01
-4.371862924678735496e-01 -6.646572812153204168e-01 5.484151727995221215e-01 -3.664340143956641427e-01 -4.890352775317070577e-01 3.226200627377078245e-01 2.115685834425051759e-02 6.218133127527722959e-01
2.575230627265541195e-01 -1.525878414949577433e-01 -3.268463947707975770e-01 9.214278731055063343e-01 -5.914111237984132075e-03 -7.703986592260347877e-03 -8.893272567026344610e-02 -2.447657443052131399e-01
1.155586923920859821e+00 1.054080496465081840e+00 1.174214775949798728e+00 5.665887789547126019e-01 9.670149059469057562e-01 1.302690118812444897e+00 7.110003101837457651e-01 1.461783104775703279e+00
