-9.282520384486792064e-01 9.585295263523245790e-01 1.370942305380131732e-01 1.182473420736296355e-01 5.613075675223531125e-01 7.314487835889154077e-01 8.202230972380162299e-01 -6.333036562327662988e-01
1.181205426209406273e-01 6.446373078555427405e-01 4.979601644397264604e-01 -2.439718225755602710e-01 -3.519300743017621524e-01 -4.134889542385904448e-01 -9.402204657486386008e-01 6.303871457564595993e-01
-6.988805250939975622e-01 -1.642352531973525487e-01 -5.460621595623138536e-01 9.046555154018705025e-01 -4.003710284651726958e-01 -8.563766313087699533e-01 1.577266649423567646e-01 9.832754876385514375e-01
4.564273281855395492e-01 -2.241719876791783417e-01 -7.204640098297332429e-02 -3.938078351877454253e-01 8.489339036161083207e-01 9.474188633371889434e-01 -1.428178380515414680e-01 -7.410802379378420568e-01
5.551284718537392582e-01 -5.781612399480848818e-01 1.778231464417610042e-01 9.629807634313225506e-02 5.315769817062143687e-02 2.362458981176580597e-01 -3.957677154255228036e-01 -4.862850378434924181e-01
-1.271196297489864957e-01 -5.663763701248873961e-01 1.602804630206322578e-02 1.074548531166774623e-01 -2.874922946455007455e-01 -6.192664100396791937e-01 8.404743503192289023e-01 -8.936108733795307124e-01
-4.986997897514411360e-01 -1.194950473399185586e-01 9.116879555926520329e-01 4.341722958811298216e-01 3.065743115362673521e-03 -8.122802750957929252e-01 6.635578986214016872e-01 4.295575366057913236e-01
8.165687769525806772e-01 2.756430653204975378e-01 -7.827345373701311004e-02 5.519589790450907252e-01 4.486200901291019782e-01 -5.417655141841546396e-01 5.404445153771320065e-02 9.447399939079743625e-01
-9.047273408729457067e-01 -2.234702187954717978e-01 8.756976065418939914e-01 -6.400582402376406854e-01 -2.088313761279259051e-01 -2.549179441422286807e-01 1.538377322380737322e-01 5.969691055961721116e-01
6.240700157732149700e-01 6.342687731113002547e-01 1.261989869935827624e+00 6.299629234702316394e-01 1.437124831709674311e+00 1.179189132617117552e+00 8.575954464727334470e-01 9.810414728844696342e-01
