2.753340562337989184e-01 -6.021503157092422676e-02 2.085515059566573903e-01 -4.991601203495996675e-01 -3.981790131568081481e-01 1.770689603293815750e-01 8.637210413014144716e-01 -9.715938200897475951e-01
1.259867528367957235e-01 -6.942959104508339419e-01 -2.408689957824883265e-01 6.874346923185503666e-01 -6.813941897101205569e-02 -5.525001447915922625e-01 -5.409369132741750352e-01 -9.251415350031038098e-01
-1.222997317751919333e-01 4.794535059262305943e-01 -5.299345383592823922e-01 6.100178785233123513e-01 6.695247881916932542e-01 -3.142906862854442096e-01 -7.472909769303079930e-01 4.187828716065020718e-01
-3.290092587866690899e-01 1.506127682827658187e-01 -2.639493802621890595e-01 -6.858619337970113250e-01 3.505909772016480019e-01 8.537283927397480987e-01 2.200519328655592410e-02 6.364668035964449189e-01
-6.316481062618637399e-01 6.648110745340445327e-01 4.047671738087192939e-01 6.589811636803055706e-02 -7.137350115986684784e-01 8.308097778072474071e-01 -5.121467846083309627e-01 3.716387300726688991e-01
-7.634765620932262298e-01 -7.411495680749518034e-01 -4.772684970276466210e-01 6.443793637086203674e-02 2.451598220601653999e-01 -1.837048147537825304e-01 -7.430977992340030980e-01 3.822027553457818527e-02
-5.552568177075434264e-01 -2.868925917814846294e-02 -6.489625712336382080e-01 -9.277184995873930529e-01 5.633955616554837675e-01 -5.953582578587357510e-01 -4.059644211089090682e-01 6.146680322770343707e-01
-5.666908451178720441e-02 7.051446301948469664e-01 4.094223764055124892e-01 4.106095245234904212e-01 9.320580612895019712e-01 -6.813594084498988401e-01 -9.859995242688208705e-01 2.075059577761755314e-01
1.567965255942374014e-01 -9.664547443713551456e-01 -7.988644234536137478e-01 7.067211511613773478e-01 4.313186276806397768e-01 6.023103256885573575e-01 8.297162399958377677e-01 -5.837099621520196457e-01
5.462958400710723472e-01 1.058287834176879105e+00 1.378285597345600078e+00 9.330214817097445268e-01 9.547337460287697031e-01 1.239313544918689836e+00 5.286446075189521476e-01 1.040862939494504591e+00
