9.754522656728283891e-01 -3.377384986443756620e-01 -6.191717645654573055e-01 -1.136903425711439652e-01 -6.450070027762169200e-01 -6.199578901870950176e-03 -1.997743832315761470e-01 1.267384202364496559e-03
2.724081899134853657e-01 -8.963697217506323422e-01 4.626094301835337319e-02 -1.602405260590757941e-01 -7.736874307638006432e-01 -6.223629414674947125e-01 -3.279908986511457236e-01 -3.008174472645046560e-01
-7.617594858287946025e-03 -6.409971665238540783e-01 3.924920690196282980e-01 5.178155013306648957e-01 6.875659773009445974e-01 -4.752882894447936213e-01 5.376741044796353730e-01 -7.328314831682787300e-01
-5.254813434309351106e-01 1.379219456776106245e-01 -7.213278305556110048e-01 -7.205668204889965622e-01 -8.392836432276793435e-01 7.979595808962942627e-01 6.212124007654238333e-01 -5.264189316067613422e-01
-9.553911464065900638e-02 -8.611145552005301518e-01 -4.440382161086620094e-02 -4.019299316845104109e-01 3.284348813727080429e-01 2.060522140536436009e-01 -3.539149937031371707e-02 7.593635491514583169e-01
6.972718755807656432e-01 1.026341909772188199e-01 -5.229000234839875638e-01 1.734868706877055189e-01 8.208773638713937615e-01 -5.077517300467260242e-02 7.225724736301522011e-01 -4.315216527453984430e-01
3.575219603532575618e-03 7.012364010607310405e-01 -5.120259416748085268e-01 -6.475330254352944515e-01 7.541197958052556771e-01 4.522976273780354717e-01 -1.441754543282762757e-01 7.054672739676237647e-01
3.495939315026137528e-01 -2.419200169963886538e-03 -3.163571294422098390e-01 -1.397516094131177056e-01 -7.744292279829576575e-01 7.702187666101723007e-01 -8.212597074357728122e-01 -8.771947983249610559e-01
-5.863931345628128344e-01 1.541227027673239824e-01 3.189871025767099244e-01 -4.427493355900347094e-01 2.971056378853393909e-01 -2.112372440857912537e-01 -9.714749646231841673e-01 -6.763927178849999944e-01
5.425564945476305523e-01 1.024296138841691350e+00 1.106963567972026219e+00 5.586406313817614544e-01 5.669332336312897791e-01 1.281071705354532186e+00 1.182334750433078785e+00 8.407924705596182546e-01
