5.749293700422875020e-03 -9.160214250853697671e-01 -5.655438175503268994e-02 4.215935036842444195e-01 -5.994587960293815687e-01 3.671098679072608562e-01 5.016948307788315908e-02 8.813133139637279179e-01
9.834727428464373755e-01 4.255421347754102523e-01 -1.240750808817374651e-01 2.839879762832340226e-01 -6.922694280917625065e-01 9.505920457607417440e-01 -7.745426828035015809e-01 -9.431921426632008387e-01
-3.899135436865022175e-01 2.684932488571261100e-01 -9.471138485521404249e-01 -1.523042058935253351e-02 8.307234938033150051e-01 -3.479036514509314948e-02 8.098472951440043310e-01 1.805130413511888410e-01
-4.920164543577933980e-01 6.659526987802741882e-01 -4.058537063879774642e-02 -2.306816249995358170e-02 -5.253763347154263297e-01 3.836511592934503945e-01 -5.219149696976479458e-01 5.470168996376374437e-01
-8.754577901545657070e-01 -1.874704233702495504e-01 5.509461604989926986e-01 6.590516777123229808e-01 4.085957122760408566e-02 5.568879493814831161e-01 2.878476234309084170e-01 -3.784889513483296053e-01
-7.391955263873910553e-01 -2.820761266931670619e-02 9.410235014930738995e-01 -8.522101713724317129e-01 3.911850157807306161e-02 9.785705361219969589e-01 5.308770009992280769e-01 8.217595970727011867e-01
1.514496585447768773e-01 2.914037273704865871e-01 -2.493888560265609122e-01 -7.459726391112508903e-01 1.945735081462007798e-02 -9.235552501495729594e-01 4.019256364127885561e-01 1.166878575662848583e-01
-9.315960648944472400e-01 4.136873151652009639e-03 -6.576762076406130753e-01 -6.356745578660665252e-01 8.722751423258112702e-01 8.021472099176663040e-01 -3.040670702602898956e-02 9.136510141632183668e-01
-5.557394717200876411e-01 -1.142001427212901987e-01 8.506477748198029154e-01 -3.446380504783792542e-01 -8.623839712148544390e-01 6.225723850496400757e-02 -1.606539674644185123e-01 3.115356944424929608e-01
5.537984325437180777e-01 7.581921103561073405e-01 7.648094835305393469e-01 1.385380457385329001e+00 1.431586297966843224e+00 1.157324081589134579e+00 1.408906818209305856e+00 6.090793992716001526e-01
