8.007868702824505469e-01 -6.865043443597269590e-01 3.635114355982687062e-01 8.477583848728305060e-01 9.228007701164890886e-01 7.546263501659931094e-01 5.291270474836957671e-01 6.360149590710850731e-02
-1.235279543281315728e-01 6.345604262379995752e-01 7.254905674645744096e-01 -2.363702086388494994e-01 -5.415654495526884826e-01 -6.703374982759979783e-01 2.801078263157408266e-02 -2.475859465083865008e-01
5.180930653181214929e-01 6.263340182543284396e-01 -9.174741628058427079e-01 -2.850151751453338100e-01 -7.408823065269889430e-01 -7.846128630839532825e-02 -9.817918934279792342e-01 9.549318764170555696e-01
7.318563206074735206e-01 7.366308877540654887e-01 6.051686394426500915e-01 -9.327693807794212866e-01 -4.823337700599237277e-01 -3.092760031191792436e-01 -4.111687516190436487e-01 8.023285309792675957e-01
3.255507879888919209e-01 2.877174389782173325e-01 6.502319102319762401e-01 -2.094940416461044119e-01 -3.168642371407530689e-01 3.402839348062807190e-01 9.633127239137633246e-01 -3.895315425136711696e-01
4.169431972543380382e-03 -4.799849414864347796e-01 -7.353280153849213185e-01 8.438156248517503233e-01 -5.604938728282660154e-01 2.691128854723423558e-02 3.515550895651016194e-01 -6.611738596616691943e-01
-4.018382176824912833e-01 -1.312250317932348587e-01 -8.437713531252888366e-02 -2.760285323060285290e-01 1.602862793663610841e-01 -9.679718784070145965e-01 -4.454629700047632035e-01 1.014680977409398999e-01
-4.060655580376544282e-01 7.077340385758794650e-01 8.301093504100549580e-01 3.974837962302526506e-01 9.046577583269070910e-01 9.071098145644616029e-01 -9.408741787106735810e-01 -5.350898098263174862e-01
-8.698504034151621767e-01 -8.634009840780865197e-02 -6.274440487905368347e-01 2.809239785090031916e-01 -5.544176987309534788e-01 -9.655098745664467685e-01 1.410314263486105446e-01 -4.724230416012089595e-01
5.532743094794512206e-01 6.991197515254613526e-01 1.104101376519488031e+00 1.200983683106992439e+00 1.499010997404095491e+00 1.302003681843999727e+00 7.498039982318639440e-01 1.452607561218054011e+00
