-7.831993224961459887e-01 9.861342229524789893e-01 -7.384045418536437921e-01 7.325867310993969816e-01 -2.836551197525283285e-02 6.796510676367646386e-01 -3.327486904259497891e-01 8.332997955631671338e-01
-7.615701275533233172e-01 -8.416672243872296288e-01 7.285607187077607350e-01 1.543571408473498607e-03 1.544006096693057994e-01 5.251600128863977979e-01 -2.958996205562918203e-01 -8.573421753137702161e-01
-7.895951015553315244e-01 8.567309762160790765e-01 -8.334314255484607248e-01 -6.213840542829727198e-01 -5.140462027828696101e-01 7.430457581639671183e-01 -3.340387531876534144e-01 5.958233147250753259e-01
2.239392407530125251e-01 3.776524167651915675e-01 -9.867903967564737311e-01 3.668156562865021453e-01 2.313034736120989088e-01 -3.160782854094272842e-01 1.399101105847710969e-01 -5.115229676042343243e-02
7.621033076393946004e-02 7.490770486647448934e-01 -4.613372049719874912e-01 8.025959280587959821e-01 -2.416301002845862023e-01 9.604093745965494033e-01 8.033802603510717955e-01 3.255808893964058370e-01
-8.618703454223168858e-01 -9.655790521159013373e-01 -9.650769060222224027e-01 6.899736047263929084e-01 4.334133778407069926e-01 6.792945881504293126e-01 -6.291150814380332967e-01 7.397284777199550909e-01
2.139603825408720184e-01 -3.148502642756785264e-01 5.139144162341313660e-01 8.874780633555858778e-01 6.397976066520829619e-01 -5.157995393049874533e-01 5.798050707361561695e-01 5.954425471846835904e-02
-7.989627316116980627e-01 1.792316720347901793e-01 6.783072365600988363e-01 7.460765035325431782e-01 -7.696083044081907243e-01 3.369523748017446696e-01 -9.514218413770763050e-01 -5.113383559111752685e-01
-8.670185921399331530e-01 -4.851703690636162136e-01 4.942700570470164312e-01 7.856756689478459066e-01 -7.310160849387226101e-02 -3.726692114826828384e-01 -4.142641296033027221e-01 2.465034454371910488e-01
1.193585401097665866e+00 1.074171878060017793e+00 1.485709361493222858e+00 5.056182443136124638e-01 1.337734654585396976e+00 1.161731682309085523e+00 1.072039672866948568e+00 6.489290400751133170e-01
