6.079009213436117331e-01 1.860412632334318417e-02 5.286727157434354396e-01 -3.893423571411298578e-01 8.085142356460426338e-01 9.338379486346835012e-01 4.670745691913515962e-01 7.910686160430315805e-01
2.101538840394512331e-01 -6.987620876344218246e-01 -7.758984203586336559e-01 -7.501536617347444036e-01 9.557095007090166128e-02 3.283893961279067408e-01 -2.659347375842935346e-01 -4.621561368807161063e-01
5.121756217614186202e-01 -4.740080052188360149e-01 4.963407366059653381e-01 -9.966921113859328329e-01 -1.048782265477634645e-01 9.085208967784264011e-01 7.609953404108429353e-01 -1.345566625992267173e-01
-7.141532276504929388e-01 -8.286139956084308533e-01 6.447942857138415640e-01 4.967806785385278090e-01 6.925785880233612524e-01 -8.731692868237872496e-01 -2.302751887719356461e-02 1.582372998947969567e-01
-7.693083470708883542e-01 -9.731087837845775468e-01 -2.332856511454517445e-02 -1.462375430836826418e-02 -5.605964652674444437e-01 3.667044269713604088e-01 5.274877164880078517e-01 -3.113436694386912951e-01
4.655544437887819686e-01 -4.889768772738263269e-01 8.869808248002919449e-02 -5.795532737466868589e-01 4.443138811706626168e-01 9.866657162282155280e-01 -4.842717007324199852e-01 -9.972696810123409250e-01
6.216163418385032280e-01 7.635297464429162684e-01 -9.843417276211230416e-01 -4.132619924436153891e-01 6.778380441276907753e-01 -7.009788605604871936e-01 2.752230460060500761e-01 7.999840405659002229e-01
-6.828663649653110568e-01 2.888168050070540893e-01 -4.548482764645787046e-01 3.483924046386561724e-01 8.300568716226208732e-01 6.932027657639603380e-01 -8.671306422859694774e-01 -7.497244891969145897e-02
-9.443713319805300266e-01 8.086868155722781726e-01 3.657168240099537559e-01 -1.609247424809825411e-01 7.852808483947018026e-01 1.984099930515899057e-01 1.355905600078397555e-01 7.487737153067317575e-01
-8.243007573640825925e-01 -1.020739346001682257e-01 8.603413473280623336e-01 -6.421388173876385608e-03 6.625112776256769642e-02 -1.896779939988164632e-01 5.609133091111246916e-01 -1.465587699288388723e-01
