5.259810213358728781e-02 1.555941984607009942e-01 -6.027789081452801234e-01 4.355279745803646296e-01 -9.109677911349607360e-01 -4.832643470046580347e-01 -6.264523640151757888e-01 9.515816903327083409e-01
-7.472289498418858145e-01 6.415119912817364156e-01 -7.767087876955260928e-01 -5.130072436865102947e-01 -8.506223901444462943e-01 1.363369343928848565e-01 9.298015252187743496e-01 1.774143762347188957e-01
-4.597934766510065607e-01 -1.904890032458896876e-01 5.325013372607183548e-01 2.785011718791641222e-01 3.557894956376201900e-01 2.001804715951900349e-01 -2.897754122531641663e-01 -8.110023720644481404e-01
3.887240159223579461e-01 6.008205281106875351e-01 4.098740249548271652e-01 3.375605326309503162e-01 -3.509411459080544748e-01 -3.274158262992692414e-01 -6.201492905885475082e-01 7.646823892233600706e-01
-2.889396252129072806e-01 -9.445853718595007553e-01 5.895825190356356327e-01 2.720381459814160685e-01 -6.683907260902117731e-01 -2.794067399236368487e-01 5.918799846185311964e-01 9.821971266038587167e-02
-5.340590543454455386e-01 1.078488231768968131e-01 5.085834231710708586e-01 6.686817017704833610e-01 4.295250350499859593e-01 6.179244182584291423e-01 -7.178000149137429009e-01 9.230976519422466886e-01
-1.236400776990127515e-01 5.118038305292671453e-02 3.169083008585922290e-01 2.618591188234502543e-01 -1.251149822605828188e-01 6.971760642753970227e-01 -3.042502228345973503e-01 4.857140049156383199e-02
-5.270467797544995392e-01 6.566675334127514141e-02 3.965967672416788048e-01 -6.345750111990628994e-01 -3.447636349491056684e-02 -9.678755821252549296e-03 -4.104635302117294327e-01 -3.111658578354645766e-01
9.021812277251699541e-01 8.342783645178226681e-01 6.466421372102604259e-01 8.837849499928189800e-01 8.756844374103325279e-01 3.703810068544588496e-01 -7.340554938064354218e-01 5.462304981442660523e-01
1.181420571568208011e-01 -7.207485160846149874e-02 3.127785420583828468e-02 -2.438525018407522449e-01 -7.029985468887325339e-01 -5.313537213435592932e-02 1.744503284957230616e-01 9.027416792095654952e-01
