4.720130916554208245e-01 -9.132180922485060304e-01 -4.982011446529477361e-02 5.409067193254490924e-01 -3.472227879194793587e-01 -7.988499899442171870e-01 -5.882953536767521197e-01 3.796135317971129908e-01
1.537851189397021479e-02 -7.494125434773803995e-01 1.545532501605793030e-01 7.350721157670780936e-01 9.821355713768165074e-02 3.755805130696285854e-01 -4.012284239570718114e-01 8.459715478262164190e-01
2.050566111995637542e-01 2.965892531552489775e-01 7.532145695635206195e-01 4.155444041306466385e-01 9.379684232267899713e-01 7.383492916153793217e-01 5.989108598831305308e-01 -9.991877156839170659e-01
-2.953989224958510906e-01 5.998736851842114692e-01 4.428910702235948627e-01 2.042040622800231908e-01 -7.129888870462433026e-01 -7.450177221429348240e-01 -7.145811773368766495e-01 6.613738698725497578e-01
7.705924932751289091e-01 5.486119093988697237e-01 -1.488474297916564382e-01 7.022904307830122317e-01 9.654253840373616669e-02 -4.556698223164230566e-01 2.683960334923953805e-01 5.199713341761471597e-01
-3.746596410017355439e-01 3.870379560635612837e-01 -2.800467776981694357e-01 5.214190228193791299e-01 -7.794086485473563641e-01 -9.484692028521424234e-01 3.336689726522710231e-01 -5.494481228455949662e-02
5.721541034000034998e-01 8.776880274587117725e-03 6.030040196166166488e-01 -9.349884938399779521e-01 -6.116154409259657587e-01 -1.187796249117722969e-01 5.312576810851687981e-01 8.246920645083268830e-01
7.707757809516557757e-02 2.752426430978420768e-01 -1.360855783555103837e-01 4.512704662065911698e-01 -6.737221620799638266e-02 9.291238543974731368e-01 3.546630283451568388e-01 -1.019148443192263720e-01
-5.795851301792200871e-01 8.105785380035057663e-02 5.186580368207196479e-01 -9.987548009858007170e-01 -8.148027728191951091e-01 5.243834336626487236e-01 -5.023330554907514678e-01 -4.172847251062061780e-02
6.684405098255040700e-01 5.098324156436002674e-01 1.262489613411590827e+00 9.470744508189756772e-01 1.334932057849939291e+00 1.189003975241901268e+00 9.227130213283694093e-01 5.866396804561306855e-01
