-4.844492021672923698e-01 -6.504098249184213643e-01 6.625224857013449764e-01 -2.465289561440877630e-01 -8.344922947435613469e-01 -5.664081243787655318e-02 2.015988853213324106e-01 3.520288810174077021e-01
1.743581036189618683e-01 -7.767303567015448884e-01 -9.040122547446305390e-01 -2.570860992057326655e-01 -3.294712850031167317e-01 8.324306113849739841e-01 -4.678273255922131835e-01 5.009491689699745454e-01
2.065623982212652088e-01 9.096734062900202478e-01 2.260417488004125008e-01 3.798127605287708874e-01 -1.430783072062540295e-01 -4.997421460069764176e-01 4.733831176244123196e-01 -7.868777627303917832e-01
-6.947652001736692728e-01 -4.006226905294374419e-01 1.365584425827148785e-01 -2.464206296405639929e-01 -3.827414458783495732e-01 6.904027309755167430e-01 -7.565345393257372208e-03 -9.999280306015714270e-01
2.267949570352989497e-01 -7.113645198460962771e-01 3.335729889879124332e-01 -8.459927093093595474e-01 5.999598944007962231e-01 9.403820000333440454e-02 -9.766280094636559106e-02 -1.772834180577165242e-02
1.074786308613315811e-01 5.508864534197739360e-01 -2.018562926734066565e-01 -9.323480676316604487e-01 -1.192098741493914371e-01 -4.860501725099497516e-01 7.425723916060322782e-01 8.600031347597205666e-01
7.607109429391489819e-02 -2.774624298494317021e-01 2.254942235142189944e-01 4.444727452346470820e-01 -7.043940079852732961e-01 -6.074519532118676235e-01 -3.904629621040944798e-01 7.998363451570900118e-02
-3.320786071734127542e-01 8.743317865312112414e-01 3.797001840619274038e-01 8.971600681880607109e-01 -5.785190831079998208e-01 4.247064359302141767e-01 -7.805447890447925197e-01 -8.108364899742603882e-02
4.403006950119976448e-01 5.145439253758248288e-01 -3.363751246821178320e-02 -6.138544526343776564e-01 -7.714070506513825976e-02 -6.272180776112445955e-02 -4.874400804471294979e-01 -1.255905715061294003e-01
1.168641671128507920e+00 6.974810043835183437e-01 7.979824923061179520e-01 8.636801890199036214e-01 1.088339093075413988e+00 9.603912476509387508e-01 1.409885399632680336e+00 1.119518920286572961e+00
