-1.343334849931325792e-01 -8.433792443311038944e-02 -5.436286997094597062e-01 -9.957647684283852385e-01 -4.880487347833084577e-02 5.160254790046729934e-01 5.224079004318173958e-01 8.192529577532567941e-01
-2.733528277054453337e-01 4.969166469337771286e-01 -3.408899506785803002e-01 9.117057556641749994e-01 -6.829828070778978244e-01 2.801949843990263478e-01 -9.492495576657993261e-01 -6.341186258826019273e-01
5.381435280056059423e-01 -4.681274325866477959e-01 3.884585330689958038e-01 -5.916462547114529347e-01 -4.592175307991044342e-01 3.109528473090441558e-01 3.728248569463672446e-01 5.811614514939256182e-01
3.889976133367833988e-01 -7.584971892892276024e-01 4.536392534166977519e-01 7.006276387730996369e-01 -8.820660039798291496e-01 8.955524914487125177e-01 8.068776679925877549e-01 3.096379894157901269e-01
-8.234679107680542565e-01 2.183180377397524463e-01 2.478197434326336879e-01 4.511578298976770540e-01 7.136123290001128439e-02 2.567010623313077389e-01 -9.804084874530640814e-01 8.859304677847794629e-01
4.354508135490402498e-01 3.397015192688193075e-01 -8.839617781360689097e-01 8.522792242763823634e-01 8.504051719404759346e-02 -6.532604298218165351e-01 3.301923135277107235e-04 -4.754856119225105981e-01
5.688824176493862961e-01 9.122680260381432760e-03 3.756809880355092002e-01 4.272416734209565359e-01 9.250821431382387772e-01 1.574755851822740027e-02 -7.118267031154295044e-01 -1.198442064480840230e-01
-1.778083089020210394e-01 3.352327273878636937e-01 -6.225486068469145984e-01 9.524078679850211948e-02 1.819513947290596345e-01 -8.274777154565089443e-01 -5.333337249737171160e-01 -7.293213634551096725e-01
-2.781097477147822516e-01 -3.573791349041433030e-02 -8.800143703534515360e-01 -3.084551287180754553e-01 7.751008202827929239e-01 6.802218274933016229e-01 -2.699598823373186018e-01 -6.309623244951005905e-01
7.725802710746307866e-01 9.924621700228677401e-01 8.621522296664996254e-01 6.939012975085361301e-01 -7.348662950309754471e-01 2.193602033953494512e-01 -6.894313939524108203e-01 -2.533094750653455129e-01
