-3.052744640893403361e-01 2.907317612407993579e-01 -6.780028481114304117e-01 -6.948496756021675935e-01 4.796305412693284698e-01 -9.225317432406878737e-01 4.785376175694966427e-02 -6.469146785118493614e-01
1.068188051479606049e-01 3.776145539000042017e-01 -5.285934379798440386e-01 9.578791028935988994e-01 9.104061383141350827e-01 -8.151716614326063315e-01 -2.033083966420834443e-02 5.073293941202305923e-01
-5.441475192644504855e-01 7.783280419444391640e-01 6.314908936580643228e-01 5.537785908215280273e-01 -6.447950643069428889e-01 3.352696937595907034e-01 -6.217747629156655798e-02 -5.705030353164408652e-01
3.811884634131652572e-01 2.837665236103974475e-01 2.617433532562247755e-01 9.808375451872024531e-01 2.442070286685253944e-01 -2.620937644671359479e-01 -4.426457033673103503e-02 -2.503494403136943269e-01
-1.377569738149264644e-02 -5.785959131846292181e-01 -3.390408000743596606e-01 -6.771248100692839333e-01 9.049062507001699451e-01 4.937524699779607396e-01 6.052808235333535514e-01 -8.307910037146253313e-01
7.560118482565487685e-01 -5.461369880886459693e-01 1.607110171377381658e-01 9.834537736169086664e-01 5.984648623137442947e-01 6.314920488641226903e-01 3.045933904758630906e-01 -8.964870980998489447e-01
-7.215719208785917882e-01 2.626408845033432193e-01 3.071955101536023580e-01 -1.924753613461496204e-01 -9.408481648753104221e-01 -9.512860134565497283e-01 3.823423633395672816e-01 -8.083745506625983346e-02
8.634154514864664787e-01 -1.301932707209014772e-01 -8.668904319172521244e-01 6.631146129538720846e-01 5.453406206543465196e-01 3.408619732606710251e-01 -4.159494005465480537e-01 -2.370757851596771992e-01
4.254431249418997307e-01 -9.588179204728177751e-01 -9.616025834767296665e-01 5.844931917588103154e-01 -1.106252072321181057e-01 -5.157443588756738251e-01 4.169121085733995535e-02 -4.155466202642619233e-01
2.448586950570241783e-02 -6.128120363623654754e-01 -6.399511510999689179e-02 6.771153821803856943e-01 8.949031248548466877e-02 7.992184339716255081e-01 6.833292933687509230e-01 5.017523491541551195e-01
