-8.113942468952168863e-01 4.226697515448876175e-01 2.301667050170772555e-01 3.054282612507808192e-01 -6.380356335024479630e-01 3.163372597503546491e-01 -6.017034469257203089e-01 5.189858624774905671e-01
9.214053276549887261e-01 9.704016902017253976e-01 -3.187659643379794350e-01 4.108817855076336567e-01 4.272480662145865526e-01 8.328377730615024177e-01 6.245008000875016396e-01 -2.769254643540273175e-01
6.879810774304706555e-01 2.580548007417204914e-02 -8.427673377051525527e-01 -6.422130576791316159e-01 2.027198404182244396e-01 -5.295277332164456396e-01 -4.943060744641047943e-01 -2.294405202179043979e-01
1.868938009658689392e-01 -6.286048840263365189e-01 5.606427383401446640e-01 -1.424144669277191966e-01 -4.662834766900623151e-01 -1.794144219710644972e-01 9.236379115115189720e-02 -2.224578514521691197e-01
-6.302211679649536435e-01 7.922358756510683442e-01 -8.159007623419285427e-01 -7.357547496305882895e-02 8.047878165607151857e-01 -8.810349081888497746e-01 -5.875295615913622704e-02 8.050264967599276567e-01
4.843533696357642526e-01 3.114291388042111919e-01 -7.464250809016437227e-01 -6.865840528097539863e-01 -5.246652871203993929e-01 3.082930870131532775e-01 8.313383770536346695e-01 -3.675989775760983846e-01
6.068613620859837354e-01 -5.735093421038834904e-01 4.056559607014258440e-01 -9.628319669542939607e-02 9.323141432306689680e-01 2.858386486578234909e-02 3.163521379427058910e-01 -9.824386991419729043e-01
2.798534157700580671e-01 7.146367534423663237e-01 -1.328827572951953861e-01 -2.662616236964470140e-01 2.029945141516484863e-01 -6.129748123913847380e-02 -3.426779268020287983e-01 -8.649082742974179006e-01
1.131559014072491820e-02 -1.444079278533079158e-01 -1.388920815059133673e-01 -8.300059025132815460e-01 3.920094918910566051e-02 -1.078223185562354747e-01 6.107364851226704250e-01 1.275983510593163839e-01
-8.305822069334687363e-01 3.160737361827861136e-01 5.248453737277725129e-01 -2.319189924517426338e-01 9.366716654615461213e-01 -4.155656242613174900e-01 2.661190846478671546e-01 6.792181277048481292e-01
