-9.875745576509642465e-01 9.361951220528204054e-01 -2.308186612930560599e-01 4.592320517730206220e-01 9.598224048843895240e-01 3.115113913430251902e-01 -6.313026529157550470e-01 2.577768190726918984e-01
-1.888208038929439780e-02 2.998774931556709156e-01 -2.000462360437822440e-01 -9.757751127567684257e-01 -8.022444617422115343e-01 -4.408565306068708001e-01 -4.980793637675446917e-01 5.786231801935406427e-01
5.904120318291417036e-01 -2.784106305882461108e-01 -3.989085601822184302e-01 9.779490305921834103e-01 -3.264019064787533342e-01 -4.935248044584319427e-01 6.355541798383317342e-01 -5.555716716941772049e-02
-8.490877027426908530e-01 -7.748518020139549822e-01 6.148013693261809021e-01 -7.397450556045208625e-01 4.917705417737507911e-01 2.115074007139312595e-01 6.625391830614399957e-01 5.547678989287456730e-01
1.381761415669977566e-01 9.584525471637013183e-01 8.620539992557119113e-01 4.883666250997897862e-03 9.557900350132431111e-01 5.072871525571172047e-01 -1.320631962883289656e-01 -1.088910529450399789e-01
-6.742986907279797659e-01 2.991168293038550807e-01 -6.170792399510525161e-01 -4.726044394325235043e-01 8.511403903338539134e-01 4.129302246249366704e-02 8.223514177215929255e-01 -9.629060151695247871e-01
4.836628710150743249e-01 -5.268589060699166993e-01 -6.966626134695694805e-01 -9.459676627073176913e-01 -9.839307062654729652e-01 5.797371130533599537e-01 5.510033457877610008e-01 5.648787540961299758e-01
1.996178308829203996e-01 -8.360239381741176867e-01 6.768846180989323003e-01 -3.307911359527622164e-01 5.172387439702474943e-01 -3.599062022978638531e-01 6.440865953639571817e-01 -9.523920646423746916e-01
6.091881901107221164e-01 6.486697006501431773e-01 2.149218899736315969e-01 -1.293783585622840793e-01 -3.479554103574873380e-01 -1.275675928058483954e-02 6.758253606314457151e-01 6.077847442650949894e-01
-9.852634551515848660e-01 9.131566519783704816e-01 4.878468976046441696e-01 1.387949332757432153e-01 2.027575098417635502e-01 -3.100119464890391807e-01 -7.436366556553710705e-01 8.747945054608385895e-02
