-1.041427138960748788e-01 -5.932477394234791923e-02 -2.016570841407956394e-01 4.241320908727983507e-01 8.967692370762117005e-01 -8.827093000974770565e-01 5.325908897534303854e-01 -8.235592621653415879e-01
3.898122082910646657e-01 6.325295365969154648e-01 -6.868291497134988433e-01 5.632480499556078435e-01 -5.487417098738409660e-01 -9.041153162736081939e-01 -2.864273254920466361e-01 -7.692268093620557856e-02
9.581536808856689902e-01 3.664211813554876240e-01 4.063307809442560092e-01 -3.182810419930512946e-01 8.229956117757464273e-01 -5.553401050289841212e-01 1.683866679376766484e-01 -6.516870740285172214e-01
-4.383093915111042627e-01 -9.461967284863239680e-01 3.540620914501992900e-01 -1.467588339454244384e-01 3.072828364616817520e-01 2.918377501519322514e-01 1.308460327138363244e-01 4.372773084533363441e-01
-2.279841663558745957e-01 4.818811993466938226e-01 -4.470528550487322672e-01 9.596407047040920180e-01 -8.925334344008428733e-01 1.138083684977373444e-01 -7.655708984406317530e-01 -8.842533488715713652e-01
-3.589106036322140536e-01 4.135277828896817276e-01 9.231634291945189918e-01 -5.559057839969563375e-01 5.330474209913229622e-01 6.628873032345663496e-01 5.301525406118789974e-01 -8.121329896250051306e-01
-1.927231371718343134e-01 -5.419988028787738887e-01 -5.122502249097300453e-01 1.318168102572305767e-01 1.559419335534895090e-01 5.107047460496074720e-01 -3.378115245383708221e-01 2.960664447082257400e-01
7.976047372755168396e-02 -1.249161944040459993e-01 -4.925377561182833208e-01 8.373232600695048600e-01 1.456709525673116623e-01 -8.989672968373838557e-01 2.097716604799462203e-01 -3.081301091302743878e-01
-8.021793717900214116e-01 -8.752586267188491309e-01 4.229082746471977128e-01 7.546708703193585333e-01 -5.215024898434805767e-01 -4.018289185415462317e-01 1.550107636883439888e-01 7.514309782664649884e-01
1.456765652807051836e+00 1.147724836305205720e+00 8.245126845941798122e-01 1.079972848892802428e+00 8.536066345442617775e-01 6.426919055519536572e-01 8.756447371154905124e-01 8.710813233623048157e-01
