-6.496573996287087205e-01 8.207120163658236933e-01 2.393921250172375004e-01 -4.908414056664247571e-01 -2.357366072971478488e-02 9.531297476292119875e-01 -3.703937893714808194e-01 -3.382607268824808777e-01
7.186439604670478154e-01 -7.074209343109634229e-01 2.331021211043182717e-01 1.755690611838334192e-03 6.070096317697366572e-01 -4.991719487856445259e-01 4.351043796577123146e-01 5.191437246372965220e-01
8.672531465884181223e-02 6.095200062968531007e-01 -5.587220146050098091e-01 2.236429625209286343e-01 9.679485759527290956e-01 -1.701857108261712881e-01 3.336057955726385860e-01 2.955671758445066466e-02
8.380257460038258444e-01 1.275062258749366517e-01 -5.726449133178526107e-01 3.686942644969848359e-01 1.627392712557029775e-02 -3.708669259923227379e-01 -1.377247254587679048e-01 9.614821106041953058e-01
-6.128005403666407780e-01 7.974519744839740909e-01 -9.334342957082264469e-02 -8.164910857813811873e-02 7.143239869068160885e-01 8.805932936267735212e-01 -2.485477941303433358e-01 5.142883274823215611e-01
-7.043928537385157895e-02 6.558948166691827009e-01 -6.736223533811585007e-01 -4.744248236282520015e-01 -3.118630988900654710e-01 5.468641118704919979e-01 -5.714788353593898140e-01 -1.993325307222062470e-01
3.683607569520106484e-01 -8.702485294796780124e-01 -1.534883903065686894e-02 3.464325602869644527e-01 5.994786219683456707e-02 7.880691426671013744e-01 -7.169413999690594785e-01 6.636771118506090694e-02
-2.978005532543415157e-02 6.707886006155261427e-02 7.831143797583768329e-01 -8.207549476173543468e-01 -7.520554362222744427e-01 8.014227723121924996e-01 -6.211529563662132603e-01 -2.015169358841379932e-01
-4.481212738344690916e-01 4.863421912345762266e-01 -3.973474859422889693e-01 -6.198552106390045058e-01 -2.946256238739581867e-01 -7.350362583006646577e-01 6.674731970948275528e-01 -4.448542267888138113e-01
6.804340438844225236e-01 5.973241512841931389e-01 9.499681677155039639e-01 1.226819304034562519e+00 8.972686155454343560e-01 1.217827083784699393e+00 8.208520514630537335e-01 6.152866514549811816e-01
