-1.595516330042716646e-01 -3.517077568124864495e-01 3.540201329056309465e-01 3.733589204438332310e-01 8.742004522185724547e-01 9.988094492050949569e-01 -9.779295029959578223e-02 -3.784658508359837192e-01
6.588157317774363531e-01 -4.094518858598501510e-01 9.419500317606028794e-01 9.759980058923702906e-01 3.852271396647113377e-01 3.842963403038335279e-01 -2.860815456507093124e-01 1.051664228051540917e-01
3.618792669681547558e-02 -7.786004258600638384e-01 4.152725551803539972e-01 1.495256929461525885e-01 -8.283219141850290956e-01 -6.133787119777980301e-01 3.408692608308603322e-01 3.504405607757321572e-01
-6.139750544561550782e-01 -5.682914664893830015e-01 1.297046186439754223e-02 9.582581539525052428e-01 -5.797337741521222387e-01 -1.988483038694053295e-01 7.759414983179280245e-01 -8.147870297480963586e-01
-8.495251010975055639e-01 3.580088350723369395e-01 -7.727971388537668851e-01 -7.718618365760989697e-01 -7.528140588777101350e-01 4.309188938661967505e-02 5.365978089177212418e-01 -2.974083054097083068e-01
4.666460161103191950e-02 -1.074704560759198735e-01 7.510074837777709345e-01 -6.234050576116871856e-01 -5.549010525166631069e-01 -2.145012412898352760e-01 1.204018249398630669e-01 9.319958169085738042e-01
5.671448340334002136e-01 7.067369585521610098e-02 -3.993673680803055959e-01 2.419730496384691065e-01 9.620710746504774757e-01 4.107219059204405553e-01 -2.445204747560463243e-01 5.184338304428750543e-01
3.437456987293943111e-01 -3.483087659253678581e-01 8.949631853255968217e-02 3.076132692669490964e-01 -8.584118958480673189e-01 -1.439355355423610483e-02 -7.828699887091377096e-01 2.438755505467107287e-01
-9.006394320428106059e-01 -7.670523398066819709e-01 -5.225157872150016924e-01 6.397031067666889559e-01 6.139809207382398437e-01 -1.304293867579175981e-02 2.062552306485563314e-01 1.834788539117968575e-01
-7.123768969859178846e-02 -7.090349704274130360e-01 -8.259292351938640753e-01 1.783885196865526712e-01 2.249778982837731256e-01 5.895453068088341020e-02 -8.091180063462704020e-01 1.223575306481832214e-01
