-6.583531609645720817e-01 -6.169182791086640361e-01 -5.811383430378442849e-01 -1.724607177737655928e-01 9.761684051118348915e-01 4.179333713186772492e-01 7.134771905474779352e-01 -7.615912966015376817e-01
-1.224802579157016069e-01 1.748115488830128683e-01 -1.918775340865153112e-03 9.683439199210310822e-01 9.944906019033172839e-01 8.806598853300651175e-01 4.320306520136434347e-01 -4.902966953524887650e-01
2.538028462020271991e-01 4.938808890058461465e-01 3.221654648311604863e-01 8.950346386783354369e-01 4.893545274665174194e-01 6.547097998037882949e-01 9.165551831365443824e-01 -8.634707538163286511e-01
-2.633070920608984178e-01 7.251224984300896903e-01 1.376741443504965190e-01 7.727587755911606848e-01 2.490230439333949164e-01 2.866233698224858184e-01 -8.872974699060716119e-01 1.863722640643006301e-02
-5.709715079048942599e-01 -1.407555785390166569e-01 -2.706043505995348042e-02 -2.321278109918341048e-01 4.261729520089538870e-01 -8.063579562010625423e-01 8.312041994315657600e-01 -6.368376440684309081e-02
-6.252536307608771438e-01 7.584312336142116084e-01 6.232784590613309472e-01 -1.171868414409924508e-01 5.494939541307759523e-01 -8.431447376141951722e-01 3.590498521592000447e-01 -6.195103015448097938e-01
-3.446372025210777679e-01 8.053024237754575765e-01 9.702838406169516094e-01 -7.449474258707795560e-01 -7.796482780578384286e-02 6.315585659317404232e-01 9.278075449159612909e-01 7.483105737964534931e-02
-8.540365020507840743e-01 9.775238581166936225e-01 -9.453819381446966208e-01 -9.240706860170710968e-01 -8.489819751031413286e-01 -5.987949697052736830e-01 -5.976477872137293534e-01 -6.907266184760851857e-02
1.429602218843490924e-01 9.919964034650949891e-01 -9.155903840197996413e-01 7.324786257958293412e-01 1.094893357244623999e-01 2.805094399958900642e-01 -5.244089916556518016e-01 6.877990533590971900e-02
3.592063068609130383e-01 -8.878031346295247594e-01 -6.681960719499533408e-01 -9.381389915068396590e-01 6.526888075907786302e-01 3.474397162745530565e-01 -6.741539672046568121e-01 5.536734697033105501e-01
