6.702534524871641697e-01 4.529902848606119914e-01 -5.047672184691984754e-01 -3.565842117714399517e-01 6.536213283418355058e-01 2.093904402533894871e-01 -7.299480733929919474e-01 6.194106242092098924e-01
-1.849373143724690749e-01 -6.699276184566380632e-01 3.044446594709313558e-01 9.955498544860286181e-02 -2.040313604419059512e-01 -1.327797671147199488e-01 -2.043175153182352766e-02 -3.207251099204684319e-01
-6.356305784746196785e-02 -5.201014631993827741e-01 -2.595334485244233935e-01 2.185017258180517175e-01 -9.068301810513312855e-01 2.722366070083348522e-01 -7.508786036851411438e-02 -4.537513519595557376e-01
-5.768437257911889215e-01 -6.354237991147371201e-01 -2.072098324586124640e-02 -9.541934766273059143e-01 -9.319910198149319314e-01 6.211707829729351538e-01 7.869076871978653021e-01 1.554815840440768593e-01
4.336627945072768497e-01 -8.933269270738337653e-01 -2.846549755854312913e-01 5.036227850421213237e-01 4.553733000145778753e-01 -9.833045806742133355e-01 -5.017369188328713037e-01 -9.572128269314958970e-01
-9.521198579775733695e-01 3.283666501271698124e-02 6.652632182356128521e-01 6.352360068241555968e-01 -5.410517862652579613e-01 3.484776858013514111e-01 -7.090141303855967969e-02 9.870056726134730507e-01
9.475050713919652701e-01 -2.676178958128176966e-01 -2.509913672413965902e-01 -6.230526813775616457e-01 8.427726042413485885e-01 2.192121467771874777e-01 6.378612693340119932e-01 -9.941104691599431664e-01
-6.793608912162696356e-02 6.153930319465010790e-01 4.187418661262030106e-01 6.550999335500868881e-01 -7.133427348360519282e-01 -6.635500072804374483e-01 -2.754556964746390779e-01 -7.256604369607220217e-01
-3.342935968542490865e-01 -6.015982395849679421e-01 9.363980337758797123e-01 6.487500358767750441e-02 9.962549121252906037e-01 -5.590427861665034914e-01 7.639276992860346560e-01 -5.685781614785820892e-01
-5.704518753416021326e-01 -2.255046758191641132e-01 -6.647335164237329064e-01 3.776278033470930051e-01 -9.679812372233509432e-01 -5.753199226677605527e-01 -3.298941508863162397e-01 -1.720590285136134323e-01
