7.760377453978615225e-01 3.378773112324806593e-01 -5.737896701868248073e-01 2.108324476914138490e-01 -6.949486638723088028e-01 -6.285364622755880148e-01 -8.772154514047798557e-01 2.087349828466262824e-01
4.019499298783373309e-01 6.165873841231854779e-01 -9.420728396660729143e-01 -7.614146182764502946e-02 -1.769611772379953152e-02 -9.721414556295180365e-01 -2.050340187254016122e-01 -3.117223746973198928e-01
-3.413045518029265146e-01 -3.072225442053153621e-01 7.865680917995716559e-01 1.153330046756055882e-01 -2.147750657304356992e-01 9.514352116549933402e-01 -9.174670360240251288e-01 -5.708392629180618627e-01
4.269172315595295419e-01 -8.899889408031962379e-01 -9.520614402098379614e-01 -3.023814947638034933e-01 3.341497600366198917e-01 -3.962029764217946948e-01 -2.617212417454399809e-01 7.445545852861987779e-01
5.689691653157260554e-01 -9.959149284956538839e-01 -7.757183262830902315e-02 4.477173014702078291e-01 -2.333275648205173081e-01 -8.153896867600809450e-01 8.527161495320958462e-01 6.901643221440483256e-01
7.472058297091774826e-01 -2.784002719032363515e-02 -4.038543945364214682e-01 3.563750948155246512e-01 5.044827996080505361e-01 1.449648872034019487e-01 2.340441761605043247e-01 -8.780591897402358903e-01
-8.974023879874175602e-01 5.927358881217104081e-01 8.715016301339295612e-01 1.458845459008424328e-01 3.307676242050929805e-01 9.138702660523674304e-01 9.952892916538855772e-01 -4.086461434715535912e-01
-8.663757957497690843e-01 -6.653472567807174887e-01 8.110637748370221889e-01 8.288590929915193861e-01 8.468766770484912332e-01 8.206973936876429399e-01 6.802574411356232531e-02 4.940300087533460172e-01
-4.997905861391191973e-01 -4.281892161727935964e-01 -8.536481292809812160e-01 -7.967519200165995574e-01 9.877503894092976022e-01 -1.579846212871913735e-01 2.191616982170303540e-01 9.565504682983685392e-01
9.939728520073685125e-01 -3.929223840683111479e-01 8.078247830327067724e-02 2.214260582745699590e-01 9.722398976305908214e-01 9.225434349021957026e-01 1.632660802004000100e-01 9.800351435007865764e-01
