1.155739626467606751e-01 9.097070232320689787e-01 1.369975801060172582e-01 -5.786829898859151555e-01 -5.510783044826250698e-01 -1.534392230827563708e-02 3.971494305742695463e-01 3.449532053176647128e-01
5.476199453465564471e-01 2.085250594337846319e-01 -6.052322072561060473e-01 -3.005528010551443696e-01 7.653578831360767776e-01 8.117461974535593594e-01 4.631422021614075568e-01 -7.920155182803390037e-01
-5.360835888013291139e-01 -8.088271758224865327e-01 -7.504649474877238546e-01 2.613287140147544374e-01 2.710539926910242592e-01 -3.692644282548589452e-01 -4.310817370126507342e-01 -9.168902094158548621e-03
3.257691344452480209e-01 -3.888318140295454750e-01 -8.241119866656636539e-01 -8.962293372791638735e-01 7.391515344346557548e-01 3.825997777206424644e-01 2.212276032379012491e-02 -4.381272733726371271e-01
-3.795934691322733201e-01 7.561983477154377020e-01 8.210047574685706007e-01 -2.213354414390145131e-02 -8.267460441138656524e-01 2.049863761191532685e-01 8.974653499708571402e-01 9.916773617237053529e-01
-4.845806656867339690e-01 -5.248059044027852948e-02 -8.782608705964154439e-01 5.264029109143684160e-01 7.797085602567488394e-01 7.068530218795938680e-01 -8.378296411494681184e-01 4.656667173816386729e-02
5.844386363268401219e-01 -4.514914854358087482e-02 4.838973489717681709e-01 8.781290437553934680e-05 3.177880695004215994e-01 7.482444908504426451e-01 -7.831215735152470270e-01 1.316134086980214057e-02
-4.522536197120632373e-01 -5.933593303361581750e-01 5.047020535161252930e-01 9.996399562196263133e-01 2.464682623276961415e-01 -2.634066471925260444e-01 -2.056182010191955900e-01 -2.216827218364723073e-01
5.638692387382338023e-01 -5.488553060218777091e-01 3.863409208854076127e-01 6.711763829480170696e-01 -7.553002316960517604e-01 6.401102963992029160e-01 7.784319083581305865e-01 -6.565401706874396393e-01
6.317086102427444949e-01 5.010717150226675631e-01 3.357129162355552143e-01 -2.895436598594058886e-02 2.202652686383157477e-01 -8.581362553497493550e-01 -9.642794029986954119e-01 2.807820414174833079e-01
