2.925122509916810998e-02 2.008430897434854145e-02 -2.807306275467236212e-02 2.044707823713551864e-01 -5.813043619931768102e-01 9.558057320408022139e-01 -8.196954770713682503e-01 8.924902434639012672e-01
5.274875464773931544e-01 -7.939732480650538715e-01 3.886849463255495074e-01 9.612421984892627336e-02 -9.826637421248749504e-01 -4.085455097491057508e-01 -7.864558978515143739e-01 -3.282411672702496563e-01
-7.792452272323668883e-01 -4.803901821007463546e-01 -9.113729887230934690e-01 4.429679407849556050e-01 5.346132721631995377e-01 9.456871234996979680e-01 9.296191388580430370e-01 3.646587521193593862e-01
7.787094392563225220e-01 -4.005721130336574731e-01 6.193046000111008809e-01 -4.300791847581251215e-01 -3.816917753154647208e-01 8.368573887003609713e-01 -7.397888911353931451e-01 6.994545641276772585e-03
6.524881918859186669e-01 -5.659341457282576204e-01 -6.158204820115196210e-01 -9.469075915834275214e-01 5.181668643511150307e-01 6.388870404828443927e-01 5.858751755345503742e-01 2.452731971214832107e-01
9.424218650104898565e-01 8.198230284726104600e-02 2.051554717387800153e-01 -3.195314765232817322e-01 3.340681567848886591e-01 -5.229287486319358358e-01 1.371273163911013171e-01 -3.333539262059241892e-01
-3.786589005873415292e-01 6.459387472696191956e-01 9.955316674139844668e-01 3.128470618865748509e-01 2.226927519258214971e-01 9.166410243897082921e-03 -5.304032520066310763e-01 3.030317262592086003e-02
-7.884610323412666322e-01 -8.555215730578034083e-01 7.117414568222737437e-01 -6.494156574211404909e-01 8.073698510799209860e-01 1.923388947435504814e-01 -7.099243584524299600e-01 -5.548031754546745020e-01
9.340665502799572195e-02 5.708889626761335379e-01 6.815761796281087914e-01 -7.560105689898153347e-01 -2.375445114022767257e-01 -8.295827899665095817e-01 -9.080763579223849469e-02 -4.035685898895386980e-01
7.691939742491950005e-01 9.982042358847765806e-01 1.017096309145705479e+00 7.431269596917448039e-01 1.217287915593212588e+00 6.097570400182223960e-01 5.976224501253125654e-01 9.508578258662385707e-01
