4.003614946323434953e-01 -8.233414982845195240e-01 -1.129384049630903775e-01 -4.966279565996445378e-01 1.725446520774043258e-02 4.369188176539628987e-01 -7.734162943451019512e-01 -2.997793532449080089e-01
8.656424579670451980e-01 4.456031972500786864e-01 -5.834759415971770835e-01 -8.350585495510731704e-01 -4.689410688615516243e-01 5.561546539587174376e-01 8.596621875357950415e-01 3.786547859303988073e-01
9.983761677674583002e-01 -5.596278405219248242e-01 3.898537301330804450e-01 2.088011977843726719e-01 4.916534228170961196e-01 1.012374928191066559e-01 5.667428827398255375e-01 4.857029900603662131e-01
8.826343754548851006e-01 -5.765068782226943078e-01 3.050326310600028901e-01 9.576825411515303976e-01 3.071296257797739848e-01 -4.094012357507892386e-01 -4.935446667825817979e-01 -7.533036529181591501e-01
7.157292275246742719e-01 -8.482021180611569733e-01 -7.337771679105209444e-03 -4.238059897954160604e-02 -1.639150445634707243e-01 -8.190134004179232541e-01 8.175192828640256426e-01 8.366986871851112006e-02
-2.136197795014498357e-01 -3.338303437656398032e-01 -2.856443083575350705e-01 -6.430430140694993746e-01 6.963593700218191351e-01 5.641529986709106215e-01 -9.765933072904644519e-01 7.424516591391718823e-01
1.265485354311948196e-01 4.531495627897976775e-01 6.863299997421661303e-01 -6.949483806389951113e-01 -5.650047959265962483e-01 1.329877001542354442e-01 6.133633122621413580e-01 7.563656646421355045e-01
-3.174020568547304411e-01 4.799170577516307379e-01 2.550116980555980906e-01 4.271709460586929907e-01 -8.464613746129996397e-01 4.939191489041518945e-01 1.245315516817302459e-01 3.556306886732718553e-02
8.291131486933907002e-01 1.861979262402329027e-01 -4.193207757105981148e-01 1.403004954407183202e-01 -5.343096545849745915e-01 8.173495432353583556e-01 -7.592367654723040094e-01 -6.693684744044323676e-01
1.232902071012668133e+00 1.496068386087717084e+00 7.199887757324940907e-01 1.267216098651352318e+00 1.170351649983906395e+00 6.251985860376181314e-01 9.864420446352850647e-01 8.843663701303786651e-01
