-3.631826685414516476e-01 -6.872513101723369822e-01 1.555852307672100920e-02 -4.287268473011363046e-01 -6.669987401563617357e-01 2.238614987302200987e-01 9.378307383751915971e-01 -1.369456813200975454e-02
-9.090590914317293603e-01 3.336965474709221446e-01 -8.559478833617517601e-01 3.300989910803120431e-02 -4.304559265952156988e-01 -8.942893331903651877e-01 8.027849963480910844e-01 -3.415869181379389552e-01
7.812162180660713329e-01 5.854994855783350882e-01 9.053247339170464869e-01 7.766628200033451890e-01 -8.762209957900826129e-01 7.234853511135839188e-01 9.031677755035778521e-01 4.195890216212518897e-01
2.958273903599397681e-01 6.132706715259002017e-01 -2.834869914114734879e-01 3.400683234723558268e-01 1.015223303881955808e-01 -1.420751629400385241e-02 4.461367986246604911e-01 2.074456462865217343e-01
-5.354196871991110385e-01 8.787989192047114262e-01 2.917696246932222071e-01 -6.142956818242217842e-01 -4.353406174690830355e-01 -4.225230102204313720e-01 1.201750916868671304e-02 -4.446467796534503414e-02
5.617732402884771936e-01 -4.785115676510443006e-01 -1.714331365846319954e-01 -6.430015305188212515e-01 2.845922773034328390e-01 -9.475859724172093213e-01 -7.395117706638447697e-01 2.531377480251906231e-01
9.520258791586111435e-02 -3.754622254150932203e-01 -2.381714029287733680e-01 1.199408141147821905e-01 -5.823165993657020145e-02 -5.370412873689187627e-01 1.856099400336836958e-01 -7.975090401319848699e-01
-7.194939176650712032e-01 -9.687004281585314125e-01 9.841840977541127522e-01 3.493808217915215231e-01 -5.005775381651049738e-01 -5.476345690790491716e-01 -5.102347690934796454e-01 2.361339811429983282e-01
-6.253522022968376337e-01 -9.357583923430043971e-01 -5.624855550250080771e-01 -1.010371546397108578e-01 -1.804370167835340766e-01 5.864678590580441053e-02 -1.524352065854763794e-01 7.199186150036178677e-01
2.985188919587125067e-01 8.676952293054012166e-01 7.173583546103081687e-01 1.615595631007364918e-01 -3.188010504375851095e-01 -2.126277633322828375e-01 1.868494061429724074e-01 -4.184090636442490130e-01
