-2.956860989470757595e-01 3.767755739484690558e-01 8.812785296242624522e-01 1.648112625139925846e-01 -8.781538477249641872e-01 2.806852614904129517e-01 -3.723188465611184661e-01 -4.223369689802418669e-01
-5.335783357610246469e-02 -5.622288710906111486e-01 -9.334163935887633823e-01 4.361484292849857614e-01 1.583543472154500531e-01 3.602533255637423437e-01 6.704146191475732763e-01 6.916379142711048811e-01
-6.167469919463770545e-01 -3.429646285475413947e-01 6.093985420650573914e-01 -8.192522846770751155e-01 2.068885760999781276e-01 -9.001703095772071173e-01 -2.346837332430633527e-01 -9.574296206679293597e-01
-5.984324905182183407e-01 -2.180940934606789838e-01 8.054494742007114461e-01 8.060937772902294629e-01 5.706401692904508050e-01 6.865633090770673075e-01 1.920881462423351671e-01 -5.585215420814555465e-01
2.483636502804009716e-01 -1.718404044453227808e-01 -5.567422551915812701e-01 1.133514847808729797e-01 -1.678903795120434417e-01 -2.847215512441816365e-01 5.181565204406624048e-01 -3.018431595040891313e-01
-6.203830536438097454e-01 -8.172383180996645180e-02 -8.528497567242123711e-01 8.128920229179108503e-01 -1.789708287038858092e-01 -7.026424978141150302e-01 2.003005099658998756e-01 -2.645870041518305626e-01
5.928262739665715042e-01 1.589502812701781842e-01 -3.875693980259198312e-02 7.657417091904945572e-01 -7.641468359759682194e-01 -3.391949731368708587e-01 -9.859675061978734334e-02 -6.110528399072179262e-01
-8.411052071139790698e-03 9.714294419887643528e-01 8.549877075893808076e-01 -3.122213897243470981e-01 -4.730507840605047143e-02 -4.662004999294677710e-01 5.682618567649286856e-01 3.348341690520388880e-01
5.592497097391091465e-01 -9.076905214182269255e-01 -5.424490951270783956e-01 7.596945359821338783e-02 8.426568885895633354e-01 8.819705175047927170e-01 -2.585803347339254987e-01 -9.781609017518346771e-01
-8.571190926044052194e-01 -7.276494198115954770e-01 2.019006748260985251e-01 2.292627493349208567e-01 7.559073517898253769e-01 5.905294696998675263e-02 -8.340134372589136369e-02 -6.539000329786262000e-01
