5.294739470179328222e-01 -8.045080680288836383e-01 7.969019547923434921e-01 8.722924466418100486e-01 -3.428975175489925586e-01 8.980242020064383990e-01 5.843640810986900913e-01 8.067741395306367025e-01
-3.358337041003922607e-02 -3.869619358639837525e-01 -4.205013526462486606e-01 2.383649079288900907e-01 -8.550997048698327774e-02 -2.822562344108767718e-01 -3.519819872094975821e-01 -4.095877952830246915e-01
-8.257012917270920571e-01 -4.222255177755773747e-01 9.022966767381361830e-01 -1.311258976917948349e-01 -6.745896010682239652e-01 6.314179289706922660e-02 -9.090021687117040283e-01 8.711057961765780178e-01
-4.395592361219269328e-02 6.007276712563227594e-01 -5.703341534378987276e-01 6.229697202075323847e-01 2.205930767037043161e-01 -1.852559516320311239e-01 5.048080199696278747e-01 -3.566655041536190840e-01
-2.173260937325838249e-02 2.153249788952857902e-01 9.511910665314053936e-01 -1.450874517805109676e-01 -2.094759112139699120e-01 9.555178058748730052e-01 4.180060322529928207e-01 -9.867469791730545392e-01
-2.852911529749513342e-02 -5.576249037755658389e-01 6.412195433664376054e-01 -5.945620363569930067e-01 -3.341962662547646179e-01 5.506697824298794064e-01 -5.742745168821465906e-01 -8.542803772358258385e-01
-5.979173268119786222e-01 3.302585294314530628e-01 9.723740144963319842e-01 -5.039291190097008322e-01 9.806706826176372349e-01 -8.276595706257612317e-01 2.710175890319022063e-01 -6.886080431549199687e-01
-6.146884758871837828e-01 -7.404614730145608892e-01 4.997612471217411922e-01 -2.286241698985544968e-01 -8.790442961698632374e-01 4.364566505933409335e-01 -2.952930334349401775e-01 -7.235915087943034507e-01
8.296167016429449870e-01 -7.146452772482918547e-01 -1.697405213116711664e-01 6.065628825165170213e-01 -7.487684676976462672e-01 4.996233301019687989e-01 -5.271256529690000470e-01 5.304931515096444894e-01
6.478682415390157878e-01 1.489628060335026483e+00 6.425391969413377646e-01 1.237280938235370442e+00 5.481803645830735094e-01 8.004760833764208439e-01 1.400581731820513376e+00 6.663210529855454478e-01
