2.162278223662594812e-01 2.758456010178889084e-01 2.833419095457829773e-01 -4.635628960509809993e-01 3.859750664238359441e-01 -8.430964868805177481e-01 8.402582483404741343e-01 -9.636724497685784652e-01
-7.889264747922239973e-01 1.135117792322073438e-01 1.058084335271045617e-01 3.042365949571981254e-01 5.704812163806844971e-01 -4.725513301089612206e-02 5.779046426946481407e-01 -4.631403785415122432e-01
1.484214048788341511e-01 5.838921744859397744e-01 9.381019728903174926e-01 5.471481322163911365e-01 -8.009564396439539102e-02 9.500595763234742641e-01 -7.345733214668606070e-01 1.662488059366307169e-03
1.434436257273419280e-01 -8.209468085895943457e-01 -7.714650954606423472e-01 -3.781344490075557729e-01 -8.565872452883427357e-01 8.400302456256791839e-01 -1.394160936233721504e-01 -5.311460930106735034e-01
2.270322442371619509e-02 9.717884094493383085e-01 4.130880399526006830e-01 5.911647700286646323e-01 4.673665815101757381e-01 -5.750058254268914926e-01 -9.107981687134609761e-01 -5.164968637165305854e-01
-9.962244472039383236e-01 -5.750954484786492404e-01 -1.177098788742365620e-01 -4.826625517073213079e-01 3.538500015195717996e-01 -3.337768479524632070e-01 5.508178498170372972e-01 -4.584756710078707886e-01
4.088671664019367658e-01 -5.762646581795103362e-01 2.044669885792225195e-01 1.598296772253191556e-01 6.259239911485103836e-01 -7.317615152168948089e-01 -3.614726965368175726e-02 6.453592769296878640e-01
6.177292759626344942e-01 -7.077856861182127979e-01 7.134111189860932178e-01 4.565951806257244616e-01 -5.962211455316945852e-02 7.178851892827746717e-01 9.086316066186468365e-01 4.824823909091036089e-01
6.419460450693128539e-01 -5.903540048572819554e-01 -3.387752023529018164e-01 -4.169411623694581071e-01 6.471110491117462171e-01 -1.092012190734799049e-01 -8.207322346990877371e-01 -1.455236015383665205e-02
-6.974206024154845363e-01 9.609642771713375886e-01 -4.278125062220448083e-01 5.778823118512452783e-01 -3.313701111292906010e-01 -5.569713238024425195e-01 9.899937656998445412e-01 1.638664714090676267e-01
