9.835054839172869823e-01 5.766001286038131557e-01 5.672597244844903575e-01 6.704816873212371409e-01 -4.522588686602826424e-01 3.486447450162086792e-01 -9.726860871708253864e-01 -6.730087683729584214e-01
-1.839401081404490323e-01 3.559911437881435603e-02 2.973994379768423180e-01 -9.780357799949339626e-01 2.237061811127660782e-02 -1.243491432329364432e-01 7.686574182954957202e-01 -7.661335155415882614e-01
4.789638680553429673e-01 3.715295403988956302e-01 -8.868395358746028467e-01 3.172734350340844500e-02 -7.645946685452442715e-02 7.186036794999510757e-01 5.894911409234038224e-02 2.458950917009175008e-01
2.792145828376433325e-01 3.172183211959149762e-01 3.515966076942294016e-01 -5.783330322904005616e-01 1.499939009252957423e-01 6.063433343058100000e-01 -5.568174952457278781e-01 -8.546034463011300542e-01
5.969438468437056056e-01 3.822398931029500346e-01 -4.113270048865844686e-01 -6.849103472315489771e-01 -5.326979950095545036e-01 -5.007873778817317767e-01 6.136348061072327553e-03 -3.497549282217071731e-01
-7.168467088187908676e-01 -2.371327214807805728e-01 -6.367403153662243298e-01 1.861868564170179319e-01 3.434521093660560798e-01 -8.302563915828207186e-01 -6.181377784118935459e-02 -7.992150271774010051e-01
-8.072607541235907735e-01 5.687764486084641025e-01 -6.753114316327368805e-01 2.519152249459704063e-01 3.519188222532045884e-01 -1.454337825087779201e-01 3.180021287998755497e-01 -8.612494774752983417e-01
-9.554925328073637925e-01 -1.423327907318199248e-01 6.806743268761015209e-01 5.341927051075492372e-01 9.976011047349353511e-02 -2.047530288581893565e-01 -8.336680049149864935e-01 -3.745337601787335213e-01
-1.207588638475449727e-01 -7.329897146757340387e-01 3.114919217323541822e-01 9.262888522693528692e-01 -9.027797842338474155e-01 -7.951388439147077936e-01 -7.446707184327105988e-01 -3.942977770876412436e-01
7.047005811414741583e-01 1.141118102374052423e+00 1.226445104031278710e+00 6.383340584809382712e-01 1.354395487153365885e+00 1.194526031884648676e+00 1.314609050278615410e+00 5.443596015386896747e-01
