9.328009820435696486e-01 9.521286277041780544e-01 -7.975113806507014846e-01 9.936901005351799210e-01 -2.109642689305317731e-01 9.198692973238598025e-01 -9.715713579691589441e-01 4.176357085526269941e-01
5.879465117014091025e-01 -1.551372104109751682e-01 -3.887153529707749744e-01 7.113193965765929327e-02 5.840403417034618627e-01 -5.048951244461341581e-02 6.239134602880935798e-01 -4.803016541892035640e-02
-8.509546540129333536e-01 3.711870237949765894e-02 -8.997259417584075880e-01 -4.907529800662187025e-01 4.310797133075490173e-01 4.255952606238808666e-01 -6.163608443958232819e-01 7.067751100261903119e-01
7.521166967064243369e-01 -2.555699507204800547e-02 2.078451015373083965e-01 3.181656171262261523e-01 -1.593283889275418641e-01 1.044284328635518566e-01 -5.695732912988971108e-03 -4.668279684130278717e-01
-8.346791553263237518e-01 9.002248688723595293e-01 -9.895911393824565749e-01 -9.412273278156924050e-02 -3.483763276188600599e-03 2.629002684641890131e-01 6.305874639882931287e-01 8.554869498885584456e-01
4.992812285296173158e-01 3.167178217934503159e-01 -6.475419302694800372e-01 -1.837559995269271162e-01 -2.337418899018823826e-01 6.141000429822827122e-01 2.879390056725286140e-01 -9.266790199560226426e-02
5.070511245955016122e-01 9.642851068391797842e-01 5.537723508178955534e-01 2.317171807278821660e-01 1.200589609860032159e-01 -6.019563852424547612e-02 -7.577711977811372179e-01 -1.988055101576133854e-01
-3.959303383741650251e-01 -4.301629867449516809e-01 3.909844190327229629e-01 4.032398235864569358e-01 -6.172418435597837316e-01 2.783448266558472550e-01 -8.316522681775595505e-01 5.900856853633946741e-01
1.382646090578278919e-01 -2.409068658152462294e-01 -2.015580213500496320e-01 -2.682264121444992711e-01 -8.430623495806801593e-01 2.611511401804824661e-01 3.367499116061365427e-01 -5.579214403659560340e-01
2.075595106169620951e-01 3.996710245260870487e-01 2.345620209221919161e-01 -2.640054237899085443e-01 5.412321595829419074e-01 -1.045251426448046139e-01 -5.091401001585103003e-01 9.374759354696360347e-01
