5.649932717610293142e-01 6.796009519691015299e-02 -6.129469570261347755e-02 -6.265399220634619848e-01 -7.733655433997139728e-01 -3.089581376749177544e-01 3.084304096508732052e-01 6.429789050172685094e-01
-8.968775030466780152e-03 3.642135456477049171e-01 -5.260536575920069513e-01 9.031198548498757805e-01 -4.575275242067002868e-01 3.089806978523184089e-01 7.305303542155969776e-01 6.399742781960766624e-01
-1.903172127763030907e-02 3.997865017996811154e-01 5.240944967037106661e-01 -8.156728693239720940e-01 3.743099093226864849e-01 -4.538831212923049030e-01 -9.424993854042513775e-01 8.561995722247277563e-01
6.714941930956093152e-01 -3.821004125937899065e-01 -5.963378882291037186e-02 -8.010586697597037453e-01 -1.046578129982478345e-02 -4.021493358019128106e-01 -7.667718276780819409e-01 7.026492704286257940e-02
-9.498344300640184645e-01 4.340204802841363119e-03 -8.238495162942438554e-01 7.147881866460132905e-01 -7.394561296009112272e-01 -8.387554259820360070e-01 -6.436376262854517361e-01 -5.935674707432245789e-01
5.072681409840573696e-01 -5.372530146044516286e-01 6.529845495001089795e-01 -3.930985989266400082e-02 -7.185967499914642787e-01 3.813284173299225088e-01 -8.620434324439867346e-01 -9.481785605593151534e-01
-6.899718351685457662e-02 -5.089765054332280325e-01 6.715312955883936397e-01 -4.968221852576133468e-01 1.562801100848660862e-01 -4.197443159694982384e-01 8.876787997713186940e-03 3.367027560729090041e-01
3.262716811374479775e-01 -2.321726165291586597e-01 -1.161963832012027353e-01 6.222242148089469627e-01 6.420011698969265712e-01 -6.698245555836861431e-01 7.514047107546937276e-01 1.071920243115671578e-01
3.291802408230142252e-01 -7.039727145839482780e-01 -4.813266998907339556e-02 9.549166717404271587e-01 -2.912299333147760905e-01 3.198067532533639401e-01 -1.980960429453386684e-01 -6.128183223974970062e-01
5.920690374399731892e-01 1.111829485294772546e+00 1.322420696966168041e+00 1.346731731925403075e+00 6.710660375435381075e-01 5.160874899974166041e-01 1.061301330026195755e+00 9.339127327812771773e-01
