-1.574603692814728895e-01 1.101527379432949427e-01 -1.848133835234444522e-01 -7.041598675394600271e-01 -8.208449503063746100e-01 5.490334207490572549e-01 -7.870044058920540042e-01 6.921380462801640654e-01
-6.764752042778434671e-01 1.764447457451798762e-01 -4.656046348342093300e-01 1.195702849576041338e-01 -3.326971498743414024e-02 -7.639012003210345902e-01 4.491661198731113913e-01 -8.966935648611433773e-01
-5.555009892389581871e-01 6.816426640514829938e-01 5.013325591349460097e-01 -4.340567775781589699e-01 -9.181320121253120359e-01 -3.446131946898136622e-01 -6.575279058527900844e-01 6.192772858517221479e-01
6.766664610229058407e-01 -3.191465792423913150e-01 -7.792551143658157375e-01 -2.301310993102556601e-02 9.951262994731258082e-01 -6.515342727677935208e-01 5.603520039650680129e-01 8.576067972330116973e-01
-4.971499143507367435e-01 3.586433460744322677e-01 3.594212423122777889e-01 3.030866383432133659e-01 1.690901836451896845e-01 7.905670156298101325e-01 -1.800251539398156631e-02 4.084874053129061711e-01
2.602002965058340944e-01 -9.817582610885680072e-01 3.644422655361925223e-01 1.562174641407088060e-02 4.352863807808440288e-01 8.169294881894542115e-01 2.772216736280019855e-01 -2.405267941639499529e-01
8.663967102304035439e-01 -4.897323054484614691e-01 3.759499292176862184e-01 1.637205446205309833e-01 7.462082254524216030e-01 5.282381599856000864e-01 -5.448200690535267565e-01 5.913805047752296318e-02
-4.926746945616251594e-01 -3.159102541576954692e-01 -4.973074537008459473e-03 3.120899321875580945e-02 7.922228885609654547e-01 -7.928407375293311521e-01 -1.062127150136011888e-01 -8.793909798712093995e-01
3.660497163749116822e-01 7.978960052300339001e-01 -1.010955301047637978e-01 -6.927647444366347163e-01 2.600531205509728494e-01 8.236162199134748896e-01 -8.903619065470478322e-01 -9.519982846361700890e-01
1.049301773651740710e+00 1.185781779112626166e+00 1.015321294108962658e+00 6.537507755393167086e-01 9.233586563091559229e-01 1.007511873098522637e+00 1.000602364623961904e+00 6.685750888855122032e-01
