-1.227487329734162635e-01 1.682740108998825868e-02 3.995294368675847974e-01 -2.857765821712909826e-01 9.181804632632215579e-01 3.975040040737392033e-01 -9.243416117518599151e-01 -9.032529869855252525e-01
-8.878750019637469126e-01 -2.791842476522932159e-02 2.183031073697958568e-01 8.379657554602393255e-02 -3.465293844828007952e-01 2.277178092953238142e-01 -3.167480421872543861e-01 -7.223539508675780318e-01
4.719502441025495987e-01 -8.152192113517324756e-01 -9.039968627116052868e-01 -5.133232435386627657e-01 -1.903726358130066743e-01 7.694073486429835462e-01 -3.734133438073541367e-01 -3.311684645085395395e-01
-1.449008681107351038e-01 4.757161794613726791e-01 -2.125155084638590264e-01 -5.076332687537190580e-01 9.162597377998480397e-01 3.065546382857109453e-01 -2.388438789393154682e-01 -5.531063515072320858e-01
6.214315286533949045e-01 7.213724000862449248e-01 3.201777697674395018e-01 -8.418201919261474320e-01 -1.378517883006509237e-01 2.423360345374467872e-01 -5.111876731116926642e-02 2.180847264724925516e-01
1.569780861045293463e-01 -1.844678652174516209e-01 -6.967216354106524623e-01 2.822989903321926342e-02 -8.051299189025153957e-01 9.176080678221121278e-01 -9.528796869815960857e-01 6.042615141656537681e-02
5.306362974430933743e-01 -5.433417098106636534e-01 -9.652648497652061010e-02 -9.142215471340811028e-01 -9.825798956024445197e-01 -3.069154624684693466e-01 -2.539164173488328569e-01 -8.428986955271866588e-01
-9.220429062190045322e-01 1.251710877282132817e-01 6.578441435420545602e-01 -7.825152308883849273e-01 5.024467917253101490e-01 -7.865253436671437726e-02 -4.224838343867372004e-01 8.127863188878139411e-01
-3.688429387382818891e-01 -3.137650076208058358e-01 -7.398780376089362232e-01 2.460293068303123221e-01 -5.638434308739341816e-01 2.667407564997958946e-01 1.481840274715346961e-01 -4.875026805601123669e-01
7.903861187725917947e-01 7.366398247696177570e-01 -1.436956951357937218e-01 7.201124646636596349e-01 6.162428873265719531e-01 -3.978617037986140748e-01 -9.468768991679987757e-01 1.502119170074682764e-01
