-9.305837210601186626e-02 2.100353179943965642e-01 3.822552473420863794e-01 8.574111734399525453e-02 2.941103193488419087e-01 -6.204035543091510618e-01 2.145408952974880989e-01 -4.569720206594467538e-01
9.830482336911259278e-01 -3.783566146767705085e-01 -7.426831973843299739e-01 2.207370917798050503e-01 8.309185319917302692e-01 9.439797623285135497e-01 2.404897562304402214e-01 -3.077477657850136161e-02
-6.625916336575472521e-01 -1.449565448352048147e-01 2.258034968852555835e-01 -9.384271262056542717e-02 5.943746156802833802e-01 -8.291041906579736942e-01 7.080373382461144782e-01 1.329141994410709682e-01
-1.032197273649573255e-01 -1.237074915294915645e-01 6.820820312414170861e-01 2.478564697743657064e-01 -2.041671558880484572e-01 9.168545976798516683e-01 -8.593525995536275275e-01 -7.086474312255293118e-01
-2.302387540195960369e-01 -9.747376913140213261e-01 -5.353281180082660740e-01 -5.389091854777756652e-01 -9.752927015365910890e-01 8.787221934501756593e-01 -1.886335931983937897e-01 -3.898302196578451451e-01
4.540396730817393145e-01 1.069369860278484019e-01 -7.838724188994663500e-01 -7.086021099691262037e-01 -2.295176050946605706e-01 -2.800120007896220731e-01 -9.004500772441224044e-01 -6.012652973565628667e-01
-3.864900418482410949e-01 2.048295810779965365e-02 -2.118485915336520975e-01 4.705588188136156091e-02 6.898168875283197110e-01 7.621907959830740431e-01 9.460332711778114412e-01 -5.894212099640805391e-01
-3.599367721389290509e-02 3.435694334725558630e-01 9.675300100605246367e-01 -8.289803590999216265e-01 -8.195611017298929379e-01 7.880221535025493385e-01 -2.027976648659770564e-01 -3.350188097895179240e-01
-2.641648796004822941e-01 8.893336997421752432e-01 -6.533005917699430398e-01 3.564947340451651847e-02 3.356775398750113659e-01 3.636748400451543795e-01 -1.553286711417665167e-01 -2.258059800658753780e-01
9.822826481395017240e-01 -5.598443604407370433e-01 4.141463007047749834e-01 -5.011339843135864669e-01 -8.828685969604372907e-01 -1.287511470538214020e-01 -9.965799387446951929e-01 -5.032173232760082104e-01
