-9.925465656671481618e-01 -9.258725030867107630e-01 5.776408500107457211e-01 3.264619518859928071e-01 1.669401921788571386e-01 8.382941886179626767e-01 -6.447041946000195978e-01 2.810788932975363252e-01
8.073045227762121190e-01 -8.959406209594547033e-01 7.295149930782651726e-01 -9.275982678245622282e-01 2.332760867675667260e-01 8.892206243920734998e-01 8.258187974061266257e-01 4.087787340599235986e-01
-4.096309437943552734e-01 -7.647641853516802257e-01 5.417431524724884984e-01 8.677839952698067627e-01 -8.480359747562715711e-01 6.969914335146791817e-01 9.092138000619465199e-01 5.897639623487518357e-01
8.689675646889565286e-01 -8.413544341023750928e-01 2.682408801517646157e-01 -1.091685857654285385e-01 1.908464346224187924e-01 -6.369235614448327532e-01 -3.306327615023081368e-01 -6.216495083753494910e-01
7.073924943932106135e-01 -4.210411729451044582e-01 5.839854600207772251e-02 9.206199509725909724e-01 -8.995544810615487830e-01 -1.952604174720737884e-01 2.748100737937206883e-01 -7.445155235433460472e-01
6.004740034533684323e-02 3.721287352537421267e-01 7.507308073284431060e-01 6.821030953523856688e-01 -1.668607004867821431e-01 6.437417969619070313e-01 -7.423559757815769711e-01 6.944425157820748318e-01
3.978703213097369851e-01 4.023272205306582805e-01 -5.703517974617857700e-01 -9.405680000121461326e-01 -9.474735433966094966e-01 2.166740606914598910e-01 -5.027472581091552151e-02 7.976723929698670279e-01
-9.498239315472032374e-01 9.643106843836721787e-01 7.648001459288060744e-01 1.437034796414331517e-01 8.100086486754853876e-01 4.712399654036028007e-01 -8.263378186841059403e-01 -6.027259215937303960e-01
-9.819185003177690607e-01 -5.589956171683458930e-01 8.579073796513738692e-01 -3.337124998702190037e-01 8.150113730832719838e-02 -6.487602431334216213e-01 -6.436874161512031733e-01 8.285831100063596466e-01
-2.948473336057302330e-01 -7.189476155854042094e-01 -4.817830609344624371e-01 4.103779820234199072e-01 3.049663067734948996e-01 -6.787104940552080024e-02 7.087290502499750122e-01 3.657170362076109793e-01
