-1.375372204179396984e-01 2.086575813587376871e-01 5.242855677189834918e-01 8.081714189466102649e-01 4.990909341890779061e-01 5.414274071641020925e-01 -6.306988615145336929e-01 8.076675970767668300e-01
-4.521975705632883535e-01 -9.651209364215358466e-01 -2.322644207890232071e-01 -2.880519223106687843e-01 -6.305893330060377000e-01 -7.187345249450398654e-01 4.916944165496839325e-02 1.666394218224200863e-01
-1.910197118855587739e-01 -6.426339938784213501e-01 -2.958628157429250560e-01 5.112623255665715849e-01 -5.775796408055557940e-01 8.671592257633964351e-01 -2.158219280697681874e-02 3.730676742461689344e-01
3.479946926420920406e-01 -9.260577414379902450e-01 4.719058712854544702e-01 9.854462249193240986e-02 -7.819260450140106400e-01 4.770497130657356255e-01 9.699346280409271159e-02 3.134833294175041196e-01
8.359273879288058318e-01 9.804191564575550633e-01 8.550266180003163186e-01 5.497681136523961953e-01 2.578027972203922324e-01 -3.080597116259680135e-01 -5.114980723888447045e-01 -7.457573080751742634e-01
1.304946795908534796e-03 -7.505338999337021200e-01 1.580871289471272867e-01 1.095181857163574080e-01 7.864627231411420727e-01 9.367814012899071674e-01 -4.897117731848616984e-01 1.349093892928530103e-01
8.019585765187249304e-01 8.429322671452519344e-01 -3.523621161154100179e-02 -1.524061182104594625e-01 -5.408962441531561804e-01 -9.086508652937490549e-01 -1.893463506055925727e-01 3.621228930545088431e-01
2.415069448429463250e-02 3.426614032161809931e-01 6.849507053175007965e-01 1.199358614112626675e-01 1.824615086356793370e-01 -4.899680119607683348e-01 -6.900750309770931068e-01 -9.751209556971618397e-02
-4.514502085982929902e-01 2.994648071070269424e-01 -8.529339836585017043e-01 2.434568947247108817e-01 7.652088265169800785e-01 9.639725596619441728e-01 -8.312767965244769464e-01 -4.756085479006568750e-01
-3.126610289540914245e-01 -5.432676022459161924e-01 -6.736615863500134971e-01 1.428369463448913024e-01 -1.235709996432199365e-01 -7.152520732676725945e-01 -4.125529566553232108e-02 2.903019956650407796e-01
