-4.096528970405144410e-01 -8.682687201423289203e-01 5.329209418109437379e-03 1.778705316578004236e-01 -2.988751344700415480e-01 -1.757955714317551710e-01 -4.864857020385082720e-02 -6.782587672705164827e-02
-2.596245301428952157e-01 5.220766820201079295e-01 -9.148277308146655074e-01 2.554486946224978627e-01 1.880746121040746122e-01 -3.822135793881031862e-01 2.046736087989817765e-01 3.701948857505943380e-02
-8.439211932072889777e-01 -2.251705615584409514e-03 1.817447586178753127e-01 -6.065747366889178149e-01 -4.653384564831375414e-02 -4.805532585917744459e-01 9.633231567437050558e-01 9.213076222265195181e-01
2.884567485057587533e-01 1.561029834823992601e-01 -9.854813062571783355e-01 -9.334076813327678579e-01 1.353042589170558863e-01 8.384400701097278752e-01 -8.291044843367934014e-01 7.219321248232193344e-01
-5.265521129812951173e-01 -4.548942674203801939e-01 2.574170304136313980e-01 5.928627581403567159e-01 6.284884481453125726e-01 -9.218056567439603111e-01 -7.878162437565916498e-02 9.526893167149210750e-01
8.498059487606148821e-01 7.061763423609255241e-01 2.783881034638588936e-01 -1.403610618427677537e-01 -9.062470217046623144e-01 7.182959216426301197e-01 1.238233255323084592e-02 2.187373548341813301e-01
-2.852425859820186815e-01 -4.910721257483325886e-01 -9.632121454686459749e-01 1.960211203765536148e-01 1.182050649951489341e-01 -9.889572396673065313e-01 -3.066537494452357127e-01 -6.709970537414267078e-02
-8.446787880837511864e-01 5.079184835634504847e-01 -3.915765890778417635e-01 3.673377136792244091e-01 7.341000386233831332e-01 7.259496397631082232e-01 6.800653351614223130e-01 -1.400796074558867677e-01
-3.519901426438998282e-01 -7.977893773723931936e-01 -7.826955121977532404e-01 -9.455485572103443648e-01 -8.315292184254645669e-01 -5.266304004960964402e-01 -3.218236101421902973e-01 4.477777297677336676e-01
1.139802785431611287e+00 1.457655668815948768e+00 1.489000009751516806e+00 1.429925389825462911e+00 1.143496916103921013e+00 9.669412352822098766e-01 7.951163947812348587e-01 5.837121831972393871e-01
