5.678121137438272292e-01 -7.043420059083311813e-01 -8.392219214347864664e-01 -8.291328418278269830e-01 -1.779381460928517455e-01 3.311530655548915458e-01 3.116361825232547567e-01 4.774753408473411120e-01
5.449957884206315661e-01 -8.323505513869919881e-01 1.082821318526794308e-02 -1.450840976634206747e-01 4.088989267765452684e-01 1.557586555389358640e-01 -4.835014041568030940e-01 -8.683011268490552492e-01
7.755428203426031342e-01 7.820183144049472901e-01 9.282323608605980159e-01 -6.828639238564648828e-02 -4.078194856851211636e-01 -9.091134671926197619e-01 3.837618896185757134e-01 2.002492123382970668e-02
6.968218482213361931e-01 -7.081779001236809812e-02 2.312155014785088891e-01 1.257444887821179691e-02 -3.375261921062235881e-01 -3.501409660550212077e-01 3.582226006005335694e-01 -2.330749569011583144e-01
-2.554916150172044098e-01 -5.973603478664319955e-01 4.345988515577077216e-01 -6.188573185092676177e-01 -2.483529565393349792e-02 5.721160203251509646e-01 9.278925230120349532e-02 -2.223534693294881848e-01
-9.162014505633617745e-01 4.105516152590746870e-01 -5.662953799318504178e-01 9.477975354956915677e-01 3.279329610161967334e-01 1.358958619104395638e-01 3.860180183623025396e-01 9.922069548908054593e-01
4.958884498135218699e-02 -1.092042766716476709e-01 7.442537087524430106e-01 -4.227970464072150492e-01 -6.044176495300217500e-01 -6.700631172967668192e-01 -5.558888647001147820e-01 -5.561537106542886466e-01
6.110315360552267538e-01 -2.506582851442376025e-01 -9.242967281037852700e-01 -4.016017334638541936e-01 -5.155323025219580302e-01 1.523945541482341071e-01 1.037659223285911647e-01 -8.580167694334772666e-01
2.111657296503985926e-01 -4.141095449757057345e-01 9.374953162840979903e-01 -3.546906953768904636e-01 -9.914511787814017651e-02 -5.934084157084642541e-01 -9.736672356973954390e-01 -3.149298596185265975e-01
-3.787397684618727389e-01 7.621988353341784261e-01 -9.017074909231916902e-01 -3.628156187066808869e-01 9.945031608386281086e-01 -3.715782155519626873e-01 -8.309347541084037836e-01 5.135870939804125790e-01
