-6.967552069911575607e-02 6.981671037571020033e-01 -4.720735390679013932e-01 6.486491745854598978e-01 1.419153444989891266e-01 -8.991165701153356338e-01 -1.358081816952461107e-01 3.699718346128302304e-01
2.713823013931722095e-01 2.584890568683764211e-01 -5.675782606370212147e-01 -9.924642985334175549e-02 8.383450019326459390e-01 3.819477878948749350e-01 -8.118586898589075229e-01 6.547763174518965723e-01
6.385879337181621374e-01 8.106064436530822093e-01 -3.567162113670712120e-01 -8.844082973424156613e-01 -8.975556606211951838e-01 2.885038883721773306e-01 7.244957371824418679e-01 2.875795832033900545e-02
2.448870491480534817e-01 7.382273336777953610e-01 8.622007831314826287e-01 7.105831869789278610e-01 1.640351126434855811e-01 -6.484486213311082548e-01 8.670970844723238091e-01 6.867024841539184354e-01
3.572353221667008416e-01 -5.179930934745280435e-01 8.494636066264138474e-01 9.362480220500757344e-01 -7.752272160351831864e-01 -9.435211119090314291e-01 7.177829421165722312e-01 -8.985439883775885317e-01
-9.869595778603144076e-01 -7.683853055498841567e-01 -3.124292868186142602e-01 2.206213183688625623e-01 -9.539135066099615479e-01 -6.083250657439087661e-03 3.052695994256244827e-01 4.788678117464797435e-01
-5.591358126701548859e-01 -2.261220182910237408e-01 9.022005999968121248e-01 -1.968021598566316310e-01 -2.120086552965925186e-01 4.576672058783604058e-02 -6.098476845191613815e-01 -7.228288571965926224e-01
3.017697355034869577e-01 2.043923807866885323e-01 -2.725625948213763472e-01 -5.974501488703154450e-02 -5.096821320233502206e-02 -9.216624635531722731e-02 -8.098783495873309590e-01 4.944388665013412787e-01
5.878261273785743146e-01 -1.009921506909834399e-01 6.637418782787716243e-01 -3.735727714643299890e-02 -6.269301462920859880e-01 -6.457969120644846406e-01 -1.620578168562563093e-01 6.062454601776938734e-01
1.055755633096171930e+00 6.591016697641000066e-01 1.248902793179952564e+00 1.443840181459694616e+00 9.858905223354411662e-01 6.163688542830073613e-01 5.513828543811777338e-01 9.023505125736316357e-01
