4.621832710306190695e-01 6.507861455151107144e-01 2.273940618421281812e-01 1.338951545353999073e-01 -6.209494602248699646e-01 -5.325667196647447810e-01 7.074319108447182369e-01 -2.654385233883165274e-01
8.452631805433243883e-01 6.383930539958770911e-01 4.457923839028541391e-01 -4.188677000992204746e-01 -5.198066067678235314e-01 7.293183078186329382e-01 -5.048412869886735876e-01 5.831712805265358845e-01
4.113414746328560856e-01 -8.462815079898704518e-01 -2.622176192319103372e-02 -7.204343907770507371e-01 2.134651963054390311e-01 3.477034637672780093e-01 -2.162348834208327464e-01 -3.066941397529547864e-01
-7.078691154557850140e-01 -1.992596088944527111e-01 5.341430813236713870e-01 2.732554814184207093e-01 5.152467401982692152e-01 1.276559238021981457e-01 3.722875880176219621e-01 8.536949614538105191e-01
-1.857305450236075295e-01 9.047359146074662739e-02 2.984407518089642330e-01 8.492816738618365058e-01 -1.369648163140064767e-01 -5.906653645760859828e-01 -9.405372610110007692e-01 -2.846181565371472821e-01
1.650131199193389797e-01 4.147393984517300236e-01 -8.225844276701519409e-01 -9.194696673922371222e-01 5.843163669509130465e-01 -9.421204217547347604e-01 -4.552700393405912926e-01 -4.400183224609675037e-01
9.844054332726410728e-01 -6.085120684426328364e-01 -9.016746953093359718e-01 5.849869356686328015e-01 -5.882424310460954153e-02 4.463388195351973842e-01 -6.692007322213782139e-01 -1.870333981354868058e-01
-9.266406378814273648e-01 7.685507435069844906e-01 6.664724179624152978e-01 3.457409779927331783e-01 -9.570750654111948030e-02 4.333082772019971607e-01 7.463474363445035120e-01 -7.819652700925847633e-01
1.770481263039469511e-03 9.899880428075613636e-01 -5.298876497190510015e-01 -6.133171755298862937e-01 1.399815065364102828e-01 -5.715343149752236673e-01 -7.743803668512865279e-01 -2.145075752840135408e-01
5.019327664688133517e-01 3.070395955494731322e-01 4.698448338338523378e-02 1.348220955082861661e-01 -1.682107489650537246e-01 8.416583221391347180e-01 8.930914941316769884e-02 3.831594461210094948e-01
