-6.271263417836274723e-01 -2.663336080582974219e-01 -3.767087520406968704e-01 -1.334868403904627687e-01 6.805835186201525389e-02 2.426139788781527251e-01 4.300678545594305291e-02 1.818876633067081361e-01
2.799171277933454327e-01 6.837845108296776164e-01 -8.887883343391860258e-01 -2.895081187320796001e-01 9.992216387268786359e-01 -6.514027973546905326e-01 -6.429979924007100944e-01 4.400291130313789267e-01
6.844705056432509593e-01 6.961580149042909671e-01 -3.638393126988468396e-01 9.281838699808235837e-01 1.757993521868117526e-02 -6.275892465757446637e-01 1.810733504248562831e-01 5.053373160929419683e-02
8.022246766517380223e-01 1.514442602358634371e-01 -1.928495228818292162e-01 1.466883973931889518e-01 3.437907961224804243e-01 1.069631113789042409e-01 -5.494196609605765946e-01 -5.202313599805854505e-01
-6.649993884883316220e-01 -9.461654132903807302e-02 -2.727181333752664028e-01 7.139144542174902242e-03 6.271628936957365230e-01 -4.903276921465753446e-01 1.339744951121915051e-01 -1.278977430848029506e-01
6.537265606246216443e-01 3.656382835019236222e-01 -8.748471504876340621e-01 4.825532786165140919e-01 6.923601392101459417e-01 5.551822353344717520e-01 -9.710947118509773990e-01 2.221132103929805979e-01
4.136820479450316057e-01 1.685115749349268555e-01 -4.298383570037704882e-01 -7.600026897766243295e-01 4.601452016090030739e-01 -7.441869989294327414e-01 9.398729867776256519e-02 -5.982359657265581276e-01
3.834592799932901031e-02 -6.273495093536265443e-01 -8.519959246019896959e-01 -5.144323293179153822e-03 -3.625204234145451565e-02 -1.312570384830780146e-01 6.722105099643747028e-01 -3.095682271814581554e-02
7.113093586352949860e-01 -9.910947980304940508e-01 6.262384226710515644e-01 -5.418874198916217022e-01 7.134698056959134504e-01 -1.072002305907460151e-01 7.762906919176908449e-01 9.117493444339812569e-01
1.658538706973824439e-01 -6.306933329748904971e-01 -9.662111948651324056e-01 -8.832511535363196664e-02 -3.774212887020993445e-01 -2.368794547668184869e-02 9.833514156432907605e-01 1.587758787733091204e-01
