-3.104237743427391560e-01 5.735262729396659598e-01 -6.742874507401217521e-01 3.370351685991868074e-02 7.163826812421276724e-01 -4.945199997540772330e-01 4.511604899854502193e-01 8.307111285154618052e-01
-9.548624299628134526e-01 2.931182223742248016e-01 -8.246847373186081409e-01 6.331289303966494142e-01 7.299598939730644886e-03 -6.831085292744545345e-01 2.462499079601645491e-01 -8.644641068032479225e-01
4.970317319584260929e-01 2.736480108730510175e-01 -8.474524535863552366e-01 8.555801292688376414e-01 -4.719593071540966189e-01 -7.842889359645566216e-02 -2.509780348840162656e-01 5.227114908048442476e-01
-3.027360850137139625e-01 -9.437307630015865367e-01 2.961418904332346891e-02 3.512642310535434298e-01 6.937398555229294939e-01 9.623494268704824162e-01 -6.751826767806314855e-01 9.441177250718284508e-01
-3.290889965078440671e-01 -8.274523301219343097e-01 -4.142474798188182650e-01 -6.645433687204251871e-01 -5.532442884906507707e-02 1.791599135150485633e-01 -2.564125738290852219e-01 5.706477994920560182e-01
-5.660012561034446499e-01 -2.737097172488662800e-01 7.870629658771479686e-01 1.924287704812295274e-01 9.913060969641502851e-01 1.846613833407091398e-01 9.113832802030508162e-02 2.428138104600023883e-01
1.115205677127890649e-01 -9.541249592306688676e-02 6.031699736251638910e-01 6.140633357140907744e-01 9.538080669868247430e-01 -7.719229082456264823e-01 -4.995446085458452590e-01 -8.970892658288398547e-01
1.456042536415671496e-01 7.696663798511327315e-01 -6.340271275500539705e-01 -8.543152000944838065e-01 -9.367022636301602923e-01 8.454670198920863911e-01 -3.363346875916997103e-01 9.424661848387012597e-01
-3.809764076823858314e-01 -9.621322623510581984e-01 -9.542850945098209081e-01 9.473160741496919890e-01 -1.718564466522725098e-01 4.031022487449931191e-02 -6.365185932205026376e-01 -2.045621440549103554e-01
1.071279270308499232e+00 5.075010877893009198e-01 1.484381731101092727e+00 1.354427762465186813e+00 9.500435429590120551e-01 6.679829408538824342e-01 6.847020587961664129e-01 7.914580233041816903e-01
