-1.618745819373392791e-01 6.685029640538924234e-01 -2.765678552843349181e-01 9.032174812416884357e-01 1.142382808380952852e-01 -4.972626052738455815e-01 1.857906533324518161e-01 -2.247399745748601685e-01
-7.892201130151099697e-02 -8.181221423054430009e-01 4.600909007643370074e-01 7.264983814583716448e-01 -3.780847489630259073e-01 -8.271354348842698823e-01 5.123344927881969824e-01 -4.569269266181219535e-01
1.884302673754261193e-01 -3.200392516357009054e-01 -7.352632050154905841e-01 -3.677308069282170244e-02 1.853794170076668024e-01 -6.253895519114678336e-01 -1.972132969214823728e-01 -6.206398777705470771e-01
5.512722712067195108e-01 -8.386291361505249231e-01 -8.497961780136589205e-01 -2.526537088450513391e-01 1.369187081938718631e-01 7.998682839288306923e-01 4.830996710362160940e-01 2.440599555905584861e-01
1.543402933123321219e-01 -7.907729588863670056e-01 3.608650743015218154e-01 8.915205216689470191e-02 -1.060935892305443495e-01 6.915462520781006095e-01 4.330532528144206417e-01 -8.947535508646764502e-01
-9.382015452998371252e-02 1.158854505869926221e-01 -9.780860493013643353e-01 -2.449014243082192621e-03 3.084612376276387735e-01 3.738657166946135479e-01 -6.943235478738423172e-01 -4.565675665323731813e-02
-4.706360846051516056e-02 -8.338711859584420072e-01 5.249574095266986706e-01 1.302330257451014273e-01 7.357583940730254568e-01 -5.587459633541236315e-01 8.621619846068957482e-01 4.712840928798318618e-01
1.424854258522167960e-02 3.482632123663105261e-01 6.259191288075305337e-02 4.948328835997231057e-01 1.816002870924160462e-02 2.865430375104940364e-01 -9.168219073203731639e-02 -5.677686363550948911e-02
-1.102954307065444617e-01 3.338675904877124179e-01 6.109863957766765719e-01 -3.071535697109302188e-01 -6.709680029973092985e-01 -1.944447296144369286e-01 -1.542401770729473487e-01 -2.705192578901285394e-01
8.285804356518902125e-01 1.411641224713926501e-01 -5.268491431324255903e-01 -9.045123876824558984e-01 -9.188240140646155574e-01 -6.210011988858261667e-01 5.893015522242350812e-02 -3.076458230110370451e-01
