-8.684247021557751633e-01 -7.016665687676000296e-01 4.766023002902783912e-01 -6.799078213028568740e-01 3.901987516527261057e-02 -9.510563758673229451e-01 -6.352628309380436988e-01 -7.012646608499331080e-01
7.527928369401286623e-01 -4.170155746801285090e-01 8.701240869151161128e-01 -8.280729487250895193e-01 9.464512829841664754e-01 -2.497330227744110065e-01 -9.160560836373936588e-01 1.384828461746823169e-01
-4.826391209995728460e-03 -9.872489297477147208e-01 -7.544275939584244028e-02 4.501376683599391804e-01 5.670804719603994570e-02 3.353711125746663413e-01 -2.481867473550685155e-01 -4.332378230295959032e-01
7.126343513229915771e-02 4.412957373751935641e-02 7.541779745674279667e-01 1.599782064863035647e-01 -5.656478817428867156e-01 7.964023636147667951e-01 3.871130224383909635e-01 5.373935435420746920e-01
3.317880981089071923e-01 4.296692742629446560e-01 -4.726478139493182073e-01 -1.612004742407329161e-01 4.729335038680160253e-01 5.899736784369837839e-01 -9.047713242354000762e-01 -7.323920289708101272e-01
5.069670352098338828e-01 3.524861167716675237e-01 4.109352852631442676e-01 -5.060958223286999846e-01 5.340941050341621033e-01 6.448484108432954720e-01 6.737335724953212868e-01 -9.513306967549350901e-02
-5.089644734431371109e-01 9.301811385794878095e-01 -5.233674791710192231e-01 -4.411285926143098113e-01 4.478110602992733114e-01 8.972145523602581552e-01 -9.786782991720663905e-01 -5.752784857115880168e-01
3.349550027752654646e-01 -7.394699873423893344e-01 -4.052327300577969194e-01 -9.137308259568528435e-01 4.578067744710747622e-01 -8.899736082186149311e-02 -2.076978852909148188e-01 -1.270498333819585213e-01
1.216929059673499403e-02 -8.216091265027483104e-01 -5.037623113193281377e-01 9.804909376186157210e-01 1.728711603050612222e-01 9.566231188362128712e-01 4.897581663597814217e-01 -7.315784656091928184e-01
1.315967986514341881e+00 7.487963228690553974e-01 1.370791524381717252e+00 5.542095400619374557e-01 6.772454327572426935e-01 1.300017348371782067e+00 6.203041665034746410e-01 1.077579100620416286e+00
