-7.109965364324026815e-01 3.925456680482670713e-01 -1.410256829478111484e-01 9.639453358819434214e-01 -9.480163028058616881e-01 -7.520155328079463075e-01 -4.232258045911367894e-01 -7.738606138588370875e-01
5.859285647797014551e-01 5.510645974760035593e-01 -4.542579487172608843e-01 -8.428860563793154626e-01 -1.664428313476167265e-01 3.115252508258421482e-01 3.802570286419812984e-01 3.216303155337549846e-01
-8.288073842559489091e-01 1.305668538972910575e-01 -5.752640265577362300e-01 9.191246708144356070e-01 -2.178777848907886838e-01 -3.250677380500910374e-01 -3.827536878795338993e-01 6.636882355159017255e-01
4.368669209763000882e-01 -8.115217705953838845e-01 -7.625529705827105431e-02 1.519161511052258273e-01 -4.034469169997589866e-01 -4.471405723234425089e-01 1.787201596108016766e-01 -9.790038845076949325e-01
8.350422695200303558e-01 9.796552549857091563e-01 -6.489728655452327022e-01 6.555188787700014785e-01 -2.126264022005721621e-01 4.271853002180507897e-01 6.043063955884915295e-01 4.647056432789302693e-01
2.713617931306955278e-02 7.248963927638572002e-01 -5.832017220089613652e-02 -3.511645038549979780e-01 -7.617837672623650747e-02 4.544663902355619012e-01 -7.964569797224236858e-01 -4.038412265849551375e-01
-7.891938815350540981e-01 -4.884931570526185318e-02 3.369496654388930423e-01 7.885118504618771063e-02 -3.329617630929473382e-01 -1.217049639814369311e-01 7.280957213396701544e-01 8.586232026617210966e-01
4.310156990697218138e-01 7.265985517565904939e-01 1.413630898792290758e-01 8.437963053135000280e-01 5.015126831481313552e-01 -4.974720338744234027e-01 -1.915029480722334476e-01 -6.786048861405957755e-01
6.548559313811581628e-01 -7.779515056812982277e-01 5.571366574403293637e-01 -9.068994617783550094e-01 2.343055448908173410e-01 -2.994339373841830021e-01 6.209181526428320108e-01 -4.906583990655983829e-01
-8.719863603238509064e-01 6.864848335736772889e-01 6.389125321929209900e-01 7.196802263608150785e-01 8.257706884197479891e-01 3.475866923728587743e-01 -2.625545069082790839e-01 1.963562359954735825e-01
