-5.815591539591635772e-02 9.026391564976603554e-01 -4.146183384532398097e-01 -1.080445621784162924e-01 6.674162111026413768e-01 -5.385080034634286417e-01 -5.274089024971817530e-02 -8.166507151978656953e-01
6.070770781030665475e-01 -1.526212350456790379e-01 7.785426864527866808e-01 4.226532255757773360e-01 -1.495889658307207881e-01 -6.535545821412469536e-03 4.652689647973873299e-01 8.407328220715157840e-01
8.628167429275226397e-01 9.756693643600498067e-01 -8.457497122057211492e-01 -1.651175765824188790e-01 -5.190677991213250575e-01 -7.090503606812985637e-01 -7.481620947873846017e-01 -2.564588126047491201e-01
-7.809254627545072491e-01 -6.425312518642269932e-01 3.660379278327754449e-01 -7.309741153440274530e-01 9.020339205024705542e-01 -9.211692788114658192e-01 5.188229639963648498e-01 -5.421964613941345768e-01
9.245210954190807850e-01 -6.659187439645397610e-02 -9.811380092783714701e-01 -5.649970522721612376e-01 5.711222278149774567e-02 1.391545191795910963e-01 -2.413158257141048146e-01 8.229058261116715123e-01
-3.079716105859258146e-01 -3.003785271468535356e-01 -9.600579620723839191e-01 5.732754806903754830e-01 -8.026676538568870978e-01 6.354354496947347553e-01 -2.185433650480044232e-01 9.925944602579286347e-01
1.647155643465914032e-02 3.222499495918189627e-01 1.259416357263032360e-02 -6.283859147632477882e-01 4.064318946280454092e-01 -9.797878178640957447e-01 -3.997956249263507900e-01 -5.854518952685907607e-01
3.189801708388158019e-01 -8.383418358812684268e-01 5.711572966159821352e-01 -2.769079523422668387e-01 9.647855354749126366e-01 1.214249752464799936e-01 -9.064095137072107899e-01 2.180190084949169549e-01
9.366354002262444745e-02 7.543688601625639922e-01 1.249361827253188117e-01 -5.041560883406039917e-01 -2.127853234517165237e-01 2.835477665048729001e-01 1.717093702729950433e-01 4.873728726099146868e-01
6.522801484079754353e-02 7.974509655292572052e-01 3.537018754463470138e-01 6.936998803059892804e-01 9.880239952765954570e-01 1.320676818964019450e-01 -5.440454494771456151e-01 -2.525444110430108413e-01
