5.147728756252556437e-02 9.338513164926818266e-01 9.559085438435339643e-01 5.276089171073614636e-01 2.686017688059316733e-01 -1.749179174361072953e-01 -1.107461565390861491e-01 9.037259260939500827e-02
-2.154884737787374771e-01 -2.706815546667897809e-01 8.483644304750528331e-01 -8.095184964031345576e-01 -4.820837997926685770e-01 1.875505159783865672e-01 9.107900477624131241e-01 -2.390295846850845063e-01
4.506821270340188867e-02 4.188671620372381721e-01 9.465917878516660888e-01 1.227579671826093399e-01 9.420363629791534965e-01 -8.060017135062598204e-01 1.919455556965528054e-01 -6.476273199587296858e-01
-2.135596690038445988e-01 -1.686138039260289823e-01 -7.527596656502171246e-01 9.978773130786167123e-02 -3.098760918791698682e-01 -5.282057654469554109e-01 -7.823978359959331552e-01 2.676467582353239116e-01
-3.562268321700892137e-01 -4.167666498236020090e-01 -3.002427737809372221e-01 4.563128944606575921e-02 3.428827034512269556e-01 -2.665691790597757294e-01 5.073042926080963966e-01 -6.558854684858279604e-01
-6.434903680475494436e-01 4.207686696402197501e-01 7.555364417012548905e-01 -7.680714327076154646e-02 -4.979487172338150636e-01 8.233176875047645282e-01 -1.337423771557502139e-01 8.507593007185203504e-01
-2.033164637890569892e-01 8.247632037595593602e-01 3.784973244565092987e-01 -3.607611528310052940e-01 4.843379226300603690e-02 1.224245447759073624e-01 9.465029771075041953e-01 -2.811827545971534725e-01
-5.420913887541491949e-01 5.077149057036560720e-01 -3.974246498756919266e-01 1.499092556298311507e-01 -2.268139782083749001e-01 6.744936815513538075e-01 -5.474434447092317857e-01 -5.120016043669457506e-01
6.825123923865519249e-01 -2.136550313386411659e-01 8.008778095465625135e-01 -5.799507562494736757e-01 8.918725612145688153e-01 -8.955593783421711418e-01 -4.202141907235725782e-01 -7.755094846274179776e-01
-2.119370450068605027e-01 -4.342302579456625011e-01 -5.167969866468080653e-02 -9.701152572029507759e-01 9.069704912511977746e-02 -6.511803401636739874e-01 -1.329599699671035751e-01 -5.101601925595355969e-01
