-2.482718763385971528e-01 4.559136602493261137e-01 4.829934770114612252e-01 -8.555316937541652678e-01 -7.311033866951359705e-01 -1.911030457776252689e-01 -2.554088486885888187e-01 9.698601569989140359e-03
2.787037855223717386e-01 -6.038981188949783530e-01 -1.209337546518107764e-02 -6.147511664995222169e-01 -4.493837625461003515e-01 7.419428157151020109e-02 -8.666459382783648913e-01 8.843750570253525733e-01
8.959870306848549681e-02 9.324591138520463840e-01 -9.452548309505797164e-01 -5.800467679972727275e-01 9.454820244138839591e-01 -8.701793194713480784e-01 1.993115835210974573e-01 4.609733596402521005e-01
-8.289312333098328711e-01 -7.508609236058489955e-01 -6.680301773293604306e-01 -6.912246875620169373e-01 -6.240539243247724688e-01 -5.414166924109007351e-01 -7.221246676265136166e-01 -9.224908876536344060e-01
-7.976999973307963288e-02 -8.699060573272630048e-01 6.629694687069425107e-01 -6.684694491334979283e-01 5.369432775060201113e-01 -6.477962917234181273e-01 2.691526504644530249e-01 3.724243965024942593e-01
2.683386763141129006e-01 8.801778841583087765e-01 -4.507100936704495631e-01 -5.196372706667500285e-01 -8.079328834885337596e-01 5.838280729658058554e-01 -8.309469370278634859e-01 -9.005954625080414555e-01
8.276768235964753195e-01 7.435493232126166863e-01 -1.447029196619364910e-01 -3.889845467660735245e-02 -4.429570133563962564e-01 -3.743905433815173378e-01 -3.789399932302692786e-01 3.622020899495348445e-01
-4.200320314051622095e-01 -4.253086363696665373e-01 2.159837750554036706e-01 6.817285284720295824e-01 3.120525285944097948e-01 -1.009088324267612968e-01 -8.589628236981876608e-01 -2.884903623465979727e-01
5.619877298163589163e-01 8.365405313039084856e-01 -2.961033059555662206e-02 -5.115139705295823624e-01 -5.061031373965763080e-02 5.418394037290170662e-01 -2.171030074103013074e-01 1.401839153522232984e-01
3.157722187417253412e-01 1.039673058409917861e-01 -8.657681307445368457e-01 -3.818217636262422054e-02 -8.842934909071349381e-01 -3.960882292587624143e-01 -9.559837193923286236e-01 3.161686860887542583e-01
