7.083790149846664885e-01 4.099055328598162351e-01 -3.772865241336780251e-01 8.911307926837452875e-02 -3.107951709954743791e-01 -3.880618106786082322e-02 -8.734021684431543253e-01 6.026509082748041646e-01
-9.502240166706641400e-01 1.952696859642957250e-01 1.985590915275503576e-03 9.896679867773590100e-01 7.603545304160232998e-01 4.332035278284185331e-01 5.742081920634365400e-01 -7.028281032866596778e-01
-2.887412439087206906e-01 9.769029728462241824e-01 -7.107795027703927015e-01 4.238725052453944375e-01 4.825144988224785436e-01 1.677166387498969513e-01 2.213846695783328045e-02 -8.698971095338861037e-01
-3.514537337985126353e-01 -3.309462992238669798e-01 -5.766445539456430680e-01 4.374757198839598349e-01 2.646077804081770068e-01 -7.934600729734544444e-01 4.731014655635470412e-01 1.033949244003016243e-01
6.900650185331826947e-01 2.132777405595258635e-01 2.151261654936147405e-01 5.070485912616706781e-01 1.984244871682643296e-01 7.703005139403635848e-01 -2.546050134702408929e-01 -7.651945188320297131e-01
-4.937917509194811316e-02 2.685516338197357911e-03 4.666254586339089183e-01 -1.112009003906326843e-01 3.715545854082564770e-01 4.066033189009918836e-01 4.841850443880586496e-01 2.428572473688825895e-01
3.040683178931975483e-01 -4.365617239215975331e-01 5.757449107464938098e-01 -6.633127765308399759e-02 -6.450917052421689668e-02 8.302754906446454530e-01 3.159340661236071934e-01 3.654646562583685476e-01
-8.940449718872467422e-02 7.886838109560558863e-01 8.050362541317126475e-01 2.961823418745919145e-01 8.883554178629655684e-01 -1.324548749904115308e-01 4.849088524467430883e-01 4.380175773731180833e-01
5.331380880033789182e-01 -1.490164933596105357e-01 -7.600504511491945614e-01 -6.415422290953038953e-01 9.504014337445554350e-01 -4.215153042831871755e-01 6.317653825439140114e-02 -5.470518710919658467e-02
1.192640832977301946e+00 1.327800334468674848e+00 1.378336215188037617e+00 1.117991703888466581e+00 1.297326857862676874e+00 1.265990700223441401e+00 6.564867385637424002e-01 1.442290368638603493e+00
