5.543172279077148712e-01 2.558489022297028015e-01 -3.898673737049247467e-01 -1.286308366206223575e-01 7.904309002359146685e-01 -2.615922520899029990e-01 8.991100725935032845e-01 4.888264528656200980e-01
3.022889338395753356e-01 -5.415352785279599068e-01 -9.626601058242216791e-01 -7.559802630428813508e-02 -3.891757059159086651e-01 -5.368625651142693300e-01 -6.047405672601660065e-01 8.069742312357457426e-01
9.241618840460978923e-01 -9.352002438879662982e-01 2.339218602018577897e-02 -4.456628407815228510e-01 -8.450102326140143116e-01 7.480526622192451569e-03 9.914581682412320074e-01 5.082046972426335074e-01
3.463831583403960135e-01 2.857126128698552758e-01 -1.818579064650127641e-02 1.283543766578756351e-01 1.342932714460398635e-01 -4.039854191086815760e-01 -5.568308023503516502e-01 7.206516053016582823e-01
8.734265619993479834e-01 -4.955414620453828523e-01 7.675133877839344088e-01 2.398118093780201576e-01 -4.300806840178568180e-01 -5.277822576068291749e-01 1.384151399770312540e-01 8.361888699123614099e-01
7.142909958823429051e-02 -4.958175732790943702e-01 9.228219029359066017e-01 -6.185607214582036217e-01 -4.555691466841182979e-02 -3.929065037765522295e-01 2.552397157219572499e-01 8.746586865889649509e-02
-3.967321635395117951e-01 -9.318680190304911015e-01 9.994831331524509643e-01 4.707911501075485727e-01 8.029517949801530108e-01 6.718509112984898390e-01 8.077502844377675295e-01 5.078457528340594163e-01
7.001741149127294062e-01 -5.202446134261420330e-01 -4.302465160147805889e-02 8.392695987030778237e-01 -4.568176082735568855e-01 -5.860813234761017565e-01 -3.213529133109969127e-01 4.175393574780541517e-01
9.045430531578551037e-01 -5.440519916576149750e-01 -3.097816015919050425e-01 -9.788052708846775030e-01 2.883355429717138207e-02 7.674493886398094933e-01 -3.950685409280632054e-01 5.151586087675836811e-01
-5.942306614808616771e-01 -2.833065902712847972e-01 -7.362108448116657655e-01 -6.374807475910835297e-01 -2.071674279817803388e-02 3.405978831177201016e-01 5.949504806462617701e-01 -3.864332561336247807e-02
