3.758286951968692335e-01 -4.244457077500534137e-01 3.806320978850554759e-01 6.533220610728345257e-01 -4.051228568153877330e-01 -9.743812947914027855e-01 4.750751903474768056e-01 -3.276970492012747371e-01
1.183402579874925920e-02 4.261846134723843438e-01 7.380655447971884442e-01 -2.689509518511350450e-01 -6.953719519083176870e-01 -1.818331098255754341e-02 -1.028048588387386886e-02 -1.096325796205106506e-01
-2.272930359375657794e-01 -2.657071353364939270e-01 1.841406783311700934e-01 -5.076850889140063217e-01 1.244111890759191930e-02 3.368108012605250945e-01 -6.278304988328040626e-01 -9.387023952188926490e-01
-3.258146885686041827e-01 -5.747029522457041129e-01 7.271659911937002896e-01 7.585718272875541235e-01 5.838982260888780917e-01 1.876111158742221896e-02 -8.083434492114571768e-01 -7.196641581608222982e-01
-7.247168381458861663e-01 9.104000184627882852e-01 2.751313503570671504e-01 -6.827903812619702251e-01 1.864114582962133060e-01 -1.773954639784369736e-01 -2.852609521707043516e-01 -8.472069733186682328e-02
-5.329099162566504067e-01 -9.628155888545060215e-01 -8.586618031455572897e-02 7.664459958440228426e-01 3.212247389580353829e-01 6.165465718722755728e-01 -6.207039354681496146e-01 6.489466844999842721e-01
-7.296014641789372313e-01 -8.238720310249092460e-01 7.117842284027968702e-01 7.023232616122541128e-01 8.817011928753153427e-01 4.997691159690238472e-01 -2.143989170338493899e-01 -3.502179011537100983e-01
-7.888973313465312831e-01 6.357876491691749621e-01 -3.545952998508763443e-01 8.102119570834895868e-01 -5.905807219093659466e-01 7.278626677596140571e-01 8.416722501316198368e-01 4.072749621888225313e-01
-2.690512677510512596e-01 3.085794683170286490e-01 4.363574356475434790e-01 -9.430154428553427781e-01 4.977647520810439818e-01 5.550100818303793648e-01 3.425445565185645247e-01 -7.974726917302690232e-01
5.076367983101879311e-01 -6.377676245243038000e-01 -5.191072437175114906e-01 -3.353496175752961328e-01 3.292410960290517163e-01 -2.783700001961288972e-01 -5.357050165406633813e-01 -4.309182868850121029e-01
