-5.608043066849954794e-01 -1.172767780074954747e-01 8.404938641039718661e-01 9.523519007092338118e-01 -7.932182258436741851e-01 -1.271038569880595936e-01 -7.246865900648586933e-01 7.606556342898338485e-01
-6.057782943380911611e-01 1.893006034124897763e-01 9.860814059383209429e-01 7.570935658716191341e-01 2.487404495762663981e-01 6.844468551796298872e-01 9.086172179140410421e-01 -3.983362915473183108e-01
6.770062620530130637e-01 5.445215461282426617e-01 7.261722361290559036e-01 -9.321321207978616741e-01 -4.532726650719094419e-01 3.996444928383930950e-01 -9.620794989710543810e-01 -5.968860128111317387e-01
7.488921240108930011e-01 -7.416315470939887078e-01 3.840268743578714172e-01 -2.975544803629308621e-01 -8.931737984003567110e-01 5.711779006638659784e-01 -8.727292440407512508e-01 -8.596025247090712806e-01
6.320965008914047889e-01 5.192389148358986795e-01 -2.585269930293319085e-01 -8.007781581800774706e-01 -1.701344919581464499e-01 2.104547304716981593e-01 -2.934610628252629638e-01 -7.067015341801823336e-01
-3.383456725719158342e-02 -3.854903544514707292e-01 1.853800113820289752e-01 4.328443826690975271e-01 -5.220723786688596935e-01 8.366363879330207531e-02 -3.505676757159303936e-01 1.400826543661561896e-01
-7.549681497986817647e-01 1.477319344405525481e-01 5.412508060782132979e-01 5.274733581092827528e-01 3.968366480345957292e-01 -6.728213339973023732e-01 6.398930856769962094e-01 3.740585378686016593e-01
-4.308725686039196479e-01 -4.783633662328470315e-01 1.872336227012394438e-01 -9.518570816385045763e-01 -9.955041715921819634e-01 4.311552493764745364e-01 -8.916817363237028449e-01 9.927446095601364373e-01
3.928162943970117116e-01 -4.645983912064668431e-01 -7.575581054734585873e-01 -1.460346345644711885e-01 -4.756229056820910905e-01 2.877092907439187108e-01 -6.762619572763983733e-02 5.165277153278577948e-01
-5.581642295364603878e-01 6.812919217130299909e-01 -5.782026973220208976e-01 -8.325329868728439386e-01 3.048585246003998606e-01 9.096906239330559973e-01 1.616900604414959197e-01 -3.864302376420674090e-01
