8.133214605343968007e-01 9.581318703448291618e-01 1.334401595960799103e-01 7.802082124684339703e-01 7.106978092113500622e-01 3.501127691694845279e-01 -9.125061422870506256e-02 -5.869214634318156154e-01
-8.680528325000465006e-01 5.035948968117396340e-01 -7.303771007237298551e-01 -3.624203103915393243e-01 -8.983528865815915143e-01 -8.086647377179791985e-01 4.722039335158603190e-01 7.006536908331695290e-01
-4.336960806582856875e-01 4.625533815999618437e-01 2.801988793764320640e-01 -7.386315006287902385e-02 1.907725668957063192e-01 -6.894167168244000887e-01 9.610120223587790278e-01 2.900661483522948281e-02
-1.875467001182675730e-01 -4.116138368018043003e-01 3.994727641898498938e-01 1.420883514679314175e-01 -7.253759929786331995e-01 -8.806374389053104323e-01 -9.748197576967485567e-01 8.806745572199004002e-02
-4.764104851518791151e-02 5.232864800771146463e-01 5.761696664890914032e-01 -6.890563659279620445e-01 -5.667681852550332522e-02 -7.703336412923866838e-01 8.044206799309718825e-01 9.575129712298182660e-01
5.755483408097805675e-01 -3.464416034896695695e-01 5.098095834789693193e-01 -3.321392236932660946e-01 -6.213430727494402284e-01 -7.851481923171226285e-01 1.106075104742108017e-01 -7.086697631431493338e-01
-3.095552806021986125e-01 -9.758655509409370765e-01 -3.700853870063047779e-01 -7.668645187328662072e-01 6.117735206949685978e-01 -3.703278237042821885e-01 -7.234113646477209336e-01 4.864814902757310655e-01
-2.777355876958509384e-01 -2.535132946880223059e-01 -6.751707155943122984e-01 2.956109590127702358e-01 -7.117611451683480972e-02 -2.230672420910624343e-01 5.533827715969432681e-01 1.349500256856772662e-01
4.883031596902445148e-01 7.407873720680258067e-01 -9.622955608929777416e-01 9.460445032488278283e-01 8.895109864653880649e-01 1.022724652524418243e-01 4.218023650139979264e-01 6.349078061665680561e-01
3.316734031489243506e-01 7.029906658608220393e-01 1.396289364893210649e-01 -8.173230859577855778e-01 -6.805969841326020564e-01 6.350737044897867278e-01 -4.684661631356381584e-01 -9.785514461286770604e-01
