-2.395939221426575116e-01 -9.578045588359964668e-01 -1.878919048250800028e-01 9.536705764477453329e-01 6.619751671494191747e-01 -7.934902967112311689e-01 3.749361680708627187e-01 -4.222732961258901518e-02
-6.302204842493961401e-01 9.382230230305355079e-02 4.502858454032780955e-01 8.076400589756178583e-01 -4.755232078722795297e-01 9.615944212478355624e-01 4.732177382038285085e-01 7.365373690616121571e-01
2.695946958870358845e-01 8.502730185331826007e-01 -6.854764765223353429e-02 1.643876410291837953e-01 6.746687680445928592e-01 8.196837288404190680e-01 -2.100935194007111928e-01 -9.004058099734337794e-01
9.315387188065025192e-01 -2.916198650822274807e-01 -9.322397848146724009e-02 7.701054823999073928e-01 -9.007557321474564116e-01 -2.049484771618532708e-01 -3.491796230290589165e-01 4.830518706100748183e-01
8.017922154855425809e-01 7.206516223858570047e-01 1.653907639023433074e-01 1.133147221989736497e-01 2.637794876062318217e-01 7.470994932289762858e-01 1.697700217161843828e-01 4.302610272658897728e-01
6.493513807586897002e-01 -2.769513530230001130e-01 -4.993415422556446437e-02 -8.119602628680235856e-01 -9.643595996369831447e-01 7.443873809971548461e-01 7.646006543332650729e-02 -7.628106956540545713e-01
6.625295278718579262e-01 -4.690639227691892899e-01 -1.082089616183550262e-01 -7.332443136973678666e-01 -7.473416303889237611e-01 -5.753783502387199711e-01 9.539129473145582239e-01 8.748807743570807816e-02
7.749560910003876479e-01 8.361171576888624113e-01 -3.932786084250912140e-01 -6.307188700572547990e-01 4.267781342486300922e-01 6.662149031649475805e-01 -2.681398418536244943e-01 -7.724131984923139349e-01
5.364727043927604022e-01 -5.288775285122115921e-01 5.513963775966002068e-01 7.517192632054352508e-01 3.110080711611866722e-01 -4.619996929789476070e-01 7.741206551324697482e-01 9.554912019177499438e-01
8.433072060087709598e-01 -5.330165149735484054e-01 -8.108321433747680551e-01 7.575688377394174111e-02 2.452943871561481526e-01 8.568316508824085354e-01 4.191410412717904155e-01 -6.721593223606805445e-01
