-4.854059878148151430e-01 -7.337110449521297983e-01 2.933520273323100280e-01 8.543637030203667937e-01 7.486464606590417237e-01 -2.675252795262295091e-01 6.299568407700000261e-01 5.343682783077110532e-01
-7.724055611570361801e-01 -9.000273490384183006e-01 -7.644679076583571486e-01 -4.884606768933119625e-01 9.317551567472959206e-02 8.986950618304974103e-01 -1.437275940491211657e-02 -3.169366805324327352e-01
-1.808230422540804128e-01 6.033517157187318070e-01 1.131463328975723659e-01 -6.231224996460800192e-01 6.854160385689662682e-01 9.708585308191866048e-01 -2.626230146341883565e-01 8.761887839417392687e-01
7.795302281620508644e-01 -8.186634554555960452e-01 8.862170195775171955e-01 4.296573404123134043e-01 -2.997118028022383029e-02 -1.475066871480041897e-01 -8.586565166436783691e-01 3.815757670179968919e-01
9.423440147814687862e-02 -7.544674685988581597e-01 3.163425940311876960e-01 -1.676165564118350382e-01 -3.234639327769741612e-01 -4.908257308056893642e-01 3.266341830572279115e-01 7.376112666725391787e-01
-6.739604913915551165e-01 -8.940598582263152849e-01 -7.105877592478890836e-01 8.390009595683578514e-01 6.827711972792172013e-01 -3.720765374242525070e-01 -4.714969373612116765e-01 -6.951274848371513659e-01
2.357324333723984644e-01 9.952638663760693394e-01 3.246743302218928484e-01 3.771896492567463621e-01 -9.972522795378284677e-01 -5.419617488423160712e-01 -5.890046726084501305e-01 5.895624455701884425e-01
-2.997639013570212452e-01 7.792965987251949667e-01 6.317673802985466214e-01 8.565892942262791632e-01 -4.098433221414843342e-01 -2.238384271162492389e-01 -4.515739747625859835e-01 -8.239075979660905880e-01
8.109655476167321186e-01 2.108440156212827432e-01 -3.566924455084286016e-01 8.986724063828832598e-03 8.649031343206323719e-01 1.564756917283696147e-01 -1.432513019898928874e-01 1.538145866872044909e-01
6.247339876269193404e-01 7.334555818490358092e-01 5.725985695740229975e-01 -4.297372736753275468e-01 5.660811804174454842e-01 -7.598979091104867134e-01 9.658288979304041622e-01 7.854614388838827566e-01
