-8.536899157279660422e-01 -4.633162656282658887e-01 -9.842969950574547155e-01 -1.494443316210587458e-01 -3.380407133589662383e-01 -9.359894410472429094e-01 1.646984435312448536e-01 9.444023159627201736e-02
7.290059796628578503e-01 -9.382178137283547770e-01 -8.355245469119008117e-01 -2.493854018166425934e-01 -6.310393458399299327e-01 5.235288971510136946e-01 9.127146622782100760e-01 -2.345434137794226714e-01
-4.036163743621665745e-01 -3.362271807967220916e-01 -6.692423721981586304e-01 -6.410717627342874536e-01 -2.576309652127879435e-01 -3.097045942139462493e-01 2.069968774669102007e-01 4.020476491378883743e-01
3.406003425888131098e-01 9.246541418267097967e-01 1.114279708246710410e-01 8.381222617431147714e-01 -3.856672462220520625e-01 3.514359022271387190e-01 -3.919566365584430390e-01 4.817722933628967308e-01
1.644240065139568330e-01 -6.872703920563407731e-01 7.051153445534106279e-01 -5.056040298168738012e-01 -7.908161869299965563e-01 9.842790722075995813e-01 6.716076874250889173e-01 2.523007307651676800e-01
-3.817794103174367848e-01 -9.875747152634279935e-01 -9.735218827588418833e-01 -7.175396236300368713e-01 -6.919363713689090645e-01 2.326848995802133224e-01 3.635706111240759597e-01 -1.114292178478626383e-02
5.702546346714771897e-01 4.046606741093206061e-02 -3.001167096849919336e-01 8.766177922848588100e-01 9.357215067860789048e-01 -6.162342649909260395e-01 -2.704967091700312132e-01 9.938503604002584257e-01
-3.798487192751947017e-01 7.099804085795100583e-01 -9.923775888374171128e-01 5.829286547055874124e-01 -7.264660741835138325e-01 7.407715971814450295e-01 -2.962408814555415049e-01 8.998286503237817868e-02
-2.759569566544426422e-01 -3.334838232600372265e-01 -9.891714002866147659e-02 1.397233924470548949e-01 6.906520234796194035e-01 5.776159790630364110e-01 -8.531724181561011200e-01 4.088947230629287333e-01
1.268987109431828131e+00 7.746984076397459562e-01 8.083999906842624927e-01 1.037248310680955354e+00 1.070448996654226548e+00 1.369247079303058445e+00 5.271173107671840441e-01 1.305760946379706189e+00
