6.101163373280786839e-01 2.731279509836805897e-01 7.867485695816789359e-02 4.245549104974937205e-01 -6.268745728085938218e-01 8.784597209220268432e-02 -6.535987660550999223e-01 -8.813805042396549716e-01
7.966874580619438539e-01 1.396109575910990941e-01 -1.169234214960290785e-03 -6.248413471220566340e-01 -9.090016946070551551e-01 -9.071818696650335578e-01 -4.042930029214626408e-01 2.554898379692924770e-01
-8.279241379062951545e-01 5.042626588632150852e-01 5.691661253203093018e-01 -1.931935859280760059e-01 -1.768549740919356239e-01 -7.686888269797231832e-01 5.923156918827556794e-01 5.756131213894091214e-01
8.566941689922709102e-01 3.404219359695972447e-01 -5.119293710775918438e-01 -3.741314047855957003e-01 1.270594084341096774e-01 -6.440425455176339575e-01 -2.612198370395770741e-01 6.928615740460535299e-01
7.261827916583944997e-01 -2.661112167611778823e-02 -2.453209006466512410e-01 2.411755900338454772e-01 -5.183133688219248025e-01 -1.122783584303184146e-01 -7.586720746413144756e-01 -2.811932137538939447e-01
-4.993535885040878419e-02 -8.403155390169818606e-01 -6.795769047785269468e-01 2.715338601375507643e-01 -2.330425593507585713e-01 4.948169588599944380e-01 5.049073202555953710e-01 5.034601293901170838e-01
-8.930920298187843276e-01 -8.096576778262165597e-01 8.908180689815410336e-01 -6.357122175307834411e-01 -7.848770977206311894e-01 4.505069857896093488e-01 -4.754112182962171307e-01 3.984366792366835774e-01
-4.602404907125370315e-01 -5.900973280263472898e-01 4.264134334365627943e-01 6.942623453052254590e-01 2.816317946855593224e-01 3.810851502511236610e-01 -4.209649509559962866e-01 -8.813835312820244017e-01
2.210420422605996471e-01 4.209359911905561358e-01 -3.081313845871704871e-01 -5.981153938527072889e-02 5.060504811770443201e-01 8.629533919578045165e-01 -5.919813361522574535e-01 6.171142052764646557e-01
-6.528404453444665023e-01 -5.362540855093207437e-01 2.479475268853259529e-01 -7.466853892352647293e-01 2.663885426828418446e-01 1.500644492338225611e-01 -9.056012979109548944e-01 -4.207872516930311058e-02
