-6.422886733034349760e-01 9.139075482401579631e-01 -2.579167357274561034e-01 -9.006740983096643838e-01 -5.221115747433542342e-01 5.813973706563231314e-01 -2.378547879346837313e-02 1.305354194445507154e-02
-5.879026606341490879e-01 -5.208590046488399405e-01 6.859601155894849978e-01 -4.365913788706099474e-02 7.409666140638013765e-01 -1.790170875206706924e-01 6.940080972310720409e-01 4.028377176104596114e-01
-8.623886404029572628e-01 2.817294762869595459e-01 -3.668943745578645554e-02 -1.096980378424690095e-01 6.630909585481561397e-01 -5.383538927045528055e-01 -7.467163878974620861e-01 -3.347097517891297613e-01
7.501227165943131769e-01 -5.612678346216222192e-01 -8.021884848800180379e-01 -2.294875217460152772e-01 9.940083168662749991e-02 -4.366354389599718111e-01 -3.185255758038534335e-01 -6.862810658632059191e-01
8.994243549973830465e-01 1.124138709269175695e-01 -1.593691006082464945e-01 7.026537312310088268e-02 -5.287477336602603994e-01 3.112956786754990102e-01 -9.804702129384286202e-01 4.667441357038160099e-02
3.796719193834825479e-01 -2.399998262713518571e-01 8.231515024156643712e-02 7.830698785256129391e-02 -6.570195272387282515e-01 -5.062893524991383121e-01 1.211221810283593658e-01 -8.368116620888534918e-01
5.437706030960132164e-01 3.658831733852945245e-01 7.225575496721401425e-01 -8.968867523473911252e-01 5.656878668190912229e-02 9.705415178709262403e-01 -2.777583159513037359e-01 -2.259886330391664977e-01
-7.979640721510066204e-01 7.560249612828073840e-01 9.934301334597932520e-01 -3.584268614741117354e-01 7.325957152985964616e-01 2.204157373164554734e-01 1.602111716430363320e-01 -1.404628501864952916e-01
1.407794290018737904e-02 -9.857469733004100565e-01 6.308854016716658464e-04 8.441651284267643884e-01 -6.816839481871599382e-01 1.711966549741654742e-01 -6.648690179521858923e-01 -7.963567443118877431e-01
-3.447016200165822220e-01 6.781517855333625278e-01 6.382709749039139346e-02 8.038846370496846028e-01 -2.955734868241854940e-01 -5.619532168028662511e-02 -6.076528562829597302e-01 6.003398338042109650e-01
