-6.533401209572675672e-01 4.744998511616829173e-01 -7.251189924977408108e-01 -9.275706433877131118e-01 1.728781434666581962e-01 2.408391670905831727e-01 9.560810675580280193e-01 -6.850211981868530309e-01
2.110403909436011638e-01 -6.061409552012455570e-01 -5.232757020203699927e-01 6.339588529179382981e-01 2.707729983414468578e-01 -9.204753058275374489e-01 3.446635917751665890e-01 8.431790761479107665e-01
-8.034286736304696586e-01 -4.474374771009770324e-01 -7.331085179462926149e-02 1.338848635118763397e-01 2.031317492246247358e-01 -1.987122302528023798e-01 9.964377996122766312e-01 1.440148516046142468e-01
-5.646699085139628149e-01 -6.742965579265902676e-01 8.499430864313526346e-01 2.337538178943725509e-01 -9.715313937414018497e-01 2.668897100062954664e-01 1.885380633441768872e-02 -5.346119005538991775e-01
7.394183176725488416e-02 3.286328392682993371e-01 8.466464084279390345e-01 1.202372112498537593e-01 -3.402062843051971708e-01 -2.630356676587028986e-01 8.214114201095901180e-02 1.330601750239861492e-01
1.147335691713924355e-02 8.938525478715717565e-01 -4.065182343613173988e-01 -4.573337962152799197e-01 -1.621142387947356323e-01 1.869369249201242589e-01 5.373953367060573250e-01 2.281546441078785570e-02
-1.199781725666166921e-01 8.372206601263929571e-01 6.227267513113983188e-01 -6.066012332530914541e-01 -4.324486333776129676e-01 4.287165481415593504e-01 -4.731444526600965261e-01 5.405677922305016647e-01
-4.565684667585216960e-01 -2.242510837417492908e-01 -1.531822174921941837e-01 -9.768633455891719830e-01 9.265002713070624729e-01 -5.435643813845809635e-01 -5.220034727613893644e-01 3.113064467223696230e-01
-5.352428965136781791e-01 9.227292873283705621e-01 7.013325379826864658e-01 -6.513481239532892264e-01 5.159774379795107890e-01 7.675279055819572704e-02 1.720233965797011155e-01 -2.230852054615628521e-01
8.586826538619867222e-01 1.332820752589627844e+00 7.992822389783535986e-01 6.202200570643171540e-01 5.192769092506855921e-01 5.648232584695526137e-01 1.401924665274016490e+00 7.031674616195144889e-01
