-9.498036108345653261e-03 -7.302980246081440807e-01 1.411059274300363597e-01 5.390731721054267123e-01 -4.572331002797467292e-01 2.707222201278043361e-01 -5.230688790954072243e-01 8.873829334881973008e-01
-6.684197991772391489e-01 7.777135167929711823e-01 -8.200168527881261937e-01 3.234841489897801736e-01 -4.005204909897916998e-01 2.647262460998045519e-01 6.269353592214685911e-01 9.236165232012354398e-01
1.464665159415610152e-01 -2.092992715171235751e-01 -9.150867474127604151e-01 -4.215241424297728745e-01 -5.926683318606638107e-01 8.540310110167770308e-01 -6.419730776644874126e-01 -2.695067595889577561e-01
-5.219627419827281845e-01 5.891096546824188263e-01 9.066266644342957370e-02 4.576268178276832188e-01 -3.049976427599720985e-02 -4.787708238694070584e-01 -9.199509245232029286e-01 3.895733551246887139e-01
-8.689721556946676806e-01 -1.617174205027227529e-01 5.562180268007395068e-01 -9.642053804848609300e-01 5.510058363145939886e-01 9.733293312129802644e-01 4.969898078093784033e-01 6.866021195328790849e-01
4.326823445655303413e-01 -8.754073396469426172e-01 -4.110139420335316984e-01 -3.828098220244144922e-01 9.381469852270678533e-01 -4.120152477132477120e-01 -4.274963348410178998e-01 -7.595008195149723917e-01
1.290616756565083900e-01 5.923766766126656869e-01 1.479897309505178171e-01 5.350474377407588022e-01 7.094305132867186892e-01 3.699887468033338234e-01 6.421204591666365147e-01 9.515224759865943405e-01
-5.650358477809429569e-01 -4.941833610709198688e-01 8.202641818621017045e-01 -7.547796206525845264e-01 7.335532824643469230e-01 -2.698896263084487046e-01 4.338796215695865932e-01 -6.855240166118268252e-01
7.643337345893903567e-01 8.330234416401669506e-01 -6.929531186142507959e-01 -7.784741674619233276e-01 -4.557061280716723228e-01 -1.743418286600157963e-01 -8.368579560777569259e-01 -2.568377926729679128e-01
6.347863733612238990e-01 6.781728233111206094e-01 1.047627671365416013e+00 1.169249913626396964e+00 8.950672041660868716e-01 5.336438761688669929e-01 8.648373436008230941e-01 7.926828723306568181e-01
