7.351074739190195384e-01 -4.983911574595187854e-01 -7.578378868309292304e-01 4.382151441230972555e-01 -9.512051698973289504e-01 -8.425514142976797682e-01 -8.949149981906856510e-02 9.755172058040935124e-01
-7.518677232874932947e-01 -3.834996410693916058e-01 5.107041970018539878e-01 -9.558482042941562895e-02 -7.863653629348101859e-01 6.517080429222172899e-01 -7.828699296336611990e-01 -7.185508365361119587e-01
4.178158745497306814e-01 5.563641596025901137e-01 3.528923942776098777e-01 -7.879569519201412575e-01 -2.681140826887566941e-01 -4.322986253078455743e-01 1.722974294295620545e-02 -9.035060388922491192e-01
-3.801240995141716983e-01 9.516589897638345619e-01 -4.103513357826857888e-01 -5.088538551699075541e-01 -6.483562410534251530e-01 -6.895516985722975889e-01 3.982006466974257197e-01 -7.653038563217442469e-01
8.627584022807963660e-01 7.403253254940844741e-02 -1.200072540315808567e-01 9.532357256868988493e-01 8.439661542739251843e-01 5.636363236022410295e-01 -8.167274574919358709e-01 9.242846829947433118e-01
6.120505271441494255e-01 2.989262523167985908e-01 -5.175803449870672868e-01 -4.211379674906163828e-01 -1.303576138784956484e-03 9.369031311376929683e-01 -5.776303344919533345e-01 8.825517842378609590e-01
-2.024724003497468949e-01 3.553948813732727974e-01 3.310556372464072972e-01 2.292997448007383365e-01 6.684039490050706078e-01 3.423525051081657278e-01 7.319076071649348592e-01 3.393949833140272876e-01
-9.794883704736863095e-01 3.721833948850092888e-01 7.115081882642162459e-01 -7.130920533550442197e-01 -9.027804229225322441e-01 -7.622647752129894094e-01 6.678776488499555963e-01 -3.223854049618037898e-01
-9.060152362953357574e-01 -7.122506979299634278e-01 -8.443349539363125267e-01 -5.805640184200628884e-01 -7.234485411947413347e-01 -5.120194723029398709e-01 -9.139096873979029034e-01 -1.243055685978331493e-01
-7.034044946696904610e-01 -1.309311387951335170e-01 8.172105467542480906e-01 -8.170739864541221031e-02 4.588246700202136541e-01 8.291218217474090046e-01 1.300507489322126897e-01 5.851185078009191187e-02
