4.844162049570364115e-01 -4.386996458287808487e-01 -4.775899528829921081e-01 5.554804311868701827e-01 -8.546359666761824680e-01 8.851413557039751190e-01 2.424492556407378263e-01 -6.309023683263603743e-02
-3.218676595133913576e-01 1.083710215691187084e-01 2.856728879334893278e-01 1.839375136136802702e-01 3.235160604017459640e-01 4.207110587907143540e-01 -3.286682385438715048e-01 -7.008628428826784162e-01
-1.317277467576989380e-01 8.754373805719721791e-01 4.461705343082356112e-01 8.066875157218840187e-01 1.893195725898015880e-01 3.926067934483292721e-01 -6.665627990957700977e-01 -4.143440958462307755e-02
9.437659089370908916e-01 -2.822271802669276131e-01 -5.051505646906953029e-01 -5.958736559226225360e-01 -7.190590037645296917e-01 8.437191010142457426e-01 4.023660432745430615e-01 2.375185848215506379e-01
4.973321615056851552e-01 -3.512086516961325788e-01 8.705826869055532935e-01 -4.378881369320322126e-01 8.790919323960775245e-01 6.182965290467903330e-01 7.119888235827771528e-01 -2.048342841073118592e-01
-9.362196103941677894e-01 1.511456709865155457e-01 7.085838405900197756e-01 5.736050042703855212e-02 4.471270096302708552e-01 -7.037443224124064756e-01 -2.928893958514247053e-01 8.624504350593023005e-01
-8.165322191343391545e-01 -3.174660995082856374e-02 7.585083559438183798e-01 -9.934501757227771623e-01 -3.643883013306057350e-01 -2.375849605800191000e-01 3.387761089296461581e-01 2.035003283221590298e-01
7.894549346976456050e-01 6.075519632201908937e-01 -3.192502369486753810e-01 -3.490858187674754642e-01 -9.941711113877249595e-02 9.689309751840549101e-01 3.093351661096357397e-01 -9.292366059816592472e-01
3.712713578984396801e-01 4.267964716051548812e-01 -3.328424503321720795e-01 -5.551270520911359974e-01 -3.076542670995587869e-01 6.176805071709530193e-01 5.527187365316974521e-01 9.707660018608545993e-01
-4.907997789327400717e-02 3.255441677393546840e-01 6.405823688006158090e-01 7.817106890917038253e-01 8.788486103948414119e-01 8.274601444561862085e-01 -8.417619628430934586e-01 -2.314417812446110112e-01
