8.535281824279097318e-01 -1.192599268640957000e-01 7.785748004569119640e-01 -5.735075194715144598e-01 7.187563232632565580e-02 9.478835220945946993e-02 7.759309161068137506e-01 -6.005347778492495792e-01
-2.278491689488240102e-01 -8.403975800608187718e-01 4.673506971061200943e-01 5.110806353473438257e-01 5.197738785018215513e-01 -3.803730543324528313e-01 -6.336049812848256746e-01 3.871736550157556245e-02
4.279419561402737493e-01 4.133050658358632390e-01 -1.202658050725180505e-01 5.485110625056432987e-02 -3.840009885234345610e-01 -9.165696136336998201e-02 4.352642529812598138e-01 2.552654036267720805e-01
7.692310166151623552e-01 -6.606851326334195473e-01 -2.653308300917744944e-01 8.009873302427221731e-01 9.497632590626372551e-01 8.367689802346589545e-05 -6.967502083050094441e-01 4.988193700000453923e-01
-4.587193700719920386e-01 8.946223041939005416e-01 6.451700125869896940e-01 7.421939953638339027e-01 8.735929804092248396e-01 -8.032409073166841829e-01 9.289833074383522238e-01 -6.656955595335094511e-01
-6.030332686278883081e-01 -4.608286090662050416e-01 -6.813141835918303801e-01 7.310974278471724652e-01 1.846457921606359243e-01 -4.539065752269078047e-02 -3.120518816784132454e-01 3.762542108525257500e-01
6.516838533403923606e-02 -9.678451949451034597e-01 4.882383015901003986e-01 -5.988448535613621893e-01 7.387116152205979169e-01 3.440762889600625929e-01 -8.932105908145242523e-01 3.945609971536629956e-01
-9.947752013196875520e-01 -9.011304808234430475e-01 4.939754696017744084e-01 -1.146915903481096066e-01 -9.338587595198968305e-01 -7.512239404873217730e-01 8.290578853705443674e-01 -2.210186836453533754e-01
3.377708620557340335e-01 9.600623961831793451e-01 -5.392660681778791432e-01 2.949582781076807159e-01 9.455922105686909163e-02 -9.912677175074953162e-01 5.613263992787731471e-01 -6.201664483724309562e-01
5.726534505552862697e-01 1.446145756182880771e+00 1.422455104868670439e+00 8.434056903654727488e-01 7.282509833476185079e-01 6.842462864560927560e-01 1.008217735050279007e+00 1.186409856711406308e+00
