-9.605736893667549126e-02 -5.436116723540629359e-02 -6.434180841731049760e-01 6.600242165984491205e-01 -9.095632082877320723e-01 3.158736198474030310e-01 6.286340909291758816e-01 -7.832166048284461279e-01
3.446267810680481158e-01 7.504592439733577258e-01 1.833329319871550567e-01 5.885339344372741976e-01 -4.364011386456072561e-01 6.384495928267419629e-01 8.152945189693299177e-01 -2.988317039460470781e-01
9.551597769586219755e-01 5.321406150660015211e-01 4.874731180768776539e-01 -4.578491520804410797e-01 -5.794648729946334509e-01 -3.078002636574663775e-01 9.573224023146256201e-01 8.930368484269872731e-01
-3.495687157418789770e-01 3.532350423031709319e-01 2.935876319977612781e-01 -5.316670614256024940e-02 9.331842480356449254e-01 -9.808332743498584527e-01 4.727751853672219617e-01 -3.174524452502751615e-01
-8.693585164949291233e-02 -8.644077771807070487e-01 9.843820570395587222e-01 -4.188036605672191826e-01 -6.916085177230513192e-01 8.173575465663998063e-01 1.904866172026729032e-01 9.701175692477699286e-01
-6.978624247578966155e-01 4.331117907689763236e-01 8.251711824855727517e-01 1.033487569128079819e-01 -9.270608246619849169e-01 -5.033846972414290910e-01 -4.364104567828506198e-01 1.623273932039710488e-01
-5.820013863715400859e-02 -3.305447802451066952e-01 3.751705352004248706e-01 -2.009361674219065641e-01 -9.371589041249990260e-01 8.144387440267331080e-01 1.181498683410595607e-01 -4.710096537475332301e-01
-4.985753138535189422e-01 7.014545562953182767e-01 -7.260810298801021467e-01 9.275404650395224770e-02 3.201799648023384570e-01 -5.754611485173397600e-01 2.375067977459670576e-01 -3.763372349565272668e-01
4.319856129020915869e-01 8.066643798678525545e-01 3.290337137306964532e-01 8.540172379231827371e-01 -2.009549537666472929e-01 3.304874180248624782e-01 9.073009286293636233e-01 -8.435257824921760239e-01
1.356416227356895821e+00 7.947482330187306543e-01 7.992339173936945373e-01 1.394938972319132553e+00 1.201794156077209408e+00 1.213656215524099746e+00 5.229853336813813369e-01 5.886986576708009844e-01
