-7.702181818767315225e-01 9.296917007562608415e-01 3.355956454583013393e-01 -5.553206355075208656e-01 -4.645275406096134319e-01 9.238748772647613627e-01 5.181346741642154363e-01 -4.576679187979952879e-01
-3.737950612935900807e-01 -6.299976858749773978e-01 6.151166702303560996e-01 -2.306325242157689637e-01 4.564826021176344728e-01 -8.563877316188721611e-01 -3.331103436954874208e-01 4.449805518484790667e-01
3.493892764061388156e-01 -1.889476864682588797e-01 8.469497726289090256e-01 -3.348652670112377550e-01 2.441547981820673119e-01 -9.576161688535234084e-01 7.058900870294393393e-01 -9.333328420074491483e-01
8.226923945480322242e-01 -9.009390565418275987e-01 -6.307949838018940270e-01 -4.132870000821764478e-01 3.666398521947389355e-03 -3.010049720231222636e-04 4.618322056748882520e-01 7.956949996824835836e-03
-6.294098107325889480e-01 1.920029703985244307e-01 -7.388113581344968317e-01 -8.285758985400362153e-01 -6.776975766667541201e-01 -6.190996712974841110e-01 -9.021094990100277933e-01 -1.882579608268954985e-01
7.518442295611516002e-01 -1.895495264851214667e-01 6.011351265129039056e-02 -2.571330163239369249e-01 2.626754758099671960e-01 -8.225077933208158054e-01 -9.046986707752686652e-01 -6.711295909669618975e-01
-7.896307240389164317e-01 -3.381380180683604131e-01 -6.808018083288280842e-01 -6.322019936698353160e-01 -9.668753477267029162e-01 -3.422286755218377774e-01 -4.379342717038159360e-01 -9.656871437234495481e-01
-2.271138740889595553e-01 7.426373714860927677e-01 1.774017265370255725e-01 -6.382488717986496418e-01 8.266966449417425533e-01 1.736419733098688578e-01 -5.387625510029057097e-01 -1.754379194631001671e-01
-4.350607697727362222e-01 -3.789996759344991251e-01 9.860110487064421836e-01 9.033477913426990469e-02 -1.197246420770332609e-01 -7.161441374427162110e-01 -5.774495776068990782e-01 3.838801837811363082e-01
1.314931099793530622e+00 1.419064568589847752e+00 9.925131334654980764e-01 1.319765307870188531e+00 6.956686169952676080e-01 8.151509455705043816e-01 8.792577090277141627e-01 9.530082443564148464e-01
