6.210724987938580632e-01 9.540276899562418755e-01 -6.169828951949805074e-01 -2.229056925376600162e-01 9.995141692659417210e-01 -9.846897983213669381e-01 -9.095182450773697802e-01 1.435391812186366245e-01
-5.206535903356943606e-01 3.590085267930722690e-01 -8.641108744711711864e-01 -5.610411197268081462e-01 -1.017732636669559376e-01 -5.773231463678243358e-01 9.832385631653524083e-01 2.743650447297951711e-01
7.576253239630332814e-01 8.392499815385623396e-01 9.177365434310666981e-01 -9.138798830195864475e-01 -4.561045241271128869e-01 5.674798651356414148e-01 4.351439909256893390e-01 7.451642797923176964e-01
-2.576812293317305436e-01 9.018168403689739154e-01 -3.054254131493632229e-01 2.131518942228534108e-01 7.616880227388851399e-01 3.487815097623545579e-01 8.092020412480904756e-01 -8.077763082758027124e-01
-6.575312628274014859e-01 6.187407266409654660e-01 4.471610940055867900e-01 -1.422187736963986815e-01 -8.641713505335293366e-01 5.368834069226713357e-01 1.903962491523341072e-01 3.012404589617612150e-01
-1.430444442304352748e-01 1.070175224012250847e-01 6.170797339524680680e-02 -9.133054236812869764e-01 -3.224962907535631196e-01 -5.556327283100674919e-01 9.671341765796537260e-02 6.468475528028780897e-01
8.642641255680332257e-01 1.971646730181175755e-01 9.899476356012857359e-01 -5.698631928188924167e-01 -5.283318186100709468e-01 -5.210786798977391499e-01 -4.713998997948787295e-01 3.430742718658097434e-01
7.280033155730656347e-01 -4.989984258994462074e-02 -9.641768987889540732e-01 -9.257716505857609413e-01 1.952259217130414282e-01 -5.555975276112690153e-01 7.946558514750536872e-01 -2.116944048245623655e-01
2.636479434013008216e-01 -3.133449804916912385e-01 2.125653088568402183e-01 4.336823898849595516e-01 3.897932650224407158e-01 -5.274157338651692672e-01 6.061548189074532633e-01 -6.936841163587958992e-01
-4.853326404272937378e-01 8.604102037760417154e-01 -3.999697141488178787e-02 3.255535813950247714e-01 2.425465965205384489e-01 -6.690146691557061764e-01 7.639746765856618715e-01 -2.430085325263664497e-01
