5.177988970711819849e-01 -5.488410981896192364e-01 -5.387510563208319780e-01 -8.819142846702399119e-02 -7.187055853590995635e-01 -2.007963613003678205e-01 5.034648606081006950e-01 -8.866362142499757404e-01
-2.363187403155107003e-01 8.718823497946155410e-01 -6.359840884923384507e-01 3.610065515368063860e-01 -8.365039015855022519e-01 1.539367899081434121e-01 5.201589391322956057e-01 1.700644357673695151e-01
-4.323255760659028279e-01 9.802664107121377146e-01 2.844603998810857348e-02 2.800773424069882278e-01 7.820213187932110177e-01 -3.994352941568799498e-01 3.309346115039595304e-01 -3.449147097785578708e-01
-9.509375369655683752e-01 -7.399573861446606671e-02 2.865413787847255200e-01 7.164117780824934556e-01 6.406198132064595541e-01 4.270191643596348285e-01 -6.695383775017360595e-01 -7.672826524052283048e-01
-2.861760334448595344e-01 2.830763631290835747e-01 1.010858644522150129e-01 -6.954576478625988933e-01 2.813512395435420199e-01 6.558582762814613165e-01 -9.738408468763566361e-01 5.088538831539015650e-01
2.069006109852946640e-01 3.632546779195169329e-01 5.425058802778761624e-01 -9.116064514701038846e-03 7.292673975530887809e-01 -1.373257699629655271e-01 -6.019725721735345036e-01 -4.190007926260701510e-01
-5.087058269655828635e-01 3.399385275913915372e-01 4.919926424006588750e-01 -3.221393106925225513e-01 6.003048199790512740e-01 -7.999528747117166105e-01 5.226616734360896022e-01 4.436354959047510427e-01
-4.680877715724758303e-01 -7.310499467804256746e-01 8.495600089574295577e-01 8.779146736298526488e-01 -3.019195682201241127e-01 -7.631804435698008593e-01 -3.782802928542456922e-01 -8.519111898318676435e-01
-2.127556242855965785e-01 -3.301273917826490489e-01 -6.665099358133028673e-01 9.142339634244385227e-01 3.138004679458250568e-01 -9.929901371139779886e-01 -4.697518026567140126e-01 -4.449999739101671015e-01
6.485821859864706607e-01 9.554279809620939146e-01 5.969117102110151896e-01 1.115003252399208389e+00 9.174930154852499742e-01 5.123870202996818612e-01 1.498560885990238400e+00 1.486640866889721302e+00
