9.275277994373412049e-01 1.973804408100796604e-01 7.664349442042035498e-01 2.024496680188623277e-01 9.755017646477213145e-01 9.339750511614153261e-01 -3.459297544558448401e-01 -8.460048911371786939e-01
-7.983056426601431443e-01 6.462462893765368310e-01 4.047268981869904803e-01 1.472241990089315777e-01 6.002330636125685626e-01 -8.387547776159243185e-03 8.549405372303451323e-01 -5.617704849480638085e-01
-9.058179140897570925e-01 -9.977435220575707753e-01 -4.619122684484899821e-02 9.236481215326606264e-01 2.964806961605848112e-01 -7.573125963160400875e-01 -3.408311743318175324e-01 -8.423236189172207400e-01
-1.901358573231737292e-01 6.971469674471555411e-01 1.517888221095222701e-01 3.557945029866149689e-01 -2.884489677442974020e-01 -9.442465256581566990e-01 -2.706940025293436136e-02 2.471019858954037751e-01
-6.131867740040584103e-01 8.723299561656583379e-02 6.920585182899299248e-01 7.965525756030822357e-02 -5.007940206344809742e-01 6.482527688893129358e-01 -7.637340392232994102e-01 -3.363909827852620271e-01
7.724693939614737381e-01 -6.953443537444474742e-01 -3.657736839673788598e-01 -9.782976828197242902e-02 -7.051601741144364333e-02 -8.295765949088320657e-01 2.350687691690374059e-01 -3.265689812774312806e-01
-9.185044966502753372e-01 -5.339431256252731295e-01 -3.452118217598609817e-02 -6.571984593061326319e-01 -4.120860438483195942e-01 1.140459845333068323e-01 -1.134575938869102352e-01 -2.946614965808889153e-01
3.240207867113582552e-01 8.245348619643690924e-01 1.849230994689494700e-01 -1.567281049416369143e-01 -1.506948459421386666e-01 9.980140120904998913e-01 -2.781652537416556825e-01 -1.439891552963492583e-01
-9.064334091725516629e-01 1.839497269207179819e-01 2.276988958428451948e-01 7.667841803958297398e-02 -5.942090780520425941e-01 -3.607317356571917433e-01 -3.788502660332946359e-01 7.930641813851193600e-01
-1.783348951707479646e-01 5.765833230383370367e-01 7.970538543342229332e-01 -3.618391441375194972e-01 5.776023122455089531e-01 3.502383013640406606e-01 -2.984013534542446777e-01 6.984624026868693214e-01
