7.489943561445051579e-01 -7.548584128358397649e-01 -9.591979885444330556e-01 7.368937295397377518e-01 6.147516573689268959e-01 5.147981095224063441e-01 -9.045852339726170310e-01 -8.637604164897736414e-01
5.741576467222686553e-02 -3.084319566893958253e-01 -2.194048634281298149e-02 -1.663669458755143715e-01 3.024909727922182601e-01 -1.672328484550835714e-01 -7.941702686794711585e-01 -2.535337284578331740e-02
5.393965823240638446e-01 2.253142427903254141e-01 -7.978916813953051967e-01 -3.312355464410621231e-01 5.601828249351554767e-01 1.654868348456197680e-01 -9.059813647690484473e-02 -7.680112021293901137e-01
1.834810104487942795e-01 9.563153519369673727e-01 2.141406799334382161e-01 -8.294280767471573501e-01 4.101728488348448387e-01 9.692364947474025882e-01 1.246524469320686723e-01 2.685909321635500113e-01
3.627767267751009772e-01 -4.525619728231897732e-01 5.276227234207091499e-01 3.468578203141479133e-01 -1.466080116728976090e-01 -4.880620085101963213e-01 4.771695082735303295e-01 6.773504275277637543e-01
-3.461327089457821859e-01 -8.634912523255833250e-02 -5.058257566802595306e-01 6.808374152926877088e-01 7.711740853965314280e-01 7.020001643040889583e-01 -7.956725392274963671e-01 -7.718828839765268235e-02
-4.898507330398615967e-01 -1.285463587947599517e-01 9.550840504955617760e-01 8.402174528720134372e-01 9.022892990753612619e-01 7.141026055222152724e-01 2.439356291724508186e-01 -9.824119665936703605e-01
-1.778250749241518935e-01 -1.698808927026540516e-02 9.713660178724021765e-01 5.584183296195699420e-02 -8.097519781828179664e-01 -1.878148337197425022e-01 9.589306312258598641e-01 3.990946706675972955e-01
-7.161202020298931270e-01 -2.592118827843039597e-01 -6.653304700825977136e-01 -2.005431034689235670e-01 6.914007786196516570e-01 2.674272393721142116e-01 -9.613296097444645749e-01 2.523206486348790190e-01
3.345396317716455847e-01 -4.706575366100926860e-01 -6.937660605713869000e-01 -6.156664812173464618e-01 1.153158382016761241e-01 5.456971216142094683e-01 -3.543898594631698096e-01 5.287022286592018006e-01
