1.354964790319392876e-01 8.695283849447839053e-01 2.908326987759499715e-01 5.731967830784794327e-01 9.763582791444180842e-03 -1.267990863001033919e-01 -7.724554032738706333e-01 -6.003004487192107330e-01
2.318793152792280043e-01 8.648865819181417169e-01 9.960863182966666063e-01 2.018438441619012647e-01 7.891207344772768195e-01 -2.695206001741243806e-01 -8.952363022895153399e-01 5.426183799146937492e-01
6.862043126757797484e-01 4.995801182788250916e-01 -6.525987531277237519e-01 -2.506650966536096981e-01 -2.709353439635229233e-01 -5.413872720243475545e-01 9.947409788127874464e-01 -8.649687974925159839e-01
3.105260060647745401e-01 -9.798095316878412397e-01 -6.645382341920540448e-01 7.402822788247827024e-01 5.844788740171940056e-01 5.605930550962789916e-02 1.689591848871550006e-01 5.362497339377807481e-01
-9.136955266178954371e-01 -7.322214941410361000e-01 4.459013760786074698e-01 -7.778184872020013074e-01 3.322547876405963496e-01 -3.022488010581800832e-01 -6.598661909191005925e-02 -5.453972963025333076e-01
9.659379733192319240e-01 9.745522640750206023e-01 4.802462285518820373e-01 8.969711409249463419e-01 9.893312430305616356e-01 6.284680863686491481e-01 -8.659165428726938174e-01 -2.317469192303829306e-01
8.478244508294690007e-01 2.302607888297281136e-01 7.099446107802325212e-01 -2.108236490297692445e-01 3.042261958032199676e-01 -5.046787882628274158e-01 -9.273829822960923952e-01 7.518905018831176790e-01
9.678514203784704950e-01 2.124122870256561768e-02 -7.706291644503417970e-01 -4.933908542150626797e-01 -4.591598590095657961e-02 3.345982759126255868e-01 -5.793673619420010024e-01 3.867333698389792129e-01
7.286568540391256121e-01 -5.049197025377736292e-01 -3.451677255131961886e-01 -5.678508517787148602e-01 -3.752750980830554806e-01 9.040191594180753132e-01 8.598270158893148718e-01 -5.008115708531797328e-01
2.998744041988909981e-01 -2.920015735730241424e-01 6.456482420744960038e-01 7.232986114822326229e-01 -4.057957988295834983e-01 -8.695425744034626092e-01 5.012534110012061284e-01 7.137953751297705374e-01
