4.125610003739510478e-01 7.699017822901477182e-02 3.007860891321472163e-01 -3.540255579464186564e-01 7.494720118012878629e-01 4.231938709783242825e-01 -2.273670022823179870e-01 -3.939151262841089629e-01
-3.983506961783245259e-02 3.897002947327963263e-01 5.474921604477520631e-01 2.180821026250658878e-01 5.445657384616826580e-01 -5.131220748394227371e-03 5.636837759954418381e-01 -8.724317445556755146e-01
-1.504212882612643298e-02 -5.917153250860018865e-02 7.629401392965156070e-01 -4.300560876345127514e-01 -4.570033122457459740e-01 4.578570455370627457e-01 5.784952244373120500e-01 5.586155327772068802e-03
-6.384068131770390675e-01 -4.636597610862294161e-01 5.665092499302781803e-01 -6.376150582002864109e-01 -4.590988521888499374e-01 -7.360262852818804102e-01 4.296332991276405888e-01 -5.819844336965807052e-02
1.754534236792399948e-01 5.682114734829808445e-01 5.052980730019116518e-01 3.309122398803943099e-01 3.347987425260701144e-02 -9.351489328855324690e-01 -4.691872280062188150e-01 -2.878377878204538831e-01
3.603174524394809897e-01 5.221504900507389912e-01 -3.944021335533323125e-01 -5.726010324213131053e-01 1.807045602337655765e-01 -6.391960242095497957e-01 7.924511985141606818e-01 -5.037201012400149835e-01
7.730228556510956306e-01 -3.897571226042981785e-01 -3.713173910131781774e-01 -2.469807283914864371e-01 4.798910743664164258e-02 -9.878191128151891931e-01 6.185506745508109194e-01 9.955586590912499645e-01
7.749820145992738496e-01 -1.845515372354382677e-01 -2.238156331103180463e-01 3.815968972813910121e-02 -5.459422861289975337e-01 -5.428115045435286667e-01 3.940578303358508450e-01 4.297568288602220399e-01
-3.606853648272121404e-01 -7.915934619819662288e-01 -8.309931061448363465e-01 -1.311654340664374363e-01 6.162726205307460514e-01 9.566006181392221475e-01 4.555136233911027954e-01 9.620382507160560870e-01
5.745604671057960022e-01 -7.637050982412727507e-01 -8.388862599194981673e-01 -9.967767396570501592e-01 5.645290210931643848e-01 -2.713506594826786689e-02 4.251611834133155465e-01 3.175197339187170176e-01
