-6.269680919345410608e-01 -3.535321881478774575e-01 6.363243291595293005e-01 -3.262649692511414568e-01 -1.171698156727309925e-01 9.324291421916934830e-01 2.633199154094369998e-01 9.715923142136873025e-01
-7.554533476481677390e-01 5.940930625170854906e-01 2.741156731275613545e-01 7.051189753388047432e-01 9.269408655337567637e-01 9.234616291217978556e-02 -5.060648944673145078e-01 -2.464921191053099925e-01
-6.155793015017543279e-01 4.422046426686954135e-02 5.543374632280593239e-01 -9.270316190716454408e-02 -5.249535343234885687e-01 -5.610876077479631796e-02 -7.966836361399900479e-01 -6.561855282062254435e-01
1.926181462460700988e-01 -2.048591376434694133e-01 -6.877245049099831586e-01 1.126227722566854883e-01 -1.616570281389921870e-01 3.322315715497328181e-01 -4.268035711895170614e-01 -6.482116385408649428e-01
-6.335017360854711121e-01 -7.683790450906569092e-01 3.270675271133898221e-01 6.746429331592844747e-01 -3.568723797156521105e-01 4.715447675148851658e-01 8.342609070385669234e-01 -9.458499903747441540e-01
3.431403669659962574e-01 8.329322931958103027e-01 8.245869340995426455e-01 8.933590118205847475e-02 -1.416203345706021910e-01 1.347133845316972334e-01 -7.161966091603253481e-01 -5.783087171542802274e-01
9.529066188689536698e-01 2.548315020716083179e-01 -8.522024961629344197e-01 3.212329576792694041e-02 5.124055232883268918e-01 5.005452281659767966e-01 -8.531246101380454139e-01 -6.439897378285792673e-01
-6.290656005145367491e-01 9.305178813814753980e-01 -4.636056018716427918e-01 -9.693518048610638704e-01 -6.888776783378200985e-01 -9.491578071998763022e-02 -4.610850130833983318e-01 -8.503793716422114457e-01
-9.405586704397324027e-01 -6.312702598254471553e-01 -4.425991163638176573e-03 1.257731797247414463e-01 -2.056263097821544594e-01 -5.922707713306329946e-01 -9.204241899284322237e-01 -7.958045257241053161e-01
6.999241370597434342e-01 7.781652729967154514e-01 1.207348069357433884e+00 7.705873558763686182e-01 1.018401137084324670e+00 1.317225138634629200e+00 9.561542013799015916e-01 1.290876567279978016e+00
