-7.084518861311992488e-01 7.875196948035645406e-02 1.769043021832701346e-01 8.142728633150115858e-01 9.026480721528740148e-02 -5.612493003024237037e-01 6.617495377111717314e-01 3.417305612416750016e-01
5.470593847799156695e-01 -2.494751866412945329e-01 7.915845679518804801e-01 5.390217300532245126e-01 -5.917037887012299713e-02 -8.443072678276914989e-01 9.558450277132009010e-01 6.333129071824397105e-01
-1.537542785177317128e-01 -5.279869362256845999e-01 -2.482475856844525985e-01 -8.832501854009189302e-03 6.164397213989727398e-01 -6.531940579186605866e-01 -5.286278942841413642e-01 9.858302473333002691e-01
3.397037318860582911e-01 -8.270968893698049662e-02 4.740343664483894770e-01 -8.883607074652484226e-01 5.621093816460061010e-01 3.539019150652800150e-02 -3.856730630600102572e-01 -6.001122794368953794e-01
2.431379583831583258e-01 -2.705845642257440620e-01 -7.568840893545716320e-01 3.302444243130597812e-01 -3.434343750922033145e-01 6.011490120458915509e-01 -2.058781334239725425e-01 -9.200152330272968193e-01
-7.025352147050845097e-02 6.311148078095201175e-01 4.888350772210703354e-01 -5.280917258229782529e-01 -1.117101363505201839e-01 -8.452592330839816537e-01 6.910656124658964838e-01 2.740258527279408884e-01
-7.389486217482554853e-01 -9.783863238003265295e-01 -4.468076865436627632e-01 -1.764781438150115900e-01 2.535779042749088941e-01 -2.675415296142236166e-01 -6.922216998240615649e-01 8.706313419024898081e-01
-9.212424923988260517e-01 7.460143179160139137e-01 9.721020235345574356e-01 -7.794736482889077500e-01 8.820032983394407999e-01 -8.457575308429230443e-01 -1.412150674612093759e-01 1.550664952022775545e-01
-8.348446044275441569e-01 -6.721083223501775894e-01 5.577344851988208507e-01 -7.354354813418602088e-01 -2.386335954853935348e-02 -9.268949549856466685e-01 8.436528192682493099e-01 5.278508498907785729e-01
1.264310917006115975e+00 1.444433753449929636e+00 5.042729334789003426e-01 5.664760568559571441e-01 6.859964041331431117e-01 5.837203682476949096e-01 8.060157785614771031e-01 5.259919445615651723e-01
