-8.799171318986216406e-01 4.136639663507502007e-02 3.584544982045159145e-01 4.359658685355385366e-01 2.102477962994138139e-01 -9.598535112737194286e-01 -3.445033389517313527e-01 -5.126237379448548293e-01
5.688054146276595446e-01 3.897739859035187493e-02 9.167837021154754407e-01 -3.532216431115087207e-01 4.393674464056909201e-01 9.792026544249912146e-01 9.037768968241288725e-02 7.477129710131147355e-02
-2.365739856064146274e-01 1.025152606130994570e-01 -2.915260992779162841e-01 -5.797765205073972528e-01 7.008532738234540815e-02 4.487035531535903399e-01 4.644053878951048819e-01 9.433136722924448936e-01
-6.222644262579219987e-01 5.948636177200110620e-01 4.859619597862541163e-01 -2.258118458618458835e-01 6.639516422775348925e-01 -9.324983270738820273e-01 4.537942784348858449e-01 -6.699092685709446826e-01
1.282011759923444849e-01 6.045405989158239013e-01 1.672600187452792930e-01 -9.170514041361021995e-01 7.002041329284185434e-01 -9.993705650282478370e-01 5.849287253409827247e-01 -1.702952334597382933e-01
-5.873172344458477134e-02 8.561061346586120724e-01 7.738529134565821366e-01 -3.506395307706571263e-01 -8.285041818999507868e-01 6.119950031185896755e-01 -6.388605676700174207e-01 -2.667405044201140996e-01
-8.246218888723229057e-01 -5.049640312383270047e-01 6.811055042973430673e-01 -6.141033342778667858e-02 1.915309861887797283e-01 1.544882329681098732e-01 -4.469745616280300649e-01 -7.972059828133672976e-01
3.470478652751931570e-01 -7.116886635149481943e-01 4.600241672133058568e-01 9.538230821268416371e-01 3.317684819356059300e-02 -9.503532632701958693e-01 6.426953533210300051e-01 3.153797185052418239e-01
-1.163462423239622900e-01 -6.638327338684628653e-01 9.384264728547733192e-01 2.649897493853803354e-03 -8.539091161328871138e-01 -1.104582719770865751e-01 6.469322084952326968e-01 6.956671512833199067e-01
7.523834356209797569e-01 -5.046832287261444616e-01 3.455824459724610165e-01 -6.695869340713636042e-01 1.516842530945667900e-01 1.067360681626534635e-01 -2.056583436405867715e-01 -6.532726875122620847e-01
