-6.671630532397125890e-01 1.609500010297981731e-01 -7.091293182817397511e-01 -9.111039073385285292e-01 -6.619864723296629005e-01 -9.769393501469867402e-01 1.844918451999291165e-01 5.920121969673435292e-01
4.494346071860013669e-01 6.354972884141496525e-01 -9.769697708316564810e-01 6.506503244318959656e-01 7.478141512279163905e-01 -5.184947611945864843e-01 -4.903553319515590037e-01 2.468040363023737971e-01
-5.123647739108398991e-01 -2.591816069926715649e-01 -6.727424877327581321e-01 6.885349418009192313e-01 -7.451833278499178093e-01 -6.618746340833776554e-01 -8.404940802190672411e-01 3.259773603132565256e-02
-8.218790946738732117e-01 6.396029997060967975e-01 2.804121780932236074e-01 4.683749636469158872e-02 1.207995479028760588e-01 1.122299098329360145e-01 -4.091229365793100925e-01 -5.997082858133724326e-01
5.426194916408271229e-01 2.900933774296816647e-01 -2.480089653300874275e-01 7.528851515347401158e-01 9.175723913225302120e-01 9.832021809940056922e-01 3.349675111223811008e-01 -9.460297420973080573e-01
8.212494190316934617e-01 -5.081152656289300573e-01 1.135584088312147077e-01 -1.538869118826899918e-01 1.624862674024400988e-01 -3.016595302761524433e-01 1.500587179145556060e-01 -5.675577748052418325e-01
-4.682983429473750459e-01 -6.570246197051021753e-01 -2.963170940398067721e-01 5.991295771935702952e-01 -2.713689908311240906e-01 -3.462580225485625274e-01 -3.588913184293776037e-01 9.905945026667972719e-01
5.123531382025718894e-01 8.755684909930858684e-01 9.257319242176924590e-01 -3.086920537297443978e-02 4.671156133588381110e-01 7.506412250391241159e-01 -9.837902047654292215e-01 -5.247692441734896907e-01
-3.074691181336233203e-01 -8.799477779981170755e-01 1.491245351233807526e-01 7.588606308133603040e-01 -4.408840648204725987e-01 3.994304264734009902e-01 5.125325195265177936e-01 -9.677800959456683838e-01
5.475233568479113133e-01 7.805367879568714251e-01 1.080324569218056974e+00 1.255535483642945316e+00 9.826666870142632959e-01 7.805099683320295689e-01 1.147626895472638520e+00 6.412354377434590358e-01
