9.711246913768301070e-01 -7.402846231635549223e-01 -2.283888162333949090e-01 8.152978909610975045e-01 4.102285488543928604e-01 9.388855267568763097e-01 8.030067928961728274e-01 -2.496639397521738246e-01
-6.267465001826333371e-01 4.998453928302892812e-01 1.263686740615799220e-01 -8.835865060846459507e-01 -9.659347463830738612e-01 1.655620066678866742e-01 8.292754627361720310e-02 7.662627555187073725e-01
-6.378709915165023947e-01 7.859461172421766673e-01 -5.733574488688568671e-01 4.873104084800956581e-01 -3.238302896142617460e-01 -5.437626240724366955e-01 -5.148974948472129221e-02 9.291521136225977529e-01
2.560600875616723116e-01 6.795984416119238425e-01 1.627071693620862902e-01 7.857795278954029516e-01 7.383725278187338592e-01 6.284717502584771243e-01 4.691177748239832024e-01 1.026966875563046777e-01
1.496849827645456710e-01 2.423269178477838182e-01 -9.276630802125607200e-01 8.430825392208518565e-02 -7.815839810569673585e-01 5.255586960456588574e-01 -4.155959989737558757e-01 8.961096593208957017e-01
1.300129420608568953e-01 4.299538962873035164e-01 8.186658856210360380e-01 -5.489019484218498057e-01 2.383237120661088060e-01 7.228417816108123617e-01 4.416458879170910290e-01 3.283702761178752816e-02
7.721352789662039307e-01 1.706700738114497184e-02 6.701882773937624105e-01 7.060378078138318525e-01 -8.679456511589798140e-01 -6.503357058311318717e-01 5.233884380912829926e-01 -2.603971207441193592e-01
9.170336351197105884e-02 5.101174570445166090e-02 2.574945743331025216e-01 -2.859144091523913023e-01 -4.208624442010218125e-01 -7.350931247682586100e-01 -4.180893383503816452e-01 3.717279767560999204e-01
1.273267366968493519e-01 6.020130104577954278e-01 2.249229393690033163e-02 -6.878582887945738911e-01 -6.041356065209604331e-01 1.092046782693769646e-01 -1.517556960715822356e-01 -2.739139316962901916e-03
8.300605447583552232e-01 6.180956691894975430e-01 1.112628167960600711e+00 6.113362772671003809e-01 1.139922636879324713e+00 7.744430965073048068e-01 1.071784360130001001e+00 8.923614704768867423e-01
