3.372407923578952804e-01 1.280368381428316216e-01 8.324862300056459219e-01 -2.277001115863526159e-01 -8.500407514514807250e-01 4.822177776593561394e-01 3.694536735552180762e-01 -2.827436858156682220e-01
7.950185414267250117e-01 1.573618570663755101e-01 -5.587985190216246956e-01 -4.329710447888741598e-01 2.401819776999480904e-01 -7.330979028530728581e-01 -7.509319402564211821e-01 -9.897342456899915764e-01
-1.455174207022347233e-02 -1.528278017302224789e-01 2.387464124034510693e-01 -6.174627826760692439e-01 8.177428090585356912e-01 5.540495474843110113e-01 -6.985146741366705658e-01 2.276294247612371535e-01
-3.258632981546951690e-01 -9.348603382700169107e-01 5.780877419065078016e-01 -4.743957972009600343e-01 3.004474666735570398e-01 -7.989812729767844512e-01 8.383421605015410893e-01 4.278012617343536217e-01
9.752247087405452319e-01 -4.712976358573923719e-01 2.532862482823636796e-01 3.025338462536637518e-01 -3.553688803224777093e-01 -4.925495316634040943e-01 -1.984588847002299872e-02 -5.649148145107329988e-02
6.897392576929080032e-01 9.759993642045134976e-01 -2.670321413138720956e-01 -3.657407684908076106e-03 -4.794204976297529175e-01 3.071256458307798365e-01 5.862633524068776580e-01 -4.701006876533839751e-01
-5.484828125865999215e-01 -4.994681731261156887e-01 -6.844401621589055740e-01 1.285774414181033443e-01 -3.626750013945867490e-01 4.779220485750736991e-01 6.756111684894070546e-01 -2.550696805451742044e-01
7.712620223919808282e-02 3.595150436792013959e-01 1.694606301466881071e-01 1.217313209082258041e-01 9.922774391576305586e-01 8.923035996205950227e-01 -4.089515783853172604e-01 6.118168530178991205e-03
-6.677581750818450956e-02 -2.419436504406253796e-01 -9.942443302252239601e-01 -6.633691405435400146e-01 1.955019570163485376e-01 -2.754578517962336104e-01 7.871247475353060352e-03 9.996871138244360910e-01
1.207021582897902512e+00 9.511562038078147374e-01 1.411416767299018549e+00 7.363055789042902699e-01 1.145151603762028625e+00 1.114905730243682225e+00 1.152038483516200085e+00 1.222048984404666250e+00
