6.509402130977117729e-01 3.482741543475156298e-01 -5.411932590283243805e-01 1.225077214783225621e-01 5.886529502407311654e-02 -6.853418985672938835e-01 2.218470248577233406e-01 -5.091334318208184939e-02
-2.860903304058257657e-01 -8.007200798125269081e-02 8.349078461224410663e-01 -2.767596222244856907e-01 4.421571836159685631e-01 1.158217125742038167e-01 -7.215478010817319987e-01 -2.732166057548479632e-01
8.732531978437727549e-01 4.823999887518160001e-01 1.556798456201291536e-01 4.820989827567558894e-01 8.251484555499835061e-01 6.825189242159508396e-01 -6.658554179232403225e-01 3.306169840241899305e-01
-2.073868045186213482e-01 2.387216487432364254e-02 7.267204408073113520e-02 -5.706413652838304706e-01 1.929144801479967253e-01 -7.423863803676367112e-01 7.705514918136961988e-01 -8.834216845998152934e-01
-8.325585135501558653e-01 -3.282453630878028328e-01 -3.987863654357415300e-02 -2.548520983932822670e-01 1.356088709917147028e-01 -6.071474053898269219e-01 3.301490029661009462e-01 3.971541346979368114e-01
-8.454492646971745184e-01 1.835742193745670825e-02 4.775572059160766436e-01 8.911618644882921547e-01 1.257865525651400418e-01 -5.425734051936417224e-01 -3.336174099969961837e-01 -5.894723606426581775e-01
9.647777483806398990e-01 -9.977029614223991150e-01 1.027913075666555542e-01 -7.726215818522665923e-01 2.972870926106885303e-01 -2.592662831053329509e-01 9.846880044615515803e-01 -1.725756893706786865e-01
-2.606799793793044273e-01 -1.767788825349787540e-01 -7.366184777367343894e-01 -6.222621050761665273e-01 -7.631518236790153509e-01 3.980982216495165815e-02 8.111586788607458853e-01 2.737252225845632214e-01
-6.501635144658721721e-01 3.731217466545091455e-01 4.318369690844765518e-01 -9.624362050787211853e-01 3.592344428241698306e-01 -6.022521499807300671e-01 -9.816714879488175338e-01 -2.544208937581642349e-01
-5.414172085582127369e-01 -7.674607514697098232e-01 -3.479080998936456837e-01 2.800612945959302102e-01 4.040156212537835412e-01 9.936333110692812109e-01 -7.566736358346126678e-02 5.672155732811448026e-01
