-6.592590114130356671e-01 -5.529949122688035956e-01 7.267950126515583253e-01 -5.238404688033333478e-01 -2.999441240414131293e-01 -6.025716338412792084e-01 7.429806124880085072e-01 -7.431133783782977176e-01
6.719995942141396839e-01 2.325485321332232402e-01 9.937787117234411216e-01 5.920231611561672658e-01 -6.738012506634711851e-01 -3.739267526790439611e-01 -1.271446200909935875e-01 3.338311095083001945e-02
-3.635783598741788580e-01 4.194497064217006521e-01 -1.169512178516449730e-01 -3.834180486497218432e-02 -1.348966456187836727e-01 -2.770374360167848771e-01 1.416820012450712429e-01 -1.222304135971230554e-01
4.516943176941032867e-01 -7.548797503858575286e-01 -4.561420253394852242e-01 -2.751818658985527577e-01 -3.594149828731305618e-01 6.166492139737935751e-01 9.031122908951936257e-01 -1.862746298899973230e-01
2.288290516861108959e-01 -1.731569161818602431e-02 3.278484676827668753e-01 -4.179613247884650384e-02 8.078871012178967526e-01 9.430495651943269220e-01 5.914370527439416492e-01 -3.627907905182734538e-01
-3.467932200509782348e-03 6.778646407207777891e-02 3.805564570635777688e-01 -2.441278886276940785e-01 4.935510497929702645e-01 4.598610473012798572e-02 -1.747260269381412101e-02 2.033288430689133008e-01
-1.236394253551609257e-01 3.486889345612849134e-01 3.704544573736381352e-01 3.124577603963534234e-01 -7.805124085073171791e-01 6.641606490799900619e-02 -9.576443850433027372e-01 5.476256533299324047e-01
9.802981678646522923e-01 -4.688253282937320243e-01 -5.681876177046669696e-01 -3.461146832050476796e-02 5.117399922842378324e-01 -1.640610756964071548e-01 1.382037804352809207e-01 -1.453369664329426936e-01
-6.014657313943647665e-01 -1.410414260597694369e-01 -1.970106151843846742e-01 -7.849519068371961783e-01 -3.028397731398129178e-01 4.263157766247120950e-01 -8.905020777205279181e-01 -4.276110693760224457e-01
1.446809252318737471e+00 9.940958748206211171e-01 1.467245890280874043e+00 8.865974632606989925e-01 8.806222868131214909e-01 1.168412718015217067e+00 1.492991586285352223e+00 7.138398469233768751e-01
