5.310559336009739173e-01 6.047350623059455366e-01 -7.240663145409742540e-01 -5.385887472221462247e-03 6.326069106130138842e-01 1.977303405742603104e-02 -5.197959079875171806e-01 9.114305205008701449e-01
9.504696268304015927e-01 9.743741727265797792e-02 7.065052426242182104e-01 1.064342537023588164e-01 7.577697174627104904e-01 2.434957332772329508e-01 6.361075412745513802e-01 -2.326393546587219863e-01
6.099082397718724735e-03 8.698030334834154775e-01 -3.694186131568661935e-01 9.935314854173205035e-02 -8.445021118195201737e-01 -4.560014038891553323e-01 6.682715798556402298e-01 -7.470414025802807334e-01
-1.179683598425449453e-01 -3.525957374489909757e-01 8.408554736427296117e-01 9.579214363427750456e-01 7.931554027021043840e-01 8.645774975132882734e-01 -6.911122931581654694e-01 3.777055822270902752e-02
8.340962912430092135e-01 5.564822592882374686e-01 7.529471513581103004e-01 5.967756132862844787e-01 -3.959341567103775716e-01 -6.890537315554117193e-01 7.060110432619215448e-01 5.126034179315532846e-01
3.120235987442918635e-01 7.041960465272345537e-01 6.907915269783599932e-01 -2.570624431604067173e-01 -4.439596858307683913e-01 6.749127186218881747e-01 -7.481758011320516211e-01 8.413727053659421085e-01
7.816972324680875328e-01 -5.941827920387392492e-01 -1.939221895073592883e-01 -5.238837794876698428e-01 -7.177173460080106260e-01 9.037024674631231047e-01 5.758998056453557002e-01 3.471563740705505552e-01
1.207909956894737125e-01 1.877093287267086463e-01 -5.297826499072739725e-01 -6.113940106510376005e-01 2.437543340244419099e-02 4.746250216324601201e-01 1.936141991157771525e-01 -3.605803678371328758e-01
3.377132993988292142e-01 7.161511284431496538e-01 -8.301407178841688772e-01 -4.822845963039570361e-01 -1.145935076671469321e-01 -1.477810315191836477e-01 -7.809433883581982094e-01 1.778642578345244196e-01
5.915848729577063425e-01 1.099094525086218299e+00 5.406472992604739458e-01 1.287527871832616633e+00 5.506193459185907413e-01 1.109283033841683475e+00 1.049842185926335159e+00 1.056300247825593619e+00
