3.320301644499503713e-01 -8.276308496258288905e-01 -5.420798668505275586e-01 7.174757130108730951e-01 3.942209300036436659e-02 3.825969545230423208e-01 3.334067412431584998e-03 6.898529237604127395e-01
3.253031309010223637e-02 -2.838214018434497277e-01 -6.768377052481833189e-02 -5.306754631957288915e-02 8.664127901444560464e-01 1.757444976108837320e-01 -7.949904365051605470e-01 -2.101357534759658030e-01
-1.386913049528490927e-01 -2.985937567307057616e-01 1.829047946003612424e-01 5.486059789942669962e-01 6.721326764685831012e-01 9.176572668654119358e-01 -8.345717298780701565e-01 -6.921537682976324213e-01
2.830952461541302867e-01 -4.901279245420757658e-01 -6.910729195384976986e-01 -9.338671435542744703e-02 -3.791235932140815112e-01 -5.891565479300573394e-01 8.349554202757651922e-01 7.285251753026906751e-01
-3.824533583287459404e-01 1.539168398899912749e-01 1.128432556610494686e-01 -1.355985924800542364e-01 -9.477022909312851073e-01 -3.406979771328084716e-01 9.802994778126423725e-01 -9.313223757755986210e-01
5.400968652080306853e-02 -6.939520063364779112e-02 -8.452536665277365913e-02 2.211607008464875346e-01 1.425284339455534788e-01 -7.324440287781668335e-01 8.079093655320730427e-01 6.478207098243509154e-01
5.307622881463383013e-01 1.917651985666590786e-01 -8.356952242384598772e-01 -2.018825355747706496e-01 -6.875701614961573505e-01 9.481104171189576046e-01 7.339247399438306729e-01 7.256745317401280815e-03
2.101382825459034986e-01 -5.642998182313203603e-01 8.267456391933136750e-02 -5.589547398845611248e-01 -8.043060659662020218e-01 -1.228310094449613921e-02 -1.151025356099610875e-02 2.184709269681370802e-01
5.712502645251391620e-01 -4.119325518758938376e-01 6.782316355491015969e-01 8.815738412865059548e-01 4.319578693613812526e-01 -2.642883989294524394e-01 1.575885436256485583e-01 1.568027413767123512e-01
8.297747439519328472e-01 8.590463044056620978e-01 7.926315877466193482e-01 1.305262636887964955e+00 1.351730117705335799e+00 1.081108849618447110e+00 6.811945916144579449e-01 6.125622110287178845e-01
