2.906477804810649879e-01 -6.700469717963675187e-02 6.159005731730018418e-01 -8.253304502962650613e-01 2.544838899711354685e-02 -3.835059386392969394e-01 7.077200890577350911e-02 8.918332394648964545e-02
-8.853979306765109580e-01 4.146479267437894745e-01 6.850589465948577761e-01 -1.322595838060773854e-01 9.138261433983216886e-01 7.744395225239970593e-01 2.749815097640295747e-02 8.880033321997404805e-01
-7.688273561131693246e-01 -1.174698542126826339e-01 -4.608947987604079533e-01 7.520791299999578516e-01 -7.156643348355842260e-01 -2.788417719933569128e-01 2.878588206468593036e-01 -3.068430543792426413e-01
-3.587479038127479036e-01 -7.255416361468709496e-01 -9.012696378379119189e-01 -2.544595341281779000e-01 5.887630492240063518e-01 9.496704690473662946e-01 -8.622301181186113883e-01 7.175804662202107664e-01
9.133953954631770511e-01 -6.544917227965527662e-01 -2.386874984925237975e-01 2.993826639546135482e-01 -7.090666703208519106e-01 -5.505767171098407964e-02 6.539348798530308926e-02 -8.837814548809739268e-01
-3.407209316107717711e-01 -9.771859068635502243e-01 -8.529458026850165187e-01 3.577288683970414329e-01 -8.137438259045186584e-01 7.936790019095594229e-01 -9.661584496933839361e-01 -7.548664513423626321e-01
8.998888633107577917e-01 5.839031493004154250e-02 -6.353084023209434328e-01 5.841984706477565403e-01 5.335716135268169236e-01 6.132103633012679911e-01 8.113074686643273470e-01 -4.938719786382113064e-01
3.088678117541545642e-01 2.218725888193979756e-01 6.031311479791523489e-01 -2.482654007538775964e-02 -6.981461264721544602e-02 -9.222836171837633934e-01 -6.471665784440245872e-01 3.393589750171845942e-01
-4.750809662844117653e-01 2.209645939878062126e-01 7.679908136173208000e-02 6.496493187778333844e-01 -7.125922065983207876e-01 7.075374783945671542e-01 -9.694817784582474562e-01 -8.870983396049620939e-01
5.972087210966989801e-01 -8.437927392674298144e-01 -8.491832213564043386e-01 4.684377444505982702e-01 7.889908113545360813e-01 6.747622912339223955e-01 -2.159817063744651211e-01 -8.883826297301888886e-02
