8.124617870606187786e-02 -8.328435716431314972e-02 2.677295509791743910e-01 -4.790196977444458604e-01 1.475417146148554348e-01 -9.775109146159981499e-01 -3.113067733710739304e-01 -8.469320784476392916e-01
3.545102676777223127e-01 5.116211986886918250e-01 3.111374680972549545e-01 -4.535025504222400805e-02 -2.295080344606574840e-01 -4.550626964778428096e-01 3.745745004840939085e-01 -4.176613706143927907e-01
7.541232351142612700e-02 -2.750240632557223730e-01 8.099949490771487515e-01 3.637228845345159556e-01 -1.702020991439785469e-01 -8.540404957544514009e-01 3.680361279227430948e-01 -5.490596851516860166e-01
-6.774489520994344538e-01 9.515011845416923020e-01 4.816253999913633344e-02 -6.405802469761487927e-01 -4.043550570306497782e-01 9.507062193157269636e-01 -8.325590045262227790e-01 2.006261069773824790e-01
-7.893231445311481576e-01 8.031568883913118295e-01 -3.156414247865650946e-01 -6.938377178322983063e-01 1.106475028919982062e-01 4.150944705762451559e-01 -6.427065624343035743e-01 7.893963512741852817e-01
-2.884577211439525168e-01 -3.603654993031191189e-01 6.943354301822919350e-01 3.015676237227917778e-01 -1.875350754664442121e-01 3.921654725128798091e-02 -3.997157189559423784e-01 -8.983700621186523350e-01
9.489310844803087175e-01 -2.863895516491816728e-01 -6.557617276663332273e-01 -5.243558522830615853e-01 2.984070544523438340e-01 -4.281776286656999719e-01 -2.158741835924786745e-01 3.684761815245614081e-01
-6.409290456811289616e-01 1.204699648391744926e-01 -7.952570750681353662e-01 4.539930986974658467e-01 8.709949578510931545e-01 -7.963380874043679558e-01 -2.200861879955062772e-01 -7.964103456652935620e-01
5.961486856984874461e-01 -6.031456945737603270e-01 -5.692531941778247173e-01 -7.892977002215098015e-01 6.498444142339188101e-01 -8.609911602514943585e-01 -6.275365122517670979e-01 4.064165385321729662e-01
2.339505163125843445e-01 -4.780322958044391779e-01 1.879672061339083822e-01 6.978745739845793050e-01 8.621108010214317829e-02 4.813511310807716548e-01 3.135994245600113306e-01 -2.856938299437390416e-01
