2.391852733444728152e-01 -6.432713838697767805e-02 -4.071909251565846155e-01 7.842825755923703568e-01 -1.135717783256273705e-01 4.445161597053677305e-01 6.813634202770058046e-01 -7.253788889259988881e-01
4.878374510495333549e-01 6.390440293334038735e-01 2.795106466549110991e-01 -5.608141672915918363e-01 6.603304146230055682e-01 -9.100719110510775423e-01 4.623355727800617654e-01 -2.471968233582584329e-01
2.301035566099551843e-02 7.867769894575560308e-02 -4.682802438139974655e-01 8.645404893202821572e-01 5.971782554910820551e-02 -3.639834593451796163e-01 2.306458762369238968e-01 4.902176351887337358e-01
-9.792422650513092908e-01 -9.909927745981284009e-01 1.942290786546272408e-01 9.394922393223417156e-01 4.003712263034995278e-01 -1.091568150840200868e-01 9.306612254458701550e-01 -2.219412664163804561e-01
5.570477501223014549e-01 -7.265539084277536919e-01 -6.569064645314437456e-02 5.462204504229968283e-01 -5.450612944613109079e-01 -6.471720230870112722e-01 2.861629649488219851e-01 3.706468077247979664e-01
-9.352990640754788032e-03 6.267762744721427914e-01 -5.414132449356656718e-01 9.712340855254626426e-01 1.111254854506555922e-01 -4.445280319505391375e-01 -2.615350792481825337e-01 6.827402613933821751e-01
4.012709122551665342e-01 -1.330212125221086339e-02 -5.457244056430741175e-01 -8.576831328958058887e-01 -1.063275096487648064e-01 -8.090564252250516120e-01 2.833406051389639746e-01 3.664977190054670153e-01
-5.379493426168135972e-01 -2.454819062548958541e-01 7.856347765701565677e-02 -4.017258027075911730e-01 -1.068390081827463867e-02 1.077323334254998155e-01 6.398084614751242682e-01 -4.610940193819244026e-01
8.775320947153637530e-01 6.641238175301689139e-02 2.175450395800215819e-01 -4.174030154538093118e-01 2.689052314016966427e-01 7.386139766956252295e-01 -4.184389172926796796e-01 -1.681367652157190751e-01
-3.822936755364159112e-02 -3.057375900942498337e-01 6.124568112625061733e-01 7.550219024045157212e-01 -8.774669770535334923e-01 4.657610431087038094e-01 -8.316781607445427049e-01 -7.721372031788682477e-01
