7.269508336120571457e-01 -9.159259036781302044e-01 -3.905746550242938930e-01 -5.002775762680022886e-01 2.359387684134370833e-01 6.780834358324598909e-01 7.501725581451970104e-01 7.910668231166479991e-01
1.301757122842555070e-01 -1.570344597195767467e-01 3.199071146814707056e-01 -8.708349141020710338e-01 4.523625753403621719e-01 -4.351558957203074396e-01 7.707327126484420088e-01 -3.127405219522225721e-01
7.994740791227537002e-01 -9.346079165910183839e-01 5.625954296127266829e-01 -5.141564471502884093e-01 -8.377216876779658428e-02 -3.333622455520977024e-01 6.386036520450890652e-01 -8.180250638910149252e-01
7.956552238680500988e-01 1.713616797287369486e-01 2.452551281255683779e-01 -2.017657008529982754e-01 -4.946508261795217187e-01 7.779615570813982472e-01 -9.630415663614158017e-01 -9.271024081879750689e-01
5.656821683515871335e-01 6.514205311222505124e-01 3.170594240678179521e-01 -7.212033087357716532e-02 6.808099263085927166e-01 8.276189159461495581e-01 2.174702337434410993e-01 -3.012577100731423929e-01
-2.518323990951252256e-01 -1.412792278588792527e-02 5.233793701826241485e-01 -6.392255662316710385e-01 -3.436946101537214915e-01 -4.621915070430171468e-02 8.097445239637268699e-02 -4.191762703077090979e-01
-5.560881579036933697e-01 3.686544605329438173e-01 6.671138805403327154e-01 -8.015392459709269612e-01 -8.341498847676620532e-01 -6.035367339141473053e-01 4.211549916981542907e-01 6.354546401668477174e-01
1.032643219595552608e-02 4.450907427870074429e-01 -2.221875788076024261e-01 4.315545817379431437e-01 2.743300650614339808e-01 1.948227020425343792e-01 5.774368842049739659e-01 -6.741725430185778745e-01
8.711404779102314144e-01 3.030627574101099064e-01 1.449907597531443493e-01 5.127307177575817221e-01 -2.313920404177904899e-02 -5.691475552512132996e-01 -2.187689627723008456e-01 1.896168925716461562e-01
5.001530375125058381e-01 1.346130329067558584e+00 7.411958978227585204e-01 9.615105513847528318e-01 5.614030791485058458e-01 5.961036375892360129e-01 1.142773385583621515e+00 1.298884236642044110e+00
