1.985928102432321651e-02 5.544721660214382286e-01 -7.106862292939899461e-01 -1.324640178319500539e-01 6.544811074524785610e-01 -5.823095937560596180e-01 5.365927594429982239e-01 -4.939536766595944428e-01
-1.618208644112635319e-01 3.557025360230656741e-01 9.540567949491107758e-01 -2.914405608740295861e-01 6.238757329418804787e-01 -6.346099248600927112e-01 5.591651811286550977e-01 -9.718651779817055747e-02
-5.438772812690626512e-01 -9.158633163049290093e-01 5.573003185785811997e-01 -4.763427836191378439e-01 -7.548929043926044802e-01 -3.114906342631655889e-01 9.076167381165904935e-01 8.149107440444371964e-01
-7.780779129593589083e-01 -4.321062306405956122e-01 -1.962967364674803594e-01 -5.784116642018954924e-01 7.975043554193586015e-01 -7.836274580631221731e-01 8.632565191880092748e-02 -7.269762719446837274e-01
5.126493225057546788e-01 -2.121834998515925719e-01 -9.886480713139438325e-01 6.705487397052360965e-01 3.819608097623363729e-01 -9.022814030800432317e-01 -8.179016663970224421e-01 -1.508061997806064980e-01
-3.755451102048674716e-01 9.120912481366001412e-01 6.254166015978275261e-01 7.426255009836133514e-01 7.916974535769492061e-01 7.866935028342760816e-01 5.413330595015901636e-01 4.337502196629621221e-01
-8.290886453808692380e-01 -2.725198975650882094e-01 -2.605272243434175738e-01 7.643338401828185802e-01 -9.625178986345475085e-01 -6.994602331877657342e-01 7.158020984526693997e-01 -7.038948933546020914e-01
-5.007018929366509052e-01 -4.580822481701642968e-01 9.669386042759702260e-01 -4.398976307062092417e-01 -5.218034508710989172e-02 -4.685750122318812494e-01 -6.513138379576313142e-01 1.780596402369383213e-01
-3.184002512802885931e-02 -2.026828475413757769e-01 -9.651399860032250366e-01 1.873711894333671690e-01 -1.555200616457259599e-01 1.675682334102892579e-01 6.377554446418756129e-01 1.571291846620124222e-01
7.830188267664721646e-01 9.123723897964008955e-03 -9.111810534479094503e-01 3.949362166319314582e-02 -2.075056207900314309e-01 -7.120992891258930424e-01 -5.919606093403730895e-01 4.708149312098852679e-01
