-9.308929202575664252e-01 5.746923869184137335e-01 -5.759743419634808514e-01 9.586874729611714052e-01 6.479992935178409130e-01 -6.031603546518098380e-01 -5.822824901823420163e-02 -5.810630714265712093e-01
-5.702710014133554051e-01 -4.489533418786044727e-01 -1.390553469199427017e-01 1.136534866658798215e-01 -8.418795021636149567e-01 7.560781677724621730e-01 -9.520904841417858755e-01 -4.398694822979363206e-01
5.086756591338388311e-01 -8.661813589446212269e-01 5.231867688104183678e-01 -6.082327188438443333e-01 5.801030414864418727e-01 -6.036104477429860005e-01 7.244584115390917400e-01 3.737653167606991289e-01
-1.769308398656732617e-01 -9.311517033263467802e-01 6.548980367648316037e-01 -6.492597329412106433e-01 -1.629036230724956180e-01 -5.862739204820679451e-01 5.483997275983274466e-01 -9.211708355627987732e-01
-9.869502181882496838e-01 -8.051572958347665843e-01 -8.192770607176738107e-01 -2.431404489286521642e-01 -4.026425149055581354e-01 -8.538694632215890756e-01 6.039439383861242572e-01 9.429951149619388850e-01
1.263250625539398264e-01 -3.224669610990067437e-01 7.482861819180952612e-01 6.427851860557061148e-01 7.899902331177452997e-01 6.858801989321612336e-01 2.450230869159186753e-02 -3.755849577102929882e-01
7.033555021148945041e-01 2.887598307827017319e-01 7.488928762445250520e-01 9.237378839103693728e-02 1.548784816788608687e-01 2.710743752365545323e-01 7.931446674045794509e-01 3.352399766704128314e-01
-1.380097987415225269e-01 -5.369368842754822513e-01 -8.176534853495551758e-01 5.652024940804940556e-01 8.572875529207157896e-01 -2.656528867670275851e-01 -1.071655122325692044e-01 6.725843016405401720e-01
6.086824861849551294e-01 4.552036709294184913e-01 -3.601083169893144476e-01 -3.712450977754246928e-01 4.183851969551213301e-01 -3.565102163425479809e-01 1.110129459790449857e-01 -5.505357698538178024e-01
-1.702799296566914755e-01 -7.012593124497377151e-01 -9.906085854748700736e-01 9.896300958151984517e-01 -9.365671757001998721e-01 -2.009514500872702225e-01 3.140836538903593045e-01 -5.815687663564985677e-01
