-4.757375165218524771e-01 5.412422549774886793e-01 5.525196976712527519e-01 4.797139532707306309e-01 5.881213570894638920e-01 -5.689868691895760833e-02 -5.384746308530703462e-01 1.051505990499672638e-01
-6.676430364788872307e-01 -6.059333690532455741e-01 9.424946453365574683e-01 -1.955655870313135480e-01 2.697576426504868508e-01 1.897013473883721879e-01 8.689035339076716102e-01 -2.302395880153433882e-01
-6.865982067883915629e-01 -8.905066424805625491e-01 3.584661647082858504e-01 -2.810120193625034180e-01 -5.080366601936681104e-01 1.758813371834411221e-02 -5.659039240127166082e-01 -7.084378161380431305e-01
8.120803913605663116e-01 -9.640647274632851982e-02 2.367780026491721479e-01 -2.857458151522791479e-01 -7.392085288374203866e-01 -9.043221060005592893e-01 -1.044127329933961512e-01 -1.878976896688104858e-01
-9.563665006412658265e-02 -7.362724509176024057e-01 -6.106733655920890680e-01 9.039779207138820549e-01 -4.619882919379239006e-01 -6.917369780557285353e-01 -1.678948327155849185e-02 3.567494119723411128e-01
2.489121719120590548e-01 -1.130536311269747518e-01 3.168369671875919114e-01 -5.497486359854364402e-02 -9.205336085632942478e-02 2.795595433702855459e-01 3.376921525697749171e-01 5.388734137167117133e-01
3.844017771818011298e-01 -9.344993718389196236e-01 1.486050315804821054e-02 -5.833769919618134736e-01 -1.539827412549417129e-01 3.132335837751734076e-01 3.563672827553445721e-01 7.723052436821098432e-01
-5.929189733383142258e-01 -8.988347526350819461e-01 8.895360791278861257e-02 3.931645528039882098e-01 4.278833283602616611e-01 8.609916855794517154e-01 -1.528885655944567379e-01 6.053083563285821533e-01
-8.144547807029667297e-02 3.736823174654595459e-01 -9.318888175764992177e-01 -1.446713787599744894e-01 7.521390211043676999e-01 -2.333405230708995859e-01 4.075416769200228551e-01 -3.001165501904070609e-01
6.165662508367020234e-01 -7.419699551763820899e-01 -6.985156104014784706e-01 2.372312000835061774e-01 -4.321359226821983590e-01 -7.438305390378086024e-01 2.552757536685872353e-01 -1.626772783177916626e-01
