5.429226222862644224e-01 -2.430989903006823827e-01 1.493606211717819487e-01 1.319546456481734964e-02 9.057622673633902721e-02 -4.569256636168730346e-01 -7.070563008040640085e-01 -2.289330373314339973e-01
1.826275433079218580e-01 -5.542513487553391016e-02 4.382380057995882705e-01 -3.312003296563619248e-01 -1.682874027241585413e-01 4.419841863146127814e-01 -4.179815614415505198e-01 1.704479412178514508e-01
-7.522224020050682913e-01 -6.295982912760185179e-01 -7.460685261442596694e-01 -6.054687845438735394e-01 -3.051488651703921917e-01 3.029361650122925909e-01 7.055116376244412457e-01 -7.342967936770987691e-01
-7.088966554358959726e-01 -9.507105297010043365e-02 6.769693486431591634e-01 8.782194380009584744e-01 2.212987793281810944e-01 5.642974588529157121e-01 -9.327470432583284676e-01 -3.998671153699200342e-01
1.086416918832910916e-01 6.677910529882515878e-01 8.865746580094133744e-01 -1.115766217686298134e-01 7.536296376861473245e-01 -6.072039730151044257e-01 6.639214257065921831e-01 -8.248708156107240619e-01
6.269530221523909042e-01 1.366259270384988511e-01 5.844094152134617914e-01 8.632099488320776892e-01 -1.997289394282408814e-01 -1.648391495993462019e-01 9.037217681796529956e-01 -3.260535775532524827e-01
-6.752346087359137883e-01 3.203585853648063253e-01 1.095676458434760026e-01 1.904084986984793115e-01 -1.166043372466520900e-01 2.277418521630392156e-01 4.094567860467945852e-01 -3.451024938954800891e-01
5.857817862958498711e-01 -5.354143769199717351e-01 7.644799001579902775e-01 7.651697254155027661e-01 -1.463432752358040378e-01 -5.246331254362499585e-01 3.824721928603944665e-01 -3.556987075152995281e-02
2.932485271642293334e-02 7.609290477821770704e-01 1.438110528232057206e-01 -2.500907449323384046e-01 9.763010577549287028e-01 4.387991953154064539e-01 3.955524507895076258e-01 1.354009794038069092e-01
6.562816019529826850e-01 1.269841830030638885e+00 1.238513552563518250e+00 1.021942381844756165e+00 6.245899261898314458e-01 1.348086096148983559e+00 5.156075806069649881e-01 1.090168645444693940e+00
