-3.069941879918935967e-02 8.170119407949796297e-01 9.700845830117543755e-01 -3.386192550544961932e-01 -9.065675608341972058e-02 7.081705920056546866e-01 5.897280510249183205e-01 5.389229718368850897e-01
-5.322031266117084325e-01 -5.481976494646501052e-02 8.179966111466785428e-01 1.464118992907295080e-01 7.385293830532990711e-03 -2.067286281815339244e-01 8.367433034444167195e-01 -8.929999757012423434e-01
-7.417666392757662486e-01 1.215537405056887899e-02 -2.591940705415052282e-01 -5.318057025238689395e-01 8.009035249454201644e-01 -6.068381430047566916e-01 4.409686347256289718e-01 1.120220145822852231e-01
-9.241917966898167691e-01 -9.772334996805722707e-01 6.465911379246420676e-01 -8.559299907688695530e-01 3.434466403182256933e-01 -4.744451893663632625e-01 6.283535374319393352e-01 -1.817082179079110293e-01
6.881231489661145950e-01 -1.892536562850908322e-01 9.850110308130035630e-01 -3.873460834715982681e-01 -7.262681895483535932e-01 -1.304868609044427252e-01 2.014802495046712494e-01 -3.955716480052717809e-01
8.942624988622456250e-01 7.406147262417523969e-01 -8.186946082366919342e-03 -9.944467319935563765e-01 -4.775751367452247820e-01 -9.797981874695551596e-01 3.731287637546290004e-01 8.709629709047834734e-01
-2.436002406685870980e-01 -3.174625618357023171e-01 7.170719659855371297e-01 9.974326896875229664e-01 -3.969110869012402176e-01 7.275730688219139708e-02 -7.736573660224426163e-01 5.610032266029900683e-01
-6.785505523502870506e-01 -4.787915327031313506e-01 7.480558125103118350e-01 4.513681312848398797e-01 1.549148229940486843e-01 5.185325274257268635e-01 1.108453943710081546e-01 4.250040306165296933e-01
-9.921361901462641963e-01 1.175740516702825644e-01 -7.282694481256255514e-01 6.417045565147647679e-01 7.867607847536595145e-02 -3.213595713259458364e-01 5.861006119691927196e-01 -6.146299917995723394e-01
1.366189944466915662e+00 9.010594597527714633e-01 5.520966916354194121e-01 1.324978091635384381e+00 7.183519309192044622e-01 1.250704025407692432e+00 1.466661026314027394e+00 6.629160845903173671e-01
