-7.205542912975742009e-01 -8.756833116595841293e-01 2.157161902854698443e-01 4.198250426402216906e-01 -2.730562918053605070e-01 -1.812970947625514029e-02 6.550526779146639278e-01 -2.789367470731858312e-01
3.499048187566082824e-01 6.452235794995311302e-01 -2.460128988567960029e-01 7.119269572943531799e-02 -8.711844724386246241e-01 8.163335443993711138e-01 -8.519349802809748073e-01 6.122585884310420834e-01
-1.323467328050884628e-01 4.513087074153161460e-01 -4.202588271458640445e-01 6.284561490105617931e-01 3.905215101149874801e-01 9.908907383716027972e-01 3.095838758308613325e-01 9.017349127827425370e-01
-5.661432400053307834e-01 -8.389071848152731548e-01 -2.827891867359628719e-01 8.850791838944980228e-01 4.798661545905362757e-01 6.169497679088291608e-01 -6.465413181326229441e-02 1.451900446431682035e-01
-4.827530090164962040e-01 3.522227014373284781e-01 6.680206949079219303e-01 -5.132830941299437733e-01 5.704710425546404284e-01 -8.887956798029625904e-01 4.093231261849363811e-01 -1.680643738608476045e-01
-3.531919701313372961e-01 6.300725750419495785e-01 -1.378907542429526067e-01 1.473360849149611962e-01 -4.592383981566183770e-01 5.260909226418979401e-01 -5.614239176705382306e-01 8.752451458171612853e-01
8.880535257669048832e-01 9.310686347432755028e-01 -9.357951244194937512e-01 -9.152048095368565672e-01 -8.927045644203897012e-01 4.994408615315311106e-01 -7.623859012709122140e-02 -8.916919495356516734e-01
4.556579292103255518e-01 -9.773822225160955224e-01 -3.933909305853020566e-01 2.353862957364583064e-01 -2.833930118409668797e-01 5.781219161355966030e-02 -4.760689436077658598e-01 -9.337006128029812224e-02
-9.912818414221846730e-01 -2.053556671044436399e-01 4.093024414413624079e-01 -2.322798261739988934e-01 -3.009048909910205793e-01 5.293523870645224783e-01 5.958991705492209245e-01 5.207649798609459424e-01
8.243052036409936889e-01 5.854702787506280703e-01 1.222410543133975569e+00 1.291748463906964295e+00 1.415003182906250601e+00 6.671598531885043482e-01 5.412042483270536053e-01 6.406609081235474790e-01
