1.069108052933520625e-01 -7.545383362279702855e-01 -6.426940293784406677e-01 4.986176708989642492e-01 -3.084819003487893063e-01 5.369513750192274060e-01 -9.162966641992662531e-01 4.188673479039219938e-01
4.191557712153586301e-01 -6.503541649544397618e-01 2.164055896720571415e-01 9.121493926316388556e-01 5.755969664892655047e-01 -9.393335270420462013e-01 -1.053262372272232295e-01 6.316333654080528159e-01
-8.886323363838231071e-01 7.130088428672083367e-01 2.784371109940759759e-01 -3.754109264402341051e-01 7.612320150670588426e-01 3.138927925948160613e-01 9.886532612839367129e-01 5.512781462443834268e-01
8.457498522919844053e-01 2.864571878928046100e-01 8.123499922000059215e-01 8.756717579950747954e-01 -3.171813087201069692e-02 -2.921362074992162050e-03 6.407783422454300659e-01 -2.877638561615094570e-01
-6.825748614924278534e-01 1.931911129929451132e-01 8.333036656104475526e-01 -5.742554803149486631e-01 -1.047476010608878738e-01 -4.241103331848448121e-01 -6.200083678814021226e-01 6.564807725515477976e-01
3.176546964499478154e-01 8.231633750890672285e-01 7.826592958330325089e-01 6.180816217435958215e-02 9.396807028549822860e-01 1.352126990255004824e-01 4.423821548550610494e-02 -1.508467555879700051e-02
-7.934177769366865807e-01 -6.125143145068985273e-01 -7.882986088374461797e-01 -5.844285655050014405e-01 -9.440984025920224898e-01 7.327838810440985284e-01 1.362853736252609416e-01 8.078754704062849346e-01
-9.787745515681076647e-01 -8.363089857546630590e-01 -5.302788217372955692e-01 5.151793503314940903e-01 -5.178722396550698992e-01 -4.519464845021383681e-01 -6.865929742296383864e-01 -1.948395568362915053e-01
-4.126373998509660357e-01 2.673759634411494446e-01 -3.886754063434865181e-01 -2.415868863578400916e-01 -5.329408836706299724e-01 6.903155273515448886e-01 -4.550241558257557273e-01 -2.906826845957974914e-01
1.465475735316469130e+00 9.148790798813053460e-01 6.734862700141999170e-01 5.581668069669727394e-01 1.402924446573156070e+00 1.321087038411117742e+00 7.912124604396921779e-01 1.026071077751037341e+00
