6.017698736160952411e-01 8.106927387478375380e-01 -8.400078069681164994e-01 -7.141141588206236790e-01 -7.029249084278548221e-01 2.436089409533241934e-01 -2.636985996000000831e-01 7.997542923116656155e-01
-5.645613316859827702e-01 -6.427006653798248426e-01 -6.540087000670027351e-01 -2.385681917566764287e-01 5.134749586466353932e-01 6.485916570506033985e-02 4.948868777075581260e-01 -7.854873812360436691e-01
-1.610482285915477707e-01 9.490579232815334887e-01 -3.603739273126804754e-01 -7.425979674544325171e-01 -9.720551729096189586e-01 -7.484424333175669908e-01 4.024086059201217314e-01 -5.125585721499323899e-01
8.626674385738901663e-01 -6.494180982127246704e-01 -8.590548009410126085e-02 -2.290143711106678026e-01 6.262373685271280799e-01 7.448367375665096990e-01 -6.473171933083663454e-01 6.535436189962067211e-01
1.847735236784604496e-01 -5.269718527126541208e-01 6.252931651472433128e-01 -2.104848893580986147e-01 3.436800700464841540e-01 -9.756074812409354369e-01 -8.167547489805302430e-01 -8.333244056263611199e-01
5.935684865951766920e-01 8.283115013420623285e-01 1.559065602926328342e-01 -9.630468536276954872e-01 5.042613118884609058e-02 5.768060646988601992e-01 -1.550127418957405467e-01 9.198942457378940230e-01
-4.041859558954323806e-01 -6.497223656090171939e-01 -8.091579819701548715e-01 -3.082869279287516751e-01 -2.671307863019833917e-01 -8.529271626421945918e-01 -4.477378286394984030e-02 8.234077796589793774e-01
5.286368033866242211e-01 -3.883686387459568401e-01 -1.935745284581180670e-03 -3.382536169023622197e-01 -3.425290459958230116e-01 -5.488644412860443911e-01 4.427358722815968317e-01 8.755629237358510952e-01
1.799657534802454606e-01 6.455918368483093417e-02 9.906910489166185219e-01 8.692744866812769367e-01 3.125505399520611682e-01 -6.516347305442558024e-01 -1.163050628306703249e-01 6.984248341435881358e-01
-4.484310130853998988e-01 -4.867614549018215442e-01 -5.014482161074715894e-01 -7.420302052807046245e-01 3.816699048101228620e-01 8.236645892995544394e-01 -7.597808625582258557e-02 -5.087801574702299767e-01
