2.640872914464769128e-01 -2.955256929030176671e-01 4.144278350012953194e-01 -6.719674056372459958e-02 6.197342852482878861e-01 6.124368762363712193e-01 3.157480370902965294e-01 -1.145298877055085374e-01
-1.577663812365406315e-01 3.315680311148063719e-01 2.886953134891605544e-01 6.244444143760523591e-01 4.385622339763362021e-01 9.464089227495104950e-01 -5.099655105975895442e-01 3.076082411357083934e-01
5.535980727981713034e-01 -4.393889516712841115e-01 -8.518820219878906475e-01 -6.243498879682030100e-02 -2.574785715761871430e-01 -2.558118885621134542e-01 -9.356286235684123653e-01 -8.060431729064136963e-01
2.767913430471995451e-01 -4.421519887836180551e-01 1.819457741217078706e-01 -8.014362253864550922e-01 4.020687064856971471e-01 -8.040308352330005626e-01 6.158579139639179800e-01 -2.251173081988575575e-01
1.229977033432332334e-01 -8.426133652258982476e-01 -7.287027227038946897e-01 2.571930699341171689e-01 -5.004836747890468729e-01 6.598327795496641279e-01 7.362536015182705729e-01 8.299327943765482107e-01
7.543777399684596929e-01 -4.630524314784676410e-01 6.179302762156568818e-02 -4.306318521536405264e-01 4.264489247052269949e-01 5.541331809230585215e-01 8.156868845631648490e-01 7.151094685306296217e-01
-9.387081638918473026e-01 2.905817018172123234e-01 -6.247671915695618416e-02 -2.996935878863558056e-01 -6.686184322158277293e-01 5.109144718632308013e-02 4.862872935020057241e-01 5.503177565532975102e-01
-2.590894646798480583e-01 -9.771288811574176947e-01 -3.274171438907671483e-01 -3.787322169322588916e-01 3.357933163409716482e-01 1.380835376091802402e-01 2.776905972764405206e-01 5.184691666081324701e-01
-1.653957097341098859e-01 6.239367165660096859e-01 -2.545164436074796033e-01 6.980801735695467691e-01 -7.036593371476522751e-01 -5.976180497729253194e-01 -7.211971962472158992e-01 -2.842780338300083809e-01
7.224668675321381794e-01 -9.702566864202233354e-02 -9.471106468953336410e-01 -2.548564050993957775e-01 -6.639552587101815728e-01 -4.827592260666371260e-01 -9.109346680759444759e-02 3.686759307983609180e-01
