6.769885764047569587e-01 8.074439112244837791e-01 -9.911800422772045760e-01 4.703499689274805995e-01 -2.413588550397505195e-02 9.571014495012495349e-01 -6.908381022588416798e-02 -1.200110975069668129e-02
-2.003144380702819305e-01 -7.207027276881563527e-01 8.651424343052345201e-01 2.889297031348965206e-01 8.793214800589144176e-03 -3.388586536933066995e-01 -4.030276303738704602e-01 -9.194157427962696971e-01
6.872960362008748714e-01 6.083224790226666734e-01 -5.462686783813863745e-01 -1.383223989823358924e-01 8.578273033765477784e-01 4.002141751809960013e-01 -6.074734696079262530e-01 7.474470182687003028e-01
-3.892246097336011790e-01 6.808043739292384267e-01 -8.107300580708409754e-01 -6.225524733099392360e-01 -9.367758267262651373e-01 2.108040111399911432e-02 8.404926137909012329e-01 -4.427081079652304130e-01
-4.907159484688927709e-01 -5.607143600151578422e-01 -5.538297720248868128e-01 7.443816798822464609e-01 -1.969088277720856262e-01 5.402794678449518440e-01 -6.088549706502544012e-01 4.782850939769025533e-01
-5.930070151771498210e-01 -2.606920490537387725e-01 5.332593142500403616e-01 9.858617277806114298e-01 -1.715028947236856283e-01 -3.297595557551387113e-01 2.214904537457498268e-01 5.035126452725735557e-01
-6.621137180528771093e-01 4.017796327734928230e-01 -4.076644854357325265e-01 2.973960128664732139e-02 6.619452287824902914e-01 -2.463277166837403165e-01 8.633729991723637642e-01 5.067221199171008106e-01
-5.721330593437470302e-01 -7.792834354477942149e-01 -8.739116930083745682e-01 4.824718260908660294e-01 -5.171723505943905952e-01 8.163995316087107046e-01 3.282626476257177739e-01 5.155989459737058134e-01
4.012572600585373461e-01 -9.851901258906474723e-01 -5.129672350441902839e-01 2.953701282558112151e-01 -9.081222074201051875e-01 -7.127157309216594072e-01 -4.027164826633979899e-01 -4.070828028338322468e-01
4.098143642312599422e-01 -4.534994054858199064e-01 9.205341911396134336e-01 2.265706133001368361e-01 2.694218985058274285e-01 9.111271638905531489e-01 -1.884948154415275745e-01 2.300372990829175901e-01
