5.639893504476825026e-01 -3.497215717014501291e-01 8.869414021193164910e-01 -7.175093126487332995e-01 -7.594050257935491821e-02 6.989975851662793005e-01 -4.177453638911678979e-01 6.666151741960786303e-01
6.647449602297630378e-01 -2.979018344438018051e-01 -2.401095808119182440e-01 2.427340706542668869e-01 -2.381457311250303466e-01 1.361417154349917613e-01 6.572209310222487666e-02 -2.594330860462428223e-01
-2.767183263676027405e-01 2.175180499729203465e-01 5.536323989070370821e-01 2.769279774173565301e-01 -6.460557349690632112e-01 -8.691011389945888510e-01 3.005115466142456171e-01 -9.608000010754162989e-01
4.828397090223091048e-01 -8.001398697359580758e-01 -3.550079750387280519e-02 3.840487304865203289e-01 -7.212399125512629627e-01 3.479841920649247022e-01 -3.478550353071745427e-01 9.939677934293011941e-01
-9.872734449984648109e-01 6.784315004984895481e-01 -1.707647217621139912e-01 2.512367274084961188e-01 -3.712041295298644794e-01 5.505087937099064632e-01 3.660030748704687920e-01 3.768516996760173932e-01
1.017950733039889588e-01 -6.453534357851979930e-01 1.417728860934013291e-01 7.473059237216146400e-01 1.610483477350095338e-01 4.614376838227207678e-02 -2.742744243740478094e-01 9.291965197145997113e-01
8.914926137167900055e-01 5.150437334479778251e-01 -9.656292676205562309e-01 8.876518381712734662e-01 -2.963925283292634383e-01 6.904463089049128754e-02 4.292824973529325572e-01 5.472131597278995230e-03
3.801739753502813013e-01 -8.253092954978396012e-01 -8.123210800129361253e-01 7.228614105450152927e-01 -8.410833582160450739e-01 -3.810148171774718762e-03 -7.646643766592100544e-01 -5.564851770562246891e-01
-9.555588779220327567e-01 9.895196678216879871e-01 -8.783066612273435769e-01 -7.148446587696399845e-01 -4.496583937638414241e-01 6.327709625141062499e-01 3.317546890100431245e-01 -9.234960327177759165e-01
-4.874515029387502807e-01 7.569192401694566641e-01 6.465061936773084383e-01 -3.079727973732462321e-01 -1.776703740973568646e-01 -6.037587737820611089e-01 -3.480957593198321653e-01 9.173781663616851212e-01
