-2.089378816048013121e-01 -6.135165736707504092e-01 -9.076343873286281116e-01 -2.157981471897785219e-01 7.394387584692643234e-01 -6.819870680767736726e-01 -3.773824542751800237e-01 4.419767060743293730e-01
8.114283107355753089e-01 5.050355898046567926e-01 8.999443603513379575e-01 -8.654570127210212682e-01 9.977210178237461147e-01 5.735835725760347614e-01 7.734442655071878114e-01 6.568288131479396164e-01
-1.300402145968537759e-01 -6.863886126986602498e-01 -1.541044917614375898e-01 4.101178997865901898e-01 -4.304723646147790017e-01 -8.204313865092827118e-01 2.848303823988660444e-01 2.297311709352782838e-01
5.481863360826291220e-01 -6.028832656349547570e-01 -5.968731881387294713e-01 8.184255496790979745e-01 -6.858688026902381996e-01 9.360849448253043548e-01 2.456105401785175779e-01 -2.174329447727014752e-01
8.681796541999813321e-01 -8.486387155779617775e-01 9.637088332681496006e-01 -8.731989197525045210e-01 -5.780789374065802289e-01 3.992357651689415476e-01 5.791662412822422557e-01 -9.273099926648158409e-01
4.541588196544552591e-01 4.728374037218194825e-01 7.720680843810665550e-01 8.575279596131732962e-01 6.317653209622786648e-02 3.115925418287885940e-01 -6.518491217827622197e-01 6.849124560838657505e-01
-1.833103875701675989e-01 -6.929873392899390527e-01 8.625454183116261220e-01 -1.973378927573299357e-02 4.500280286066988822e-01 -2.048743443322957880e-01 -4.711704291033922409e-01 6.669124262264329861e-01
-5.928909573814400424e-01 2.694541632088129912e-01 3.445713539695920424e-01 -5.813179216179216180e-01 -2.827869995052876284e-01 4.752225965869345536e-01 8.045458437190833312e-01 -9.574624981914980903e-01
5.832814830937547157e-01 -6.703470471712467127e-01 2.460445544939182660e-02 6.293499948898906293e-01 -7.650336685507417300e-01 6.580573220576533267e-01 -5.723563771286621638e-02 -3.847243669902593588e-01
5.153832827563531449e-01 7.523061703545784740e-01 1.019832267844796636e+00 1.093104835704124866e+00 1.313790491696079421e+00 7.109332652372448713e-01 1.103230475021903523e+00 6.176126997592885637e-01
