2.755557498719050091e-01 6.077470377245388633e-01 4.164497446747106313e-01 -2.703392090468594855e-01 -6.929556597673161011e-01 3.422513173983232626e-02 3.749398008647968350e-01 -8.765945900041212102e-01
7.389708535292482949e-02 -9.082885827944542356e-01 5.990938279444915082e-01 -8.987656303650761735e-01 4.502577292584075686e-01 4.921458065462491760e-01 -9.649044796875716479e-01 -1.464521462359280601e-01
-4.013563954294405711e-01 -2.550534507401531759e-01 4.849879342912735147e-01 2.633030681361845371e-01 -3.148102003595099063e-01 7.285305480109234288e-01 9.100369304708484375e-01 -6.134847208164337928e-01
9.520906186372180002e-01 4.899964002199501678e-01 7.104254565728975734e-01 7.085493935548219380e-01 -8.816760531726963723e-01 4.874683931741383702e-01 2.163592441633261920e-01 1.970177432899251624e-01
1.783030906246787506e-01 -7.757461359162227676e-01 4.537266784161555488e-01 -4.244378631900151966e-01 5.522473362826807453e-01 -5.156313441900597372e-01 7.657089202800910765e-01 -1.098371930162727050e-01
-2.652663380043618346e-02 9.254387613013748126e-01 4.103000951345530112e-01 1.090441923230718313e-01 -2.764652225472916669e-01 -6.905271586888013235e-01 2.258654410418547975e-01 -9.362372727930166061e-01
-6.393214843024912497e-01 -5.685854990245575724e-01 -5.211532552208344438e-01 8.371959403994411186e-01 5.922836733530181252e-01 -7.326162787637136020e-01 8.546797857727954639e-01 -6.620086812474901272e-02
-5.422965442086618015e-01 2.792125562280118878e-01 8.816344883940390176e-01 -8.617336878611905338e-01 -5.087376352634149779e-01 -3.912196992600271983e-01 -3.391039282217549466e-01 3.304493149542064856e-03
-4.787711186974208388e-02 -9.407477666126824456e-01 4.691289036140058322e-01 -4.850557753423245799e-01 -5.321519423832210549e-01 4.228340612168317580e-01 -6.320090685598214186e-01 -4.510028058671087248e-01
9.109640121682833769e-01 8.879491732533001391e-01 6.669937477771135104e-01 7.163369148781857376e-01 7.315974338958985967e-01 1.072999094654674135e+00 5.797065221378681077e-01 6.987643408020235425e-01
