3.214175342123666290e-01 8.634506008913001018e-01 -9.158743640329336522e-02 7.532678930419511865e-02 5.783179491274070827e-02 -7.134041693555539521e-01 8.941425254002832723e-01 -8.930089195332444607e-01
-6.976027841589012013e-01 7.012280740101759502e-01 3.578971419319141312e-01 -4.345695268947380452e-01 8.351367348101461641e-01 7.184517254922733187e-01 6.957064456977344324e-01 6.088273862150967997e-01
1.261383590960118983e-01 1.708220432760820806e-01 4.854595438405384655e-03 1.750548808055925054e-01 6.700130051990957902e-01 -4.850763439022149903e-01 4.635629418222815268e-01 -6.492163794697147772e-02
-4.461449719988046514e-01 9.586263149778329051e-01 -5.790417909291671883e-01 -8.314532910527576703e-01 -1.732897830045829757e-01 -7.524881848669175977e-01 6.518324399564563443e-01 3.416669092728423784e-01
2.907532877188867548e-01 7.086322126732853555e-01 2.916711764347956759e-02 -8.318942340028900873e-02 -3.362066113721184912e-01 9.574318278979567776e-01 -4.875935821165719997e-01 -3.791278729498857025e-01
-1.009528614127452872e-01 -9.012147283267724074e-01 -6.725723650679460430e-01 9.517614559196609925e-01 -7.733072797656579400e-01 8.240790570915075275e-01 -2.097901048413028935e-01 1.583931017681285969e-01
3.798781820217540517e-01 2.136188170482360427e-01 4.755894820062147588e-01 -6.899092110671136702e-01 4.574842388620223854e-01 -8.752828802680252540e-01 -9.974753978492283402e-01 -8.068148820479881245e-02
-6.099247851672187082e-01 -4.081677354160264670e-01 2.743503617110545356e-01 6.572226851525166946e-01 7.495177035621636286e-02 2.456651694611589054e-01 1.686676413609877745e-01 -1.004751798062908374e-01
-2.838133225643593160e-01 -5.888537484030684777e-01 -1.746261880421366985e-01 -7.746213850437169146e-01 2.811935783520864707e-01 2.562070783712664390e-01 7.068369165154173572e-01 -4.704544226393336803e-01
-7.883817873867371429e-01 -1.357445159502237431e-01 -5.979060061900947076e-01 -2.211276649792741633e-01 6.982501172551007773e-01 5.952809760070341127e-01 -8.678823735631497893e-01 3.449756689743133098e-01
