9.235703692086008054e-01 5.073316446262210455e-01 1.068891930540312174e-01 9.759546742572975386e-01 -3.861861767136547385e-01 -6.222970420493001420e-01 -9.173822287613007109e-01 -8.505506679482162102e-01
-4.121097915193863148e-01 4.227927868216743157e-01 -6.634313262926974097e-01 -9.859700034725447093e-01 1.106383869413443133e-01 5.630505767422531171e-01 -2.500807409627063826e-01 8.670345469095428470e-01
-5.072699124234349988e-01 -3.296206902010181405e-01 9.012245602808754974e-02 9.981140989811800868e-01 1.439620291031136201e-01 3.148314749692431302e-01 -5.342313693220974713e-01 -8.259729116180425379e-01
4.695773956318203268e-01 -6.148209017677397359e-01 -5.128085699342630477e-01 -1.791328822300262136e-01 -4.120694675546721086e-02 -3.937136835514745137e-01 -5.898829777232719174e-01 1.505476048807750100e-01
7.881944358537029682e-01 -7.348207477985191360e-01 1.946239731557051211e-01 -1.011689825558002021e-01 -5.350412020954680159e-01 5.902483768592778901e-01 6.721645064103156653e-01 -1.022478154953403440e-01
3.021177492254101260e-02 -3.442212533380939465e-01 -9.233826123956760945e-01 -3.869991943461572603e-01 7.897085556240384108e-01 -1.748928924955970299e-01 -3.860745205945272929e-01 9.989595577242766922e-01
-3.395408224832208166e-01 -5.794040541909184494e-01 -3.941711720251219742e-01 5.117168056437895185e-01 -5.554046337768414610e-01 -1.684859376316285573e-01 5.486216596736399609e-01 -8.077355876029119752e-01
-6.205471547621987938e-02 -2.467260242950595206e-01 5.721583816063284811e-01 5.428985314896237480e-01 -5.940120452833637099e-01 -8.282063753456965216e-01 7.635904387834338003e-01 2.940359804360810347e-01
9.253029376827703878e-01 -4.004310381902027594e-01 6.530043883059972742e-01 2.662141446577495074e-01 -2.322690352587322149e-01 -8.014565756079656822e-01 -7.286483161891246230e-01 8.865687296440383225e-01
7.269014030631837375e-01 1.275223378547811759e-01 -1.646200744990053977e-01 4.664704315758498865e-01 5.288912050159655376e-01 4.172097487486075007e-01 -8.249623959056622269e-01 -2.693618513348570165e-01
