-9.278694519483339231e-01 -6.190538692041278601e-01 -3.840054239344845577e-01 -6.389962777658075854e-01 3.965585495093100210e-01 9.787786379744041199e-01 -7.773889075767481671e-03 -4.880873812719459526e-01
-6.024707915081222165e-01 6.718076781192601210e-01 5.432672639820439464e-01 -1.962249407391003508e-02 -7.014846268573480259e-01 -1.197176952785092841e-01 1.091705352037681820e-01 -6.133824922619246500e-01
-5.527755005129080246e-01 -7.260322463612434163e-02 6.893773845792976473e-01 -2.159212710243978428e-01 1.331755178481117685e-01 -4.834676367244261641e-01 -1.971039663629861050e-01 2.266536796507505613e-01
7.763769471219361673e-01 -6.654790760604976096e-01 -4.525884258203107802e-01 2.622246764865823199e-01 -1.534881542079689076e-01 -9.558677087724076760e-01 3.240557471009641866e-01 1.583181272028162390e-01
-5.459678109145531533e-01 1.863216385946360187e-01 7.383875643864217242e-01 3.572617103258597382e-01 -4.818169964912981662e-01 6.309647102336701785e-01 -4.184503029343711322e-01 -2.020073921093210600e-01
1.032376235486798244e-01 5.175031849571727349e-01 2.633622007634874862e-01 -5.265736481892804299e-01 -5.610929168987264237e-01 3.378121381501955067e-01 6.372717692901239683e-01 4.990765402616488267e-01
-1.782129729637456084e-01 1.439779933957037183e-01 8.539314754145614916e-01 -1.719054116561207213e-01 6.716744855292358096e-01 5.301800957886961818e-01 5.302520469558040794e-01 -8.576688443547835217e-01
-9.360483677269004765e-01 4.530170938327759966e-01 7.340076839300246903e-01 -7.061266366659428861e-01 4.740097468504369527e-01 8.789285087345424241e-01 -6.452189961643712834e-01 -6.526800022173373517e-01
-4.717397729558314712e-01 3.654818344311994149e-01 -1.291517617256165984e-01 -3.910473713581850141e-01 6.976457780207618864e-01 3.008371418387874030e-01 -9.189975243059353982e-01 -5.638602645615380382e-01
1.071747830312782312e+00 7.292286490846897618e-01 8.770681551288268540e-01 1.204085335896078357e+00 5.050359981569667589e-01 5.482473711709606734e-01 8.105864556747809369e-01 1.394942841418451707e+00
