-8.000701617972203472e-01 -2.176194105813373803e-01 7.732940788700655155e-01 3.528191477635038709e-01 3.533645138880103787e-02 8.332983886925389161e-01 -8.508264971575663083e-01 -9.848144409467018967e-01
-1.262937421939589466e-01 -3.423761463964918317e-01 4.297685734682730185e-01 -5.900893984187582930e-03 7.576316897626125257e-01 1.633415516690968072e-01 -1.588060058774087846e-01 -6.802911487062182072e-01
2.773334431179057535e-01 -5.349866863103234227e-01 -1.280276794477364088e-01 -4.017743905233264190e-01 -6.777694504113880303e-01 -4.819436086773614125e-01 -1.006154247338937324e-01 -1.505739241602881417e-01
8.758426937296126535e-01 8.843968303912559392e-01 -4.663040753989606824e-01 9.823706192853172148e-01 -1.477273455770291566e-01 -8.429580921258086335e-01 5.016768815808281268e-02 8.944825063713572888e-01
9.126160665436138242e-01 5.381866445088978601e-01 6.454580356269208341e-01 6.655894141328728697e-01 -1.350372559967008002e-01 2.308555677226904468e-01 -3.610553549801525097e-01 2.895862970810505477e-01
7.130857734865356790e-01 -3.132687174181156831e-01 7.356254364271248569e-01 3.738833692462810721e-01 -3.325757686799153401e-01 -6.089247083766080593e-02 2.286343016334115852e-01 -1.636546570289774127e-01
1.371254393887277878e-01 2.674282288339391300e-01 -8.337522705163913361e-01 -6.661207242947042584e-01 8.413162570437655585e-01 -1.640209614577670116e-01 8.675344778354265873e-01 -1.839967041777521572e-01
-9.433400320641793790e-01 6.861910009166802826e-01 2.102855770108302824e-01 -9.194902044975656885e-01 7.293548696459537517e-01 5.282493188136780926e-01 7.812343744259198086e-01 1.686834057139199317e-01
-2.789285728316222013e-01 -3.905004956520841120e-01 -8.683280809145710322e-01 2.431910692658529882e-01 -3.432810820152578657e-01 -7.173872821062785565e-01 -5.688399707842717312e-02 -7.158878993527446610e-01
8.038595382907287590e-01 -5.422138267017442281e-01 3.901569956544397311e-01 8.800667949513216737e-01 4.122251683369051456e-01 8.455315265049423434e-01 -7.364887570084319712e-01 -9.270333878418990370e-01
