-6.457445898725022726e-01 4.380148930021388054e-02 -8.850326233790850594e-01 9.866825406781365437e-01 -6.237155883926166489e-01 -5.596293445142577205e-01 -4.064566141196122029e-01 -8.815179985371379701e-02
6.907783759328884887e-01 -4.390903867329918331e-01 2.174313797644953361e-01 -7.226875154369896137e-01 8.718376274255137393e-01 6.022968304477600565e-01 -5.181894284788013394e-02 5.232427223434132912e-01
3.577117873722790442e-01 -9.024201933064595060e-01 -2.298561722000989072e-01 -5.679427794873987967e-01 -7.617455490572502264e-01 1.631615232259353565e-01 -6.935489428905405873e-02 -2.792037191677487762e-02
-4.994730145672174881e-01 -2.810541720754919925e-01 1.764733003566760772e-01 -8.951598321759157706e-02 -7.610454396039314506e-01 -5.509443738568604587e-01 -1.831129641375217609e-01 2.319422184253341346e-01
1.927484698706778410e-01 -9.669876329029003514e-01 3.437900537209468421e-01 9.351152614157851595e-01 -9.409584000812853954e-01 3.771272910620433461e-01 7.729480675833724224e-01 7.968119598847043239e-01
-7.330826564753205599e-01 4.451770413187989828e-01 3.610645902243465599e-01 -3.676757798027547874e-01 4.955323999232439380e-01 -6.451642724352613101e-03 7.205272977304291171e-01 -6.454413835498458152e-01
-8.262438118578143698e-01 -9.357694250289960713e-02 9.687242597394063459e-01 5.809260111946963345e-01 3.226097353302379567e-01 4.627978250382993597e-01 2.931127124199952583e-01 4.690503861635044736e-01
6.411442514923249014e-02 4.654248645468244128e-01 5.793731128912900097e-01 -3.467621876569275674e-01 1.029106327373443541e-01 -2.471608097753128508e-01 -7.160690450482221081e-01 7.320886915380464544e-02
4.671633801088836968e-02 4.132046083917586543e-01 8.332313841592229320e-01 -8.121562976957097391e-04 6.880216960349729849e-01 -3.762997591247854157e-01 3.240087518743846040e-01 -3.057078327031872433e-01
8.986960851750774859e-01 8.036181369949827458e-01 9.559645422680572713e-01 1.017522358662070969e+00 1.070395677201132489e+00 1.086501593429145984e+00 6.619292422353959537e-01 5.145483838716221614e-01
