-1.950708624182937445e-01 -9.203000662815312705e-01 -4.550450627537949710e-01 -1.920807620749289679e-01 6.107429383893552277e-01 7.032820007021260977e-01 2.659843011643547861e-02 8.655364010301584976e-01
-3.845417499334813360e-01 6.850040056694790547e-01 6.290814109333804360e-01 2.643247633215124459e-01 2.602399380825124453e-01 2.261230212595424227e-01 -3.929114990941156016e-01 -7.081343776273418822e-01
-7.069446127192313689e-01 -9.708585914220568824e-02 5.370626490775258777e-01 -6.328681109801312932e-01 -7.530791069117406256e-01 6.160643939484773401e-01 5.523305716401942789e-01 -3.403238587228831769e-01
-3.528388876401706842e-01 7.045092629639426729e-01 8.492793992377456469e-01 2.512302078632733249e-02 -5.723689526909028213e-01 -1.240259420781104627e-01 -9.930424726399640356e-01 -7.371895771340526426e-01
8.064728582943043733e-01 8.796872130269739465e-02 5.041023363744994157e-01 4.096302385830603576e-01 3.954755698832093103e-01 1.159775412615879908e-01 -5.673523160982174574e-01 7.396712469369308707e-01
-6.550285521970544700e-02 -9.612540069093493678e-01 -4.260031675101614290e-01 -3.621001315727385705e-01 -3.504891874382793926e-01 1.174793618032046183e-01 -1.123638889710214528e-01 -5.460775394381909287e-01
-5.873050016665624096e-01 -1.008817254799303509e-01 -8.089193991746401746e-01 4.975007340817685364e-01 8.863600812342475876e-02 -4.130859849729611177e-01 1.484471787883556715e-02 4.954454344033691893e-01
1.676565837113039859e-01 5.749051883912494887e-01 -5.839205945413576959e-01 2.771252798082104452e-01 -1.112222152862369917e-01 -1.716907132855927109e-01 -6.422053361407227268e-01 4.449655558419878254e-01
-8.759011580016606846e-01 9.479036065188684024e-01 -5.140870930369523251e-02 5.525549280531514285e-01 -6.034027392290031155e-01 6.892631987830477591e-02 1.090009249806371816e-01 -5.395936221365067453e-01
-3.529368281419877906e-01 6.450905311361847527e-01 8.447169867058252901e-01 -2.347697219690942916e-01 8.345814735522991690e-01 7.277116664503766597e-01 -3.743517654636097092e-01 -1.925011758688945918e-01
