-7.410038796775881842e-01 7.164182149005755562e-01 9.343612752500640717e-02 6.022807879047957780e-01 -2.843923461817678966e-01 -1.576853235656618946e-01 9.232239917765427961e-01 4.908158258276922314e-01
1.036099058120862892e-01 -4.831326860182489913e-01 -6.893278774524722596e-01 6.617544430078945439e-01 -3.646200533172940794e-01 -6.639178809217189947e-01 -8.805233076544516369e-01 -4.836891321463210325e-02
6.499023743230436523e-02 2.142103524260146052e-01 -9.998809928358616261e-01 -5.491856462981676845e-01 -2.796188733381437252e-01 4.808796875461658349e-01 3.117493859971984804e-01 -5.493843522476187236e-01
8.690162317160587957e-01 3.673968712849660090e-01 -6.790836332865055613e-01 -2.268529769598137680e-01 -8.824578744596276447e-01 -7.446455173953281381e-02 2.779581263608759123e-01 -2.864967211567568395e-01
1.000000000000000000e+00 1.000000000000000000e+00 1.000000000000000000e+00 1.000000000000000000e+00 1.000000000000000000e+00 1.000000000000000000e+00 1.000000000000000000e+00 1.000000000000000000e+00
