-1.258975899391348019e-01 7.567009278771190672e-01 3.664174091231997554e-01 9.825467336095741189e-01 7.050708680373671822e-01 -7.307413412132064412e-01 -7.846872217831299956e-01 8.905195793058653386e-01
-1.752119000223464340e-01 2.788012088019566903e-01 7.337619173841756215e-01 -6.951481323416031088e-02 9.372362950328279041e-01 -6.024841179334790020e-01 -7.748531569241656758e-01 -7.356330455359876286e-01
-8.937988798044085303e-01 -4.036538777200944228e-01 7.359343431894975751e-01 -7.477522022150688841e-01 -5.434146490316500433e-01 -3.065273984480425540e-01 -3.598721112404317246e-01 2.743057021480148627e-01
6.284530337847669124e-01 -1.969097339684422465e-03 -6.559753455917294307e-01 -3.399834353010966481e-02 -5.083106410635234162e-01 7.272318406641151700e-01 -4.126938317801540634e-01 -6.855928056360753864e-01
1.000000000000000000e+00 1.000000000000000000e+00 1.000000000000000000e+00 1.000000000000000000e+00 1.000000000000000000e+00 1.000000000000000000e+00 1.000000000000000000e+00 1.000000000000000000e+00
