4.247552382760924061e-01 5.947398512711046248e-01 -3.699010195034639903e-01 -1.266725573903513258e-01 8.716614617290983080e-01 -9.707092552202818414e-01 9.369218248443977881e-01 6.584545495040463603e-01
4.124057120127606613e-01 7.015936198424970183e-01 3.829403841383904883e-02 -4.814878648437617148e-01 6.085590171653438851e-01 -3.727576885130150508e-01 -6.159818463643600417e-01 5.424609823624679805e-01
6.292506023870458876e-01 1.388488881574749811e-01 -5.701649481421300347e-01 1.353393351893010799e-01 -2.960724536446110999e-01 2.870387659556554727e-01 3.344442897841837237e-01 2.720783689579366893e-01
1.283677413343253804e-01 -9.243546574694578855e-01 -8.498934100817523429e-01 8.145430851724844157e-01 -2.574879263874791935e-01 -8.125667442019492981e-01 8.109874172237476753e-01 9.783710733705075491e-01
1.000000000000000000e+00 1.000000000000000000e+00 1.000000000000000000e+00 1.000000000000000000e+00 1.000000000000000000e+00 1.000000000000000000e+00 1.000000000000000000e+00 1.000000000000000000e+00
