3.970594616703206903e-01 -8.205151718576042530e-01 9.203476837810675715e-01 4.081440137150300629e-01 2.982505818662286590e-01 9.744312857218770940e-01 6.808914960105416636e-01 1.674661544731763652e-01
8.121404076252105586e-01 -7.275764387501688635e-01 4.491780638123565872e-02 -8.757876511658846397e-01 8.743707694992002288e-01 -7.502631733808871051e-01 -1.844015945004329193e-01 -2.640876383072918721e-01
-1.674568233509123871e-01 -4.802410803151746510e-01 1.773066677598840180e-01 5.040205418260184089e-01 4.295191959796762493e-01 7.092693329893555720e-01 -4.160470670418694450e-01 -6.374226104295392936e-01
6.194342487379025375e-01 -9.854585783728966319e-01 4.792860052183747221e-01 1.106732758936430638e-01 7.360248833024864989e-01 9.612776433839966828e-01 -6.749070754982136044e-01 -8.774064000716876865e-01
1.000000000000000000e+00 1.000000000000000000e+00 1.000000000000000000e+00 1.000000000000000000e+00 1.000000000000000000e+00 1.000000000000000000e+00 1.000000000000000000e+00 1.000000000000000000e+00
