2.987646525554716881e-01 -9.919303749790893132e-01 4.099348482380329450e-01 -5.465863080182975509e-02 3.075105404194919956e-01 -9.932603956832464220e-01 -5.241300087272748875e-02 1.466269460562743543e-01
-1.904435648705717909e-01 -6.296378064464753788e-01 4.852572383657889343e-01 7.501886024079600368e-01 -4.888203265696362543e-01 -8.763866288933881421e-01 -1.074915274635386275e-01 -1.147430530959059336e-01
5.244042065060534608e-01 -9.395514395772956995e-01 -1.234597010092721714e-01 5.340453990549893781e-01 7.127664272897575870e-01 -7.732261384612708621e-01 -3.205284533662728919e-01 2.890354099722198811e-01
4.827121927181632355e-01 -9.556346401655533285e-01 7.310070287073184847e-01 1.544536118698509597e-01 8.120327677006604628e-01 -9.784267902425405339e-01 -2.576856495230079869e-01 8.637755905992849925e-01
1.000000000000000000e+00 1.000000000000000000e+00 1.000000000000000000e+00 1.000000000000000000e+00 1.000000000000000000e+00 1.000000000000000000e+00 1.000000000000000000e+00 1.000000000000000000e+00
