1.496746284623884371e-02 9.568855938574540865e-01 7.387224337542424024e-01 -6.419190251886783827e-01 -5.689326551344415783e-01 -2.471277685273258751e-01 4.059278962817383096e-01 4.537160851632915382e-02
7.048290739396565474e-01 -2.116589936389625670e-01 -4.289247738384793784e-01 -2.728625981464685157e-01 -6.677249875183652872e-01 -2.893303674097198463e-01 7.207778672277092014e-01 2.876855917908125448e-01
-7.089553596755735487e-01 2.763816044608877753e-01 1.541714312732662684e-01 2.066212443774766427e-01 4.084019319563210182e-01 2.275224495662464541e-02 -7.219782621315664617e-01 -1.206029560525823108e-02
-4.888582652897264236e-01 6.271106557352574828e-01 9.772204642502353433e-01 8.711256409249656940e-02 9.379087895913285067e-02 7.993173166231388738e-01 -7.192442351947874180e-01 -8.882911264866444334e-02
1.000000000000000000e+00 1.000000000000000000e+00 1.000000000000000000e+00 1.000000000000000000e+00 1.000000000000000000e+00 1.000000000000000000e+00 1.000000000000000000e+00 1.000000000000000000e+00
