-4.150800185940697329e-01 -1.830002853247632011e-01 2.581554589285344203e-01 6.338078930897899088e-01 -1.463539956143751208e-01 -4.325580427915740600e-01 1.546699651445266888e-01 6.447083753914748527e-01
-7.701236327278204730e-01 5.220296808048436876e-01 1.628800229899967089e-01 -2.993868503233454437e-01 5.222152158074189199e-01 8.210803367480183912e-01 -1.252875988722377265e-01 3.464115271684131692e-02
5.310811293692883073e-01 -5.530199541213423053e-01 -5.061573469128537450e-01 7.389439621203961472e-01 -7.130504801964259176e-01 2.329487631214901544e-01 -8.013756359152588438e-01 4.843589862354207298e-01
4.204507893089586279e-01 7.527769068203002956e-01 6.411845993005802491e-01 7.539977725755651061e-01 7.193770808460608901e-01 3.999967396808343789e-01 3.249132244199048891e-02 5.294370047804835000e-01
1.000000000000000000e+00 1.000000000000000000e+00 1.000000000000000000e+00 1.000000000000000000e+00 1.000000000000000000e+00 1.000000000000000000e+00 1.000000000000000000e+00 1.000000000000000000e+00
