5.053490666442366219e-01 -4.557033809812160996e-02 1.821626108363576524e-01 -3.562207972414881407e-01 -7.576693452238316695e-01 -4.065641922330136548e-01 5.578885135729081401e-01 -6.983014119836623568e-01
-4.658280067636069166e-01 1.745844255078734530e-01 9.320757280276097401e-01 7.202993548053455708e-01 -3.796454336493848558e-02 9.276820974500308292e-01 -1.403708926403626212e-01 8.417303131026963037e-01
4.102052932756319326e-01 9.815035570857757463e-01 -7.563140684701661343e-01 3.717987607492618807e-01 5.946549992590366429e-04 9.312535000240913519e-01 2.672048468342922423e-01 9.627949871823910932e-01
-2.462621885145406253e-01 5.448698209218381106e-01 5.163118544386333664e-01 -3.650207305193804430e-01 6.643744476793027598e-01 7.562680711980562798e-02 1.569734005451284276e-01 -9.600366110043669909e-01
1.000000000000000000e+00 1.000000000000000000e+00 1.000000000000000000e+00 1.000000000000000000e+00 1.000000000000000000e+00 1.000000000000000000e+00 1.000000000000000000e+00 1.000000000000000000e+00
