5.824852239506301821e-01 2.429833355142538842e-01 1.034490329570036948e-04 4.792778737992591243e-01 -7.713297984502118787e-01 -3.308156032455109585e-01 -8.672758950212302587e-01 9.314074601465121006e-01
8.288991190699637190e-01 -7.919205467440471047e-02 6.521685757416419982e-01 4.140286015774194972e-01 -9.031423065746706502e-01 -6.944998174337757568e-02 6.721802241643088927e-01 4.020651456974633220e-01
-7.251585941165705762e-02 -7.833193977687449294e-01 -2.094845161887886054e-01 -3.885458352099109280e-01 9.420960273960954368e-01 8.152319015096674004e-01 3.189723209820762850e-01 9.683757099690708525e-01
-1.437242850316058362e-01 -3.482566503673680813e-01 8.832019906233521400e-01 -9.604309459071105337e-01 -3.157651637122627086e-02 1.020088298030292773e-01 2.531311922456318531e-01 2.787372636645490953e-01
1.000000000000000000e+00 1.000000000000000000e+00 1.000000000000000000e+00 1.000000000000000000e+00 1.000000000000000000e+00 1.000000000000000000e+00 1.000000000000000000e+00 1.000000000000000000e+00
