5.930404775851338961e-02 8.283080886593376935e-01 5.864469206098954501e-01 8.904904046794015482e-01 5.789202637071684254e-01 -7.264502818887834668e-01 8.386865805719945222e-01 -1.623483635243656575e-01
-6.814220795846084311e-01 -8.763318440468421677e-01 -5.745900056081341134e-01 7.100521288230334793e-01 -6.359243735752673210e-02 9.898577830447810033e-01 6.346525668073736970e-01 -6.043588081595785422e-01
-3.648793126186069546e-01 -1.355456517791073789e-01 1.049551342273735699e-01 -3.576924911661434336e-01 4.472003547460821071e-01 9.000320831745816097e-01 4.054993989686814793e-01 8.459599405373001701e-01
7.919176802360090583e-01 -3.255508730544960372e-01 -5.791075813614421364e-02 -7.326482942292529277e-01 -5.068165838380878085e-03 5.019304693063653122e-01 -2.207979160426252196e-01 -5.554921026295251973e-01
1.000000000000000000e+00 1.000000000000000000e+00 1.000000000000000000e+00 1.000000000000000000e+00 1.000000000000000000e+00 1.000000000000000000e+00 1.000000000000000000e+00 1.000000000000000000e+00
