5.489267656787673033e-01 -1.807514246820203230e-01 -1.594083045963865519e-01 6.079608041586466172e-01 -6.753745123350940460e-02 -5.905152001465532319e-01 5.634305116289266557e-01 3.234351142026241632e-01
-5.667211523822774932e-01 1.138655636170593510e-01 2.186868755104487416e-01 -9.516696980443126730e-01 6.721884348971622902e-01 6.505657972682685752e-01 3.566697641834892796e-01 -4.510493592630879789e-01
4.970727578616918052e-02 6.736183258836545562e-01 6.311728807111340878e-01 5.005106412934929860e-01 -3.200619497671046698e-01 8.349102463702728905e-02 -8.378245986919725663e-01 3.637116347732816113e-01
-5.493126367663994092e-01 -6.682408479234966947e-01 9.306115073209020316e-02 4.070512420329688297e-01 -4.591900710413976405e-02 -6.031000044512024871e-01 -1.245515987206871067e-01 4.164520766017449915e-01
1.000000000000000000e+00 1.000000000000000000e+00 1.000000000000000000e+00 1.000000000000000000e+00 1.000000000000000000e+00 1.000000000000000000e+00 1.000000000000000000e+00 1.000000000000000000e+00
