-3.112243189124122011e-01 -2.273647596543857397e-01 9.606572592239734920e-01 -7.281743243528908671e-01 2.986377771829906713e-01 8.586891546295396527e-01 -1.366348451381698137e-01 7.663110137183428705e-01
4.411948238695795332e-01 8.215615256747734740e-01 -8.444590719006694890e-02 8.579551453738418765e-01 -5.753856809660271576e-01 8.893681094389964681e-01 -2.850860712623648485e-01 -2.358399044376411346e-01
-3.514061544589885955e-03 2.053921067679120860e-01 -5.280787774750099750e-01 -5.113322950313083926e-01 -9.629189884208726458e-01 7.419515905584581628e-01 -5.149965676990611030e-01 -7.921114372254518532e-01
8.497072236256184574e-01 -9.805317782819491512e-01 -7.239653072735692252e-01 4.491731949829422810e-01 5.109313086732987230e-01 9.057086138570062950e-01 8.644454091121811512e-01 -2.744961351769488189e-01
1.000000000000000000e+00 1.000000000000000000e+00 1.000000000000000000e+00 1.000000000000000000e+00 1.000000000000000000e+00 1.000000000000000000e+00 1.000000000000000000e+00 1.000000000000000000e+00
