<neuralNetwork>
    <neuron name = "0" type = "sensor" linkName = "FrontLowerLeg" />
    <neuron name = "1" type = "sensor" linkName = "BackLowerLeg" />
    <neuron name = "2" type = "sensor" linkName = "LeftLowerLeg" />
    <neuron name = "3" type = "sensor" linkName = "RightLowerLeg" />
    <neuron name = "4" type = "motor"  jointName = "Torso_FrontLeg" />
    <neuron name = "5" type = "motor"  jointName = "Torso_BackLeg" />
    <neuron name = "6" type = "motor"  jointName = "Torso_LeftLeg" />
    <neuron name = "7" type = "motor"  jointName = "Torso_RightLeg" />
    <neuron name = "8" type = "motor"  jointName = "FrontLeg_FrontLowerLeg" />
    <neuron name = "9" type = "motor"  jointName = "BackLeg_BackLowerLeg" />
    <neuron name = "10" type = "motor"  jointName = "LeftLeg_LeftLowerLeg" />
    <neuron name = "11" type = "motor"  jointName = "RightLeg_RightLowerLeg" />
    <synapse sourceNeuronName = "0" targetNeuronName = "4" weight = "-0.9163982829995332" />
    <synapse sourceNeuronName = "0" targetNeuronName = "5" weight = "0.11694707011383332" />
    <synapse sourceNeuronName = "0" targetNeuronName = "6" weight = "0.7873515586093136" />
    <synapse sourceNeuronName = "0" targetNeuronName = "7" weight = "-0.2991345274652044" />
    <synapse sourceNeuronName = "0" targetNeuronName = "8" weight = "-0.48290780017958657" />
    <synapse sourceNeuronName = "0" targetNeuronName = "9" weight = "0.20404136904215542" />
    <synapse sourceNeuronName = "0" targetNeuronName = "10" weight = "0.8763023171563555" />
    <synapse sourceNeuronName = "0" targetNeuronName = "11" weight = "-0.7588192073861322" />
    <synapse sourceNeuronName = "1" targetNeuronName = "4" weight = "0.13739290778081448" />
    <synapse sourceNeuronName = "1" targetNeuronName = "5" weight = "0.27429722714562654" />
    <synapse sourceNeuronName = "1" targetNeuronName = "6" weight = "-0.06007558261054613" />
    <synapse sourceNeuronName = "1" targetNeuronName = "7" weight = "-0.555893398291462" />
    <synapse sourceNeuronName = "1" targetNeuronName = "8" weight = "0.8446185953023948" />
    <synapse sourceNeuronName = "1" targetNeuronName = "9" weight = "0.1684776762104241" />
    <synapse sourceNeuronName = "1" targetNeuronName = "10" weight = "0.037948788527802035" />
    <synapse sourceNeuronName = "1" targetNeuronName = "11" weight = "-0.07507865799678881" />
    <synapse sourceNeuronName = "2" targetNeuronName = "4" weight = "0.8819021188906442" />
    <synapse sourceNeuronName = "2" targetNeuronName = "5" weight = "-0.9709808900737331" />
    <synapse sourceNeuronName = "2" targetNeuronName = "6" weight = "-0.30151978936543866" />
    <synapse sourceNeuronName = "2" targetNeuronName = "7" weight = "-0.09915614057647582" />
    <synapse sourceNeuronName = "2" targetNeuronName = "8" weight = "0.26152024320188216" />
    <synapse sourceNeuronName = "2" targetNeuronName = "9" weight = "-0.040002128161732875" />
    <synapse sourceNeuronName = "2" targetNeuronName = "10" weight = "-0.9980059769331939" />
    <synapse sourceNeuronName = "2" targetNeuronName = "11" weight = "-0.22772837215878527" />
    <synapse sourceNeuronName = "3" targetNeuronName = "4" weight = "-0.4420123684792523" />
    <synapse sourceNeuronName = "3" targetNeuronName = "5" weight = "-0.41289325676053323" />
    <synapse sourceNeuronName = "3" targetNeuronName = "6" weight = "0.5027248313064958" />
    <synapse sourceNeuronName = "3" targetNeuronName = "7" weight = "0.2808472366089392" />
    <synapse sourceNeuronName = "3" targetNeuronName = "8" weight = "0.4644176600718424" />
    <synapse sourceNeuronName = "3" targetNeuronName = "9" weight = "0.5255850620540563" />
    <synapse sourceNeuronName = "3" targetNeuronName = "10" weight = "0.051828171150917646" />
    <synapse sourceNeuronName = "3" targetNeuronName = "11" weight = "0.21090407350856633" />
</neuralNetwork>