-8.302102335753143159e-01 1.138349558808349204e-01 6.810613238495859534e-01 8.804502394873601201e-01 -9.674581028868487476e-01 -2.335899253967812506e-01 9.364173656837615489e-02 -8.633091808915738241e-02
-7.458003014496483729e-02 2.947542573268522315e-01 -6.082127600237536846e-01 -1.997652681426513865e-01 -2.788161497781505016e-01 -4.172400800827886780e-01 2.304743774913868837e-01 -6.054244614159598470e-01
1.707710363594889813e-01 -6.011749973519679990e-01 -4.458555888784889731e-01 8.420330934327402428e-01 -2.851068348961138810e-02 1.905904313997497379e-01 -9.531733212374362552e-01 -7.382327926361109682e-02
4.691914489239432662e-01 -4.286030682356096744e-01 -4.279088717290711052e-01 3.012384469504034712e-01 -1.919193860303185506e-01 -2.229018518008034633e-01 1.900176999201641515e-01 -9.304954052697174127e-01
1.000000000000000000e+00 1.000000000000000000e+00 1.000000000000000000e+00 1.000000000000000000e+00 1.000000000000000000e+00 1.000000000000000000e+00 1.000000000000000000e+00 1.000000000000000000e+00
