-9.948847881557754125e-01 -5.628713763192105812e-01 -1.292989722036066436e-01 7.514344910045451797e-01 5.455170292374993402e-01 7.672946290448239282e-01 9.380944778971538334e-01 -3.920883358715434586e-01
3.392836276439863408e-01 9.983900239244083430e-01 5.851355824270025874e-01 -5.173931056519527338e-01 7.202898721334225485e-01 4.237545058287872646e-01 4.217459555778078073e-01 4.179327573318891709e-02
-7.775769879454619282e-01 7.467962743180804885e-01 1.255291278701715640e-01 -7.709905496273332659e-01 4.521184026105338205e-01 9.686964982327042062e-01 5.857398736115193572e-02 -7.476598867629169476e-02
5.512242951786205936e-03 1.918812798898095195e-02 -8.972791454255704124e-01 -6.026081486571186474e-01 -8.063233575961117339e-01 4.432417376877064719e-01 3.657832099404727533e-01 -7.763161031315690686e-02
1.000000000000000000e+00 1.000000000000000000e+00 1.000000000000000000e+00 1.000000000000000000e+00 1.000000000000000000e+00 1.000000000000000000e+00 1.000000000000000000e+00 1.000000000000000000e+00
