-8.297052719474515836e-01 -3.259199203489713259e-01 -6.284099352798067084e-01 -8.039491374604426088e-01 2.769299293504732251e-01 2.609629083346303169e-01 4.015073894545313493e-01 2.464169179713722180e-01
6.416772227107441218e-01 -1.151078880539664340e-01 4.051547899692000687e-01 -6.624792908512566747e-02 -6.144326874807233274e-01 6.726393432567130404e-01 2.772774883567648008e-01 -6.705564859468533534e-01
9.697150109059340384e-01 -6.482280073239818918e-01 -7.928901372833541128e-01 9.684642546698583043e-01 -6.984581501384814484e-01 3.914250059414969840e-02 7.125041870181687553e-01 -3.531311561275767286e-01
3.806737204319305956e-01 -6.054419971943567624e-01 -6.261155759833847423e-01 -6.504825723362781531e-01 -5.463454628679216274e-01 6.663798769720787885e-01 -4.176785168025307637e-01 -2.632291687949572800e-01
1.000000000000000000e+00 1.000000000000000000e+00 1.000000000000000000e+00 1.000000000000000000e+00 1.000000000000000000e+00 1.000000000000000000e+00 1.000000000000000000e+00 1.000000000000000000e+00
