-8.542636803933463252e-01 -3.507031892214758084e-01 -2.739212599194995601e-01 -3.090521138716977312e-01 -9.068399700929827834e-01 2.493355762076858717e-01 -6.837585447901137758e-01 6.081663578377392021e-01
7.470142832655251031e-01 -8.600901407344003768e-01 -7.173506294554370388e-01 6.557650251753761594e-01 2.286004898978686306e-01 -7.783734911048598715e-01 9.746503159484221079e-01 1.740903085860752153e-01
9.749711359534927180e-01 -7.013801915904900319e-01 2.945154348696199520e-02 2.159646343329879592e-01 5.081784279113767955e-01 1.581619632401347619e-01 7.990983180658202123e-01 -8.355701516317155519e-01
-6.082252248154627061e-01 9.472936141953720579e-01 5.459782024339674411e-01 6.356002678550809470e-01 -6.751791843449741481e-01 7.647449445315388505e-01 -3.855286339285857178e-01 -8.988286615801088786e-03
1.000000000000000000e+00 1.000000000000000000e+00 1.000000000000000000e+00 1.000000000000000000e+00 1.000000000000000000e+00 1.000000000000000000e+00 1.000000000000000000e+00 1.000000000000000000e+00
