-8.239816077213668599e-02 -6.772078085846300333e-01 -8.224534762387598619e-01 -2.159319900045884033e-01 -8.879644311662666656e-01 -7.123875823481626846e-01 9.663235629367099566e-01 -8.791374858139455739e-02
3.052499873544878284e-01 -5.767102293357111442e-01 -4.828141640448446736e-01 8.134837498944889056e-01 7.257098627936502400e-01 3.635832387078750116e-01 -8.693760223862057046e-01 -4.797652080564631660e-01
-7.752806013502262505e-01 -8.056381997096240255e-03 -4.473633444377540513e-01 -4.708509680828967259e-01 -2.835266309725950062e-01 1.283844825542830304e-01 1.245914210002285749e-02 -1.302338050306635076e-01
-6.312680077330325989e-01 3.226775030943194178e-01 -2.845971730539360589e-01 2.889220380159944757e-01 7.568570046141136487e-01 3.188962836837991865e-01 -8.165771905612519976e-01 1.227421055366497704e-01
1.000000000000000000e+00 1.000000000000000000e+00 1.000000000000000000e+00 1.000000000000000000e+00 1.000000000000000000e+00 1.000000000000000000e+00 1.000000000000000000e+00 1.000000000000000000e+00
