-3.752524640422831848e-01 -1.913974661231665486e-01 -3.091292001252423649e-01 -5.761097639804226844e-01 7.167172396136121115e-01 6.601923762438346444e-01 3.659743439681495403e-01 -9.525657139101177950e-01
7.904229960398079236e-01 -5.848234897976039015e-01 -3.249209119717590966e-01 -2.119980049628955587e-01 5.150934067738723865e-01 2.572443297026196785e-01 6.197664926279862208e-01 2.886522230291279634e-01
4.109233638218783291e-01 9.439692223875646437e-01 8.683737892169496320e-01 1.008784277183025768e-01 7.138511754305283397e-01 -6.309237680749737454e-01 1.856071912327135198e-01 8.414823261883697114e-01
-6.546528445576369482e-01 -1.363558432474074600e-01 -8.990308445276133931e-01 4.117241741163855107e-01 -1.848707435275069866e-01 3.004313089682473237e-01 -9.371130449796598594e-01 -7.718692671028184460e-01
1.000000000000000000e+00 1.000000000000000000e+00 1.000000000000000000e+00 1.000000000000000000e+00 1.000000000000000000e+00 1.000000000000000000e+00 1.000000000000000000e+00 1.000000000000000000e+00
