6.536059105685587678e-01 -6.133684146360212086e-01 -5.478189631334369203e-01 -6.478712978357950014e-01 -8.924961062786160859e-01 -1.642198097308058546e-01 -4.080411191450807884e-01 -9.295180158866318543e-01
4.087517152217234884e-01 -1.164372651963283545e-01 4.003624285610363209e-02 -5.888539611458178946e-01 -6.469380278481327018e-01 -9.961721893139272588e-01 -9.517834951662127452e-01 5.660936982797761807e-01
4.484822024496271098e-01 3.245121598692075615e-01 4.419980432369055023e-01 -5.125459524283639823e-01 1.876098904170278026e-01 -3.146653848563387701e-01 1.954393358392445545e-01 -1.086348595166168884e-01
-9.428206038570319247e-01 -8.324396165448688656e-01 4.169498096464765435e-01 -7.160276607065174659e-02 -2.445224828827443631e-01 -1.902685240309278658e-01 2.492913641758454091e-01 -9.713443006386452971e-01
1.000000000000000000e+00 1.000000000000000000e+00 1.000000000000000000e+00 1.000000000000000000e+00 1.000000000000000000e+00 1.000000000000000000e+00 1.000000000000000000e+00 1.000000000000000000e+00
