6.876840480830195279e-01 -5.719000337906887665e-02 9.403903306029484099e-01 4.694600040423015930e-01 7.584780495151564050e-01 -2.059425457517833902e-01 6.909160962537754802e-01 -5.840000342983910908e-01
-2.590803997114903279e-01 7.668140133191041485e-01 4.975747295492858324e-01 -8.578212189162452983e-01 8.340902818896580584e-01 -7.415432626441895714e-01 5.840986630709097405e-01 8.975764126931651266e-01
-3.479746705851323174e-01 -2.180385276684053686e-01 9.353773453714893105e-01 -9.787041724476652771e-01 8.595686463345151296e-01 -3.675559671661381422e-01 6.682409887244302737e-01 5.725134905947699693e-01
-2.112791771005018138e-01 7.545078919969805398e-02 -1.113309778131967853e-01 -8.620264521653002721e-01 -5.871867525917233710e-01 -3.356587421369729984e-01 -8.092562615223943823e-01 5.996725085260541377e-01
1.000000000000000000e+00 1.000000000000000000e+00 1.000000000000000000e+00 1.000000000000000000e+00 1.000000000000000000e+00 1.000000000000000000e+00 1.000000000000000000e+00 1.000000000000000000e+00
