<neuralNetwork>
    <neuron name = "0" type = "sensor" linkName = "Torso" />
    <neuron name = "1" type = "sensor" linkName = "BackLeg" />
    <neuron name = "2" type = "sensor" linkName = "FrontLeg" />
    <neuron name = "3" type = "sensor" linkName = "LeftLeg" />
    <neuron name = "4" type = "sensor" linkName = "RightLeg" />
    <neuron name = "5" type = "sensor" linkName = "BackLowerLeg" />
    <neuron name = "6" type = "sensor" linkName = "FrontLowerLeg" />
    <neuron name = "7" type = "sensor" linkName = "LeftLowerLeg" />
    <neuron name = "8" type = "sensor" linkName = "RightLowerLeg" />
    <neuron name = "9" type = "motor"  jointName = "Torso_BackLeg" />
    <neuron name = "10" type = "motor"  jointName = "Torso_FrontLeg" />
    <neuron name = "11" type = "motor"  jointName = "Torso_LeftLeg" />
    <neuron name = "12" type = "motor"  jointName = "Torso_RightLeg" />
    <neuron name = "13" type = "motor"  jointName = "BackLeg_BackLowerLeg" />
    <neuron name = "14" type = "motor"  jointName = "FrontLeg_FrontLowerLeg" />
    <neuron name = "15" type = "motor"  jointName = "LeftLeg_LeftLowerLeg" />
    <neuron name = "16" type = "motor"  jointName = "RightLeg_RightLowerLeg" />
    <synapse sourceNeuronName = "0" targetNeuronName = "9" weight = "-0.012208420832266142" />
    <synapse sourceNeuronName = "0" targetNeuronName = "10" weight = "-0.20426707124857368" />
    <synapse sourceNeuronName = "0" targetNeuronName = "11" weight = "-0.23144245705846478" />
    <synapse sourceNeuronName = "0" targetNeuronName = "12" weight = "-0.12901359836709525" />
    <synapse sourceNeuronName = "0" targetNeuronName = "13" weight = "-0.8754211655100501" />
    <synapse sourceNeuronName = "0" targetNeuronName = "14" weight = "0.7882653988481574" />
    <synapse sourceNeuronName = "0" targetNeuronName = "15" weight = "0.8827873263359587" />
    <synapse sourceNeuronName = "0" targetNeuronName = "16" weight = "-0.3555798242855095" />
    <synapse sourceNeuronName = "1" targetNeuronName = "9" weight = "0.36467646802587605" />
    <synapse sourceNeuronName = "1" targetNeuronName = "10" weight = "-0.3608247138540994" />
    <synapse sourceNeuronName = "1" targetNeuronName = "11" weight = "0.9835514925425262" />
    <synapse sourceNeuronName = "1" targetNeuronName = "12" weight = "0.3435096846883967" />
    <synapse sourceNeuronName = "1" targetNeuronName = "13" weight = "0.4064160674191326" />
    <synapse sourceNeuronName = "1" targetNeuronName = "14" weight = "-0.8996977990929651" />
    <synapse sourceNeuronName = "1" targetNeuronName = "15" weight = "-0.6568192344630082" />
    <synapse sourceNeuronName = "1" targetNeuronName = "16" weight = "-0.7271346666149272" />
    <synapse sourceNeuronName = "2" targetNeuronName = "9" weight = "0.938688099881736" />
    <synapse sourceNeuronName = "2" targetNeuronName = "10" weight = "-0.06482862944813528" />
    <synapse sourceNeuronName = "2" targetNeuronName = "11" weight = "-0.8593773962493552" />
    <synapse sourceNeuronName = "2" targetNeuronName = "12" weight = "0.5801219259598864" />
    <synapse sourceNeuronName = "2" targetNeuronName = "13" weight = "0.827317284303609" />
    <synapse sourceNeuronName = "2" targetNeuronName = "14" weight = "-0.6800171129512311" />
    <synapse sourceNeuronName = "2" targetNeuronName = "15" weight = "-0.9621674013014154" />
    <synapse sourceNeuronName = "2" targetNeuronName = "16" weight = "-0.19624800355240435" />
    <synapse sourceNeuronName = "3" targetNeuronName = "9" weight = "0.22689420270890648" />
    <synapse sourceNeuronName = "3" targetNeuronName = "10" weight = "0.6965556166771827" />
    <synapse sourceNeuronName = "3" targetNeuronName = "11" weight = "-0.7729621331206298" />
    <synapse sourceNeuronName = "3" targetNeuronName = "12" weight = "0.6212416132717937" />
    <synapse sourceNeuronName = "3" targetNeuronName = "13" weight = "-0.22009440087524035" />
    <synapse sourceNeuronName = "3" targetNeuronName = "14" weight = "0.23545713886885333" />
    <synapse sourceNeuronName = "3" targetNeuronName = "15" weight = "0.3457196149285773" />
    <synapse sourceNeuronName = "3" targetNeuronName = "16" weight = "-0.5817647696949131" />
    <synapse sourceNeuronName = "4" targetNeuronName = "9" weight = "0.3340761518803359" />
    <synapse sourceNeuronName = "4" targetNeuronName = "10" weight = "0.45729677789112233" />
    <synapse sourceNeuronName = "4" targetNeuronName = "11" weight = "-0.9713281094743051" />
    <synapse sourceNeuronName = "4" targetNeuronName = "12" weight = "0.015753460123590024" />
    <synapse sourceNeuronName = "4" targetNeuronName = "13" weight = "-0.09636410055493316" />
    <synapse sourceNeuronName = "4" targetNeuronName = "14" weight = "-0.9775684369585382" />
    <synapse sourceNeuronName = "4" targetNeuronName = "15" weight = "-0.5384930401990142" />
    <synapse sourceNeuronName = "4" targetNeuronName = "16" weight = "0.5703170807319475" />
    <synapse sourceNeuronName = "5" targetNeuronName = "9" weight = "0.8825120756296811" />
    <synapse sourceNeuronName = "5" targetNeuronName = "10" weight = "0.5738089040429473" />
    <synapse sourceNeuronName = "5" targetNeuronName = "11" weight = "0.573437039988155" />
    <synapse sourceNeuronName = "5" targetNeuronName = "12" weight = "-0.20100807906144835" />
    <synapse sourceNeuronName = "5" targetNeuronName = "13" weight = "0.8467716596172252" />
    <synapse sourceNeuronName = "5" targetNeuronName = "14" weight = "-0.8080151922825787" />
    <synapse sourceNeuronName = "5" targetNeuronName = "15" weight = "-0.5699721748154045" />
    <synapse sourceNeuronName = "5" targetNeuronName = "16" weight = "-0.18892962680919645" />
    <synapse sourceNeuronName = "6" targetNeuronName = "9" weight = "-0.9821496695204539" />
    <synapse sourceNeuronName = "6" targetNeuronName = "10" weight = "-0.3547607763132463" />
    <synapse sourceNeuronName = "6" targetNeuronName = "11" weight = "-0.6311165116598207" />
    <synapse sourceNeuronName = "6" targetNeuronName = "12" weight = "0.5672943289469616" />
    <synapse sourceNeuronName = "6" targetNeuronName = "13" weight = "0.10283122273379774" />
    <synapse sourceNeuronName = "6" targetNeuronName = "14" weight = "-0.8478692592374237" />
    <synapse sourceNeuronName = "6" targetNeuronName = "15" weight = "-0.16453758815624053" />
    <synapse sourceNeuronName = "6" targetNeuronName = "16" weight = "-0.38314402521832425" />
    <synapse sourceNeuronName = "7" targetNeuronName = "9" weight = "-0.2182971299149432" />
    <synapse sourceNeuronName = "7" targetNeuronName = "10" weight = "-0.9973202667139338" />
    <synapse sourceNeuronName = "7" targetNeuronName = "11" weight = "0.840566726439061" />
    <synapse sourceNeuronName = "7" targetNeuronName = "12" weight = "-0.11227774429198267" />
    <synapse sourceNeuronName = "7" targetNeuronName = "13" weight = "0.719153416964468" />
    <synapse sourceNeuronName = "7" targetNeuronName = "14" weight = "0.1778412628285888" />
    <synapse sourceNeuronName = "7" targetNeuronName = "15" weight = "0.19127362561542793" />
    <synapse sourceNeuronName = "7" targetNeuronName = "16" weight = "0.9837339753557983" />
    <synapse sourceNeuronName = "8" targetNeuronName = "9" weight = "-0.31241405387926435" />
    <synapse sourceNeuronName = "8" targetNeuronName = "10" weight = "0.7461613960476985" />
    <synapse sourceNeuronName = "8" targetNeuronName = "11" weight = "-0.18261439389597744" />
    <synapse sourceNeuronName = "8" targetNeuronName = "12" weight = "0.06223373807000132" />
    <synapse sourceNeuronName = "8" targetNeuronName = "13" weight = "0.5743406999968712" />
    <synapse sourceNeuronName = "8" targetNeuronName = "14" weight = "0.9422628748771786" />
    <synapse sourceNeuronName = "8" targetNeuronName = "15" weight = "0.8621947577570064" />
    <synapse sourceNeuronName = "8" targetNeuronName = "16" weight = "0.6403073177735676" />
</neuralNetwork>