<neuralNetwork>
    <neuron name = "0" type = "sensor" linkName = "Torso" />
    <neuron name = "1" type = "sensor" linkName = "BackLeg" />
    <neuron name = "2" type = "sensor" linkName = "FrontLeg" />
    <neuron name = "3" type = "sensor" linkName = "LeftLeg" />
    <neuron name = "4" type = "sensor" linkName = "RightLeg" />
    <neuron name = "5" type = "sensor" linkName = "BackLowerLeg" />
    <neuron name = "6" type = "sensor" linkName = "FrontLowerLeg" />
    <neuron name = "7" type = "sensor" linkName = "LeftLowerLeg" />
    <neuron name = "8" type = "sensor" linkName = "RightLowerLeg" />
    <neuron name = "9" type = "motor"  jointName = "Torso_BackLeg" />
    <neuron name = "10" type = "motor"  jointName = "Torso_FrontLeg" />
    <neuron name = "11" type = "motor"  jointName = "Torso_LeftLeg" />
    <neuron name = "12" type = "motor"  jointName = "Torso_RightLeg" />
    <neuron name = "13" type = "motor"  jointName = "BackLeg_BackLowerLeg" />
    <neuron name = "14" type = "motor"  jointName = "FrontLeg_FrontLowerLeg" />
    <neuron name = "15" type = "motor"  jointName = "LeftLeg_LeftLowerLeg" />
    <neuron name = "16" type = "motor"  jointName = "RightLeg_RightLowerLeg" />
    <synapse sourceNeuronName = "0" targetNeuronName = "9" weight = "-0.2845470010372746" />
    <synapse sourceNeuronName = "0" targetNeuronName = "10" weight = "-0.5323837170598436" />
    <synapse sourceNeuronName = "0" targetNeuronName = "11" weight = "-0.6438010172911681" />
    <synapse sourceNeuronName = "0" targetNeuronName = "12" weight = "-0.09025801504852216" />
    <synapse sourceNeuronName = "0" targetNeuronName = "13" weight = "-0.06291925048113" />
    <synapse sourceNeuronName = "0" targetNeuronName = "14" weight = "-0.9563931815234057" />
    <synapse sourceNeuronName = "0" targetNeuronName = "15" weight = "0.9978246916529323" />
    <synapse sourceNeuronName = "0" targetNeuronName = "16" weight = "-0.9061065778511452" />
    <synapse sourceNeuronName = "1" targetNeuronName = "9" weight = "-0.42688244992722413" />
    <synapse sourceNeuronName = "1" targetNeuronName = "10" weight = "-0.033249170372312786" />
    <synapse sourceNeuronName = "1" targetNeuronName = "11" weight = "-0.15605938151209342" />
    <synapse sourceNeuronName = "1" targetNeuronName = "12" weight = "0.9894741857254474" />
    <synapse sourceNeuronName = "1" targetNeuronName = "13" weight = "0.025838276596171994" />
    <synapse sourceNeuronName = "1" targetNeuronName = "14" weight = "0.855806920753382" />
    <synapse sourceNeuronName = "1" targetNeuronName = "15" weight = "-0.08123320487742403" />
    <synapse sourceNeuronName = "1" targetNeuronName = "16" weight = "-0.43203122475594014" />
    <synapse sourceNeuronName = "2" targetNeuronName = "9" weight = "0.9094962664229811" />
    <synapse sourceNeuronName = "2" targetNeuronName = "10" weight = "-0.9264931382639057" />
    <synapse sourceNeuronName = "2" targetNeuronName = "11" weight = "0.08314578952692786" />
    <synapse sourceNeuronName = "2" targetNeuronName = "12" weight = "0.8258038415523101" />
    <synapse sourceNeuronName = "2" targetNeuronName = "13" weight = "0.8791541985917537" />
    <synapse sourceNeuronName = "2" targetNeuronName = "14" weight = "0.8126454299365926" />
    <synapse sourceNeuronName = "2" targetNeuronName = "15" weight = "-0.7513996734714172" />
    <synapse sourceNeuronName = "2" targetNeuronName = "16" weight = "0.20129146039599366" />
    <synapse sourceNeuronName = "3" targetNeuronName = "9" weight = "-0.05818647339476524" />
    <synapse sourceNeuronName = "3" targetNeuronName = "10" weight = "0.02132902971567896" />
    <synapse sourceNeuronName = "3" targetNeuronName = "11" weight = "-0.3004863706910421" />
    <synapse sourceNeuronName = "3" targetNeuronName = "12" weight = "-0.3613540414820564" />
    <synapse sourceNeuronName = "3" targetNeuronName = "13" weight = "0.6704508193954908" />
    <synapse sourceNeuronName = "3" targetNeuronName = "14" weight = "0.632353244061189" />
    <synapse sourceNeuronName = "3" targetNeuronName = "15" weight = "-0.6808626445482591" />
    <synapse sourceNeuronName = "3" targetNeuronName = "16" weight = "-0.8444850582475485" />
    <synapse sourceNeuronName = "4" targetNeuronName = "9" weight = "-0.33844568827137356" />
    <synapse sourceNeuronName = "4" targetNeuronName = "10" weight = "0.12321473371869462" />
    <synapse sourceNeuronName = "4" targetNeuronName = "11" weight = "0.9884734171867413" />
    <synapse sourceNeuronName = "4" targetNeuronName = "12" weight = "0.7229790627482722" />
    <synapse sourceNeuronName = "4" targetNeuronName = "13" weight = "0.18764986382815207" />
    <synapse sourceNeuronName = "4" targetNeuronName = "14" weight = "-0.8623892537564948" />
    <synapse sourceNeuronName = "4" targetNeuronName = "15" weight = "-0.767688334845307" />
    <synapse sourceNeuronName = "4" targetNeuronName = "16" weight = "0.33964023611138616" />
    <synapse sourceNeuronName = "5" targetNeuronName = "9" weight = "0.1972940898135982" />
    <synapse sourceNeuronName = "5" targetNeuronName = "10" weight = "0.12479466525974292" />
    <synapse sourceNeuronName = "5" targetNeuronName = "11" weight = "-0.46222103627116273" />
    <synapse sourceNeuronName = "5" targetNeuronName = "12" weight = "0.5334705838493452" />
    <synapse sourceNeuronName = "5" targetNeuronName = "13" weight = "-0.2354954096726134" />
    <synapse sourceNeuronName = "5" targetNeuronName = "14" weight = "-0.7126197194336283" />
    <synapse sourceNeuronName = "5" targetNeuronName = "15" weight = "-0.7668447351440255" />
    <synapse sourceNeuronName = "5" targetNeuronName = "16" weight = "-0.5463634267324069" />
    <synapse sourceNeuronName = "6" targetNeuronName = "9" weight = "-0.7702410650389475" />
    <synapse sourceNeuronName = "6" targetNeuronName = "10" weight = "-0.6728870892964209" />
    <synapse sourceNeuronName = "6" targetNeuronName = "11" weight = "-0.9148880562599873" />
    <synapse sourceNeuronName = "6" targetNeuronName = "12" weight = "0.05504787811650558" />
    <synapse sourceNeuronName = "6" targetNeuronName = "13" weight = "-0.11637741482561692" />
    <synapse sourceNeuronName = "6" targetNeuronName = "14" weight = "-0.9968925971696396" />
    <synapse sourceNeuronName = "6" targetNeuronName = "15" weight = "-0.5191988943484656" />
    <synapse sourceNeuronName = "6" targetNeuronName = "16" weight = "-0.44797162414597347" />
    <synapse sourceNeuronName = "7" targetNeuronName = "9" weight = "0.23940358596160416" />
    <synapse sourceNeuronName = "7" targetNeuronName = "10" weight = "0.43559029534900673" />
    <synapse sourceNeuronName = "7" targetNeuronName = "11" weight = "0.9662400151603066" />
    <synapse sourceNeuronName = "7" targetNeuronName = "12" weight = "0.3026371953978806" />
    <synapse sourceNeuronName = "7" targetNeuronName = "13" weight = "-0.8274873597561954" />
    <synapse sourceNeuronName = "7" targetNeuronName = "14" weight = "0.26930434582398655" />
    <synapse sourceNeuronName = "7" targetNeuronName = "15" weight = "-0.8368726085025673" />
    <synapse sourceNeuronName = "7" targetNeuronName = "16" weight = "0.5324785466281716" />
    <synapse sourceNeuronName = "8" targetNeuronName = "9" weight = "-0.9308671907806436" />
    <synapse sourceNeuronName = "8" targetNeuronName = "10" weight = "-0.3012651246214746" />
    <synapse sourceNeuronName = "8" targetNeuronName = "11" weight = "-0.6523721579472919" />
    <synapse sourceNeuronName = "8" targetNeuronName = "12" weight = "0.3574382106814771" />
    <synapse sourceNeuronName = "8" targetNeuronName = "13" weight = "0.4087509923771908" />
    <synapse sourceNeuronName = "8" targetNeuronName = "14" weight = "0.45615220472647944" />
    <synapse sourceNeuronName = "8" targetNeuronName = "15" weight = "-0.6019762941247222" />
    <synapse sourceNeuronName = "8" targetNeuronName = "16" weight = "-0.7935880739248942" />
</neuralNetwork>