<neuralNetwork>
    <neuron name = "0" type = "sensor" linkName = "Torso" />
    <neuron name = "1" type = "sensor" linkName = "BackLeg" />
    <neuron name = "2" type = "sensor" linkName = "FrontLeg" />
    <neuron name = "3" type = "sensor" linkName = "LeftLeg" />
    <neuron name = "4" type = "sensor" linkName = "RightLeg" />
    <neuron name = "5" type = "sensor" linkName = "BackLowerLeg" />
    <neuron name = "6" type = "sensor" linkName = "FrontLowerLeg" />
    <neuron name = "7" type = "sensor" linkName = "LeftLowerLeg" />
    <neuron name = "8" type = "sensor" linkName = "RightLowerLeg" />
    <neuron name = "9" type = "motor"  jointName = "Torso_BackLeg" />
    <neuron name = "10" type = "motor"  jointName = "Torso_FrontLeg" />
    <neuron name = "11" type = "motor"  jointName = "Torso_LeftLeg" />
    <neuron name = "12" type = "motor"  jointName = "Torso_RightLeg" />
    <neuron name = "13" type = "motor"  jointName = "BackLeg_BackLowerLeg" />
    <neuron name = "14" type = "motor"  jointName = "FrontLeg_FrontLowerLeg" />
    <neuron name = "15" type = "motor"  jointName = "LeftLeg_LeftLowerLeg" />
    <neuron name = "16" type = "motor"  jointName = "RightLeg_RightLowerLeg" />
    <synapse sourceNeuronName = "0" targetNeuronName = "9" weight = "0.3067312396094444" />
    <synapse sourceNeuronName = "0" targetNeuronName = "10" weight = "-0.05792695368577738" />
    <synapse sourceNeuronName = "0" targetNeuronName = "11" weight = "0.8530487547422747" />
    <synapse sourceNeuronName = "0" targetNeuronName = "12" weight = "0.839217079598291" />
    <synapse sourceNeuronName = "0" targetNeuronName = "13" weight = "0.4713268215774844" />
    <synapse sourceNeuronName = "0" targetNeuronName = "14" weight = "-0.7510658093444225" />
    <synapse sourceNeuronName = "0" targetNeuronName = "15" weight = "0.5199216721781208" />
    <synapse sourceNeuronName = "0" targetNeuronName = "16" weight = "-0.018564002332217333" />
    <synapse sourceNeuronName = "1" targetNeuronName = "9" weight = "-0.837517973110659" />
    <synapse sourceNeuronName = "1" targetNeuronName = "10" weight = "0.6912635804811882" />
    <synapse sourceNeuronName = "1" targetNeuronName = "11" weight = "-0.4290201302480152" />
    <synapse sourceNeuronName = "1" targetNeuronName = "12" weight = "-0.6643842669251478" />
    <synapse sourceNeuronName = "1" targetNeuronName = "13" weight = "0.12368101906089746" />
    <synapse sourceNeuronName = "1" targetNeuronName = "14" weight = "-0.278017250142359" />
    <synapse sourceNeuronName = "1" targetNeuronName = "15" weight = "-0.40096969877475797" />
    <synapse sourceNeuronName = "1" targetNeuronName = "16" weight = "-0.949902786022164" />
    <synapse sourceNeuronName = "2" targetNeuronName = "9" weight = "0.6124939905388354" />
    <synapse sourceNeuronName = "2" targetNeuronName = "10" weight = "-0.5357146411063056" />
    <synapse sourceNeuronName = "2" targetNeuronName = "11" weight = "-0.11556426888639071" />
    <synapse sourceNeuronName = "2" targetNeuronName = "12" weight = "-0.20768899589500123" />
    <synapse sourceNeuronName = "2" targetNeuronName = "13" weight = "-0.7767691801585979" />
    <synapse sourceNeuronName = "2" targetNeuronName = "14" weight = "-0.6009490167145246" />
    <synapse sourceNeuronName = "2" targetNeuronName = "15" weight = "0.39470251450529914" />
    <synapse sourceNeuronName = "2" targetNeuronName = "16" weight = "0.7278933041863374" />
    <synapse sourceNeuronName = "3" targetNeuronName = "9" weight = "-0.1416088280564547" />
    <synapse sourceNeuronName = "3" targetNeuronName = "10" weight = "-0.7669822240265296" />
    <synapse sourceNeuronName = "3" targetNeuronName = "11" weight = "0.7590497285370077" />
    <synapse sourceNeuronName = "3" targetNeuronName = "12" weight = "-0.6750873238416621" />
    <synapse sourceNeuronName = "3" targetNeuronName = "13" weight = "-0.2529437506047889" />
    <synapse sourceNeuronName = "3" targetNeuronName = "14" weight = "0.9660825633324739" />
    <synapse sourceNeuronName = "3" targetNeuronName = "15" weight = "0.5685268557089098" />
    <synapse sourceNeuronName = "3" targetNeuronName = "16" weight = "-0.34024779807867533" />
    <synapse sourceNeuronName = "4" targetNeuronName = "9" weight = "-0.42483423124267516" />
    <synapse sourceNeuronName = "4" targetNeuronName = "10" weight = "-0.6955359633489513" />
    <synapse sourceNeuronName = "4" targetNeuronName = "11" weight = "0.24060923495288433" />
    <synapse sourceNeuronName = "4" targetNeuronName = "12" weight = "0.6150021240265708" />
    <synapse sourceNeuronName = "4" targetNeuronName = "13" weight = "-0.21593893199892222" />
    <synapse sourceNeuronName = "4" targetNeuronName = "14" weight = "0.00027756169176629264" />
    <synapse sourceNeuronName = "4" targetNeuronName = "15" weight = "0.5922507263390424" />
    <synapse sourceNeuronName = "4" targetNeuronName = "16" weight = "-0.23351103947184826" />
    <synapse sourceNeuronName = "5" targetNeuronName = "9" weight = "-0.6393588115521887" />
    <synapse sourceNeuronName = "5" targetNeuronName = "10" weight = "0.4918138589896681" />
    <synapse sourceNeuronName = "5" targetNeuronName = "11" weight = "-0.07816172916328523" />
    <synapse sourceNeuronName = "5" targetNeuronName = "12" weight = "0.672998562291119" />
    <synapse sourceNeuronName = "5" targetNeuronName = "13" weight = "0.4112015046607871" />
    <synapse sourceNeuronName = "5" targetNeuronName = "14" weight = "0.004688482651800108" />
    <synapse sourceNeuronName = "5" targetNeuronName = "15" weight = "-0.06410554250666478" />
    <synapse sourceNeuronName = "5" targetNeuronName = "16" weight = "0.5634981722731198" />
    <synapse sourceNeuronName = "6" targetNeuronName = "9" weight = "-0.9191180667326899" />
    <synapse sourceNeuronName = "6" targetNeuronName = "10" weight = "0.2470939735455977" />
    <synapse sourceNeuronName = "6" targetNeuronName = "11" weight = "-0.6148453262127134" />
    <synapse sourceNeuronName = "6" targetNeuronName = "12" weight = "0.04381478530680116" />
    <synapse sourceNeuronName = "6" targetNeuronName = "13" weight = "0.8620688841834077" />
    <synapse sourceNeuronName = "6" targetNeuronName = "14" weight = "0.5829535411065925" />
    <synapse sourceNeuronName = "6" targetNeuronName = "15" weight = "-0.2027838547747518" />
    <synapse sourceNeuronName = "6" targetNeuronName = "16" weight = "-0.3604217500728213" />
    <synapse sourceNeuronName = "7" targetNeuronName = "9" weight = "-0.07530246213149039" />
    <synapse sourceNeuronName = "7" targetNeuronName = "10" weight = "0.594119716540378" />
    <synapse sourceNeuronName = "7" targetNeuronName = "11" weight = "-0.23594779839407876" />
    <synapse sourceNeuronName = "7" targetNeuronName = "12" weight = "0.7649291302364813" />
    <synapse sourceNeuronName = "7" targetNeuronName = "13" weight = "0.9636688257686068" />
    <synapse sourceNeuronName = "7" targetNeuronName = "14" weight = "0.1935228830379485" />
    <synapse sourceNeuronName = "7" targetNeuronName = "15" weight = "-0.8615899857263352" />
    <synapse sourceNeuronName = "7" targetNeuronName = "16" weight = "0.6472531191562103" />
    <synapse sourceNeuronName = "8" targetNeuronName = "9" weight = "-0.7919392967769392" />
    <synapse sourceNeuronName = "8" targetNeuronName = "10" weight = "-0.9899456854746533" />
    <synapse sourceNeuronName = "8" targetNeuronName = "11" weight = "0.8289605503555482" />
    <synapse sourceNeuronName = "8" targetNeuronName = "12" weight = "-0.20259453613487222" />
    <synapse sourceNeuronName = "8" targetNeuronName = "13" weight = "0.17567137724561888" />
    <synapse sourceNeuronName = "8" targetNeuronName = "14" weight = "0.20526194218280502" />
    <synapse sourceNeuronName = "8" targetNeuronName = "15" weight = "-0.7265291846382913" />
    <synapse sourceNeuronName = "8" targetNeuronName = "16" weight = "0.7072685640887519" />
</neuralNetwork>