<neuralNetwork>
    <neuron name = "0" type = "sensor" linkName = "Torso" />
    <neuron name = "1" type = "sensor" linkName = "BackLeg" />
    <neuron name = "2" type = "sensor" linkName = "FrontLeg" />
    <neuron name = "3" type = "sensor" linkName = "LeftLeg" />
    <neuron name = "4" type = "sensor" linkName = "RightLeg" />
    <neuron name = "5" type = "sensor" linkName = "BackLowerLeg" />
    <neuron name = "6" type = "sensor" linkName = "FrontLowerLeg" />
    <neuron name = "7" type = "sensor" linkName = "LeftLowerLeg" />
    <neuron name = "8" type = "sensor" linkName = "RightLowerLeg" />
    <neuron name = "9" type = "motor"  jointName = "Torso_BackLeg" />
    <neuron name = "10" type = "motor"  jointName = "Torso_FrontLeg" />
    <neuron name = "11" type = "motor"  jointName = "Torso_LeftLeg" />
    <neuron name = "12" type = "motor"  jointName = "Torso_RightLeg" />
    <neuron name = "13" type = "motor"  jointName = "BackLeg_BackLowerLeg" />
    <neuron name = "14" type = "motor"  jointName = "FrontLeg_FrontLowerLeg" />
    <neuron name = "15" type = "motor"  jointName = "LeftLeg_LeftLowerLeg" />
    <neuron name = "16" type = "motor"  jointName = "RightLeg_RightLowerLeg" />
    <synapse sourceNeuronName = "0" targetNeuronName = "9" weight = "0.051921358810545604" />
    <synapse sourceNeuronName = "0" targetNeuronName = "10" weight = "-0.5980145961121262" />
    <synapse sourceNeuronName = "0" targetNeuronName = "11" weight = "0.48740752769737816" />
    <synapse sourceNeuronName = "0" targetNeuronName = "12" weight = "-0.4305975692778663" />
    <synapse sourceNeuronName = "0" targetNeuronName = "13" weight = "-0.9879600771434693" />
    <synapse sourceNeuronName = "0" targetNeuronName = "14" weight = "-0.9608466374307887" />
    <synapse sourceNeuronName = "0" targetNeuronName = "15" weight = "-0.2283102191588795" />
    <synapse sourceNeuronName = "0" targetNeuronName = "16" weight = "0.08242810789643062" />
    <synapse sourceNeuronName = "1" targetNeuronName = "9" weight = "0.06113935747994814" />
    <synapse sourceNeuronName = "1" targetNeuronName = "10" weight = "-0.2906630280795639" />
    <synapse sourceNeuronName = "1" targetNeuronName = "11" weight = "-0.4712012032314694" />
    <synapse sourceNeuronName = "1" targetNeuronName = "12" weight = "0.7940239465562715" />
    <synapse sourceNeuronName = "1" targetNeuronName = "13" weight = "-0.9997278878580769" />
    <synapse sourceNeuronName = "1" targetNeuronName = "14" weight = "0.9337782495505655" />
    <synapse sourceNeuronName = "1" targetNeuronName = "15" weight = "-0.815386311689418" />
    <synapse sourceNeuronName = "1" targetNeuronName = "16" weight = "0.4107836813844872" />
    <synapse sourceNeuronName = "2" targetNeuronName = "9" weight = "-0.25434253126714546" />
    <synapse sourceNeuronName = "2" targetNeuronName = "10" weight = "-0.24701632918837357" />
    <synapse sourceNeuronName = "2" targetNeuronName = "11" weight = "-0.4963122449688371" />
    <synapse sourceNeuronName = "2" targetNeuronName = "12" weight = "-0.1573072994744209" />
    <synapse sourceNeuronName = "2" targetNeuronName = "13" weight = "0.6047893771067718" />
    <synapse sourceNeuronName = "2" targetNeuronName = "14" weight = "0.5965179956428828" />
    <synapse sourceNeuronName = "2" targetNeuronName = "15" weight = "0.1334464416968617" />
    <synapse sourceNeuronName = "2" targetNeuronName = "16" weight = "0.2936644503995116" />
    <synapse sourceNeuronName = "3" targetNeuronName = "9" weight = "0.34042960831244695" />
    <synapse sourceNeuronName = "3" targetNeuronName = "10" weight = "0.9075129813700538" />
    <synapse sourceNeuronName = "3" targetNeuronName = "11" weight = "0.2385896184910119" />
    <synapse sourceNeuronName = "3" targetNeuronName = "12" weight = "-0.17403655522285066" />
    <synapse sourceNeuronName = "3" targetNeuronName = "13" weight = "0.6770106824037576" />
    <synapse sourceNeuronName = "3" targetNeuronName = "14" weight = "-0.09571824001187124" />
    <synapse sourceNeuronName = "3" targetNeuronName = "15" weight = "-0.5644525479676754" />
    <synapse sourceNeuronName = "3" targetNeuronName = "16" weight = "-0.9495006715226098" />
    <synapse sourceNeuronName = "4" targetNeuronName = "9" weight = "-0.8728018002402325" />
    <synapse sourceNeuronName = "4" targetNeuronName = "10" weight = "0.9847285902943177" />
    <synapse sourceNeuronName = "4" targetNeuronName = "11" weight = "0.9266136135732008" />
    <synapse sourceNeuronName = "4" targetNeuronName = "12" weight = "0.28752493288625125" />
    <synapse sourceNeuronName = "4" targetNeuronName = "13" weight = "-0.9367888925203991" />
    <synapse sourceNeuronName = "4" targetNeuronName = "14" weight = "0.08433495581456518" />
    <synapse sourceNeuronName = "4" targetNeuronName = "15" weight = "-0.5854710361565976" />
    <synapse sourceNeuronName = "4" targetNeuronName = "16" weight = "0.7622133259669612" />
    <synapse sourceNeuronName = "5" targetNeuronName = "9" weight = "0.8192963313663977" />
    <synapse sourceNeuronName = "5" targetNeuronName = "10" weight = "0.4114678227508717" />
    <synapse sourceNeuronName = "5" targetNeuronName = "11" weight = "0.3534245338821027" />
    <synapse sourceNeuronName = "5" targetNeuronName = "12" weight = "0.6578508695565017" />
    <synapse sourceNeuronName = "5" targetNeuronName = "13" weight = "-0.4198973938150261" />
    <synapse sourceNeuronName = "5" targetNeuronName = "14" weight = "-0.14870484575835885" />
    <synapse sourceNeuronName = "5" targetNeuronName = "15" weight = "-0.6299184933169104" />
    <synapse sourceNeuronName = "5" targetNeuronName = "16" weight = "-0.6185993116935031" />
    <synapse sourceNeuronName = "6" targetNeuronName = "9" weight = "0.49083686037608576" />
    <synapse sourceNeuronName = "6" targetNeuronName = "10" weight = "0.41848953556240254" />
    <synapse sourceNeuronName = "6" targetNeuronName = "11" weight = "-0.9061203228062136" />
    <synapse sourceNeuronName = "6" targetNeuronName = "12" weight = "0.20653692699110593" />
    <synapse sourceNeuronName = "6" targetNeuronName = "13" weight = "0.5886364320467634" />
    <synapse sourceNeuronName = "6" targetNeuronName = "14" weight = "0.31157820957390103" />
    <synapse sourceNeuronName = "6" targetNeuronName = "15" weight = "-0.0176833792230493" />
    <synapse sourceNeuronName = "6" targetNeuronName = "16" weight = "0.09141405665424829" />
    <synapse sourceNeuronName = "7" targetNeuronName = "9" weight = "-0.7031219299997302" />
    <synapse sourceNeuronName = "7" targetNeuronName = "10" weight = "0.18924325997080782" />
    <synapse sourceNeuronName = "7" targetNeuronName = "11" weight = "0.25671014853095286" />
    <synapse sourceNeuronName = "7" targetNeuronName = "12" weight = "-0.9457280019269303" />
    <synapse sourceNeuronName = "7" targetNeuronName = "13" weight = "0.9323949737672048" />
    <synapse sourceNeuronName = "7" targetNeuronName = "14" weight = "0.5709547460682649" />
    <synapse sourceNeuronName = "7" targetNeuronName = "15" weight = "-0.15597714812812313" />
    <synapse sourceNeuronName = "7" targetNeuronName = "16" weight = "-0.7566766240353302" />
    <synapse sourceNeuronName = "8" targetNeuronName = "9" weight = "-0.12659245637760108" />
    <synapse sourceNeuronName = "8" targetNeuronName = "10" weight = "-0.13935193268701962" />
    <synapse sourceNeuronName = "8" targetNeuronName = "11" weight = "0.5130401006151764" />
    <synapse sourceNeuronName = "8" targetNeuronName = "12" weight = "0.5191236345724193" />
    <synapse sourceNeuronName = "8" targetNeuronName = "13" weight = "0.5060357400925208" />
    <synapse sourceNeuronName = "8" targetNeuronName = "14" weight = "0.6222448648658103" />
    <synapse sourceNeuronName = "8" targetNeuronName = "15" weight = "0.6395534125106428" />
    <synapse sourceNeuronName = "8" targetNeuronName = "16" weight = "0.8331560140235914" />
</neuralNetwork>