<neuralNetwork>
    <neuron name = "0" type = "sensor" linkName = "Torso" />
    <neuron name = "1" type = "sensor" linkName = "BackLeg" />
    <neuron name = "2" type = "sensor" linkName = "FrontLeg" />
    <neuron name = "3" type = "sensor" linkName = "LeftLeg" />
    <neuron name = "4" type = "sensor" linkName = "RightLeg" />
    <neuron name = "5" type = "sensor" linkName = "BackLowerLeg" />
    <neuron name = "6" type = "sensor" linkName = "FrontLowerLeg" />
    <neuron name = "7" type = "sensor" linkName = "LeftLowerLeg" />
    <neuron name = "8" type = "sensor" linkName = "RightLowerLeg" />
    <neuron name = "9" type = "motor"  jointName = "Torso_BackLeg" />
    <neuron name = "10" type = "motor"  jointName = "Torso_FrontLeg" />
    <neuron name = "11" type = "motor"  jointName = "Torso_LeftLeg" />
    <neuron name = "12" type = "motor"  jointName = "Torso_RightLeg" />
    <neuron name = "13" type = "motor"  jointName = "BackLeg_BackLowerLeg" />
    <neuron name = "14" type = "motor"  jointName = "FrontLeg_FrontLowerLeg" />
    <neuron name = "15" type = "motor"  jointName = "LeftLeg_LeftLowerLeg" />
    <neuron name = "16" type = "motor"  jointName = "RightLeg_RightLowerLeg" />
    <synapse sourceNeuronName = "0" targetNeuronName = "9" weight = "-0.33223748066145053" />
    <synapse sourceNeuronName = "0" targetNeuronName = "10" weight = "0.25003862903839247" />
    <synapse sourceNeuronName = "0" targetNeuronName = "11" weight = "-0.4522755474671267" />
    <synapse sourceNeuronName = "0" targetNeuronName = "12" weight = "0.0610615938661343" />
    <synapse sourceNeuronName = "0" targetNeuronName = "13" weight = "0.022469842131208395" />
    <synapse sourceNeuronName = "0" targetNeuronName = "14" weight = "-0.1333671106924783" />
    <synapse sourceNeuronName = "0" targetNeuronName = "15" weight = "0.7150154944816127" />
    <synapse sourceNeuronName = "0" targetNeuronName = "16" weight = "0.8539501781138186" />
    <synapse sourceNeuronName = "1" targetNeuronName = "9" weight = "-0.8022965355887455" />
    <synapse sourceNeuronName = "1" targetNeuronName = "10" weight = "0.6400688095055886" />
    <synapse sourceNeuronName = "1" targetNeuronName = "11" weight = "-0.3230996809135691" />
    <synapse sourceNeuronName = "1" targetNeuronName = "12" weight = "0.30866064734136867" />
    <synapse sourceNeuronName = "1" targetNeuronName = "13" weight = "-0.35826642370594963" />
    <synapse sourceNeuronName = "1" targetNeuronName = "14" weight = "-0.31285858369824604" />
    <synapse sourceNeuronName = "1" targetNeuronName = "15" weight = "-0.35033358131276926" />
    <synapse sourceNeuronName = "1" targetNeuronName = "16" weight = "-0.7869642866574189" />
    <synapse sourceNeuronName = "2" targetNeuronName = "9" weight = "0.6269304714585988" />
    <synapse sourceNeuronName = "2" targetNeuronName = "10" weight = "0.7977207307585552" />
    <synapse sourceNeuronName = "2" targetNeuronName = "11" weight = "-0.12032860955707236" />
    <synapse sourceNeuronName = "2" targetNeuronName = "12" weight = "-0.42794957884749385" />
    <synapse sourceNeuronName = "2" targetNeuronName = "13" weight = "-0.70332147393894" />
    <synapse sourceNeuronName = "2" targetNeuronName = "14" weight = "0.29780945715907503" />
    <synapse sourceNeuronName = "2" targetNeuronName = "15" weight = "0.11989846120147218" />
    <synapse sourceNeuronName = "2" targetNeuronName = "16" weight = "0.8644516612490216" />
    <synapse sourceNeuronName = "3" targetNeuronName = "9" weight = "-0.7880587471603449" />
    <synapse sourceNeuronName = "3" targetNeuronName = "10" weight = "0.12395053011877732" />
    <synapse sourceNeuronName = "3" targetNeuronName = "11" weight = "0.6225443458830584" />
    <synapse sourceNeuronName = "3" targetNeuronName = "12" weight = "0.5784206561268448" />
    <synapse sourceNeuronName = "3" targetNeuronName = "13" weight = "-0.22670737012647035" />
    <synapse sourceNeuronName = "3" targetNeuronName = "14" weight = "-0.029157110003857456" />
    <synapse sourceNeuronName = "3" targetNeuronName = "15" weight = "-0.7110723820634339" />
    <synapse sourceNeuronName = "3" targetNeuronName = "16" weight = "-0.6875241893668702" />
    <synapse sourceNeuronName = "4" targetNeuronName = "9" weight = "-0.6466618668095305" />
    <synapse sourceNeuronName = "4" targetNeuronName = "10" weight = "0.9296728202602813" />
    <synapse sourceNeuronName = "4" targetNeuronName = "11" weight = "-0.9118671751671863" />
    <synapse sourceNeuronName = "4" targetNeuronName = "12" weight = "0.4778565082938442" />
    <synapse sourceNeuronName = "4" targetNeuronName = "13" weight = "-0.1428731839509776" />
    <synapse sourceNeuronName = "4" targetNeuronName = "14" weight = "-0.5362659885912533" />
    <synapse sourceNeuronName = "4" targetNeuronName = "15" weight = "0.3712811233738216" />
    <synapse sourceNeuronName = "4" targetNeuronName = "16" weight = "0.12428461756286269" />
    <synapse sourceNeuronName = "5" targetNeuronName = "9" weight = "0.23991780465599422" />
    <synapse sourceNeuronName = "5" targetNeuronName = "10" weight = "-0.38939856432071385" />
    <synapse sourceNeuronName = "5" targetNeuronName = "11" weight = "0.08224027648207466" />
    <synapse sourceNeuronName = "5" targetNeuronName = "12" weight = "0.08723198186493697" />
    <synapse sourceNeuronName = "5" targetNeuronName = "13" weight = "-0.5902143219990255" />
    <synapse sourceNeuronName = "5" targetNeuronName = "14" weight = "0.7161617289492594" />
    <synapse sourceNeuronName = "5" targetNeuronName = "15" weight = "-0.7727781732978258" />
    <synapse sourceNeuronName = "5" targetNeuronName = "16" weight = "-0.42416842661788823" />
    <synapse sourceNeuronName = "6" targetNeuronName = "9" weight = "0.7637614055403721" />
    <synapse sourceNeuronName = "6" targetNeuronName = "10" weight = "-0.8472060421829675" />
    <synapse sourceNeuronName = "6" targetNeuronName = "11" weight = "0.3078486607602744" />
    <synapse sourceNeuronName = "6" targetNeuronName = "12" weight = "-0.5327291852895222" />
    <synapse sourceNeuronName = "6" targetNeuronName = "13" weight = "-0.39854467824236406" />
    <synapse sourceNeuronName = "6" targetNeuronName = "14" weight = "0.1526090940788094" />
    <synapse sourceNeuronName = "6" targetNeuronName = "15" weight = "0.35254419156718564" />
    <synapse sourceNeuronName = "6" targetNeuronName = "16" weight = "0.5647662066121284" />
    <synapse sourceNeuronName = "7" targetNeuronName = "9" weight = "0.896627903454398" />
    <synapse sourceNeuronName = "7" targetNeuronName = "10" weight = "0.09659861276602433" />
    <synapse sourceNeuronName = "7" targetNeuronName = "11" weight = "0.6265449507530156" />
    <synapse sourceNeuronName = "7" targetNeuronName = "12" weight = "-0.028265488905030667" />
    <synapse sourceNeuronName = "7" targetNeuronName = "13" weight = "0.8489405359504274" />
    <synapse sourceNeuronName = "7" targetNeuronName = "14" weight = "-0.7219006415035762" />
    <synapse sourceNeuronName = "7" targetNeuronName = "15" weight = "0.9921676155129104" />
    <synapse sourceNeuronName = "7" targetNeuronName = "16" weight = "0.263527815216978" />
    <synapse sourceNeuronName = "8" targetNeuronName = "9" weight = "-0.31046006757703193" />
    <synapse sourceNeuronName = "8" targetNeuronName = "10" weight = "-0.21089065433426657" />
    <synapse sourceNeuronName = "8" targetNeuronName = "11" weight = "0.8656896633028046" />
    <synapse sourceNeuronName = "8" targetNeuronName = "12" weight = "0.6248422834010643" />
    <synapse sourceNeuronName = "8" targetNeuronName = "13" weight = "0.7556770249162654" />
    <synapse sourceNeuronName = "8" targetNeuronName = "14" weight = "0.16059926979567796" />
    <synapse sourceNeuronName = "8" targetNeuronName = "15" weight = "-0.7953820878572941" />
    <synapse sourceNeuronName = "8" targetNeuronName = "16" weight = "-0.9047496646636435" />
</neuralNetwork>