<neuralNetwork>
    <neuron name = "0" type = "sensor" linkName = "Torso" />
    <neuron name = "1" type = "sensor" linkName = "BackLeg" />
    <neuron name = "2" type = "sensor" linkName = "FrontLeg" />
    <neuron name = "3" type = "sensor" linkName = "LeftLeg" />
    <neuron name = "4" type = "sensor" linkName = "RightLeg" />
    <neuron name = "5" type = "sensor" linkName = "BackLowerLeg" />
    <neuron name = "6" type = "sensor" linkName = "FrontLowerLeg" />
    <neuron name = "7" type = "sensor" linkName = "LeftLowerLeg" />
    <neuron name = "8" type = "sensor" linkName = "RightLowerLeg" />
    <neuron name = "9" type = "motor"  jointName = "Torso_BackLeg" />
    <neuron name = "10" type = "motor"  jointName = "Torso_FrontLeg" />
    <neuron name = "11" type = "motor"  jointName = "Torso_LeftLeg" />
    <neuron name = "12" type = "motor"  jointName = "Torso_RightLeg" />
    <neuron name = "13" type = "motor"  jointName = "BackLeg_BackLowerLeg" />
    <neuron name = "14" type = "motor"  jointName = "FrontLeg_FrontLowerLeg" />
    <neuron name = "15" type = "motor"  jointName = "LeftLeg_LeftLowerLeg" />
    <neuron name = "16" type = "motor"  jointName = "RightLeg_RightLowerLeg" />
    <synapse sourceNeuronName = "0" targetNeuronName = "9" weight = "-0.5434994791522461" />
    <synapse sourceNeuronName = "0" targetNeuronName = "10" weight = "0.8749172712069644" />
    <synapse sourceNeuronName = "0" targetNeuronName = "11" weight = "-0.1703104890798195" />
    <synapse sourceNeuronName = "0" targetNeuronName = "12" weight = "-0.5854488146032684" />
    <synapse sourceNeuronName = "0" targetNeuronName = "13" weight = "-0.8510703379502071" />
    <synapse sourceNeuronName = "0" targetNeuronName = "14" weight = "-0.3751832211860824" />
    <synapse sourceNeuronName = "0" targetNeuronName = "15" weight = "0.9300891950695687" />
    <synapse sourceNeuronName = "0" targetNeuronName = "16" weight = "-0.2351870100317468" />
    <synapse sourceNeuronName = "1" targetNeuronName = "9" weight = "-0.6495232373883515" />
    <synapse sourceNeuronName = "1" targetNeuronName = "10" weight = "0.9197174721776396" />
    <synapse sourceNeuronName = "1" targetNeuronName = "11" weight = "-0.28367533671298917" />
    <synapse sourceNeuronName = "1" targetNeuronName = "12" weight = "-0.4472194748927898" />
    <synapse sourceNeuronName = "1" targetNeuronName = "13" weight = "-0.5635585624418624" />
    <synapse sourceNeuronName = "1" targetNeuronName = "14" weight = "-0.7595188074726109" />
    <synapse sourceNeuronName = "1" targetNeuronName = "15" weight = "-0.16127985904027597" />
    <synapse sourceNeuronName = "1" targetNeuronName = "16" weight = "0.7006849262550536" />
    <synapse sourceNeuronName = "2" targetNeuronName = "9" weight = "0.27006843216041787" />
    <synapse sourceNeuronName = "2" targetNeuronName = "10" weight = "-0.3520783205181657" />
    <synapse sourceNeuronName = "2" targetNeuronName = "11" weight = "0.47687270413115224" />
    <synapse sourceNeuronName = "2" targetNeuronName = "12" weight = "-0.7876084362738611" />
    <synapse sourceNeuronName = "2" targetNeuronName = "13" weight = "0.5837588280988788" />
    <synapse sourceNeuronName = "2" targetNeuronName = "14" weight = "-0.967188831642954" />
    <synapse sourceNeuronName = "2" targetNeuronName = "15" weight = "0.8920262248523614" />
    <synapse sourceNeuronName = "2" targetNeuronName = "16" weight = "0.5374135489551841" />
    <synapse sourceNeuronName = "3" targetNeuronName = "9" weight = "0.8957082678980466" />
    <synapse sourceNeuronName = "3" targetNeuronName = "10" weight = "0.23691545330442088" />
    <synapse sourceNeuronName = "3" targetNeuronName = "11" weight = "0.19143996711742117" />
    <synapse sourceNeuronName = "3" targetNeuronName = "12" weight = "0.6859563893877716" />
    <synapse sourceNeuronName = "3" targetNeuronName = "13" weight = "-0.2911719596429594" />
    <synapse sourceNeuronName = "3" targetNeuronName = "14" weight = "0.00933166939651131" />
    <synapse sourceNeuronName = "3" targetNeuronName = "15" weight = "-0.6487557042152379" />
    <synapse sourceNeuronName = "3" targetNeuronName = "16" weight = "0.6545777252866691" />
    <synapse sourceNeuronName = "4" targetNeuronName = "9" weight = "0.7005159417146816" />
    <synapse sourceNeuronName = "4" targetNeuronName = "10" weight = "-0.6664839385277359" />
    <synapse sourceNeuronName = "4" targetNeuronName = "11" weight = "-0.5211152850590657" />
    <synapse sourceNeuronName = "4" targetNeuronName = "12" weight = "-0.5626302134598498" />
    <synapse sourceNeuronName = "4" targetNeuronName = "13" weight = "-0.8807798466060817" />
    <synapse sourceNeuronName = "4" targetNeuronName = "14" weight = "-0.5784067883551307" />
    <synapse sourceNeuronName = "4" targetNeuronName = "15" weight = "0.057442614546528104" />
    <synapse sourceNeuronName = "4" targetNeuronName = "16" weight = "0.30303658757435836" />
    <synapse sourceNeuronName = "5" targetNeuronName = "9" weight = "-0.13915195086489374" />
    <synapse sourceNeuronName = "5" targetNeuronName = "10" weight = "0.6242215803704563" />
    <synapse sourceNeuronName = "5" targetNeuronName = "11" weight = "-0.8359353867493642" />
    <synapse sourceNeuronName = "5" targetNeuronName = "12" weight = "0.23285140342269206" />
    <synapse sourceNeuronName = "5" targetNeuronName = "13" weight = "0.29406191310179364" />
    <synapse sourceNeuronName = "5" targetNeuronName = "14" weight = "0.06787195571749383" />
    <synapse sourceNeuronName = "5" targetNeuronName = "15" weight = "0.8440692186981997" />
    <synapse sourceNeuronName = "5" targetNeuronName = "16" weight = "0.3319053296957073" />
    <synapse sourceNeuronName = "6" targetNeuronName = "9" weight = "-0.11146250564095284" />
    <synapse sourceNeuronName = "6" targetNeuronName = "10" weight = "0.38705371882784845" />
    <synapse sourceNeuronName = "6" targetNeuronName = "11" weight = "0.48419955698070116" />
    <synapse sourceNeuronName = "6" targetNeuronName = "12" weight = "-0.7712505432287655" />
    <synapse sourceNeuronName = "6" targetNeuronName = "13" weight = "-0.5002918304189823" />
    <synapse sourceNeuronName = "6" targetNeuronName = "14" weight = "0.2011099794912572" />
    <synapse sourceNeuronName = "6" targetNeuronName = "15" weight = "0.5726164771545263" />
    <synapse sourceNeuronName = "6" targetNeuronName = "16" weight = "0.8711726791759604" />
    <synapse sourceNeuronName = "7" targetNeuronName = "9" weight = "-0.6693087142319947" />
    <synapse sourceNeuronName = "7" targetNeuronName = "10" weight = "0.12153605929647426" />
    <synapse sourceNeuronName = "7" targetNeuronName = "11" weight = "0.36439637500453714" />
    <synapse sourceNeuronName = "7" targetNeuronName = "12" weight = "-0.995020054291968" />
    <synapse sourceNeuronName = "7" targetNeuronName = "13" weight = "0.1861566501050722" />
    <synapse sourceNeuronName = "7" targetNeuronName = "14" weight = "0.3752533137263818" />
    <synapse sourceNeuronName = "7" targetNeuronName = "15" weight = "0.23525558035284244" />
    <synapse sourceNeuronName = "7" targetNeuronName = "16" weight = "-0.2868496666241249" />
    <synapse sourceNeuronName = "8" targetNeuronName = "9" weight = "0.44472030539328267" />
    <synapse sourceNeuronName = "8" targetNeuronName = "10" weight = "0.21770183683756805" />
    <synapse sourceNeuronName = "8" targetNeuronName = "11" weight = "0.6422163235305236" />
    <synapse sourceNeuronName = "8" targetNeuronName = "12" weight = "-0.8158101649458778" />
    <synapse sourceNeuronName = "8" targetNeuronName = "13" weight = "-0.11872546024234487" />
    <synapse sourceNeuronName = "8" targetNeuronName = "14" weight = "0.24808066482069502" />
    <synapse sourceNeuronName = "8" targetNeuronName = "15" weight = "-0.8860358346660309" />
    <synapse sourceNeuronName = "8" targetNeuronName = "16" weight = "-0.49221368990104164" />
</neuralNetwork>