<neuralNetwork>
    <neuron name = "0" type = "sensor" linkName = "Torso" />
    <neuron name = "1" type = "sensor" linkName = "BackLeg" />
    <neuron name = "2" type = "sensor" linkName = "FrontLeg" />
    <neuron name = "3" type = "sensor" linkName = "LeftLeg" />
    <neuron name = "4" type = "sensor" linkName = "RightLeg" />
    <neuron name = "5" type = "sensor" linkName = "BackLowerLeg" />
    <neuron name = "6" type = "sensor" linkName = "FrontLowerLeg" />
    <neuron name = "7" type = "sensor" linkName = "LeftLowerLeg" />
    <neuron name = "8" type = "sensor" linkName = "RightLowerLeg" />
    <neuron name = "9" type = "motor"  jointName = "Torso_BackLeg" />
    <neuron name = "10" type = "motor"  jointName = "Torso_FrontLeg" />
    <neuron name = "11" type = "motor"  jointName = "Torso_LeftLeg" />
    <neuron name = "12" type = "motor"  jointName = "Torso_RightLeg" />
    <neuron name = "13" type = "motor"  jointName = "BackLeg_BackLowerLeg" />
    <neuron name = "14" type = "motor"  jointName = "FrontLeg_FrontLowerLeg" />
    <neuron name = "15" type = "motor"  jointName = "LeftLeg_LeftLowerLeg" />
    <neuron name = "16" type = "motor"  jointName = "RightLeg_RightLowerLeg" />
    <synapse sourceNeuronName = "0" targetNeuronName = "9" weight = "-0.3804835293413342" />
    <synapse sourceNeuronName = "0" targetNeuronName = "10" weight = "0.3037869367356134" />
    <synapse sourceNeuronName = "0" targetNeuronName = "11" weight = "-0.8724313611451466" />
    <synapse sourceNeuronName = "0" targetNeuronName = "12" weight = "-0.4087761593072292" />
    <synapse sourceNeuronName = "0" targetNeuronName = "13" weight = "0.5350618197591406" />
    <synapse sourceNeuronName = "0" targetNeuronName = "14" weight = "0.6352476308101351" />
    <synapse sourceNeuronName = "0" targetNeuronName = "15" weight = "0.15033326438664285" />
    <synapse sourceNeuronName = "0" targetNeuronName = "16" weight = "0.7407190900111844" />
    <synapse sourceNeuronName = "1" targetNeuronName = "9" weight = "-0.08879511216546154" />
    <synapse sourceNeuronName = "1" targetNeuronName = "10" weight = "-0.5536924009135038" />
    <synapse sourceNeuronName = "1" targetNeuronName = "11" weight = "0.5086240685762602" />
    <synapse sourceNeuronName = "1" targetNeuronName = "12" weight = "0.5635776595342239" />
    <synapse sourceNeuronName = "1" targetNeuronName = "13" weight = "0.6351706661903918" />
    <synapse sourceNeuronName = "1" targetNeuronName = "14" weight = "-0.20864566020290964" />
    <synapse sourceNeuronName = "1" targetNeuronName = "15" weight = "0.7389442086911726" />
    <synapse sourceNeuronName = "1" targetNeuronName = "16" weight = "-0.47114761944116523" />
    <synapse sourceNeuronName = "2" targetNeuronName = "9" weight = "-0.21419020829490543" />
    <synapse sourceNeuronName = "2" targetNeuronName = "10" weight = "0.6571398191058433" />
    <synapse sourceNeuronName = "2" targetNeuronName = "11" weight = "-0.6811669281717498" />
    <synapse sourceNeuronName = "2" targetNeuronName = "12" weight = "-0.15239781480589842" />
    <synapse sourceNeuronName = "2" targetNeuronName = "13" weight = "-0.33837578235475174" />
    <synapse sourceNeuronName = "2" targetNeuronName = "14" weight = "0.4171857572898945" />
    <synapse sourceNeuronName = "2" targetNeuronName = "15" weight = "-0.1764984672280594" />
    <synapse sourceNeuronName = "2" targetNeuronName = "16" weight = "0.9010193734474534" />
    <synapse sourceNeuronName = "3" targetNeuronName = "9" weight = "0.3750744295203745" />
    <synapse sourceNeuronName = "3" targetNeuronName = "10" weight = "-0.2792304415116187" />
    <synapse sourceNeuronName = "3" targetNeuronName = "11" weight = "-0.42254073086428035" />
    <synapse sourceNeuronName = "3" targetNeuronName = "12" weight = "-0.07686521467714047" />
    <synapse sourceNeuronName = "3" targetNeuronName = "13" weight = "0.1264977545060919" />
    <synapse sourceNeuronName = "3" targetNeuronName = "14" weight = "0.7108604412840454" />
    <synapse sourceNeuronName = "3" targetNeuronName = "15" weight = "-0.6787433503838305" />
    <synapse sourceNeuronName = "3" targetNeuronName = "16" weight = "-0.36842934663066007" />
    <synapse sourceNeuronName = "4" targetNeuronName = "9" weight = "0.33167061862117486" />
    <synapse sourceNeuronName = "4" targetNeuronName = "10" weight = "0.5610364799858065" />
    <synapse sourceNeuronName = "4" targetNeuronName = "11" weight = "0.812473572948913" />
    <synapse sourceNeuronName = "4" targetNeuronName = "12" weight = "0.07404771625904494" />
    <synapse sourceNeuronName = "4" targetNeuronName = "13" weight = "-0.1652258684242527" />
    <synapse sourceNeuronName = "4" targetNeuronName = "14" weight = "-0.29060430249587044" />
    <synapse sourceNeuronName = "4" targetNeuronName = "15" weight = "-0.6771570903702746" />
    <synapse sourceNeuronName = "4" targetNeuronName = "16" weight = "-0.035509317215992375" />
    <synapse sourceNeuronName = "5" targetNeuronName = "9" weight = "-0.12554307489254812" />
    <synapse sourceNeuronName = "5" targetNeuronName = "10" weight = "0.127157511179659" />
    <synapse sourceNeuronName = "5" targetNeuronName = "11" weight = "-0.8940418762314986" />
    <synapse sourceNeuronName = "5" targetNeuronName = "12" weight = "-0.4261954428937187" />
    <synapse sourceNeuronName = "5" targetNeuronName = "13" weight = "-0.5266804990875376" />
    <synapse sourceNeuronName = "5" targetNeuronName = "14" weight = "-0.9313855001081042" />
    <synapse sourceNeuronName = "5" targetNeuronName = "15" weight = "-0.7452477777645494" />
    <synapse sourceNeuronName = "5" targetNeuronName = "16" weight = "-0.6702053595151383" />
    <synapse sourceNeuronName = "6" targetNeuronName = "9" weight = "0.3740142855277848" />
    <synapse sourceNeuronName = "6" targetNeuronName = "10" weight = "0.6066463742752601" />
    <synapse sourceNeuronName = "6" targetNeuronName = "11" weight = "0.1416216779719488" />
    <synapse sourceNeuronName = "6" targetNeuronName = "12" weight = "-0.32241666312788864" />
    <synapse sourceNeuronName = "6" targetNeuronName = "13" weight = "0.842459765661359" />
    <synapse sourceNeuronName = "6" targetNeuronName = "14" weight = "0.14508836259173963" />
    <synapse sourceNeuronName = "6" targetNeuronName = "15" weight = "0.9600271678927996" />
    <synapse sourceNeuronName = "6" targetNeuronName = "16" weight = "-0.3096457908660264" />
    <synapse sourceNeuronName = "7" targetNeuronName = "9" weight = "0.8720394997356078" />
    <synapse sourceNeuronName = "7" targetNeuronName = "10" weight = "-0.7980453778869383" />
    <synapse sourceNeuronName = "7" targetNeuronName = "11" weight = "0.3690880566669552" />
    <synapse sourceNeuronName = "7" targetNeuronName = "12" weight = "0.8826350309813804" />
    <synapse sourceNeuronName = "7" targetNeuronName = "13" weight = "0.9007970273228578" />
    <synapse sourceNeuronName = "7" targetNeuronName = "14" weight = "0.08078049230912976" />
    <synapse sourceNeuronName = "7" targetNeuronName = "15" weight = "0.7537005571617836" />
    <synapse sourceNeuronName = "7" targetNeuronName = "16" weight = "-0.13998446300253908" />
    <synapse sourceNeuronName = "8" targetNeuronName = "9" weight = "-0.5696007282576288" />
    <synapse sourceNeuronName = "8" targetNeuronName = "10" weight = "-0.6328149734830089" />
    <synapse sourceNeuronName = "8" targetNeuronName = "11" weight = "-0.9421531362139619" />
    <synapse sourceNeuronName = "8" targetNeuronName = "12" weight = "-0.7226664031660643" />
    <synapse sourceNeuronName = "8" targetNeuronName = "13" weight = "0.41172239461779503" />
    <synapse sourceNeuronName = "8" targetNeuronName = "14" weight = "-0.8436249863449616" />
    <synapse sourceNeuronName = "8" targetNeuronName = "15" weight = "0.6818710466748374" />
    <synapse sourceNeuronName = "8" targetNeuronName = "16" weight = "0.29724628914791995" />
</neuralNetwork>