<neuralNetwork>
    <neuron name = "0" type = "sensor" linkName = "Torso" />
    <neuron name = "1" type = "sensor" linkName = "BackLeg" />
    <neuron name = "2" type = "sensor" linkName = "FrontLeg" />
    <neuron name = "3" type = "sensor" linkName = "LeftLeg" />
    <neuron name = "4" type = "sensor" linkName = "RightLeg" />
    <neuron name = "5" type = "sensor" linkName = "BackLowerLeg" />
    <neuron name = "6" type = "sensor" linkName = "FrontLowerLeg" />
    <neuron name = "7" type = "sensor" linkName = "LeftLowerLeg" />
    <neuron name = "8" type = "sensor" linkName = "RightLowerLeg" />
    <neuron name = "9" type = "motor"  jointName = "Torso_BackLeg" />
    <neuron name = "10" type = "motor"  jointName = "Torso_FrontLeg" />
    <neuron name = "11" type = "motor"  jointName = "Torso_LeftLeg" />
    <neuron name = "12" type = "motor"  jointName = "Torso_RightLeg" />
    <neuron name = "13" type = "motor"  jointName = "BackLeg_BackLowerLeg" />
    <neuron name = "14" type = "motor"  jointName = "FrontLeg_FrontLowerLeg" />
    <neuron name = "15" type = "motor"  jointName = "LeftLeg_LeftLowerLeg" />
    <neuron name = "16" type = "motor"  jointName = "RightLeg_RightLowerLeg" />
    <synapse sourceNeuronName = "0" targetNeuronName = "9" weight = "-0.30468654222165226" />
    <synapse sourceNeuronName = "0" targetNeuronName = "10" weight = "-0.11550868618309718" />
    <synapse sourceNeuronName = "0" targetNeuronName = "11" weight = "-0.6935378731170747" />
    <synapse sourceNeuronName = "0" targetNeuronName = "12" weight = "-0.02398930951954492" />
    <synapse sourceNeuronName = "0" targetNeuronName = "13" weight = "-0.8317253207291933" />
    <synapse sourceNeuronName = "0" targetNeuronName = "14" weight = "-0.6437361123828695" />
    <synapse sourceNeuronName = "0" targetNeuronName = "15" weight = "-0.7450575163009718" />
    <synapse sourceNeuronName = "0" targetNeuronName = "16" weight = "-0.30136279375063113" />
    <synapse sourceNeuronName = "1" targetNeuronName = "9" weight = "-0.5960619919743668" />
    <synapse sourceNeuronName = "1" targetNeuronName = "10" weight = "-0.3822065250353337" />
    <synapse sourceNeuronName = "1" targetNeuronName = "11" weight = "0.7971842381552621" />
    <synapse sourceNeuronName = "1" targetNeuronName = "12" weight = "-0.47638768439208556" />
    <synapse sourceNeuronName = "1" targetNeuronName = "13" weight = "-0.23496782683775996" />
    <synapse sourceNeuronName = "1" targetNeuronName = "14" weight = "0.0779346196012356" />
    <synapse sourceNeuronName = "1" targetNeuronName = "15" weight = "0.8655342782912532" />
    <synapse sourceNeuronName = "1" targetNeuronName = "16" weight = "0.22796519856596098" />
    <synapse sourceNeuronName = "2" targetNeuronName = "9" weight = "-0.9225252535116859" />
    <synapse sourceNeuronName = "2" targetNeuronName = "10" weight = "0.8343064555934421" />
    <synapse sourceNeuronName = "2" targetNeuronName = "11" weight = "-0.5763413296552702" />
    <synapse sourceNeuronName = "2" targetNeuronName = "12" weight = "-0.36572000462702214" />
    <synapse sourceNeuronName = "2" targetNeuronName = "13" weight = "-0.9718033106035855" />
    <synapse sourceNeuronName = "2" targetNeuronName = "14" weight = "-0.6407085750607653" />
    <synapse sourceNeuronName = "2" targetNeuronName = "15" weight = "0.3981455350852787" />
    <synapse sourceNeuronName = "2" targetNeuronName = "16" weight = "-0.2088251921108557" />
    <synapse sourceNeuronName = "3" targetNeuronName = "9" weight = "0.7866656859723042" />
    <synapse sourceNeuronName = "3" targetNeuronName = "10" weight = "-0.7906711505995387" />
    <synapse sourceNeuronName = "3" targetNeuronName = "11" weight = "-0.24986343919770349" />
    <synapse sourceNeuronName = "3" targetNeuronName = "12" weight = "-0.3892805019473955" />
    <synapse sourceNeuronName = "3" targetNeuronName = "13" weight = "0.9670762196944283" />
    <synapse sourceNeuronName = "3" targetNeuronName = "14" weight = "-0.9507267529409318" />
    <synapse sourceNeuronName = "3" targetNeuronName = "15" weight = "-0.8094428498714688" />
    <synapse sourceNeuronName = "3" targetNeuronName = "16" weight = "-0.7208630364410484" />
    <synapse sourceNeuronName = "4" targetNeuronName = "9" weight = "-0.9856224654999071" />
    <synapse sourceNeuronName = "4" targetNeuronName = "10" weight = "-0.8516761385293656" />
    <synapse sourceNeuronName = "4" targetNeuronName = "11" weight = "-0.24516831654191007" />
    <synapse sourceNeuronName = "4" targetNeuronName = "12" weight = "-0.14989050623596945" />
    <synapse sourceNeuronName = "4" targetNeuronName = "13" weight = "-0.7990734503319854" />
    <synapse sourceNeuronName = "4" targetNeuronName = "14" weight = "0.25570598717703397" />
    <synapse sourceNeuronName = "4" targetNeuronName = "15" weight = "-0.6820758880525919" />
    <synapse sourceNeuronName = "4" targetNeuronName = "16" weight = "0.01604410052646954" />
    <synapse sourceNeuronName = "5" targetNeuronName = "9" weight = "0.9120316539971027" />
    <synapse sourceNeuronName = "5" targetNeuronName = "10" weight = "0.6063922288926038" />
    <synapse sourceNeuronName = "5" targetNeuronName = "11" weight = "0.20136871941153744" />
    <synapse sourceNeuronName = "5" targetNeuronName = "12" weight = "-0.29893621108629476" />
    <synapse sourceNeuronName = "5" targetNeuronName = "13" weight = "0.3934363944296295" />
    <synapse sourceNeuronName = "5" targetNeuronName = "14" weight = "0.6314908997787398" />
    <synapse sourceNeuronName = "5" targetNeuronName = "15" weight = "0.27229350524980256" />
    <synapse sourceNeuronName = "5" targetNeuronName = "16" weight = "-0.012039489909608792" />
    <synapse sourceNeuronName = "6" targetNeuronName = "9" weight = "0.8945465396090544" />
    <synapse sourceNeuronName = "6" targetNeuronName = "10" weight = "-0.0120820895426339" />
    <synapse sourceNeuronName = "6" targetNeuronName = "11" weight = "0.3986714548360053" />
    <synapse sourceNeuronName = "6" targetNeuronName = "12" weight = "0.09873340642147399" />
    <synapse sourceNeuronName = "6" targetNeuronName = "13" weight = "-0.6108190129305677" />
    <synapse sourceNeuronName = "6" targetNeuronName = "14" weight = "-0.8294020916238567" />
    <synapse sourceNeuronName = "6" targetNeuronName = "15" weight = "-0.227868074617241" />
    <synapse sourceNeuronName = "6" targetNeuronName = "16" weight = "0.05450689359576222" />
    <synapse sourceNeuronName = "7" targetNeuronName = "9" weight = "0.739712005011715" />
    <synapse sourceNeuronName = "7" targetNeuronName = "10" weight = "-0.6674108762099753" />
    <synapse sourceNeuronName = "7" targetNeuronName = "11" weight = "-0.4847725455146452" />
    <synapse sourceNeuronName = "7" targetNeuronName = "12" weight = "0.2528068519796154" />
    <synapse sourceNeuronName = "7" targetNeuronName = "13" weight = "0.07220101921729438" />
    <synapse sourceNeuronName = "7" targetNeuronName = "14" weight = "-0.4192765983736113" />
    <synapse sourceNeuronName = "7" targetNeuronName = "15" weight = "-0.7500028677984825" />
    <synapse sourceNeuronName = "7" targetNeuronName = "16" weight = "-0.7762032172240605" />
    <synapse sourceNeuronName = "8" targetNeuronName = "9" weight = "-0.9914672248255549" />
    <synapse sourceNeuronName = "8" targetNeuronName = "10" weight = "0.08439726535413716" />
    <synapse sourceNeuronName = "8" targetNeuronName = "11" weight = "-0.22931058746670852" />
    <synapse sourceNeuronName = "8" targetNeuronName = "12" weight = "0.8366463306437801" />
    <synapse sourceNeuronName = "8" targetNeuronName = "13" weight = "0.9333683060765803" />
    <synapse sourceNeuronName = "8" targetNeuronName = "14" weight = "-0.08489277886071722" />
    <synapse sourceNeuronName = "8" targetNeuronName = "15" weight = "-0.4747143595463208" />
    <synapse sourceNeuronName = "8" targetNeuronName = "16" weight = "0.01916399535277513" />
</neuralNetwork>