<neuralNetwork>
    <neuron name = "0" type = "sensor" linkName = "Torso" />
    <neuron name = "1" type = "sensor" linkName = "BackLeg" />
    <neuron name = "2" type = "sensor" linkName = "FrontLeg" />
    <neuron name = "3" type = "sensor" linkName = "LeftLeg" />
    <neuron name = "4" type = "sensor" linkName = "RightLeg" />
    <neuron name = "5" type = "sensor" linkName = "BackLowerLeg" />
    <neuron name = "6" type = "sensor" linkName = "FrontLowerLeg" />
    <neuron name = "7" type = "sensor" linkName = "LeftLowerLeg" />
    <neuron name = "8" type = "sensor" linkName = "RightLowerLeg" />
    <neuron name = "9" type = "motor"  jointName = "Torso_BackLeg" />
    <neuron name = "10" type = "motor"  jointName = "Torso_FrontLeg" />
    <neuron name = "11" type = "motor"  jointName = "Torso_LeftLeg" />
    <neuron name = "12" type = "motor"  jointName = "Torso_RightLeg" />
    <neuron name = "13" type = "motor"  jointName = "BackLeg_BackLowerLeg" />
    <neuron name = "14" type = "motor"  jointName = "FrontLeg_FrontLowerLeg" />
    <neuron name = "15" type = "motor"  jointName = "LeftLeg_LeftLowerLeg" />
    <neuron name = "16" type = "motor"  jointName = "RightLeg_RightLowerLeg" />
    <synapse sourceNeuronName = "0" targetNeuronName = "9" weight = "0.6753355697854679" />
    <synapse sourceNeuronName = "0" targetNeuronName = "10" weight = "0.6389070934917216" />
    <synapse sourceNeuronName = "0" targetNeuronName = "11" weight = "0.1670325839890192" />
    <synapse sourceNeuronName = "0" targetNeuronName = "12" weight = "0.17884753423652633" />
    <synapse sourceNeuronName = "0" targetNeuronName = "13" weight = "0.14008483513927072" />
    <synapse sourceNeuronName = "0" targetNeuronName = "14" weight = "-0.6657894889598412" />
    <synapse sourceNeuronName = "0" targetNeuronName = "15" weight = "-0.5654593294217971" />
    <synapse sourceNeuronName = "0" targetNeuronName = "16" weight = "0.005236062156578347" />
    <synapse sourceNeuronName = "1" targetNeuronName = "9" weight = "-0.28613629628358517" />
    <synapse sourceNeuronName = "1" targetNeuronName = "10" weight = "-0.15343273817887693" />
    <synapse sourceNeuronName = "1" targetNeuronName = "11" weight = "0.3386767896380116" />
    <synapse sourceNeuronName = "1" targetNeuronName = "12" weight = "0.06874568576656248" />
    <synapse sourceNeuronName = "1" targetNeuronName = "13" weight = "-0.31423940421401775" />
    <synapse sourceNeuronName = "1" targetNeuronName = "14" weight = "0.8555595782793153" />
    <synapse sourceNeuronName = "1" targetNeuronName = "15" weight = "0.8555743303496648" />
    <synapse sourceNeuronName = "1" targetNeuronName = "16" weight = "-0.1328340687441607" />
    <synapse sourceNeuronName = "2" targetNeuronName = "9" weight = "-0.43741020645866735" />
    <synapse sourceNeuronName = "2" targetNeuronName = "10" weight = "0.5712677612894295" />
    <synapse sourceNeuronName = "2" targetNeuronName = "11" weight = "-0.7266070756058018" />
    <synapse sourceNeuronName = "2" targetNeuronName = "12" weight = "0.8169577028982711" />
    <synapse sourceNeuronName = "2" targetNeuronName = "13" weight = "-0.6024753154613838" />
    <synapse sourceNeuronName = "2" targetNeuronName = "14" weight = "-0.05738045228445099" />
    <synapse sourceNeuronName = "2" targetNeuronName = "15" weight = "0.9130261421629804" />
    <synapse sourceNeuronName = "2" targetNeuronName = "16" weight = "0.10631866759996988" />
    <synapse sourceNeuronName = "3" targetNeuronName = "9" weight = "-0.7317330033553762" />
    <synapse sourceNeuronName = "3" targetNeuronName = "10" weight = "-0.27330339737989573" />
    <synapse sourceNeuronName = "3" targetNeuronName = "11" weight = "-0.21341454463684273" />
    <synapse sourceNeuronName = "3" targetNeuronName = "12" weight = "-0.9981685291085343" />
    <synapse sourceNeuronName = "3" targetNeuronName = "13" weight = "-0.8146742190875091" />
    <synapse sourceNeuronName = "3" targetNeuronName = "14" weight = "-0.482029090969635" />
    <synapse sourceNeuronName = "3" targetNeuronName = "15" weight = "-0.06983586281760346" />
    <synapse sourceNeuronName = "3" targetNeuronName = "16" weight = "0.7489512431368783" />
    <synapse sourceNeuronName = "4" targetNeuronName = "9" weight = "0.4503163222782185" />
    <synapse sourceNeuronName = "4" targetNeuronName = "10" weight = "0.39399636884326883" />
    <synapse sourceNeuronName = "4" targetNeuronName = "11" weight = "0.5846551248702556" />
    <synapse sourceNeuronName = "4" targetNeuronName = "12" weight = "0.6670439561571058" />
    <synapse sourceNeuronName = "4" targetNeuronName = "13" weight = "-0.587946286956853" />
    <synapse sourceNeuronName = "4" targetNeuronName = "14" weight = "0.9272985912207836" />
    <synapse sourceNeuronName = "4" targetNeuronName = "15" weight = "-0.17645533454513318" />
    <synapse sourceNeuronName = "4" targetNeuronName = "16" weight = "-0.2604845867336316" />
    <synapse sourceNeuronName = "5" targetNeuronName = "9" weight = "0.6113563531484771" />
    <synapse sourceNeuronName = "5" targetNeuronName = "10" weight = "0.18828698518017362" />
    <synapse sourceNeuronName = "5" targetNeuronName = "11" weight = "0.28523010481568956" />
    <synapse sourceNeuronName = "5" targetNeuronName = "12" weight = "-0.9533679035814431" />
    <synapse sourceNeuronName = "5" targetNeuronName = "13" weight = "-0.06924387985505076" />
    <synapse sourceNeuronName = "5" targetNeuronName = "14" weight = "0.28972210001218146" />
    <synapse sourceNeuronName = "5" targetNeuronName = "15" weight = "0.1559556242461706" />
    <synapse sourceNeuronName = "5" targetNeuronName = "16" weight = "-0.20519689522095197" />
    <synapse sourceNeuronName = "6" targetNeuronName = "9" weight = "0.3802992687058344" />
    <synapse sourceNeuronName = "6" targetNeuronName = "10" weight = "-0.5487350826488713" />
    <synapse sourceNeuronName = "6" targetNeuronName = "11" weight = "-0.6299462669813427" />
    <synapse sourceNeuronName = "6" targetNeuronName = "12" weight = "0.6662647994604216" />
    <synapse sourceNeuronName = "6" targetNeuronName = "13" weight = "0.5042991936261161" />
    <synapse sourceNeuronName = "6" targetNeuronName = "14" weight = "-0.9606060259233717" />
    <synapse sourceNeuronName = "6" targetNeuronName = "15" weight = "0.8679202574444769" />
    <synapse sourceNeuronName = "6" targetNeuronName = "16" weight = "0.37535067950267953" />
    <synapse sourceNeuronName = "7" targetNeuronName = "9" weight = "-0.32440046597455474" />
    <synapse sourceNeuronName = "7" targetNeuronName = "10" weight = "-0.3986869399425985" />
    <synapse sourceNeuronName = "7" targetNeuronName = "11" weight = "-0.3379643991097385" />
    <synapse sourceNeuronName = "7" targetNeuronName = "12" weight = "0.1270916754606961" />
    <synapse sourceNeuronName = "7" targetNeuronName = "13" weight = "0.05456521263322478" />
    <synapse sourceNeuronName = "7" targetNeuronName = "14" weight = "0.09813002642701285" />
    <synapse sourceNeuronName = "7" targetNeuronName = "15" weight = "-0.38858812348420835" />
    <synapse sourceNeuronName = "7" targetNeuronName = "16" weight = "-0.32800921255996385" />
    <synapse sourceNeuronName = "8" targetNeuronName = "9" weight = "0.9399312403600542" />
    <synapse sourceNeuronName = "8" targetNeuronName = "10" weight = "-0.6318151850171445" />
    <synapse sourceNeuronName = "8" targetNeuronName = "11" weight = "0.7114744253944507" />
    <synapse sourceNeuronName = "8" targetNeuronName = "12" weight = "-0.46712248836687054" />
    <synapse sourceNeuronName = "8" targetNeuronName = "13" weight = "-0.9965189253389513" />
    <synapse sourceNeuronName = "8" targetNeuronName = "14" weight = "0.3595084462839653" />
    <synapse sourceNeuronName = "8" targetNeuronName = "15" weight = "-0.6676954654519822" />
    <synapse sourceNeuronName = "8" targetNeuronName = "16" weight = "0.7207210095122454" />
</neuralNetwork>