<neuralNetwork>
    <neuron name = "0" type = "sensor" linkName = "Torso" />
    <neuron name = "1" type = "sensor" linkName = "BackLeg" />
    <neuron name = "2" type = "sensor" linkName = "FrontLeg" />
    <neuron name = "3" type = "sensor" linkName = "LeftLeg" />
    <neuron name = "4" type = "sensor" linkName = "RightLeg" />
    <neuron name = "5" type = "sensor" linkName = "BackLowerLeg" />
    <neuron name = "6" type = "sensor" linkName = "FrontLowerLeg" />
    <neuron name = "7" type = "sensor" linkName = "LeftLowerLeg" />
    <neuron name = "8" type = "sensor" linkName = "RightLowerLeg" />
    <neuron name = "9" type = "motor"  jointName = "Torso_BackLeg" />
    <neuron name = "10" type = "motor"  jointName = "Torso_FrontLeg" />
    <neuron name = "11" type = "motor"  jointName = "Torso_LeftLeg" />
    <neuron name = "12" type = "motor"  jointName = "Torso_RightLeg" />
    <neuron name = "13" type = "motor"  jointName = "BackLeg_BackLowerLeg" />
    <neuron name = "14" type = "motor"  jointName = "FrontLeg_FrontLowerLeg" />
    <neuron name = "15" type = "motor"  jointName = "LeftLeg_LeftLowerLeg" />
    <neuron name = "16" type = "motor"  jointName = "RightLeg_RightLowerLeg" />
    <synapse sourceNeuronName = "0" targetNeuronName = "9" weight = "0.7635110237549279" />
    <synapse sourceNeuronName = "0" targetNeuronName = "10" weight = "0.5885831781774546" />
    <synapse sourceNeuronName = "0" targetNeuronName = "11" weight = "0.1193458057322685" />
    <synapse sourceNeuronName = "0" targetNeuronName = "12" weight = "0.5955574562890189" />
    <synapse sourceNeuronName = "0" targetNeuronName = "13" weight = "0.796596870476391" />
    <synapse sourceNeuronName = "0" targetNeuronName = "14" weight = "0.5192667646754985" />
    <synapse sourceNeuronName = "0" targetNeuronName = "15" weight = "0.6608753528146705" />
    <synapse sourceNeuronName = "0" targetNeuronName = "16" weight = "0.010941115014982072" />
    <synapse sourceNeuronName = "1" targetNeuronName = "9" weight = "-0.831177297615882" />
    <synapse sourceNeuronName = "1" targetNeuronName = "10" weight = "0.7502455500835257" />
    <synapse sourceNeuronName = "1" targetNeuronName = "11" weight = "0.8993436357042819" />
    <synapse sourceNeuronName = "1" targetNeuronName = "12" weight = "-0.8591197076684247" />
    <synapse sourceNeuronName = "1" targetNeuronName = "13" weight = "0.7215275000479684" />
    <synapse sourceNeuronName = "1" targetNeuronName = "14" weight = "-0.5558963767943592" />
    <synapse sourceNeuronName = "1" targetNeuronName = "15" weight = "-0.6137285916047044" />
    <synapse sourceNeuronName = "1" targetNeuronName = "16" weight = "-0.14838637221730355" />
    <synapse sourceNeuronName = "2" targetNeuronName = "9" weight = "0.32778288239748465" />
    <synapse sourceNeuronName = "2" targetNeuronName = "10" weight = "-0.4999016362895645" />
    <synapse sourceNeuronName = "2" targetNeuronName = "11" weight = "-0.9815014511850328" />
    <synapse sourceNeuronName = "2" targetNeuronName = "12" weight = "0.44827578898604425" />
    <synapse sourceNeuronName = "2" targetNeuronName = "13" weight = "-0.9797791357447896" />
    <synapse sourceNeuronName = "2" targetNeuronName = "14" weight = "0.07825149136941079" />
    <synapse sourceNeuronName = "2" targetNeuronName = "15" weight = "0.04659983455833361" />
    <synapse sourceNeuronName = "2" targetNeuronName = "16" weight = "-0.351471696073155" />
    <synapse sourceNeuronName = "3" targetNeuronName = "9" weight = "-0.6344258341456204" />
    <synapse sourceNeuronName = "3" targetNeuronName = "10" weight = "-0.8145529941992775" />
    <synapse sourceNeuronName = "3" targetNeuronName = "11" weight = "0.06771419954490798" />
    <synapse sourceNeuronName = "3" targetNeuronName = "12" weight = "0.3172039828844291" />
    <synapse sourceNeuronName = "3" targetNeuronName = "13" weight = "-0.6932941044721528" />
    <synapse sourceNeuronName = "3" targetNeuronName = "14" weight = "0.9058998012039359" />
    <synapse sourceNeuronName = "3" targetNeuronName = "15" weight = "0.3189976560732246" />
    <synapse sourceNeuronName = "3" targetNeuronName = "16" weight = "0.8226840102107804" />
    <synapse sourceNeuronName = "4" targetNeuronName = "9" weight = "-0.9042754287320933" />
    <synapse sourceNeuronName = "4" targetNeuronName = "10" weight = "0.49642605677670604" />
    <synapse sourceNeuronName = "4" targetNeuronName = "11" weight = "-0.7336722915649672" />
    <synapse sourceNeuronName = "4" targetNeuronName = "12" weight = "-0.94868923991531" />
    <synapse sourceNeuronName = "4" targetNeuronName = "13" weight = "-0.04381421194221802" />
    <synapse sourceNeuronName = "4" targetNeuronName = "14" weight = "0.927471378182074" />
    <synapse sourceNeuronName = "4" targetNeuronName = "15" weight = "-0.0580866102925901" />
    <synapse sourceNeuronName = "4" targetNeuronName = "16" weight = "0.5533151110206243" />
    <synapse sourceNeuronName = "5" targetNeuronName = "9" weight = "-0.34998002169516274" />
    <synapse sourceNeuronName = "5" targetNeuronName = "10" weight = "-0.11315555530669275" />
    <synapse sourceNeuronName = "5" targetNeuronName = "11" weight = "-0.9124763296539371" />
    <synapse sourceNeuronName = "5" targetNeuronName = "12" weight = "0.7025700838201978" />
    <synapse sourceNeuronName = "5" targetNeuronName = "13" weight = "-0.7509610616268874" />
    <synapse sourceNeuronName = "5" targetNeuronName = "14" weight = "0.6832091036706607" />
    <synapse sourceNeuronName = "5" targetNeuronName = "15" weight = "-0.12707461917018148" />
    <synapse sourceNeuronName = "5" targetNeuronName = "16" weight = "0.06786465246520912" />
    <synapse sourceNeuronName = "6" targetNeuronName = "9" weight = "0.8626483099309188" />
    <synapse sourceNeuronName = "6" targetNeuronName = "10" weight = "0.7186667957112793" />
    <synapse sourceNeuronName = "6" targetNeuronName = "11" weight = "-0.44041583088395675" />
    <synapse sourceNeuronName = "6" targetNeuronName = "12" weight = "0.29459332073301425" />
    <synapse sourceNeuronName = "6" targetNeuronName = "13" weight = "-0.20867694963528494" />
    <synapse sourceNeuronName = "6" targetNeuronName = "14" weight = "0.3127304404964084" />
    <synapse sourceNeuronName = "6" targetNeuronName = "15" weight = "-0.4900608606240049" />
    <synapse sourceNeuronName = "6" targetNeuronName = "16" weight = "0.5405342691685713" />
    <synapse sourceNeuronName = "7" targetNeuronName = "9" weight = "-0.7187572541712937" />
    <synapse sourceNeuronName = "7" targetNeuronName = "10" weight = "0.3849221032900376" />
    <synapse sourceNeuronName = "7" targetNeuronName = "11" weight = "-0.7628447651865182" />
    <synapse sourceNeuronName = "7" targetNeuronName = "12" weight = "-0.9154167480809006" />
    <synapse sourceNeuronName = "7" targetNeuronName = "13" weight = "0.3890257143830125" />
    <synapse sourceNeuronName = "7" targetNeuronName = "14" weight = "-0.7432938418066788" />
    <synapse sourceNeuronName = "7" targetNeuronName = "15" weight = "-0.251172343245766" />
    <synapse sourceNeuronName = "7" targetNeuronName = "16" weight = "0.8179867838156216" />
    <synapse sourceNeuronName = "8" targetNeuronName = "9" weight = "0.07567016879766353" />
    <synapse sourceNeuronName = "8" targetNeuronName = "10" weight = "0.01725956304245857" />
    <synapse sourceNeuronName = "8" targetNeuronName = "11" weight = "-0.7735337135139002" />
    <synapse sourceNeuronName = "8" targetNeuronName = "12" weight = "0.8858191066054237" />
    <synapse sourceNeuronName = "8" targetNeuronName = "13" weight = "-0.34814681687973725" />
    <synapse sourceNeuronName = "8" targetNeuronName = "14" weight = "0.6967628921327813" />
    <synapse sourceNeuronName = "8" targetNeuronName = "15" weight = "-0.8895622908607597" />
    <synapse sourceNeuronName = "8" targetNeuronName = "16" weight = "0.6153361950897747" />
</neuralNetwork>