<neuralNetwork>
    <neuron name = "0" type = "sensor" linkName = "Torso" />
    <neuron name = "1" type = "sensor" linkName = "BackLeg" />
    <neuron name = "2" type = "sensor" linkName = "FrontLeg" />
    <neuron name = "3" type = "sensor" linkName = "LeftLeg" />
    <neuron name = "4" type = "sensor" linkName = "RightLeg" />
    <neuron name = "5" type = "sensor" linkName = "BackLowerLeg" />
    <neuron name = "6" type = "sensor" linkName = "FrontLowerLeg" />
    <neuron name = "7" type = "sensor" linkName = "LeftLowerLeg" />
    <neuron name = "8" type = "sensor" linkName = "RightLowerLeg" />
    <neuron name = "9" type = "motor"  jointName = "Torso_BackLeg" />
    <neuron name = "10" type = "motor"  jointName = "Torso_FrontLeg" />
    <neuron name = "11" type = "motor"  jointName = "Torso_LeftLeg" />
    <neuron name = "12" type = "motor"  jointName = "Torso_RightLeg" />
    <neuron name = "13" type = "motor"  jointName = "BackLeg_BackLowerLeg" />
    <neuron name = "14" type = "motor"  jointName = "FrontLeg_FrontLowerLeg" />
    <neuron name = "15" type = "motor"  jointName = "LeftLeg_LeftLowerLeg" />
    <neuron name = "16" type = "motor"  jointName = "RightLeg_RightLowerLeg" />
    <synapse sourceNeuronName = "0" targetNeuronName = "9" weight = "-0.4762016752943785" />
    <synapse sourceNeuronName = "0" targetNeuronName = "10" weight = "0.2491646355472179" />
    <synapse sourceNeuronName = "0" targetNeuronName = "11" weight = "-0.07325863095099483" />
    <synapse sourceNeuronName = "0" targetNeuronName = "12" weight = "-0.0007142804836166583" />
    <synapse sourceNeuronName = "0" targetNeuronName = "13" weight = "-0.8628895028114381" />
    <synapse sourceNeuronName = "0" targetNeuronName = "14" weight = "0.6315524253154794" />
    <synapse sourceNeuronName = "0" targetNeuronName = "15" weight = "-0.6635410837313593" />
    <synapse sourceNeuronName = "0" targetNeuronName = "16" weight = "0.5442262350391758" />
    <synapse sourceNeuronName = "1" targetNeuronName = "9" weight = "-0.28470166671293295" />
    <synapse sourceNeuronName = "1" targetNeuronName = "10" weight = "-0.6641622038355623" />
    <synapse sourceNeuronName = "1" targetNeuronName = "11" weight = "0.37582249184589367" />
    <synapse sourceNeuronName = "1" targetNeuronName = "12" weight = "0.8532782102282523" />
    <synapse sourceNeuronName = "1" targetNeuronName = "13" weight = "-0.4622959916357625" />
    <synapse sourceNeuronName = "1" targetNeuronName = "14" weight = "0.2939916186226803" />
    <synapse sourceNeuronName = "1" targetNeuronName = "15" weight = "0.10010391213487968" />
    <synapse sourceNeuronName = "1" targetNeuronName = "16" weight = "-0.0509898704224967" />
    <synapse sourceNeuronName = "2" targetNeuronName = "9" weight = "-0.7444750204191626" />
    <synapse sourceNeuronName = "2" targetNeuronName = "10" weight = "0.5026949867122621" />
    <synapse sourceNeuronName = "2" targetNeuronName = "11" weight = "-0.9338355145768058" />
    <synapse sourceNeuronName = "2" targetNeuronName = "12" weight = "0.8358797006237415" />
    <synapse sourceNeuronName = "2" targetNeuronName = "13" weight = "-0.22807395239158956" />
    <synapse sourceNeuronName = "2" targetNeuronName = "14" weight = "0.509954265549108" />
    <synapse sourceNeuronName = "2" targetNeuronName = "15" weight = "-0.26250175614334204" />
    <synapse sourceNeuronName = "2" targetNeuronName = "16" weight = "0.4073524653644469" />
    <synapse sourceNeuronName = "3" targetNeuronName = "9" weight = "0.2450749629500013" />
    <synapse sourceNeuronName = "3" targetNeuronName = "10" weight = "0.24116032171855184" />
    <synapse sourceNeuronName = "3" targetNeuronName = "11" weight = "0.7193386132796895" />
    <synapse sourceNeuronName = "3" targetNeuronName = "12" weight = "0.37865733715624295" />
    <synapse sourceNeuronName = "3" targetNeuronName = "13" weight = "-0.6046322251004033" />
    <synapse sourceNeuronName = "3" targetNeuronName = "14" weight = "-0.6232846042983731" />
    <synapse sourceNeuronName = "3" targetNeuronName = "15" weight = "-0.5664346921349062" />
    <synapse sourceNeuronName = "3" targetNeuronName = "16" weight = "0.445315083725492" />
    <synapse sourceNeuronName = "4" targetNeuronName = "9" weight = "0.9026431336130094" />
    <synapse sourceNeuronName = "4" targetNeuronName = "10" weight = "0.6980095001502296" />
    <synapse sourceNeuronName = "4" targetNeuronName = "11" weight = "-0.9149331566377821" />
    <synapse sourceNeuronName = "4" targetNeuronName = "12" weight = "-0.7871922581146731" />
    <synapse sourceNeuronName = "4" targetNeuronName = "13" weight = "-0.5794773204643802" />
    <synapse sourceNeuronName = "4" targetNeuronName = "14" weight = "0.5222468200292862" />
    <synapse sourceNeuronName = "4" targetNeuronName = "15" weight = "-0.680587440828609" />
    <synapse sourceNeuronName = "4" targetNeuronName = "16" weight = "0.9850826343147159" />
    <synapse sourceNeuronName = "5" targetNeuronName = "9" weight = "0.030330609836401567" />
    <synapse sourceNeuronName = "5" targetNeuronName = "10" weight = "-0.5784382008896918" />
    <synapse sourceNeuronName = "5" targetNeuronName = "11" weight = "0.42108839855956526" />
    <synapse sourceNeuronName = "5" targetNeuronName = "12" weight = "0.020951150253039508" />
    <synapse sourceNeuronName = "5" targetNeuronName = "13" weight = "0.4482768164650097" />
    <synapse sourceNeuronName = "5" targetNeuronName = "14" weight = "0.41513970358088037" />
    <synapse sourceNeuronName = "5" targetNeuronName = "15" weight = "-0.7152734297463552" />
    <synapse sourceNeuronName = "5" targetNeuronName = "16" weight = "0.2151457145177642" />
    <synapse sourceNeuronName = "6" targetNeuronName = "9" weight = "0.052622177245760016" />
    <synapse sourceNeuronName = "6" targetNeuronName = "10" weight = "-0.06716713885341008" />
    <synapse sourceNeuronName = "6" targetNeuronName = "11" weight = "-0.33156605229059344" />
    <synapse sourceNeuronName = "6" targetNeuronName = "12" weight = "0.42121698232123284" />
    <synapse sourceNeuronName = "6" targetNeuronName = "13" weight = "0.2449481429337912" />
    <synapse sourceNeuronName = "6" targetNeuronName = "14" weight = "-0.3062379900536789" />
    <synapse sourceNeuronName = "6" targetNeuronName = "15" weight = "-0.3253790190001218" />
    <synapse sourceNeuronName = "6" targetNeuronName = "16" weight = "-0.027469893080468433" />
    <synapse sourceNeuronName = "7" targetNeuronName = "9" weight = "-0.11829897596626648" />
    <synapse sourceNeuronName = "7" targetNeuronName = "10" weight = "-0.7964472384808545" />
    <synapse sourceNeuronName = "7" targetNeuronName = "11" weight = "-0.7890864151844597" />
    <synapse sourceNeuronName = "7" targetNeuronName = "12" weight = "0.9189893641355404" />
    <synapse sourceNeuronName = "7" targetNeuronName = "13" weight = "-0.7200526693571934" />
    <synapse sourceNeuronName = "7" targetNeuronName = "14" weight = "-0.3438837357467277" />
    <synapse sourceNeuronName = "7" targetNeuronName = "15" weight = "-0.2069392129017329" />
    <synapse sourceNeuronName = "7" targetNeuronName = "16" weight = "0.8334231754091379" />
    <synapse sourceNeuronName = "8" targetNeuronName = "9" weight = "0.7293652779594273" />
    <synapse sourceNeuronName = "8" targetNeuronName = "10" weight = "0.8074555840231765" />
    <synapse sourceNeuronName = "8" targetNeuronName = "11" weight = "0.08526244657315707" />
    <synapse sourceNeuronName = "8" targetNeuronName = "12" weight = "-0.04542875084918796" />
    <synapse sourceNeuronName = "8" targetNeuronName = "13" weight = "-0.7291004476883498" />
    <synapse sourceNeuronName = "8" targetNeuronName = "14" weight = "0.9161782458922929" />
    <synapse sourceNeuronName = "8" targetNeuronName = "15" weight = "0.6237863551693197" />
    <synapse sourceNeuronName = "8" targetNeuronName = "16" weight = "0.3849700161273253" />
</neuralNetwork>