<neuralNetwork>
    <neuron name = "0" type = "sensor" linkName = "Torso" />
    <neuron name = "1" type = "sensor" linkName = "BackLeg" />
    <neuron name = "2" type = "sensor" linkName = "FrontLeg" />
    <neuron name = "3" type = "sensor" linkName = "LeftLeg" />
    <neuron name = "4" type = "sensor" linkName = "RightLeg" />
    <neuron name = "5" type = "sensor" linkName = "BackLowerLeg" />
    <neuron name = "6" type = "sensor" linkName = "FrontLowerLeg" />
    <neuron name = "7" type = "sensor" linkName = "LeftLowerLeg" />
    <neuron name = "8" type = "sensor" linkName = "RightLowerLeg" />
    <neuron name = "9" type = "motor"  jointName = "Torso_BackLeg" />
    <neuron name = "10" type = "motor"  jointName = "Torso_FrontLeg" />
    <neuron name = "11" type = "motor"  jointName = "Torso_LeftLeg" />
    <neuron name = "12" type = "motor"  jointName = "Torso_RightLeg" />
    <neuron name = "13" type = "motor"  jointName = "BackLeg_BackLowerLeg" />
    <neuron name = "14" type = "motor"  jointName = "FrontLeg_FrontLowerLeg" />
    <neuron name = "15" type = "motor"  jointName = "LeftLeg_LeftLowerLeg" />
    <neuron name = "16" type = "motor"  jointName = "RightLeg_RightLowerLeg" />
    <synapse sourceNeuronName = "0" targetNeuronName = "9" weight = "0.13673883077588833" />
    <synapse sourceNeuronName = "0" targetNeuronName = "10" weight = "-0.3129046321929754" />
    <synapse sourceNeuronName = "0" targetNeuronName = "11" weight = "0.6661131901310116" />
    <synapse sourceNeuronName = "0" targetNeuronName = "12" weight = "0.7660417617678772" />
    <synapse sourceNeuronName = "0" targetNeuronName = "13" weight = "0.8970665180416777" />
    <synapse sourceNeuronName = "0" targetNeuronName = "14" weight = "0.21674375014929637" />
    <synapse sourceNeuronName = "0" targetNeuronName = "15" weight = "0.3610576383209878" />
    <synapse sourceNeuronName = "0" targetNeuronName = "16" weight = "0.7672810507311789" />
    <synapse sourceNeuronName = "1" targetNeuronName = "9" weight = "-0.3931145082223513" />
    <synapse sourceNeuronName = "1" targetNeuronName = "10" weight = "0.19947704692143997" />
    <synapse sourceNeuronName = "1" targetNeuronName = "11" weight = "0.562838631232061" />
    <synapse sourceNeuronName = "1" targetNeuronName = "12" weight = "0.2864647221841068" />
    <synapse sourceNeuronName = "1" targetNeuronName = "13" weight = "-0.14370470407434333" />
    <synapse sourceNeuronName = "1" targetNeuronName = "14" weight = "-0.5655028667960313" />
    <synapse sourceNeuronName = "1" targetNeuronName = "15" weight = "0.7235203948197104" />
    <synapse sourceNeuronName = "1" targetNeuronName = "16" weight = "-0.42161943520058576" />
    <synapse sourceNeuronName = "2" targetNeuronName = "9" weight = "-0.07193319685546462" />
    <synapse sourceNeuronName = "2" targetNeuronName = "10" weight = "0.20790204494310704" />
    <synapse sourceNeuronName = "2" targetNeuronName = "11" weight = "-0.042757996000512" />
    <synapse sourceNeuronName = "2" targetNeuronName = "12" weight = "-0.0034853412149771223" />
    <synapse sourceNeuronName = "2" targetNeuronName = "13" weight = "0.8709453811605234" />
    <synapse sourceNeuronName = "2" targetNeuronName = "14" weight = "-0.13694468412986138" />
    <synapse sourceNeuronName = "2" targetNeuronName = "15" weight = "0.7241820489110506" />
    <synapse sourceNeuronName = "2" targetNeuronName = "16" weight = "0.013643110651474055" />
    <synapse sourceNeuronName = "3" targetNeuronName = "9" weight = "-0.5084493718423799" />
    <synapse sourceNeuronName = "3" targetNeuronName = "10" weight = "-0.9502600721331069" />
    <synapse sourceNeuronName = "3" targetNeuronName = "11" weight = "0.7769051024437357" />
    <synapse sourceNeuronName = "3" targetNeuronName = "12" weight = "-0.846011154610302" />
    <synapse sourceNeuronName = "3" targetNeuronName = "13" weight = "-0.511010686462688" />
    <synapse sourceNeuronName = "3" targetNeuronName = "14" weight = "0.9630177340245749" />
    <synapse sourceNeuronName = "3" targetNeuronName = "15" weight = "-0.8174063998503065" />
    <synapse sourceNeuronName = "3" targetNeuronName = "16" weight = "-0.8874847609672165" />
    <synapse sourceNeuronName = "4" targetNeuronName = "9" weight = "-0.1816386075752665" />
    <synapse sourceNeuronName = "4" targetNeuronName = "10" weight = "0.7097287264889662" />
    <synapse sourceNeuronName = "4" targetNeuronName = "11" weight = "0.3715983187616354" />
    <synapse sourceNeuronName = "4" targetNeuronName = "12" weight = "0.11551185536414654" />
    <synapse sourceNeuronName = "4" targetNeuronName = "13" weight = "-0.7511679191981702" />
    <synapse sourceNeuronName = "4" targetNeuronName = "14" weight = "-0.35095384740583935" />
    <synapse sourceNeuronName = "4" targetNeuronName = "15" weight = "0.42353726322413876" />
    <synapse sourceNeuronName = "4" targetNeuronName = "16" weight = "0.7590293965592352" />
    <synapse sourceNeuronName = "5" targetNeuronName = "9" weight = "-0.5293394356108558" />
    <synapse sourceNeuronName = "5" targetNeuronName = "10" weight = "-0.024095492017967013" />
    <synapse sourceNeuronName = "5" targetNeuronName = "11" weight = "0.31923797109555596" />
    <synapse sourceNeuronName = "5" targetNeuronName = "12" weight = "-0.9679449525552564" />
    <synapse sourceNeuronName = "5" targetNeuronName = "13" weight = "0.18096862086047727" />
    <synapse sourceNeuronName = "5" targetNeuronName = "14" weight = "-0.3903972203202688" />
    <synapse sourceNeuronName = "5" targetNeuronName = "15" weight = "-0.23883869212656306" />
    <synapse sourceNeuronName = "5" targetNeuronName = "16" weight = "-0.008286769261603544" />
    <synapse sourceNeuronName = "6" targetNeuronName = "9" weight = "0.6851040421071819" />
    <synapse sourceNeuronName = "6" targetNeuronName = "10" weight = "-0.16813109603838616" />
    <synapse sourceNeuronName = "6" targetNeuronName = "11" weight = "-0.12498485535940196" />
    <synapse sourceNeuronName = "6" targetNeuronName = "12" weight = "-0.2984874906894408" />
    <synapse sourceNeuronName = "6" targetNeuronName = "13" weight = "-0.9711679294358455" />
    <synapse sourceNeuronName = "6" targetNeuronName = "14" weight = "-0.7317993685168194" />
    <synapse sourceNeuronName = "6" targetNeuronName = "15" weight = "-0.4286010929567319" />
    <synapse sourceNeuronName = "6" targetNeuronName = "16" weight = "0.6210574158513" />
    <synapse sourceNeuronName = "7" targetNeuronName = "9" weight = "0.23851887962895924" />
    <synapse sourceNeuronName = "7" targetNeuronName = "10" weight = "0.9410323891313794" />
    <synapse sourceNeuronName = "7" targetNeuronName = "11" weight = "-0.280995530769778" />
    <synapse sourceNeuronName = "7" targetNeuronName = "12" weight = "-0.4842310815924751" />
    <synapse sourceNeuronName = "7" targetNeuronName = "13" weight = "0.6067481408519784" />
    <synapse sourceNeuronName = "7" targetNeuronName = "14" weight = "0.13134915368924327" />
    <synapse sourceNeuronName = "7" targetNeuronName = "15" weight = "-0.2570159583107625" />
    <synapse sourceNeuronName = "7" targetNeuronName = "16" weight = "0.7392179086595365" />
    <synapse sourceNeuronName = "8" targetNeuronName = "9" weight = "-0.783978701336643" />
    <synapse sourceNeuronName = "8" targetNeuronName = "10" weight = "-0.02728410456550434" />
    <synapse sourceNeuronName = "8" targetNeuronName = "11" weight = "-0.443328718071778" />
    <synapse sourceNeuronName = "8" targetNeuronName = "12" weight = "0.7701749988293363" />
    <synapse sourceNeuronName = "8" targetNeuronName = "13" weight = "0.568562306030435" />
    <synapse sourceNeuronName = "8" targetNeuronName = "14" weight = "0.54119677694067" />
    <synapse sourceNeuronName = "8" targetNeuronName = "15" weight = "-0.21896628340764512" />
    <synapse sourceNeuronName = "8" targetNeuronName = "16" weight = "0.26520874629819935" />
</neuralNetwork>