<neuralNetwork>
    <neuron name = "0" type = "sensor" linkName = "Torso" />
    <neuron name = "1" type = "sensor" linkName = "BackLeg" />
    <neuron name = "2" type = "sensor" linkName = "FrontLeg" />
    <neuron name = "3" type = "sensor" linkName = "LeftLeg" />
    <neuron name = "4" type = "sensor" linkName = "RightLeg" />
    <neuron name = "5" type = "sensor" linkName = "BackLowerLeg" />
    <neuron name = "6" type = "sensor" linkName = "FrontLowerLeg" />
    <neuron name = "7" type = "sensor" linkName = "LeftLowerLeg" />
    <neuron name = "8" type = "sensor" linkName = "RightLowerLeg" />
    <neuron name = "9" type = "motor"  jointName = "Torso_BackLeg" />
    <neuron name = "10" type = "motor"  jointName = "Torso_FrontLeg" />
    <neuron name = "11" type = "motor"  jointName = "Torso_LeftLeg" />
    <neuron name = "12" type = "motor"  jointName = "Torso_RightLeg" />
    <neuron name = "13" type = "motor"  jointName = "BackLeg_BackLowerLeg" />
    <neuron name = "14" type = "motor"  jointName = "FrontLeg_FrontLowerLeg" />
    <neuron name = "15" type = "motor"  jointName = "LeftLeg_LeftLowerLeg" />
    <neuron name = "16" type = "motor"  jointName = "RightLeg_RightLowerLeg" />
    <synapse sourceNeuronName = "0" targetNeuronName = "9" weight = "-0.0122422397257127" />
    <synapse sourceNeuronName = "0" targetNeuronName = "10" weight = "-0.44196416387719206" />
    <synapse sourceNeuronName = "0" targetNeuronName = "11" weight = "0.3727693666853473" />
    <synapse sourceNeuronName = "0" targetNeuronName = "12" weight = "0.45010908915029657" />
    <synapse sourceNeuronName = "0" targetNeuronName = "13" weight = "0.5323276795583787" />
    <synapse sourceNeuronName = "0" targetNeuronName = "14" weight = "-0.8094466472212736" />
    <synapse sourceNeuronName = "0" targetNeuronName = "15" weight = "-0.8865617585720702" />
    <synapse sourceNeuronName = "0" targetNeuronName = "16" weight = "0.9793242126882635" />
    <synapse sourceNeuronName = "1" targetNeuronName = "9" weight = "-0.32790812379408396" />
    <synapse sourceNeuronName = "1" targetNeuronName = "10" weight = "-0.250486604825815" />
    <synapse sourceNeuronName = "1" targetNeuronName = "11" weight = "0.8982025016377087" />
    <synapse sourceNeuronName = "1" targetNeuronName = "12" weight = "0.426997801989097" />
    <synapse sourceNeuronName = "1" targetNeuronName = "13" weight = "-0.5698711332302722" />
    <synapse sourceNeuronName = "1" targetNeuronName = "14" weight = "0.9983533106578868" />
    <synapse sourceNeuronName = "1" targetNeuronName = "15" weight = "0.5259265199546783" />
    <synapse sourceNeuronName = "1" targetNeuronName = "16" weight = "-0.2371488472135086" />
    <synapse sourceNeuronName = "2" targetNeuronName = "9" weight = "0.16451668708528633" />
    <synapse sourceNeuronName = "2" targetNeuronName = "10" weight = "-0.35500392583946794" />
    <synapse sourceNeuronName = "2" targetNeuronName = "11" weight = "-0.4125415118497815" />
    <synapse sourceNeuronName = "2" targetNeuronName = "12" weight = "0.8004600517911691" />
    <synapse sourceNeuronName = "2" targetNeuronName = "13" weight = "0.05983035211957688" />
    <synapse sourceNeuronName = "2" targetNeuronName = "14" weight = "-0.6212496976503932" />
    <synapse sourceNeuronName = "2" targetNeuronName = "15" weight = "-0.6187207845548726" />
    <synapse sourceNeuronName = "2" targetNeuronName = "16" weight = "-0.5069839301754786" />
    <synapse sourceNeuronName = "3" targetNeuronName = "9" weight = "-0.8711135971071122" />
    <synapse sourceNeuronName = "3" targetNeuronName = "10" weight = "0.29432782770634236" />
    <synapse sourceNeuronName = "3" targetNeuronName = "11" weight = "-0.6235989563915008" />
    <synapse sourceNeuronName = "3" targetNeuronName = "12" weight = "-0.9086079355108534" />
    <synapse sourceNeuronName = "3" targetNeuronName = "13" weight = "0.7325864591859297" />
    <synapse sourceNeuronName = "3" targetNeuronName = "14" weight = "0.018721169441081376" />
    <synapse sourceNeuronName = "3" targetNeuronName = "15" weight = "-0.007151377438263662" />
    <synapse sourceNeuronName = "3" targetNeuronName = "16" weight = "0.4216017809253956" />
    <synapse sourceNeuronName = "4" targetNeuronName = "9" weight = "0.8752144636435033" />
    <synapse sourceNeuronName = "4" targetNeuronName = "10" weight = "-0.30013195306610085" />
    <synapse sourceNeuronName = "4" targetNeuronName = "11" weight = "-0.825585763215765" />
    <synapse sourceNeuronName = "4" targetNeuronName = "12" weight = "0.32306720572284564" />
    <synapse sourceNeuronName = "4" targetNeuronName = "13" weight = "-0.7268109152371969" />
    <synapse sourceNeuronName = "4" targetNeuronName = "14" weight = "0.5030824392706412" />
    <synapse sourceNeuronName = "4" targetNeuronName = "15" weight = "-0.8116250839069139" />
    <synapse sourceNeuronName = "4" targetNeuronName = "16" weight = "-0.9242019101366321" />
    <synapse sourceNeuronName = "5" targetNeuronName = "9" weight = "-0.8577198592128203" />
    <synapse sourceNeuronName = "5" targetNeuronName = "10" weight = "-0.1184217100099818" />
    <synapse sourceNeuronName = "5" targetNeuronName = "11" weight = "-0.6900322479428744" />
    <synapse sourceNeuronName = "5" targetNeuronName = "12" weight = "-0.3483871375448233" />
    <synapse sourceNeuronName = "5" targetNeuronName = "13" weight = "0.3610797285829397" />
    <synapse sourceNeuronName = "5" targetNeuronName = "14" weight = "-0.0400009044668026" />
    <synapse sourceNeuronName = "5" targetNeuronName = "15" weight = "0.5304539552675283" />
    <synapse sourceNeuronName = "5" targetNeuronName = "16" weight = "0.20760086921569276" />
    <synapse sourceNeuronName = "6" targetNeuronName = "9" weight = "0.06333331062093639" />
    <synapse sourceNeuronName = "6" targetNeuronName = "10" weight = "0.7389522235289401" />
    <synapse sourceNeuronName = "6" targetNeuronName = "11" weight = "0.1064448968301197" />
    <synapse sourceNeuronName = "6" targetNeuronName = "12" weight = "-0.3330034915549256" />
    <synapse sourceNeuronName = "6" targetNeuronName = "13" weight = "-0.35331493004863157" />
    <synapse sourceNeuronName = "6" targetNeuronName = "14" weight = "-0.015084615594574968" />
    <synapse sourceNeuronName = "6" targetNeuronName = "15" weight = "-0.12310663218808782" />
    <synapse sourceNeuronName = "6" targetNeuronName = "16" weight = "-0.9499005710935347" />
    <synapse sourceNeuronName = "7" targetNeuronName = "9" weight = "0.5750314084533226" />
    <synapse sourceNeuronName = "7" targetNeuronName = "10" weight = "0.9498167607042727" />
    <synapse sourceNeuronName = "7" targetNeuronName = "11" weight = "-0.9817554652780349" />
    <synapse sourceNeuronName = "7" targetNeuronName = "12" weight = "-0.9251690556532193" />
    <synapse sourceNeuronName = "7" targetNeuronName = "13" weight = "-0.686027607270973" />
    <synapse sourceNeuronName = "7" targetNeuronName = "14" weight = "-0.43215149384497087" />
    <synapse sourceNeuronName = "7" targetNeuronName = "15" weight = "-0.48849322373439863" />
    <synapse sourceNeuronName = "7" targetNeuronName = "16" weight = "-0.320784156320846" />
    <synapse sourceNeuronName = "8" targetNeuronName = "9" weight = "-0.28099308626343045" />
    <synapse sourceNeuronName = "8" targetNeuronName = "10" weight = "0.1629681437808097" />
    <synapse sourceNeuronName = "8" targetNeuronName = "11" weight = "0.7971570908291858" />
    <synapse sourceNeuronName = "8" targetNeuronName = "12" weight = "-0.23298039632199008" />
    <synapse sourceNeuronName = "8" targetNeuronName = "13" weight = "0.2637206679720403" />
    <synapse sourceNeuronName = "8" targetNeuronName = "14" weight = "-0.8943052360928256" />
    <synapse sourceNeuronName = "8" targetNeuronName = "15" weight = "-0.7470684983430023" />
    <synapse sourceNeuronName = "8" targetNeuronName = "16" weight = "0.3235413914013594" />
</neuralNetwork>