<neuralNetwork>
    <neuron name = "0" type = "sensor" linkName = "Torso" />
    <neuron name = "1" type = "sensor" linkName = "BackLeg" />
    <neuron name = "2" type = "sensor" linkName = "FrontLeg" />
    <neuron name = "3" type = "sensor" linkName = "LeftLeg" />
    <neuron name = "4" type = "sensor" linkName = "RightLeg" />
    <neuron name = "5" type = "sensor" linkName = "BackLowerLeg" />
    <neuron name = "6" type = "sensor" linkName = "FrontLowerLeg" />
    <neuron name = "7" type = "sensor" linkName = "LeftLowerLeg" />
    <neuron name = "8" type = "sensor" linkName = "RightLowerLeg" />
    <neuron name = "9" type = "motor"  jointName = "Torso_BackLeg" />
    <neuron name = "10" type = "motor"  jointName = "Torso_FrontLeg" />
    <neuron name = "11" type = "motor"  jointName = "Torso_LeftLeg" />
    <neuron name = "12" type = "motor"  jointName = "Torso_RightLeg" />
    <neuron name = "13" type = "motor"  jointName = "BackLeg_BackLowerLeg" />
    <neuron name = "14" type = "motor"  jointName = "FrontLeg_FrontLowerLeg" />
    <neuron name = "15" type = "motor"  jointName = "LeftLeg_LeftLowerLeg" />
    <neuron name = "16" type = "motor"  jointName = "RightLeg_RightLowerLeg" />
    <synapse sourceNeuronName = "0" targetNeuronName = "9" weight = "0.9294632899468125" />
    <synapse sourceNeuronName = "0" targetNeuronName = "10" weight = "0.8648164864767918" />
    <synapse sourceNeuronName = "0" targetNeuronName = "11" weight = "0.11674646289849866" />
    <synapse sourceNeuronName = "0" targetNeuronName = "12" weight = "0.5859040249684402" />
    <synapse sourceNeuronName = "0" targetNeuronName = "13" weight = "0.6083691748886637" />
    <synapse sourceNeuronName = "0" targetNeuronName = "14" weight = "-0.22831062672028457" />
    <synapse sourceNeuronName = "0" targetNeuronName = "15" weight = "-0.38832259033767214" />
    <synapse sourceNeuronName = "0" targetNeuronName = "16" weight = "0.9223037429791685" />
    <synapse sourceNeuronName = "1" targetNeuronName = "9" weight = "-0.33459924006544073" />
    <synapse sourceNeuronName = "1" targetNeuronName = "10" weight = "-0.43165102715883763" />
    <synapse sourceNeuronName = "1" targetNeuronName = "11" weight = "0.31338294423096147" />
    <synapse sourceNeuronName = "1" targetNeuronName = "12" weight = "0.9558085302939257" />
    <synapse sourceNeuronName = "1" targetNeuronName = "13" weight = "0.8187393831255081" />
    <synapse sourceNeuronName = "1" targetNeuronName = "14" weight = "-0.27792377844836214" />
    <synapse sourceNeuronName = "1" targetNeuronName = "15" weight = "0.1950828519437411" />
    <synapse sourceNeuronName = "1" targetNeuronName = "16" weight = "-0.2992344146896886" />
    <synapse sourceNeuronName = "2" targetNeuronName = "9" weight = "-0.10245720479602749" />
    <synapse sourceNeuronName = "2" targetNeuronName = "10" weight = "0.9454073080294514" />
    <synapse sourceNeuronName = "2" targetNeuronName = "11" weight = "0.7434094978600181" />
    <synapse sourceNeuronName = "2" targetNeuronName = "12" weight = "-0.7105329917629066" />
    <synapse sourceNeuronName = "2" targetNeuronName = "13" weight = "-0.5200177582896022" />
    <synapse sourceNeuronName = "2" targetNeuronName = "14" weight = "0.402728556457951" />
    <synapse sourceNeuronName = "2" targetNeuronName = "15" weight = "-0.2522593926867429" />
    <synapse sourceNeuronName = "2" targetNeuronName = "16" weight = "0.8293607916934997" />
    <synapse sourceNeuronName = "3" targetNeuronName = "9" weight = "0.8844245844170542" />
    <synapse sourceNeuronName = "3" targetNeuronName = "10" weight = "0.05990388145058878" />
    <synapse sourceNeuronName = "3" targetNeuronName = "11" weight = "0.47952471277649544" />
    <synapse sourceNeuronName = "3" targetNeuronName = "12" weight = "-0.6639461540774823" />
    <synapse sourceNeuronName = "3" targetNeuronName = "13" weight = "-0.19714422648914431" />
    <synapse sourceNeuronName = "3" targetNeuronName = "14" weight = "0.8835513218765998" />
    <synapse sourceNeuronName = "3" targetNeuronName = "15" weight = "-0.010013402349998257" />
    <synapse sourceNeuronName = "3" targetNeuronName = "16" weight = "-0.6990215895150178" />
    <synapse sourceNeuronName = "4" targetNeuronName = "9" weight = "-0.4982456317284085" />
    <synapse sourceNeuronName = "4" targetNeuronName = "10" weight = "0.6171740544958215" />
    <synapse sourceNeuronName = "4" targetNeuronName = "11" weight = "-0.6500528289882934" />
    <synapse sourceNeuronName = "4" targetNeuronName = "12" weight = "0.8360455117746197" />
    <synapse sourceNeuronName = "4" targetNeuronName = "13" weight = "0.7912531770700746" />
    <synapse sourceNeuronName = "4" targetNeuronName = "14" weight = "0.7231373978341693" />
    <synapse sourceNeuronName = "4" targetNeuronName = "15" weight = "0.2610240026470434" />
    <synapse sourceNeuronName = "4" targetNeuronName = "16" weight = "0.12756643777825127" />
    <synapse sourceNeuronName = "5" targetNeuronName = "9" weight = "0.054112892511672506" />
    <synapse sourceNeuronName = "5" targetNeuronName = "10" weight = "0.6569697054334829" />
    <synapse sourceNeuronName = "5" targetNeuronName = "11" weight = "0.1289842336384841" />
    <synapse sourceNeuronName = "5" targetNeuronName = "12" weight = "0.021791412236123575" />
    <synapse sourceNeuronName = "5" targetNeuronName = "13" weight = "-0.6933608464030392" />
    <synapse sourceNeuronName = "5" targetNeuronName = "14" weight = "-0.7200721879035461" />
    <synapse sourceNeuronName = "5" targetNeuronName = "15" weight = "-0.39709584915777096" />
    <synapse sourceNeuronName = "5" targetNeuronName = "16" weight = "0.9654839134736015" />
    <synapse sourceNeuronName = "6" targetNeuronName = "9" weight = "0.16676648462609456" />
    <synapse sourceNeuronName = "6" targetNeuronName = "10" weight = "-0.39344011219425745" />
    <synapse sourceNeuronName = "6" targetNeuronName = "11" weight = "-0.38593818412010816" />
    <synapse sourceNeuronName = "6" targetNeuronName = "12" weight = "0.05581925759196493" />
    <synapse sourceNeuronName = "6" targetNeuronName = "13" weight = "0.07551360618203296" />
    <synapse sourceNeuronName = "6" targetNeuronName = "14" weight = "0.5421271656808015" />
    <synapse sourceNeuronName = "6" targetNeuronName = "15" weight = "-0.8497078039890706" />
    <synapse sourceNeuronName = "6" targetNeuronName = "16" weight = "0.5154818742926031" />
    <synapse sourceNeuronName = "7" targetNeuronName = "9" weight = "0.31190596074302124" />
    <synapse sourceNeuronName = "7" targetNeuronName = "10" weight = "0.8955720973760855" />
    <synapse sourceNeuronName = "7" targetNeuronName = "11" weight = "-0.8860820423513522" />
    <synapse sourceNeuronName = "7" targetNeuronName = "12" weight = "0.017768370725927074" />
    <synapse sourceNeuronName = "7" targetNeuronName = "13" weight = "0.223444363357157" />
    <synapse sourceNeuronName = "7" targetNeuronName = "14" weight = "0.04731455714891819" />
    <synapse sourceNeuronName = "7" targetNeuronName = "15" weight = "0.5471305238335937" />
    <synapse sourceNeuronName = "7" targetNeuronName = "16" weight = "-0.3757468948997229" />
    <synapse sourceNeuronName = "8" targetNeuronName = "9" weight = "-0.31480911959966607" />
    <synapse sourceNeuronName = "8" targetNeuronName = "10" weight = "-0.2937225936671637" />
    <synapse sourceNeuronName = "8" targetNeuronName = "11" weight = "-0.30024485084999664" />
    <synapse sourceNeuronName = "8" targetNeuronName = "12" weight = "-0.19641672496380824" />
    <synapse sourceNeuronName = "8" targetNeuronName = "13" weight = "-0.7194048347909925" />
    <synapse sourceNeuronName = "8" targetNeuronName = "14" weight = "-0.9044819764386958" />
    <synapse sourceNeuronName = "8" targetNeuronName = "15" weight = "-0.750246003025471" />
    <synapse sourceNeuronName = "8" targetNeuronName = "16" weight = "-0.7374197770081061" />
</neuralNetwork>