<neuralNetwork>
    <neuron name = "0" type = "sensor" linkName = "Torso" />
    <neuron name = "1" type = "sensor" linkName = "BackLeg" />
    <neuron name = "2" type = "sensor" linkName = "FrontLeg" />
    <neuron name = "3" type = "sensor" linkName = "LeftLeg" />
    <neuron name = "4" type = "sensor" linkName = "RightLeg" />
    <neuron name = "5" type = "sensor" linkName = "BackLowerLeg" />
    <neuron name = "6" type = "sensor" linkName = "FrontLowerLeg" />
    <neuron name = "7" type = "sensor" linkName = "LeftLowerLeg" />
    <neuron name = "8" type = "sensor" linkName = "RightLowerLeg" />
    <neuron name = "9" type = "motor"  jointName = "Torso_BackLeg" />
    <neuron name = "10" type = "motor"  jointName = "Torso_FrontLeg" />
    <neuron name = "11" type = "motor"  jointName = "Torso_LeftLeg" />
    <neuron name = "12" type = "motor"  jointName = "Torso_RightLeg" />
    <neuron name = "13" type = "motor"  jointName = "BackLeg_BackLowerLeg" />
    <neuron name = "14" type = "motor"  jointName = "FrontLeg_FrontLowerLeg" />
    <neuron name = "15" type = "motor"  jointName = "LeftLeg_LeftLowerLeg" />
    <neuron name = "16" type = "motor"  jointName = "RightLeg_RightLowerLeg" />
    <synapse sourceNeuronName = "0" targetNeuronName = "9" weight = "-0.9678711042815473" />
    <synapse sourceNeuronName = "0" targetNeuronName = "10" weight = "0.46473206526039057" />
    <synapse sourceNeuronName = "0" targetNeuronName = "11" weight = "0.9998791500749713" />
    <synapse sourceNeuronName = "0" targetNeuronName = "12" weight = "-0.5658456371128615" />
    <synapse sourceNeuronName = "0" targetNeuronName = "13" weight = "-0.5717187144518201" />
    <synapse sourceNeuronName = "0" targetNeuronName = "14" weight = "-0.506458665267018" />
    <synapse sourceNeuronName = "0" targetNeuronName = "15" weight = "0.04515283821221017" />
    <synapse sourceNeuronName = "0" targetNeuronName = "16" weight = "0.12575419751113426" />
    <synapse sourceNeuronName = "1" targetNeuronName = "9" weight = "0.9794369740555493" />
    <synapse sourceNeuronName = "1" targetNeuronName = "10" weight = "0.2840326893266829" />
    <synapse sourceNeuronName = "1" targetNeuronName = "11" weight = "0.13312125330352997" />
    <synapse sourceNeuronName = "1" targetNeuronName = "12" weight = "-0.6940087317980621" />
    <synapse sourceNeuronName = "1" targetNeuronName = "13" weight = "-0.5749895299617709" />
    <synapse sourceNeuronName = "1" targetNeuronName = "14" weight = "-0.9791312031996406" />
    <synapse sourceNeuronName = "1" targetNeuronName = "15" weight = "-0.21848919145315748" />
    <synapse sourceNeuronName = "1" targetNeuronName = "16" weight = "0.6398209482443094" />
    <synapse sourceNeuronName = "2" targetNeuronName = "9" weight = "-0.597121131111743" />
    <synapse sourceNeuronName = "2" targetNeuronName = "10" weight = "-0.004727474392868469" />
    <synapse sourceNeuronName = "2" targetNeuronName = "11" weight = "-0.7656156536542362" />
    <synapse sourceNeuronName = "2" targetNeuronName = "12" weight = "0.48030197761587656" />
    <synapse sourceNeuronName = "2" targetNeuronName = "13" weight = "-0.2228752270555252" />
    <synapse sourceNeuronName = "2" targetNeuronName = "14" weight = "-0.8099049056152212" />
    <synapse sourceNeuronName = "2" targetNeuronName = "15" weight = "-0.19852109836802212" />
    <synapse sourceNeuronName = "2" targetNeuronName = "16" weight = "-0.2557737897265142" />
    <synapse sourceNeuronName = "3" targetNeuronName = "9" weight = "-0.9360948600293879" />
    <synapse sourceNeuronName = "3" targetNeuronName = "10" weight = "-0.7880883031623818" />
    <synapse sourceNeuronName = "3" targetNeuronName = "11" weight = "0.8635545083777865" />
    <synapse sourceNeuronName = "3" targetNeuronName = "12" weight = "0.2480371501633427" />
    <synapse sourceNeuronName = "3" targetNeuronName = "13" weight = "0.2778438019929932" />
    <synapse sourceNeuronName = "3" targetNeuronName = "14" weight = "-0.13849254704149105" />
    <synapse sourceNeuronName = "3" targetNeuronName = "15" weight = "-0.5821835275132918" />
    <synapse sourceNeuronName = "3" targetNeuronName = "16" weight = "0.6299624789627805" />
    <synapse sourceNeuronName = "4" targetNeuronName = "9" weight = "0.6761938543342536" />
    <synapse sourceNeuronName = "4" targetNeuronName = "10" weight = "-0.7014929753826298" />
    <synapse sourceNeuronName = "4" targetNeuronName = "11" weight = "-0.24941165862397008" />
    <synapse sourceNeuronName = "4" targetNeuronName = "12" weight = "0.45747043542624044" />
    <synapse sourceNeuronName = "4" targetNeuronName = "13" weight = "0.9311233186224372" />
    <synapse sourceNeuronName = "4" targetNeuronName = "14" weight = "0.9266940980075538" />
    <synapse sourceNeuronName = "4" targetNeuronName = "15" weight = "0.20295582832807724" />
    <synapse sourceNeuronName = "4" targetNeuronName = "16" weight = "0.9109477649008246" />
    <synapse sourceNeuronName = "5" targetNeuronName = "9" weight = "0.22488805159069614" />
    <synapse sourceNeuronName = "5" targetNeuronName = "10" weight = "-0.27291324739970535" />
    <synapse sourceNeuronName = "5" targetNeuronName = "11" weight = "-0.7935726749417744" />
    <synapse sourceNeuronName = "5" targetNeuronName = "12" weight = "-0.8773114133810367" />
    <synapse sourceNeuronName = "5" targetNeuronName = "13" weight = "-0.8662911507640143" />
    <synapse sourceNeuronName = "5" targetNeuronName = "14" weight = "-0.8398730608026423" />
    <synapse sourceNeuronName = "5" targetNeuronName = "15" weight = "-0.4640639460599403" />
    <synapse sourceNeuronName = "5" targetNeuronName = "16" weight = "0.37813166591839154" />
    <synapse sourceNeuronName = "6" targetNeuronName = "9" weight = "0.3104821011128349" />
    <synapse sourceNeuronName = "6" targetNeuronName = "10" weight = "-0.07216023109874681" />
    <synapse sourceNeuronName = "6" targetNeuronName = "11" weight = "-0.21877683030693196" />
    <synapse sourceNeuronName = "6" targetNeuronName = "12" weight = "-0.29227022536043346" />
    <synapse sourceNeuronName = "6" targetNeuronName = "13" weight = "-0.46870463044833843" />
    <synapse sourceNeuronName = "6" targetNeuronName = "14" weight = "-0.671534703847211" />
    <synapse sourceNeuronName = "6" targetNeuronName = "15" weight = "0.17178325325048993" />
    <synapse sourceNeuronName = "6" targetNeuronName = "16" weight = "-0.6032373555869031" />
    <synapse sourceNeuronName = "7" targetNeuronName = "9" weight = "-0.3711405874643352" />
    <synapse sourceNeuronName = "7" targetNeuronName = "10" weight = "-0.401003073153974" />
    <synapse sourceNeuronName = "7" targetNeuronName = "11" weight = "0.7909157957408994" />
    <synapse sourceNeuronName = "7" targetNeuronName = "12" weight = "0.4940345370341095" />
    <synapse sourceNeuronName = "7" targetNeuronName = "13" weight = "0.8173923566735866" />
    <synapse sourceNeuronName = "7" targetNeuronName = "14" weight = "-0.11076856544964375" />
    <synapse sourceNeuronName = "7" targetNeuronName = "15" weight = "0.01339113898789246" />
    <synapse sourceNeuronName = "7" targetNeuronName = "16" weight = "-0.6495272215322936" />
    <synapse sourceNeuronName = "8" targetNeuronName = "9" weight = "0.616972600716202" />
    <synapse sourceNeuronName = "8" targetNeuronName = "10" weight = "-0.7203918207600899" />
    <synapse sourceNeuronName = "8" targetNeuronName = "11" weight = "0.470218903584271" />
    <synapse sourceNeuronName = "8" targetNeuronName = "12" weight = "0.7782417099696726" />
    <synapse sourceNeuronName = "8" targetNeuronName = "13" weight = "-0.48460143586168725" />
    <synapse sourceNeuronName = "8" targetNeuronName = "14" weight = "-0.2289516283215276" />
    <synapse sourceNeuronName = "8" targetNeuronName = "15" weight = "-0.5438010082355011" />
    <synapse sourceNeuronName = "8" targetNeuronName = "16" weight = "0.05912781444995163" />
</neuralNetwork>