<neuralNetwork>
    <neuron name = "0" type = "sensor" linkName = "Torso" />
    <neuron name = "1" type = "sensor" linkName = "BackLeg" />
    <neuron name = "2" type = "sensor" linkName = "FrontLeg" />
    <neuron name = "3" type = "sensor" linkName = "LeftLeg" />
    <neuron name = "4" type = "sensor" linkName = "RightLeg" />
    <neuron name = "5" type = "sensor" linkName = "BackLowerLeg" />
    <neuron name = "6" type = "sensor" linkName = "FrontLowerLeg" />
    <neuron name = "7" type = "sensor" linkName = "LeftLowerLeg" />
    <neuron name = "8" type = "sensor" linkName = "RightLowerLeg" />
    <neuron name = "9" type = "motor"  jointName = "Torso_BackLeg" />
    <neuron name = "10" type = "motor"  jointName = "Torso_FrontLeg" />
    <neuron name = "11" type = "motor"  jointName = "Torso_LeftLeg" />
    <neuron name = "12" type = "motor"  jointName = "Torso_RightLeg" />
    <neuron name = "13" type = "motor"  jointName = "BackLeg_BackLowerLeg" />
    <neuron name = "14" type = "motor"  jointName = "FrontLeg_FrontLowerLeg" />
    <neuron name = "15" type = "motor"  jointName = "LeftLeg_LeftLowerLeg" />
    <neuron name = "16" type = "motor"  jointName = "RightLeg_RightLowerLeg" />
    <synapse sourceNeuronName = "0" targetNeuronName = "9" weight = "-0.7572116844773729" />
    <synapse sourceNeuronName = "0" targetNeuronName = "10" weight = "0.014256790490581928" />
    <synapse sourceNeuronName = "0" targetNeuronName = "11" weight = "0.29272323077194184" />
    <synapse sourceNeuronName = "0" targetNeuronName = "12" weight = "0.4721044515328048" />
    <synapse sourceNeuronName = "0" targetNeuronName = "13" weight = "-0.27119943354098086" />
    <synapse sourceNeuronName = "0" targetNeuronName = "14" weight = "-0.7585092173380286" />
    <synapse sourceNeuronName = "0" targetNeuronName = "15" weight = "0.052967026947537965" />
    <synapse sourceNeuronName = "0" targetNeuronName = "16" weight = "0.5527247928679178" />
    <synapse sourceNeuronName = "1" targetNeuronName = "9" weight = "0.7023926485201359" />
    <synapse sourceNeuronName = "1" targetNeuronName = "10" weight = "0.4210013438787348" />
    <synapse sourceNeuronName = "1" targetNeuronName = "11" weight = "-0.07693439529093782" />
    <synapse sourceNeuronName = "1" targetNeuronName = "12" weight = "0.09868935750099772" />
    <synapse sourceNeuronName = "1" targetNeuronName = "13" weight = "-0.4414558268477864" />
    <synapse sourceNeuronName = "1" targetNeuronName = "14" weight = "0.8857525037929204" />
    <synapse sourceNeuronName = "1" targetNeuronName = "15" weight = "-0.7055859393781239" />
    <synapse sourceNeuronName = "1" targetNeuronName = "16" weight = "-0.552970928224533" />
    <synapse sourceNeuronName = "2" targetNeuronName = "9" weight = "0.025960299810620535" />
    <synapse sourceNeuronName = "2" targetNeuronName = "10" weight = "0.17845152386730034" />
    <synapse sourceNeuronName = "2" targetNeuronName = "11" weight = "-0.6164146212295336" />
    <synapse sourceNeuronName = "2" targetNeuronName = "12" weight = "0.9573366808664292" />
    <synapse sourceNeuronName = "2" targetNeuronName = "13" weight = "-0.1944905744531158" />
    <synapse sourceNeuronName = "2" targetNeuronName = "14" weight = "0.3983180259597714" />
    <synapse sourceNeuronName = "2" targetNeuronName = "15" weight = "0.9258702302446669" />
    <synapse sourceNeuronName = "2" targetNeuronName = "16" weight = "0.7095048610546781" />
    <synapse sourceNeuronName = "3" targetNeuronName = "9" weight = "-0.5998203567595137" />
    <synapse sourceNeuronName = "3" targetNeuronName = "10" weight = "-0.9966147299434052" />
    <synapse sourceNeuronName = "3" targetNeuronName = "11" weight = "0.9652913725750949" />
    <synapse sourceNeuronName = "3" targetNeuronName = "12" weight = "-0.48711876973945145" />
    <synapse sourceNeuronName = "3" targetNeuronName = "13" weight = "-0.03212564776087734" />
    <synapse sourceNeuronName = "3" targetNeuronName = "14" weight = "-0.025168003906816505" />
    <synapse sourceNeuronName = "3" targetNeuronName = "15" weight = "-0.9923535660666587" />
    <synapse sourceNeuronName = "3" targetNeuronName = "16" weight = "0.15721107879391205" />
    <synapse sourceNeuronName = "4" targetNeuronName = "9" weight = "-0.7783310517011364" />
    <synapse sourceNeuronName = "4" targetNeuronName = "10" weight = "0.47583781733340635" />
    <synapse sourceNeuronName = "4" targetNeuronName = "11" weight = "-0.029034266955850097" />
    <synapse sourceNeuronName = "4" targetNeuronName = "12" weight = "0.8628166747386485" />
    <synapse sourceNeuronName = "4" targetNeuronName = "13" weight = "0.4276410581429959" />
    <synapse sourceNeuronName = "4" targetNeuronName = "14" weight = "0.5743408493910949" />
    <synapse sourceNeuronName = "4" targetNeuronName = "15" weight = "0.707734065997899" />
    <synapse sourceNeuronName = "4" targetNeuronName = "16" weight = "0.25804897190065446" />
    <synapse sourceNeuronName = "5" targetNeuronName = "9" weight = "-0.12560315889532192" />
    <synapse sourceNeuronName = "5" targetNeuronName = "10" weight = "0.1544105391004711" />
    <synapse sourceNeuronName = "5" targetNeuronName = "11" weight = "-0.602510234402843" />
    <synapse sourceNeuronName = "5" targetNeuronName = "12" weight = "0.8609904098735146" />
    <synapse sourceNeuronName = "5" targetNeuronName = "13" weight = "-0.9782349139863984" />
    <synapse sourceNeuronName = "5" targetNeuronName = "14" weight = "-0.7798090373402695" />
    <synapse sourceNeuronName = "5" targetNeuronName = "15" weight = "0.5497902143438338" />
    <synapse sourceNeuronName = "5" targetNeuronName = "16" weight = "0.09829675766249601" />
    <synapse sourceNeuronName = "6" targetNeuronName = "9" weight = "-0.8751163988424435" />
    <synapse sourceNeuronName = "6" targetNeuronName = "10" weight = "-0.3277293632187066" />
    <synapse sourceNeuronName = "6" targetNeuronName = "11" weight = "0.5789604671550033" />
    <synapse sourceNeuronName = "6" targetNeuronName = "12" weight = "-0.09272905097506534" />
    <synapse sourceNeuronName = "6" targetNeuronName = "13" weight = "-0.8325194859142933" />
    <synapse sourceNeuronName = "6" targetNeuronName = "14" weight = "0.04400618758942798" />
    <synapse sourceNeuronName = "6" targetNeuronName = "15" weight = "0.5102258798729582" />
    <synapse sourceNeuronName = "6" targetNeuronName = "16" weight = "-0.40186364863876944" />
    <synapse sourceNeuronName = "7" targetNeuronName = "9" weight = "0.5986242408316842" />
    <synapse sourceNeuronName = "7" targetNeuronName = "10" weight = "0.6669833469939723" />
    <synapse sourceNeuronName = "7" targetNeuronName = "11" weight = "-0.8546432898520655" />
    <synapse sourceNeuronName = "7" targetNeuronName = "12" weight = "0.34650502034898323" />
    <synapse sourceNeuronName = "7" targetNeuronName = "13" weight = "-0.4035279911433489" />
    <synapse sourceNeuronName = "7" targetNeuronName = "14" weight = "-0.13774515133467347" />
    <synapse sourceNeuronName = "7" targetNeuronName = "15" weight = "0.21081876440683178" />
    <synapse sourceNeuronName = "7" targetNeuronName = "16" weight = "0.7662967291063081" />
    <synapse sourceNeuronName = "8" targetNeuronName = "9" weight = "0.29848848491912583" />
    <synapse sourceNeuronName = "8" targetNeuronName = "10" weight = "0.3031572885735745" />
    <synapse sourceNeuronName = "8" targetNeuronName = "11" weight = "-0.6518069780619866" />
    <synapse sourceNeuronName = "8" targetNeuronName = "12" weight = "-0.5842167098288467" />
    <synapse sourceNeuronName = "8" targetNeuronName = "13" weight = "0.1742038120803755" />
    <synapse sourceNeuronName = "8" targetNeuronName = "14" weight = "0.8759479231229435" />
    <synapse sourceNeuronName = "8" targetNeuronName = "15" weight = "-0.42252755377378115" />
    <synapse sourceNeuronName = "8" targetNeuronName = "16" weight = "-0.024589061775247778" />
</neuralNetwork>