<neuralNetwork>
    <neuron name = "0" type = "sensor" linkName = "Torso" />
    <neuron name = "1" type = "sensor" linkName = "BackLeg" />
    <neuron name = "2" type = "sensor" linkName = "FrontLeg" />
    <neuron name = "3" type = "sensor" linkName = "LeftLeg" />
    <neuron name = "4" type = "sensor" linkName = "RightLeg" />
    <neuron name = "5" type = "sensor" linkName = "BackLowerLeg" />
    <neuron name = "6" type = "sensor" linkName = "FrontLowerLeg" />
    <neuron name = "7" type = "sensor" linkName = "LeftLowerLeg" />
    <neuron name = "8" type = "sensor" linkName = "RightLowerLeg" />
    <neuron name = "9" type = "motor"  jointName = "Torso_BackLeg" />
    <neuron name = "10" type = "motor"  jointName = "Torso_FrontLeg" />
    <neuron name = "11" type = "motor"  jointName = "Torso_LeftLeg" />
    <neuron name = "12" type = "motor"  jointName = "Torso_RightLeg" />
    <neuron name = "13" type = "motor"  jointName = "BackLeg_BackLowerLeg" />
    <neuron name = "14" type = "motor"  jointName = "FrontLeg_FrontLowerLeg" />
    <neuron name = "15" type = "motor"  jointName = "LeftLeg_LeftLowerLeg" />
    <neuron name = "16" type = "motor"  jointName = "RightLeg_RightLowerLeg" />
    <synapse sourceNeuronName = "0" targetNeuronName = "9" weight = "0.9036778677930479" />
    <synapse sourceNeuronName = "0" targetNeuronName = "10" weight = "-0.07416791771034581" />
    <synapse sourceNeuronName = "0" targetNeuronName = "11" weight = "0.19808246665778473" />
    <synapse sourceNeuronName = "0" targetNeuronName = "12" weight = "0.7712312687295158" />
    <synapse sourceNeuronName = "0" targetNeuronName = "13" weight = "0.3526182254318979" />
    <synapse sourceNeuronName = "0" targetNeuronName = "14" weight = "-0.8202212452286439" />
    <synapse sourceNeuronName = "0" targetNeuronName = "15" weight = "-0.4626107776778823" />
    <synapse sourceNeuronName = "0" targetNeuronName = "16" weight = "-0.7411497739237483" />
    <synapse sourceNeuronName = "1" targetNeuronName = "9" weight = "-0.37670747011837746" />
    <synapse sourceNeuronName = "1" targetNeuronName = "10" weight = "-0.01103156883871348" />
    <synapse sourceNeuronName = "1" targetNeuronName = "11" weight = "0.9099683704891941" />
    <synapse sourceNeuronName = "1" targetNeuronName = "12" weight = "0.7436991380871312" />
    <synapse sourceNeuronName = "1" targetNeuronName = "13" weight = "0.5388088995205207" />
    <synapse sourceNeuronName = "1" targetNeuronName = "14" weight = "-0.7252472279863547" />
    <synapse sourceNeuronName = "1" targetNeuronName = "15" weight = "0.7295053162170333" />
    <synapse sourceNeuronName = "1" targetNeuronName = "16" weight = "-0.6338321778542062" />
    <synapse sourceNeuronName = "2" targetNeuronName = "9" weight = "0.47004837136236244" />
    <synapse sourceNeuronName = "2" targetNeuronName = "10" weight = "0.01873483396065634" />
    <synapse sourceNeuronName = "2" targetNeuronName = "11" weight = "0.07514186717930338" />
    <synapse sourceNeuronName = "2" targetNeuronName = "12" weight = "-0.5879347219422439" />
    <synapse sourceNeuronName = "2" targetNeuronName = "13" weight = "0.9618352563303447" />
    <synapse sourceNeuronName = "2" targetNeuronName = "14" weight = "-0.6133399406278985" />
    <synapse sourceNeuronName = "2" targetNeuronName = "15" weight = "-0.5422218323040262" />
    <synapse sourceNeuronName = "2" targetNeuronName = "16" weight = "0.15168843614445038" />
    <synapse sourceNeuronName = "3" targetNeuronName = "9" weight = "-0.08697650774126076" />
    <synapse sourceNeuronName = "3" targetNeuronName = "10" weight = "-0.1054588392257183" />
    <synapse sourceNeuronName = "3" targetNeuronName = "11" weight = "-0.43539533763469107" />
    <synapse sourceNeuronName = "3" targetNeuronName = "12" weight = "0.8846719223304824" />
    <synapse sourceNeuronName = "3" targetNeuronName = "13" weight = "0.12484927294866188" />
    <synapse sourceNeuronName = "3" targetNeuronName = "14" weight = "-0.9427990147157306" />
    <synapse sourceNeuronName = "3" targetNeuronName = "15" weight = "-0.34186875947530204" />
    <synapse sourceNeuronName = "3" targetNeuronName = "16" weight = "-0.3559269350155463" />
    <synapse sourceNeuronName = "4" targetNeuronName = "9" weight = "-0.32248055838051126" />
    <synapse sourceNeuronName = "4" targetNeuronName = "10" weight = "-0.26933057097753865" />
    <synapse sourceNeuronName = "4" targetNeuronName = "11" weight = "0.18549531420133802" />
    <synapse sourceNeuronName = "4" targetNeuronName = "12" weight = "-0.6504978089299482" />
    <synapse sourceNeuronName = "4" targetNeuronName = "13" weight = "-0.2908455200455595" />
    <synapse sourceNeuronName = "4" targetNeuronName = "14" weight = "0.9815563946512591" />
    <synapse sourceNeuronName = "4" targetNeuronName = "15" weight = "0.188854514436392" />
    <synapse sourceNeuronName = "4" targetNeuronName = "16" weight = "-0.28373511530284934" />
    <synapse sourceNeuronName = "5" targetNeuronName = "9" weight = "-0.28590993120411845" />
    <synapse sourceNeuronName = "5" targetNeuronName = "10" weight = "0.9610755548769934" />
    <synapse sourceNeuronName = "5" targetNeuronName = "11" weight = "-0.9432716854208745" />
    <synapse sourceNeuronName = "5" targetNeuronName = "12" weight = "0.5901122061824098" />
    <synapse sourceNeuronName = "5" targetNeuronName = "13" weight = "-0.9625863229668832" />
    <synapse sourceNeuronName = "5" targetNeuronName = "14" weight = "-0.1966542768191748" />
    <synapse sourceNeuronName = "5" targetNeuronName = "15" weight = "0.009422218551194517" />
    <synapse sourceNeuronName = "5" targetNeuronName = "16" weight = "-0.5844311260264019" />
    <synapse sourceNeuronName = "6" targetNeuronName = "9" weight = "-0.04511190541367038" />
    <synapse sourceNeuronName = "6" targetNeuronName = "10" weight = "-0.8754532012189002" />
    <synapse sourceNeuronName = "6" targetNeuronName = "11" weight = "-0.03928392125981439" />
    <synapse sourceNeuronName = "6" targetNeuronName = "12" weight = "-0.5195063649408336" />
    <synapse sourceNeuronName = "6" targetNeuronName = "13" weight = "0.8660541470691705" />
    <synapse sourceNeuronName = "6" targetNeuronName = "14" weight = "0.1259861252921366" />
    <synapse sourceNeuronName = "6" targetNeuronName = "15" weight = "0.020310084618843982" />
    <synapse sourceNeuronName = "6" targetNeuronName = "16" weight = "-0.34892147191446954" />
    <synapse sourceNeuronName = "7" targetNeuronName = "9" weight = "0.10769522144367705" />
    <synapse sourceNeuronName = "7" targetNeuronName = "10" weight = "-0.042643382853616574" />
    <synapse sourceNeuronName = "7" targetNeuronName = "11" weight = "0.1394526351455021" />
    <synapse sourceNeuronName = "7" targetNeuronName = "12" weight = "0.6472066860585839" />
    <synapse sourceNeuronName = "7" targetNeuronName = "13" weight = "-0.35062178684333944" />
    <synapse sourceNeuronName = "7" targetNeuronName = "14" weight = "0.10610451895480555" />
    <synapse sourceNeuronName = "7" targetNeuronName = "15" weight = "-0.4075199263839344" />
    <synapse sourceNeuronName = "7" targetNeuronName = "16" weight = "0.007914331129800445" />
    <synapse sourceNeuronName = "8" targetNeuronName = "9" weight = "0.8014493978047705" />
    <synapse sourceNeuronName = "8" targetNeuronName = "10" weight = "0.0016054054616472246" />
    <synapse sourceNeuronName = "8" targetNeuronName = "11" weight = "-0.9939290051489424" />
    <synapse sourceNeuronName = "8" targetNeuronName = "12" weight = "0.43630744032532354" />
    <synapse sourceNeuronName = "8" targetNeuronName = "13" weight = "-0.16995538083711792" />
    <synapse sourceNeuronName = "8" targetNeuronName = "14" weight = "-0.2512583100670809" />
    <synapse sourceNeuronName = "8" targetNeuronName = "15" weight = "-0.7629422583680574" />
    <synapse sourceNeuronName = "8" targetNeuronName = "16" weight = "-0.23077535942071226" />
</neuralNetwork>