<neuralNetwork>
    <neuron name = "0" type = "sensor" linkName = "Torso" />
    <neuron name = "1" type = "sensor" linkName = "BackLeg" />
    <neuron name = "2" type = "sensor" linkName = "FrontLeg" />
    <neuron name = "3" type = "sensor" linkName = "LeftLeg" />
    <neuron name = "4" type = "sensor" linkName = "RightLeg" />
    <neuron name = "5" type = "sensor" linkName = "BackLowerLeg" />
    <neuron name = "6" type = "sensor" linkName = "FrontLowerLeg" />
    <neuron name = "7" type = "sensor" linkName = "LeftLowerLeg" />
    <neuron name = "8" type = "sensor" linkName = "RightLowerLeg" />
    <neuron name = "9" type = "motor"  jointName = "Torso_BackLeg" />
    <neuron name = "10" type = "motor"  jointName = "Torso_FrontLeg" />
    <neuron name = "11" type = "motor"  jointName = "Torso_LeftLeg" />
    <neuron name = "12" type = "motor"  jointName = "Torso_RightLeg" />
    <neuron name = "13" type = "motor"  jointName = "BackLeg_BackLowerLeg" />
    <neuron name = "14" type = "motor"  jointName = "FrontLeg_FrontLowerLeg" />
    <neuron name = "15" type = "motor"  jointName = "LeftLeg_LeftLowerLeg" />
    <neuron name = "16" type = "motor"  jointName = "RightLeg_RightLowerLeg" />
    <synapse sourceNeuronName = "0" targetNeuronName = "9" weight = "-0.1389336848542857" />
    <synapse sourceNeuronName = "0" targetNeuronName = "10" weight = "0.821475024757002" />
    <synapse sourceNeuronName = "0" targetNeuronName = "11" weight = "0.47281787241960815" />
    <synapse sourceNeuronName = "0" targetNeuronName = "12" weight = "-0.5638970610058751" />
    <synapse sourceNeuronName = "0" targetNeuronName = "13" weight = "0.25832962997562303" />
    <synapse sourceNeuronName = "0" targetNeuronName = "14" weight = "0.19077240198361123" />
    <synapse sourceNeuronName = "0" targetNeuronName = "15" weight = "0.455385358101265" />
    <synapse sourceNeuronName = "0" targetNeuronName = "16" weight = "-0.8278544533698355" />
    <synapse sourceNeuronName = "1" targetNeuronName = "9" weight = "0.4673745959990523" />
    <synapse sourceNeuronName = "1" targetNeuronName = "10" weight = "0.6454633559024379" />
    <synapse sourceNeuronName = "1" targetNeuronName = "11" weight = "0.37284278236117263" />
    <synapse sourceNeuronName = "1" targetNeuronName = "12" weight = "0.11200987386909511" />
    <synapse sourceNeuronName = "1" targetNeuronName = "13" weight = "0.26259555619705344" />
    <synapse sourceNeuronName = "1" targetNeuronName = "14" weight = "-0.9566537200576706" />
    <synapse sourceNeuronName = "1" targetNeuronName = "15" weight = "0.10838709549177006" />
    <synapse sourceNeuronName = "1" targetNeuronName = "16" weight = "0.22501724296598957" />
    <synapse sourceNeuronName = "2" targetNeuronName = "9" weight = "0.8125103536233829" />
    <synapse sourceNeuronName = "2" targetNeuronName = "10" weight = "-0.2948467971256037" />
    <synapse sourceNeuronName = "2" targetNeuronName = "11" weight = "0.13323501924537196" />
    <synapse sourceNeuronName = "2" targetNeuronName = "12" weight = "0.8006986374751457" />
    <synapse sourceNeuronName = "2" targetNeuronName = "13" weight = "-0.6079830903306764" />
    <synapse sourceNeuronName = "2" targetNeuronName = "14" weight = "-0.13151208092369027" />
    <synapse sourceNeuronName = "2" targetNeuronName = "15" weight = "-0.11922408732663592" />
    <synapse sourceNeuronName = "2" targetNeuronName = "16" weight = "0.9249577248625414" />
    <synapse sourceNeuronName = "3" targetNeuronName = "9" weight = "0.6510504038287772" />
    <synapse sourceNeuronName = "3" targetNeuronName = "10" weight = "-0.14597403215082827" />
    <synapse sourceNeuronName = "3" targetNeuronName = "11" weight = "0.04080627038625684" />
    <synapse sourceNeuronName = "3" targetNeuronName = "12" weight = "0.8215261468066266" />
    <synapse sourceNeuronName = "3" targetNeuronName = "13" weight = "-0.8915273795689695" />
    <synapse sourceNeuronName = "3" targetNeuronName = "14" weight = "-0.2304510225292069" />
    <synapse sourceNeuronName = "3" targetNeuronName = "15" weight = "0.4002683803080511" />
    <synapse sourceNeuronName = "3" targetNeuronName = "16" weight = "-0.5594230011661303" />
    <synapse sourceNeuronName = "4" targetNeuronName = "9" weight = "0.6498861510729581" />
    <synapse sourceNeuronName = "4" targetNeuronName = "10" weight = "-0.64349900039266" />
    <synapse sourceNeuronName = "4" targetNeuronName = "11" weight = "-0.060411083028374835" />
    <synapse sourceNeuronName = "4" targetNeuronName = "12" weight = "-0.42121878500754795" />
    <synapse sourceNeuronName = "4" targetNeuronName = "13" weight = "0.18550737912930115" />
    <synapse sourceNeuronName = "4" targetNeuronName = "14" weight = "0.4772069337571707" />
    <synapse sourceNeuronName = "4" targetNeuronName = "15" weight = "0.97242761820896" />
    <synapse sourceNeuronName = "4" targetNeuronName = "16" weight = "0.3418039020728605" />
    <synapse sourceNeuronName = "5" targetNeuronName = "9" weight = "-0.8989408573766213" />
    <synapse sourceNeuronName = "5" targetNeuronName = "10" weight = "-0.3476603380824046" />
    <synapse sourceNeuronName = "5" targetNeuronName = "11" weight = "0.5595171258853213" />
    <synapse sourceNeuronName = "5" targetNeuronName = "12" weight = "-0.2844163255784058" />
    <synapse sourceNeuronName = "5" targetNeuronName = "13" weight = "0.7640332256605096" />
    <synapse sourceNeuronName = "5" targetNeuronName = "14" weight = "0.4753997189485286" />
    <synapse sourceNeuronName = "5" targetNeuronName = "15" weight = "0.8037177400160371" />
    <synapse sourceNeuronName = "5" targetNeuronName = "16" weight = "0.398936143183656" />
    <synapse sourceNeuronName = "6" targetNeuronName = "9" weight = "0.20847960052711367" />
    <synapse sourceNeuronName = "6" targetNeuronName = "10" weight = "-0.14524263770146395" />
    <synapse sourceNeuronName = "6" targetNeuronName = "11" weight = "-0.46360257516272063" />
    <synapse sourceNeuronName = "6" targetNeuronName = "12" weight = "-0.3816920945154567" />
    <synapse sourceNeuronName = "6" targetNeuronName = "13" weight = "-0.293018754584365" />
    <synapse sourceNeuronName = "6" targetNeuronName = "14" weight = "0.43665943256679807" />
    <synapse sourceNeuronName = "6" targetNeuronName = "15" weight = "0.8524934436054559" />
    <synapse sourceNeuronName = "6" targetNeuronName = "16" weight = "-0.9398589255416661" />
    <synapse sourceNeuronName = "7" targetNeuronName = "9" weight = "-0.5659347099114784" />
    <synapse sourceNeuronName = "7" targetNeuronName = "10" weight = "-0.9859862260999797" />
    <synapse sourceNeuronName = "7" targetNeuronName = "11" weight = "-0.4426425758425385" />
    <synapse sourceNeuronName = "7" targetNeuronName = "12" weight = "0.1484684848592237" />
    <synapse sourceNeuronName = "7" targetNeuronName = "13" weight = "0.4991759326942524" />
    <synapse sourceNeuronName = "7" targetNeuronName = "14" weight = "0.26966947996184265" />
    <synapse sourceNeuronName = "7" targetNeuronName = "15" weight = "0.5764325736282423" />
    <synapse sourceNeuronName = "7" targetNeuronName = "16" weight = "-0.8229738201532304" />
    <synapse sourceNeuronName = "8" targetNeuronName = "9" weight = "0.11546013999408133" />
    <synapse sourceNeuronName = "8" targetNeuronName = "10" weight = "-0.7977138297196733" />
    <synapse sourceNeuronName = "8" targetNeuronName = "11" weight = "-0.4891600274357184" />
    <synapse sourceNeuronName = "8" targetNeuronName = "12" weight = "-0.052017429422635875" />
    <synapse sourceNeuronName = "8" targetNeuronName = "13" weight = "0.0847283330602262" />
    <synapse sourceNeuronName = "8" targetNeuronName = "14" weight = "-0.5258805712677677" />
    <synapse sourceNeuronName = "8" targetNeuronName = "15" weight = "0.3798622947563852" />
    <synapse sourceNeuronName = "8" targetNeuronName = "16" weight = "-0.11169575318421754" />
</neuralNetwork>