<neuralNetwork>
    <neuron name = "0" type = "sensor" linkName = "Torso" />
    <neuron name = "1" type = "sensor" linkName = "BackLeg" />
    <neuron name = "2" type = "sensor" linkName = "FrontLeg" />
    <neuron name = "3" type = "sensor" linkName = "LeftLeg" />
    <neuron name = "4" type = "sensor" linkName = "RightLeg" />
    <neuron name = "5" type = "sensor" linkName = "BackLowerLeg" />
    <neuron name = "6" type = "sensor" linkName = "FrontLowerLeg" />
    <neuron name = "7" type = "sensor" linkName = "LeftLowerLeg" />
    <neuron name = "8" type = "sensor" linkName = "RightLowerLeg" />
    <neuron name = "9" type = "motor"  jointName = "Torso_BackLeg" />
    <neuron name = "10" type = "motor"  jointName = "Torso_FrontLeg" />
    <neuron name = "11" type = "motor"  jointName = "Torso_LeftLeg" />
    <neuron name = "12" type = "motor"  jointName = "Torso_RightLeg" />
    <neuron name = "13" type = "motor"  jointName = "BackLeg_BackLowerLeg" />
    <neuron name = "14" type = "motor"  jointName = "FrontLeg_FrontLowerLeg" />
    <neuron name = "15" type = "motor"  jointName = "LeftLeg_LeftLowerLeg" />
    <neuron name = "16" type = "motor"  jointName = "RightLeg_RightLowerLeg" />
    <synapse sourceNeuronName = "0" targetNeuronName = "9" weight = "-0.3805662371915399" />
    <synapse sourceNeuronName = "0" targetNeuronName = "10" weight = "-0.9221331224702891" />
    <synapse sourceNeuronName = "0" targetNeuronName = "11" weight = "-0.6965858893239456" />
    <synapse sourceNeuronName = "0" targetNeuronName = "12" weight = "-0.03327848511804432" />
    <synapse sourceNeuronName = "0" targetNeuronName = "13" weight = "-0.6965148617341861" />
    <synapse sourceNeuronName = "0" targetNeuronName = "14" weight = "0.09268385079392583" />
    <synapse sourceNeuronName = "0" targetNeuronName = "15" weight = "-0.5342298865737665" />
    <synapse sourceNeuronName = "0" targetNeuronName = "16" weight = "0.7974486305461852" />
    <synapse sourceNeuronName = "1" targetNeuronName = "9" weight = "-0.3402844703666621" />
    <synapse sourceNeuronName = "1" targetNeuronName = "10" weight = "0.030731570253160534" />
    <synapse sourceNeuronName = "1" targetNeuronName = "11" weight = "0.9092938981562178" />
    <synapse sourceNeuronName = "1" targetNeuronName = "12" weight = "-0.09195128914631723" />
    <synapse sourceNeuronName = "1" targetNeuronName = "13" weight = "0.20214110104465788" />
    <synapse sourceNeuronName = "1" targetNeuronName = "14" weight = "0.31797422912607654" />
    <synapse sourceNeuronName = "1" targetNeuronName = "15" weight = "0.32525719303579437" />
    <synapse sourceNeuronName = "1" targetNeuronName = "16" weight = "0.3840811800341062" />
    <synapse sourceNeuronName = "2" targetNeuronName = "9" weight = "-0.979348751512062" />
    <synapse sourceNeuronName = "2" targetNeuronName = "10" weight = "-0.6782127528342836" />
    <synapse sourceNeuronName = "2" targetNeuronName = "11" weight = "0.7697454506951946" />
    <synapse sourceNeuronName = "2" targetNeuronName = "12" weight = "0.24779570107255422" />
    <synapse sourceNeuronName = "2" targetNeuronName = "13" weight = "-0.8792124711177531" />
    <synapse sourceNeuronName = "2" targetNeuronName = "14" weight = "0.1989974117887816" />
    <synapse sourceNeuronName = "2" targetNeuronName = "15" weight = "0.92548386129089" />
    <synapse sourceNeuronName = "2" targetNeuronName = "16" weight = "-0.19902435640339622" />
    <synapse sourceNeuronName = "3" targetNeuronName = "9" weight = "0.24114953970441144" />
    <synapse sourceNeuronName = "3" targetNeuronName = "10" weight = "0.7776585854849447" />
    <synapse sourceNeuronName = "3" targetNeuronName = "11" weight = "0.4545327609838068" />
    <synapse sourceNeuronName = "3" targetNeuronName = "12" weight = "0.5400684018319655" />
    <synapse sourceNeuronName = "3" targetNeuronName = "13" weight = "-0.1685644832895301" />
    <synapse sourceNeuronName = "3" targetNeuronName = "14" weight = "-0.07066680799029723" />
    <synapse sourceNeuronName = "3" targetNeuronName = "15" weight = "0.07673284842563977" />
    <synapse sourceNeuronName = "3" targetNeuronName = "16" weight = "-0.7546841255390069" />
    <synapse sourceNeuronName = "4" targetNeuronName = "9" weight = "0.2923823377299961" />
    <synapse sourceNeuronName = "4" targetNeuronName = "10" weight = "0.33498404716681995" />
    <synapse sourceNeuronName = "4" targetNeuronName = "11" weight = "0.14559580781443748" />
    <synapse sourceNeuronName = "4" targetNeuronName = "12" weight = "0.1617966087845959" />
    <synapse sourceNeuronName = "4" targetNeuronName = "13" weight = "0.9051312059255787" />
    <synapse sourceNeuronName = "4" targetNeuronName = "14" weight = "-0.33262857365231135" />
    <synapse sourceNeuronName = "4" targetNeuronName = "15" weight = "0.3287403240868332" />
    <synapse sourceNeuronName = "4" targetNeuronName = "16" weight = "0.9182114857543151" />
    <synapse sourceNeuronName = "5" targetNeuronName = "9" weight = "-0.2058086326471147" />
    <synapse sourceNeuronName = "5" targetNeuronName = "10" weight = "0.1979726585813062" />
    <synapse sourceNeuronName = "5" targetNeuronName = "11" weight = "-0.5080062546268822" />
    <synapse sourceNeuronName = "5" targetNeuronName = "12" weight = "-0.6032481508965695" />
    <synapse sourceNeuronName = "5" targetNeuronName = "13" weight = "-0.9761093368431188" />
    <synapse sourceNeuronName = "5" targetNeuronName = "14" weight = "-0.12336821832816214" />
    <synapse sourceNeuronName = "5" targetNeuronName = "15" weight = "0.572054510653907" />
    <synapse sourceNeuronName = "5" targetNeuronName = "16" weight = "0.9986810808330577" />
    <synapse sourceNeuronName = "6" targetNeuronName = "9" weight = "0.5585697958626259" />
    <synapse sourceNeuronName = "6" targetNeuronName = "10" weight = "0.4491481976502951" />
    <synapse sourceNeuronName = "6" targetNeuronName = "11" weight = "-0.24511277118453756" />
    <synapse sourceNeuronName = "6" targetNeuronName = "12" weight = "-0.9900184898624109" />
    <synapse sourceNeuronName = "6" targetNeuronName = "13" weight = "0.21653187359114767" />
    <synapse sourceNeuronName = "6" targetNeuronName = "14" weight = "0.7989658499746657" />
    <synapse sourceNeuronName = "6" targetNeuronName = "15" weight = "0.684781521632011" />
    <synapse sourceNeuronName = "6" targetNeuronName = "16" weight = "-0.6794405851321317" />
    <synapse sourceNeuronName = "7" targetNeuronName = "9" weight = "-0.7587138453419848" />
    <synapse sourceNeuronName = "7" targetNeuronName = "10" weight = "-0.2678544130492988" />
    <synapse sourceNeuronName = "7" targetNeuronName = "11" weight = "0.116690381395131" />
    <synapse sourceNeuronName = "7" targetNeuronName = "12" weight = "-0.4681784301429448" />
    <synapse sourceNeuronName = "7" targetNeuronName = "13" weight = "0.3127842427143541" />
    <synapse sourceNeuronName = "7" targetNeuronName = "14" weight = "-0.2972420628058592" />
    <synapse sourceNeuronName = "7" targetNeuronName = "15" weight = "-0.6073317275201291" />
    <synapse sourceNeuronName = "7" targetNeuronName = "16" weight = "-0.6117916527212608" />
    <synapse sourceNeuronName = "8" targetNeuronName = "9" weight = "0.5763569543012763" />
    <synapse sourceNeuronName = "8" targetNeuronName = "10" weight = "0.489450263308409" />
    <synapse sourceNeuronName = "8" targetNeuronName = "11" weight = "-0.9353870909191235" />
    <synapse sourceNeuronName = "8" targetNeuronName = "12" weight = "0.5577037383918106" />
    <synapse sourceNeuronName = "8" targetNeuronName = "13" weight = "0.17724843786931377" />
    <synapse sourceNeuronName = "8" targetNeuronName = "14" weight = "-0.4898197158867039" />
    <synapse sourceNeuronName = "8" targetNeuronName = "15" weight = "-0.4889134784837865" />
    <synapse sourceNeuronName = "8" targetNeuronName = "16" weight = "-0.3537224586547949" />
</neuralNetwork>