<neuralNetwork>
    <neuron name = "0" type = "sensor" linkName = "Torso" />
    <neuron name = "1" type = "sensor" linkName = "BackLeg" />
    <neuron name = "2" type = "sensor" linkName = "FrontLeg" />
    <neuron name = "3" type = "sensor" linkName = "LeftLeg" />
    <neuron name = "4" type = "sensor" linkName = "RightLeg" />
    <neuron name = "5" type = "sensor" linkName = "BackLowerLeg" />
    <neuron name = "6" type = "sensor" linkName = "FrontLowerLeg" />
    <neuron name = "7" type = "sensor" linkName = "LeftLowerLeg" />
    <neuron name = "8" type = "sensor" linkName = "RightLowerLeg" />
    <neuron name = "9" type = "motor"  jointName = "Torso_BackLeg" />
    <neuron name = "10" type = "motor"  jointName = "Torso_FrontLeg" />
    <neuron name = "11" type = "motor"  jointName = "Torso_LeftLeg" />
    <neuron name = "12" type = "motor"  jointName = "Torso_RightLeg" />
    <neuron name = "13" type = "motor"  jointName = "BackLeg_BackLowerLeg" />
    <neuron name = "14" type = "motor"  jointName = "FrontLeg_FrontLowerLeg" />
    <neuron name = "15" type = "motor"  jointName = "LeftLeg_LeftLowerLeg" />
    <neuron name = "16" type = "motor"  jointName = "RightLeg_RightLowerLeg" />
    <synapse sourceNeuronName = "0" targetNeuronName = "9" weight = "-0.6821968734024806" />
    <synapse sourceNeuronName = "0" targetNeuronName = "10" weight = "0.48095528910357555" />
    <synapse sourceNeuronName = "0" targetNeuronName = "11" weight = "-0.44093664631317986" />
    <synapse sourceNeuronName = "0" targetNeuronName = "12" weight = "-0.8789244767478639" />
    <synapse sourceNeuronName = "0" targetNeuronName = "13" weight = "0.55749983600816" />
    <synapse sourceNeuronName = "0" targetNeuronName = "14" weight = "-0.944278864145508" />
    <synapse sourceNeuronName = "0" targetNeuronName = "15" weight = "-0.19590295669238467" />
    <synapse sourceNeuronName = "0" targetNeuronName = "16" weight = "-0.9868864527779178" />
    <synapse sourceNeuronName = "1" targetNeuronName = "9" weight = "0.818150462303648" />
    <synapse sourceNeuronName = "1" targetNeuronName = "10" weight = "0.0759771673711982" />
    <synapse sourceNeuronName = "1" targetNeuronName = "11" weight = "-0.3493357563529149" />
    <synapse sourceNeuronName = "1" targetNeuronName = "12" weight = "-0.1760894217253377" />
    <synapse sourceNeuronName = "1" targetNeuronName = "13" weight = "0.9145203902966397" />
    <synapse sourceNeuronName = "1" targetNeuronName = "14" weight = "0.961195342847321" />
    <synapse sourceNeuronName = "1" targetNeuronName = "15" weight = "0.40586474313205945" />
    <synapse sourceNeuronName = "1" targetNeuronName = "16" weight = "0.5557280582322779" />
    <synapse sourceNeuronName = "2" targetNeuronName = "9" weight = "0.4168726816252555" />
    <synapse sourceNeuronName = "2" targetNeuronName = "10" weight = "0.8077666244501738" />
    <synapse sourceNeuronName = "2" targetNeuronName = "11" weight = "0.17428777146563612" />
    <synapse sourceNeuronName = "2" targetNeuronName = "12" weight = "-0.8780467774645662" />
    <synapse sourceNeuronName = "2" targetNeuronName = "13" weight = "-0.5161417209030761" />
    <synapse sourceNeuronName = "2" targetNeuronName = "14" weight = "0.8893341066307723" />
    <synapse sourceNeuronName = "2" targetNeuronName = "15" weight = "-0.21044554434022977" />
    <synapse sourceNeuronName = "2" targetNeuronName = "16" weight = "0.23711811111287617" />
    <synapse sourceNeuronName = "3" targetNeuronName = "9" weight = "0.3288948071795377" />
    <synapse sourceNeuronName = "3" targetNeuronName = "10" weight = "0.44203268096194925" />
    <synapse sourceNeuronName = "3" targetNeuronName = "11" weight = "0.2511990669949009" />
    <synapse sourceNeuronName = "3" targetNeuronName = "12" weight = "0.15527257717460108" />
    <synapse sourceNeuronName = "3" targetNeuronName = "13" weight = "0.21231993347887457" />
    <synapse sourceNeuronName = "3" targetNeuronName = "14" weight = "-0.6894044396982815" />
    <synapse sourceNeuronName = "3" targetNeuronName = "15" weight = "0.7489481915923464" />
    <synapse sourceNeuronName = "3" targetNeuronName = "16" weight = "-0.2591833711910412" />
    <synapse sourceNeuronName = "4" targetNeuronName = "9" weight = "-0.8906809539595626" />
    <synapse sourceNeuronName = "4" targetNeuronName = "10" weight = "-0.2789075569213826" />
    <synapse sourceNeuronName = "4" targetNeuronName = "11" weight = "0.3142142393643701" />
    <synapse sourceNeuronName = "4" targetNeuronName = "12" weight = "-0.540461392525486" />
    <synapse sourceNeuronName = "4" targetNeuronName = "13" weight = "-0.7802278101273723" />
    <synapse sourceNeuronName = "4" targetNeuronName = "14" weight = "-0.27077764741337784" />
    <synapse sourceNeuronName = "4" targetNeuronName = "15" weight = "0.0960057264639218" />
    <synapse sourceNeuronName = "4" targetNeuronName = "16" weight = "0.6688624467286939" />
    <synapse sourceNeuronName = "5" targetNeuronName = "9" weight = "-0.8406864073610973" />
    <synapse sourceNeuronName = "5" targetNeuronName = "10" weight = "-0.6729578510793093" />
    <synapse sourceNeuronName = "5" targetNeuronName = "11" weight = "-0.9258163671982498" />
    <synapse sourceNeuronName = "5" targetNeuronName = "12" weight = "0.14495958198470427" />
    <synapse sourceNeuronName = "5" targetNeuronName = "13" weight = "-0.3704296389183459" />
    <synapse sourceNeuronName = "5" targetNeuronName = "14" weight = "-0.9168606485117956" />
    <synapse sourceNeuronName = "5" targetNeuronName = "15" weight = "0.7787250984469052" />
    <synapse sourceNeuronName = "5" targetNeuronName = "16" weight = "-0.45134607289032136" />
    <synapse sourceNeuronName = "6" targetNeuronName = "9" weight = "0.03337201977371951" />
    <synapse sourceNeuronName = "6" targetNeuronName = "10" weight = "0.35369404788058656" />
    <synapse sourceNeuronName = "6" targetNeuronName = "11" weight = "-0.01570245672291848" />
    <synapse sourceNeuronName = "6" targetNeuronName = "12" weight = "0.871186068962456" />
    <synapse sourceNeuronName = "6" targetNeuronName = "13" weight = "0.22137632735223578" />
    <synapse sourceNeuronName = "6" targetNeuronName = "14" weight = "-0.529170744313785" />
    <synapse sourceNeuronName = "6" targetNeuronName = "15" weight = "-0.09267595554565267" />
    <synapse sourceNeuronName = "6" targetNeuronName = "16" weight = "-0.48305815543625963" />
    <synapse sourceNeuronName = "7" targetNeuronName = "9" weight = "-0.08713623744999688" />
    <synapse sourceNeuronName = "7" targetNeuronName = "10" weight = "0.8910056124195023" />
    <synapse sourceNeuronName = "7" targetNeuronName = "11" weight = "-0.9837886346996363" />
    <synapse sourceNeuronName = "7" targetNeuronName = "12" weight = "-0.8325198964640774" />
    <synapse sourceNeuronName = "7" targetNeuronName = "13" weight = "0.9363335001566782" />
    <synapse sourceNeuronName = "7" targetNeuronName = "14" weight = "-0.5765526545731823" />
    <synapse sourceNeuronName = "7" targetNeuronName = "15" weight = "0.33840268809824225" />
    <synapse sourceNeuronName = "7" targetNeuronName = "16" weight = "-0.33751856505732913" />
    <synapse sourceNeuronName = "8" targetNeuronName = "9" weight = "-0.34042589004813406" />
    <synapse sourceNeuronName = "8" targetNeuronName = "10" weight = "0.335236753757463" />
    <synapse sourceNeuronName = "8" targetNeuronName = "11" weight = "-0.9596737193599187" />
    <synapse sourceNeuronName = "8" targetNeuronName = "12" weight = "-0.1252333196630755" />
    <synapse sourceNeuronName = "8" targetNeuronName = "13" weight = "0.5866662495241886" />
    <synapse sourceNeuronName = "8" targetNeuronName = "14" weight = "-0.27953809394865936" />
    <synapse sourceNeuronName = "8" targetNeuronName = "15" weight = "0.5225780939978892" />
    <synapse sourceNeuronName = "8" targetNeuronName = "16" weight = "0.15816256557559694" />
</neuralNetwork>