<neuralNetwork>
    <neuron name = "0" type = "sensor" linkName = "Torso" />
    <neuron name = "1" type = "sensor" linkName = "BackLeg" />
    <neuron name = "2" type = "sensor" linkName = "FrontLeg" />
    <neuron name = "3" type = "sensor" linkName = "LeftLeg" />
    <neuron name = "4" type = "sensor" linkName = "RightLeg" />
    <neuron name = "5" type = "sensor" linkName = "BackLowerLeg" />
    <neuron name = "6" type = "sensor" linkName = "FrontLowerLeg" />
    <neuron name = "7" type = "sensor" linkName = "LeftLowerLeg" />
    <neuron name = "8" type = "sensor" linkName = "RightLowerLeg" />
    <neuron name = "9" type = "motor"  jointName = "Torso_BackLeg" />
    <neuron name = "10" type = "motor"  jointName = "Torso_FrontLeg" />
    <neuron name = "11" type = "motor"  jointName = "Torso_LeftLeg" />
    <neuron name = "12" type = "motor"  jointName = "Torso_RightLeg" />
    <neuron name = "13" type = "motor"  jointName = "BackLeg_BackLowerLeg" />
    <neuron name = "14" type = "motor"  jointName = "FrontLeg_FrontLowerLeg" />
    <neuron name = "15" type = "motor"  jointName = "LeftLeg_LeftLowerLeg" />
    <neuron name = "16" type = "motor"  jointName = "RightLeg_RightLowerLeg" />
    <synapse sourceNeuronName = "0" targetNeuronName = "9" weight = "-0.5112231468982362" />
    <synapse sourceNeuronName = "0" targetNeuronName = "10" weight = "-0.10361776556099134" />
    <synapse sourceNeuronName = "0" targetNeuronName = "11" weight = "-0.013732984980296736" />
    <synapse sourceNeuronName = "0" targetNeuronName = "12" weight = "0.127698772067661" />
    <synapse sourceNeuronName = "0" targetNeuronName = "13" weight = "0.16989928063974546" />
    <synapse sourceNeuronName = "0" targetNeuronName = "14" weight = "-0.07429133194594839" />
    <synapse sourceNeuronName = "0" targetNeuronName = "15" weight = "0.7186481060689043" />
    <synapse sourceNeuronName = "0" targetNeuronName = "16" weight = "0.37128544469081715" />
    <synapse sourceNeuronName = "1" targetNeuronName = "9" weight = "-0.2797799873952589" />
    <synapse sourceNeuronName = "1" targetNeuronName = "10" weight = "-0.9191975285824128" />
    <synapse sourceNeuronName = "1" targetNeuronName = "11" weight = "0.9032426335273815" />
    <synapse sourceNeuronName = "1" targetNeuronName = "12" weight = "0.847127147395716" />
    <synapse sourceNeuronName = "1" targetNeuronName = "13" weight = "0.740333472069842" />
    <synapse sourceNeuronName = "1" targetNeuronName = "14" weight = "-0.8084600081077986" />
    <synapse sourceNeuronName = "1" targetNeuronName = "15" weight = "-0.6687753670025374" />
    <synapse sourceNeuronName = "1" targetNeuronName = "16" weight = "0.6458357284105722" />
    <synapse sourceNeuronName = "2" targetNeuronName = "9" weight = "0.6184618511229467" />
    <synapse sourceNeuronName = "2" targetNeuronName = "10" weight = "0.4234434173590633" />
    <synapse sourceNeuronName = "2" targetNeuronName = "11" weight = "0.8694860621158249" />
    <synapse sourceNeuronName = "2" targetNeuronName = "12" weight = "0.7653120532972226" />
    <synapse sourceNeuronName = "2" targetNeuronName = "13" weight = "0.5398404918768325" />
    <synapse sourceNeuronName = "2" targetNeuronName = "14" weight = "-0.9804382971524264" />
    <synapse sourceNeuronName = "2" targetNeuronName = "15" weight = "0.4130227387670655" />
    <synapse sourceNeuronName = "2" targetNeuronName = "16" weight = "-0.8358835153951214" />
    <synapse sourceNeuronName = "3" targetNeuronName = "9" weight = "0.36876130141946084" />
    <synapse sourceNeuronName = "3" targetNeuronName = "10" weight = "-0.3777799873736798" />
    <synapse sourceNeuronName = "3" targetNeuronName = "11" weight = "-0.41499246842296245" />
    <synapse sourceNeuronName = "3" targetNeuronName = "12" weight = "0.9903036796110569" />
    <synapse sourceNeuronName = "3" targetNeuronName = "13" weight = "-0.4172101228716705" />
    <synapse sourceNeuronName = "3" targetNeuronName = "14" weight = "0.275989804470651" />
    <synapse sourceNeuronName = "3" targetNeuronName = "15" weight = "0.33351549723215546" />
    <synapse sourceNeuronName = "3" targetNeuronName = "16" weight = "0.8791911662341154" />
    <synapse sourceNeuronName = "4" targetNeuronName = "9" weight = "0.8790096774517491" />
    <synapse sourceNeuronName = "4" targetNeuronName = "10" weight = "0.8442049206981186" />
    <synapse sourceNeuronName = "4" targetNeuronName = "11" weight = "0.9821605603692489" />
    <synapse sourceNeuronName = "4" targetNeuronName = "12" weight = "-0.6388002780277753" />
    <synapse sourceNeuronName = "4" targetNeuronName = "13" weight = "-0.4222420850326014" />
    <synapse sourceNeuronName = "4" targetNeuronName = "14" weight = "-0.4449742411304365" />
    <synapse sourceNeuronName = "4" targetNeuronName = "15" weight = "-0.9886059158017348" />
    <synapse sourceNeuronName = "4" targetNeuronName = "16" weight = "0.33422262006478953" />
    <synapse sourceNeuronName = "5" targetNeuronName = "9" weight = "-0.5389648478478652" />
    <synapse sourceNeuronName = "5" targetNeuronName = "10" weight = "0.7842982747547633" />
    <synapse sourceNeuronName = "5" targetNeuronName = "11" weight = "0.7086886174998166" />
    <synapse sourceNeuronName = "5" targetNeuronName = "12" weight = "-0.0500419736917157" />
    <synapse sourceNeuronName = "5" targetNeuronName = "13" weight = "-0.8139948427252048" />
    <synapse sourceNeuronName = "5" targetNeuronName = "14" weight = "-0.6990705652941838" />
    <synapse sourceNeuronName = "5" targetNeuronName = "15" weight = "-0.03622874777514684" />
    <synapse sourceNeuronName = "5" targetNeuronName = "16" weight = "0.18655126429284996" />
    <synapse sourceNeuronName = "6" targetNeuronName = "9" weight = "-0.1973817642939497" />
    <synapse sourceNeuronName = "6" targetNeuronName = "10" weight = "-0.4273731973138224" />
    <synapse sourceNeuronName = "6" targetNeuronName = "11" weight = "0.7215222121925322" />
    <synapse sourceNeuronName = "6" targetNeuronName = "12" weight = "-0.6000716603883915" />
    <synapse sourceNeuronName = "6" targetNeuronName = "13" weight = "0.6943237427133153" />
    <synapse sourceNeuronName = "6" targetNeuronName = "14" weight = "-0.8956641052608862" />
    <synapse sourceNeuronName = "6" targetNeuronName = "15" weight = "-0.5779944645694592" />
    <synapse sourceNeuronName = "6" targetNeuronName = "16" weight = "-0.06444269020849092" />
    <synapse sourceNeuronName = "7" targetNeuronName = "9" weight = "0.9322259197728442" />
    <synapse sourceNeuronName = "7" targetNeuronName = "10" weight = "0.7980180150783118" />
    <synapse sourceNeuronName = "7" targetNeuronName = "11" weight = "-0.6092474241459855" />
    <synapse sourceNeuronName = "7" targetNeuronName = "12" weight = "-0.22437344772871848" />
    <synapse sourceNeuronName = "7" targetNeuronName = "13" weight = "-0.8916452702077136" />
    <synapse sourceNeuronName = "7" targetNeuronName = "14" weight = "0.18895627030641005" />
    <synapse sourceNeuronName = "7" targetNeuronName = "15" weight = "0.2942072034473413" />
    <synapse sourceNeuronName = "7" targetNeuronName = "16" weight = "-0.19259824733620112" />
    <synapse sourceNeuronName = "8" targetNeuronName = "9" weight = "-0.8819719186953272" />
    <synapse sourceNeuronName = "8" targetNeuronName = "10" weight = "0.8361259922280293" />
    <synapse sourceNeuronName = "8" targetNeuronName = "11" weight = "0.5837204232968607" />
    <synapse sourceNeuronName = "8" targetNeuronName = "12" weight = "0.13659289243728634" />
    <synapse sourceNeuronName = "8" targetNeuronName = "13" weight = "0.5772797966146206" />
    <synapse sourceNeuronName = "8" targetNeuronName = "14" weight = "0.36500748355262935" />
    <synapse sourceNeuronName = "8" targetNeuronName = "15" weight = "-0.5698634123509851" />
    <synapse sourceNeuronName = "8" targetNeuronName = "16" weight = "0.9430300455124012" />
</neuralNetwork>