<neuralNetwork>
    <neuron name = "0" type = "sensor" linkName = "Torso" />
    <neuron name = "1" type = "sensor" linkName = "BackLeg" />
    <neuron name = "2" type = "sensor" linkName = "FrontLeg" />
    <neuron name = "3" type = "sensor" linkName = "LeftLeg" />
    <neuron name = "4" type = "sensor" linkName = "RightLeg" />
    <neuron name = "5" type = "sensor" linkName = "BackLowerLeg" />
    <neuron name = "6" type = "sensor" linkName = "FrontLowerLeg" />
    <neuron name = "7" type = "sensor" linkName = "LeftLowerLeg" />
    <neuron name = "8" type = "sensor" linkName = "RightLowerLeg" />
    <neuron name = "9" type = "motor"  jointName = "Torso_BackLeg" />
    <neuron name = "10" type = "motor"  jointName = "Torso_FrontLeg" />
    <neuron name = "11" type = "motor"  jointName = "Torso_LeftLeg" />
    <neuron name = "12" type = "motor"  jointName = "Torso_RightLeg" />
    <neuron name = "13" type = "motor"  jointName = "BackLeg_BackLowerLeg" />
    <neuron name = "14" type = "motor"  jointName = "FrontLeg_FrontLowerLeg" />
    <neuron name = "15" type = "motor"  jointName = "LeftLeg_LeftLowerLeg" />
    <neuron name = "16" type = "motor"  jointName = "RightLeg_RightLowerLeg" />
    <synapse sourceNeuronName = "0" targetNeuronName = "9" weight = "0.8075479790223523" />
    <synapse sourceNeuronName = "0" targetNeuronName = "10" weight = "-0.9031553099227454" />
    <synapse sourceNeuronName = "0" targetNeuronName = "11" weight = "-0.6474310979926374" />
    <synapse sourceNeuronName = "0" targetNeuronName = "12" weight = "0.4123147334368018" />
    <synapse sourceNeuronName = "0" targetNeuronName = "13" weight = "0.7200469813931036" />
    <synapse sourceNeuronName = "0" targetNeuronName = "14" weight = "0.9818490174024987" />
    <synapse sourceNeuronName = "0" targetNeuronName = "15" weight = "-0.18630462475307374" />
    <synapse sourceNeuronName = "0" targetNeuronName = "16" weight = "-0.7197083374834847" />
    <synapse sourceNeuronName = "1" targetNeuronName = "9" weight = "-0.6501761549513176" />
    <synapse sourceNeuronName = "1" targetNeuronName = "10" weight = "-0.2386448609870988" />
    <synapse sourceNeuronName = "1" targetNeuronName = "11" weight = "-0.3543425178998425" />
    <synapse sourceNeuronName = "1" targetNeuronName = "12" weight = "0.43767241962317205" />
    <synapse sourceNeuronName = "1" targetNeuronName = "13" weight = "-0.678468371574112" />
    <synapse sourceNeuronName = "1" targetNeuronName = "14" weight = "-0.17516054014038995" />
    <synapse sourceNeuronName = "1" targetNeuronName = "15" weight = "-0.2338829399760718" />
    <synapse sourceNeuronName = "1" targetNeuronName = "16" weight = "-0.15885760316362663" />
    <synapse sourceNeuronName = "2" targetNeuronName = "9" weight = "0.1275425897578184" />
    <synapse sourceNeuronName = "2" targetNeuronName = "10" weight = "0.14321313312160644" />
    <synapse sourceNeuronName = "2" targetNeuronName = "11" weight = "-0.38742436389076285" />
    <synapse sourceNeuronName = "2" targetNeuronName = "12" weight = "-0.34535111128987084" />
    <synapse sourceNeuronName = "2" targetNeuronName = "13" weight = "0.7931084168710125" />
    <synapse sourceNeuronName = "2" targetNeuronName = "14" weight = "-0.4716109616954527" />
    <synapse sourceNeuronName = "2" targetNeuronName = "15" weight = "-0.6195951747951702" />
    <synapse sourceNeuronName = "2" targetNeuronName = "16" weight = "0.41554204830723385" />
    <synapse sourceNeuronName = "3" targetNeuronName = "9" weight = "-0.34981065526610067" />
    <synapse sourceNeuronName = "3" targetNeuronName = "10" weight = "0.7031418349163683" />
    <synapse sourceNeuronName = "3" targetNeuronName = "11" weight = "-0.447709371866716" />
    <synapse sourceNeuronName = "3" targetNeuronName = "12" weight = "0.7616353233489102" />
    <synapse sourceNeuronName = "3" targetNeuronName = "13" weight = "-0.4208405467680332" />
    <synapse sourceNeuronName = "3" targetNeuronName = "14" weight = "-0.06092332411886736" />
    <synapse sourceNeuronName = "3" targetNeuronName = "15" weight = "-0.8195603842028869" />
    <synapse sourceNeuronName = "3" targetNeuronName = "16" weight = "-0.4864071052117742" />
    <synapse sourceNeuronName = "4" targetNeuronName = "9" weight = "-0.14321746310661032" />
    <synapse sourceNeuronName = "4" targetNeuronName = "10" weight = "0.3535156538425335" />
    <synapse sourceNeuronName = "4" targetNeuronName = "11" weight = "-0.9089742326961094" />
    <synapse sourceNeuronName = "4" targetNeuronName = "12" weight = "-0.894147193341005" />
    <synapse sourceNeuronName = "4" targetNeuronName = "13" weight = "0.6740133412826528" />
    <synapse sourceNeuronName = "4" targetNeuronName = "14" weight = "-0.5666632323552294" />
    <synapse sourceNeuronName = "4" targetNeuronName = "15" weight = "-0.6985831239190199" />
    <synapse sourceNeuronName = "4" targetNeuronName = "16" weight = "0.28126379761530385" />
    <synapse sourceNeuronName = "5" targetNeuronName = "9" weight = "-0.47650557721875675" />
    <synapse sourceNeuronName = "5" targetNeuronName = "10" weight = "0.8961445973116084" />
    <synapse sourceNeuronName = "5" targetNeuronName = "11" weight = "-0.9067727635611522" />
    <synapse sourceNeuronName = "5" targetNeuronName = "12" weight = "0.7832040150094641" />
    <synapse sourceNeuronName = "5" targetNeuronName = "13" weight = "0.2345327349460542" />
    <synapse sourceNeuronName = "5" targetNeuronName = "14" weight = "-0.8844451364653658" />
    <synapse sourceNeuronName = "5" targetNeuronName = "15" weight = "-0.46407052785387304" />
    <synapse sourceNeuronName = "5" targetNeuronName = "16" weight = "-0.21149757640446554" />
    <synapse sourceNeuronName = "6" targetNeuronName = "9" weight = "0.0014713598428661712" />
    <synapse sourceNeuronName = "6" targetNeuronName = "10" weight = "-0.5064225994218101" />
    <synapse sourceNeuronName = "6" targetNeuronName = "11" weight = "0.30857080727852515" />
    <synapse sourceNeuronName = "6" targetNeuronName = "12" weight = "-0.1292084216949183" />
    <synapse sourceNeuronName = "6" targetNeuronName = "13" weight = "-0.776595708209481" />
    <synapse sourceNeuronName = "6" targetNeuronName = "14" weight = "0.9226530527325085" />
    <synapse sourceNeuronName = "6" targetNeuronName = "15" weight = "-0.38157773505957326" />
    <synapse sourceNeuronName = "6" targetNeuronName = "16" weight = "-0.012153861123952225" />
    <synapse sourceNeuronName = "7" targetNeuronName = "9" weight = "-0.48333762556436843" />
    <synapse sourceNeuronName = "7" targetNeuronName = "10" weight = "-0.717859246949357" />
    <synapse sourceNeuronName = "7" targetNeuronName = "11" weight = "0.47404998102826146" />
    <synapse sourceNeuronName = "7" targetNeuronName = "12" weight = "-0.07931054275385474" />
    <synapse sourceNeuronName = "7" targetNeuronName = "13" weight = "-0.09820598122254509" />
    <synapse sourceNeuronName = "7" targetNeuronName = "14" weight = "0.9176549936495055" />
    <synapse sourceNeuronName = "7" targetNeuronName = "15" weight = "0.7334683987221946" />
    <synapse sourceNeuronName = "7" targetNeuronName = "16" weight = "0.47609618144166443" />
    <synapse sourceNeuronName = "8" targetNeuronName = "9" weight = "0.4958807308968127" />
    <synapse sourceNeuronName = "8" targetNeuronName = "10" weight = "-0.8069051727126009" />
    <synapse sourceNeuronName = "8" targetNeuronName = "11" weight = "-0.004815693174790914" />
    <synapse sourceNeuronName = "8" targetNeuronName = "12" weight = "0.43162393460123494" />
    <synapse sourceNeuronName = "8" targetNeuronName = "13" weight = "-0.71136539907639" />
    <synapse sourceNeuronName = "8" targetNeuronName = "14" weight = "-0.6956123696059058" />
    <synapse sourceNeuronName = "8" targetNeuronName = "15" weight = "-0.6402303617649068" />
    <synapse sourceNeuronName = "8" targetNeuronName = "16" weight = "-0.3399543048861624" />
</neuralNetwork>