<neuralNetwork>
    <neuron name = "0" type = "sensor" linkName = "Torso" />
    <neuron name = "1" type = "sensor" linkName = "BackLeg" />
    <neuron name = "2" type = "sensor" linkName = "FrontLeg" />
    <neuron name = "3" type = "sensor" linkName = "LeftLeg" />
    <neuron name = "4" type = "sensor" linkName = "RightLeg" />
    <neuron name = "5" type = "sensor" linkName = "BackLowerLeg" />
    <neuron name = "6" type = "sensor" linkName = "FrontLowerLeg" />
    <neuron name = "7" type = "sensor" linkName = "LeftLowerLeg" />
    <neuron name = "8" type = "sensor" linkName = "RightLowerLeg" />
    <neuron name = "9" type = "motor"  jointName = "Torso_BackLeg" />
    <neuron name = "10" type = "motor"  jointName = "Torso_FrontLeg" />
    <neuron name = "11" type = "motor"  jointName = "Torso_LeftLeg" />
    <neuron name = "12" type = "motor"  jointName = "Torso_RightLeg" />
    <neuron name = "13" type = "motor"  jointName = "BackLeg_BackLowerLeg" />
    <neuron name = "14" type = "motor"  jointName = "FrontLeg_FrontLowerLeg" />
    <neuron name = "15" type = "motor"  jointName = "LeftLeg_LeftLowerLeg" />
    <neuron name = "16" type = "motor"  jointName = "RightLeg_RightLowerLeg" />
    <synapse sourceNeuronName = "0" targetNeuronName = "9" weight = "-0.6420399162147934" />
    <synapse sourceNeuronName = "0" targetNeuronName = "10" weight = "0.8289622693059633" />
    <synapse sourceNeuronName = "0" targetNeuronName = "11" weight = "0.7547618457887659" />
    <synapse sourceNeuronName = "0" targetNeuronName = "12" weight = "0.9082517921758797" />
    <synapse sourceNeuronName = "0" targetNeuronName = "13" weight = "0.6550883887453982" />
    <synapse sourceNeuronName = "0" targetNeuronName = "14" weight = "0.8575684550865692" />
    <synapse sourceNeuronName = "0" targetNeuronName = "15" weight = "-0.019633363774431478" />
    <synapse sourceNeuronName = "0" targetNeuronName = "16" weight = "0.47791215397669573" />
    <synapse sourceNeuronName = "1" targetNeuronName = "9" weight = "0.4958527091997269" />
    <synapse sourceNeuronName = "1" targetNeuronName = "10" weight = "-0.4791428458690359" />
    <synapse sourceNeuronName = "1" targetNeuronName = "11" weight = "0.16069747534462908" />
    <synapse sourceNeuronName = "1" targetNeuronName = "12" weight = "-0.4817603557328771" />
    <synapse sourceNeuronName = "1" targetNeuronName = "13" weight = "0.836266389737897" />
    <synapse sourceNeuronName = "1" targetNeuronName = "14" weight = "0.5399351267012895" />
    <synapse sourceNeuronName = "1" targetNeuronName = "15" weight = "0.9458595108580812" />
    <synapse sourceNeuronName = "1" targetNeuronName = "16" weight = "-0.40013216140668506" />
    <synapse sourceNeuronName = "2" targetNeuronName = "9" weight = "0.8973283785556063" />
    <synapse sourceNeuronName = "2" targetNeuronName = "10" weight = "0.26297676648498136" />
    <synapse sourceNeuronName = "2" targetNeuronName = "11" weight = "-0.6519019538797866" />
    <synapse sourceNeuronName = "2" targetNeuronName = "12" weight = "0.8889568899940881" />
    <synapse sourceNeuronName = "2" targetNeuronName = "13" weight = "-0.7613395005640147" />
    <synapse sourceNeuronName = "2" targetNeuronName = "14" weight = "-0.061993280838292586" />
    <synapse sourceNeuronName = "2" targetNeuronName = "15" weight = "-0.6626030385714439" />
    <synapse sourceNeuronName = "2" targetNeuronName = "16" weight = "-0.1678654801595374" />
    <synapse sourceNeuronName = "3" targetNeuronName = "9" weight = "0.157876597453815" />
    <synapse sourceNeuronName = "3" targetNeuronName = "10" weight = "0.6805295817210086" />
    <synapse sourceNeuronName = "3" targetNeuronName = "11" weight = "0.7518367510909061" />
    <synapse sourceNeuronName = "3" targetNeuronName = "12" weight = "-0.11533719372332363" />
    <synapse sourceNeuronName = "3" targetNeuronName = "13" weight = "0.5252211062560634" />
    <synapse sourceNeuronName = "3" targetNeuronName = "14" weight = "0.6418159385414106" />
    <synapse sourceNeuronName = "3" targetNeuronName = "15" weight = "0.2434421285037558" />
    <synapse sourceNeuronName = "3" targetNeuronName = "16" weight = "0.5150978304666711" />
    <synapse sourceNeuronName = "4" targetNeuronName = "9" weight = "-0.2553244323976711" />
    <synapse sourceNeuronName = "4" targetNeuronName = "10" weight = "-0.5199479259784425" />
    <synapse sourceNeuronName = "4" targetNeuronName = "11" weight = "-0.26649218297277" />
    <synapse sourceNeuronName = "4" targetNeuronName = "12" weight = "0.7932593676777069" />
    <synapse sourceNeuronName = "4" targetNeuronName = "13" weight = "-0.9153801794787775" />
    <synapse sourceNeuronName = "4" targetNeuronName = "14" weight = "-0.38939472878025017" />
    <synapse sourceNeuronName = "4" targetNeuronName = "15" weight = "0.6551681616618059" />
    <synapse sourceNeuronName = "4" targetNeuronName = "16" weight = "-0.14620675688469587" />
    <synapse sourceNeuronName = "5" targetNeuronName = "9" weight = "-0.6028685036662695" />
    <synapse sourceNeuronName = "5" targetNeuronName = "10" weight = "0.17039726522545817" />
    <synapse sourceNeuronName = "5" targetNeuronName = "11" weight = "0.6246596959685979" />
    <synapse sourceNeuronName = "5" targetNeuronName = "12" weight = "-0.2767934310699329" />
    <synapse sourceNeuronName = "5" targetNeuronName = "13" weight = "-0.1183858019796662" />
    <synapse sourceNeuronName = "5" targetNeuronName = "14" weight = "-0.7251806331047868" />
    <synapse sourceNeuronName = "5" targetNeuronName = "15" weight = "-0.4266360715868829" />
    <synapse sourceNeuronName = "5" targetNeuronName = "16" weight = "0.5958368079966734" />
    <synapse sourceNeuronName = "6" targetNeuronName = "9" weight = "-0.4266269278437467" />
    <synapse sourceNeuronName = "6" targetNeuronName = "10" weight = "0.16570960572881077" />
    <synapse sourceNeuronName = "6" targetNeuronName = "11" weight = "-0.9969794111475379" />
    <synapse sourceNeuronName = "6" targetNeuronName = "12" weight = "-0.9985184156517941" />
    <synapse sourceNeuronName = "6" targetNeuronName = "13" weight = "-0.06981011886125232" />
    <synapse sourceNeuronName = "6" targetNeuronName = "14" weight = "0.40918847413541504" />
    <synapse sourceNeuronName = "6" targetNeuronName = "15" weight = "0.5579430413046029" />
    <synapse sourceNeuronName = "6" targetNeuronName = "16" weight = "-0.33054957805947494" />
    <synapse sourceNeuronName = "7" targetNeuronName = "9" weight = "-0.9344044392532032" />
    <synapse sourceNeuronName = "7" targetNeuronName = "10" weight = "-0.1522005018469874" />
    <synapse sourceNeuronName = "7" targetNeuronName = "11" weight = "0.7683473710431159" />
    <synapse sourceNeuronName = "7" targetNeuronName = "12" weight = "-0.9108244052869716" />
    <synapse sourceNeuronName = "7" targetNeuronName = "13" weight = "-0.921699582620148" />
    <synapse sourceNeuronName = "7" targetNeuronName = "14" weight = "-0.5431085313082766" />
    <synapse sourceNeuronName = "7" targetNeuronName = "15" weight = "0.8446631018313022" />
    <synapse sourceNeuronName = "7" targetNeuronName = "16" weight = "-0.014563553604169055" />
    <synapse sourceNeuronName = "8" targetNeuronName = "9" weight = "-0.08879428191829919" />
    <synapse sourceNeuronName = "8" targetNeuronName = "10" weight = "0.39960483167370975" />
    <synapse sourceNeuronName = "8" targetNeuronName = "11" weight = "-0.7909962101459835" />
    <synapse sourceNeuronName = "8" targetNeuronName = "12" weight = "0.9144655832801136" />
    <synapse sourceNeuronName = "8" targetNeuronName = "13" weight = "-0.7728373183469746" />
    <synapse sourceNeuronName = "8" targetNeuronName = "14" weight = "-0.2984735856732119" />
    <synapse sourceNeuronName = "8" targetNeuronName = "15" weight = "-0.7305637858111518" />
    <synapse sourceNeuronName = "8" targetNeuronName = "16" weight = "-0.43862032390240846" />
</neuralNetwork>