<neuralNetwork>
    <neuron name = "0" type = "sensor" linkName = "Torso" />
    <neuron name = "1" type = "sensor" linkName = "BackLeg" />
    <neuron name = "2" type = "sensor" linkName = "FrontLeg" />
    <neuron name = "3" type = "sensor" linkName = "LeftLeg" />
    <neuron name = "4" type = "sensor" linkName = "RightLeg" />
    <neuron name = "5" type = "sensor" linkName = "BackLowerLeg" />
    <neuron name = "6" type = "sensor" linkName = "FrontLowerLeg" />
    <neuron name = "7" type = "sensor" linkName = "LeftLowerLeg" />
    <neuron name = "8" type = "sensor" linkName = "RightLowerLeg" />
    <neuron name = "9" type = "motor"  jointName = "Torso_BackLeg" />
    <neuron name = "10" type = "motor"  jointName = "Torso_FrontLeg" />
    <neuron name = "11" type = "motor"  jointName = "Torso_LeftLeg" />
    <neuron name = "12" type = "motor"  jointName = "Torso_RightLeg" />
    <neuron name = "13" type = "motor"  jointName = "BackLeg_BackLowerLeg" />
    <neuron name = "14" type = "motor"  jointName = "FrontLeg_FrontLowerLeg" />
    <neuron name = "15" type = "motor"  jointName = "LeftLeg_LeftLowerLeg" />
    <neuron name = "16" type = "motor"  jointName = "RightLeg_RightLowerLeg" />
    <synapse sourceNeuronName = "0" targetNeuronName = "9" weight = "-0.3724680014541484" />
    <synapse sourceNeuronName = "0" targetNeuronName = "10" weight = "-0.522504763677615" />
    <synapse sourceNeuronName = "0" targetNeuronName = "11" weight = "0.3614972095413389" />
    <synapse sourceNeuronName = "0" targetNeuronName = "12" weight = "-0.9294727501557982" />
    <synapse sourceNeuronName = "0" targetNeuronName = "13" weight = "-0.05527191432179879" />
    <synapse sourceNeuronName = "0" targetNeuronName = "14" weight = "0.22489137685320282" />
    <synapse sourceNeuronName = "0" targetNeuronName = "15" weight = "0.25317471194097685" />
    <synapse sourceNeuronName = "0" targetNeuronName = "16" weight = "0.37992074565555534" />
    <synapse sourceNeuronName = "1" targetNeuronName = "9" weight = "0.9690672845712875" />
    <synapse sourceNeuronName = "1" targetNeuronName = "10" weight = "0.467471366660964" />
    <synapse sourceNeuronName = "1" targetNeuronName = "11" weight = "-0.9993142913644024" />
    <synapse sourceNeuronName = "1" targetNeuronName = "12" weight = "0.0031202219892794147" />
    <synapse sourceNeuronName = "1" targetNeuronName = "13" weight = "-0.28067818781558684" />
    <synapse sourceNeuronName = "1" targetNeuronName = "14" weight = "-0.339871515270157" />
    <synapse sourceNeuronName = "1" targetNeuronName = "15" weight = "-0.8827241983465679" />
    <synapse sourceNeuronName = "1" targetNeuronName = "16" weight = "-0.7016928318746545" />
    <synapse sourceNeuronName = "2" targetNeuronName = "9" weight = "-0.2676391165873342" />
    <synapse sourceNeuronName = "2" targetNeuronName = "10" weight = "0.010768094879293644" />
    <synapse sourceNeuronName = "2" targetNeuronName = "11" weight = "0.755654497633814" />
    <synapse sourceNeuronName = "2" targetNeuronName = "12" weight = "-0.7374179715944915" />
    <synapse sourceNeuronName = "2" targetNeuronName = "13" weight = "0.5985477411393871" />
    <synapse sourceNeuronName = "2" targetNeuronName = "14" weight = "0.7692639397898204" />
    <synapse sourceNeuronName = "2" targetNeuronName = "15" weight = "-0.1176085325793026" />
    <synapse sourceNeuronName = "2" targetNeuronName = "16" weight = "0.9667000464614064" />
    <synapse sourceNeuronName = "3" targetNeuronName = "9" weight = "-0.7204209442133205" />
    <synapse sourceNeuronName = "3" targetNeuronName = "10" weight = "-0.2947051869451187" />
    <synapse sourceNeuronName = "3" targetNeuronName = "11" weight = "0.5058309673003691" />
    <synapse sourceNeuronName = "3" targetNeuronName = "12" weight = "-0.2649530331963206" />
    <synapse sourceNeuronName = "3" targetNeuronName = "13" weight = "-0.5264958725345299" />
    <synapse sourceNeuronName = "3" targetNeuronName = "14" weight = "0.6521254040897446" />
    <synapse sourceNeuronName = "3" targetNeuronName = "15" weight = "-0.7268505240415217" />
    <synapse sourceNeuronName = "3" targetNeuronName = "16" weight = "0.4553906368920366" />
    <synapse sourceNeuronName = "4" targetNeuronName = "9" weight = "-0.20513875222515443" />
    <synapse sourceNeuronName = "4" targetNeuronName = "10" weight = "-0.26412473936882996" />
    <synapse sourceNeuronName = "4" targetNeuronName = "11" weight = "-0.8017969113981795" />
    <synapse sourceNeuronName = "4" targetNeuronName = "12" weight = "-0.2906295845561335" />
    <synapse sourceNeuronName = "4" targetNeuronName = "13" weight = "0.24927081003615492" />
    <synapse sourceNeuronName = "4" targetNeuronName = "14" weight = "-0.9466050080324429" />
    <synapse sourceNeuronName = "4" targetNeuronName = "15" weight = "0.36095271246928506" />
    <synapse sourceNeuronName = "4" targetNeuronName = "16" weight = "-0.24270503607822813" />
    <synapse sourceNeuronName = "5" targetNeuronName = "9" weight = "0.3768060578658916" />
    <synapse sourceNeuronName = "5" targetNeuronName = "10" weight = "-0.7552237406679465" />
    <synapse sourceNeuronName = "5" targetNeuronName = "11" weight = "-0.40201538905630074" />
    <synapse sourceNeuronName = "5" targetNeuronName = "12" weight = "-0.5581632480857746" />
    <synapse sourceNeuronName = "5" targetNeuronName = "13" weight = "-0.6682445264292665" />
    <synapse sourceNeuronName = "5" targetNeuronName = "14" weight = "-0.0742081251457507" />
    <synapse sourceNeuronName = "5" targetNeuronName = "15" weight = "0.03492613445428905" />
    <synapse sourceNeuronName = "5" targetNeuronName = "16" weight = "-0.028087459900986822" />
    <synapse sourceNeuronName = "6" targetNeuronName = "9" weight = "-0.2823154501490397" />
    <synapse sourceNeuronName = "6" targetNeuronName = "10" weight = "0.9168943143636787" />
    <synapse sourceNeuronName = "6" targetNeuronName = "11" weight = "0.537312013587397" />
    <synapse sourceNeuronName = "6" targetNeuronName = "12" weight = "0.3721741661151128" />
    <synapse sourceNeuronName = "6" targetNeuronName = "13" weight = "-0.709774219035979" />
    <synapse sourceNeuronName = "6" targetNeuronName = "14" weight = "0.31181023673432984" />
    <synapse sourceNeuronName = "6" targetNeuronName = "15" weight = "0.8313634519974709" />
    <synapse sourceNeuronName = "6" targetNeuronName = "16" weight = "-0.4098202126046664" />
    <synapse sourceNeuronName = "7" targetNeuronName = "9" weight = "0.28689169246286617" />
    <synapse sourceNeuronName = "7" targetNeuronName = "10" weight = "0.717089447536398" />
    <synapse sourceNeuronName = "7" targetNeuronName = "11" weight = "0.312275842212538" />
    <synapse sourceNeuronName = "7" targetNeuronName = "12" weight = "-0.5132495652409754" />
    <synapse sourceNeuronName = "7" targetNeuronName = "13" weight = "0.3025077745212761" />
    <synapse sourceNeuronName = "7" targetNeuronName = "14" weight = "0.461878147365558" />
    <synapse sourceNeuronName = "7" targetNeuronName = "15" weight = "-0.8770153688814057" />
    <synapse sourceNeuronName = "7" targetNeuronName = "16" weight = "0.8516580631354842" />
    <synapse sourceNeuronName = "8" targetNeuronName = "9" weight = "0.00027461741230006" />
    <synapse sourceNeuronName = "8" targetNeuronName = "10" weight = "0.512039787478789" />
    <synapse sourceNeuronName = "8" targetNeuronName = "11" weight = "-0.36654326859873376" />
    <synapse sourceNeuronName = "8" targetNeuronName = "12" weight = "0.7941008186369398" />
    <synapse sourceNeuronName = "8" targetNeuronName = "13" weight = "-0.04058585149377003" />
    <synapse sourceNeuronName = "8" targetNeuronName = "14" weight = "0.2518548199531019" />
    <synapse sourceNeuronName = "8" targetNeuronName = "15" weight = "-0.1760171385978333" />
    <synapse sourceNeuronName = "8" targetNeuronName = "16" weight = "-0.8425872720679439" />
</neuralNetwork>