<neuralNetwork>
    <neuron name = "0" type = "sensor" linkName = "Torso" />
    <neuron name = "1" type = "sensor" linkName = "BackLeg" />
    <neuron name = "2" type = "sensor" linkName = "FrontLeg" />
    <neuron name = "3" type = "sensor" linkName = "LeftLeg" />
    <neuron name = "4" type = "sensor" linkName = "RightLeg" />
    <neuron name = "5" type = "sensor" linkName = "BackLowerLeg" />
    <neuron name = "6" type = "sensor" linkName = "FrontLowerLeg" />
    <neuron name = "7" type = "sensor" linkName = "LeftLowerLeg" />
    <neuron name = "8" type = "sensor" linkName = "RightLowerLeg" />
    <neuron name = "9" type = "motor"  jointName = "Torso_BackLeg" />
    <neuron name = "10" type = "motor"  jointName = "Torso_FrontLeg" />
    <neuron name = "11" type = "motor"  jointName = "Torso_LeftLeg" />
    <neuron name = "12" type = "motor"  jointName = "Torso_RightLeg" />
    <neuron name = "13" type = "motor"  jointName = "BackLeg_BackLowerLeg" />
    <neuron name = "14" type = "motor"  jointName = "FrontLeg_FrontLowerLeg" />
    <neuron name = "15" type = "motor"  jointName = "LeftLeg_LeftLowerLeg" />
    <neuron name = "16" type = "motor"  jointName = "RightLeg_RightLowerLeg" />
    <synapse sourceNeuronName = "0" targetNeuronName = "9" weight = "0.9062788640897701" />
    <synapse sourceNeuronName = "0" targetNeuronName = "10" weight = "0.5022284675772479" />
    <synapse sourceNeuronName = "0" targetNeuronName = "11" weight = "0.6062750301373145" />
    <synapse sourceNeuronName = "0" targetNeuronName = "12" weight = "-0.10120988385357732" />
    <synapse sourceNeuronName = "0" targetNeuronName = "13" weight = "0.3514413197995574" />
    <synapse sourceNeuronName = "0" targetNeuronName = "14" weight = "-0.9294374117904052" />
    <synapse sourceNeuronName = "0" targetNeuronName = "15" weight = "0.729967025149802" />
    <synapse sourceNeuronName = "0" targetNeuronName = "16" weight = "0.7857283719812194" />
    <synapse sourceNeuronName = "1" targetNeuronName = "9" weight = "0.7339301416703501" />
    <synapse sourceNeuronName = "1" targetNeuronName = "10" weight = "0.6653502354131589" />
    <synapse sourceNeuronName = "1" targetNeuronName = "11" weight = "0.24739868406135535" />
    <synapse sourceNeuronName = "1" targetNeuronName = "12" weight = "-0.45662611821153565" />
    <synapse sourceNeuronName = "1" targetNeuronName = "13" weight = "0.4184939124042648" />
    <synapse sourceNeuronName = "1" targetNeuronName = "14" weight = "-0.9537153977140354" />
    <synapse sourceNeuronName = "1" targetNeuronName = "15" weight = "0.13858314022796892" />
    <synapse sourceNeuronName = "1" targetNeuronName = "16" weight = "-0.5875040566603322" />
    <synapse sourceNeuronName = "2" targetNeuronName = "9" weight = "0.6672647940458118" />
    <synapse sourceNeuronName = "2" targetNeuronName = "10" weight = "0.8642978739274385" />
    <synapse sourceNeuronName = "2" targetNeuronName = "11" weight = "-0.4974840539088261" />
    <synapse sourceNeuronName = "2" targetNeuronName = "12" weight = "0.4649615526172297" />
    <synapse sourceNeuronName = "2" targetNeuronName = "13" weight = "0.11366437945358632" />
    <synapse sourceNeuronName = "2" targetNeuronName = "14" weight = "-0.31645619371857703" />
    <synapse sourceNeuronName = "2" targetNeuronName = "15" weight = "-0.9370510992854089" />
    <synapse sourceNeuronName = "2" targetNeuronName = "16" weight = "-0.39535032721667585" />
    <synapse sourceNeuronName = "3" targetNeuronName = "9" weight = "-0.2195640574971749" />
    <synapse sourceNeuronName = "3" targetNeuronName = "10" weight = "0.7198189752226636" />
    <synapse sourceNeuronName = "3" targetNeuronName = "11" weight = "-0.2598848883458522" />
    <synapse sourceNeuronName = "3" targetNeuronName = "12" weight = "0.10542532994504561" />
    <synapse sourceNeuronName = "3" targetNeuronName = "13" weight = "-0.7689140327928923" />
    <synapse sourceNeuronName = "3" targetNeuronName = "14" weight = "0.4512106892110763" />
    <synapse sourceNeuronName = "3" targetNeuronName = "15" weight = "-0.3067030139873077" />
    <synapse sourceNeuronName = "3" targetNeuronName = "16" weight = "0.69501967180938" />
    <synapse sourceNeuronName = "4" targetNeuronName = "9" weight = "0.3449427015425983" />
    <synapse sourceNeuronName = "4" targetNeuronName = "10" weight = "-0.020866642319180784" />
    <synapse sourceNeuronName = "4" targetNeuronName = "11" weight = "-0.27700125194724" />
    <synapse sourceNeuronName = "4" targetNeuronName = "12" weight = "-0.8181943839275065" />
    <synapse sourceNeuronName = "4" targetNeuronName = "13" weight = "-0.3785554119399699" />
    <synapse sourceNeuronName = "4" targetNeuronName = "14" weight = "-0.6605047214506281" />
    <synapse sourceNeuronName = "4" targetNeuronName = "15" weight = "0.5366897949316491" />
    <synapse sourceNeuronName = "4" targetNeuronName = "16" weight = "0.8810363282630493" />
    <synapse sourceNeuronName = "5" targetNeuronName = "9" weight = "-0.4232402643189537" />
    <synapse sourceNeuronName = "5" targetNeuronName = "10" weight = "0.5219812944989648" />
    <synapse sourceNeuronName = "5" targetNeuronName = "11" weight = "0.3409095128014692" />
    <synapse sourceNeuronName = "5" targetNeuronName = "12" weight = "-0.6048648470137024" />
    <synapse sourceNeuronName = "5" targetNeuronName = "13" weight = "-0.8243553272525193" />
    <synapse sourceNeuronName = "5" targetNeuronName = "14" weight = "0.6878669478275286" />
    <synapse sourceNeuronName = "5" targetNeuronName = "15" weight = "0.3612790059751685" />
    <synapse sourceNeuronName = "5" targetNeuronName = "16" weight = "-0.5223009381661861" />
    <synapse sourceNeuronName = "6" targetNeuronName = "9" weight = "-0.13737257799500902" />
    <synapse sourceNeuronName = "6" targetNeuronName = "10" weight = "0.22434572213252424" />
    <synapse sourceNeuronName = "6" targetNeuronName = "11" weight = "0.21695760303714806" />
    <synapse sourceNeuronName = "6" targetNeuronName = "12" weight = "0.4762533451503268" />
    <synapse sourceNeuronName = "6" targetNeuronName = "13" weight = "0.8381670534539427" />
    <synapse sourceNeuronName = "6" targetNeuronName = "14" weight = "-0.59831127178847" />
    <synapse sourceNeuronName = "6" targetNeuronName = "15" weight = "0.8641694138540901" />
    <synapse sourceNeuronName = "6" targetNeuronName = "16" weight = "0.9368943714871685" />
    <synapse sourceNeuronName = "7" targetNeuronName = "9" weight = "-0.5432886792958205" />
    <synapse sourceNeuronName = "7" targetNeuronName = "10" weight = "0.46321592355821695" />
    <synapse sourceNeuronName = "7" targetNeuronName = "11" weight = "0.5047505735102347" />
    <synapse sourceNeuronName = "7" targetNeuronName = "12" weight = "0.35712696021798074" />
    <synapse sourceNeuronName = "7" targetNeuronName = "13" weight = "0.8044527195646944" />
    <synapse sourceNeuronName = "7" targetNeuronName = "14" weight = "-0.5551736704283099" />
    <synapse sourceNeuronName = "7" targetNeuronName = "15" weight = "0.1781280973238919" />
    <synapse sourceNeuronName = "7" targetNeuronName = "16" weight = "-0.5850443392315654" />
    <synapse sourceNeuronName = "8" targetNeuronName = "9" weight = "0.5639185367282147" />
    <synapse sourceNeuronName = "8" targetNeuronName = "10" weight = "0.6460880598584184" />
    <synapse sourceNeuronName = "8" targetNeuronName = "11" weight = "0.5723655485210648" />
    <synapse sourceNeuronName = "8" targetNeuronName = "12" weight = "-0.6509445258842588" />
    <synapse sourceNeuronName = "8" targetNeuronName = "13" weight = "-0.3331963981391286" />
    <synapse sourceNeuronName = "8" targetNeuronName = "14" weight = "0.08378324563930528" />
    <synapse sourceNeuronName = "8" targetNeuronName = "15" weight = "0.40169362074126425" />
    <synapse sourceNeuronName = "8" targetNeuronName = "16" weight = "0.31059238460186767" />
</neuralNetwork>