<neuralNetwork>
    <neuron name = "0" type = "sensor" linkName = "Torso" />
    <neuron name = "1" type = "sensor" linkName = "BackLeg" />
    <neuron name = "2" type = "sensor" linkName = "FrontLeg" />
    <neuron name = "3" type = "sensor" linkName = "LeftLeg" />
    <neuron name = "4" type = "sensor" linkName = "RightLeg" />
    <neuron name = "5" type = "sensor" linkName = "BackLowerLeg" />
    <neuron name = "6" type = "sensor" linkName = "FrontLowerLeg" />
    <neuron name = "7" type = "sensor" linkName = "LeftLowerLeg" />
    <neuron name = "8" type = "sensor" linkName = "RightLowerLeg" />
    <neuron name = "9" type = "motor"  jointName = "Torso_BackLeg" />
    <neuron name = "10" type = "motor"  jointName = "Torso_FrontLeg" />
    <neuron name = "11" type = "motor"  jointName = "Torso_LeftLeg" />
    <neuron name = "12" type = "motor"  jointName = "Torso_RightLeg" />
    <neuron name = "13" type = "motor"  jointName = "BackLeg_BackLowerLeg" />
    <neuron name = "14" type = "motor"  jointName = "FrontLeg_FrontLowerLeg" />
    <neuron name = "15" type = "motor"  jointName = "LeftLeg_LeftLowerLeg" />
    <neuron name = "16" type = "motor"  jointName = "RightLeg_RightLowerLeg" />
    <synapse sourceNeuronName = "0" targetNeuronName = "9" weight = "0.9948878822988498" />
    <synapse sourceNeuronName = "0" targetNeuronName = "10" weight = "-0.9579655394616733" />
    <synapse sourceNeuronName = "0" targetNeuronName = "11" weight = "-0.9183256152299808" />
    <synapse sourceNeuronName = "0" targetNeuronName = "12" weight = "-0.21101560937797492" />
    <synapse sourceNeuronName = "0" targetNeuronName = "13" weight = "0.573030332350678" />
    <synapse sourceNeuronName = "0" targetNeuronName = "14" weight = "0.45712909892042064" />
    <synapse sourceNeuronName = "0" targetNeuronName = "15" weight = "0.9402365003826347" />
    <synapse sourceNeuronName = "0" targetNeuronName = "16" weight = "-0.8974074028563719" />
    <synapse sourceNeuronName = "1" targetNeuronName = "9" weight = "0.060028258106768595" />
    <synapse sourceNeuronName = "1" targetNeuronName = "10" weight = "0.70092682241527" />
    <synapse sourceNeuronName = "1" targetNeuronName = "11" weight = "0.9328349689966586" />
    <synapse sourceNeuronName = "1" targetNeuronName = "12" weight = "0.19395278630402624" />
    <synapse sourceNeuronName = "1" targetNeuronName = "13" weight = "0.6218013656504995" />
    <synapse sourceNeuronName = "1" targetNeuronName = "14" weight = "-0.05200816394741281" />
    <synapse sourceNeuronName = "1" targetNeuronName = "15" weight = "-0.7173417410824203" />
    <synapse sourceNeuronName = "1" targetNeuronName = "16" weight = "0.6934285359451451" />
    <synapse sourceNeuronName = "2" targetNeuronName = "9" weight = "-0.6615897678515377" />
    <synapse sourceNeuronName = "2" targetNeuronName = "10" weight = "0.8630798517302813" />
    <synapse sourceNeuronName = "2" targetNeuronName = "11" weight = "0.1445011719573166" />
    <synapse sourceNeuronName = "2" targetNeuronName = "12" weight = "-0.31318121550554956" />
    <synapse sourceNeuronName = "2" targetNeuronName = "13" weight = "-0.23234743160598414" />
    <synapse sourceNeuronName = "2" targetNeuronName = "14" weight = "0.9811700661952887" />
    <synapse sourceNeuronName = "2" targetNeuronName = "15" weight = "-0.3616141771952468" />
    <synapse sourceNeuronName = "2" targetNeuronName = "16" weight = "-0.6771646090967731" />
    <synapse sourceNeuronName = "3" targetNeuronName = "9" weight = "-0.8149142820315927" />
    <synapse sourceNeuronName = "3" targetNeuronName = "10" weight = "0.30186269824977363" />
    <synapse sourceNeuronName = "3" targetNeuronName = "11" weight = "0.10473135132965528" />
    <synapse sourceNeuronName = "3" targetNeuronName = "12" weight = "-0.8072687893990285" />
    <synapse sourceNeuronName = "3" targetNeuronName = "13" weight = "0.29842702595003745" />
    <synapse sourceNeuronName = "3" targetNeuronName = "14" weight = "-0.64569423339714" />
    <synapse sourceNeuronName = "3" targetNeuronName = "15" weight = "0.7998601303712121" />
    <synapse sourceNeuronName = "3" targetNeuronName = "16" weight = "0.5195746369281093" />
    <synapse sourceNeuronName = "4" targetNeuronName = "9" weight = "-0.044267776415975124" />
    <synapse sourceNeuronName = "4" targetNeuronName = "10" weight = "0.8302393052549228" />
    <synapse sourceNeuronName = "4" targetNeuronName = "11" weight = "-0.72278740808767" />
    <synapse sourceNeuronName = "4" targetNeuronName = "12" weight = "0.8202733702306815" />
    <synapse sourceNeuronName = "4" targetNeuronName = "13" weight = "0.5924748986514887" />
    <synapse sourceNeuronName = "4" targetNeuronName = "14" weight = "0.4944873210185625" />
    <synapse sourceNeuronName = "4" targetNeuronName = "15" weight = "-0.34548852774906136" />
    <synapse sourceNeuronName = "4" targetNeuronName = "16" weight = "-0.006604632625491158" />
    <synapse sourceNeuronName = "5" targetNeuronName = "9" weight = "-0.738263892205282" />
    <synapse sourceNeuronName = "5" targetNeuronName = "10" weight = "0.949086739233781" />
    <synapse sourceNeuronName = "5" targetNeuronName = "11" weight = "0.5824209185094031" />
    <synapse sourceNeuronName = "5" targetNeuronName = "12" weight = "0.41379476887845423" />
    <synapse sourceNeuronName = "5" targetNeuronName = "13" weight = "-0.8146877956491805" />
    <synapse sourceNeuronName = "5" targetNeuronName = "14" weight = "0.026704522506391326" />
    <synapse sourceNeuronName = "5" targetNeuronName = "15" weight = "-0.1755721849274845" />
    <synapse sourceNeuronName = "5" targetNeuronName = "16" weight = "-0.05741171287214408" />
    <synapse sourceNeuronName = "6" targetNeuronName = "9" weight = "-0.013042084856738523" />
    <synapse sourceNeuronName = "6" targetNeuronName = "10" weight = "0.48851232763690455" />
    <synapse sourceNeuronName = "6" targetNeuronName = "11" weight = "-0.9965063686409124" />
    <synapse sourceNeuronName = "6" targetNeuronName = "12" weight = "0.9874202415937108" />
    <synapse sourceNeuronName = "6" targetNeuronName = "13" weight = "0.39037157076478346" />
    <synapse sourceNeuronName = "6" targetNeuronName = "14" weight = "0.7341755436676118" />
    <synapse sourceNeuronName = "6" targetNeuronName = "15" weight = "-0.7326168654371887" />
    <synapse sourceNeuronName = "6" targetNeuronName = "16" weight = "-0.22265790102481553" />
    <synapse sourceNeuronName = "7" targetNeuronName = "9" weight = "0.6242449606220215" />
    <synapse sourceNeuronName = "7" targetNeuronName = "10" weight = "0.14623704088391287" />
    <synapse sourceNeuronName = "7" targetNeuronName = "11" weight = "0.6845034828433743" />
    <synapse sourceNeuronName = "7" targetNeuronName = "12" weight = "-0.08716424642355869" />
    <synapse sourceNeuronName = "7" targetNeuronName = "13" weight = "0.6578928456183231" />
    <synapse sourceNeuronName = "7" targetNeuronName = "14" weight = "0.997576987133262" />
    <synapse sourceNeuronName = "7" targetNeuronName = "15" weight = "-0.7341672703533484" />
    <synapse sourceNeuronName = "7" targetNeuronName = "16" weight = "-0.06549311703512073" />
    <synapse sourceNeuronName = "8" targetNeuronName = "9" weight = "-0.3873377644826368" />
    <synapse sourceNeuronName = "8" targetNeuronName = "10" weight = "0.852113622046887" />
    <synapse sourceNeuronName = "8" targetNeuronName = "11" weight = "-0.6723859872668676" />
    <synapse sourceNeuronName = "8" targetNeuronName = "12" weight = "-0.9828348599749464" />
    <synapse sourceNeuronName = "8" targetNeuronName = "13" weight = "-0.4722120557594234" />
    <synapse sourceNeuronName = "8" targetNeuronName = "14" weight = "-0.9277552800806073" />
    <synapse sourceNeuronName = "8" targetNeuronName = "15" weight = "-0.13367899459873533" />
    <synapse sourceNeuronName = "8" targetNeuronName = "16" weight = "-0.5259364958776722" />
</neuralNetwork>