<neuralNetwork>
    <neuron name = "0" type = "sensor" linkName = "Torso" />
    <neuron name = "1" type = "sensor" linkName = "BackLeg" />
    <neuron name = "2" type = "sensor" linkName = "FrontLeg" />
    <neuron name = "3" type = "sensor" linkName = "LeftLeg" />
    <neuron name = "4" type = "sensor" linkName = "RightLeg" />
    <neuron name = "5" type = "sensor" linkName = "BackLowerLeg" />
    <neuron name = "6" type = "sensor" linkName = "FrontLowerLeg" />
    <neuron name = "7" type = "sensor" linkName = "LeftLowerLeg" />
    <neuron name = "8" type = "sensor" linkName = "RightLowerLeg" />
    <neuron name = "9" type = "motor"  jointName = "Torso_BackLeg" />
    <neuron name = "10" type = "motor"  jointName = "Torso_FrontLeg" />
    <neuron name = "11" type = "motor"  jointName = "Torso_LeftLeg" />
    <neuron name = "12" type = "motor"  jointName = "Torso_RightLeg" />
    <neuron name = "13" type = "motor"  jointName = "BackLeg_BackLowerLeg" />
    <neuron name = "14" type = "motor"  jointName = "FrontLeg_FrontLowerLeg" />
    <neuron name = "15" type = "motor"  jointName = "LeftLeg_LeftLowerLeg" />
    <neuron name = "16" type = "motor"  jointName = "RightLeg_RightLowerLeg" />
    <synapse sourceNeuronName = "0" targetNeuronName = "9" weight = "-0.6102575395926104" />
    <synapse sourceNeuronName = "0" targetNeuronName = "10" weight = "-0.673023738768465" />
    <synapse sourceNeuronName = "0" targetNeuronName = "11" weight = "-0.27729794812604736" />
    <synapse sourceNeuronName = "0" targetNeuronName = "12" weight = "0.8281075215584668" />
    <synapse sourceNeuronName = "0" targetNeuronName = "13" weight = "-0.2016255254007835" />
    <synapse sourceNeuronName = "0" targetNeuronName = "14" weight = "0.6142365223216717" />
    <synapse sourceNeuronName = "0" targetNeuronName = "15" weight = "0.751883654725336" />
    <synapse sourceNeuronName = "0" targetNeuronName = "16" weight = "0.4572000327949708" />
    <synapse sourceNeuronName = "1" targetNeuronName = "9" weight = "-0.9089602097813356" />
    <synapse sourceNeuronName = "1" targetNeuronName = "10" weight = "-0.40138369468959945" />
    <synapse sourceNeuronName = "1" targetNeuronName = "11" weight = "0.1969293153216387" />
    <synapse sourceNeuronName = "1" targetNeuronName = "12" weight = "-0.34871515200452174" />
    <synapse sourceNeuronName = "1" targetNeuronName = "13" weight = "0.22503355756025023" />
    <synapse sourceNeuronName = "1" targetNeuronName = "14" weight = "-0.7428258287625029" />
    <synapse sourceNeuronName = "1" targetNeuronName = "15" weight = "-0.7453482908224343" />
    <synapse sourceNeuronName = "1" targetNeuronName = "16" weight = "-0.9922677149381656" />
    <synapse sourceNeuronName = "2" targetNeuronName = "9" weight = "0.24492932483225704" />
    <synapse sourceNeuronName = "2" targetNeuronName = "10" weight = "-0.6013806726729896" />
    <synapse sourceNeuronName = "2" targetNeuronName = "11" weight = "-0.18968799618379362" />
    <synapse sourceNeuronName = "2" targetNeuronName = "12" weight = "0.8829243188995082" />
    <synapse sourceNeuronName = "2" targetNeuronName = "13" weight = "0.7160547700871986" />
    <synapse sourceNeuronName = "2" targetNeuronName = "14" weight = "0.6130401972814876" />
    <synapse sourceNeuronName = "2" targetNeuronName = "15" weight = "0.8567537784133672" />
    <synapse sourceNeuronName = "2" targetNeuronName = "16" weight = "0.9918038274485403" />
    <synapse sourceNeuronName = "3" targetNeuronName = "9" weight = "0.8141148294146243" />
    <synapse sourceNeuronName = "3" targetNeuronName = "10" weight = "-0.6671000619323344" />
    <synapse sourceNeuronName = "3" targetNeuronName = "11" weight = "-0.8597115466594505" />
    <synapse sourceNeuronName = "3" targetNeuronName = "12" weight = "-0.7199062136919976" />
    <synapse sourceNeuronName = "3" targetNeuronName = "13" weight = "0.40352145678961593" />
    <synapse sourceNeuronName = "3" targetNeuronName = "14" weight = "0.859575621010108" />
    <synapse sourceNeuronName = "3" targetNeuronName = "15" weight = "0.21919017321852197" />
    <synapse sourceNeuronName = "3" targetNeuronName = "16" weight = "0.7086012774762322" />
    <synapse sourceNeuronName = "4" targetNeuronName = "9" weight = "0.8133813920399016" />
    <synapse sourceNeuronName = "4" targetNeuronName = "10" weight = "0.08166474488162634" />
    <synapse sourceNeuronName = "4" targetNeuronName = "11" weight = "-0.1965502395056551" />
    <synapse sourceNeuronName = "4" targetNeuronName = "12" weight = "-0.9605666673910722" />
    <synapse sourceNeuronName = "4" targetNeuronName = "13" weight = "0.38204389220327983" />
    <synapse sourceNeuronName = "4" targetNeuronName = "14" weight = "0.5707953315778889" />
    <synapse sourceNeuronName = "4" targetNeuronName = "15" weight = "-0.047019544838162064" />
    <synapse sourceNeuronName = "4" targetNeuronName = "16" weight = "-0.848703810646041" />
    <synapse sourceNeuronName = "5" targetNeuronName = "9" weight = "0.2209939012477946" />
    <synapse sourceNeuronName = "5" targetNeuronName = "10" weight = "0.5004193803783319" />
    <synapse sourceNeuronName = "5" targetNeuronName = "11" weight = "0.5924646170892574" />
    <synapse sourceNeuronName = "5" targetNeuronName = "12" weight = "0.01640761829218973" />
    <synapse sourceNeuronName = "5" targetNeuronName = "13" weight = "0.15015491280629134" />
    <synapse sourceNeuronName = "5" targetNeuronName = "14" weight = "0.6984800352959526" />
    <synapse sourceNeuronName = "5" targetNeuronName = "15" weight = "-0.7545727335329293" />
    <synapse sourceNeuronName = "5" targetNeuronName = "16" weight = "0.98389178814945" />
    <synapse sourceNeuronName = "6" targetNeuronName = "9" weight = "-0.7401230989659335" />
    <synapse sourceNeuronName = "6" targetNeuronName = "10" weight = "0.6854163259859312" />
    <synapse sourceNeuronName = "6" targetNeuronName = "11" weight = "0.13516802166240383" />
    <synapse sourceNeuronName = "6" targetNeuronName = "12" weight = "0.10497066823324586" />
    <synapse sourceNeuronName = "6" targetNeuronName = "13" weight = "0.9089037899738364" />
    <synapse sourceNeuronName = "6" targetNeuronName = "14" weight = "-0.17051755457812479" />
    <synapse sourceNeuronName = "6" targetNeuronName = "15" weight = "-0.358824765927962" />
    <synapse sourceNeuronName = "6" targetNeuronName = "16" weight = "0.7445259700963074" />
    <synapse sourceNeuronName = "7" targetNeuronName = "9" weight = "0.7598558162585904" />
    <synapse sourceNeuronName = "7" targetNeuronName = "10" weight = "-0.7737174984395849" />
    <synapse sourceNeuronName = "7" targetNeuronName = "11" weight = "0.8757849840531984" />
    <synapse sourceNeuronName = "7" targetNeuronName = "12" weight = "0.6750099761890906" />
    <synapse sourceNeuronName = "7" targetNeuronName = "13" weight = "-0.5271736540696272" />
    <synapse sourceNeuronName = "7" targetNeuronName = "14" weight = "0.9776638673163727" />
    <synapse sourceNeuronName = "7" targetNeuronName = "15" weight = "0.36234168475683126" />
    <synapse sourceNeuronName = "7" targetNeuronName = "16" weight = "-0.10834764130081531" />
    <synapse sourceNeuronName = "8" targetNeuronName = "9" weight = "0.9979700849517763" />
    <synapse sourceNeuronName = "8" targetNeuronName = "10" weight = "0.8210581684874456" />
    <synapse sourceNeuronName = "8" targetNeuronName = "11" weight = "-0.5781325443583056" />
    <synapse sourceNeuronName = "8" targetNeuronName = "12" weight = "-0.4397412735556405" />
    <synapse sourceNeuronName = "8" targetNeuronName = "13" weight = "0.4115046106306006" />
    <synapse sourceNeuronName = "8" targetNeuronName = "14" weight = "-0.07629923050977738" />
    <synapse sourceNeuronName = "8" targetNeuronName = "15" weight = "-0.3646799008318351" />
    <synapse sourceNeuronName = "8" targetNeuronName = "16" weight = "0.9576537423030089" />
</neuralNetwork>