<neuralNetwork>
    <neuron name = "0" type = "sensor" linkName = "Torso" />
    <neuron name = "1" type = "sensor" linkName = "BackLeg" />
    <neuron name = "2" type = "sensor" linkName = "FrontLeg" />
    <neuron name = "3" type = "sensor" linkName = "LeftLeg" />
    <neuron name = "4" type = "sensor" linkName = "RightLeg" />
    <neuron name = "5" type = "sensor" linkName = "BackLowerLeg" />
    <neuron name = "6" type = "sensor" linkName = "FrontLowerLeg" />
    <neuron name = "7" type = "sensor" linkName = "LeftLowerLeg" />
    <neuron name = "8" type = "sensor" linkName = "RightLowerLeg" />
    <neuron name = "9" type = "motor"  jointName = "Torso_BackLeg" />
    <neuron name = "10" type = "motor"  jointName = "Torso_FrontLeg" />
    <neuron name = "11" type = "motor"  jointName = "Torso_LeftLeg" />
    <neuron name = "12" type = "motor"  jointName = "Torso_RightLeg" />
    <neuron name = "13" type = "motor"  jointName = "BackLeg_BackLowerLeg" />
    <neuron name = "14" type = "motor"  jointName = "FrontLeg_FrontLowerLeg" />
    <neuron name = "15" type = "motor"  jointName = "LeftLeg_LeftLowerLeg" />
    <neuron name = "16" type = "motor"  jointName = "RightLeg_RightLowerLeg" />
    <synapse sourceNeuronName = "0" targetNeuronName = "9" weight = "-0.5553688661940479" />
    <synapse sourceNeuronName = "0" targetNeuronName = "10" weight = "0.625872623667179" />
    <synapse sourceNeuronName = "0" targetNeuronName = "11" weight = "-0.08182348855763077" />
    <synapse sourceNeuronName = "0" targetNeuronName = "12" weight = "-0.3658164409473761" />
    <synapse sourceNeuronName = "0" targetNeuronName = "13" weight = "-0.8911341803930415" />
    <synapse sourceNeuronName = "0" targetNeuronName = "14" weight = "0.8522909079114689" />
    <synapse sourceNeuronName = "0" targetNeuronName = "15" weight = "0.804630103575978" />
    <synapse sourceNeuronName = "0" targetNeuronName = "16" weight = "-0.2650660713407895" />
    <synapse sourceNeuronName = "1" targetNeuronName = "9" weight = "0.9290848898215924" />
    <synapse sourceNeuronName = "1" targetNeuronName = "10" weight = "-0.45229230781254115" />
    <synapse sourceNeuronName = "1" targetNeuronName = "11" weight = "0.16708663114319955" />
    <synapse sourceNeuronName = "1" targetNeuronName = "12" weight = "-0.6341023313816183" />
    <synapse sourceNeuronName = "1" targetNeuronName = "13" weight = "0.8975268497531692" />
    <synapse sourceNeuronName = "1" targetNeuronName = "14" weight = "-0.6683455791139958" />
    <synapse sourceNeuronName = "1" targetNeuronName = "15" weight = "0.32675940086213995" />
    <synapse sourceNeuronName = "1" targetNeuronName = "16" weight = "-0.765606240895665" />
    <synapse sourceNeuronName = "2" targetNeuronName = "9" weight = "-0.23270666634348447" />
    <synapse sourceNeuronName = "2" targetNeuronName = "10" weight = "0.3462043598426321" />
    <synapse sourceNeuronName = "2" targetNeuronName = "11" weight = "-0.3475418019185734" />
    <synapse sourceNeuronName = "2" targetNeuronName = "12" weight = "0.0026769061656599646" />
    <synapse sourceNeuronName = "2" targetNeuronName = "13" weight = "-0.5736462680207797" />
    <synapse sourceNeuronName = "2" targetNeuronName = "14" weight = "-0.2329366662472787" />
    <synapse sourceNeuronName = "2" targetNeuronName = "15" weight = "0.660843915358402" />
    <synapse sourceNeuronName = "2" targetNeuronName = "16" weight = "-0.04167877801737818" />
    <synapse sourceNeuronName = "3" targetNeuronName = "9" weight = "0.9295328028411096" />
    <synapse sourceNeuronName = "3" targetNeuronName = "10" weight = "-0.33568031302617407" />
    <synapse sourceNeuronName = "3" targetNeuronName = "11" weight = "0.8891902472446933" />
    <synapse sourceNeuronName = "3" targetNeuronName = "12" weight = "-0.9464809764005941" />
    <synapse sourceNeuronName = "3" targetNeuronName = "13" weight = "0.546786018603616" />
    <synapse sourceNeuronName = "3" targetNeuronName = "14" weight = "-0.6729948039989384" />
    <synapse sourceNeuronName = "3" targetNeuronName = "15" weight = "0.8179365749479424" />
    <synapse sourceNeuronName = "3" targetNeuronName = "16" weight = "0.35041242501482284" />
    <synapse sourceNeuronName = "4" targetNeuronName = "9" weight = "0.42126650052683967" />
    <synapse sourceNeuronName = "4" targetNeuronName = "10" weight = "0.3743558596869332" />
    <synapse sourceNeuronName = "4" targetNeuronName = "11" weight = "0.3730113178113461" />
    <synapse sourceNeuronName = "4" targetNeuronName = "12" weight = "0.9114667405452834" />
    <synapse sourceNeuronName = "4" targetNeuronName = "13" weight = "0.022996739410030553" />
    <synapse sourceNeuronName = "4" targetNeuronName = "14" weight = "-0.4882502797849757" />
    <synapse sourceNeuronName = "4" targetNeuronName = "15" weight = "-0.9416720806869385" />
    <synapse sourceNeuronName = "4" targetNeuronName = "16" weight = "-0.5774900278769146" />
    <synapse sourceNeuronName = "5" targetNeuronName = "9" weight = "-0.4848909246656201" />
    <synapse sourceNeuronName = "5" targetNeuronName = "10" weight = "-0.053971778709766216" />
    <synapse sourceNeuronName = "5" targetNeuronName = "11" weight = "0.04936739885663344" />
    <synapse sourceNeuronName = "5" targetNeuronName = "12" weight = "-0.9892201737716135" />
    <synapse sourceNeuronName = "5" targetNeuronName = "13" weight = "0.6119592825039759" />
    <synapse sourceNeuronName = "5" targetNeuronName = "14" weight = "0.742185079581807" />
    <synapse sourceNeuronName = "5" targetNeuronName = "15" weight = "0.5062526402175589" />
    <synapse sourceNeuronName = "5" targetNeuronName = "16" weight = "-0.46570483791877204" />
    <synapse sourceNeuronName = "6" targetNeuronName = "9" weight = "0.5878636285190417" />
    <synapse sourceNeuronName = "6" targetNeuronName = "10" weight = "0.8572552400363715" />
    <synapse sourceNeuronName = "6" targetNeuronName = "11" weight = "-0.15218687305612333" />
    <synapse sourceNeuronName = "6" targetNeuronName = "12" weight = "-0.5387171288319308" />
    <synapse sourceNeuronName = "6" targetNeuronName = "13" weight = "0.11749678151912013" />
    <synapse sourceNeuronName = "6" targetNeuronName = "14" weight = "-0.2467064531939731" />
    <synapse sourceNeuronName = "6" targetNeuronName = "15" weight = "-0.8415962349455914" />
    <synapse sourceNeuronName = "6" targetNeuronName = "16" weight = "-0.02083709823032498" />
    <synapse sourceNeuronName = "7" targetNeuronName = "9" weight = "-0.06889525548862596" />
    <synapse sourceNeuronName = "7" targetNeuronName = "10" weight = "0.28557648549216164" />
    <synapse sourceNeuronName = "7" targetNeuronName = "11" weight = "-0.16677817300726416" />
    <synapse sourceNeuronName = "7" targetNeuronName = "12" weight = "0.05150292635543474" />
    <synapse sourceNeuronName = "7" targetNeuronName = "13" weight = "0.24619863389343877" />
    <synapse sourceNeuronName = "7" targetNeuronName = "14" weight = "-0.20644486935621087" />
    <synapse sourceNeuronName = "7" targetNeuronName = "15" weight = "0.2841539915977711" />
    <synapse sourceNeuronName = "7" targetNeuronName = "16" weight = "0.9543734827234318" />
    <synapse sourceNeuronName = "8" targetNeuronName = "9" weight = "-0.9067930986525099" />
    <synapse sourceNeuronName = "8" targetNeuronName = "10" weight = "-0.23629212959318813" />
    <synapse sourceNeuronName = "8" targetNeuronName = "11" weight = "0.5479287494957672" />
    <synapse sourceNeuronName = "8" targetNeuronName = "12" weight = "0.4125556820627052" />
    <synapse sourceNeuronName = "8" targetNeuronName = "13" weight = "-0.17849214444434192" />
    <synapse sourceNeuronName = "8" targetNeuronName = "14" weight = "-0.7258729547156073" />
    <synapse sourceNeuronName = "8" targetNeuronName = "15" weight = "-0.6394691520493263" />
    <synapse sourceNeuronName = "8" targetNeuronName = "16" weight = "-0.5273973594445034" />
</neuralNetwork>