<neuralNetwork>
    <neuron name = "0" type = "sensor" linkName = "Torso" />
    <neuron name = "1" type = "sensor" linkName = "BackLeg" />
    <neuron name = "2" type = "sensor" linkName = "FrontLeg" />
    <neuron name = "3" type = "sensor" linkName = "LeftLeg" />
    <neuron name = "4" type = "sensor" linkName = "RightLeg" />
    <neuron name = "5" type = "sensor" linkName = "BackLowerLeg" />
    <neuron name = "6" type = "sensor" linkName = "FrontLowerLeg" />
    <neuron name = "7" type = "sensor" linkName = "LeftLowerLeg" />
    <neuron name = "8" type = "sensor" linkName = "RightLowerLeg" />
    <neuron name = "9" type = "motor"  jointName = "Torso_BackLeg" />
    <neuron name = "10" type = "motor"  jointName = "Torso_FrontLeg" />
    <neuron name = "11" type = "motor"  jointName = "Torso_LeftLeg" />
    <neuron name = "12" type = "motor"  jointName = "Torso_RightLeg" />
    <neuron name = "13" type = "motor"  jointName = "BackLeg_BackLowerLeg" />
    <neuron name = "14" type = "motor"  jointName = "FrontLeg_FrontLowerLeg" />
    <neuron name = "15" type = "motor"  jointName = "LeftLeg_LeftLowerLeg" />
    <neuron name = "16" type = "motor"  jointName = "RightLeg_RightLowerLeg" />
    <synapse sourceNeuronName = "0" targetNeuronName = "9" weight = "-0.9177533599932455" />
    <synapse sourceNeuronName = "0" targetNeuronName = "10" weight = "-0.11306913646483063" />
    <synapse sourceNeuronName = "0" targetNeuronName = "11" weight = "-0.8911318515103883" />
    <synapse sourceNeuronName = "0" targetNeuronName = "12" weight = "-0.39873481074194794" />
    <synapse sourceNeuronName = "0" targetNeuronName = "13" weight = "0.46445591026857613" />
    <synapse sourceNeuronName = "0" targetNeuronName = "14" weight = "-0.8441414403062182" />
    <synapse sourceNeuronName = "0" targetNeuronName = "15" weight = "-0.15087478208609073" />
    <synapse sourceNeuronName = "0" targetNeuronName = "16" weight = "-0.04204785545546308" />
    <synapse sourceNeuronName = "1" targetNeuronName = "9" weight = "-0.28406490259961203" />
    <synapse sourceNeuronName = "1" targetNeuronName = "10" weight = "-0.7353224002536234" />
    <synapse sourceNeuronName = "1" targetNeuronName = "11" weight = "-0.5221642074842634" />
    <synapse sourceNeuronName = "1" targetNeuronName = "12" weight = "-0.6218589876883971" />
    <synapse sourceNeuronName = "1" targetNeuronName = "13" weight = "-0.13930616325268508" />
    <synapse sourceNeuronName = "1" targetNeuronName = "14" weight = "-0.2829472183348394" />
    <synapse sourceNeuronName = "1" targetNeuronName = "15" weight = "0.4974161207589334" />
    <synapse sourceNeuronName = "1" targetNeuronName = "16" weight = "0.26442778807516487" />
    <synapse sourceNeuronName = "2" targetNeuronName = "9" weight = "0.7623379652717606" />
    <synapse sourceNeuronName = "2" targetNeuronName = "10" weight = "-0.10588353772029335" />
    <synapse sourceNeuronName = "2" targetNeuronName = "11" weight = "-0.10048071040798168" />
    <synapse sourceNeuronName = "2" targetNeuronName = "12" weight = "0.5215189291398954" />
    <synapse sourceNeuronName = "2" targetNeuronName = "13" weight = "0.7994571601148435" />
    <synapse sourceNeuronName = "2" targetNeuronName = "14" weight = "-0.21901968613065703" />
    <synapse sourceNeuronName = "2" targetNeuronName = "15" weight = "0.38027032219170076" />
    <synapse sourceNeuronName = "2" targetNeuronName = "16" weight = "-0.4482179757416045" />
    <synapse sourceNeuronName = "3" targetNeuronName = "9" weight = "-0.6717493784848396" />
    <synapse sourceNeuronName = "3" targetNeuronName = "10" weight = "-0.9985704357402942" />
    <synapse sourceNeuronName = "3" targetNeuronName = "11" weight = "-0.7692180267727802" />
    <synapse sourceNeuronName = "3" targetNeuronName = "12" weight = "0.4351184521456184" />
    <synapse sourceNeuronName = "3" targetNeuronName = "13" weight = "-0.053887017450815033" />
    <synapse sourceNeuronName = "3" targetNeuronName = "14" weight = "0.25167609588971973" />
    <synapse sourceNeuronName = "3" targetNeuronName = "15" weight = "0.24372698332414777" />
    <synapse sourceNeuronName = "3" targetNeuronName = "16" weight = "0.5023911373619139" />
    <synapse sourceNeuronName = "4" targetNeuronName = "9" weight = "-0.6087225080216336" />
    <synapse sourceNeuronName = "4" targetNeuronName = "10" weight = "0.5765691367682697" />
    <synapse sourceNeuronName = "4" targetNeuronName = "11" weight = "0.38119706637914463" />
    <synapse sourceNeuronName = "4" targetNeuronName = "12" weight = "0.2635445207831615" />
    <synapse sourceNeuronName = "4" targetNeuronName = "13" weight = "0.8900840192650983" />
    <synapse sourceNeuronName = "4" targetNeuronName = "14" weight = "0.07209934334539025" />
    <synapse sourceNeuronName = "4" targetNeuronName = "15" weight = "-0.40040249124786453" />
    <synapse sourceNeuronName = "4" targetNeuronName = "16" weight = "0.2706322832111483" />
    <synapse sourceNeuronName = "5" targetNeuronName = "9" weight = "-0.5530575253300358" />
    <synapse sourceNeuronName = "5" targetNeuronName = "10" weight = "-0.7720373940193876" />
    <synapse sourceNeuronName = "5" targetNeuronName = "11" weight = "0.4916876489202151" />
    <synapse sourceNeuronName = "5" targetNeuronName = "12" weight = "-0.7743076059099161" />
    <synapse sourceNeuronName = "5" targetNeuronName = "13" weight = "0.6692955092323407" />
    <synapse sourceNeuronName = "5" targetNeuronName = "14" weight = "0.5596117906170979" />
    <synapse sourceNeuronName = "5" targetNeuronName = "15" weight = "-0.012339841404162666" />
    <synapse sourceNeuronName = "5" targetNeuronName = "16" weight = "-0.8275509958191969" />
    <synapse sourceNeuronName = "6" targetNeuronName = "9" weight = "-0.3033508597846728" />
    <synapse sourceNeuronName = "6" targetNeuronName = "10" weight = "-0.5377783271330796" />
    <synapse sourceNeuronName = "6" targetNeuronName = "11" weight = "0.5935135215038008" />
    <synapse sourceNeuronName = "6" targetNeuronName = "12" weight = "0.026988986081239785" />
    <synapse sourceNeuronName = "6" targetNeuronName = "13" weight = "0.18060236345139447" />
    <synapse sourceNeuronName = "6" targetNeuronName = "14" weight = "0.6613150650252095" />
    <synapse sourceNeuronName = "6" targetNeuronName = "15" weight = "0.8848340160887269" />
    <synapse sourceNeuronName = "6" targetNeuronName = "16" weight = "0.9043658027860919" />
    <synapse sourceNeuronName = "7" targetNeuronName = "9" weight = "0.298596483709628" />
    <synapse sourceNeuronName = "7" targetNeuronName = "10" weight = "0.11330861286789706" />
    <synapse sourceNeuronName = "7" targetNeuronName = "11" weight = "0.5388908720412666" />
    <synapse sourceNeuronName = "7" targetNeuronName = "12" weight = "-0.3163873392013139" />
    <synapse sourceNeuronName = "7" targetNeuronName = "13" weight = "0.3805726947988777" />
    <synapse sourceNeuronName = "7" targetNeuronName = "14" weight = "-0.39033875477147584" />
    <synapse sourceNeuronName = "7" targetNeuronName = "15" weight = "0.5925185770389279" />
    <synapse sourceNeuronName = "7" targetNeuronName = "16" weight = "-0.688510340835135" />
    <synapse sourceNeuronName = "8" targetNeuronName = "9" weight = "-0.31999297011430206" />
    <synapse sourceNeuronName = "8" targetNeuronName = "10" weight = "-0.5011396228493554" />
    <synapse sourceNeuronName = "8" targetNeuronName = "11" weight = "0.5969029513496924" />
    <synapse sourceNeuronName = "8" targetNeuronName = "12" weight = "0.0029270882547016708" />
    <synapse sourceNeuronName = "8" targetNeuronName = "13" weight = "0.9936760405389957" />
    <synapse sourceNeuronName = "8" targetNeuronName = "14" weight = "0.01595392696182496" />
    <synapse sourceNeuronName = "8" targetNeuronName = "15" weight = "-0.4709164398365895" />
    <synapse sourceNeuronName = "8" targetNeuronName = "16" weight = "0.013768231209450255" />
</neuralNetwork>