<neuralNetwork>
    <neuron name = "0" type = "sensor" linkName = "Torso" />
    <neuron name = "1" type = "sensor" linkName = "BackLeg" />
    <neuron name = "2" type = "sensor" linkName = "FrontLeg" />
    <neuron name = "3" type = "sensor" linkName = "LeftLeg" />
    <neuron name = "4" type = "sensor" linkName = "RightLeg" />
    <neuron name = "5" type = "sensor" linkName = "BackLowerLeg" />
    <neuron name = "6" type = "sensor" linkName = "FrontLowerLeg" />
    <neuron name = "7" type = "sensor" linkName = "LeftLowerLeg" />
    <neuron name = "8" type = "sensor" linkName = "RightLowerLeg" />
    <neuron name = "9" type = "motor"  jointName = "Torso_BackLeg" />
    <neuron name = "10" type = "motor"  jointName = "Torso_FrontLeg" />
    <neuron name = "11" type = "motor"  jointName = "Torso_LeftLeg" />
    <neuron name = "12" type = "motor"  jointName = "Torso_RightLeg" />
    <neuron name = "13" type = "motor"  jointName = "BackLeg_BackLowerLeg" />
    <neuron name = "14" type = "motor"  jointName = "FrontLeg_FrontLowerLeg" />
    <neuron name = "15" type = "motor"  jointName = "LeftLeg_LeftLowerLeg" />
    <neuron name = "16" type = "motor"  jointName = "RightLeg_RightLowerLeg" />
    <synapse sourceNeuronName = "0" targetNeuronName = "9" weight = "0.5051014836407908" />
    <synapse sourceNeuronName = "0" targetNeuronName = "10" weight = "0.22161293755839062" />
    <synapse sourceNeuronName = "0" targetNeuronName = "11" weight = "0.10597854553176611" />
    <synapse sourceNeuronName = "0" targetNeuronName = "12" weight = "-0.1967090720171516" />
    <synapse sourceNeuronName = "0" targetNeuronName = "13" weight = "-0.5094888435839937" />
    <synapse sourceNeuronName = "0" targetNeuronName = "14" weight = "-0.9920284881998509" />
    <synapse sourceNeuronName = "0" targetNeuronName = "15" weight = "0.9719432535799044" />
    <synapse sourceNeuronName = "0" targetNeuronName = "16" weight = "0.7816114738861137" />
    <synapse sourceNeuronName = "1" targetNeuronName = "9" weight = "0.9195594356251153" />
    <synapse sourceNeuronName = "1" targetNeuronName = "10" weight = "-0.8708439161950627" />
    <synapse sourceNeuronName = "1" targetNeuronName = "11" weight = "-0.9757166743888919" />
    <synapse sourceNeuronName = "1" targetNeuronName = "12" weight = "-0.5086470652024866" />
    <synapse sourceNeuronName = "1" targetNeuronName = "13" weight = "0.17787815780104133" />
    <synapse sourceNeuronName = "1" targetNeuronName = "14" weight = "0.08228617756985446" />
    <synapse sourceNeuronName = "1" targetNeuronName = "15" weight = "0.5905931653568224" />
    <synapse sourceNeuronName = "1" targetNeuronName = "16" weight = "0.8123713939802417" />
    <synapse sourceNeuronName = "2" targetNeuronName = "9" weight = "-0.027252392838848394" />
    <synapse sourceNeuronName = "2" targetNeuronName = "10" weight = "0.5682731682603845" />
    <synapse sourceNeuronName = "2" targetNeuronName = "11" weight = "-0.15048497034355202" />
    <synapse sourceNeuronName = "2" targetNeuronName = "12" weight = "-0.7788039224164078" />
    <synapse sourceNeuronName = "2" targetNeuronName = "13" weight = "-0.8295346657605982" />
    <synapse sourceNeuronName = "2" targetNeuronName = "14" weight = "0.13547734919703336" />
    <synapse sourceNeuronName = "2" targetNeuronName = "15" weight = "0.3026943215417943" />
    <synapse sourceNeuronName = "2" targetNeuronName = "16" weight = "0.46383589380546764" />
    <synapse sourceNeuronName = "3" targetNeuronName = "9" weight = "-0.49195447829135164" />
    <synapse sourceNeuronName = "3" targetNeuronName = "10" weight = "0.532202695182745" />
    <synapse sourceNeuronName = "3" targetNeuronName = "11" weight = "-0.43517439113187173" />
    <synapse sourceNeuronName = "3" targetNeuronName = "12" weight = "0.391885379922722" />
    <synapse sourceNeuronName = "3" targetNeuronName = "13" weight = "-0.862426592413271" />
    <synapse sourceNeuronName = "3" targetNeuronName = "14" weight = "-0.015610516188262258" />
    <synapse sourceNeuronName = "3" targetNeuronName = "15" weight = "-0.997071638296777" />
    <synapse sourceNeuronName = "3" targetNeuronName = "16" weight = "0.8536550508941572" />
    <synapse sourceNeuronName = "4" targetNeuronName = "9" weight = "0.8571250966667627" />
    <synapse sourceNeuronName = "4" targetNeuronName = "10" weight = "0.83230464328536" />
    <synapse sourceNeuronName = "4" targetNeuronName = "11" weight = "0.891898569907098" />
    <synapse sourceNeuronName = "4" targetNeuronName = "12" weight = "-0.49586030698856964" />
    <synapse sourceNeuronName = "4" targetNeuronName = "13" weight = "0.8944873568900449" />
    <synapse sourceNeuronName = "4" targetNeuronName = "14" weight = "-0.11166153142399038" />
    <synapse sourceNeuronName = "4" targetNeuronName = "15" weight = "0.21842141764355505" />
    <synapse sourceNeuronName = "4" targetNeuronName = "16" weight = "-0.7252660896172414" />
    <synapse sourceNeuronName = "5" targetNeuronName = "9" weight = "0.8747927213103355" />
    <synapse sourceNeuronName = "5" targetNeuronName = "10" weight = "0.971978502137991" />
    <synapse sourceNeuronName = "5" targetNeuronName = "11" weight = "-0.19352084137443004" />
    <synapse sourceNeuronName = "5" targetNeuronName = "12" weight = "-0.8417614537541176" />
    <synapse sourceNeuronName = "5" targetNeuronName = "13" weight = "0.8920056852470633" />
    <synapse sourceNeuronName = "5" targetNeuronName = "14" weight = "0.7656995348036755" />
    <synapse sourceNeuronName = "5" targetNeuronName = "15" weight = "0.26231354428748377" />
    <synapse sourceNeuronName = "5" targetNeuronName = "16" weight = "-0.9844683200973943" />
    <synapse sourceNeuronName = "6" targetNeuronName = "9" weight = "-0.7899373345075982" />
    <synapse sourceNeuronName = "6" targetNeuronName = "10" weight = "0.7326525178122225" />
    <synapse sourceNeuronName = "6" targetNeuronName = "11" weight = "-0.7870107568245586" />
    <synapse sourceNeuronName = "6" targetNeuronName = "12" weight = "-0.5783887603913582" />
    <synapse sourceNeuronName = "6" targetNeuronName = "13" weight = "-0.9793977534127427" />
    <synapse sourceNeuronName = "6" targetNeuronName = "14" weight = "-0.5786150544217861" />
    <synapse sourceNeuronName = "6" targetNeuronName = "15" weight = "0.7391042492564626" />
    <synapse sourceNeuronName = "6" targetNeuronName = "16" weight = "0.6533732322959662" />
    <synapse sourceNeuronName = "7" targetNeuronName = "9" weight = "0.9653174340670096" />
    <synapse sourceNeuronName = "7" targetNeuronName = "10" weight = "-0.2716064782851946" />
    <synapse sourceNeuronName = "7" targetNeuronName = "11" weight = "-0.47231290598900166" />
    <synapse sourceNeuronName = "7" targetNeuronName = "12" weight = "-0.9491799286307074" />
    <synapse sourceNeuronName = "7" targetNeuronName = "13" weight = "0.1859958477582968" />
    <synapse sourceNeuronName = "7" targetNeuronName = "14" weight = "0.905019330367953" />
    <synapse sourceNeuronName = "7" targetNeuronName = "15" weight = "-0.353925680630619" />
    <synapse sourceNeuronName = "7" targetNeuronName = "16" weight = "-0.9443917946384015" />
    <synapse sourceNeuronName = "8" targetNeuronName = "9" weight = "0.47508568101451965" />
    <synapse sourceNeuronName = "8" targetNeuronName = "10" weight = "0.4516535559221386" />
    <synapse sourceNeuronName = "8" targetNeuronName = "11" weight = "0.10861679708894978" />
    <synapse sourceNeuronName = "8" targetNeuronName = "12" weight = "-0.2429163024072325" />
    <synapse sourceNeuronName = "8" targetNeuronName = "13" weight = "0.9589608913087324" />
    <synapse sourceNeuronName = "8" targetNeuronName = "14" weight = "0.4565048983143818" />
    <synapse sourceNeuronName = "8" targetNeuronName = "15" weight = "-0.1439827556489055" />
    <synapse sourceNeuronName = "8" targetNeuronName = "16" weight = "0.06576692753721902" />
</neuralNetwork>