<neuralNetwork>
    <neuron name = "0" type = "sensor" linkName = "Torso" />
    <neuron name = "1" type = "sensor" linkName = "BackLeg" />
    <neuron name = "2" type = "sensor" linkName = "FrontLeg" />
    <neuron name = "3" type = "sensor" linkName = "LeftLeg" />
    <neuron name = "4" type = "sensor" linkName = "RightLeg" />
    <neuron name = "5" type = "sensor" linkName = "BackLowerLeg" />
    <neuron name = "6" type = "sensor" linkName = "FrontLowerLeg" />
    <neuron name = "7" type = "sensor" linkName = "LeftLowerLeg" />
    <neuron name = "8" type = "sensor" linkName = "RightLowerLeg" />
    <neuron name = "9" type = "motor"  jointName = "Torso_BackLeg" />
    <neuron name = "10" type = "motor"  jointName = "Torso_FrontLeg" />
    <neuron name = "11" type = "motor"  jointName = "Torso_LeftLeg" />
    <neuron name = "12" type = "motor"  jointName = "Torso_RightLeg" />
    <neuron name = "13" type = "motor"  jointName = "BackLeg_BackLowerLeg" />
    <neuron name = "14" type = "motor"  jointName = "FrontLeg_FrontLowerLeg" />
    <neuron name = "15" type = "motor"  jointName = "LeftLeg_LeftLowerLeg" />
    <neuron name = "16" type = "motor"  jointName = "RightLeg_RightLowerLeg" />
    <synapse sourceNeuronName = "0" targetNeuronName = "9" weight = "0.44166947050019023" />
    <synapse sourceNeuronName = "0" targetNeuronName = "10" weight = "-0.1548061732323227" />
    <synapse sourceNeuronName = "0" targetNeuronName = "11" weight = "-0.2174880558547465" />
    <synapse sourceNeuronName = "0" targetNeuronName = "12" weight = "-0.02911510269682016" />
    <synapse sourceNeuronName = "0" targetNeuronName = "13" weight = "-0.3277380156282306" />
    <synapse sourceNeuronName = "0" targetNeuronName = "14" weight = "-0.7005028079463733" />
    <synapse sourceNeuronName = "0" targetNeuronName = "15" weight = "0.9362647650651641" />
    <synapse sourceNeuronName = "0" targetNeuronName = "16" weight = "-0.3207702703334703" />
    <synapse sourceNeuronName = "1" targetNeuronName = "9" weight = "-0.3284206387123221" />
    <synapse sourceNeuronName = "1" targetNeuronName = "10" weight = "0.1797219416776643" />
    <synapse sourceNeuronName = "1" targetNeuronName = "11" weight = "0.6497025132481962" />
    <synapse sourceNeuronName = "1" targetNeuronName = "12" weight = "-0.7328087429685561" />
    <synapse sourceNeuronName = "1" targetNeuronName = "13" weight = "-0.02276270874495534" />
    <synapse sourceNeuronName = "1" targetNeuronName = "14" weight = "-0.04080950773046621" />
    <synapse sourceNeuronName = "1" targetNeuronName = "15" weight = "0.6046220676896812" />
    <synapse sourceNeuronName = "1" targetNeuronName = "16" weight = "0.11490944368759126" />
    <synapse sourceNeuronName = "2" targetNeuronName = "9" weight = "-0.45397040006938316" />
    <synapse sourceNeuronName = "2" targetNeuronName = "10" weight = "-0.9718808222737443" />
    <synapse sourceNeuronName = "2" targetNeuronName = "11" weight = "0.3373312991706805" />
    <synapse sourceNeuronName = "2" targetNeuronName = "12" weight = "-0.8721812988464577" />
    <synapse sourceNeuronName = "2" targetNeuronName = "13" weight = "-0.414507701562592" />
    <synapse sourceNeuronName = "2" targetNeuronName = "14" weight = "-0.12939757734674906" />
    <synapse sourceNeuronName = "2" targetNeuronName = "15" weight = "0.5824323287710358" />
    <synapse sourceNeuronName = "2" targetNeuronName = "16" weight = "-0.3538694285137909" />
    <synapse sourceNeuronName = "3" targetNeuronName = "9" weight = "0.8495830952146306" />
    <synapse sourceNeuronName = "3" targetNeuronName = "10" weight = "-0.108122127758012" />
    <synapse sourceNeuronName = "3" targetNeuronName = "11" weight = "-0.5293991895147321" />
    <synapse sourceNeuronName = "3" targetNeuronName = "12" weight = "-0.4335736828877794" />
    <synapse sourceNeuronName = "3" targetNeuronName = "13" weight = "-0.8328037518779845" />
    <synapse sourceNeuronName = "3" targetNeuronName = "14" weight = "0.7134384824358595" />
    <synapse sourceNeuronName = "3" targetNeuronName = "15" weight = "-0.811526111169175" />
    <synapse sourceNeuronName = "3" targetNeuronName = "16" weight = "0.10185416538304293" />
    <synapse sourceNeuronName = "4" targetNeuronName = "9" weight = "0.20389021888722936" />
    <synapse sourceNeuronName = "4" targetNeuronName = "10" weight = "-0.6132245704336614" />
    <synapse sourceNeuronName = "4" targetNeuronName = "11" weight = "-0.721892248465321" />
    <synapse sourceNeuronName = "4" targetNeuronName = "12" weight = "0.8230488711168298" />
    <synapse sourceNeuronName = "4" targetNeuronName = "13" weight = "-0.5132431292127881" />
    <synapse sourceNeuronName = "4" targetNeuronName = "14" weight = "0.6964356349208882" />
    <synapse sourceNeuronName = "4" targetNeuronName = "15" weight = "0.27483607750613737" />
    <synapse sourceNeuronName = "4" targetNeuronName = "16" weight = "-0.7452519559805932" />
    <synapse sourceNeuronName = "5" targetNeuronName = "9" weight = "-0.8273689262356643" />
    <synapse sourceNeuronName = "5" targetNeuronName = "10" weight = "-0.3049362722351674" />
    <synapse sourceNeuronName = "5" targetNeuronName = "11" weight = "-0.6576206129346351" />
    <synapse sourceNeuronName = "5" targetNeuronName = "12" weight = "0.950427574514179" />
    <synapse sourceNeuronName = "5" targetNeuronName = "13" weight = "-0.7092308697826413" />
    <synapse sourceNeuronName = "5" targetNeuronName = "14" weight = "0.7708041578239173" />
    <synapse sourceNeuronName = "5" targetNeuronName = "15" weight = "0.2680497635172503" />
    <synapse sourceNeuronName = "5" targetNeuronName = "16" weight = "-0.09218219425575991" />
    <synapse sourceNeuronName = "6" targetNeuronName = "9" weight = "0.8409445216447102" />
    <synapse sourceNeuronName = "6" targetNeuronName = "10" weight = "0.7095419347850196" />
    <synapse sourceNeuronName = "6" targetNeuronName = "11" weight = "-0.9825276359664175" />
    <synapse sourceNeuronName = "6" targetNeuronName = "12" weight = "0.8657966920208671" />
    <synapse sourceNeuronName = "6" targetNeuronName = "13" weight = "-0.4705737111040109" />
    <synapse sourceNeuronName = "6" targetNeuronName = "14" weight = "0.8490416212967888" />
    <synapse sourceNeuronName = "6" targetNeuronName = "15" weight = "0.7082324133974456" />
    <synapse sourceNeuronName = "6" targetNeuronName = "16" weight = "0.6941439175851309" />
    <synapse sourceNeuronName = "7" targetNeuronName = "9" weight = "0.11493150025485188" />
    <synapse sourceNeuronName = "7" targetNeuronName = "10" weight = "0.2589281997448114" />
    <synapse sourceNeuronName = "7" targetNeuronName = "11" weight = "0.5829941023633867" />
    <synapse sourceNeuronName = "7" targetNeuronName = "12" weight = "-0.42140726098405845" />
    <synapse sourceNeuronName = "7" targetNeuronName = "13" weight = "-0.7949836689712504" />
    <synapse sourceNeuronName = "7" targetNeuronName = "14" weight = "0.6118527446557787" />
    <synapse sourceNeuronName = "7" targetNeuronName = "15" weight = "0.8796361956951182" />
    <synapse sourceNeuronName = "7" targetNeuronName = "16" weight = "0.5796931342226075" />
    <synapse sourceNeuronName = "8" targetNeuronName = "9" weight = "-0.3519720451929682" />
    <synapse sourceNeuronName = "8" targetNeuronName = "10" weight = "0.11162087081076844" />
    <synapse sourceNeuronName = "8" targetNeuronName = "11" weight = "0.4184586444694396" />
    <synapse sourceNeuronName = "8" targetNeuronName = "12" weight = "0.6945742020514436" />
    <synapse sourceNeuronName = "8" targetNeuronName = "13" weight = "-0.7351133772738305" />
    <synapse sourceNeuronName = "8" targetNeuronName = "14" weight = "-0.8068267018599986" />
    <synapse sourceNeuronName = "8" targetNeuronName = "15" weight = "-0.7513674661025422" />
    <synapse sourceNeuronName = "8" targetNeuronName = "16" weight = "-0.5630234990781302" />
</neuralNetwork>