<neuralNetwork>
    <neuron name = "0" type = "sensor" linkName = "Torso" />
    <neuron name = "1" type = "sensor" linkName = "BackLeg" />
    <neuron name = "2" type = "sensor" linkName = "FrontLeg" />
    <neuron name = "3" type = "sensor" linkName = "LeftLeg" />
    <neuron name = "4" type = "sensor" linkName = "RightLeg" />
    <neuron name = "5" type = "sensor" linkName = "BackLowerLeg" />
    <neuron name = "6" type = "sensor" linkName = "FrontLowerLeg" />
    <neuron name = "7" type = "sensor" linkName = "LeftLowerLeg" />
    <neuron name = "8" type = "sensor" linkName = "RightLowerLeg" />
    <neuron name = "9" type = "motor"  jointName = "Torso_BackLeg" />
    <neuron name = "10" type = "motor"  jointName = "Torso_FrontLeg" />
    <neuron name = "11" type = "motor"  jointName = "Torso_LeftLeg" />
    <neuron name = "12" type = "motor"  jointName = "Torso_RightLeg" />
    <neuron name = "13" type = "motor"  jointName = "BackLeg_BackLowerLeg" />
    <neuron name = "14" type = "motor"  jointName = "FrontLeg_FrontLowerLeg" />
    <neuron name = "15" type = "motor"  jointName = "LeftLeg_LeftLowerLeg" />
    <neuron name = "16" type = "motor"  jointName = "RightLeg_RightLowerLeg" />
    <synapse sourceNeuronName = "0" targetNeuronName = "9" weight = "-0.6189074554377545" />
    <synapse sourceNeuronName = "0" targetNeuronName = "10" weight = "0.8034742052628476" />
    <synapse sourceNeuronName = "0" targetNeuronName = "11" weight = "0.9463608004231217" />
    <synapse sourceNeuronName = "0" targetNeuronName = "12" weight = "0.9804559237333024" />
    <synapse sourceNeuronName = "0" targetNeuronName = "13" weight = "0.9833767841232488" />
    <synapse sourceNeuronName = "0" targetNeuronName = "14" weight = "-0.6165671818789034" />
    <synapse sourceNeuronName = "0" targetNeuronName = "15" weight = "-0.7186277076298742" />
    <synapse sourceNeuronName = "0" targetNeuronName = "16" weight = "-0.8290731885172273" />
    <synapse sourceNeuronName = "1" targetNeuronName = "9" weight = "0.4471158866625615" />
    <synapse sourceNeuronName = "1" targetNeuronName = "10" weight = "-0.021946957139022283" />
    <synapse sourceNeuronName = "1" targetNeuronName = "11" weight = "0.2446484761512322" />
    <synapse sourceNeuronName = "1" targetNeuronName = "12" weight = "-0.25856861502318895" />
    <synapse sourceNeuronName = "1" targetNeuronName = "13" weight = "-0.016841633847606508" />
    <synapse sourceNeuronName = "1" targetNeuronName = "14" weight = "0.766908863004828" />
    <synapse sourceNeuronName = "1" targetNeuronName = "15" weight = "-0.709987457306831" />
    <synapse sourceNeuronName = "1" targetNeuronName = "16" weight = "-0.7359907915075985" />
    <synapse sourceNeuronName = "2" targetNeuronName = "9" weight = "0.08507572971913158" />
    <synapse sourceNeuronName = "2" targetNeuronName = "10" weight = "-0.5284355990411269" />
    <synapse sourceNeuronName = "2" targetNeuronName = "11" weight = "-0.6450559012229042" />
    <synapse sourceNeuronName = "2" targetNeuronName = "12" weight = "0.7486659500200834" />
    <synapse sourceNeuronName = "2" targetNeuronName = "13" weight = "0.9054418683542511" />
    <synapse sourceNeuronName = "2" targetNeuronName = "14" weight = "0.8486425320435733" />
    <synapse sourceNeuronName = "2" targetNeuronName = "15" weight = "0.5022478949127138" />
    <synapse sourceNeuronName = "2" targetNeuronName = "16" weight = "-0.535325929161782" />
    <synapse sourceNeuronName = "3" targetNeuronName = "9" weight = "0.8026935182098154" />
    <synapse sourceNeuronName = "3" targetNeuronName = "10" weight = "0.8016648531585888" />
    <synapse sourceNeuronName = "3" targetNeuronName = "11" weight = "0.3984587273525324" />
    <synapse sourceNeuronName = "3" targetNeuronName = "12" weight = "-0.32527423405824685" />
    <synapse sourceNeuronName = "3" targetNeuronName = "13" weight = "-0.48184338514334213" />
    <synapse sourceNeuronName = "3" targetNeuronName = "14" weight = "-0.625933940168977" />
    <synapse sourceNeuronName = "3" targetNeuronName = "15" weight = "0.9059836918692685" />
    <synapse sourceNeuronName = "3" targetNeuronName = "16" weight = "-0.48722310000797053" />
    <synapse sourceNeuronName = "4" targetNeuronName = "9" weight = "0.6414873335596729" />
    <synapse sourceNeuronName = "4" targetNeuronName = "10" weight = "-0.2423547285249159" />
    <synapse sourceNeuronName = "4" targetNeuronName = "11" weight = "-0.9547952060096565" />
    <synapse sourceNeuronName = "4" targetNeuronName = "12" weight = "-0.5129213420857175" />
    <synapse sourceNeuronName = "4" targetNeuronName = "13" weight = "0.7625104467540735" />
    <synapse sourceNeuronName = "4" targetNeuronName = "14" weight = "-0.7225401189754836" />
    <synapse sourceNeuronName = "4" targetNeuronName = "15" weight = "0.975827465820724" />
    <synapse sourceNeuronName = "4" targetNeuronName = "16" weight = "-0.2930480328434171" />
    <synapse sourceNeuronName = "5" targetNeuronName = "9" weight = "0.2338686512178596" />
    <synapse sourceNeuronName = "5" targetNeuronName = "10" weight = "0.36792482452269915" />
    <synapse sourceNeuronName = "5" targetNeuronName = "11" weight = "-0.9322015460416841" />
    <synapse sourceNeuronName = "5" targetNeuronName = "12" weight = "-0.38276338067404847" />
    <synapse sourceNeuronName = "5" targetNeuronName = "13" weight = "-0.9091607353294129" />
    <synapse sourceNeuronName = "5" targetNeuronName = "14" weight = "-0.3938466069689526" />
    <synapse sourceNeuronName = "5" targetNeuronName = "15" weight = "-0.3792938462494355" />
    <synapse sourceNeuronName = "5" targetNeuronName = "16" weight = "-0.3706623575699064" />
    <synapse sourceNeuronName = "6" targetNeuronName = "9" weight = "0.6551917540652523" />
    <synapse sourceNeuronName = "6" targetNeuronName = "10" weight = "0.4025610074340711" />
    <synapse sourceNeuronName = "6" targetNeuronName = "11" weight = "0.30388952880554276" />
    <synapse sourceNeuronName = "6" targetNeuronName = "12" weight = "0.8386687759411364" />
    <synapse sourceNeuronName = "6" targetNeuronName = "13" weight = "0.8628515187526964" />
    <synapse sourceNeuronName = "6" targetNeuronName = "14" weight = "0.7446660655376429" />
    <synapse sourceNeuronName = "6" targetNeuronName = "15" weight = "-0.799959211799615" />
    <synapse sourceNeuronName = "6" targetNeuronName = "16" weight = "0.6778397863539549" />
    <synapse sourceNeuronName = "7" targetNeuronName = "9" weight = "-0.04727300964122216" />
    <synapse sourceNeuronName = "7" targetNeuronName = "10" weight = "0.5687632777818858" />
    <synapse sourceNeuronName = "7" targetNeuronName = "11" weight = "0.29376526977401496" />
    <synapse sourceNeuronName = "7" targetNeuronName = "12" weight = "-0.8218773266248858" />
    <synapse sourceNeuronName = "7" targetNeuronName = "13" weight = "0.7186370626294021" />
    <synapse sourceNeuronName = "7" targetNeuronName = "14" weight = "-0.9222236059261009" />
    <synapse sourceNeuronName = "7" targetNeuronName = "15" weight = "0.4200406339322391" />
    <synapse sourceNeuronName = "7" targetNeuronName = "16" weight = "-0.5952110992712605" />
    <synapse sourceNeuronName = "8" targetNeuronName = "9" weight = "0.3385796188221333" />
    <synapse sourceNeuronName = "8" targetNeuronName = "10" weight = "-0.9230075623485923" />
    <synapse sourceNeuronName = "8" targetNeuronName = "11" weight = "-0.1699586620620892" />
    <synapse sourceNeuronName = "8" targetNeuronName = "12" weight = "0.965149351920261" />
    <synapse sourceNeuronName = "8" targetNeuronName = "13" weight = "0.9803275446163302" />
    <synapse sourceNeuronName = "8" targetNeuronName = "14" weight = "-0.4976179118239086" />
    <synapse sourceNeuronName = "8" targetNeuronName = "15" weight = "0.4812275642376056" />
    <synapse sourceNeuronName = "8" targetNeuronName = "16" weight = "0.4188488032032325" />
</neuralNetwork>