<neuralNetwork>
    <neuron name = "0" type = "sensor" linkName = "Torso" />
    <neuron name = "1" type = "sensor" linkName = "BackLeg" />
    <neuron name = "2" type = "sensor" linkName = "FrontLeg" />
    <neuron name = "3" type = "sensor" linkName = "LeftLeg" />
    <neuron name = "4" type = "sensor" linkName = "RightLeg" />
    <neuron name = "5" type = "sensor" linkName = "BackLowerLeg" />
    <neuron name = "6" type = "sensor" linkName = "FrontLowerLeg" />
    <neuron name = "7" type = "sensor" linkName = "LeftLowerLeg" />
    <neuron name = "8" type = "sensor" linkName = "RightLowerLeg" />
    <neuron name = "9" type = "motor"  jointName = "Torso_BackLeg" />
    <neuron name = "10" type = "motor"  jointName = "Torso_FrontLeg" />
    <neuron name = "11" type = "motor"  jointName = "Torso_LeftLeg" />
    <neuron name = "12" type = "motor"  jointName = "Torso_RightLeg" />
    <neuron name = "13" type = "motor"  jointName = "BackLeg_BackLowerLeg" />
    <neuron name = "14" type = "motor"  jointName = "FrontLeg_FrontLowerLeg" />
    <neuron name = "15" type = "motor"  jointName = "LeftLeg_LeftLowerLeg" />
    <neuron name = "16" type = "motor"  jointName = "RightLeg_RightLowerLeg" />
    <synapse sourceNeuronName = "0" targetNeuronName = "9" weight = "0.22154150614529522" />
    <synapse sourceNeuronName = "0" targetNeuronName = "10" weight = "-0.8228622980510591" />
    <synapse sourceNeuronName = "0" targetNeuronName = "11" weight = "-0.6947189634240671" />
    <synapse sourceNeuronName = "0" targetNeuronName = "12" weight = "-0.15975533538594955" />
    <synapse sourceNeuronName = "0" targetNeuronName = "13" weight = "0.5025695476046785" />
    <synapse sourceNeuronName = "0" targetNeuronName = "14" weight = "0.3974018964199113" />
    <synapse sourceNeuronName = "0" targetNeuronName = "15" weight = "-0.5669408761923103" />
    <synapse sourceNeuronName = "0" targetNeuronName = "16" weight = "0.5554205931433698" />
    <synapse sourceNeuronName = "1" targetNeuronName = "9" weight = "-0.5221203053439809" />
    <synapse sourceNeuronName = "1" targetNeuronName = "10" weight = "-0.8258756828054985" />
    <synapse sourceNeuronName = "1" targetNeuronName = "11" weight = "-0.5386757412273921" />
    <synapse sourceNeuronName = "1" targetNeuronName = "12" weight = "0.8691800863758059" />
    <synapse sourceNeuronName = "1" targetNeuronName = "13" weight = "0.8428969375868358" />
    <synapse sourceNeuronName = "1" targetNeuronName = "14" weight = "0.1395410514483959" />
    <synapse sourceNeuronName = "1" targetNeuronName = "15" weight = "-0.12422317579435793" />
    <synapse sourceNeuronName = "1" targetNeuronName = "16" weight = "0.5343595281592242" />
    <synapse sourceNeuronName = "2" targetNeuronName = "9" weight = "-0.23988775914088722" />
    <synapse sourceNeuronName = "2" targetNeuronName = "10" weight = "0.6693305813325507" />
    <synapse sourceNeuronName = "2" targetNeuronName = "11" weight = "-0.7623808007321622" />
    <synapse sourceNeuronName = "2" targetNeuronName = "12" weight = "-0.9169517965501814" />
    <synapse sourceNeuronName = "2" targetNeuronName = "13" weight = "0.5295017621536517" />
    <synapse sourceNeuronName = "2" targetNeuronName = "14" weight = "-0.2536667140458144" />
    <synapse sourceNeuronName = "2" targetNeuronName = "15" weight = "0.8174488678008116" />
    <synapse sourceNeuronName = "2" targetNeuronName = "16" weight = "-0.054718603042639424" />
    <synapse sourceNeuronName = "3" targetNeuronName = "9" weight = "0.036971722156343034" />
    <synapse sourceNeuronName = "3" targetNeuronName = "10" weight = "0.9609559438504536" />
    <synapse sourceNeuronName = "3" targetNeuronName = "11" weight = "-0.06311212460945326" />
    <synapse sourceNeuronName = "3" targetNeuronName = "12" weight = "0.7414771239616433" />
    <synapse sourceNeuronName = "3" targetNeuronName = "13" weight = "0.3383335173287372" />
    <synapse sourceNeuronName = "3" targetNeuronName = "14" weight = "-0.289659654334536" />
    <synapse sourceNeuronName = "3" targetNeuronName = "15" weight = "-0.7278107248172414" />
    <synapse sourceNeuronName = "3" targetNeuronName = "16" weight = "0.5014649739081511" />
    <synapse sourceNeuronName = "4" targetNeuronName = "9" weight = "0.7079479566501845" />
    <synapse sourceNeuronName = "4" targetNeuronName = "10" weight = "-0.9024340002579667" />
    <synapse sourceNeuronName = "4" targetNeuronName = "11" weight = "0.043084228734080465" />
    <synapse sourceNeuronName = "4" targetNeuronName = "12" weight = "-0.48264260797011027" />
    <synapse sourceNeuronName = "4" targetNeuronName = "13" weight = "-0.10106567720570747" />
    <synapse sourceNeuronName = "4" targetNeuronName = "14" weight = "0.947329376967494" />
    <synapse sourceNeuronName = "4" targetNeuronName = "15" weight = "-0.4457763063386855" />
    <synapse sourceNeuronName = "4" targetNeuronName = "16" weight = "-0.30938478482167464" />
    <synapse sourceNeuronName = "5" targetNeuronName = "9" weight = "-0.5930264341808906" />
    <synapse sourceNeuronName = "5" targetNeuronName = "10" weight = "-0.6594025142478235" />
    <synapse sourceNeuronName = "5" targetNeuronName = "11" weight = "-0.21215087928803644" />
    <synapse sourceNeuronName = "5" targetNeuronName = "12" weight = "0.3503193720505906" />
    <synapse sourceNeuronName = "5" targetNeuronName = "13" weight = "0.3597285275228397" />
    <synapse sourceNeuronName = "5" targetNeuronName = "14" weight = "-0.8220040166603295" />
    <synapse sourceNeuronName = "5" targetNeuronName = "15" weight = "-0.9318129387400433" />
    <synapse sourceNeuronName = "5" targetNeuronName = "16" weight = "-0.7201432701531776" />
    <synapse sourceNeuronName = "6" targetNeuronName = "9" weight = "-0.4851371404724165" />
    <synapse sourceNeuronName = "6" targetNeuronName = "10" weight = "0.3720758711458563" />
    <synapse sourceNeuronName = "6" targetNeuronName = "11" weight = "0.8734363648226151" />
    <synapse sourceNeuronName = "6" targetNeuronName = "12" weight = "-0.21486522064624847" />
    <synapse sourceNeuronName = "6" targetNeuronName = "13" weight = "0.39252445261557356" />
    <synapse sourceNeuronName = "6" targetNeuronName = "14" weight = "-0.6947711717783942" />
    <synapse sourceNeuronName = "6" targetNeuronName = "15" weight = "0.6339170591364418" />
    <synapse sourceNeuronName = "6" targetNeuronName = "16" weight = "0.8595096510490745" />
    <synapse sourceNeuronName = "7" targetNeuronName = "9" weight = "-0.7495041023002955" />
    <synapse sourceNeuronName = "7" targetNeuronName = "10" weight = "0.15198223772734254" />
    <synapse sourceNeuronName = "7" targetNeuronName = "11" weight = "-0.4436443664200269" />
    <synapse sourceNeuronName = "7" targetNeuronName = "12" weight = "-0.03966181952027714" />
    <synapse sourceNeuronName = "7" targetNeuronName = "13" weight = "0.9639353529993824" />
    <synapse sourceNeuronName = "7" targetNeuronName = "14" weight = "-0.7782809185508792" />
    <synapse sourceNeuronName = "7" targetNeuronName = "15" weight = "-0.909190705444453" />
    <synapse sourceNeuronName = "7" targetNeuronName = "16" weight = "0.367360245686009" />
    <synapse sourceNeuronName = "8" targetNeuronName = "9" weight = "0.6657438897374104" />
    <synapse sourceNeuronName = "8" targetNeuronName = "10" weight = "-0.1747233424534136" />
    <synapse sourceNeuronName = "8" targetNeuronName = "11" weight = "0.6097547932870053" />
    <synapse sourceNeuronName = "8" targetNeuronName = "12" weight = "0.8115147692829201" />
    <synapse sourceNeuronName = "8" targetNeuronName = "13" weight = "-0.4139658394703891" />
    <synapse sourceNeuronName = "8" targetNeuronName = "14" weight = "0.5557661734926429" />
    <synapse sourceNeuronName = "8" targetNeuronName = "15" weight = "-0.8346609639246088" />
    <synapse sourceNeuronName = "8" targetNeuronName = "16" weight = "-0.7332861612019193" />
</neuralNetwork>