<neuralNetwork>
    <neuron name = "0" type = "sensor" linkName = "Torso" />
    <neuron name = "1" type = "sensor" linkName = "BackLeg" />
    <neuron name = "2" type = "sensor" linkName = "FrontLeg" />
    <neuron name = "3" type = "sensor" linkName = "LeftLeg" />
    <neuron name = "4" type = "sensor" linkName = "RightLeg" />
    <neuron name = "5" type = "sensor" linkName = "BackLowerLeg" />
    <neuron name = "6" type = "sensor" linkName = "FrontLowerLeg" />
    <neuron name = "7" type = "sensor" linkName = "LeftLowerLeg" />
    <neuron name = "8" type = "sensor" linkName = "RightLowerLeg" />
    <neuron name = "9" type = "motor"  jointName = "Torso_BackLeg" />
    <neuron name = "10" type = "motor"  jointName = "Torso_FrontLeg" />
    <neuron name = "11" type = "motor"  jointName = "Torso_LeftLeg" />
    <neuron name = "12" type = "motor"  jointName = "Torso_RightLeg" />
    <neuron name = "13" type = "motor"  jointName = "BackLeg_BackLowerLeg" />
    <neuron name = "14" type = "motor"  jointName = "FrontLeg_FrontLowerLeg" />
    <neuron name = "15" type = "motor"  jointName = "LeftLeg_LeftLowerLeg" />
    <neuron name = "16" type = "motor"  jointName = "RightLeg_RightLowerLeg" />
    <synapse sourceNeuronName = "0" targetNeuronName = "9" weight = "0.5376486834738348" />
    <synapse sourceNeuronName = "0" targetNeuronName = "10" weight = "0.8329687627626197" />
    <synapse sourceNeuronName = "0" targetNeuronName = "11" weight = "-0.41216807729062777" />
    <synapse sourceNeuronName = "0" targetNeuronName = "12" weight = "0.39376661421084447" />
    <synapse sourceNeuronName = "0" targetNeuronName = "13" weight = "0.7716223961560829" />
    <synapse sourceNeuronName = "0" targetNeuronName = "14" weight = "0.44682196909029126" />
    <synapse sourceNeuronName = "0" targetNeuronName = "15" weight = "-0.9581920769660084" />
    <synapse sourceNeuronName = "0" targetNeuronName = "16" weight = "0.42786339391671" />
    <synapse sourceNeuronName = "1" targetNeuronName = "9" weight = "0.36711871218724057" />
    <synapse sourceNeuronName = "1" targetNeuronName = "10" weight = "-0.6832297554576603" />
    <synapse sourceNeuronName = "1" targetNeuronName = "11" weight = "0.07811279817790528" />
    <synapse sourceNeuronName = "1" targetNeuronName = "12" weight = "0.7623785924720008" />
    <synapse sourceNeuronName = "1" targetNeuronName = "13" weight = "-0.11254911519875366" />
    <synapse sourceNeuronName = "1" targetNeuronName = "14" weight = "-0.8654741116313622" />
    <synapse sourceNeuronName = "1" targetNeuronName = "15" weight = "-0.7483144428137793" />
    <synapse sourceNeuronName = "1" targetNeuronName = "16" weight = "0.3418911450290183" />
    <synapse sourceNeuronName = "2" targetNeuronName = "9" weight = "0.6829846667359016" />
    <synapse sourceNeuronName = "2" targetNeuronName = "10" weight = "-0.13105349768990093" />
    <synapse sourceNeuronName = "2" targetNeuronName = "11" weight = "0.22785990266775324" />
    <synapse sourceNeuronName = "2" targetNeuronName = "12" weight = "0.07015563631328536" />
    <synapse sourceNeuronName = "2" targetNeuronName = "13" weight = "-0.6278115701202254" />
    <synapse sourceNeuronName = "2" targetNeuronName = "14" weight = "0.7401526095335056" />
    <synapse sourceNeuronName = "2" targetNeuronName = "15" weight = "0.08289984940588901" />
    <synapse sourceNeuronName = "2" targetNeuronName = "16" weight = "0.8162597971177559" />
    <synapse sourceNeuronName = "3" targetNeuronName = "9" weight = "0.9383648607122412" />
    <synapse sourceNeuronName = "3" targetNeuronName = "10" weight = "-0.4586296060330819" />
    <synapse sourceNeuronName = "3" targetNeuronName = "11" weight = "0.24645396249227303" />
    <synapse sourceNeuronName = "3" targetNeuronName = "12" weight = "-0.8696971027625098" />
    <synapse sourceNeuronName = "3" targetNeuronName = "13" weight = "0.3579260433246103" />
    <synapse sourceNeuronName = "3" targetNeuronName = "14" weight = "0.9058831526276574" />
    <synapse sourceNeuronName = "3" targetNeuronName = "15" weight = "0.5788060874127989" />
    <synapse sourceNeuronName = "3" targetNeuronName = "16" weight = "0.14779891408793722" />
    <synapse sourceNeuronName = "4" targetNeuronName = "9" weight = "-0.35368360396873144" />
    <synapse sourceNeuronName = "4" targetNeuronName = "10" weight = "-0.56928833491131" />
    <synapse sourceNeuronName = "4" targetNeuronName = "11" weight = "0.28267598935801597" />
    <synapse sourceNeuronName = "4" targetNeuronName = "12" weight = "0.8863056860739897" />
    <synapse sourceNeuronName = "4" targetNeuronName = "13" weight = "0.21313768598658167" />
    <synapse sourceNeuronName = "4" targetNeuronName = "14" weight = "-0.788103864528503" />
    <synapse sourceNeuronName = "4" targetNeuronName = "15" weight = "-0.5515120933125464" />
    <synapse sourceNeuronName = "4" targetNeuronName = "16" weight = "-0.27402815310303086" />
    <synapse sourceNeuronName = "5" targetNeuronName = "9" weight = "0.27930795217901694" />
    <synapse sourceNeuronName = "5" targetNeuronName = "10" weight = "0.5437204020116619" />
    <synapse sourceNeuronName = "5" targetNeuronName = "11" weight = "0.6907298278888694" />
    <synapse sourceNeuronName = "5" targetNeuronName = "12" weight = "0.18918471462498432" />
    <synapse sourceNeuronName = "5" targetNeuronName = "13" weight = "-0.24108946990948898" />
    <synapse sourceNeuronName = "5" targetNeuronName = "14" weight = "0.7003472861894682" />
    <synapse sourceNeuronName = "5" targetNeuronName = "15" weight = "-0.5242810905115927" />
    <synapse sourceNeuronName = "5" targetNeuronName = "16" weight = "-0.9544381655869834" />
    <synapse sourceNeuronName = "6" targetNeuronName = "9" weight = "0.3027240557798947" />
    <synapse sourceNeuronName = "6" targetNeuronName = "10" weight = "0.43137604960064513" />
    <synapse sourceNeuronName = "6" targetNeuronName = "11" weight = "-0.10012389595639526" />
    <synapse sourceNeuronName = "6" targetNeuronName = "12" weight = "-0.5627606987462299" />
    <synapse sourceNeuronName = "6" targetNeuronName = "13" weight = "0.9697778213749184" />
    <synapse sourceNeuronName = "6" targetNeuronName = "14" weight = "-0.7363460032951077" />
    <synapse sourceNeuronName = "6" targetNeuronName = "15" weight = "-0.43126013987375234" />
    <synapse sourceNeuronName = "6" targetNeuronName = "16" weight = "-0.12654537862089632" />
    <synapse sourceNeuronName = "7" targetNeuronName = "9" weight = "-0.27432908499483544" />
    <synapse sourceNeuronName = "7" targetNeuronName = "10" weight = "-0.7918000613136449" />
    <synapse sourceNeuronName = "7" targetNeuronName = "11" weight = "-0.17428901508354122" />
    <synapse sourceNeuronName = "7" targetNeuronName = "12" weight = "0.2302449509488227" />
    <synapse sourceNeuronName = "7" targetNeuronName = "13" weight = "0.7863103874538162" />
    <synapse sourceNeuronName = "7" targetNeuronName = "14" weight = "-0.5466971473401945" />
    <synapse sourceNeuronName = "7" targetNeuronName = "15" weight = "0.6363516470603385" />
    <synapse sourceNeuronName = "7" targetNeuronName = "16" weight = "0.2076131707157347" />
    <synapse sourceNeuronName = "8" targetNeuronName = "9" weight = "0.11957783647239917" />
    <synapse sourceNeuronName = "8" targetNeuronName = "10" weight = "0.7263005393548154" />
    <synapse sourceNeuronName = "8" targetNeuronName = "11" weight = "-0.7198256160096264" />
    <synapse sourceNeuronName = "8" targetNeuronName = "12" weight = "-0.9406968204401824" />
    <synapse sourceNeuronName = "8" targetNeuronName = "13" weight = "-0.33266572797514815" />
    <synapse sourceNeuronName = "8" targetNeuronName = "14" weight = "-0.8649673581111128" />
    <synapse sourceNeuronName = "8" targetNeuronName = "15" weight = "-0.5074182852972462" />
    <synapse sourceNeuronName = "8" targetNeuronName = "16" weight = "0.1625878235195033" />
</neuralNetwork>