<neuralNetwork>
    <neuron name = "0" type = "sensor" linkName = "Torso" />
    <neuron name = "1" type = "sensor" linkName = "BackLeg" />
    <neuron name = "2" type = "sensor" linkName = "FrontLeg" />
    <neuron name = "3" type = "sensor" linkName = "LeftLeg" />
    <neuron name = "4" type = "sensor" linkName = "RightLeg" />
    <neuron name = "5" type = "sensor" linkName = "BackLowerLeg" />
    <neuron name = "6" type = "sensor" linkName = "FrontLowerLeg" />
    <neuron name = "7" type = "sensor" linkName = "LeftLowerLeg" />
    <neuron name = "8" type = "sensor" linkName = "RightLowerLeg" />
    <neuron name = "9" type = "motor"  jointName = "Torso_BackLeg" />
    <neuron name = "10" type = "motor"  jointName = "Torso_FrontLeg" />
    <neuron name = "11" type = "motor"  jointName = "Torso_LeftLeg" />
    <neuron name = "12" type = "motor"  jointName = "Torso_RightLeg" />
    <neuron name = "13" type = "motor"  jointName = "BackLeg_BackLowerLeg" />
    <neuron name = "14" type = "motor"  jointName = "FrontLeg_FrontLowerLeg" />
    <neuron name = "15" type = "motor"  jointName = "LeftLeg_LeftLowerLeg" />
    <neuron name = "16" type = "motor"  jointName = "RightLeg_RightLowerLeg" />
    <synapse sourceNeuronName = "0" targetNeuronName = "9" weight = "-0.19468639930441634" />
    <synapse sourceNeuronName = "0" targetNeuronName = "10" weight = "0.12898855735777914" />
    <synapse sourceNeuronName = "0" targetNeuronName = "11" weight = "0.14925871616775033" />
    <synapse sourceNeuronName = "0" targetNeuronName = "12" weight = "0.3295343712790586" />
    <synapse sourceNeuronName = "0" targetNeuronName = "13" weight = "0.5683254071934409" />
    <synapse sourceNeuronName = "0" targetNeuronName = "14" weight = "0.20192351713517875" />
    <synapse sourceNeuronName = "0" targetNeuronName = "15" weight = "0.40136873633413317" />
    <synapse sourceNeuronName = "0" targetNeuronName = "16" weight = "0.44671776992835976" />
    <synapse sourceNeuronName = "1" targetNeuronName = "9" weight = "-0.7421440133616923" />
    <synapse sourceNeuronName = "1" targetNeuronName = "10" weight = "-0.04336859443177565" />
    <synapse sourceNeuronName = "1" targetNeuronName = "11" weight = "0.9118781070059425" />
    <synapse sourceNeuronName = "1" targetNeuronName = "12" weight = "-0.33352487098432504" />
    <synapse sourceNeuronName = "1" targetNeuronName = "13" weight = "0.09427376677500088" />
    <synapse sourceNeuronName = "1" targetNeuronName = "14" weight = "0.7008261979066139" />
    <synapse sourceNeuronName = "1" targetNeuronName = "15" weight = "-0.5888393779107759" />
    <synapse sourceNeuronName = "1" targetNeuronName = "16" weight = "0.6633945919323145" />
    <synapse sourceNeuronName = "2" targetNeuronName = "9" weight = "0.36634269777519246" />
    <synapse sourceNeuronName = "2" targetNeuronName = "10" weight = "0.14161840740772869" />
    <synapse sourceNeuronName = "2" targetNeuronName = "11" weight = "0.1734932854000173" />
    <synapse sourceNeuronName = "2" targetNeuronName = "12" weight = "-0.06931846155052868" />
    <synapse sourceNeuronName = "2" targetNeuronName = "13" weight = "0.5910910430369691" />
    <synapse sourceNeuronName = "2" targetNeuronName = "14" weight = "-0.8911134739542661" />
    <synapse sourceNeuronName = "2" targetNeuronName = "15" weight = "-0.8321004869719251" />
    <synapse sourceNeuronName = "2" targetNeuronName = "16" weight = "0.9810496560701705" />
    <synapse sourceNeuronName = "3" targetNeuronName = "9" weight = "-0.15167260192923382" />
    <synapse sourceNeuronName = "3" targetNeuronName = "10" weight = "0.352706111469105" />
    <synapse sourceNeuronName = "3" targetNeuronName = "11" weight = "-0.021930808709393013" />
    <synapse sourceNeuronName = "3" targetNeuronName = "12" weight = "0.3348334986767978" />
    <synapse sourceNeuronName = "3" targetNeuronName = "13" weight = "-0.819613360622679" />
    <synapse sourceNeuronName = "3" targetNeuronName = "14" weight = "-0.3099759360337908" />
    <synapse sourceNeuronName = "3" targetNeuronName = "15" weight = "-0.19379875940070113" />
    <synapse sourceNeuronName = "3" targetNeuronName = "16" weight = "0.5938916866526374" />
    <synapse sourceNeuronName = "4" targetNeuronName = "9" weight = "0.567388450305258" />
    <synapse sourceNeuronName = "4" targetNeuronName = "10" weight = "0.09473437026226805" />
    <synapse sourceNeuronName = "4" targetNeuronName = "11" weight = "-0.8185071173105134" />
    <synapse sourceNeuronName = "4" targetNeuronName = "12" weight = "-0.9375835347947055" />
    <synapse sourceNeuronName = "4" targetNeuronName = "13" weight = "0.7662540662222206" />
    <synapse sourceNeuronName = "4" targetNeuronName = "14" weight = "-0.8769555896243046" />
    <synapse sourceNeuronName = "4" targetNeuronName = "15" weight = "-0.1169133146165433" />
    <synapse sourceNeuronName = "4" targetNeuronName = "16" weight = "-0.9169497429575444" />
    <synapse sourceNeuronName = "5" targetNeuronName = "9" weight = "0.6031098577476102" />
    <synapse sourceNeuronName = "5" targetNeuronName = "10" weight = "0.8097078224909326" />
    <synapse sourceNeuronName = "5" targetNeuronName = "11" weight = "-0.21346954465642098" />
    <synapse sourceNeuronName = "5" targetNeuronName = "12" weight = "-0.06891357117554908" />
    <synapse sourceNeuronName = "5" targetNeuronName = "13" weight = "0.14216613636671083" />
    <synapse sourceNeuronName = "5" targetNeuronName = "14" weight = "-0.3897865914390375" />
    <synapse sourceNeuronName = "5" targetNeuronName = "15" weight = "0.8966869494823457" />
    <synapse sourceNeuronName = "5" targetNeuronName = "16" weight = "0.4598683021437797" />
    <synapse sourceNeuronName = "6" targetNeuronName = "9" weight = "0.26341080016122476" />
    <synapse sourceNeuronName = "6" targetNeuronName = "10" weight = "0.41967141386759743" />
    <synapse sourceNeuronName = "6" targetNeuronName = "11" weight = "-0.6016340120181376" />
    <synapse sourceNeuronName = "6" targetNeuronName = "12" weight = "-0.2318908534652162" />
    <synapse sourceNeuronName = "6" targetNeuronName = "13" weight = "0.6790705658289289" />
    <synapse sourceNeuronName = "6" targetNeuronName = "14" weight = "-0.6385045717322406" />
    <synapse sourceNeuronName = "6" targetNeuronName = "15" weight = "0.15553236271947024" />
    <synapse sourceNeuronName = "6" targetNeuronName = "16" weight = "-0.1718266998931226" />
    <synapse sourceNeuronName = "7" targetNeuronName = "9" weight = "0.5348114486971987" />
    <synapse sourceNeuronName = "7" targetNeuronName = "10" weight = "0.1755742996025107" />
    <synapse sourceNeuronName = "7" targetNeuronName = "11" weight = "0.20546889736282004" />
    <synapse sourceNeuronName = "7" targetNeuronName = "12" weight = "0.6575707253938037" />
    <synapse sourceNeuronName = "7" targetNeuronName = "13" weight = "-0.13028481174247952" />
    <synapse sourceNeuronName = "7" targetNeuronName = "14" weight = "-0.9517885318682018" />
    <synapse sourceNeuronName = "7" targetNeuronName = "15" weight = "-0.3345589290188713" />
    <synapse sourceNeuronName = "7" targetNeuronName = "16" weight = "-0.38395513450284646" />
    <synapse sourceNeuronName = "8" targetNeuronName = "9" weight = "-0.23812509512942603" />
    <synapse sourceNeuronName = "8" targetNeuronName = "10" weight = "-0.5929026464575944" />
    <synapse sourceNeuronName = "8" targetNeuronName = "11" weight = "0.027569907330603494" />
    <synapse sourceNeuronName = "8" targetNeuronName = "12" weight = "-0.7966872003828884" />
    <synapse sourceNeuronName = "8" targetNeuronName = "13" weight = "0.4330500708832665" />
    <synapse sourceNeuronName = "8" targetNeuronName = "14" weight = "0.46046064680823084" />
    <synapse sourceNeuronName = "8" targetNeuronName = "15" weight = "0.9450751563506137" />
    <synapse sourceNeuronName = "8" targetNeuronName = "16" weight = "0.059578659849740534" />
</neuralNetwork>