<neuralNetwork>
    <neuron name = "0" type = "sensor" linkName = "Torso" />
    <neuron name = "1" type = "sensor" linkName = "BackLeg" />
    <neuron name = "2" type = "sensor" linkName = "FrontLeg" />
    <neuron name = "3" type = "sensor" linkName = "LeftLeg" />
    <neuron name = "4" type = "sensor" linkName = "RightLeg" />
    <neuron name = "5" type = "sensor" linkName = "BackLowerLeg" />
    <neuron name = "6" type = "sensor" linkName = "FrontLowerLeg" />
    <neuron name = "7" type = "sensor" linkName = "LeftLowerLeg" />
    <neuron name = "8" type = "sensor" linkName = "RightLowerLeg" />
    <neuron name = "9" type = "motor"  jointName = "Torso_BackLeg" />
    <neuron name = "10" type = "motor"  jointName = "Torso_FrontLeg" />
    <neuron name = "11" type = "motor"  jointName = "Torso_LeftLeg" />
    <neuron name = "12" type = "motor"  jointName = "Torso_RightLeg" />
    <neuron name = "13" type = "motor"  jointName = "BackLeg_BackLowerLeg" />
    <neuron name = "14" type = "motor"  jointName = "FrontLeg_FrontLowerLeg" />
    <neuron name = "15" type = "motor"  jointName = "LeftLeg_LeftLowerLeg" />
    <neuron name = "16" type = "motor"  jointName = "RightLeg_RightLowerLeg" />
    <synapse sourceNeuronName = "0" targetNeuronName = "9" weight = "0.7501801642563499" />
    <synapse sourceNeuronName = "0" targetNeuronName = "10" weight = "0.17550074156267548" />
    <synapse sourceNeuronName = "0" targetNeuronName = "11" weight = "-0.6850507396202019" />
    <synapse sourceNeuronName = "0" targetNeuronName = "12" weight = "0.8747711957662201" />
    <synapse sourceNeuronName = "0" targetNeuronName = "13" weight = "0.08722801016866066" />
    <synapse sourceNeuronName = "0" targetNeuronName = "14" weight = "-0.07377869326572628" />
    <synapse sourceNeuronName = "0" targetNeuronName = "15" weight = "0.9857446213324972" />
    <synapse sourceNeuronName = "0" targetNeuronName = "16" weight = "0.2941561501390695" />
    <synapse sourceNeuronName = "1" targetNeuronName = "9" weight = "-0.2617658786021766" />
    <synapse sourceNeuronName = "1" targetNeuronName = "10" weight = "0.48375160833885467" />
    <synapse sourceNeuronName = "1" targetNeuronName = "11" weight = "0.9627610012555976" />
    <synapse sourceNeuronName = "1" targetNeuronName = "12" weight = "0.5560056556938697" />
    <synapse sourceNeuronName = "1" targetNeuronName = "13" weight = "0.035229312271565894" />
    <synapse sourceNeuronName = "1" targetNeuronName = "14" weight = "-0.5559193209289426" />
    <synapse sourceNeuronName = "1" targetNeuronName = "15" weight = "-0.11866861050853261" />
    <synapse sourceNeuronName = "1" targetNeuronName = "16" weight = "0.9470203177027721" />
    <synapse sourceNeuronName = "2" targetNeuronName = "9" weight = "0.36028938966374957" />
    <synapse sourceNeuronName = "2" targetNeuronName = "10" weight = "0.8215693445166461" />
    <synapse sourceNeuronName = "2" targetNeuronName = "11" weight = "0.3280634093779915" />
    <synapse sourceNeuronName = "2" targetNeuronName = "12" weight = "-0.13760962973034863" />
    <synapse sourceNeuronName = "2" targetNeuronName = "13" weight = "-0.14372107932801303" />
    <synapse sourceNeuronName = "2" targetNeuronName = "14" weight = "-0.8425447734576645" />
    <synapse sourceNeuronName = "2" targetNeuronName = "15" weight = "-0.8655542207735272" />
    <synapse sourceNeuronName = "2" targetNeuronName = "16" weight = "-0.051595813839559135" />
    <synapse sourceNeuronName = "3" targetNeuronName = "9" weight = "-0.8489167383736229" />
    <synapse sourceNeuronName = "3" targetNeuronName = "10" weight = "-0.8171297806916509" />
    <synapse sourceNeuronName = "3" targetNeuronName = "11" weight = "-0.41915273389065355" />
    <synapse sourceNeuronName = "3" targetNeuronName = "12" weight = "-0.6335036239088825" />
    <synapse sourceNeuronName = "3" targetNeuronName = "13" weight = "0.7052273086562915" />
    <synapse sourceNeuronName = "3" targetNeuronName = "14" weight = "-0.5317783478015339" />
    <synapse sourceNeuronName = "3" targetNeuronName = "15" weight = "0.34034274284174026" />
    <synapse sourceNeuronName = "3" targetNeuronName = "16" weight = "0.4683206286447914" />
    <synapse sourceNeuronName = "4" targetNeuronName = "9" weight = "0.3528586476327593" />
    <synapse sourceNeuronName = "4" targetNeuronName = "10" weight = "0.1654265343754444" />
    <synapse sourceNeuronName = "4" targetNeuronName = "11" weight = "0.6753311671005875" />
    <synapse sourceNeuronName = "4" targetNeuronName = "12" weight = "-0.8864139147161059" />
    <synapse sourceNeuronName = "4" targetNeuronName = "13" weight = "-0.7572441569926265" />
    <synapse sourceNeuronName = "4" targetNeuronName = "14" weight = "-0.1193999947336375" />
    <synapse sourceNeuronName = "4" targetNeuronName = "15" weight = "0.6297330667575578" />
    <synapse sourceNeuronName = "4" targetNeuronName = "16" weight = "0.088617782642606" />
    <synapse sourceNeuronName = "5" targetNeuronName = "9" weight = "0.5126222432273362" />
    <synapse sourceNeuronName = "5" targetNeuronName = "10" weight = "0.37519547951081744" />
    <synapse sourceNeuronName = "5" targetNeuronName = "11" weight = "0.21294353922151354" />
    <synapse sourceNeuronName = "5" targetNeuronName = "12" weight = "-0.8880169720894624" />
    <synapse sourceNeuronName = "5" targetNeuronName = "13" weight = "0.1261953366296742" />
    <synapse sourceNeuronName = "5" targetNeuronName = "14" weight = "0.9567115409840046" />
    <synapse sourceNeuronName = "5" targetNeuronName = "15" weight = "-0.05391812976017207" />
    <synapse sourceNeuronName = "5" targetNeuronName = "16" weight = "-0.24115284429215733" />
    <synapse sourceNeuronName = "6" targetNeuronName = "9" weight = "0.09331531535199655" />
    <synapse sourceNeuronName = "6" targetNeuronName = "10" weight = "-0.4136651555409325" />
    <synapse sourceNeuronName = "6" targetNeuronName = "11" weight = "0.3044900524729084" />
    <synapse sourceNeuronName = "6" targetNeuronName = "12" weight = "-0.16065216549070316" />
    <synapse sourceNeuronName = "6" targetNeuronName = "13" weight = "-0.8926110575587389" />
    <synapse sourceNeuronName = "6" targetNeuronName = "14" weight = "0.2609874295283001" />
    <synapse sourceNeuronName = "6" targetNeuronName = "15" weight = "0.4720236174272485" />
    <synapse sourceNeuronName = "6" targetNeuronName = "16" weight = "0.5927820517622957" />
    <synapse sourceNeuronName = "7" targetNeuronName = "9" weight = "-0.16284255315649077" />
    <synapse sourceNeuronName = "7" targetNeuronName = "10" weight = "0.8721657953118784" />
    <synapse sourceNeuronName = "7" targetNeuronName = "11" weight = "-0.34619925457569023" />
    <synapse sourceNeuronName = "7" targetNeuronName = "12" weight = "-0.8113748224679778" />
    <synapse sourceNeuronName = "7" targetNeuronName = "13" weight = "0.43836755593083265" />
    <synapse sourceNeuronName = "7" targetNeuronName = "14" weight = "0.5256597259894316" />
    <synapse sourceNeuronName = "7" targetNeuronName = "15" weight = "-0.49847011927129703" />
    <synapse sourceNeuronName = "7" targetNeuronName = "16" weight = "0.2791070602238632" />
    <synapse sourceNeuronName = "8" targetNeuronName = "9" weight = "-0.524401304759506" />
    <synapse sourceNeuronName = "8" targetNeuronName = "10" weight = "0.8795160646887394" />
    <synapse sourceNeuronName = "8" targetNeuronName = "11" weight = "0.5579765685350053" />
    <synapse sourceNeuronName = "8" targetNeuronName = "12" weight = "0.16653426279222328" />
    <synapse sourceNeuronName = "8" targetNeuronName = "13" weight = "0.9393947776881646" />
    <synapse sourceNeuronName = "8" targetNeuronName = "14" weight = "-0.42607083364249543" />
    <synapse sourceNeuronName = "8" targetNeuronName = "15" weight = "-0.2919098601087431" />
    <synapse sourceNeuronName = "8" targetNeuronName = "16" weight = "-0.8391263339411479" />
</neuralNetwork>