<neuralNetwork>
    <neuron name = "0" type = "sensor" linkName = "Torso" />
    <neuron name = "1" type = "sensor" linkName = "BackLeg" />
    <neuron name = "2" type = "sensor" linkName = "FrontLeg" />
    <neuron name = "3" type = "sensor" linkName = "LeftLeg" />
    <neuron name = "4" type = "sensor" linkName = "RightLeg" />
    <neuron name = "5" type = "sensor" linkName = "BackLowerLeg" />
    <neuron name = "6" type = "sensor" linkName = "FrontLowerLeg" />
    <neuron name = "7" type = "sensor" linkName = "LeftLowerLeg" />
    <neuron name = "8" type = "sensor" linkName = "RightLowerLeg" />
    <neuron name = "9" type = "motor"  jointName = "Torso_BackLeg" />
    <neuron name = "10" type = "motor"  jointName = "Torso_FrontLeg" />
    <neuron name = "11" type = "motor"  jointName = "Torso_LeftLeg" />
    <neuron name = "12" type = "motor"  jointName = "Torso_RightLeg" />
    <neuron name = "13" type = "motor"  jointName = "BackLeg_BackLowerLeg" />
    <neuron name = "14" type = "motor"  jointName = "FrontLeg_FrontLowerLeg" />
    <neuron name = "15" type = "motor"  jointName = "LeftLeg_LeftLowerLeg" />
    <neuron name = "16" type = "motor"  jointName = "RightLeg_RightLowerLeg" />
    <synapse sourceNeuronName = "0" targetNeuronName = "9" weight = "0.9265883105471031" />
    <synapse sourceNeuronName = "0" targetNeuronName = "10" weight = "0.2920755547311096" />
    <synapse sourceNeuronName = "0" targetNeuronName = "11" weight = "-0.24441891689741646" />
    <synapse sourceNeuronName = "0" targetNeuronName = "12" weight = "0.9089128088309115" />
    <synapse sourceNeuronName = "0" targetNeuronName = "13" weight = "0.7109667361037366" />
    <synapse sourceNeuronName = "0" targetNeuronName = "14" weight = "-0.001710369572810455" />
    <synapse sourceNeuronName = "0" targetNeuronName = "15" weight = "0.10979835769199209" />
    <synapse sourceNeuronName = "0" targetNeuronName = "16" weight = "0.4556568641763412" />
    <synapse sourceNeuronName = "1" targetNeuronName = "9" weight = "0.13525800225078943" />
    <synapse sourceNeuronName = "1" targetNeuronName = "10" weight = "-0.46143674826175496" />
    <synapse sourceNeuronName = "1" targetNeuronName = "11" weight = "-0.796564318317436" />
    <synapse sourceNeuronName = "1" targetNeuronName = "12" weight = "0.9300909261307393" />
    <synapse sourceNeuronName = "1" targetNeuronName = "13" weight = "-0.21790514903510738" />
    <synapse sourceNeuronName = "1" targetNeuronName = "14" weight = "-0.1361006873258701" />
    <synapse sourceNeuronName = "1" targetNeuronName = "15" weight = "-0.8914316128844568" />
    <synapse sourceNeuronName = "1" targetNeuronName = "16" weight = "0.9298852485627627" />
    <synapse sourceNeuronName = "2" targetNeuronName = "9" weight = "0.8252426291528387" />
    <synapse sourceNeuronName = "2" targetNeuronName = "10" weight = "0.7510916768701941" />
    <synapse sourceNeuronName = "2" targetNeuronName = "11" weight = "-0.7450369496572538" />
    <synapse sourceNeuronName = "2" targetNeuronName = "12" weight = "0.8298637231418569" />
    <synapse sourceNeuronName = "2" targetNeuronName = "13" weight = "-0.6636225170227974" />
    <synapse sourceNeuronName = "2" targetNeuronName = "14" weight = "0.5007392516550608" />
    <synapse sourceNeuronName = "2" targetNeuronName = "15" weight = "0.4541287911297991" />
    <synapse sourceNeuronName = "2" targetNeuronName = "16" weight = "-0.6638938157210632" />
    <synapse sourceNeuronName = "3" targetNeuronName = "9" weight = "0.5267464271776587" />
    <synapse sourceNeuronName = "3" targetNeuronName = "10" weight = "0.015213845368977408" />
    <synapse sourceNeuronName = "3" targetNeuronName = "11" weight = "-0.1693548513583667" />
    <synapse sourceNeuronName = "3" targetNeuronName = "12" weight = "0.924327078384376" />
    <synapse sourceNeuronName = "3" targetNeuronName = "13" weight = "0.7985566796854227" />
    <synapse sourceNeuronName = "3" targetNeuronName = "14" weight = "0.11551539995402837" />
    <synapse sourceNeuronName = "3" targetNeuronName = "15" weight = "-0.6433924487885734" />
    <synapse sourceNeuronName = "3" targetNeuronName = "16" weight = "0.6161589956914917" />
    <synapse sourceNeuronName = "4" targetNeuronName = "9" weight = "-0.4466961727483041" />
    <synapse sourceNeuronName = "4" targetNeuronName = "10" weight = "-0.1930824114116787" />
    <synapse sourceNeuronName = "4" targetNeuronName = "11" weight = "-0.385504717207519" />
    <synapse sourceNeuronName = "4" targetNeuronName = "12" weight = "0.8078322931047941" />
    <synapse sourceNeuronName = "4" targetNeuronName = "13" weight = "0.8503205958059441" />
    <synapse sourceNeuronName = "4" targetNeuronName = "14" weight = "0.38142686941797344" />
    <synapse sourceNeuronName = "4" targetNeuronName = "15" weight = "-0.31507521863176335" />
    <synapse sourceNeuronName = "4" targetNeuronName = "16" weight = "-0.45139034897236807" />
    <synapse sourceNeuronName = "5" targetNeuronName = "9" weight = "-0.3957890900509915" />
    <synapse sourceNeuronName = "5" targetNeuronName = "10" weight = "0.18486954461388816" />
    <synapse sourceNeuronName = "5" targetNeuronName = "11" weight = "-0.01984862717321323" />
    <synapse sourceNeuronName = "5" targetNeuronName = "12" weight = "-0.972472072962125" />
    <synapse sourceNeuronName = "5" targetNeuronName = "13" weight = "0.4280854144790309" />
    <synapse sourceNeuronName = "5" targetNeuronName = "14" weight = "0.8036925382989211" />
    <synapse sourceNeuronName = "5" targetNeuronName = "15" weight = "0.5819515028738222" />
    <synapse sourceNeuronName = "5" targetNeuronName = "16" weight = "-0.971067480342918" />
    <synapse sourceNeuronName = "6" targetNeuronName = "9" weight = "0.3316290359508689" />
    <synapse sourceNeuronName = "6" targetNeuronName = "10" weight = "0.42007429318020506" />
    <synapse sourceNeuronName = "6" targetNeuronName = "11" weight = "-0.13830396640364873" />
    <synapse sourceNeuronName = "6" targetNeuronName = "12" weight = "0.37381318357164894" />
    <synapse sourceNeuronName = "6" targetNeuronName = "13" weight = "-0.392047535057112" />
    <synapse sourceNeuronName = "6" targetNeuronName = "14" weight = "0.3284696411244177" />
    <synapse sourceNeuronName = "6" targetNeuronName = "15" weight = "0.6999489715768983" />
    <synapse sourceNeuronName = "6" targetNeuronName = "16" weight = "-0.5326286963206668" />
    <synapse sourceNeuronName = "7" targetNeuronName = "9" weight = "-0.4350745729149177" />
    <synapse sourceNeuronName = "7" targetNeuronName = "10" weight = "-0.7643670749479496" />
    <synapse sourceNeuronName = "7" targetNeuronName = "11" weight = "-0.8888011187527438" />
    <synapse sourceNeuronName = "7" targetNeuronName = "12" weight = "-0.7149012489027513" />
    <synapse sourceNeuronName = "7" targetNeuronName = "13" weight = "-0.829834063446653" />
    <synapse sourceNeuronName = "7" targetNeuronName = "14" weight = "-0.8156326856226632" />
    <synapse sourceNeuronName = "7" targetNeuronName = "15" weight = "0.07572767601781694" />
    <synapse sourceNeuronName = "7" targetNeuronName = "16" weight = "0.5532679990288223" />
    <synapse sourceNeuronName = "8" targetNeuronName = "9" weight = "0.39672940034574933" />
    <synapse sourceNeuronName = "8" targetNeuronName = "10" weight = "0.9621665513441233" />
    <synapse sourceNeuronName = "8" targetNeuronName = "11" weight = "0.43599352777419353" />
    <synapse sourceNeuronName = "8" targetNeuronName = "12" weight = "0.5613018273476895" />
    <synapse sourceNeuronName = "8" targetNeuronName = "13" weight = "0.3299006066151631" />
    <synapse sourceNeuronName = "8" targetNeuronName = "14" weight = "0.915105903247277" />
    <synapse sourceNeuronName = "8" targetNeuronName = "15" weight = "-0.27076989566165444" />
    <synapse sourceNeuronName = "8" targetNeuronName = "16" weight = "0.29630710756247813" />
</neuralNetwork>