<neuralNetwork>
    <neuron name = "0" type = "sensor" linkName = "Torso" />
    <neuron name = "1" type = "sensor" linkName = "BackLeg" />
    <neuron name = "2" type = "sensor" linkName = "FrontLeg" />
    <neuron name = "3" type = "sensor" linkName = "LeftLeg" />
    <neuron name = "4" type = "sensor" linkName = "RightLeg" />
    <neuron name = "5" type = "sensor" linkName = "BackLowerLeg" />
    <neuron name = "6" type = "sensor" linkName = "FrontLowerLeg" />
    <neuron name = "7" type = "sensor" linkName = "LeftLowerLeg" />
    <neuron name = "8" type = "sensor" linkName = "RightLowerLeg" />
    <neuron name = "9" type = "motor"  jointName = "Torso_BackLeg" />
    <neuron name = "10" type = "motor"  jointName = "Torso_FrontLeg" />
    <neuron name = "11" type = "motor"  jointName = "Torso_LeftLeg" />
    <neuron name = "12" type = "motor"  jointName = "Torso_RightLeg" />
    <neuron name = "13" type = "motor"  jointName = "BackLeg_BackLowerLeg" />
    <neuron name = "14" type = "motor"  jointName = "FrontLeg_FrontLowerLeg" />
    <neuron name = "15" type = "motor"  jointName = "LeftLeg_LeftLowerLeg" />
    <neuron name = "16" type = "motor"  jointName = "RightLeg_RightLowerLeg" />
    <synapse sourceNeuronName = "0" targetNeuronName = "9" weight = "0.5464123749113683" />
    <synapse sourceNeuronName = "0" targetNeuronName = "10" weight = "0.5462477237569594" />
    <synapse sourceNeuronName = "0" targetNeuronName = "11" weight = "-0.9361604030595962" />
    <synapse sourceNeuronName = "0" targetNeuronName = "12" weight = "0.3772919970360198" />
    <synapse sourceNeuronName = "0" targetNeuronName = "13" weight = "0.31702659135166344" />
    <synapse sourceNeuronName = "0" targetNeuronName = "14" weight = "0.4559535297457764" />
    <synapse sourceNeuronName = "0" targetNeuronName = "15" weight = "-0.8920420020555206" />
    <synapse sourceNeuronName = "0" targetNeuronName = "16" weight = "0.09666198887313904" />
    <synapse sourceNeuronName = "1" targetNeuronName = "9" weight = "0.07290928006941666" />
    <synapse sourceNeuronName = "1" targetNeuronName = "10" weight = "0.4420751005403414" />
    <synapse sourceNeuronName = "1" targetNeuronName = "11" weight = "-0.9985396852211881" />
    <synapse sourceNeuronName = "1" targetNeuronName = "12" weight = "0.9389153646603883" />
    <synapse sourceNeuronName = "1" targetNeuronName = "13" weight = "0.5243544494296686" />
    <synapse sourceNeuronName = "1" targetNeuronName = "14" weight = "0.7812188164572065" />
    <synapse sourceNeuronName = "1" targetNeuronName = "15" weight = "-0.6426115958411076" />
    <synapse sourceNeuronName = "1" targetNeuronName = "16" weight = "-0.14462877897640802" />
    <synapse sourceNeuronName = "2" targetNeuronName = "9" weight = "-0.456024071738512" />
    <synapse sourceNeuronName = "2" targetNeuronName = "10" weight = "-0.8721505844138482" />
    <synapse sourceNeuronName = "2" targetNeuronName = "11" weight = "0.9985770109847789" />
    <synapse sourceNeuronName = "2" targetNeuronName = "12" weight = "0.32814970319522896" />
    <synapse sourceNeuronName = "2" targetNeuronName = "13" weight = "0.8634027358576393" />
    <synapse sourceNeuronName = "2" targetNeuronName = "14" weight = "0.8246829745546105" />
    <synapse sourceNeuronName = "2" targetNeuronName = "15" weight = "-0.5021475724707931" />
    <synapse sourceNeuronName = "2" targetNeuronName = "16" weight = "0.002664251537217277" />
    <synapse sourceNeuronName = "3" targetNeuronName = "9" weight = "-0.6991815116148135" />
    <synapse sourceNeuronName = "3" targetNeuronName = "10" weight = "-0.11874734419308797" />
    <synapse sourceNeuronName = "3" targetNeuronName = "11" weight = "0.40902057733710984" />
    <synapse sourceNeuronName = "3" targetNeuronName = "12" weight = "0.6544515577980332" />
    <synapse sourceNeuronName = "3" targetNeuronName = "13" weight = "-0.8345418477514808" />
    <synapse sourceNeuronName = "3" targetNeuronName = "14" weight = "0.4279088617509772" />
    <synapse sourceNeuronName = "3" targetNeuronName = "15" weight = "0.18244295984729697" />
    <synapse sourceNeuronName = "3" targetNeuronName = "16" weight = "-0.6386585878080275" />
    <synapse sourceNeuronName = "4" targetNeuronName = "9" weight = "-0.5421366444021865" />
    <synapse sourceNeuronName = "4" targetNeuronName = "10" weight = "0.7237334914301945" />
    <synapse sourceNeuronName = "4" targetNeuronName = "11" weight = "0.19488456070177662" />
    <synapse sourceNeuronName = "4" targetNeuronName = "12" weight = "0.6924642870756665" />
    <synapse sourceNeuronName = "4" targetNeuronName = "13" weight = "-0.38134228614427523" />
    <synapse sourceNeuronName = "4" targetNeuronName = "14" weight = "-0.11031785796442506" />
    <synapse sourceNeuronName = "4" targetNeuronName = "15" weight = "0.957127960939282" />
    <synapse sourceNeuronName = "4" targetNeuronName = "16" weight = "0.9641727363460029" />
    <synapse sourceNeuronName = "5" targetNeuronName = "9" weight = "-0.45596259361190605" />
    <synapse sourceNeuronName = "5" targetNeuronName = "10" weight = "0.8778851759274489" />
    <synapse sourceNeuronName = "5" targetNeuronName = "11" weight = "-0.40203433201068295" />
    <synapse sourceNeuronName = "5" targetNeuronName = "12" weight = "0.9407041362670834" />
    <synapse sourceNeuronName = "5" targetNeuronName = "13" weight = "-0.8999290957718384" />
    <synapse sourceNeuronName = "5" targetNeuronName = "14" weight = "-0.8614687558607439" />
    <synapse sourceNeuronName = "5" targetNeuronName = "15" weight = "0.8822579364169625" />
    <synapse sourceNeuronName = "5" targetNeuronName = "16" weight = "-0.5922014869063859" />
    <synapse sourceNeuronName = "6" targetNeuronName = "9" weight = "-0.7739794795491908" />
    <synapse sourceNeuronName = "6" targetNeuronName = "10" weight = "-0.061124089630140155" />
    <synapse sourceNeuronName = "6" targetNeuronName = "11" weight = "0.7403557762754609" />
    <synapse sourceNeuronName = "6" targetNeuronName = "12" weight = "-0.7638540471061346" />
    <synapse sourceNeuronName = "6" targetNeuronName = "13" weight = "-0.5921804884052835" />
    <synapse sourceNeuronName = "6" targetNeuronName = "14" weight = "-0.0845319323074818" />
    <synapse sourceNeuronName = "6" targetNeuronName = "15" weight = "0.5296064665292708" />
    <synapse sourceNeuronName = "6" targetNeuronName = "16" weight = "-0.9633121221704175" />
    <synapse sourceNeuronName = "7" targetNeuronName = "9" weight = "-0.16464663821955638" />
    <synapse sourceNeuronName = "7" targetNeuronName = "10" weight = "-0.6332883911805898" />
    <synapse sourceNeuronName = "7" targetNeuronName = "11" weight = "0.7869914969718435" />
    <synapse sourceNeuronName = "7" targetNeuronName = "12" weight = "0.3253865266229612" />
    <synapse sourceNeuronName = "7" targetNeuronName = "13" weight = "0.58102714126375" />
    <synapse sourceNeuronName = "7" targetNeuronName = "14" weight = "-0.2429962685766769" />
    <synapse sourceNeuronName = "7" targetNeuronName = "15" weight = "0.6442978055228599" />
    <synapse sourceNeuronName = "7" targetNeuronName = "16" weight = "0.24553523083309803" />
    <synapse sourceNeuronName = "8" targetNeuronName = "9" weight = "-0.9222898222074762" />
    <synapse sourceNeuronName = "8" targetNeuronName = "10" weight = "0.9508747661563888" />
    <synapse sourceNeuronName = "8" targetNeuronName = "11" weight = "-0.90964312363465" />
    <synapse sourceNeuronName = "8" targetNeuronName = "12" weight = "0.5035984631491783" />
    <synapse sourceNeuronName = "8" targetNeuronName = "13" weight = "0.3341788638385734" />
    <synapse sourceNeuronName = "8" targetNeuronName = "14" weight = "0.13074159668599838" />
    <synapse sourceNeuronName = "8" targetNeuronName = "15" weight = "-0.4386773354896145" />
    <synapse sourceNeuronName = "8" targetNeuronName = "16" weight = "-0.23163251991560352" />
</neuralNetwork>