<neuralNetwork>
    <neuron name = "0" type = "sensor" linkName = "Torso" />
    <neuron name = "1" type = "sensor" linkName = "BackLeg" />
    <neuron name = "2" type = "sensor" linkName = "FrontLeg" />
    <neuron name = "3" type = "sensor" linkName = "LeftLeg" />
    <neuron name = "4" type = "sensor" linkName = "RightLeg" />
    <neuron name = "5" type = "sensor" linkName = "BackLowerLeg" />
    <neuron name = "6" type = "sensor" linkName = "FrontLowerLeg" />
    <neuron name = "7" type = "sensor" linkName = "LeftLowerLeg" />
    <neuron name = "8" type = "sensor" linkName = "RightLowerLeg" />
    <neuron name = "9" type = "motor"  jointName = "Torso_BackLeg" />
    <neuron name = "10" type = "motor"  jointName = "Torso_FrontLeg" />
    <neuron name = "11" type = "motor"  jointName = "Torso_LeftLeg" />
    <neuron name = "12" type = "motor"  jointName = "Torso_RightLeg" />
    <neuron name = "13" type = "motor"  jointName = "BackLeg_BackLowerLeg" />
    <neuron name = "14" type = "motor"  jointName = "FrontLeg_FrontLowerLeg" />
    <neuron name = "15" type = "motor"  jointName = "LeftLeg_LeftLowerLeg" />
    <neuron name = "16" type = "motor"  jointName = "RightLeg_RightLowerLeg" />
    <synapse sourceNeuronName = "0" targetNeuronName = "9" weight = "-0.03983187370192498" />
    <synapse sourceNeuronName = "0" targetNeuronName = "10" weight = "0.4638962705650391" />
    <synapse sourceNeuronName = "0" targetNeuronName = "11" weight = "-0.9984076041552039" />
    <synapse sourceNeuronName = "0" targetNeuronName = "12" weight = "-0.12008495109986117" />
    <synapse sourceNeuronName = "0" targetNeuronName = "13" weight = "-0.6838015278596086" />
    <synapse sourceNeuronName = "0" targetNeuronName = "14" weight = "0.9773587419485683" />
    <synapse sourceNeuronName = "0" targetNeuronName = "15" weight = "-0.6895071314934003" />
    <synapse sourceNeuronName = "0" targetNeuronName = "16" weight = "0.3345534295964545" />
    <synapse sourceNeuronName = "1" targetNeuronName = "9" weight = "-0.9709003371924079" />
    <synapse sourceNeuronName = "1" targetNeuronName = "10" weight = "-0.880037582814327" />
    <synapse sourceNeuronName = "1" targetNeuronName = "11" weight = "0.49633532549386006" />
    <synapse sourceNeuronName = "1" targetNeuronName = "12" weight = "-0.44483134976568905" />
    <synapse sourceNeuronName = "1" targetNeuronName = "13" weight = "-0.015919983361184054" />
    <synapse sourceNeuronName = "1" targetNeuronName = "14" weight = "-0.9279892701697494" />
    <synapse sourceNeuronName = "1" targetNeuronName = "15" weight = "0.7954250699703558" />
    <synapse sourceNeuronName = "1" targetNeuronName = "16" weight = "-0.007024189305721018" />
    <synapse sourceNeuronName = "2" targetNeuronName = "9" weight = "-0.19023514366857297" />
    <synapse sourceNeuronName = "2" targetNeuronName = "10" weight = "0.3256450667627544" />
    <synapse sourceNeuronName = "2" targetNeuronName = "11" weight = "-0.3918136955869844" />
    <synapse sourceNeuronName = "2" targetNeuronName = "12" weight = "0.8848887537867569" />
    <synapse sourceNeuronName = "2" targetNeuronName = "13" weight = "0.9206859554816709" />
    <synapse sourceNeuronName = "2" targetNeuronName = "14" weight = "-0.3173020293807749" />
    <synapse sourceNeuronName = "2" targetNeuronName = "15" weight = "-0.7980838141396038" />
    <synapse sourceNeuronName = "2" targetNeuronName = "16" weight = "0.7771669847241183" />
    <synapse sourceNeuronName = "3" targetNeuronName = "9" weight = "-0.1507401881640995" />
    <synapse sourceNeuronName = "3" targetNeuronName = "10" weight = "0.1543026835609409" />
    <synapse sourceNeuronName = "3" targetNeuronName = "11" weight = "0.9127022443594273" />
    <synapse sourceNeuronName = "3" targetNeuronName = "12" weight = "0.535186270963576" />
    <synapse sourceNeuronName = "3" targetNeuronName = "13" weight = "0.31851056407864475" />
    <synapse sourceNeuronName = "3" targetNeuronName = "14" weight = "0.39321487448453496" />
    <synapse sourceNeuronName = "3" targetNeuronName = "15" weight = "0.5168620057355306" />
    <synapse sourceNeuronName = "3" targetNeuronName = "16" weight = "-0.07828875456301887" />
    <synapse sourceNeuronName = "4" targetNeuronName = "9" weight = "0.060594055860447193" />
    <synapse sourceNeuronName = "4" targetNeuronName = "10" weight = "-0.6569483455660561" />
    <synapse sourceNeuronName = "4" targetNeuronName = "11" weight = "0.8622987597318055" />
    <synapse sourceNeuronName = "4" targetNeuronName = "12" weight = "-0.5229224160164063" />
    <synapse sourceNeuronName = "4" targetNeuronName = "13" weight = "0.8083649772442225" />
    <synapse sourceNeuronName = "4" targetNeuronName = "14" weight = "-0.07781645870072174" />
    <synapse sourceNeuronName = "4" targetNeuronName = "15" weight = "0.30184268042696694" />
    <synapse sourceNeuronName = "4" targetNeuronName = "16" weight = "-0.7772004940453396" />
    <synapse sourceNeuronName = "5" targetNeuronName = "9" weight = "-0.9415174479373278" />
    <synapse sourceNeuronName = "5" targetNeuronName = "10" weight = "-0.41806832879802514" />
    <synapse sourceNeuronName = "5" targetNeuronName = "11" weight = "-0.03890569598473803" />
    <synapse sourceNeuronName = "5" targetNeuronName = "12" weight = "-0.7089881714331281" />
    <synapse sourceNeuronName = "5" targetNeuronName = "13" weight = "-0.4371850509049011" />
    <synapse sourceNeuronName = "5" targetNeuronName = "14" weight = "-0.6178851926661775" />
    <synapse sourceNeuronName = "5" targetNeuronName = "15" weight = "-0.7566764446043275" />
    <synapse sourceNeuronName = "5" targetNeuronName = "16" weight = "0.20209252149476264" />
    <synapse sourceNeuronName = "6" targetNeuronName = "9" weight = "0.9523771872090523" />
    <synapse sourceNeuronName = "6" targetNeuronName = "10" weight = "-0.23946942126356974" />
    <synapse sourceNeuronName = "6" targetNeuronName = "11" weight = "-0.6729980245222948" />
    <synapse sourceNeuronName = "6" targetNeuronName = "12" weight = "0.747515503801528" />
    <synapse sourceNeuronName = "6" targetNeuronName = "13" weight = "-0.09116513792199687" />
    <synapse sourceNeuronName = "6" targetNeuronName = "14" weight = "-0.6737265014003351" />
    <synapse sourceNeuronName = "6" targetNeuronName = "15" weight = "0.2551208670809455" />
    <synapse sourceNeuronName = "6" targetNeuronName = "16" weight = "-0.7234512710619052" />
    <synapse sourceNeuronName = "7" targetNeuronName = "9" weight = "0.15263123968717585" />
    <synapse sourceNeuronName = "7" targetNeuronName = "10" weight = "-0.42084924806834123" />
    <synapse sourceNeuronName = "7" targetNeuronName = "11" weight = "0.16044196199802485" />
    <synapse sourceNeuronName = "7" targetNeuronName = "12" weight = "0.3305417190895512" />
    <synapse sourceNeuronName = "7" targetNeuronName = "13" weight = "0.6429208367716559" />
    <synapse sourceNeuronName = "7" targetNeuronName = "14" weight = "0.548767516024361" />
    <synapse sourceNeuronName = "7" targetNeuronName = "15" weight = "0.36337253432961814" />
    <synapse sourceNeuronName = "7" targetNeuronName = "16" weight = "0.0636120923328114" />
    <synapse sourceNeuronName = "8" targetNeuronName = "9" weight = "-0.676499747020392" />
    <synapse sourceNeuronName = "8" targetNeuronName = "10" weight = "0.9648249122479953" />
    <synapse sourceNeuronName = "8" targetNeuronName = "11" weight = "-0.6195393703889251" />
    <synapse sourceNeuronName = "8" targetNeuronName = "12" weight = "0.4499824963354131" />
    <synapse sourceNeuronName = "8" targetNeuronName = "13" weight = "-0.34153192687512557" />
    <synapse sourceNeuronName = "8" targetNeuronName = "14" weight = "-0.5196011091444142" />
    <synapse sourceNeuronName = "8" targetNeuronName = "15" weight = "-0.07038197443249761" />
    <synapse sourceNeuronName = "8" targetNeuronName = "16" weight = "-0.22889788528757515" />
</neuralNetwork>