<neuralNetwork>
    <neuron name = "0" type = "sensor" linkName = "Torso" />
    <neuron name = "1" type = "sensor" linkName = "BackLeg" />
    <neuron name = "2" type = "sensor" linkName = "FrontLeg" />
    <neuron name = "3" type = "sensor" linkName = "LeftLeg" />
    <neuron name = "4" type = "sensor" linkName = "RightLeg" />
    <neuron name = "5" type = "sensor" linkName = "BackLowerLeg" />
    <neuron name = "6" type = "sensor" linkName = "FrontLowerLeg" />
    <neuron name = "7" type = "sensor" linkName = "LeftLowerLeg" />
    <neuron name = "8" type = "sensor" linkName = "RightLowerLeg" />
    <neuron name = "9" type = "motor"  jointName = "Torso_BackLeg" />
    <neuron name = "10" type = "motor"  jointName = "Torso_FrontLeg" />
    <neuron name = "11" type = "motor"  jointName = "Torso_LeftLeg" />
    <neuron name = "12" type = "motor"  jointName = "Torso_RightLeg" />
    <neuron name = "13" type = "motor"  jointName = "BackLeg_BackLowerLeg" />
    <neuron name = "14" type = "motor"  jointName = "FrontLeg_FrontLowerLeg" />
    <neuron name = "15" type = "motor"  jointName = "LeftLeg_LeftLowerLeg" />
    <neuron name = "16" type = "motor"  jointName = "RightLeg_RightLowerLeg" />
    <synapse sourceNeuronName = "0" targetNeuronName = "9" weight = "0.29211032662309" />
    <synapse sourceNeuronName = "0" targetNeuronName = "10" weight = "0.12014865228338967" />
    <synapse sourceNeuronName = "0" targetNeuronName = "11" weight = "-0.7718320723053538" />
    <synapse sourceNeuronName = "0" targetNeuronName = "12" weight = "0.3118189017591506" />
    <synapse sourceNeuronName = "0" targetNeuronName = "13" weight = "0.02711642889420207" />
    <synapse sourceNeuronName = "0" targetNeuronName = "14" weight = "-0.944008726077344" />
    <synapse sourceNeuronName = "0" targetNeuronName = "15" weight = "0.6799169265256075" />
    <synapse sourceNeuronName = "0" targetNeuronName = "16" weight = "-0.4999472297111096" />
    <synapse sourceNeuronName = "1" targetNeuronName = "9" weight = "-0.8309296958491181" />
    <synapse sourceNeuronName = "1" targetNeuronName = "10" weight = "0.03283875724351759" />
    <synapse sourceNeuronName = "1" targetNeuronName = "11" weight = "-0.24072295207773164" />
    <synapse sourceNeuronName = "1" targetNeuronName = "12" weight = "0.1613031567741956" />
    <synapse sourceNeuronName = "1" targetNeuronName = "13" weight = "-0.25498757173216124" />
    <synapse sourceNeuronName = "1" targetNeuronName = "14" weight = "-0.9046134441549785" />
    <synapse sourceNeuronName = "1" targetNeuronName = "15" weight = "0.6570481007246132" />
    <synapse sourceNeuronName = "1" targetNeuronName = "16" weight = "-0.3049592559566803" />
    <synapse sourceNeuronName = "2" targetNeuronName = "9" weight = "-0.2406708803872799" />
    <synapse sourceNeuronName = "2" targetNeuronName = "10" weight = "-0.96846892893069" />
    <synapse sourceNeuronName = "2" targetNeuronName = "11" weight = "-0.722507532606693" />
    <synapse sourceNeuronName = "2" targetNeuronName = "12" weight = "0.1920639360701779" />
    <synapse sourceNeuronName = "2" targetNeuronName = "13" weight = "-0.31927345966232923" />
    <synapse sourceNeuronName = "2" targetNeuronName = "14" weight = "-0.6677631621317694" />
    <synapse sourceNeuronName = "2" targetNeuronName = "15" weight = "0.9477162553927643" />
    <synapse sourceNeuronName = "2" targetNeuronName = "16" weight = "-0.8046804042941471" />
    <synapse sourceNeuronName = "3" targetNeuronName = "9" weight = "0.8959057020457448" />
    <synapse sourceNeuronName = "3" targetNeuronName = "10" weight = "0.4077752858046453" />
    <synapse sourceNeuronName = "3" targetNeuronName = "11" weight = "0.27828123062995824" />
    <synapse sourceNeuronName = "3" targetNeuronName = "12" weight = "0.8691905280413259" />
    <synapse sourceNeuronName = "3" targetNeuronName = "13" weight = "0.6825322428750495" />
    <synapse sourceNeuronName = "3" targetNeuronName = "14" weight = "0.7019933562487117" />
    <synapse sourceNeuronName = "3" targetNeuronName = "15" weight = "-0.8294319558934988" />
    <synapse sourceNeuronName = "3" targetNeuronName = "16" weight = "0.035613663670986284" />
    <synapse sourceNeuronName = "4" targetNeuronName = "9" weight = "0.6021634410960484" />
    <synapse sourceNeuronName = "4" targetNeuronName = "10" weight = "0.6352485572034725" />
    <synapse sourceNeuronName = "4" targetNeuronName = "11" weight = "0.03094990321416069" />
    <synapse sourceNeuronName = "4" targetNeuronName = "12" weight = "0.5697418189643744" />
    <synapse sourceNeuronName = "4" targetNeuronName = "13" weight = "-0.2553703171188948" />
    <synapse sourceNeuronName = "4" targetNeuronName = "14" weight = "-0.6648683593153641" />
    <synapse sourceNeuronName = "4" targetNeuronName = "15" weight = "0.7326458017328592" />
    <synapse sourceNeuronName = "4" targetNeuronName = "16" weight = "-0.6912871251500732" />
    <synapse sourceNeuronName = "5" targetNeuronName = "9" weight = "0.769245989837946" />
    <synapse sourceNeuronName = "5" targetNeuronName = "10" weight = "-0.6720500253819344" />
    <synapse sourceNeuronName = "5" targetNeuronName = "11" weight = "-0.8302634071475536" />
    <synapse sourceNeuronName = "5" targetNeuronName = "12" weight = "-0.5644456505465687" />
    <synapse sourceNeuronName = "5" targetNeuronName = "13" weight = "-0.20832817840886952" />
    <synapse sourceNeuronName = "5" targetNeuronName = "14" weight = "-0.017269594318421788" />
    <synapse sourceNeuronName = "5" targetNeuronName = "15" weight = "0.3323460525990767" />
    <synapse sourceNeuronName = "5" targetNeuronName = "16" weight = "-0.3547135485466739" />
    <synapse sourceNeuronName = "6" targetNeuronName = "9" weight = "-0.256429865005412" />
    <synapse sourceNeuronName = "6" targetNeuronName = "10" weight = "0.5112887737783973" />
    <synapse sourceNeuronName = "6" targetNeuronName = "11" weight = "0.4867178489836421" />
    <synapse sourceNeuronName = "6" targetNeuronName = "12" weight = "0.30913277720436483" />
    <synapse sourceNeuronName = "6" targetNeuronName = "13" weight = "-0.1346204377811091" />
    <synapse sourceNeuronName = "6" targetNeuronName = "14" weight = "-0.48293487085994835" />
    <synapse sourceNeuronName = "6" targetNeuronName = "15" weight = "-0.7112065218544625" />
    <synapse sourceNeuronName = "6" targetNeuronName = "16" weight = "-0.9142208697833809" />
    <synapse sourceNeuronName = "7" targetNeuronName = "9" weight = "0.6202126575746489" />
    <synapse sourceNeuronName = "7" targetNeuronName = "10" weight = "0.6637112710310735" />
    <synapse sourceNeuronName = "7" targetNeuronName = "11" weight = "0.718122187879547" />
    <synapse sourceNeuronName = "7" targetNeuronName = "12" weight = "-0.32681241914840875" />
    <synapse sourceNeuronName = "7" targetNeuronName = "13" weight = "0.18406363124708358" />
    <synapse sourceNeuronName = "7" targetNeuronName = "14" weight = "0.7780237997046935" />
    <synapse sourceNeuronName = "7" targetNeuronName = "15" weight = "0.7682593718387789" />
    <synapse sourceNeuronName = "7" targetNeuronName = "16" weight = "0.36840845131000766" />
    <synapse sourceNeuronName = "8" targetNeuronName = "9" weight = "0.9571528005849004" />
    <synapse sourceNeuronName = "8" targetNeuronName = "10" weight = "0.8571807111053547" />
    <synapse sourceNeuronName = "8" targetNeuronName = "11" weight = "-0.3986318963730602" />
    <synapse sourceNeuronName = "8" targetNeuronName = "12" weight = "-0.25706673010728" />
    <synapse sourceNeuronName = "8" targetNeuronName = "13" weight = "-0.6654297808788756" />
    <synapse sourceNeuronName = "8" targetNeuronName = "14" weight = "0.028132786470290938" />
    <synapse sourceNeuronName = "8" targetNeuronName = "15" weight = "-0.575675992355553" />
    <synapse sourceNeuronName = "8" targetNeuronName = "16" weight = "0.9802396125978965" />
</neuralNetwork>