<neuralNetwork>
    <neuron name = "0" type = "sensor" linkName = "Torso" />
    <neuron name = "1" type = "sensor" linkName = "BackLeg" />
    <neuron name = "2" type = "sensor" linkName = "FrontLeg" />
    <neuron name = "3" type = "sensor" linkName = "LeftLeg" />
    <neuron name = "4" type = "sensor" linkName = "RightLeg" />
    <neuron name = "5" type = "sensor" linkName = "BackLowerLeg" />
    <neuron name = "6" type = "sensor" linkName = "FrontLowerLeg" />
    <neuron name = "7" type = "sensor" linkName = "LeftLowerLeg" />
    <neuron name = "8" type = "sensor" linkName = "RightLowerLeg" />
    <neuron name = "9" type = "motor"  jointName = "Torso_BackLeg" />
    <neuron name = "10" type = "motor"  jointName = "Torso_FrontLeg" />
    <neuron name = "11" type = "motor"  jointName = "Torso_LeftLeg" />
    <neuron name = "12" type = "motor"  jointName = "Torso_RightLeg" />
    <neuron name = "13" type = "motor"  jointName = "BackLeg_BackLowerLeg" />
    <neuron name = "14" type = "motor"  jointName = "FrontLeg_FrontLowerLeg" />
    <neuron name = "15" type = "motor"  jointName = "LeftLeg_LeftLowerLeg" />
    <neuron name = "16" type = "motor"  jointName = "RightLeg_RightLowerLeg" />
    <synapse sourceNeuronName = "0" targetNeuronName = "9" weight = "0.21118962468149438" />
    <synapse sourceNeuronName = "0" targetNeuronName = "10" weight = "-0.9026410005320775" />
    <synapse sourceNeuronName = "0" targetNeuronName = "11" weight = "-0.22932606726053528" />
    <synapse sourceNeuronName = "0" targetNeuronName = "12" weight = "-0.6298758580698223" />
    <synapse sourceNeuronName = "0" targetNeuronName = "13" weight = "0.31170868978409527" />
    <synapse sourceNeuronName = "0" targetNeuronName = "14" weight = "0.2892086176601578" />
    <synapse sourceNeuronName = "0" targetNeuronName = "15" weight = "-0.7747202142704583" />
    <synapse sourceNeuronName = "0" targetNeuronName = "16" weight = "-0.2445677947735878" />
    <synapse sourceNeuronName = "1" targetNeuronName = "9" weight = "0.4976235845098036" />
    <synapse sourceNeuronName = "1" targetNeuronName = "10" weight = "-0.13796896988970153" />
    <synapse sourceNeuronName = "1" targetNeuronName = "11" weight = "-0.45134508801621487" />
    <synapse sourceNeuronName = "1" targetNeuronName = "12" weight = "-0.8551902557535858" />
    <synapse sourceNeuronName = "1" targetNeuronName = "13" weight = "0.0622974515446888" />
    <synapse sourceNeuronName = "1" targetNeuronName = "14" weight = "0.7859517118437687" />
    <synapse sourceNeuronName = "1" targetNeuronName = "15" weight = "0.8697053484387924" />
    <synapse sourceNeuronName = "1" targetNeuronName = "16" weight = "-0.40790979131084515" />
    <synapse sourceNeuronName = "2" targetNeuronName = "9" weight = "0.13042337749486355" />
    <synapse sourceNeuronName = "2" targetNeuronName = "10" weight = "0.7071529034599067" />
    <synapse sourceNeuronName = "2" targetNeuronName = "11" weight = "-0.13400299492957113" />
    <synapse sourceNeuronName = "2" targetNeuronName = "12" weight = "-0.013503453443563851" />
    <synapse sourceNeuronName = "2" targetNeuronName = "13" weight = "0.5427868665688833" />
    <synapse sourceNeuronName = "2" targetNeuronName = "14" weight = "0.3990428060621898" />
    <synapse sourceNeuronName = "2" targetNeuronName = "15" weight = "0.3067963901017634" />
    <synapse sourceNeuronName = "2" targetNeuronName = "16" weight = "-0.5403629424467928" />
    <synapse sourceNeuronName = "3" targetNeuronName = "9" weight = "-0.9055400969420795" />
    <synapse sourceNeuronName = "3" targetNeuronName = "10" weight = "-0.22625922208457072" />
    <synapse sourceNeuronName = "3" targetNeuronName = "11" weight = "-0.2763817246135567" />
    <synapse sourceNeuronName = "3" targetNeuronName = "12" weight = "-0.05093603548537784" />
    <synapse sourceNeuronName = "3" targetNeuronName = "13" weight = "-0.38191314453541114" />
    <synapse sourceNeuronName = "3" targetNeuronName = "14" weight = "0.6906037027670819" />
    <synapse sourceNeuronName = "3" targetNeuronName = "15" weight = "-0.5803518213396563" />
    <synapse sourceNeuronName = "3" targetNeuronName = "16" weight = "-0.8257663378056119" />
    <synapse sourceNeuronName = "4" targetNeuronName = "9" weight = "0.8584503865864868" />
    <synapse sourceNeuronName = "4" targetNeuronName = "10" weight = "-0.5638829521369666" />
    <synapse sourceNeuronName = "4" targetNeuronName = "11" weight = "0.8966794777437841" />
    <synapse sourceNeuronName = "4" targetNeuronName = "12" weight = "0.25825782696586574" />
    <synapse sourceNeuronName = "4" targetNeuronName = "13" weight = "0.6623847411704069" />
    <synapse sourceNeuronName = "4" targetNeuronName = "14" weight = "-0.06019553239480935" />
    <synapse sourceNeuronName = "4" targetNeuronName = "15" weight = "0.14905353827335177" />
    <synapse sourceNeuronName = "4" targetNeuronName = "16" weight = "-0.18982587265025086" />
    <synapse sourceNeuronName = "5" targetNeuronName = "9" weight = "0.3074773238903312" />
    <synapse sourceNeuronName = "5" targetNeuronName = "10" weight = "-0.5908369941529377" />
    <synapse sourceNeuronName = "5" targetNeuronName = "11" weight = "-0.44513758725595487" />
    <synapse sourceNeuronName = "5" targetNeuronName = "12" weight = "0.9635308708217689" />
    <synapse sourceNeuronName = "5" targetNeuronName = "13" weight = "0.0051002669419304425" />
    <synapse sourceNeuronName = "5" targetNeuronName = "14" weight = "0.06035760453232353" />
    <synapse sourceNeuronName = "5" targetNeuronName = "15" weight = "-0.6201012737537128" />
    <synapse sourceNeuronName = "5" targetNeuronName = "16" weight = "-0.10717721322527085" />
    <synapse sourceNeuronName = "6" targetNeuronName = "9" weight = "-0.16587814645332322" />
    <synapse sourceNeuronName = "6" targetNeuronName = "10" weight = "-0.1965954679850237" />
    <synapse sourceNeuronName = "6" targetNeuronName = "11" weight = "0.3516417277066355" />
    <synapse sourceNeuronName = "6" targetNeuronName = "12" weight = "-0.16592443681872981" />
    <synapse sourceNeuronName = "6" targetNeuronName = "13" weight = "0.6788285332301949" />
    <synapse sourceNeuronName = "6" targetNeuronName = "14" weight = "-0.3633336604035511" />
    <synapse sourceNeuronName = "6" targetNeuronName = "15" weight = "0.3989093585856369" />
    <synapse sourceNeuronName = "6" targetNeuronName = "16" weight = "-0.6630431105765471" />
    <synapse sourceNeuronName = "7" targetNeuronName = "9" weight = "-0.46388998205532306" />
    <synapse sourceNeuronName = "7" targetNeuronName = "10" weight = "0.41185184678699804" />
    <synapse sourceNeuronName = "7" targetNeuronName = "11" weight = "-0.5487827345803971" />
    <synapse sourceNeuronName = "7" targetNeuronName = "12" weight = "0.15931409347200454" />
    <synapse sourceNeuronName = "7" targetNeuronName = "13" weight = "-0.27551154733000205" />
    <synapse sourceNeuronName = "7" targetNeuronName = "14" weight = "-0.2848775528942491" />
    <synapse sourceNeuronName = "7" targetNeuronName = "15" weight = "0.1741734393329617" />
    <synapse sourceNeuronName = "7" targetNeuronName = "16" weight = "-0.32375518117593205" />
    <synapse sourceNeuronName = "8" targetNeuronName = "9" weight = "-0.9636561786327806" />
    <synapse sourceNeuronName = "8" targetNeuronName = "10" weight = "0.4481403751615285" />
    <synapse sourceNeuronName = "8" targetNeuronName = "11" weight = "-0.4844651820366812" />
    <synapse sourceNeuronName = "8" targetNeuronName = "12" weight = "0.13008776246884102" />
    <synapse sourceNeuronName = "8" targetNeuronName = "13" weight = "-0.07712012361359388" />
    <synapse sourceNeuronName = "8" targetNeuronName = "14" weight = "0.15540803008369464" />
    <synapse sourceNeuronName = "8" targetNeuronName = "15" weight = "-0.0757273918053536" />
    <synapse sourceNeuronName = "8" targetNeuronName = "16" weight = "-0.8712882534214801" />
</neuralNetwork>