<neuralNetwork>
    <neuron name = "0" type = "sensor" linkName = "Torso" />
    <neuron name = "1" type = "sensor" linkName = "BackLeg" />
    <neuron name = "2" type = "sensor" linkName = "FrontLeg" />
    <neuron name = "3" type = "sensor" linkName = "LeftLeg" />
    <neuron name = "4" type = "sensor" linkName = "RightLeg" />
    <neuron name = "5" type = "sensor" linkName = "BackLowerLeg" />
    <neuron name = "6" type = "sensor" linkName = "FrontLowerLeg" />
    <neuron name = "7" type = "sensor" linkName = "LeftLowerLeg" />
    <neuron name = "8" type = "sensor" linkName = "RightLowerLeg" />
    <neuron name = "9" type = "motor"  jointName = "Torso_BackLeg" />
    <neuron name = "10" type = "motor"  jointName = "Torso_FrontLeg" />
    <neuron name = "11" type = "motor"  jointName = "Torso_LeftLeg" />
    <neuron name = "12" type = "motor"  jointName = "Torso_RightLeg" />
    <neuron name = "13" type = "motor"  jointName = "BackLeg_BackLowerLeg" />
    <neuron name = "14" type = "motor"  jointName = "FrontLeg_FrontLowerLeg" />
    <neuron name = "15" type = "motor"  jointName = "LeftLeg_LeftLowerLeg" />
    <neuron name = "16" type = "motor"  jointName = "RightLeg_RightLowerLeg" />
    <synapse sourceNeuronName = "0" targetNeuronName = "9" weight = "0.8674696957973775" />
    <synapse sourceNeuronName = "0" targetNeuronName = "10" weight = "-0.6728902039627462" />
    <synapse sourceNeuronName = "0" targetNeuronName = "11" weight = "-0.8346636903224487" />
    <synapse sourceNeuronName = "0" targetNeuronName = "12" weight = "-0.6839668936629555" />
    <synapse sourceNeuronName = "0" targetNeuronName = "13" weight = "-0.41346581233775126" />
    <synapse sourceNeuronName = "0" targetNeuronName = "14" weight = "-0.5940745710503763" />
    <synapse sourceNeuronName = "0" targetNeuronName = "15" weight = "0.4083886075246532" />
    <synapse sourceNeuronName = "0" targetNeuronName = "16" weight = "0.9453761813159862" />
    <synapse sourceNeuronName = "1" targetNeuronName = "9" weight = "0.7331875107181369" />
    <synapse sourceNeuronName = "1" targetNeuronName = "10" weight = "0.923604165998084" />
    <synapse sourceNeuronName = "1" targetNeuronName = "11" weight = "0.5537928701929988" />
    <synapse sourceNeuronName = "1" targetNeuronName = "12" weight = "0.03924803079620043" />
    <synapse sourceNeuronName = "1" targetNeuronName = "13" weight = "0.9108366455288939" />
    <synapse sourceNeuronName = "1" targetNeuronName = "14" weight = "-0.3647682942257082" />
    <synapse sourceNeuronName = "1" targetNeuronName = "15" weight = "-0.8326364489477849" />
    <synapse sourceNeuronName = "1" targetNeuronName = "16" weight = "-0.8895799677877079" />
    <synapse sourceNeuronName = "2" targetNeuronName = "9" weight = "0.5934603841001638" />
    <synapse sourceNeuronName = "2" targetNeuronName = "10" weight = "0.0816769958398893" />
    <synapse sourceNeuronName = "2" targetNeuronName = "11" weight = "0.6955071541619449" />
    <synapse sourceNeuronName = "2" targetNeuronName = "12" weight = "-0.8009153273983476" />
    <synapse sourceNeuronName = "2" targetNeuronName = "13" weight = "0.7224163984519776" />
    <synapse sourceNeuronName = "2" targetNeuronName = "14" weight = "-0.21058221319980852" />
    <synapse sourceNeuronName = "2" targetNeuronName = "15" weight = "0.3893093691319671" />
    <synapse sourceNeuronName = "2" targetNeuronName = "16" weight = "0.7470344523959056" />
    <synapse sourceNeuronName = "3" targetNeuronName = "9" weight = "0.3892992123497263" />
    <synapse sourceNeuronName = "3" targetNeuronName = "10" weight = "0.8206255414712225" />
    <synapse sourceNeuronName = "3" targetNeuronName = "11" weight = "0.19551636420289809" />
    <synapse sourceNeuronName = "3" targetNeuronName = "12" weight = "0.76096987148294" />
    <synapse sourceNeuronName = "3" targetNeuronName = "13" weight = "-0.09796142352539694" />
    <synapse sourceNeuronName = "3" targetNeuronName = "14" weight = "0.20587214717903635" />
    <synapse sourceNeuronName = "3" targetNeuronName = "15" weight = "0.7732590454080346" />
    <synapse sourceNeuronName = "3" targetNeuronName = "16" weight = "-0.869806277392642" />
    <synapse sourceNeuronName = "4" targetNeuronName = "9" weight = "-0.4493410912848561" />
    <synapse sourceNeuronName = "4" targetNeuronName = "10" weight = "0.9906267292299116" />
    <synapse sourceNeuronName = "4" targetNeuronName = "11" weight = "0.4230720828012502" />
    <synapse sourceNeuronName = "4" targetNeuronName = "12" weight = "0.26054178327636435" />
    <synapse sourceNeuronName = "4" targetNeuronName = "13" weight = "-0.8554333797378766" />
    <synapse sourceNeuronName = "4" targetNeuronName = "14" weight = "0.4534790951250438" />
    <synapse sourceNeuronName = "4" targetNeuronName = "15" weight = "-0.330313181401128" />
    <synapse sourceNeuronName = "4" targetNeuronName = "16" weight = "0.423182583649357" />
    <synapse sourceNeuronName = "5" targetNeuronName = "9" weight = "0.6135714386653766" />
    <synapse sourceNeuronName = "5" targetNeuronName = "10" weight = "0.4649232965872161" />
    <synapse sourceNeuronName = "5" targetNeuronName = "11" weight = "0.3398703113822328" />
    <synapse sourceNeuronName = "5" targetNeuronName = "12" weight = "-0.22023034719719647" />
    <synapse sourceNeuronName = "5" targetNeuronName = "13" weight = "0.5574409242477074" />
    <synapse sourceNeuronName = "5" targetNeuronName = "14" weight = "-0.1975517714217614" />
    <synapse sourceNeuronName = "5" targetNeuronName = "15" weight = "0.8454460125117282" />
    <synapse sourceNeuronName = "5" targetNeuronName = "16" weight = "0.4098701833965319" />
    <synapse sourceNeuronName = "6" targetNeuronName = "9" weight = "-0.7376547389425121" />
    <synapse sourceNeuronName = "6" targetNeuronName = "10" weight = "-0.06123303486227205" />
    <synapse sourceNeuronName = "6" targetNeuronName = "11" weight = "0.8311081386524353" />
    <synapse sourceNeuronName = "6" targetNeuronName = "12" weight = "-0.3971584743757124" />
    <synapse sourceNeuronName = "6" targetNeuronName = "13" weight = "0.1335414977342415" />
    <synapse sourceNeuronName = "6" targetNeuronName = "14" weight = "0.9676875262237359" />
    <synapse sourceNeuronName = "6" targetNeuronName = "15" weight = "-0.9795978663140519" />
    <synapse sourceNeuronName = "6" targetNeuronName = "16" weight = "0.6749552644786343" />
    <synapse sourceNeuronName = "7" targetNeuronName = "9" weight = "-0.15933213611084596" />
    <synapse sourceNeuronName = "7" targetNeuronName = "10" weight = "-0.11936044864852091" />
    <synapse sourceNeuronName = "7" targetNeuronName = "11" weight = "0.6560243025976138" />
    <synapse sourceNeuronName = "7" targetNeuronName = "12" weight = "-0.816099026149828" />
    <synapse sourceNeuronName = "7" targetNeuronName = "13" weight = "-0.4170740296854851" />
    <synapse sourceNeuronName = "7" targetNeuronName = "14" weight = "0.528792718565835" />
    <synapse sourceNeuronName = "7" targetNeuronName = "15" weight = "-0.44055139654342046" />
    <synapse sourceNeuronName = "7" targetNeuronName = "16" weight = "0.15810798051846153" />
    <synapse sourceNeuronName = "8" targetNeuronName = "9" weight = "0.607774289393767" />
    <synapse sourceNeuronName = "8" targetNeuronName = "10" weight = "0.7299557312560225" />
    <synapse sourceNeuronName = "8" targetNeuronName = "11" weight = "0.0009791078960637023" />
    <synapse sourceNeuronName = "8" targetNeuronName = "12" weight = "0.2948686394632394" />
    <synapse sourceNeuronName = "8" targetNeuronName = "13" weight = "0.07973814885187669" />
    <synapse sourceNeuronName = "8" targetNeuronName = "14" weight = "-0.30469155766269185" />
    <synapse sourceNeuronName = "8" targetNeuronName = "15" weight = "0.34092654583828463" />
    <synapse sourceNeuronName = "8" targetNeuronName = "16" weight = "-0.12723432561519465" />
</neuralNetwork>