<neuralNetwork>
    <neuron name = "0" type = "sensor" linkName = "Torso" />
    <neuron name = "1" type = "sensor" linkName = "BackLeg" />
    <neuron name = "2" type = "sensor" linkName = "FrontLeg" />
    <neuron name = "3" type = "sensor" linkName = "LeftLeg" />
    <neuron name = "4" type = "sensor" linkName = "RightLeg" />
    <neuron name = "5" type = "sensor" linkName = "BackLowerLeg" />
    <neuron name = "6" type = "sensor" linkName = "FrontLowerLeg" />
    <neuron name = "7" type = "sensor" linkName = "LeftLowerLeg" />
    <neuron name = "8" type = "sensor" linkName = "RightLowerLeg" />
    <neuron name = "9" type = "motor"  jointName = "Torso_BackLeg" />
    <neuron name = "10" type = "motor"  jointName = "Torso_FrontLeg" />
    <neuron name = "11" type = "motor"  jointName = "Torso_LeftLeg" />
    <neuron name = "12" type = "motor"  jointName = "Torso_RightLeg" />
    <neuron name = "13" type = "motor"  jointName = "BackLeg_BackLowerLeg" />
    <neuron name = "14" type = "motor"  jointName = "FrontLeg_FrontLowerLeg" />
    <neuron name = "15" type = "motor"  jointName = "LeftLeg_LeftLowerLeg" />
    <neuron name = "16" type = "motor"  jointName = "RightLeg_RightLowerLeg" />
    <synapse sourceNeuronName = "0" targetNeuronName = "9" weight = "0.2137795752747651" />
    <synapse sourceNeuronName = "0" targetNeuronName = "10" weight = "-0.30730142202757604" />
    <synapse sourceNeuronName = "0" targetNeuronName = "11" weight = "-0.6415639020990167" />
    <synapse sourceNeuronName = "0" targetNeuronName = "12" weight = "0.5773135775304408" />
    <synapse sourceNeuronName = "0" targetNeuronName = "13" weight = "-0.7504496968144385" />
    <synapse sourceNeuronName = "0" targetNeuronName = "14" weight = "-0.7682049566387545" />
    <synapse sourceNeuronName = "0" targetNeuronName = "15" weight = "-0.8550608682626839" />
    <synapse sourceNeuronName = "0" targetNeuronName = "16" weight = "0.03594682681700467" />
    <synapse sourceNeuronName = "1" targetNeuronName = "9" weight = "0.8669937437604276" />
    <synapse sourceNeuronName = "1" targetNeuronName = "10" weight = "0.8032851286501723" />
    <synapse sourceNeuronName = "1" targetNeuronName = "11" weight = "0.6100909610570331" />
    <synapse sourceNeuronName = "1" targetNeuronName = "12" weight = "0.3147839029512238" />
    <synapse sourceNeuronName = "1" targetNeuronName = "13" weight = "-0.21892678115842457" />
    <synapse sourceNeuronName = "1" targetNeuronName = "14" weight = "-0.012509849134105355" />
    <synapse sourceNeuronName = "1" targetNeuronName = "15" weight = "0.6249473624674122" />
    <synapse sourceNeuronName = "1" targetNeuronName = "16" weight = "0.40788365296891693" />
    <synapse sourceNeuronName = "2" targetNeuronName = "9" weight = "0.8665179971324022" />
    <synapse sourceNeuronName = "2" targetNeuronName = "10" weight = "-0.5187440499697673" />
    <synapse sourceNeuronName = "2" targetNeuronName = "11" weight = "0.9194379112622844" />
    <synapse sourceNeuronName = "2" targetNeuronName = "12" weight = "0.7889258861487929" />
    <synapse sourceNeuronName = "2" targetNeuronName = "13" weight = "0.44906353516286557" />
    <synapse sourceNeuronName = "2" targetNeuronName = "14" weight = "-0.8063201509164486" />
    <synapse sourceNeuronName = "2" targetNeuronName = "15" weight = "0.3330400343290414" />
    <synapse sourceNeuronName = "2" targetNeuronName = "16" weight = "-0.5718046448079255" />
    <synapse sourceNeuronName = "3" targetNeuronName = "9" weight = "-0.27763349968401196" />
    <synapse sourceNeuronName = "3" targetNeuronName = "10" weight = "-0.6411004259920938" />
    <synapse sourceNeuronName = "3" targetNeuronName = "11" weight = "-0.7141263407278942" />
    <synapse sourceNeuronName = "3" targetNeuronName = "12" weight = "0.7765113269549637" />
    <synapse sourceNeuronName = "3" targetNeuronName = "13" weight = "0.0019824967656107972" />
    <synapse sourceNeuronName = "3" targetNeuronName = "14" weight = "0.3381155167681773" />
    <synapse sourceNeuronName = "3" targetNeuronName = "15" weight = "0.7723563142231231" />
    <synapse sourceNeuronName = "3" targetNeuronName = "16" weight = "-0.5704498120066279" />
    <synapse sourceNeuronName = "4" targetNeuronName = "9" weight = "0.33594180213454417" />
    <synapse sourceNeuronName = "4" targetNeuronName = "10" weight = "-0.06270041703585538" />
    <synapse sourceNeuronName = "4" targetNeuronName = "11" weight = "-0.8790330505731798" />
    <synapse sourceNeuronName = "4" targetNeuronName = "12" weight = "0.5393916697211258" />
    <synapse sourceNeuronName = "4" targetNeuronName = "13" weight = "0.29848247018043894" />
    <synapse sourceNeuronName = "4" targetNeuronName = "14" weight = "-0.6315028339877897" />
    <synapse sourceNeuronName = "4" targetNeuronName = "15" weight = "-0.2715222730627209" />
    <synapse sourceNeuronName = "4" targetNeuronName = "16" weight = "-0.22933473732214882" />
    <synapse sourceNeuronName = "5" targetNeuronName = "9" weight = "-0.6508827783311433" />
    <synapse sourceNeuronName = "5" targetNeuronName = "10" weight = "0.8257828269379006" />
    <synapse sourceNeuronName = "5" targetNeuronName = "11" weight = "-0.7074455713535968" />
    <synapse sourceNeuronName = "5" targetNeuronName = "12" weight = "-0.004161928347829358" />
    <synapse sourceNeuronName = "5" targetNeuronName = "13" weight = "0.8351534579720277" />
    <synapse sourceNeuronName = "5" targetNeuronName = "14" weight = "0.7421329230408467" />
    <synapse sourceNeuronName = "5" targetNeuronName = "15" weight = "-0.9426721073288473" />
    <synapse sourceNeuronName = "5" targetNeuronName = "16" weight = "0.537969242587643" />
    <synapse sourceNeuronName = "6" targetNeuronName = "9" weight = "0.8494098739570384" />
    <synapse sourceNeuronName = "6" targetNeuronName = "10" weight = "-0.5807522261631839" />
    <synapse sourceNeuronName = "6" targetNeuronName = "11" weight = "0.7682266226733989" />
    <synapse sourceNeuronName = "6" targetNeuronName = "12" weight = "-0.5161224857096913" />
    <synapse sourceNeuronName = "6" targetNeuronName = "13" weight = "0.16317429846408626" />
    <synapse sourceNeuronName = "6" targetNeuronName = "14" weight = "-0.6647822023217549" />
    <synapse sourceNeuronName = "6" targetNeuronName = "15" weight = "0.9678180464982742" />
    <synapse sourceNeuronName = "6" targetNeuronName = "16" weight = "0.8853774107598731" />
    <synapse sourceNeuronName = "7" targetNeuronName = "9" weight = "0.7530853924736058" />
    <synapse sourceNeuronName = "7" targetNeuronName = "10" weight = "0.5471556320035922" />
    <synapse sourceNeuronName = "7" targetNeuronName = "11" weight = "0.31832976104403343" />
    <synapse sourceNeuronName = "7" targetNeuronName = "12" weight = "-0.677522377294322" />
    <synapse sourceNeuronName = "7" targetNeuronName = "13" weight = "-0.31319084533289154" />
    <synapse sourceNeuronName = "7" targetNeuronName = "14" weight = "-0.06414743872515505" />
    <synapse sourceNeuronName = "7" targetNeuronName = "15" weight = "-0.12284981242568516" />
    <synapse sourceNeuronName = "7" targetNeuronName = "16" weight = "-0.48547349060905565" />
    <synapse sourceNeuronName = "8" targetNeuronName = "9" weight = "-0.3191458010848991" />
    <synapse sourceNeuronName = "8" targetNeuronName = "10" weight = "0.12912759943564445" />
    <synapse sourceNeuronName = "8" targetNeuronName = "11" weight = "0.07680778753652606" />
    <synapse sourceNeuronName = "8" targetNeuronName = "12" weight = "0.37280681711604835" />
    <synapse sourceNeuronName = "8" targetNeuronName = "13" weight = "0.4357111597508909" />
    <synapse sourceNeuronName = "8" targetNeuronName = "14" weight = "-0.8600138134939128" />
    <synapse sourceNeuronName = "8" targetNeuronName = "15" weight = "-0.7875679694523605" />
    <synapse sourceNeuronName = "8" targetNeuronName = "16" weight = "-0.2600543267782922" />
</neuralNetwork>