<neuralNetwork>
    <neuron name = "0" type = "sensor" linkName = "Torso" />
    <neuron name = "1" type = "sensor" linkName = "BackLeg" />
    <neuron name = "2" type = "sensor" linkName = "FrontLeg" />
    <neuron name = "3" type = "sensor" linkName = "LeftLeg" />
    <neuron name = "4" type = "sensor" linkName = "RightLeg" />
    <neuron name = "5" type = "sensor" linkName = "BackLowerLeg" />
    <neuron name = "6" type = "sensor" linkName = "FrontLowerLeg" />
    <neuron name = "7" type = "sensor" linkName = "LeftLowerLeg" />
    <neuron name = "8" type = "sensor" linkName = "RightLowerLeg" />
    <neuron name = "9" type = "motor"  jointName = "Torso_BackLeg" />
    <neuron name = "10" type = "motor"  jointName = "Torso_FrontLeg" />
    <neuron name = "11" type = "motor"  jointName = "Torso_LeftLeg" />
    <neuron name = "12" type = "motor"  jointName = "Torso_RightLeg" />
    <neuron name = "13" type = "motor"  jointName = "BackLeg_BackLowerLeg" />
    <neuron name = "14" type = "motor"  jointName = "FrontLeg_FrontLowerLeg" />
    <neuron name = "15" type = "motor"  jointName = "LeftLeg_LeftLowerLeg" />
    <neuron name = "16" type = "motor"  jointName = "RightLeg_RightLowerLeg" />
    <synapse sourceNeuronName = "0" targetNeuronName = "9" weight = "-0.7151535059642422" />
    <synapse sourceNeuronName = "0" targetNeuronName = "10" weight = "0.2973082650029695" />
    <synapse sourceNeuronName = "0" targetNeuronName = "11" weight = "-0.8505566133490254" />
    <synapse sourceNeuronName = "0" targetNeuronName = "12" weight = "-0.8173727908515662" />
    <synapse sourceNeuronName = "0" targetNeuronName = "13" weight = "0.6783187521277996" />
    <synapse sourceNeuronName = "0" targetNeuronName = "14" weight = "0.35383526000383614" />
    <synapse sourceNeuronName = "0" targetNeuronName = "15" weight = "0.838566335053452" />
    <synapse sourceNeuronName = "0" targetNeuronName = "16" weight = "0.7818479324369778" />
    <synapse sourceNeuronName = "1" targetNeuronName = "9" weight = "0.04826613446505901" />
    <synapse sourceNeuronName = "1" targetNeuronName = "10" weight = "0.7581947460311882" />
    <synapse sourceNeuronName = "1" targetNeuronName = "11" weight = "0.2825290769116533" />
    <synapse sourceNeuronName = "1" targetNeuronName = "12" weight = "-0.5761504091808392" />
    <synapse sourceNeuronName = "1" targetNeuronName = "13" weight = "-0.5092359258678867" />
    <synapse sourceNeuronName = "1" targetNeuronName = "14" weight = "-0.8264827240134089" />
    <synapse sourceNeuronName = "1" targetNeuronName = "15" weight = "0.49815641115289244" />
    <synapse sourceNeuronName = "1" targetNeuronName = "16" weight = "-0.40608224536003235" />
    <synapse sourceNeuronName = "2" targetNeuronName = "9" weight = "-0.08546011545960175" />
    <synapse sourceNeuronName = "2" targetNeuronName = "10" weight = "0.43595803436765146" />
    <synapse sourceNeuronName = "2" targetNeuronName = "11" weight = "0.06214448091578917" />
    <synapse sourceNeuronName = "2" targetNeuronName = "12" weight = "0.06340188257901835" />
    <synapse sourceNeuronName = "2" targetNeuronName = "13" weight = "-0.7498938921859062" />
    <synapse sourceNeuronName = "2" targetNeuronName = "14" weight = "-0.11495956011569763" />
    <synapse sourceNeuronName = "2" targetNeuronName = "15" weight = "0.9836365364899182" />
    <synapse sourceNeuronName = "2" targetNeuronName = "16" weight = "-0.42707971321205873" />
    <synapse sourceNeuronName = "3" targetNeuronName = "9" weight = "0.8618279977369949" />
    <synapse sourceNeuronName = "3" targetNeuronName = "10" weight = "-0.7924518729362389" />
    <synapse sourceNeuronName = "3" targetNeuronName = "11" weight = "0.644578515144864" />
    <synapse sourceNeuronName = "3" targetNeuronName = "12" weight = "-0.6749612679412518" />
    <synapse sourceNeuronName = "3" targetNeuronName = "13" weight = "0.8310067368973848" />
    <synapse sourceNeuronName = "3" targetNeuronName = "14" weight = "-0.5247577898099249" />
    <synapse sourceNeuronName = "3" targetNeuronName = "15" weight = "0.5262564773308491" />
    <synapse sourceNeuronName = "3" targetNeuronName = "16" weight = "0.8288457418869044" />
    <synapse sourceNeuronName = "4" targetNeuronName = "9" weight = "-0.6139958856270002" />
    <synapse sourceNeuronName = "4" targetNeuronName = "10" weight = "0.05968996951664929" />
    <synapse sourceNeuronName = "4" targetNeuronName = "11" weight = "-0.2805369721476727" />
    <synapse sourceNeuronName = "4" targetNeuronName = "12" weight = "-0.2408664259271791" />
    <synapse sourceNeuronName = "4" targetNeuronName = "13" weight = "-0.1338036958467521" />
    <synapse sourceNeuronName = "4" targetNeuronName = "14" weight = "-0.6555871437990184" />
    <synapse sourceNeuronName = "4" targetNeuronName = "15" weight = "-0.8848588271270044" />
    <synapse sourceNeuronName = "4" targetNeuronName = "16" weight = "-0.20256898326236006" />
    <synapse sourceNeuronName = "5" targetNeuronName = "9" weight = "-0.45713710058185963" />
    <synapse sourceNeuronName = "5" targetNeuronName = "10" weight = "0.044562441941443875" />
    <synapse sourceNeuronName = "5" targetNeuronName = "11" weight = "-0.114995147180325" />
    <synapse sourceNeuronName = "5" targetNeuronName = "12" weight = "-0.6942231283543996" />
    <synapse sourceNeuronName = "5" targetNeuronName = "13" weight = "-0.3340045826874931" />
    <synapse sourceNeuronName = "5" targetNeuronName = "14" weight = "0.9686453960936514" />
    <synapse sourceNeuronName = "5" targetNeuronName = "15" weight = "0.15681848002119447" />
    <synapse sourceNeuronName = "5" targetNeuronName = "16" weight = "-0.5556789324479774" />
    <synapse sourceNeuronName = "6" targetNeuronName = "9" weight = "-0.3145161383071189" />
    <synapse sourceNeuronName = "6" targetNeuronName = "10" weight = "-0.4829306239780682" />
    <synapse sourceNeuronName = "6" targetNeuronName = "11" weight = "0.848254872771697" />
    <synapse sourceNeuronName = "6" targetNeuronName = "12" weight = "0.4592493870311052" />
    <synapse sourceNeuronName = "6" targetNeuronName = "13" weight = "0.24122277044925" />
    <synapse sourceNeuronName = "6" targetNeuronName = "14" weight = "-0.40072893740000914" />
    <synapse sourceNeuronName = "6" targetNeuronName = "15" weight = "-0.2051797079281339" />
    <synapse sourceNeuronName = "6" targetNeuronName = "16" weight = "-0.7230251928320486" />
    <synapse sourceNeuronName = "7" targetNeuronName = "9" weight = "-0.9307198475509055" />
    <synapse sourceNeuronName = "7" targetNeuronName = "10" weight = "0.6399520865060171" />
    <synapse sourceNeuronName = "7" targetNeuronName = "11" weight = "0.026981031083511464" />
    <synapse sourceNeuronName = "7" targetNeuronName = "12" weight = "-0.6471635245510672" />
    <synapse sourceNeuronName = "7" targetNeuronName = "13" weight = "0.9425459280551352" />
    <synapse sourceNeuronName = "7" targetNeuronName = "14" weight = "-0.17106128092056516" />
    <synapse sourceNeuronName = "7" targetNeuronName = "15" weight = "0.9426102289026268" />
    <synapse sourceNeuronName = "7" targetNeuronName = "16" weight = "0.16940594110024576" />
    <synapse sourceNeuronName = "8" targetNeuronName = "9" weight = "-0.8184519739023794" />
    <synapse sourceNeuronName = "8" targetNeuronName = "10" weight = "-0.27639865196676316" />
    <synapse sourceNeuronName = "8" targetNeuronName = "11" weight = "0.8941299293828733" />
    <synapse sourceNeuronName = "8" targetNeuronName = "12" weight = "0.4459974613495894" />
    <synapse sourceNeuronName = "8" targetNeuronName = "13" weight = "0.8084364246859574" />
    <synapse sourceNeuronName = "8" targetNeuronName = "14" weight = "0.8290930589794703" />
    <synapse sourceNeuronName = "8" targetNeuronName = "15" weight = "0.4107021562653759" />
    <synapse sourceNeuronName = "8" targetNeuronName = "16" weight = "0.2475274877942535" />
</neuralNetwork>