<neuralNetwork>
    <neuron name = "0" type = "sensor" linkName = "Torso" />
    <neuron name = "1" type = "sensor" linkName = "BackLeg" />
    <neuron name = "2" type = "sensor" linkName = "FrontLeg" />
    <neuron name = "3" type = "sensor" linkName = "LeftLeg" />
    <neuron name = "4" type = "sensor" linkName = "RightLeg" />
    <neuron name = "5" type = "sensor" linkName = "BackLowerLeg" />
    <neuron name = "6" type = "sensor" linkName = "FrontLowerLeg" />
    <neuron name = "7" type = "sensor" linkName = "LeftLowerLeg" />
    <neuron name = "8" type = "sensor" linkName = "RightLowerLeg" />
    <neuron name = "9" type = "motor"  jointName = "Torso_BackLeg" />
    <neuron name = "10" type = "motor"  jointName = "Torso_FrontLeg" />
    <neuron name = "11" type = "motor"  jointName = "Torso_LeftLeg" />
    <neuron name = "12" type = "motor"  jointName = "Torso_RightLeg" />
    <neuron name = "13" type = "motor"  jointName = "BackLeg_BackLowerLeg" />
    <neuron name = "14" type = "motor"  jointName = "FrontLeg_FrontLowerLeg" />
    <neuron name = "15" type = "motor"  jointName = "LeftLeg_LeftLowerLeg" />
    <neuron name = "16" type = "motor"  jointName = "RightLeg_RightLowerLeg" />
    <synapse sourceNeuronName = "0" targetNeuronName = "9" weight = "0.8351518071973882" />
    <synapse sourceNeuronName = "0" targetNeuronName = "10" weight = "-0.8327437308136512" />
    <synapse sourceNeuronName = "0" targetNeuronName = "11" weight = "-0.19800286157483593" />
    <synapse sourceNeuronName = "0" targetNeuronName = "12" weight = "0.9684556502591997" />
    <synapse sourceNeuronName = "0" targetNeuronName = "13" weight = "-0.7339245847407889" />
    <synapse sourceNeuronName = "0" targetNeuronName = "14" weight = "-0.09585472646309134" />
    <synapse sourceNeuronName = "0" targetNeuronName = "15" weight = "0.639153657596851" />
    <synapse sourceNeuronName = "0" targetNeuronName = "16" weight = "-0.3477844012688045" />
    <synapse sourceNeuronName = "1" targetNeuronName = "9" weight = "0.19492371756546634" />
    <synapse sourceNeuronName = "1" targetNeuronName = "10" weight = "-0.9172200865890512" />
    <synapse sourceNeuronName = "1" targetNeuronName = "11" weight = "0.1341375330271679" />
    <synapse sourceNeuronName = "1" targetNeuronName = "12" weight = "0.8961275311774088" />
    <synapse sourceNeuronName = "1" targetNeuronName = "13" weight = "0.8671788102258235" />
    <synapse sourceNeuronName = "1" targetNeuronName = "14" weight = "-0.270283882624484" />
    <synapse sourceNeuronName = "1" targetNeuronName = "15" weight = "0.8646946983287163" />
    <synapse sourceNeuronName = "1" targetNeuronName = "16" weight = "-0.2724927234042853" />
    <synapse sourceNeuronName = "2" targetNeuronName = "9" weight = "-0.634604639346956" />
    <synapse sourceNeuronName = "2" targetNeuronName = "10" weight = "0.02025058758892584" />
    <synapse sourceNeuronName = "2" targetNeuronName = "11" weight = "0.717310431701957" />
    <synapse sourceNeuronName = "2" targetNeuronName = "12" weight = "-0.7916563369910099" />
    <synapse sourceNeuronName = "2" targetNeuronName = "13" weight = "0.7038007390036352" />
    <synapse sourceNeuronName = "2" targetNeuronName = "14" weight = "-0.48097572136745903" />
    <synapse sourceNeuronName = "2" targetNeuronName = "15" weight = "0.8594358823585655" />
    <synapse sourceNeuronName = "2" targetNeuronName = "16" weight = "-0.37534882411521453" />
    <synapse sourceNeuronName = "3" targetNeuronName = "9" weight = "0.8454813614322363" />
    <synapse sourceNeuronName = "3" targetNeuronName = "10" weight = "0.5537749966767678" />
    <synapse sourceNeuronName = "3" targetNeuronName = "11" weight = "0.7651832579583813" />
    <synapse sourceNeuronName = "3" targetNeuronName = "12" weight = "0.3825204079826976" />
    <synapse sourceNeuronName = "3" targetNeuronName = "13" weight = "0.4319525373785078" />
    <synapse sourceNeuronName = "3" targetNeuronName = "14" weight = "-0.3922588054258016" />
    <synapse sourceNeuronName = "3" targetNeuronName = "15" weight = "-0.271252079624684" />
    <synapse sourceNeuronName = "3" targetNeuronName = "16" weight = "-0.986025301548251" />
    <synapse sourceNeuronName = "4" targetNeuronName = "9" weight = "-0.9684396751914592" />
    <synapse sourceNeuronName = "4" targetNeuronName = "10" weight = "-0.35234636505984485" />
    <synapse sourceNeuronName = "4" targetNeuronName = "11" weight = "0.47955692430749597" />
    <synapse sourceNeuronName = "4" targetNeuronName = "12" weight = "0.10017882188172744" />
    <synapse sourceNeuronName = "4" targetNeuronName = "13" weight = "-0.9826002147942878" />
    <synapse sourceNeuronName = "4" targetNeuronName = "14" weight = "0.41712785067352254" />
    <synapse sourceNeuronName = "4" targetNeuronName = "15" weight = "-0.40639204922937844" />
    <synapse sourceNeuronName = "4" targetNeuronName = "16" weight = "-0.3661423527790899" />
    <synapse sourceNeuronName = "5" targetNeuronName = "9" weight = "-0.07916024723386084" />
    <synapse sourceNeuronName = "5" targetNeuronName = "10" weight = "0.8595007815507609" />
    <synapse sourceNeuronName = "5" targetNeuronName = "11" weight = "0.3159479158336784" />
    <synapse sourceNeuronName = "5" targetNeuronName = "12" weight = "0.16832891762169933" />
    <synapse sourceNeuronName = "5" targetNeuronName = "13" weight = "-0.7212280340594641" />
    <synapse sourceNeuronName = "5" targetNeuronName = "14" weight = "-0.18934048942635262" />
    <synapse sourceNeuronName = "5" targetNeuronName = "15" weight = "0.48341359621869273" />
    <synapse sourceNeuronName = "5" targetNeuronName = "16" weight = "-0.05259138574491695" />
    <synapse sourceNeuronName = "6" targetNeuronName = "9" weight = "0.3145118927305395" />
    <synapse sourceNeuronName = "6" targetNeuronName = "10" weight = "0.5443620540507252" />
    <synapse sourceNeuronName = "6" targetNeuronName = "11" weight = "0.3824031479582586" />
    <synapse sourceNeuronName = "6" targetNeuronName = "12" weight = "0.6634700042690644" />
    <synapse sourceNeuronName = "6" targetNeuronName = "13" weight = "-0.9293558574153551" />
    <synapse sourceNeuronName = "6" targetNeuronName = "14" weight = "-0.5035692761759445" />
    <synapse sourceNeuronName = "6" targetNeuronName = "15" weight = "-0.018256215804389297" />
    <synapse sourceNeuronName = "6" targetNeuronName = "16" weight = "0.0011100156863010913" />
    <synapse sourceNeuronName = "7" targetNeuronName = "9" weight = "-0.08504177759606746" />
    <synapse sourceNeuronName = "7" targetNeuronName = "10" weight = "0.6698735636704334" />
    <synapse sourceNeuronName = "7" targetNeuronName = "11" weight = "0.9597590629826345" />
    <synapse sourceNeuronName = "7" targetNeuronName = "12" weight = "-0.9606835847802715" />
    <synapse sourceNeuronName = "7" targetNeuronName = "13" weight = "0.199846751384273" />
    <synapse sourceNeuronName = "7" targetNeuronName = "14" weight = "-0.41425070727855395" />
    <synapse sourceNeuronName = "7" targetNeuronName = "15" weight = "-0.3108532156173809" />
    <synapse sourceNeuronName = "7" targetNeuronName = "16" weight = "0.2942764187319393" />
    <synapse sourceNeuronName = "8" targetNeuronName = "9" weight = "0.9327789680633336" />
    <synapse sourceNeuronName = "8" targetNeuronName = "10" weight = "0.9109289932242957" />
    <synapse sourceNeuronName = "8" targetNeuronName = "11" weight = "0.41531115004335084" />
    <synapse sourceNeuronName = "8" targetNeuronName = "12" weight = "0.9037345518343998" />
    <synapse sourceNeuronName = "8" targetNeuronName = "13" weight = "-0.5708945000106287" />
    <synapse sourceNeuronName = "8" targetNeuronName = "14" weight = "0.9891805644330887" />
    <synapse sourceNeuronName = "8" targetNeuronName = "15" weight = "-0.03825105396380213" />
    <synapse sourceNeuronName = "8" targetNeuronName = "16" weight = "0.38429421730254654" />
</neuralNetwork>