<neuralNetwork>
    <neuron name = "0" type = "sensor" linkName = "Torso" />
    <neuron name = "1" type = "sensor" linkName = "BackLeg" />
    <neuron name = "2" type = "sensor" linkName = "FrontLeg" />
    <neuron name = "3" type = "sensor" linkName = "LeftLeg" />
    <neuron name = "4" type = "sensor" linkName = "RightLeg" />
    <neuron name = "5" type = "sensor" linkName = "BackLowerLeg" />
    <neuron name = "6" type = "sensor" linkName = "FrontLowerLeg" />
    <neuron name = "7" type = "sensor" linkName = "LeftLowerLeg" />
    <neuron name = "8" type = "sensor" linkName = "RightLowerLeg" />
    <neuron name = "9" type = "motor"  jointName = "Torso_BackLeg" />
    <neuron name = "10" type = "motor"  jointName = "Torso_FrontLeg" />
    <neuron name = "11" type = "motor"  jointName = "Torso_LeftLeg" />
    <neuron name = "12" type = "motor"  jointName = "Torso_RightLeg" />
    <neuron name = "13" type = "motor"  jointName = "BackLeg_BackLowerLeg" />
    <neuron name = "14" type = "motor"  jointName = "FrontLeg_FrontLowerLeg" />
    <neuron name = "15" type = "motor"  jointName = "LeftLeg_LeftLowerLeg" />
    <neuron name = "16" type = "motor"  jointName = "RightLeg_RightLowerLeg" />
    <synapse sourceNeuronName = "0" targetNeuronName = "9" weight = "-0.15387606463178072" />
    <synapse sourceNeuronName = "0" targetNeuronName = "10" weight = "0.4774877483219988" />
    <synapse sourceNeuronName = "0" targetNeuronName = "11" weight = "-0.634094654327608" />
    <synapse sourceNeuronName = "0" targetNeuronName = "12" weight = "-0.4415538507176848" />
    <synapse sourceNeuronName = "0" targetNeuronName = "13" weight = "0.749748621732838" />
    <synapse sourceNeuronName = "0" targetNeuronName = "14" weight = "-0.2564949292059169" />
    <synapse sourceNeuronName = "0" targetNeuronName = "15" weight = "-0.2403269976156841" />
    <synapse sourceNeuronName = "0" targetNeuronName = "16" weight = "0.9151161553164393" />
    <synapse sourceNeuronName = "1" targetNeuronName = "9" weight = "-0.7814854615312425" />
    <synapse sourceNeuronName = "1" targetNeuronName = "10" weight = "-0.7489052372535616" />
    <synapse sourceNeuronName = "1" targetNeuronName = "11" weight = "0.9421659814576695" />
    <synapse sourceNeuronName = "1" targetNeuronName = "12" weight = "0.4577605400689335" />
    <synapse sourceNeuronName = "1" targetNeuronName = "13" weight = "-0.48288096967827854" />
    <synapse sourceNeuronName = "1" targetNeuronName = "14" weight = "-0.26513882711939063" />
    <synapse sourceNeuronName = "1" targetNeuronName = "15" weight = "0.6825832468479456" />
    <synapse sourceNeuronName = "1" targetNeuronName = "16" weight = "0.7080351150489408" />
    <synapse sourceNeuronName = "2" targetNeuronName = "9" weight = "0.43963288647773546" />
    <synapse sourceNeuronName = "2" targetNeuronName = "10" weight = "-0.965027590072004" />
    <synapse sourceNeuronName = "2" targetNeuronName = "11" weight = "0.37476081043536125" />
    <synapse sourceNeuronName = "2" targetNeuronName = "12" weight = "-0.0909819326088992" />
    <synapse sourceNeuronName = "2" targetNeuronName = "13" weight = "-0.1514129049630255" />
    <synapse sourceNeuronName = "2" targetNeuronName = "14" weight = "-0.652355033376435" />
    <synapse sourceNeuronName = "2" targetNeuronName = "15" weight = "-0.3187477358108126" />
    <synapse sourceNeuronName = "2" targetNeuronName = "16" weight = "-0.8175129650191542" />
    <synapse sourceNeuronName = "3" targetNeuronName = "9" weight = "0.9285864393295984" />
    <synapse sourceNeuronName = "3" targetNeuronName = "10" weight = "-0.07238399785743921" />
    <synapse sourceNeuronName = "3" targetNeuronName = "11" weight = "0.8001924588028282" />
    <synapse sourceNeuronName = "3" targetNeuronName = "12" weight = "-0.7491663966235893" />
    <synapse sourceNeuronName = "3" targetNeuronName = "13" weight = "0.30987866126104" />
    <synapse sourceNeuronName = "3" targetNeuronName = "14" weight = "-0.8379431165942033" />
    <synapse sourceNeuronName = "3" targetNeuronName = "15" weight = "-0.6139217997437938" />
    <synapse sourceNeuronName = "3" targetNeuronName = "16" weight = "0.8079909241014194" />
    <synapse sourceNeuronName = "4" targetNeuronName = "9" weight = "-0.13198033042109536" />
    <synapse sourceNeuronName = "4" targetNeuronName = "10" weight = "0.12950029941139185" />
    <synapse sourceNeuronName = "4" targetNeuronName = "11" weight = "-0.3187475675050966" />
    <synapse sourceNeuronName = "4" targetNeuronName = "12" weight = "0.07666176278603043" />
    <synapse sourceNeuronName = "4" targetNeuronName = "13" weight = "-0.5134868922667166" />
    <synapse sourceNeuronName = "4" targetNeuronName = "14" weight = "-0.4056450457542655" />
    <synapse sourceNeuronName = "4" targetNeuronName = "15" weight = "-0.7768325748036786" />
    <synapse sourceNeuronName = "4" targetNeuronName = "16" weight = "0.3095342260365008" />
    <synapse sourceNeuronName = "5" targetNeuronName = "9" weight = "-0.3775165000879972" />
    <synapse sourceNeuronName = "5" targetNeuronName = "10" weight = "-0.9914326527870139" />
    <synapse sourceNeuronName = "5" targetNeuronName = "11" weight = "0.13037323655431465" />
    <synapse sourceNeuronName = "5" targetNeuronName = "12" weight = "0.6975858740085841" />
    <synapse sourceNeuronName = "5" targetNeuronName = "13" weight = "-0.5454415021457066" />
    <synapse sourceNeuronName = "5" targetNeuronName = "14" weight = "-0.9516298278799324" />
    <synapse sourceNeuronName = "5" targetNeuronName = "15" weight = "-0.284592320521488" />
    <synapse sourceNeuronName = "5" targetNeuronName = "16" weight = "-0.3601404893990845" />
    <synapse sourceNeuronName = "6" targetNeuronName = "9" weight = "0.47692555557995364" />
    <synapse sourceNeuronName = "6" targetNeuronName = "10" weight = "0.32486755976286497" />
    <synapse sourceNeuronName = "6" targetNeuronName = "11" weight = "-0.21609679383362557" />
    <synapse sourceNeuronName = "6" targetNeuronName = "12" weight = "0.2473861660262615" />
    <synapse sourceNeuronName = "6" targetNeuronName = "13" weight = "-0.8405685336647755" />
    <synapse sourceNeuronName = "6" targetNeuronName = "14" weight = "0.6962438750703579" />
    <synapse sourceNeuronName = "6" targetNeuronName = "15" weight = "0.9760851088853795" />
    <synapse sourceNeuronName = "6" targetNeuronName = "16" weight = "-0.3635019278866489" />
    <synapse sourceNeuronName = "7" targetNeuronName = "9" weight = "0.041475733149702654" />
    <synapse sourceNeuronName = "7" targetNeuronName = "10" weight = "0.6704815077437976" />
    <synapse sourceNeuronName = "7" targetNeuronName = "11" weight = "-0.9740108222634114" />
    <synapse sourceNeuronName = "7" targetNeuronName = "12" weight = "0.38875256535411395" />
    <synapse sourceNeuronName = "7" targetNeuronName = "13" weight = "0.28359702793543895" />
    <synapse sourceNeuronName = "7" targetNeuronName = "14" weight = "0.7203358051449349" />
    <synapse sourceNeuronName = "7" targetNeuronName = "15" weight = "-0.26302603242226263" />
    <synapse sourceNeuronName = "7" targetNeuronName = "16" weight = "-0.26842496608648525" />
    <synapse sourceNeuronName = "8" targetNeuronName = "9" weight = "0.5193526612868926" />
    <synapse sourceNeuronName = "8" targetNeuronName = "10" weight = "0.6282084688616107" />
    <synapse sourceNeuronName = "8" targetNeuronName = "11" weight = "0.7637942888285347" />
    <synapse sourceNeuronName = "8" targetNeuronName = "12" weight = "0.6796250967850814" />
    <synapse sourceNeuronName = "8" targetNeuronName = "13" weight = "-0.17007744438280126" />
    <synapse sourceNeuronName = "8" targetNeuronName = "14" weight = "-0.8317963743992611" />
    <synapse sourceNeuronName = "8" targetNeuronName = "15" weight = "-0.6673452500170656" />
    <synapse sourceNeuronName = "8" targetNeuronName = "16" weight = "-0.025541115271239034" />
</neuralNetwork>