<neuralNetwork>
    <neuron name = "0" type = "sensor" linkName = "Torso" />
    <neuron name = "1" type = "sensor" linkName = "BackLeg" />
    <neuron name = "2" type = "sensor" linkName = "FrontLeg" />
    <neuron name = "3" type = "sensor" linkName = "LeftLeg" />
    <neuron name = "4" type = "sensor" linkName = "RightLeg" />
    <neuron name = "5" type = "sensor" linkName = "BackLowerLeg" />
    <neuron name = "6" type = "sensor" linkName = "FrontLowerLeg" />
    <neuron name = "7" type = "sensor" linkName = "LeftLowerLeg" />
    <neuron name = "8" type = "sensor" linkName = "RightLowerLeg" />
    <neuron name = "9" type = "motor"  jointName = "Torso_BackLeg" />
    <neuron name = "10" type = "motor"  jointName = "Torso_FrontLeg" />
    <neuron name = "11" type = "motor"  jointName = "Torso_LeftLeg" />
    <neuron name = "12" type = "motor"  jointName = "Torso_RightLeg" />
    <neuron name = "13" type = "motor"  jointName = "BackLeg_BackLowerLeg" />
    <neuron name = "14" type = "motor"  jointName = "FrontLeg_FrontLowerLeg" />
    <neuron name = "15" type = "motor"  jointName = "LeftLeg_LeftLowerLeg" />
    <neuron name = "16" type = "motor"  jointName = "RightLeg_RightLowerLeg" />
    <synapse sourceNeuronName = "0" targetNeuronName = "9" weight = "-0.6295965230871499" />
    <synapse sourceNeuronName = "0" targetNeuronName = "10" weight = "-0.8455096331207144" />
    <synapse sourceNeuronName = "0" targetNeuronName = "11" weight = "0.14073016946488281" />
    <synapse sourceNeuronName = "0" targetNeuronName = "12" weight = "0.08322343543619981" />
    <synapse sourceNeuronName = "0" targetNeuronName = "13" weight = "-0.9776678446401361" />
    <synapse sourceNeuronName = "0" targetNeuronName = "14" weight = "-0.9762824050664134" />
    <synapse sourceNeuronName = "0" targetNeuronName = "15" weight = "-0.2509957893418664" />
    <synapse sourceNeuronName = "0" targetNeuronName = "16" weight = "0.7195977632403623" />
    <synapse sourceNeuronName = "1" targetNeuronName = "9" weight = "0.6175141996389093" />
    <synapse sourceNeuronName = "1" targetNeuronName = "10" weight = "-0.4474308961766522" />
    <synapse sourceNeuronName = "1" targetNeuronName = "11" weight = "0.35318479842493966" />
    <synapse sourceNeuronName = "1" targetNeuronName = "12" weight = "0.09163943030795063" />
    <synapse sourceNeuronName = "1" targetNeuronName = "13" weight = "0.6440660342175442" />
    <synapse sourceNeuronName = "1" targetNeuronName = "14" weight = "-0.435140962138177" />
    <synapse sourceNeuronName = "1" targetNeuronName = "15" weight = "0.42072422249382413" />
    <synapse sourceNeuronName = "1" targetNeuronName = "16" weight = "-0.9121450038517833" />
    <synapse sourceNeuronName = "2" targetNeuronName = "9" weight = "-0.3039647907511869" />
    <synapse sourceNeuronName = "2" targetNeuronName = "10" weight = "0.00678528878356599" />
    <synapse sourceNeuronName = "2" targetNeuronName = "11" weight = "0.6392271396429685" />
    <synapse sourceNeuronName = "2" targetNeuronName = "12" weight = "0.865693248182734" />
    <synapse sourceNeuronName = "2" targetNeuronName = "13" weight = "-0.3617575006440745" />
    <synapse sourceNeuronName = "2" targetNeuronName = "14" weight = "0.2593717310278467" />
    <synapse sourceNeuronName = "2" targetNeuronName = "15" weight = "-0.7772099795463991" />
    <synapse sourceNeuronName = "2" targetNeuronName = "16" weight = "0.1979227402039987" />
    <synapse sourceNeuronName = "3" targetNeuronName = "9" weight = "-0.7709281582735252" />
    <synapse sourceNeuronName = "3" targetNeuronName = "10" weight = "-0.8713553191732144" />
    <synapse sourceNeuronName = "3" targetNeuronName = "11" weight = "0.3979146599803898" />
    <synapse sourceNeuronName = "3" targetNeuronName = "12" weight = "-0.35552266211075345" />
    <synapse sourceNeuronName = "3" targetNeuronName = "13" weight = "-0.9758374868387198" />
    <synapse sourceNeuronName = "3" targetNeuronName = "14" weight = "0.96158286634383" />
    <synapse sourceNeuronName = "3" targetNeuronName = "15" weight = "0.7519743725108312" />
    <synapse sourceNeuronName = "3" targetNeuronName = "16" weight = "0.057347416894892644" />
    <synapse sourceNeuronName = "4" targetNeuronName = "9" weight = "0.472004355230377" />
    <synapse sourceNeuronName = "4" targetNeuronName = "10" weight = "-0.778775988812513" />
    <synapse sourceNeuronName = "4" targetNeuronName = "11" weight = "-0.8238529862794393" />
    <synapse sourceNeuronName = "4" targetNeuronName = "12" weight = "-0.7557924256211921" />
    <synapse sourceNeuronName = "4" targetNeuronName = "13" weight = "0.000700547431964349" />
    <synapse sourceNeuronName = "4" targetNeuronName = "14" weight = "-0.29784789887881225" />
    <synapse sourceNeuronName = "4" targetNeuronName = "15" weight = "-0.8801246758416166" />
    <synapse sourceNeuronName = "4" targetNeuronName = "16" weight = "-0.9708404396136372" />
    <synapse sourceNeuronName = "5" targetNeuronName = "9" weight = "0.10701893023106845" />
    <synapse sourceNeuronName = "5" targetNeuronName = "10" weight = "0.15674046858575919" />
    <synapse sourceNeuronName = "5" targetNeuronName = "11" weight = "0.5258753438014256" />
    <synapse sourceNeuronName = "5" targetNeuronName = "12" weight = "0.03851307188963249" />
    <synapse sourceNeuronName = "5" targetNeuronName = "13" weight = "-0.9963916955063714" />
    <synapse sourceNeuronName = "5" targetNeuronName = "14" weight = "0.927427075856246" />
    <synapse sourceNeuronName = "5" targetNeuronName = "15" weight = "0.37211169536958333" />
    <synapse sourceNeuronName = "5" targetNeuronName = "16" weight = "0.8003262238627518" />
    <synapse sourceNeuronName = "6" targetNeuronName = "9" weight = "-0.9713224671417195" />
    <synapse sourceNeuronName = "6" targetNeuronName = "10" weight = "0.4653501820546708" />
    <synapse sourceNeuronName = "6" targetNeuronName = "11" weight = "-0.5087793899743942" />
    <synapse sourceNeuronName = "6" targetNeuronName = "12" weight = "-0.21893603307756204" />
    <synapse sourceNeuronName = "6" targetNeuronName = "13" weight = "-0.18150266657920144" />
    <synapse sourceNeuronName = "6" targetNeuronName = "14" weight = "-0.016252335463111667" />
    <synapse sourceNeuronName = "6" targetNeuronName = "15" weight = "-0.23428722144159053" />
    <synapse sourceNeuronName = "6" targetNeuronName = "16" weight = "0.7572549444872285" />
    <synapse sourceNeuronName = "7" targetNeuronName = "9" weight = "-0.629538593004596" />
    <synapse sourceNeuronName = "7" targetNeuronName = "10" weight = "-0.6861529649700673" />
    <synapse sourceNeuronName = "7" targetNeuronName = "11" weight = "-0.5723634456229172" />
    <synapse sourceNeuronName = "7" targetNeuronName = "12" weight = "-0.17320542318662047" />
    <synapse sourceNeuronName = "7" targetNeuronName = "13" weight = "0.7911278254316463" />
    <synapse sourceNeuronName = "7" targetNeuronName = "14" weight = "-0.24689453845112563" />
    <synapse sourceNeuronName = "7" targetNeuronName = "15" weight = "-0.5308404091718142" />
    <synapse sourceNeuronName = "7" targetNeuronName = "16" weight = "-0.8034571736333158" />
    <synapse sourceNeuronName = "8" targetNeuronName = "9" weight = "-0.9494712220073407" />
    <synapse sourceNeuronName = "8" targetNeuronName = "10" weight = "-0.13757145822326722" />
    <synapse sourceNeuronName = "8" targetNeuronName = "11" weight = "0.10447359378799526" />
    <synapse sourceNeuronName = "8" targetNeuronName = "12" weight = "0.7693444557224074" />
    <synapse sourceNeuronName = "8" targetNeuronName = "13" weight = "0.0338059314957706" />
    <synapse sourceNeuronName = "8" targetNeuronName = "14" weight = "-0.029275884799328633" />
    <synapse sourceNeuronName = "8" targetNeuronName = "15" weight = "-0.70850854416732" />
    <synapse sourceNeuronName = "8" targetNeuronName = "16" weight = "-0.11687045389205952" />
</neuralNetwork>