<neuralNetwork>
    <neuron name = "0" type = "sensor" linkName = "Torso" />
    <neuron name = "1" type = "sensor" linkName = "BackLeg" />
    <neuron name = "2" type = "sensor" linkName = "FrontLeg" />
    <neuron name = "3" type = "sensor" linkName = "LeftLeg" />
    <neuron name = "4" type = "sensor" linkName = "RightLeg" />
    <neuron name = "5" type = "sensor" linkName = "BackLowerLeg" />
    <neuron name = "6" type = "sensor" linkName = "FrontLowerLeg" />
    <neuron name = "7" type = "sensor" linkName = "LeftLowerLeg" />
    <neuron name = "8" type = "sensor" linkName = "RightLowerLeg" />
    <neuron name = "9" type = "motor"  jointName = "Torso_BackLeg" />
    <neuron name = "10" type = "motor"  jointName = "Torso_FrontLeg" />
    <neuron name = "11" type = "motor"  jointName = "Torso_LeftLeg" />
    <neuron name = "12" type = "motor"  jointName = "Torso_RightLeg" />
    <neuron name = "13" type = "motor"  jointName = "BackLeg_BackLowerLeg" />
    <neuron name = "14" type = "motor"  jointName = "FrontLeg_FrontLowerLeg" />
    <neuron name = "15" type = "motor"  jointName = "LeftLeg_LeftLowerLeg" />
    <neuron name = "16" type = "motor"  jointName = "RightLeg_RightLowerLeg" />
    <synapse sourceNeuronName = "0" targetNeuronName = "9" weight = "0.9799733184098642" />
    <synapse sourceNeuronName = "0" targetNeuronName = "10" weight = "-0.6328367473196075" />
    <synapse sourceNeuronName = "0" targetNeuronName = "11" weight = "0.6051087572101939" />
    <synapse sourceNeuronName = "0" targetNeuronName = "12" weight = "-0.677178249411734" />
    <synapse sourceNeuronName = "0" targetNeuronName = "13" weight = "-0.1537941439677204" />
    <synapse sourceNeuronName = "0" targetNeuronName = "14" weight = "-0.3291634898426363" />
    <synapse sourceNeuronName = "0" targetNeuronName = "15" weight = "0.5852355917739169" />
    <synapse sourceNeuronName = "0" targetNeuronName = "16" weight = "0.9585421405243606" />
    <synapse sourceNeuronName = "1" targetNeuronName = "9" weight = "0.9083520247434447" />
    <synapse sourceNeuronName = "1" targetNeuronName = "10" weight = "-0.2500687648533195" />
    <synapse sourceNeuronName = "1" targetNeuronName = "11" weight = "-0.952200593774962" />
    <synapse sourceNeuronName = "1" targetNeuronName = "12" weight = "0.6355605670993933" />
    <synapse sourceNeuronName = "1" targetNeuronName = "13" weight = "0.4497069643274274" />
    <synapse sourceNeuronName = "1" targetNeuronName = "14" weight = "0.21746836321204865" />
    <synapse sourceNeuronName = "1" targetNeuronName = "15" weight = "-0.582272358191517" />
    <synapse sourceNeuronName = "1" targetNeuronName = "16" weight = "0.12737723391102374" />
    <synapse sourceNeuronName = "2" targetNeuronName = "9" weight = "0.9740205419848138" />
    <synapse sourceNeuronName = "2" targetNeuronName = "10" weight = "0.5173176120302974" />
    <synapse sourceNeuronName = "2" targetNeuronName = "11" weight = "-0.6548893639835647" />
    <synapse sourceNeuronName = "2" targetNeuronName = "12" weight = "-0.8151689579388735" />
    <synapse sourceNeuronName = "2" targetNeuronName = "13" weight = "0.18232225600775243" />
    <synapse sourceNeuronName = "2" targetNeuronName = "14" weight = "0.11350298687901272" />
    <synapse sourceNeuronName = "2" targetNeuronName = "15" weight = "0.2704532252923417" />
    <synapse sourceNeuronName = "2" targetNeuronName = "16" weight = "0.9048099634811309" />
    <synapse sourceNeuronName = "3" targetNeuronName = "9" weight = "0.9455459135520408" />
    <synapse sourceNeuronName = "3" targetNeuronName = "10" weight = "0.9286822919992896" />
    <synapse sourceNeuronName = "3" targetNeuronName = "11" weight = "-0.22937390837135574" />
    <synapse sourceNeuronName = "3" targetNeuronName = "12" weight = "0.66999139785365" />
    <synapse sourceNeuronName = "3" targetNeuronName = "13" weight = "0.1179537099736312" />
    <synapse sourceNeuronName = "3" targetNeuronName = "14" weight = "-0.8609149815323474" />
    <synapse sourceNeuronName = "3" targetNeuronName = "15" weight = "-0.4980691943604052" />
    <synapse sourceNeuronName = "3" targetNeuronName = "16" weight = "-0.3452114706713969" />
    <synapse sourceNeuronName = "4" targetNeuronName = "9" weight = "0.8761892744510187" />
    <synapse sourceNeuronName = "4" targetNeuronName = "10" weight = "0.8752468583811763" />
    <synapse sourceNeuronName = "4" targetNeuronName = "11" weight = "-0.08532577526227847" />
    <synapse sourceNeuronName = "4" targetNeuronName = "12" weight = "0.4403727105156696" />
    <synapse sourceNeuronName = "4" targetNeuronName = "13" weight = "0.8336739935320128" />
    <synapse sourceNeuronName = "4" targetNeuronName = "14" weight = "-0.6722050943403919" />
    <synapse sourceNeuronName = "4" targetNeuronName = "15" weight = "0.10745687706713425" />
    <synapse sourceNeuronName = "4" targetNeuronName = "16" weight = "-0.9695597306863912" />
    <synapse sourceNeuronName = "5" targetNeuronName = "9" weight = "0.6322889910985723" />
    <synapse sourceNeuronName = "5" targetNeuronName = "10" weight = "-0.2319556875686506" />
    <synapse sourceNeuronName = "5" targetNeuronName = "11" weight = "-0.5832248586377347" />
    <synapse sourceNeuronName = "5" targetNeuronName = "12" weight = "0.04297158076099383" />
    <synapse sourceNeuronName = "5" targetNeuronName = "13" weight = "0.676801466936199" />
    <synapse sourceNeuronName = "5" targetNeuronName = "14" weight = "-0.1645743770284256" />
    <synapse sourceNeuronName = "5" targetNeuronName = "15" weight = "0.7223317615357674" />
    <synapse sourceNeuronName = "5" targetNeuronName = "16" weight = "0.03721914701689788" />
    <synapse sourceNeuronName = "6" targetNeuronName = "9" weight = "-0.2785749799656738" />
    <synapse sourceNeuronName = "6" targetNeuronName = "10" weight = "0.3450548359846859" />
    <synapse sourceNeuronName = "6" targetNeuronName = "11" weight = "-0.6753790436425711" />
    <synapse sourceNeuronName = "6" targetNeuronName = "12" weight = "-0.47440435592571495" />
    <synapse sourceNeuronName = "6" targetNeuronName = "13" weight = "-0.11031970115289025" />
    <synapse sourceNeuronName = "6" targetNeuronName = "14" weight = "0.8262190592033594" />
    <synapse sourceNeuronName = "6" targetNeuronName = "15" weight = "0.3524121517653789" />
    <synapse sourceNeuronName = "6" targetNeuronName = "16" weight = "0.8725975159430723" />
    <synapse sourceNeuronName = "7" targetNeuronName = "9" weight = "0.19427257090321448" />
    <synapse sourceNeuronName = "7" targetNeuronName = "10" weight = "0.9368486915007759" />
    <synapse sourceNeuronName = "7" targetNeuronName = "11" weight = "-0.279671415675945" />
    <synapse sourceNeuronName = "7" targetNeuronName = "12" weight = "-0.6212507696307987" />
    <synapse sourceNeuronName = "7" targetNeuronName = "13" weight = "-0.04145806269472985" />
    <synapse sourceNeuronName = "7" targetNeuronName = "14" weight = "0.19716378414803892" />
    <synapse sourceNeuronName = "7" targetNeuronName = "15" weight = "-0.7999437461393464" />
    <synapse sourceNeuronName = "7" targetNeuronName = "16" weight = "0.10868973155948969" />
    <synapse sourceNeuronName = "8" targetNeuronName = "9" weight = "-0.731375228966213" />
    <synapse sourceNeuronName = "8" targetNeuronName = "10" weight = "0.35041617487412946" />
    <synapse sourceNeuronName = "8" targetNeuronName = "11" weight = "-0.9733260352118924" />
    <synapse sourceNeuronName = "8" targetNeuronName = "12" weight = "0.45362947724775826" />
    <synapse sourceNeuronName = "8" targetNeuronName = "13" weight = "-0.24188754556776582" />
    <synapse sourceNeuronName = "8" targetNeuronName = "14" weight = "-0.9144842344266739" />
    <synapse sourceNeuronName = "8" targetNeuronName = "15" weight = "-0.02062305156531341" />
    <synapse sourceNeuronName = "8" targetNeuronName = "16" weight = "-0.9366367831894697" />
</neuralNetwork>