<neuralNetwork>
    <neuron name = "0" type = "sensor" linkName = "Torso" />
    <neuron name = "1" type = "sensor" linkName = "BackLeg" />
    <neuron name = "2" type = "sensor" linkName = "FrontLeg" />
    <neuron name = "3" type = "sensor" linkName = "LeftLeg" />
    <neuron name = "4" type = "sensor" linkName = "RightLeg" />
    <neuron name = "5" type = "sensor" linkName = "BackLowerLeg" />
    <neuron name = "6" type = "sensor" linkName = "FrontLowerLeg" />
    <neuron name = "7" type = "sensor" linkName = "LeftLowerLeg" />
    <neuron name = "8" type = "sensor" linkName = "RightLowerLeg" />
    <neuron name = "9" type = "motor"  jointName = "Torso_BackLeg" />
    <neuron name = "10" type = "motor"  jointName = "Torso_FrontLeg" />
    <neuron name = "11" type = "motor"  jointName = "Torso_LeftLeg" />
    <neuron name = "12" type = "motor"  jointName = "Torso_RightLeg" />
    <neuron name = "13" type = "motor"  jointName = "BackLeg_BackLowerLeg" />
    <neuron name = "14" type = "motor"  jointName = "FrontLeg_FrontLowerLeg" />
    <neuron name = "15" type = "motor"  jointName = "LeftLeg_LeftLowerLeg" />
    <neuron name = "16" type = "motor"  jointName = "RightLeg_RightLowerLeg" />
    <synapse sourceNeuronName = "0" targetNeuronName = "9" weight = "0.5786847188557893" />
    <synapse sourceNeuronName = "0" targetNeuronName = "10" weight = "0.8820400524205116" />
    <synapse sourceNeuronName = "0" targetNeuronName = "11" weight = "-0.9633645462967171" />
    <synapse sourceNeuronName = "0" targetNeuronName = "12" weight = "0.15265977777857498" />
    <synapse sourceNeuronName = "0" targetNeuronName = "13" weight = "-0.6381404636636507" />
    <synapse sourceNeuronName = "0" targetNeuronName = "14" weight = "0.06927384393061709" />
    <synapse sourceNeuronName = "0" targetNeuronName = "15" weight = "0.4623992727139128" />
    <synapse sourceNeuronName = "0" targetNeuronName = "16" weight = "-0.04598330708246223" />
    <synapse sourceNeuronName = "1" targetNeuronName = "9" weight = "-0.5128446254907442" />
    <synapse sourceNeuronName = "1" targetNeuronName = "10" weight = "-0.9095273128311727" />
    <synapse sourceNeuronName = "1" targetNeuronName = "11" weight = "-0.19169578124349007" />
    <synapse sourceNeuronName = "1" targetNeuronName = "12" weight = "0.7809146677700614" />
    <synapse sourceNeuronName = "1" targetNeuronName = "13" weight = "-0.2996296282592188" />
    <synapse sourceNeuronName = "1" targetNeuronName = "14" weight = "0.4975568187533279" />
    <synapse sourceNeuronName = "1" targetNeuronName = "15" weight = "-0.8942438800857309" />
    <synapse sourceNeuronName = "1" targetNeuronName = "16" weight = "0.37713083121486135" />
    <synapse sourceNeuronName = "2" targetNeuronName = "9" weight = "0.31540469287747985" />
    <synapse sourceNeuronName = "2" targetNeuronName = "10" weight = "0.49629301662353753" />
    <synapse sourceNeuronName = "2" targetNeuronName = "11" weight = "0.408607179364884" />
    <synapse sourceNeuronName = "2" targetNeuronName = "12" weight = "-0.6335792870404235" />
    <synapse sourceNeuronName = "2" targetNeuronName = "13" weight = "0.3585357431602032" />
    <synapse sourceNeuronName = "2" targetNeuronName = "14" weight = "0.9894867692525198" />
    <synapse sourceNeuronName = "2" targetNeuronName = "15" weight = "0.9639866366315706" />
    <synapse sourceNeuronName = "2" targetNeuronName = "16" weight = "0.6437678831880091" />
    <synapse sourceNeuronName = "3" targetNeuronName = "9" weight = "0.37505789680143864" />
    <synapse sourceNeuronName = "3" targetNeuronName = "10" weight = "0.014474171211524611" />
    <synapse sourceNeuronName = "3" targetNeuronName = "11" weight = "-0.25544217511386713" />
    <synapse sourceNeuronName = "3" targetNeuronName = "12" weight = "-0.19020050464892435" />
    <synapse sourceNeuronName = "3" targetNeuronName = "13" weight = "0.3119209792459694" />
    <synapse sourceNeuronName = "3" targetNeuronName = "14" weight = "-0.9380204960334639" />
    <synapse sourceNeuronName = "3" targetNeuronName = "15" weight = "0.4036963481911662" />
    <synapse sourceNeuronName = "3" targetNeuronName = "16" weight = "0.571088565018385" />
    <synapse sourceNeuronName = "4" targetNeuronName = "9" weight = "0.6606679777786213" />
    <synapse sourceNeuronName = "4" targetNeuronName = "10" weight = "-0.008079381259194163" />
    <synapse sourceNeuronName = "4" targetNeuronName = "11" weight = "-0.7759971140826403" />
    <synapse sourceNeuronName = "4" targetNeuronName = "12" weight = "-0.7124115979760697" />
    <synapse sourceNeuronName = "4" targetNeuronName = "13" weight = "-0.4095569674968247" />
    <synapse sourceNeuronName = "4" targetNeuronName = "14" weight = "-0.6630341704274023" />
    <synapse sourceNeuronName = "4" targetNeuronName = "15" weight = "0.026453693740429163" />
    <synapse sourceNeuronName = "4" targetNeuronName = "16" weight = "-0.39246801571838885" />
    <synapse sourceNeuronName = "5" targetNeuronName = "9" weight = "-0.36341702370639717" />
    <synapse sourceNeuronName = "5" targetNeuronName = "10" weight = "0.061588000837910384" />
    <synapse sourceNeuronName = "5" targetNeuronName = "11" weight = "0.5350623607884024" />
    <synapse sourceNeuronName = "5" targetNeuronName = "12" weight = "0.6057900705016608" />
    <synapse sourceNeuronName = "5" targetNeuronName = "13" weight = "-0.6768471654694794" />
    <synapse sourceNeuronName = "5" targetNeuronName = "14" weight = "0.19832866552835493" />
    <synapse sourceNeuronName = "5" targetNeuronName = "15" weight = "-0.7752149358934004" />
    <synapse sourceNeuronName = "5" targetNeuronName = "16" weight = "-0.5142503946327286" />
    <synapse sourceNeuronName = "6" targetNeuronName = "9" weight = "0.8852022525826555" />
    <synapse sourceNeuronName = "6" targetNeuronName = "10" weight = "0.049438628258433814" />
    <synapse sourceNeuronName = "6" targetNeuronName = "11" weight = "-0.6535253270210661" />
    <synapse sourceNeuronName = "6" targetNeuronName = "12" weight = "0.3088210767774269" />
    <synapse sourceNeuronName = "6" targetNeuronName = "13" weight = "0.15970430414106107" />
    <synapse sourceNeuronName = "6" targetNeuronName = "14" weight = "-0.5094957462963439" />
    <synapse sourceNeuronName = "6" targetNeuronName = "15" weight = "0.8217430994623605" />
    <synapse sourceNeuronName = "6" targetNeuronName = "16" weight = "-0.540328300475204" />
    <synapse sourceNeuronName = "7" targetNeuronName = "9" weight = "-0.6416648969401961" />
    <synapse sourceNeuronName = "7" targetNeuronName = "10" weight = "-0.3105388074847104" />
    <synapse sourceNeuronName = "7" targetNeuronName = "11" weight = "-0.8986141946016999" />
    <synapse sourceNeuronName = "7" targetNeuronName = "12" weight = "0.2096502552684414" />
    <synapse sourceNeuronName = "7" targetNeuronName = "13" weight = "0.407942690725996" />
    <synapse sourceNeuronName = "7" targetNeuronName = "14" weight = "0.7295377805526417" />
    <synapse sourceNeuronName = "7" targetNeuronName = "15" weight = "0.4852534293424535" />
    <synapse sourceNeuronName = "7" targetNeuronName = "16" weight = "0.6987837266534203" />
    <synapse sourceNeuronName = "8" targetNeuronName = "9" weight = "0.8955386008944026" />
    <synapse sourceNeuronName = "8" targetNeuronName = "10" weight = "0.7773886009788817" />
    <synapse sourceNeuronName = "8" targetNeuronName = "11" weight = "-0.8830104531301077" />
    <synapse sourceNeuronName = "8" targetNeuronName = "12" weight = "0.4004574935603147" />
    <synapse sourceNeuronName = "8" targetNeuronName = "13" weight = "0.43815790915509156" />
    <synapse sourceNeuronName = "8" targetNeuronName = "14" weight = "0.3053951768793999" />
    <synapse sourceNeuronName = "8" targetNeuronName = "15" weight = "-0.5677289384199042" />
    <synapse sourceNeuronName = "8" targetNeuronName = "16" weight = "-0.6011988076624717" />
</neuralNetwork>