<neuralNetwork>
    <neuron name = "0" type = "sensor" linkName = "Torso" />
    <neuron name = "1" type = "sensor" linkName = "BackLeg" />
    <neuron name = "2" type = "sensor" linkName = "FrontLeg" />
    <neuron name = "3" type = "sensor" linkName = "LeftLeg" />
    <neuron name = "4" type = "sensor" linkName = "RightLeg" />
    <neuron name = "5" type = "sensor" linkName = "BackLowerLeg" />
    <neuron name = "6" type = "sensor" linkName = "FrontLowerLeg" />
    <neuron name = "7" type = "sensor" linkName = "LeftLowerLeg" />
    <neuron name = "8" type = "sensor" linkName = "RightLowerLeg" />
    <neuron name = "9" type = "motor"  jointName = "Torso_BackLeg" />
    <neuron name = "10" type = "motor"  jointName = "Torso_FrontLeg" />
    <neuron name = "11" type = "motor"  jointName = "Torso_LeftLeg" />
    <neuron name = "12" type = "motor"  jointName = "Torso_RightLeg" />
    <neuron name = "13" type = "motor"  jointName = "BackLeg_BackLowerLeg" />
    <neuron name = "14" type = "motor"  jointName = "FrontLeg_FrontLowerLeg" />
    <neuron name = "15" type = "motor"  jointName = "LeftLeg_LeftLowerLeg" />
    <neuron name = "16" type = "motor"  jointName = "RightLeg_RightLowerLeg" />
    <synapse sourceNeuronName = "0" targetNeuronName = "9" weight = "0.23293765977743353" />
    <synapse sourceNeuronName = "0" targetNeuronName = "10" weight = "0.9320676083403743" />
    <synapse sourceNeuronName = "0" targetNeuronName = "11" weight = "0.6723677553705978" />
    <synapse sourceNeuronName = "0" targetNeuronName = "12" weight = "-0.35002146310481197" />
    <synapse sourceNeuronName = "0" targetNeuronName = "13" weight = "-0.7700122131311353" />
    <synapse sourceNeuronName = "0" targetNeuronName = "14" weight = "0.508574400569594" />
    <synapse sourceNeuronName = "0" targetNeuronName = "15" weight = "-0.2597352145403644" />
    <synapse sourceNeuronName = "0" targetNeuronName = "16" weight = "-0.05884402327890914" />
    <synapse sourceNeuronName = "1" targetNeuronName = "9" weight = "0.5934361594853177" />
    <synapse sourceNeuronName = "1" targetNeuronName = "10" weight = "-0.01710105448729493" />
    <synapse sourceNeuronName = "1" targetNeuronName = "11" weight = "0.6098644584797692" />
    <synapse sourceNeuronName = "1" targetNeuronName = "12" weight = "0.9611559911103014" />
    <synapse sourceNeuronName = "1" targetNeuronName = "13" weight = "0.5280434014133586" />
    <synapse sourceNeuronName = "1" targetNeuronName = "14" weight = "0.16485087874958704" />
    <synapse sourceNeuronName = "1" targetNeuronName = "15" weight = "-0.905483786996049" />
    <synapse sourceNeuronName = "1" targetNeuronName = "16" weight = "-0.9201375003804118" />
    <synapse sourceNeuronName = "2" targetNeuronName = "9" weight = "-0.19086986452254684" />
    <synapse sourceNeuronName = "2" targetNeuronName = "10" weight = "-0.2570572610678945" />
    <synapse sourceNeuronName = "2" targetNeuronName = "11" weight = "0.7578271239261931" />
    <synapse sourceNeuronName = "2" targetNeuronName = "12" weight = "0.5972773559194495" />
    <synapse sourceNeuronName = "2" targetNeuronName = "13" weight = "0.35892065391828787" />
    <synapse sourceNeuronName = "2" targetNeuronName = "14" weight = "-0.9594223824692947" />
    <synapse sourceNeuronName = "2" targetNeuronName = "15" weight = "0.33014067099835853" />
    <synapse sourceNeuronName = "2" targetNeuronName = "16" weight = "0.552856374465734" />
    <synapse sourceNeuronName = "3" targetNeuronName = "9" weight = "-0.09098881329113473" />
    <synapse sourceNeuronName = "3" targetNeuronName = "10" weight = "-0.6841231086433819" />
    <synapse sourceNeuronName = "3" targetNeuronName = "11" weight = "-0.2789547405216639" />
    <synapse sourceNeuronName = "3" targetNeuronName = "12" weight = "-0.9122407972318674" />
    <synapse sourceNeuronName = "3" targetNeuronName = "13" weight = "-0.12311052719937932" />
    <synapse sourceNeuronName = "3" targetNeuronName = "14" weight = "-0.4182291953038839" />
    <synapse sourceNeuronName = "3" targetNeuronName = "15" weight = "-0.5054636864815505" />
    <synapse sourceNeuronName = "3" targetNeuronName = "16" weight = "-0.5044114778544282" />
    <synapse sourceNeuronName = "4" targetNeuronName = "9" weight = "-0.013401729165428478" />
    <synapse sourceNeuronName = "4" targetNeuronName = "10" weight = "0.9745806056445108" />
    <synapse sourceNeuronName = "4" targetNeuronName = "11" weight = "-0.3884178683715711" />
    <synapse sourceNeuronName = "4" targetNeuronName = "12" weight = "-0.4888519511061642" />
    <synapse sourceNeuronName = "4" targetNeuronName = "13" weight = "0.21785569009661176" />
    <synapse sourceNeuronName = "4" targetNeuronName = "14" weight = "-0.3759837668303889" />
    <synapse sourceNeuronName = "4" targetNeuronName = "15" weight = "0.6371972481582644" />
    <synapse sourceNeuronName = "4" targetNeuronName = "16" weight = "-0.2957073836498403" />
    <synapse sourceNeuronName = "5" targetNeuronName = "9" weight = "-0.7876019258286286" />
    <synapse sourceNeuronName = "5" targetNeuronName = "10" weight = "0.647717138608648" />
    <synapse sourceNeuronName = "5" targetNeuronName = "11" weight = "-0.4682563295874602" />
    <synapse sourceNeuronName = "5" targetNeuronName = "12" weight = "0.21061710336986916" />
    <synapse sourceNeuronName = "5" targetNeuronName = "13" weight = "0.8859429812422763" />
    <synapse sourceNeuronName = "5" targetNeuronName = "14" weight = "0.20475438755601982" />
    <synapse sourceNeuronName = "5" targetNeuronName = "15" weight = "0.5169031770116463" />
    <synapse sourceNeuronName = "5" targetNeuronName = "16" weight = "-0.6165145807781589" />
    <synapse sourceNeuronName = "6" targetNeuronName = "9" weight = "0.4981617787413881" />
    <synapse sourceNeuronName = "6" targetNeuronName = "10" weight = "0.29429335101551857" />
    <synapse sourceNeuronName = "6" targetNeuronName = "11" weight = "-0.7660097358154583" />
    <synapse sourceNeuronName = "6" targetNeuronName = "12" weight = "0.7888544242662814" />
    <synapse sourceNeuronName = "6" targetNeuronName = "13" weight = "0.4912223011393426" />
    <synapse sourceNeuronName = "6" targetNeuronName = "14" weight = "-0.006608002424606019" />
    <synapse sourceNeuronName = "6" targetNeuronName = "15" weight = "-0.7219243874999057" />
    <synapse sourceNeuronName = "6" targetNeuronName = "16" weight = "0.6651868506321028" />
    <synapse sourceNeuronName = "7" targetNeuronName = "9" weight = "-0.5366073842130181" />
    <synapse sourceNeuronName = "7" targetNeuronName = "10" weight = "-0.7315952627779154" />
    <synapse sourceNeuronName = "7" targetNeuronName = "11" weight = "-0.9559839327332307" />
    <synapse sourceNeuronName = "7" targetNeuronName = "12" weight = "0.5475556041096981" />
    <synapse sourceNeuronName = "7" targetNeuronName = "13" weight = "-0.16736929632381092" />
    <synapse sourceNeuronName = "7" targetNeuronName = "14" weight = "0.7981521318006766" />
    <synapse sourceNeuronName = "7" targetNeuronName = "15" weight = "0.18782562974408545" />
    <synapse sourceNeuronName = "7" targetNeuronName = "16" weight = "-0.30791914302543266" />
    <synapse sourceNeuronName = "8" targetNeuronName = "9" weight = "0.362092447996456" />
    <synapse sourceNeuronName = "8" targetNeuronName = "10" weight = "-0.7515104212253869" />
    <synapse sourceNeuronName = "8" targetNeuronName = "11" weight = "-0.06303205439976645" />
    <synapse sourceNeuronName = "8" targetNeuronName = "12" weight = "0.8670280822777654" />
    <synapse sourceNeuronName = "8" targetNeuronName = "13" weight = "-0.8738414375964261" />
    <synapse sourceNeuronName = "8" targetNeuronName = "14" weight = "0.44755306320608246" />
    <synapse sourceNeuronName = "8" targetNeuronName = "15" weight = "-0.06887295348839961" />
    <synapse sourceNeuronName = "8" targetNeuronName = "16" weight = "-0.9242410590243815" />
</neuralNetwork>