<neuralNetwork>
    <neuron name = "0" type = "sensor" linkName = "Torso" />
    <neuron name = "1" type = "sensor" linkName = "BackLeg" />
    <neuron name = "2" type = "sensor" linkName = "FrontLeg" />
    <neuron name = "3" type = "sensor" linkName = "LeftLeg" />
    <neuron name = "4" type = "sensor" linkName = "RightLeg" />
    <neuron name = "5" type = "sensor" linkName = "BackLowerLeg" />
    <neuron name = "6" type = "sensor" linkName = "FrontLowerLeg" />
    <neuron name = "7" type = "sensor" linkName = "LeftLowerLeg" />
    <neuron name = "8" type = "sensor" linkName = "RightLowerLeg" />
    <neuron name = "9" type = "motor"  jointName = "Torso_BackLeg" />
    <neuron name = "10" type = "motor"  jointName = "Torso_FrontLeg" />
    <neuron name = "11" type = "motor"  jointName = "Torso_LeftLeg" />
    <neuron name = "12" type = "motor"  jointName = "Torso_RightLeg" />
    <neuron name = "13" type = "motor"  jointName = "BackLeg_BackLowerLeg" />
    <neuron name = "14" type = "motor"  jointName = "FrontLeg_FrontLowerLeg" />
    <neuron name = "15" type = "motor"  jointName = "LeftLeg_LeftLowerLeg" />
    <neuron name = "16" type = "motor"  jointName = "RightLeg_RightLowerLeg" />
    <synapse sourceNeuronName = "0" targetNeuronName = "9" weight = "-0.0032466392390588794" />
    <synapse sourceNeuronName = "0" targetNeuronName = "10" weight = "0.8119705874066192" />
    <synapse sourceNeuronName = "0" targetNeuronName = "11" weight = "0.8671629873219218" />
    <synapse sourceNeuronName = "0" targetNeuronName = "12" weight = "-0.8446379447095176" />
    <synapse sourceNeuronName = "0" targetNeuronName = "13" weight = "-0.5916936296329878" />
    <synapse sourceNeuronName = "0" targetNeuronName = "14" weight = "0.35942737035773376" />
    <synapse sourceNeuronName = "0" targetNeuronName = "15" weight = "-0.7605428464598718" />
    <synapse sourceNeuronName = "0" targetNeuronName = "16" weight = "-0.28262036595972195" />
    <synapse sourceNeuronName = "1" targetNeuronName = "9" weight = "0.03700893902125846" />
    <synapse sourceNeuronName = "1" targetNeuronName = "10" weight = "0.2064579266335973" />
    <synapse sourceNeuronName = "1" targetNeuronName = "11" weight = "0.601142804699577" />
    <synapse sourceNeuronName = "1" targetNeuronName = "12" weight = "-0.15328137436545708" />
    <synapse sourceNeuronName = "1" targetNeuronName = "13" weight = "-0.8839620588804569" />
    <synapse sourceNeuronName = "1" targetNeuronName = "14" weight = "-0.8403479420567732" />
    <synapse sourceNeuronName = "1" targetNeuronName = "15" weight = "-0.00870320511322964" />
    <synapse sourceNeuronName = "1" targetNeuronName = "16" weight = "0.47365681051131214" />
    <synapse sourceNeuronName = "2" targetNeuronName = "9" weight = "0.3913822300208336" />
    <synapse sourceNeuronName = "2" targetNeuronName = "10" weight = "0.6833358706830026" />
    <synapse sourceNeuronName = "2" targetNeuronName = "11" weight = "0.9744806842282043" />
    <synapse sourceNeuronName = "2" targetNeuronName = "12" weight = "0.34019707419451284" />
    <synapse sourceNeuronName = "2" targetNeuronName = "13" weight = "0.251744286001516" />
    <synapse sourceNeuronName = "2" targetNeuronName = "14" weight = "-0.989819525117434" />
    <synapse sourceNeuronName = "2" targetNeuronName = "15" weight = "0.3730384100805" />
    <synapse sourceNeuronName = "2" targetNeuronName = "16" weight = "0.8701755791316825" />
    <synapse sourceNeuronName = "3" targetNeuronName = "9" weight = "0.23079943645544687" />
    <synapse sourceNeuronName = "3" targetNeuronName = "10" weight = "0.2548920947106219" />
    <synapse sourceNeuronName = "3" targetNeuronName = "11" weight = "-0.39607509414752884" />
    <synapse sourceNeuronName = "3" targetNeuronName = "12" weight = "-0.3623596152282502" />
    <synapse sourceNeuronName = "3" targetNeuronName = "13" weight = "-0.0033645249698315283" />
    <synapse sourceNeuronName = "3" targetNeuronName = "14" weight = "-0.9233564543878148" />
    <synapse sourceNeuronName = "3" targetNeuronName = "15" weight = "-0.3775954838284714" />
    <synapse sourceNeuronName = "3" targetNeuronName = "16" weight = "0.5277232170148878" />
    <synapse sourceNeuronName = "4" targetNeuronName = "9" weight = "-0.008194811836615079" />
    <synapse sourceNeuronName = "4" targetNeuronName = "10" weight = "-0.5062957209860506" />
    <synapse sourceNeuronName = "4" targetNeuronName = "11" weight = "-0.15898793658812682" />
    <synapse sourceNeuronName = "4" targetNeuronName = "12" weight = "0.7748643815620719" />
    <synapse sourceNeuronName = "4" targetNeuronName = "13" weight = "0.3327174024909396" />
    <synapse sourceNeuronName = "4" targetNeuronName = "14" weight = "0.6382138591818589" />
    <synapse sourceNeuronName = "4" targetNeuronName = "15" weight = "-0.7562361181102908" />
    <synapse sourceNeuronName = "4" targetNeuronName = "16" weight = "0.911591966470362" />
    <synapse sourceNeuronName = "5" targetNeuronName = "9" weight = "-0.046583428367134694" />
    <synapse sourceNeuronName = "5" targetNeuronName = "10" weight = "-0.9146968225391376" />
    <synapse sourceNeuronName = "5" targetNeuronName = "11" weight = "-0.1849253488482161" />
    <synapse sourceNeuronName = "5" targetNeuronName = "12" weight = "0.8873295590612491" />
    <synapse sourceNeuronName = "5" targetNeuronName = "13" weight = "0.8802769986655616" />
    <synapse sourceNeuronName = "5" targetNeuronName = "14" weight = "-0.7538644739797715" />
    <synapse sourceNeuronName = "5" targetNeuronName = "15" weight = "0.9731188969003799" />
    <synapse sourceNeuronName = "5" targetNeuronName = "16" weight = "0.9313658817540893" />
    <synapse sourceNeuronName = "6" targetNeuronName = "9" weight = "0.5042479263220776" />
    <synapse sourceNeuronName = "6" targetNeuronName = "10" weight = "0.18857609351114313" />
    <synapse sourceNeuronName = "6" targetNeuronName = "11" weight = "-0.6767629765090073" />
    <synapse sourceNeuronName = "6" targetNeuronName = "12" weight = "-0.7217197445166377" />
    <synapse sourceNeuronName = "6" targetNeuronName = "13" weight = "0.09783603076099001" />
    <synapse sourceNeuronName = "6" targetNeuronName = "14" weight = "0.5968771632542367" />
    <synapse sourceNeuronName = "6" targetNeuronName = "15" weight = "-0.7395143306252632" />
    <synapse sourceNeuronName = "6" targetNeuronName = "16" weight = "0.1557481638499636" />
    <synapse sourceNeuronName = "7" targetNeuronName = "9" weight = "0.24983436164223183" />
    <synapse sourceNeuronName = "7" targetNeuronName = "10" weight = "-0.23213445641526032" />
    <synapse sourceNeuronName = "7" targetNeuronName = "11" weight = "0.8079449052822059" />
    <synapse sourceNeuronName = "7" targetNeuronName = "12" weight = "0.7037000779665727" />
    <synapse sourceNeuronName = "7" targetNeuronName = "13" weight = "0.09416332202055133" />
    <synapse sourceNeuronName = "7" targetNeuronName = "14" weight = "0.6961808403474734" />
    <synapse sourceNeuronName = "7" targetNeuronName = "15" weight = "0.05907200018341707" />
    <synapse sourceNeuronName = "7" targetNeuronName = "16" weight = "0.0007370368695196472" />
    <synapse sourceNeuronName = "8" targetNeuronName = "9" weight = "0.4353344728059514" />
    <synapse sourceNeuronName = "8" targetNeuronName = "10" weight = "0.7722930460852018" />
    <synapse sourceNeuronName = "8" targetNeuronName = "11" weight = "0.6449806590631153" />
    <synapse sourceNeuronName = "8" targetNeuronName = "12" weight = "0.8119447532936197" />
    <synapse sourceNeuronName = "8" targetNeuronName = "13" weight = "-0.9617396111305314" />
    <synapse sourceNeuronName = "8" targetNeuronName = "14" weight = "-0.5476916778697478" />
    <synapse sourceNeuronName = "8" targetNeuronName = "15" weight = "0.5109797672831147" />
    <synapse sourceNeuronName = "8" targetNeuronName = "16" weight = "-0.7868953671403356" />
</neuralNetwork>