<neuralNetwork>
    <neuron name = "0" type = "sensor" linkName = "Torso" />
    <neuron name = "1" type = "sensor" linkName = "BackLeg" />
    <neuron name = "2" type = "sensor" linkName = "FrontLeg" />
    <neuron name = "3" type = "sensor" linkName = "LeftLeg" />
    <neuron name = "4" type = "sensor" linkName = "RightLeg" />
    <neuron name = "5" type = "sensor" linkName = "BackLowerLeg" />
    <neuron name = "6" type = "sensor" linkName = "FrontLowerLeg" />
    <neuron name = "7" type = "sensor" linkName = "LeftLowerLeg" />
    <neuron name = "8" type = "sensor" linkName = "RightLowerLeg" />
    <neuron name = "9" type = "motor"  jointName = "Torso_BackLeg" />
    <neuron name = "10" type = "motor"  jointName = "Torso_FrontLeg" />
    <neuron name = "11" type = "motor"  jointName = "Torso_LeftLeg" />
    <neuron name = "12" type = "motor"  jointName = "Torso_RightLeg" />
    <neuron name = "13" type = "motor"  jointName = "BackLeg_BackLowerLeg" />
    <neuron name = "14" type = "motor"  jointName = "FrontLeg_FrontLowerLeg" />
    <neuron name = "15" type = "motor"  jointName = "LeftLeg_LeftLowerLeg" />
    <neuron name = "16" type = "motor"  jointName = "RightLeg_RightLowerLeg" />
    <synapse sourceNeuronName = "0" targetNeuronName = "9" weight = "0.3263557619906101" />
    <synapse sourceNeuronName = "0" targetNeuronName = "10" weight = "0.9845356209399192" />
    <synapse sourceNeuronName = "0" targetNeuronName = "11" weight = "0.7990677238545991" />
    <synapse sourceNeuronName = "0" targetNeuronName = "12" weight = "0.95284207455821" />
    <synapse sourceNeuronName = "0" targetNeuronName = "13" weight = "-0.6981911372744662" />
    <synapse sourceNeuronName = "0" targetNeuronName = "14" weight = "0.1608924919440069" />
    <synapse sourceNeuronName = "0" targetNeuronName = "15" weight = "-0.8518045616234258" />
    <synapse sourceNeuronName = "0" targetNeuronName = "16" weight = "0.6322125226689201" />
    <synapse sourceNeuronName = "1" targetNeuronName = "9" weight = "-0.27933693266958115" />
    <synapse sourceNeuronName = "1" targetNeuronName = "10" weight = "-0.908175760674975" />
    <synapse sourceNeuronName = "1" targetNeuronName = "11" weight = "-0.3052073766641519" />
    <synapse sourceNeuronName = "1" targetNeuronName = "12" weight = "0.22426947552408705" />
    <synapse sourceNeuronName = "1" targetNeuronName = "13" weight = "-0.008979889100214189" />
    <synapse sourceNeuronName = "1" targetNeuronName = "14" weight = "-0.4632886524750408" />
    <synapse sourceNeuronName = "1" targetNeuronName = "15" weight = "0.7851377517163103" />
    <synapse sourceNeuronName = "1" targetNeuronName = "16" weight = "-0.5220097732302773" />
    <synapse sourceNeuronName = "2" targetNeuronName = "9" weight = "-0.0698428002756386" />
    <synapse sourceNeuronName = "2" targetNeuronName = "10" weight = "-0.7113371085715368" />
    <synapse sourceNeuronName = "2" targetNeuronName = "11" weight = "0.11794626999671731" />
    <synapse sourceNeuronName = "2" targetNeuronName = "12" weight = "-0.6855436608379004" />
    <synapse sourceNeuronName = "2" targetNeuronName = "13" weight = "-0.7907684808948956" />
    <synapse sourceNeuronName = "2" targetNeuronName = "14" weight = "-0.09655445278002373" />
    <synapse sourceNeuronName = "2" targetNeuronName = "15" weight = "0.30193613611700454" />
    <synapse sourceNeuronName = "2" targetNeuronName = "16" weight = "-0.7223928960088211" />
    <synapse sourceNeuronName = "3" targetNeuronName = "9" weight = "-0.8808533191027643" />
    <synapse sourceNeuronName = "3" targetNeuronName = "10" weight = "-0.38420774006754077" />
    <synapse sourceNeuronName = "3" targetNeuronName = "11" weight = "-0.7974631920744744" />
    <synapse sourceNeuronName = "3" targetNeuronName = "12" weight = "0.18870744155907038" />
    <synapse sourceNeuronName = "3" targetNeuronName = "13" weight = "0.9591685777967818" />
    <synapse sourceNeuronName = "3" targetNeuronName = "14" weight = "0.2742273338204546" />
    <synapse sourceNeuronName = "3" targetNeuronName = "15" weight = "-0.9576994757250088" />
    <synapse sourceNeuronName = "3" targetNeuronName = "16" weight = "-0.4165822649478732" />
    <synapse sourceNeuronName = "4" targetNeuronName = "9" weight = "0.6602331924372482" />
    <synapse sourceNeuronName = "4" targetNeuronName = "10" weight = "0.5547924692934221" />
    <synapse sourceNeuronName = "4" targetNeuronName = "11" weight = "0.3248788812747274" />
    <synapse sourceNeuronName = "4" targetNeuronName = "12" weight = "-0.20106031556304926" />
    <synapse sourceNeuronName = "4" targetNeuronName = "13" weight = "-0.10930666957300827" />
    <synapse sourceNeuronName = "4" targetNeuronName = "14" weight = "-0.957855585900641" />
    <synapse sourceNeuronName = "4" targetNeuronName = "15" weight = "0.9256561784616781" />
    <synapse sourceNeuronName = "4" targetNeuronName = "16" weight = "-0.03846502456087331" />
    <synapse sourceNeuronName = "5" targetNeuronName = "9" weight = "-0.00978452756737247" />
    <synapse sourceNeuronName = "5" targetNeuronName = "10" weight = "-0.7979058116302751" />
    <synapse sourceNeuronName = "5" targetNeuronName = "11" weight = "-0.45279757229198836" />
    <synapse sourceNeuronName = "5" targetNeuronName = "12" weight = "0.06147569596986657" />
    <synapse sourceNeuronName = "5" targetNeuronName = "13" weight = "-0.15053760376320957" />
    <synapse sourceNeuronName = "5" targetNeuronName = "14" weight = "-0.9178880067768007" />
    <synapse sourceNeuronName = "5" targetNeuronName = "15" weight = "0.450005804762206" />
    <synapse sourceNeuronName = "5" targetNeuronName = "16" weight = "-0.5860413312239827" />
    <synapse sourceNeuronName = "6" targetNeuronName = "9" weight = "0.0867521562545166" />
    <synapse sourceNeuronName = "6" targetNeuronName = "10" weight = "-0.5373687837990764" />
    <synapse sourceNeuronName = "6" targetNeuronName = "11" weight = "-0.14705929351868252" />
    <synapse sourceNeuronName = "6" targetNeuronName = "12" weight = "0.19147178652316743" />
    <synapse sourceNeuronName = "6" targetNeuronName = "13" weight = "0.03892286736464623" />
    <synapse sourceNeuronName = "6" targetNeuronName = "14" weight = "-0.1251798762301528" />
    <synapse sourceNeuronName = "6" targetNeuronName = "15" weight = "-0.35316772578128064" />
    <synapse sourceNeuronName = "6" targetNeuronName = "16" weight = "0.8510768271077274" />
    <synapse sourceNeuronName = "7" targetNeuronName = "9" weight = "0.09739724826005869" />
    <synapse sourceNeuronName = "7" targetNeuronName = "10" weight = "-0.6141271017121548" />
    <synapse sourceNeuronName = "7" targetNeuronName = "11" weight = "-0.730266175020539" />
    <synapse sourceNeuronName = "7" targetNeuronName = "12" weight = "0.43782342954797815" />
    <synapse sourceNeuronName = "7" targetNeuronName = "13" weight = "0.7974683391401776" />
    <synapse sourceNeuronName = "7" targetNeuronName = "14" weight = "0.675084301946518" />
    <synapse sourceNeuronName = "7" targetNeuronName = "15" weight = "-0.9765283495096264" />
    <synapse sourceNeuronName = "7" targetNeuronName = "16" weight = "-0.761269686316874" />
    <synapse sourceNeuronName = "8" targetNeuronName = "9" weight = "0.7684444504632562" />
    <synapse sourceNeuronName = "8" targetNeuronName = "10" weight = "0.4681571384577716" />
    <synapse sourceNeuronName = "8" targetNeuronName = "11" weight = "0.4706052604934692" />
    <synapse sourceNeuronName = "8" targetNeuronName = "12" weight = "0.10888086917504025" />
    <synapse sourceNeuronName = "8" targetNeuronName = "13" weight = "0.6600406878943725" />
    <synapse sourceNeuronName = "8" targetNeuronName = "14" weight = "0.33105660485881994" />
    <synapse sourceNeuronName = "8" targetNeuronName = "15" weight = "-0.14170730255575092" />
    <synapse sourceNeuronName = "8" targetNeuronName = "16" weight = "0.122115887826588" />
</neuralNetwork>