<neuralNetwork>
    <neuron name = "0" type = "sensor" linkName = "Torso" />
    <neuron name = "1" type = "sensor" linkName = "BackLeg" />
    <neuron name = "2" type = "sensor" linkName = "FrontLeg" />
    <neuron name = "3" type = "sensor" linkName = "LeftLeg" />
    <neuron name = "4" type = "sensor" linkName = "RightLeg" />
    <neuron name = "5" type = "sensor" linkName = "BackLowerLeg" />
    <neuron name = "6" type = "sensor" linkName = "FrontLowerLeg" />
    <neuron name = "7" type = "sensor" linkName = "LeftLowerLeg" />
    <neuron name = "8" type = "sensor" linkName = "RightLowerLeg" />
    <neuron name = "9" type = "motor"  jointName = "Torso_BackLeg" />
    <neuron name = "10" type = "motor"  jointName = "Torso_FrontLeg" />
    <neuron name = "11" type = "motor"  jointName = "Torso_LeftLeg" />
    <neuron name = "12" type = "motor"  jointName = "Torso_RightLeg" />
    <neuron name = "13" type = "motor"  jointName = "BackLeg_BackLowerLeg" />
    <neuron name = "14" type = "motor"  jointName = "FrontLeg_FrontLowerLeg" />
    <neuron name = "15" type = "motor"  jointName = "LeftLeg_LeftLowerLeg" />
    <neuron name = "16" type = "motor"  jointName = "RightLeg_RightLowerLeg" />
    <synapse sourceNeuronName = "0" targetNeuronName = "9" weight = "-0.9427567838711326" />
    <synapse sourceNeuronName = "0" targetNeuronName = "10" weight = "0.7514171587605647" />
    <synapse sourceNeuronName = "0" targetNeuronName = "11" weight = "-0.04098089013558348" />
    <synapse sourceNeuronName = "0" targetNeuronName = "12" weight = "0.8994563522410097" />
    <synapse sourceNeuronName = "0" targetNeuronName = "13" weight = "-0.4462388844971934" />
    <synapse sourceNeuronName = "0" targetNeuronName = "14" weight = "-0.7839237375278887" />
    <synapse sourceNeuronName = "0" targetNeuronName = "15" weight = "-0.6948788958958247" />
    <synapse sourceNeuronName = "0" targetNeuronName = "16" weight = "0.5793956209724289" />
    <synapse sourceNeuronName = "1" targetNeuronName = "9" weight = "0.7777167268827598" />
    <synapse sourceNeuronName = "1" targetNeuronName = "10" weight = "-0.37539011914737697" />
    <synapse sourceNeuronName = "1" targetNeuronName = "11" weight = "-0.9499417734027542" />
    <synapse sourceNeuronName = "1" targetNeuronName = "12" weight = "0.11870058536886519" />
    <synapse sourceNeuronName = "1" targetNeuronName = "13" weight = "-0.4078361910185706" />
    <synapse sourceNeuronName = "1" targetNeuronName = "14" weight = "-0.23265568610004528" />
    <synapse sourceNeuronName = "1" targetNeuronName = "15" weight = "-0.48550003914736317" />
    <synapse sourceNeuronName = "1" targetNeuronName = "16" weight = "0.10527394874186458" />
    <synapse sourceNeuronName = "2" targetNeuronName = "9" weight = "-0.9484481434980765" />
    <synapse sourceNeuronName = "2" targetNeuronName = "10" weight = "-0.7595779045587894" />
    <synapse sourceNeuronName = "2" targetNeuronName = "11" weight = "0.041805208558132634" />
    <synapse sourceNeuronName = "2" targetNeuronName = "12" weight = "0.7427100236069146" />
    <synapse sourceNeuronName = "2" targetNeuronName = "13" weight = "0.17317823078111094" />
    <synapse sourceNeuronName = "2" targetNeuronName = "14" weight = "0.21128303328151055" />
    <synapse sourceNeuronName = "2" targetNeuronName = "15" weight = "-0.813487379958385" />
    <synapse sourceNeuronName = "2" targetNeuronName = "16" weight = "-0.670789606894969" />
    <synapse sourceNeuronName = "3" targetNeuronName = "9" weight = "-0.6635337790060158" />
    <synapse sourceNeuronName = "3" targetNeuronName = "10" weight = "0.188887505954193" />
    <synapse sourceNeuronName = "3" targetNeuronName = "11" weight = "-0.09697067093581624" />
    <synapse sourceNeuronName = "3" targetNeuronName = "12" weight = "-0.5012081640491519" />
    <synapse sourceNeuronName = "3" targetNeuronName = "13" weight = "0.5098484620920183" />
    <synapse sourceNeuronName = "3" targetNeuronName = "14" weight = "0.2193246884687161" />
    <synapse sourceNeuronName = "3" targetNeuronName = "15" weight = "0.8952286635389037" />
    <synapse sourceNeuronName = "3" targetNeuronName = "16" weight = "-0.18410622897775464" />
    <synapse sourceNeuronName = "4" targetNeuronName = "9" weight = "0.8998065596480551" />
    <synapse sourceNeuronName = "4" targetNeuronName = "10" weight = "0.80388925228567" />
    <synapse sourceNeuronName = "4" targetNeuronName = "11" weight = "0.8183767998263944" />
    <synapse sourceNeuronName = "4" targetNeuronName = "12" weight = "-0.6137164406990956" />
    <synapse sourceNeuronName = "4" targetNeuronName = "13" weight = "0.5662334121444623" />
    <synapse sourceNeuronName = "4" targetNeuronName = "14" weight = "-0.4885834845241732" />
    <synapse sourceNeuronName = "4" targetNeuronName = "15" weight = "-0.7434513311228108" />
    <synapse sourceNeuronName = "4" targetNeuronName = "16" weight = "-0.3069080668013806" />
    <synapse sourceNeuronName = "5" targetNeuronName = "9" weight = "-0.7451740866591032" />
    <synapse sourceNeuronName = "5" targetNeuronName = "10" weight = "0.19242562172255995" />
    <synapse sourceNeuronName = "5" targetNeuronName = "11" weight = "0.3590903286710043" />
    <synapse sourceNeuronName = "5" targetNeuronName = "12" weight = "-0.35738107630080695" />
    <synapse sourceNeuronName = "5" targetNeuronName = "13" weight = "0.627007344323445" />
    <synapse sourceNeuronName = "5" targetNeuronName = "14" weight = "0.07400219166986632" />
    <synapse sourceNeuronName = "5" targetNeuronName = "15" weight = "-0.33889845614937686" />
    <synapse sourceNeuronName = "5" targetNeuronName = "16" weight = "0.7658584253144676" />
    <synapse sourceNeuronName = "6" targetNeuronName = "9" weight = "0.5205717003600214" />
    <synapse sourceNeuronName = "6" targetNeuronName = "10" weight = "-0.9814815739501428" />
    <synapse sourceNeuronName = "6" targetNeuronName = "11" weight = "0.6533574190620284" />
    <synapse sourceNeuronName = "6" targetNeuronName = "12" weight = "-0.4371996728049006" />
    <synapse sourceNeuronName = "6" targetNeuronName = "13" weight = "-0.7217920410383842" />
    <synapse sourceNeuronName = "6" targetNeuronName = "14" weight = "-0.8166993672536658" />
    <synapse sourceNeuronName = "6" targetNeuronName = "15" weight = "-0.2995468781451234" />
    <synapse sourceNeuronName = "6" targetNeuronName = "16" weight = "-0.968187971444646" />
    <synapse sourceNeuronName = "7" targetNeuronName = "9" weight = "-0.9188727536338694" />
    <synapse sourceNeuronName = "7" targetNeuronName = "10" weight = "-0.584598996896807" />
    <synapse sourceNeuronName = "7" targetNeuronName = "11" weight = "0.711663982224886" />
    <synapse sourceNeuronName = "7" targetNeuronName = "12" weight = "-0.8910236510834293" />
    <synapse sourceNeuronName = "7" targetNeuronName = "13" weight = "-0.8041464505140832" />
    <synapse sourceNeuronName = "7" targetNeuronName = "14" weight = "-0.260096427464078" />
    <synapse sourceNeuronName = "7" targetNeuronName = "15" weight = "0.11374203756727952" />
    <synapse sourceNeuronName = "7" targetNeuronName = "16" weight = "-0.621073294959207" />
    <synapse sourceNeuronName = "8" targetNeuronName = "9" weight = "-0.8053275384547371" />
    <synapse sourceNeuronName = "8" targetNeuronName = "10" weight = "-0.42435795080046224" />
    <synapse sourceNeuronName = "8" targetNeuronName = "11" weight = "-0.8865912052928189" />
    <synapse sourceNeuronName = "8" targetNeuronName = "12" weight = "-0.0185640066037267" />
    <synapse sourceNeuronName = "8" targetNeuronName = "13" weight = "0.3407150373369112" />
    <synapse sourceNeuronName = "8" targetNeuronName = "14" weight = "-0.2267808108101219" />
    <synapse sourceNeuronName = "8" targetNeuronName = "15" weight = "-0.38179221377256956" />
    <synapse sourceNeuronName = "8" targetNeuronName = "16" weight = "-0.3022878777671474" />
</neuralNetwork>