<neuralNetwork>
    <neuron name = "0" type = "sensor" linkName = "Torso" />
    <neuron name = "1" type = "sensor" linkName = "BackLeg" />
    <neuron name = "2" type = "sensor" linkName = "FrontLeg" />
    <neuron name = "3" type = "sensor" linkName = "LeftLeg" />
    <neuron name = "4" type = "sensor" linkName = "RightLeg" />
    <neuron name = "5" type = "sensor" linkName = "BackLowerLeg" />
    <neuron name = "6" type = "sensor" linkName = "FrontLowerLeg" />
    <neuron name = "7" type = "sensor" linkName = "LeftLowerLeg" />
    <neuron name = "8" type = "sensor" linkName = "RightLowerLeg" />
    <neuron name = "9" type = "motor"  jointName = "Torso_BackLeg" />
    <neuron name = "10" type = "motor"  jointName = "Torso_FrontLeg" />
    <neuron name = "11" type = "motor"  jointName = "Torso_LeftLeg" />
    <neuron name = "12" type = "motor"  jointName = "Torso_RightLeg" />
    <neuron name = "13" type = "motor"  jointName = "BackLeg_BackLowerLeg" />
    <neuron name = "14" type = "motor"  jointName = "FrontLeg_FrontLowerLeg" />
    <neuron name = "15" type = "motor"  jointName = "LeftLeg_LeftLowerLeg" />
    <neuron name = "16" type = "motor"  jointName = "RightLeg_RightLowerLeg" />
    <synapse sourceNeuronName = "0" targetNeuronName = "9" weight = "0.6028473078623102" />
    <synapse sourceNeuronName = "0" targetNeuronName = "10" weight = "0.9540158897740785" />
    <synapse sourceNeuronName = "0" targetNeuronName = "11" weight = "0.7017613714169788" />
    <synapse sourceNeuronName = "0" targetNeuronName = "12" weight = "0.2946229042670794" />
    <synapse sourceNeuronName = "0" targetNeuronName = "13" weight = "-0.09882148535967827" />
    <synapse sourceNeuronName = "0" targetNeuronName = "14" weight = "0.5134726581401272" />
    <synapse sourceNeuronName = "0" targetNeuronName = "15" weight = "-0.8961684783455395" />
    <synapse sourceNeuronName = "0" targetNeuronName = "16" weight = "-0.4573705387897984" />
    <synapse sourceNeuronName = "1" targetNeuronName = "9" weight = "0.22307609873773626" />
    <synapse sourceNeuronName = "1" targetNeuronName = "10" weight = "0.38480955279399187" />
    <synapse sourceNeuronName = "1" targetNeuronName = "11" weight = "0.3105692039333532" />
    <synapse sourceNeuronName = "1" targetNeuronName = "12" weight = "0.41144928159486116" />
    <synapse sourceNeuronName = "1" targetNeuronName = "13" weight = "-0.164899886277857" />
    <synapse sourceNeuronName = "1" targetNeuronName = "14" weight = "-0.468217269081759" />
    <synapse sourceNeuronName = "1" targetNeuronName = "15" weight = "-0.0808490579697152" />
    <synapse sourceNeuronName = "1" targetNeuronName = "16" weight = "0.8762493746313897" />
    <synapse sourceNeuronName = "2" targetNeuronName = "9" weight = "-0.2063437900300924" />
    <synapse sourceNeuronName = "2" targetNeuronName = "10" weight = "-0.3651593361762213" />
    <synapse sourceNeuronName = "2" targetNeuronName = "11" weight = "-0.9915103900339433" />
    <synapse sourceNeuronName = "2" targetNeuronName = "12" weight = "-0.19965618128382112" />
    <synapse sourceNeuronName = "2" targetNeuronName = "13" weight = "-0.5309279154687105" />
    <synapse sourceNeuronName = "2" targetNeuronName = "14" weight = "-0.7905130462562608" />
    <synapse sourceNeuronName = "2" targetNeuronName = "15" weight = "-0.40704237638050556" />
    <synapse sourceNeuronName = "2" targetNeuronName = "16" weight = "0.38826746619492347" />
    <synapse sourceNeuronName = "3" targetNeuronName = "9" weight = "0.5527460048544452" />
    <synapse sourceNeuronName = "3" targetNeuronName = "10" weight = "-0.7906398810408914" />
    <synapse sourceNeuronName = "3" targetNeuronName = "11" weight = "0.41608079526111763" />
    <synapse sourceNeuronName = "3" targetNeuronName = "12" weight = "-0.01062298901901726" />
    <synapse sourceNeuronName = "3" targetNeuronName = "13" weight = "0.1365616497297777" />
    <synapse sourceNeuronName = "3" targetNeuronName = "14" weight = "-0.48669004194241583" />
    <synapse sourceNeuronName = "3" targetNeuronName = "15" weight = "0.08365141256065844" />
    <synapse sourceNeuronName = "3" targetNeuronName = "16" weight = "-0.8759599841687518" />
    <synapse sourceNeuronName = "4" targetNeuronName = "9" weight = "-0.9412448746063391" />
    <synapse sourceNeuronName = "4" targetNeuronName = "10" weight = "-0.546739847971105" />
    <synapse sourceNeuronName = "4" targetNeuronName = "11" weight = "-0.7016988418597754" />
    <synapse sourceNeuronName = "4" targetNeuronName = "12" weight = "0.7076180103352232" />
    <synapse sourceNeuronName = "4" targetNeuronName = "13" weight = "-0.7266207542178811" />
    <synapse sourceNeuronName = "4" targetNeuronName = "14" weight = "0.3765675159135684" />
    <synapse sourceNeuronName = "4" targetNeuronName = "15" weight = "-0.41181277866874" />
    <synapse sourceNeuronName = "4" targetNeuronName = "16" weight = "-0.2972087459510395" />
    <synapse sourceNeuronName = "5" targetNeuronName = "9" weight = "0.4303727557520902" />
    <synapse sourceNeuronName = "5" targetNeuronName = "10" weight = "-0.9361075648803054" />
    <synapse sourceNeuronName = "5" targetNeuronName = "11" weight = "-0.03983054165514943" />
    <synapse sourceNeuronName = "5" targetNeuronName = "12" weight = "0.2715568281971743" />
    <synapse sourceNeuronName = "5" targetNeuronName = "13" weight = "0.246739224824003" />
    <synapse sourceNeuronName = "5" targetNeuronName = "14" weight = "0.022211105679995624" />
    <synapse sourceNeuronName = "5" targetNeuronName = "15" weight = "0.7434959857328989" />
    <synapse sourceNeuronName = "5" targetNeuronName = "16" weight = "-0.05578669407418069" />
    <synapse sourceNeuronName = "6" targetNeuronName = "9" weight = "0.45516128507534326" />
    <synapse sourceNeuronName = "6" targetNeuronName = "10" weight = "-0.28162420127446697" />
    <synapse sourceNeuronName = "6" targetNeuronName = "11" weight = "-0.8740467474869966" />
    <synapse sourceNeuronName = "6" targetNeuronName = "12" weight = "0.5209420866197614" />
    <synapse sourceNeuronName = "6" targetNeuronName = "13" weight = "0.42736518406672297" />
    <synapse sourceNeuronName = "6" targetNeuronName = "14" weight = "-0.6012401574201629" />
    <synapse sourceNeuronName = "6" targetNeuronName = "15" weight = "-0.9187971810727775" />
    <synapse sourceNeuronName = "6" targetNeuronName = "16" weight = "-0.42042324643330065" />
    <synapse sourceNeuronName = "7" targetNeuronName = "9" weight = "-0.58707745988824" />
    <synapse sourceNeuronName = "7" targetNeuronName = "10" weight = "-0.17058890257399106" />
    <synapse sourceNeuronName = "7" targetNeuronName = "11" weight = "0.743792496146281" />
    <synapse sourceNeuronName = "7" targetNeuronName = "12" weight = "0.7162565937088408" />
    <synapse sourceNeuronName = "7" targetNeuronName = "13" weight = "0.3269694528173295" />
    <synapse sourceNeuronName = "7" targetNeuronName = "14" weight = "-0.8115348278107652" />
    <synapse sourceNeuronName = "7" targetNeuronName = "15" weight = "-0.6192057675095497" />
    <synapse sourceNeuronName = "7" targetNeuronName = "16" weight = "-0.6521529710055949" />
    <synapse sourceNeuronName = "8" targetNeuronName = "9" weight = "-0.9236641663019196" />
    <synapse sourceNeuronName = "8" targetNeuronName = "10" weight = "-0.2594459410199548" />
    <synapse sourceNeuronName = "8" targetNeuronName = "11" weight = "0.9339808319582195" />
    <synapse sourceNeuronName = "8" targetNeuronName = "12" weight = "0.12686901353580504" />
    <synapse sourceNeuronName = "8" targetNeuronName = "13" weight = "0.45630479872973106" />
    <synapse sourceNeuronName = "8" targetNeuronName = "14" weight = "0.0956436264623639" />
    <synapse sourceNeuronName = "8" targetNeuronName = "15" weight = "0.011525033437133736" />
    <synapse sourceNeuronName = "8" targetNeuronName = "16" weight = "-0.8204374894927882" />
</neuralNetwork>