<neuralNetwork>
    <neuron name = "0" type = "sensor" linkName = "Torso" />
    <neuron name = "1" type = "sensor" linkName = "BackLeg" />
    <neuron name = "2" type = "sensor" linkName = "FrontLeg" />
    <neuron name = "3" type = "sensor" linkName = "LeftLeg" />
    <neuron name = "4" type = "sensor" linkName = "RightLeg" />
    <neuron name = "5" type = "sensor" linkName = "BackLowerLeg" />
    <neuron name = "6" type = "sensor" linkName = "FrontLowerLeg" />
    <neuron name = "7" type = "sensor" linkName = "LeftLowerLeg" />
    <neuron name = "8" type = "sensor" linkName = "RightLowerLeg" />
    <neuron name = "9" type = "motor"  jointName = "Torso_BackLeg" />
    <neuron name = "10" type = "motor"  jointName = "Torso_FrontLeg" />
    <neuron name = "11" type = "motor"  jointName = "Torso_LeftLeg" />
    <neuron name = "12" type = "motor"  jointName = "Torso_RightLeg" />
    <neuron name = "13" type = "motor"  jointName = "BackLeg_BackLowerLeg" />
    <neuron name = "14" type = "motor"  jointName = "FrontLeg_FrontLowerLeg" />
    <neuron name = "15" type = "motor"  jointName = "LeftLeg_LeftLowerLeg" />
    <neuron name = "16" type = "motor"  jointName = "RightLeg_RightLowerLeg" />
    <synapse sourceNeuronName = "0" targetNeuronName = "9" weight = "-0.16857675768770708" />
    <synapse sourceNeuronName = "0" targetNeuronName = "10" weight = "-0.3761910819249199" />
    <synapse sourceNeuronName = "0" targetNeuronName = "11" weight = "-0.013584736553609034" />
    <synapse sourceNeuronName = "0" targetNeuronName = "12" weight = "-0.34984416070451596" />
    <synapse sourceNeuronName = "0" targetNeuronName = "13" weight = "-0.2651967042199559" />
    <synapse sourceNeuronName = "0" targetNeuronName = "14" weight = "-0.0992403568588367" />
    <synapse sourceNeuronName = "0" targetNeuronName = "15" weight = "0.05966974578172568" />
    <synapse sourceNeuronName = "0" targetNeuronName = "16" weight = "-0.08630367331913602" />
    <synapse sourceNeuronName = "1" targetNeuronName = "9" weight = "-0.07959794956603639" />
    <synapse sourceNeuronName = "1" targetNeuronName = "10" weight = "-0.6306210309775895" />
    <synapse sourceNeuronName = "1" targetNeuronName = "11" weight = "0.16225390285638874" />
    <synapse sourceNeuronName = "1" targetNeuronName = "12" weight = "-0.5350087299030053" />
    <synapse sourceNeuronName = "1" targetNeuronName = "13" weight = "-0.9130307433748304" />
    <synapse sourceNeuronName = "1" targetNeuronName = "14" weight = "-0.21133421126638163" />
    <synapse sourceNeuronName = "1" targetNeuronName = "15" weight = "0.02019901847894401" />
    <synapse sourceNeuronName = "1" targetNeuronName = "16" weight = "-0.850629346288944" />
    <synapse sourceNeuronName = "2" targetNeuronName = "9" weight = "-0.9737336393180076" />
    <synapse sourceNeuronName = "2" targetNeuronName = "10" weight = "0.8565156052019021" />
    <synapse sourceNeuronName = "2" targetNeuronName = "11" weight = "0.7275093876757848" />
    <synapse sourceNeuronName = "2" targetNeuronName = "12" weight = "0.9481065912717153" />
    <synapse sourceNeuronName = "2" targetNeuronName = "13" weight = "-0.9585812737541732" />
    <synapse sourceNeuronName = "2" targetNeuronName = "14" weight = "-0.6562347047004742" />
    <synapse sourceNeuronName = "2" targetNeuronName = "15" weight = "0.8994422560466764" />
    <synapse sourceNeuronName = "2" targetNeuronName = "16" weight = "-0.5044878021548793" />
    <synapse sourceNeuronName = "3" targetNeuronName = "9" weight = "0.8631503299747014" />
    <synapse sourceNeuronName = "3" targetNeuronName = "10" weight = "-0.6544747881581157" />
    <synapse sourceNeuronName = "3" targetNeuronName = "11" weight = "-0.931377725180544" />
    <synapse sourceNeuronName = "3" targetNeuronName = "12" weight = "-0.010457549707260316" />
    <synapse sourceNeuronName = "3" targetNeuronName = "13" weight = "0.4373042755254808" />
    <synapse sourceNeuronName = "3" targetNeuronName = "14" weight = "0.45377898929256544" />
    <synapse sourceNeuronName = "3" targetNeuronName = "15" weight = "-0.3525882875288038" />
    <synapse sourceNeuronName = "3" targetNeuronName = "16" weight = "0.06552116372411132" />
    <synapse sourceNeuronName = "4" targetNeuronName = "9" weight = "0.92821446324692" />
    <synapse sourceNeuronName = "4" targetNeuronName = "10" weight = "0.4697390591410693" />
    <synapse sourceNeuronName = "4" targetNeuronName = "11" weight = "0.08225209853853777" />
    <synapse sourceNeuronName = "4" targetNeuronName = "12" weight = "-0.7238791216337708" />
    <synapse sourceNeuronName = "4" targetNeuronName = "13" weight = "0.8545020922158832" />
    <synapse sourceNeuronName = "4" targetNeuronName = "14" weight = "-0.0005448366250642156" />
    <synapse sourceNeuronName = "4" targetNeuronName = "15" weight = "-0.6624799369881516" />
    <synapse sourceNeuronName = "4" targetNeuronName = "16" weight = "0.9628288500539226" />
    <synapse sourceNeuronName = "5" targetNeuronName = "9" weight = "-0.37129978108570794" />
    <synapse sourceNeuronName = "5" targetNeuronName = "10" weight = "0.4662376130516175" />
    <synapse sourceNeuronName = "5" targetNeuronName = "11" weight = "0.9579282242224216" />
    <synapse sourceNeuronName = "5" targetNeuronName = "12" weight = "-0.38398691027267273" />
    <synapse sourceNeuronName = "5" targetNeuronName = "13" weight = "0.1831635712248254" />
    <synapse sourceNeuronName = "5" targetNeuronName = "14" weight = "-0.10804510476118545" />
    <synapse sourceNeuronName = "5" targetNeuronName = "15" weight = "0.025925876409494064" />
    <synapse sourceNeuronName = "5" targetNeuronName = "16" weight = "-0.8378451234198163" />
    <synapse sourceNeuronName = "6" targetNeuronName = "9" weight = "0.8960525594928967" />
    <synapse sourceNeuronName = "6" targetNeuronName = "10" weight = "-0.44000484135089946" />
    <synapse sourceNeuronName = "6" targetNeuronName = "11" weight = "-0.041604823256218504" />
    <synapse sourceNeuronName = "6" targetNeuronName = "12" weight = "0.017020604672265183" />
    <synapse sourceNeuronName = "6" targetNeuronName = "13" weight = "-0.2887665151091061" />
    <synapse sourceNeuronName = "6" targetNeuronName = "14" weight = "-0.7101305416485744" />
    <synapse sourceNeuronName = "6" targetNeuronName = "15" weight = "-0.7534618665513029" />
    <synapse sourceNeuronName = "6" targetNeuronName = "16" weight = "0.7633550855616504" />
    <synapse sourceNeuronName = "7" targetNeuronName = "9" weight = "-0.5482310951548708" />
    <synapse sourceNeuronName = "7" targetNeuronName = "10" weight = "-0.6077194860721877" />
    <synapse sourceNeuronName = "7" targetNeuronName = "11" weight = "0.002978212375783551" />
    <synapse sourceNeuronName = "7" targetNeuronName = "12" weight = "0.6993436471336978" />
    <synapse sourceNeuronName = "7" targetNeuronName = "13" weight = "0.13206371892204505" />
    <synapse sourceNeuronName = "7" targetNeuronName = "14" weight = "0.028223513728605987" />
    <synapse sourceNeuronName = "7" targetNeuronName = "15" weight = "-0.9151264530542864" />
    <synapse sourceNeuronName = "7" targetNeuronName = "16" weight = "-0.9998815173486071" />
    <synapse sourceNeuronName = "8" targetNeuronName = "9" weight = "0.571328658720369" />
    <synapse sourceNeuronName = "8" targetNeuronName = "10" weight = "0.5368160615823028" />
    <synapse sourceNeuronName = "8" targetNeuronName = "11" weight = "0.37613496207215924" />
    <synapse sourceNeuronName = "8" targetNeuronName = "12" weight = "-0.3564624511214658" />
    <synapse sourceNeuronName = "8" targetNeuronName = "13" weight = "-0.4770993283420437" />
    <synapse sourceNeuronName = "8" targetNeuronName = "14" weight = "0.6072499602689354" />
    <synapse sourceNeuronName = "8" targetNeuronName = "15" weight = "-0.5227333583654172" />
    <synapse sourceNeuronName = "8" targetNeuronName = "16" weight = "-0.13831312627667725" />
</neuralNetwork>