<neuralNetwork>
    <neuron name = "0" type = "sensor" linkName = "Torso" />
    <neuron name = "1" type = "sensor" linkName = "BackLeg" />
    <neuron name = "2" type = "sensor" linkName = "FrontLeg" />
    <neuron name = "3" type = "sensor" linkName = "LeftLeg" />
    <neuron name = "4" type = "sensor" linkName = "RightLeg" />
    <neuron name = "5" type = "sensor" linkName = "BackLowerLeg" />
    <neuron name = "6" type = "sensor" linkName = "FrontLowerLeg" />
    <neuron name = "7" type = "sensor" linkName = "LeftLowerLeg" />
    <neuron name = "8" type = "sensor" linkName = "RightLowerLeg" />
    <neuron name = "9" type = "motor"  jointName = "Torso_BackLeg" />
    <neuron name = "10" type = "motor"  jointName = "Torso_FrontLeg" />
    <neuron name = "11" type = "motor"  jointName = "Torso_LeftLeg" />
    <neuron name = "12" type = "motor"  jointName = "Torso_RightLeg" />
    <neuron name = "13" type = "motor"  jointName = "BackLeg_BackLowerLeg" />
    <neuron name = "14" type = "motor"  jointName = "FrontLeg_FrontLowerLeg" />
    <neuron name = "15" type = "motor"  jointName = "LeftLeg_LeftLowerLeg" />
    <neuron name = "16" type = "motor"  jointName = "RightLeg_RightLowerLeg" />
    <synapse sourceNeuronName = "0" targetNeuronName = "9" weight = "0.9529060555369167" />
    <synapse sourceNeuronName = "0" targetNeuronName = "10" weight = "0.4777093647698858" />
    <synapse sourceNeuronName = "0" targetNeuronName = "11" weight = "-0.6693118036130898" />
    <synapse sourceNeuronName = "0" targetNeuronName = "12" weight = "0.3764017497914065" />
    <synapse sourceNeuronName = "0" targetNeuronName = "13" weight = "-0.6041059524859647" />
    <synapse sourceNeuronName = "0" targetNeuronName = "14" weight = "-0.12354580070747123" />
    <synapse sourceNeuronName = "0" targetNeuronName = "15" weight = "0.621704250721792" />
    <synapse sourceNeuronName = "0" targetNeuronName = "16" weight = "-0.6831347031818984" />
    <synapse sourceNeuronName = "1" targetNeuronName = "9" weight = "-0.7871144185413355" />
    <synapse sourceNeuronName = "1" targetNeuronName = "10" weight = "-0.8796729494263655" />
    <synapse sourceNeuronName = "1" targetNeuronName = "11" weight = "-0.0771330810778037" />
    <synapse sourceNeuronName = "1" targetNeuronName = "12" weight = "-0.9375653979598604" />
    <synapse sourceNeuronName = "1" targetNeuronName = "13" weight = "-0.5233736263853197" />
    <synapse sourceNeuronName = "1" targetNeuronName = "14" weight = "-0.5862824579180645" />
    <synapse sourceNeuronName = "1" targetNeuronName = "15" weight = "-0.8755969191469164" />
    <synapse sourceNeuronName = "1" targetNeuronName = "16" weight = "0.5347183247224987" />
    <synapse sourceNeuronName = "2" targetNeuronName = "9" weight = "0.13283828947032683" />
    <synapse sourceNeuronName = "2" targetNeuronName = "10" weight = "-0.5567955075074824" />
    <synapse sourceNeuronName = "2" targetNeuronName = "11" weight = "0.06600518458026472" />
    <synapse sourceNeuronName = "2" targetNeuronName = "12" weight = "-0.6408625041543219" />
    <synapse sourceNeuronName = "2" targetNeuronName = "13" weight = "-0.24192288168265286" />
    <synapse sourceNeuronName = "2" targetNeuronName = "14" weight = "-0.8531846415673923" />
    <synapse sourceNeuronName = "2" targetNeuronName = "15" weight = "0.08812651675874794" />
    <synapse sourceNeuronName = "2" targetNeuronName = "16" weight = "0.23867754887029458" />
    <synapse sourceNeuronName = "3" targetNeuronName = "9" weight = "0.9580302902821185" />
    <synapse sourceNeuronName = "3" targetNeuronName = "10" weight = "0.3586067473934005" />
    <synapse sourceNeuronName = "3" targetNeuronName = "11" weight = "-0.15983760263220526" />
    <synapse sourceNeuronName = "3" targetNeuronName = "12" weight = "0.7807992144088978" />
    <synapse sourceNeuronName = "3" targetNeuronName = "13" weight = "0.06142375992054494" />
    <synapse sourceNeuronName = "3" targetNeuronName = "14" weight = "-0.487688411960697" />
    <synapse sourceNeuronName = "3" targetNeuronName = "15" weight = "-0.8401005465257985" />
    <synapse sourceNeuronName = "3" targetNeuronName = "16" weight = "-0.07702964239524213" />
    <synapse sourceNeuronName = "4" targetNeuronName = "9" weight = "-0.501310934354412" />
    <synapse sourceNeuronName = "4" targetNeuronName = "10" weight = "0.1250255724348046" />
    <synapse sourceNeuronName = "4" targetNeuronName = "11" weight = "-0.25369220359322786" />
    <synapse sourceNeuronName = "4" targetNeuronName = "12" weight = "0.9128008861564805" />
    <synapse sourceNeuronName = "4" targetNeuronName = "13" weight = "-0.9516056433621083" />
    <synapse sourceNeuronName = "4" targetNeuronName = "14" weight = "0.22207952064086411" />
    <synapse sourceNeuronName = "4" targetNeuronName = "15" weight = "0.4275817111645295" />
    <synapse sourceNeuronName = "4" targetNeuronName = "16" weight = "0.2762754557492899" />
    <synapse sourceNeuronName = "5" targetNeuronName = "9" weight = "0.3285733625874594" />
    <synapse sourceNeuronName = "5" targetNeuronName = "10" weight = "-0.5849303615641954" />
    <synapse sourceNeuronName = "5" targetNeuronName = "11" weight = "0.09438746986185254" />
    <synapse sourceNeuronName = "5" targetNeuronName = "12" weight = "0.846320654894051" />
    <synapse sourceNeuronName = "5" targetNeuronName = "13" weight = "-0.9081106967306134" />
    <synapse sourceNeuronName = "5" targetNeuronName = "14" weight = "-0.17746056807607413" />
    <synapse sourceNeuronName = "5" targetNeuronName = "15" weight = "0.9846886237294574" />
    <synapse sourceNeuronName = "5" targetNeuronName = "16" weight = "0.8015705631238319" />
    <synapse sourceNeuronName = "6" targetNeuronName = "9" weight = "0.22538318069476615" />
    <synapse sourceNeuronName = "6" targetNeuronName = "10" weight = "0.8860401076398323" />
    <synapse sourceNeuronName = "6" targetNeuronName = "11" weight = "0.30242351715276405" />
    <synapse sourceNeuronName = "6" targetNeuronName = "12" weight = "0.14053161334418673" />
    <synapse sourceNeuronName = "6" targetNeuronName = "13" weight = "0.6100893858393792" />
    <synapse sourceNeuronName = "6" targetNeuronName = "14" weight = "-0.027332374879995402" />
    <synapse sourceNeuronName = "6" targetNeuronName = "15" weight = "-0.2889734373493762" />
    <synapse sourceNeuronName = "6" targetNeuronName = "16" weight = "-0.42428976448317335" />
    <synapse sourceNeuronName = "7" targetNeuronName = "9" weight = "0.19980301957562197" />
    <synapse sourceNeuronName = "7" targetNeuronName = "10" weight = "-0.5438619144168502" />
    <synapse sourceNeuronName = "7" targetNeuronName = "11" weight = "0.31129673654686374" />
    <synapse sourceNeuronName = "7" targetNeuronName = "12" weight = "-0.029526486621452186" />
    <synapse sourceNeuronName = "7" targetNeuronName = "13" weight = "-0.8923410501208124" />
    <synapse sourceNeuronName = "7" targetNeuronName = "14" weight = "0.35448096315872224" />
    <synapse sourceNeuronName = "7" targetNeuronName = "15" weight = "-0.20346703087192264" />
    <synapse sourceNeuronName = "7" targetNeuronName = "16" weight = "0.5005497420253409" />
    <synapse sourceNeuronName = "8" targetNeuronName = "9" weight = "-0.850674382212155" />
    <synapse sourceNeuronName = "8" targetNeuronName = "10" weight = "-0.6827249817912124" />
    <synapse sourceNeuronName = "8" targetNeuronName = "11" weight = "-0.10673958248194348" />
    <synapse sourceNeuronName = "8" targetNeuronName = "12" weight = "-0.7407158563934746" />
    <synapse sourceNeuronName = "8" targetNeuronName = "13" weight = "-0.9712868722412582" />
    <synapse sourceNeuronName = "8" targetNeuronName = "14" weight = "-0.8139421703012855" />
    <synapse sourceNeuronName = "8" targetNeuronName = "15" weight = "-0.0752923787507096" />
    <synapse sourceNeuronName = "8" targetNeuronName = "16" weight = "-0.008019683589574944" />
</neuralNetwork>