<neuralNetwork>
    <neuron name = "0" type = "sensor" linkName = "Torso" />
    <neuron name = "1" type = "sensor" linkName = "BackLeg" />
    <neuron name = "2" type = "sensor" linkName = "FrontLeg" />
    <neuron name = "3" type = "sensor" linkName = "LeftLeg" />
    <neuron name = "4" type = "sensor" linkName = "RightLeg" />
    <neuron name = "5" type = "sensor" linkName = "BackLowerLeg" />
    <neuron name = "6" type = "sensor" linkName = "FrontLowerLeg" />
    <neuron name = "7" type = "sensor" linkName = "LeftLowerLeg" />
    <neuron name = "8" type = "sensor" linkName = "RightLowerLeg" />
    <neuron name = "9" type = "motor"  jointName = "Torso_BackLeg" />
    <neuron name = "10" type = "motor"  jointName = "Torso_FrontLeg" />
    <neuron name = "11" type = "motor"  jointName = "Torso_LeftLeg" />
    <neuron name = "12" type = "motor"  jointName = "Torso_RightLeg" />
    <neuron name = "13" type = "motor"  jointName = "BackLeg_BackLowerLeg" />
    <neuron name = "14" type = "motor"  jointName = "FrontLeg_FrontLowerLeg" />
    <neuron name = "15" type = "motor"  jointName = "LeftLeg_LeftLowerLeg" />
    <neuron name = "16" type = "motor"  jointName = "RightLeg_RightLowerLeg" />
    <synapse sourceNeuronName = "0" targetNeuronName = "9" weight = "0.9635481076536139" />
    <synapse sourceNeuronName = "0" targetNeuronName = "10" weight = "-0.07185984396137735" />
    <synapse sourceNeuronName = "0" targetNeuronName = "11" weight = "-0.1858408277169461" />
    <synapse sourceNeuronName = "0" targetNeuronName = "12" weight = "0.9348795621729951" />
    <synapse sourceNeuronName = "0" targetNeuronName = "13" weight = "-0.8088432716793514" />
    <synapse sourceNeuronName = "0" targetNeuronName = "14" weight = "-0.8105667036732092" />
    <synapse sourceNeuronName = "0" targetNeuronName = "15" weight = "0.5869941205721634" />
    <synapse sourceNeuronName = "0" targetNeuronName = "16" weight = "-0.3757921682894685" />
    <synapse sourceNeuronName = "1" targetNeuronName = "9" weight = "-0.5968701175522209" />
    <synapse sourceNeuronName = "1" targetNeuronName = "10" weight = "-0.1964745397378631" />
    <synapse sourceNeuronName = "1" targetNeuronName = "11" weight = "-0.4114594987421667" />
    <synapse sourceNeuronName = "1" targetNeuronName = "12" weight = "0.6706955745644885" />
    <synapse sourceNeuronName = "1" targetNeuronName = "13" weight = "0.7795648839449718" />
    <synapse sourceNeuronName = "1" targetNeuronName = "14" weight = "-0.031618160050777666" />
    <synapse sourceNeuronName = "1" targetNeuronName = "15" weight = "-0.4413972842409828" />
    <synapse sourceNeuronName = "1" targetNeuronName = "16" weight = "-0.6531434032553505" />
    <synapse sourceNeuronName = "2" targetNeuronName = "9" weight = "-0.3551898754534546" />
    <synapse sourceNeuronName = "2" targetNeuronName = "10" weight = "0.18462009749931596" />
    <synapse sourceNeuronName = "2" targetNeuronName = "11" weight = "0.3421486661227544" />
    <synapse sourceNeuronName = "2" targetNeuronName = "12" weight = "0.9063039909998276" />
    <synapse sourceNeuronName = "2" targetNeuronName = "13" weight = "-0.9915122190283707" />
    <synapse sourceNeuronName = "2" targetNeuronName = "14" weight = "0.24111854207134864" />
    <synapse sourceNeuronName = "2" targetNeuronName = "15" weight = "0.07780116155706795" />
    <synapse sourceNeuronName = "2" targetNeuronName = "16" weight = "-0.700630910810867" />
    <synapse sourceNeuronName = "3" targetNeuronName = "9" weight = "-0.7397644588208783" />
    <synapse sourceNeuronName = "3" targetNeuronName = "10" weight = "-0.3403304402294274" />
    <synapse sourceNeuronName = "3" targetNeuronName = "11" weight = "0.46273608035730196" />
    <synapse sourceNeuronName = "3" targetNeuronName = "12" weight = "-0.27707274286929273" />
    <synapse sourceNeuronName = "3" targetNeuronName = "13" weight = "-0.3634006196124897" />
    <synapse sourceNeuronName = "3" targetNeuronName = "14" weight = "0.910229688520056" />
    <synapse sourceNeuronName = "3" targetNeuronName = "15" weight = "0.9873045000417675" />
    <synapse sourceNeuronName = "3" targetNeuronName = "16" weight = "0.7131859065196275" />
    <synapse sourceNeuronName = "4" targetNeuronName = "9" weight = "-0.1384205016913893" />
    <synapse sourceNeuronName = "4" targetNeuronName = "10" weight = "-0.581410065929223" />
    <synapse sourceNeuronName = "4" targetNeuronName = "11" weight = "0.7195111091051287" />
    <synapse sourceNeuronName = "4" targetNeuronName = "12" weight = "0.8217529665148251" />
    <synapse sourceNeuronName = "4" targetNeuronName = "13" weight = "-0.7629897441532625" />
    <synapse sourceNeuronName = "4" targetNeuronName = "14" weight = "0.17041121880340837" />
    <synapse sourceNeuronName = "4" targetNeuronName = "15" weight = "-0.3438338815804516" />
    <synapse sourceNeuronName = "4" targetNeuronName = "16" weight = "0.1463840279835409" />
    <synapse sourceNeuronName = "5" targetNeuronName = "9" weight = "-0.5609918484051448" />
    <synapse sourceNeuronName = "5" targetNeuronName = "10" weight = "-0.4562914786906638" />
    <synapse sourceNeuronName = "5" targetNeuronName = "11" weight = "0.22830927876415363" />
    <synapse sourceNeuronName = "5" targetNeuronName = "12" weight = "0.6918872250126762" />
    <synapse sourceNeuronName = "5" targetNeuronName = "13" weight = "0.8674752816976123" />
    <synapse sourceNeuronName = "5" targetNeuronName = "14" weight = "0.07217951265367395" />
    <synapse sourceNeuronName = "5" targetNeuronName = "15" weight = "0.3364403802821452" />
    <synapse sourceNeuronName = "5" targetNeuronName = "16" weight = "-0.06400345777408778" />
    <synapse sourceNeuronName = "6" targetNeuronName = "9" weight = "-0.8018410155513431" />
    <synapse sourceNeuronName = "6" targetNeuronName = "10" weight = "-0.7147627385729012" />
    <synapse sourceNeuronName = "6" targetNeuronName = "11" weight = "0.08181763615297366" />
    <synapse sourceNeuronName = "6" targetNeuronName = "12" weight = "0.7709590884487156" />
    <synapse sourceNeuronName = "6" targetNeuronName = "13" weight = "-0.4593318306991807" />
    <synapse sourceNeuronName = "6" targetNeuronName = "14" weight = "-0.7327386761505306" />
    <synapse sourceNeuronName = "6" targetNeuronName = "15" weight = "-0.1645808393670627" />
    <synapse sourceNeuronName = "6" targetNeuronName = "16" weight = "-0.9490608704431849" />
    <synapse sourceNeuronName = "7" targetNeuronName = "9" weight = "0.6454080613163369" />
    <synapse sourceNeuronName = "7" targetNeuronName = "10" weight = "0.938622067390328" />
    <synapse sourceNeuronName = "7" targetNeuronName = "11" weight = "0.9538986996848087" />
    <synapse sourceNeuronName = "7" targetNeuronName = "12" weight = "-0.28359721377993674" />
    <synapse sourceNeuronName = "7" targetNeuronName = "13" weight = "0.8277975684079728" />
    <synapse sourceNeuronName = "7" targetNeuronName = "14" weight = "0.10308652616656389" />
    <synapse sourceNeuronName = "7" targetNeuronName = "15" weight = "0.4418766936048739" />
    <synapse sourceNeuronName = "7" targetNeuronName = "16" weight = "0.7665951988402997" />
    <synapse sourceNeuronName = "8" targetNeuronName = "9" weight = "0.11173188986865079" />
    <synapse sourceNeuronName = "8" targetNeuronName = "10" weight = "-0.6029917846082022" />
    <synapse sourceNeuronName = "8" targetNeuronName = "11" weight = "-0.6662806617616845" />
    <synapse sourceNeuronName = "8" targetNeuronName = "12" weight = "0.007775766466122436" />
    <synapse sourceNeuronName = "8" targetNeuronName = "13" weight = "-0.8271652787725559" />
    <synapse sourceNeuronName = "8" targetNeuronName = "14" weight = "0.3720697145542631" />
    <synapse sourceNeuronName = "8" targetNeuronName = "15" weight = "-0.10938037483810081" />
    <synapse sourceNeuronName = "8" targetNeuronName = "16" weight = "0.9053698803959953" />
</neuralNetwork>