<neuralNetwork>
    <neuron name = "0" type = "sensor" linkName = "Torso" />
    <neuron name = "1" type = "sensor" linkName = "BackLeg" />
    <neuron name = "2" type = "sensor" linkName = "FrontLeg" />
    <neuron name = "3" type = "sensor" linkName = "LeftLeg" />
    <neuron name = "4" type = "sensor" linkName = "RightLeg" />
    <neuron name = "5" type = "sensor" linkName = "BackLowerLeg" />
    <neuron name = "6" type = "sensor" linkName = "FrontLowerLeg" />
    <neuron name = "7" type = "sensor" linkName = "LeftLowerLeg" />
    <neuron name = "8" type = "sensor" linkName = "RightLowerLeg" />
    <neuron name = "9" type = "motor"  jointName = "Torso_BackLeg" />
    <neuron name = "10" type = "motor"  jointName = "Torso_FrontLeg" />
    <neuron name = "11" type = "motor"  jointName = "Torso_LeftLeg" />
    <neuron name = "12" type = "motor"  jointName = "Torso_RightLeg" />
    <neuron name = "13" type = "motor"  jointName = "BackLeg_BackLowerLeg" />
    <neuron name = "14" type = "motor"  jointName = "FrontLeg_FrontLowerLeg" />
    <neuron name = "15" type = "motor"  jointName = "LeftLeg_LeftLowerLeg" />
    <neuron name = "16" type = "motor"  jointName = "RightLeg_RightLowerLeg" />
    <synapse sourceNeuronName = "0" targetNeuronName = "9" weight = "-0.9801954186006201" />
    <synapse sourceNeuronName = "0" targetNeuronName = "10" weight = "-0.9826545496559747" />
    <synapse sourceNeuronName = "0" targetNeuronName = "11" weight = "0.09383917689777777" />
    <synapse sourceNeuronName = "0" targetNeuronName = "12" weight = "-0.9140040157299716" />
    <synapse sourceNeuronName = "0" targetNeuronName = "13" weight = "0.8777984632779838" />
    <synapse sourceNeuronName = "0" targetNeuronName = "14" weight = "-0.48568873965226134" />
    <synapse sourceNeuronName = "0" targetNeuronName = "15" weight = "0.5312529021330972" />
    <synapse sourceNeuronName = "0" targetNeuronName = "16" weight = "0.24103360852649747" />
    <synapse sourceNeuronName = "1" targetNeuronName = "9" weight = "-0.23974622822295277" />
    <synapse sourceNeuronName = "1" targetNeuronName = "10" weight = "0.45370649421099785" />
    <synapse sourceNeuronName = "1" targetNeuronName = "11" weight = "0.3682586136614028" />
    <synapse sourceNeuronName = "1" targetNeuronName = "12" weight = "0.8196028241250133" />
    <synapse sourceNeuronName = "1" targetNeuronName = "13" weight = "0.09081336891075398" />
    <synapse sourceNeuronName = "1" targetNeuronName = "14" weight = "-0.09890443997635479" />
    <synapse sourceNeuronName = "1" targetNeuronName = "15" weight = "0.8425125167170004" />
    <synapse sourceNeuronName = "1" targetNeuronName = "16" weight = "-0.4710918518623992" />
    <synapse sourceNeuronName = "2" targetNeuronName = "9" weight = "0.47370001628540415" />
    <synapse sourceNeuronName = "2" targetNeuronName = "10" weight = "0.7157286806714327" />
    <synapse sourceNeuronName = "2" targetNeuronName = "11" weight = "0.8463005870538887" />
    <synapse sourceNeuronName = "2" targetNeuronName = "12" weight = "-0.9069407603514881" />
    <synapse sourceNeuronName = "2" targetNeuronName = "13" weight = "0.004429212654596615" />
    <synapse sourceNeuronName = "2" targetNeuronName = "14" weight = "0.41510980509805107" />
    <synapse sourceNeuronName = "2" targetNeuronName = "15" weight = "-0.774956106926967" />
    <synapse sourceNeuronName = "2" targetNeuronName = "16" weight = "-0.34754583112244997" />
    <synapse sourceNeuronName = "3" targetNeuronName = "9" weight = "0.1844285194163744" />
    <synapse sourceNeuronName = "3" targetNeuronName = "10" weight = "0.7094958722123004" />
    <synapse sourceNeuronName = "3" targetNeuronName = "11" weight = "-0.7876277103420153" />
    <synapse sourceNeuronName = "3" targetNeuronName = "12" weight = "-0.3902635470204123" />
    <synapse sourceNeuronName = "3" targetNeuronName = "13" weight = "-0.029169754268179915" />
    <synapse sourceNeuronName = "3" targetNeuronName = "14" weight = "-0.5649785543561061" />
    <synapse sourceNeuronName = "3" targetNeuronName = "15" weight = "-0.031077972423787292" />
    <synapse sourceNeuronName = "3" targetNeuronName = "16" weight = "0.4146130876276466" />
    <synapse sourceNeuronName = "4" targetNeuronName = "9" weight = "0.1986614255215875" />
    <synapse sourceNeuronName = "4" targetNeuronName = "10" weight = "-0.20521338112700183" />
    <synapse sourceNeuronName = "4" targetNeuronName = "11" weight = "0.18396691535281495" />
    <synapse sourceNeuronName = "4" targetNeuronName = "12" weight = "-0.18775375627455815" />
    <synapse sourceNeuronName = "4" targetNeuronName = "13" weight = "0.9455569733032754" />
    <synapse sourceNeuronName = "4" targetNeuronName = "14" weight = "0.9881182215297069" />
    <synapse sourceNeuronName = "4" targetNeuronName = "15" weight = "-0.6431065626935137" />
    <synapse sourceNeuronName = "4" targetNeuronName = "16" weight = "-0.7493651618314696" />
    <synapse sourceNeuronName = "5" targetNeuronName = "9" weight = "-0.5543158699007165" />
    <synapse sourceNeuronName = "5" targetNeuronName = "10" weight = "-0.29533130113041883" />
    <synapse sourceNeuronName = "5" targetNeuronName = "11" weight = "-0.6260035275413824" />
    <synapse sourceNeuronName = "5" targetNeuronName = "12" weight = "0.5839785955466685" />
    <synapse sourceNeuronName = "5" targetNeuronName = "13" weight = "0.31055588668426215" />
    <synapse sourceNeuronName = "5" targetNeuronName = "14" weight = "0.9284253910611875" />
    <synapse sourceNeuronName = "5" targetNeuronName = "15" weight = "-0.7644470115193249" />
    <synapse sourceNeuronName = "5" targetNeuronName = "16" weight = "0.3036250847327837" />
    <synapse sourceNeuronName = "6" targetNeuronName = "9" weight = "-0.016294587941462657" />
    <synapse sourceNeuronName = "6" targetNeuronName = "10" weight = "-0.7370145074532695" />
    <synapse sourceNeuronName = "6" targetNeuronName = "11" weight = "0.9743786042999596" />
    <synapse sourceNeuronName = "6" targetNeuronName = "12" weight = "0.8956715996185629" />
    <synapse sourceNeuronName = "6" targetNeuronName = "13" weight = "0.024314494620554683" />
    <synapse sourceNeuronName = "6" targetNeuronName = "14" weight = "0.6409631751319265" />
    <synapse sourceNeuronName = "6" targetNeuronName = "15" weight = "0.5706071204407714" />
    <synapse sourceNeuronName = "6" targetNeuronName = "16" weight = "0.2803105161935917" />
    <synapse sourceNeuronName = "7" targetNeuronName = "9" weight = "0.6094043826399198" />
    <synapse sourceNeuronName = "7" targetNeuronName = "10" weight = "-0.6879064525390288" />
    <synapse sourceNeuronName = "7" targetNeuronName = "11" weight = "0.3980714037768578" />
    <synapse sourceNeuronName = "7" targetNeuronName = "12" weight = "0.23592858816702678" />
    <synapse sourceNeuronName = "7" targetNeuronName = "13" weight = "0.5927827588406254" />
    <synapse sourceNeuronName = "7" targetNeuronName = "14" weight = "-0.10232733339030253" />
    <synapse sourceNeuronName = "7" targetNeuronName = "15" weight = "0.19240219421829097" />
    <synapse sourceNeuronName = "7" targetNeuronName = "16" weight = "-0.8608913217006751" />
    <synapse sourceNeuronName = "8" targetNeuronName = "9" weight = "0.005876304848911662" />
    <synapse sourceNeuronName = "8" targetNeuronName = "10" weight = "0.35945552339837916" />
    <synapse sourceNeuronName = "8" targetNeuronName = "11" weight = "-0.9723157753191836" />
    <synapse sourceNeuronName = "8" targetNeuronName = "12" weight = "-0.5766840871906056" />
    <synapse sourceNeuronName = "8" targetNeuronName = "13" weight = "0.24730898900169063" />
    <synapse sourceNeuronName = "8" targetNeuronName = "14" weight = "-0.9411558365032839" />
    <synapse sourceNeuronName = "8" targetNeuronName = "15" weight = "-0.7485025921205466" />
    <synapse sourceNeuronName = "8" targetNeuronName = "16" weight = "0.9413435051910246" />
</neuralNetwork>