<neuralNetwork>
    <neuron name = "0" type = "sensor" linkName = "Torso" />
    <neuron name = "1" type = "sensor" linkName = "BackLeg" />
    <neuron name = "2" type = "sensor" linkName = "FrontLeg" />
    <neuron name = "3" type = "sensor" linkName = "LeftLeg" />
    <neuron name = "4" type = "sensor" linkName = "RightLeg" />
    <neuron name = "5" type = "sensor" linkName = "BackLowerLeg" />
    <neuron name = "6" type = "sensor" linkName = "FrontLowerLeg" />
    <neuron name = "7" type = "sensor" linkName = "LeftLowerLeg" />
    <neuron name = "8" type = "sensor" linkName = "RightLowerLeg" />
    <neuron name = "9" type = "motor"  jointName = "Torso_BackLeg" />
    <neuron name = "10" type = "motor"  jointName = "Torso_FrontLeg" />
    <neuron name = "11" type = "motor"  jointName = "Torso_LeftLeg" />
    <neuron name = "12" type = "motor"  jointName = "Torso_RightLeg" />
    <neuron name = "13" type = "motor"  jointName = "BackLeg_BackLowerLeg" />
    <neuron name = "14" type = "motor"  jointName = "FrontLeg_FrontLowerLeg" />
    <neuron name = "15" type = "motor"  jointName = "LeftLeg_LeftLowerLeg" />
    <neuron name = "16" type = "motor"  jointName = "RightLeg_RightLowerLeg" />
    <synapse sourceNeuronName = "0" targetNeuronName = "9" weight = "-0.5856505296736769" />
    <synapse sourceNeuronName = "0" targetNeuronName = "10" weight = "-0.10787138545941" />
    <synapse sourceNeuronName = "0" targetNeuronName = "11" weight = "0.5810337800072507" />
    <synapse sourceNeuronName = "0" targetNeuronName = "12" weight = "-0.6020126692104641" />
    <synapse sourceNeuronName = "0" targetNeuronName = "13" weight = "-0.29337522105892266" />
    <synapse sourceNeuronName = "0" targetNeuronName = "14" weight = "0.6693189177375614" />
    <synapse sourceNeuronName = "0" targetNeuronName = "15" weight = "0.05169211577999855" />
    <synapse sourceNeuronName = "0" targetNeuronName = "16" weight = "-0.9055835048107208" />
    <synapse sourceNeuronName = "1" targetNeuronName = "9" weight = "0.4913663399703019" />
    <synapse sourceNeuronName = "1" targetNeuronName = "10" weight = "0.2970390374109304" />
    <synapse sourceNeuronName = "1" targetNeuronName = "11" weight = "0.5894132550426958" />
    <synapse sourceNeuronName = "1" targetNeuronName = "12" weight = "0.23596624057707816" />
    <synapse sourceNeuronName = "1" targetNeuronName = "13" weight = "0.903049533433939" />
    <synapse sourceNeuronName = "1" targetNeuronName = "14" weight = "0.05536187669467352" />
    <synapse sourceNeuronName = "1" targetNeuronName = "15" weight = "0.7954834743142685" />
    <synapse sourceNeuronName = "1" targetNeuronName = "16" weight = "0.23857326145593083" />
    <synapse sourceNeuronName = "2" targetNeuronName = "9" weight = "0.6507329160679556" />
    <synapse sourceNeuronName = "2" targetNeuronName = "10" weight = "0.10838917759538713" />
    <synapse sourceNeuronName = "2" targetNeuronName = "11" weight = "0.07707942047264371" />
    <synapse sourceNeuronName = "2" targetNeuronName = "12" weight = "-0.9326035847407588" />
    <synapse sourceNeuronName = "2" targetNeuronName = "13" weight = "0.7628072568052255" />
    <synapse sourceNeuronName = "2" targetNeuronName = "14" weight = "-0.1833645953517984" />
    <synapse sourceNeuronName = "2" targetNeuronName = "15" weight = "0.17564071594224928" />
    <synapse sourceNeuronName = "2" targetNeuronName = "16" weight = "0.8576816441234585" />
    <synapse sourceNeuronName = "3" targetNeuronName = "9" weight = "0.45467619381132307" />
    <synapse sourceNeuronName = "3" targetNeuronName = "10" weight = "0.9203035310740935" />
    <synapse sourceNeuronName = "3" targetNeuronName = "11" weight = "-0.9288128965502631" />
    <synapse sourceNeuronName = "3" targetNeuronName = "12" weight = "-0.8034936643468997" />
    <synapse sourceNeuronName = "3" targetNeuronName = "13" weight = "0.0926319116432337" />
    <synapse sourceNeuronName = "3" targetNeuronName = "14" weight = "0.28956122344370105" />
    <synapse sourceNeuronName = "3" targetNeuronName = "15" weight = "0.9272580205955754" />
    <synapse sourceNeuronName = "3" targetNeuronName = "16" weight = "-0.04860782731061741" />
    <synapse sourceNeuronName = "4" targetNeuronName = "9" weight = "-0.8673044352560746" />
    <synapse sourceNeuronName = "4" targetNeuronName = "10" weight = "0.34918196882381203" />
    <synapse sourceNeuronName = "4" targetNeuronName = "11" weight = "0.6278086995710319" />
    <synapse sourceNeuronName = "4" targetNeuronName = "12" weight = "-0.7892217151204299" />
    <synapse sourceNeuronName = "4" targetNeuronName = "13" weight = "-0.5785383715186039" />
    <synapse sourceNeuronName = "4" targetNeuronName = "14" weight = "-0.8048039980242683" />
    <synapse sourceNeuronName = "4" targetNeuronName = "15" weight = "0.6150159346855544" />
    <synapse sourceNeuronName = "4" targetNeuronName = "16" weight = "0.3576842351622953" />
    <synapse sourceNeuronName = "5" targetNeuronName = "9" weight = "0.6266783835231615" />
    <synapse sourceNeuronName = "5" targetNeuronName = "10" weight = "-0.25466911665871517" />
    <synapse sourceNeuronName = "5" targetNeuronName = "11" weight = "-0.6816529984380235" />
    <synapse sourceNeuronName = "5" targetNeuronName = "12" weight = "-0.8309431937589535" />
    <synapse sourceNeuronName = "5" targetNeuronName = "13" weight = "-0.12102692172957186" />
    <synapse sourceNeuronName = "5" targetNeuronName = "14" weight = "-0.8953662718938451" />
    <synapse sourceNeuronName = "5" targetNeuronName = "15" weight = "-0.04505920195763813" />
    <synapse sourceNeuronName = "5" targetNeuronName = "16" weight = "0.7957662977086455" />
    <synapse sourceNeuronName = "6" targetNeuronName = "9" weight = "-0.08566123855990693" />
    <synapse sourceNeuronName = "6" targetNeuronName = "10" weight = "-0.06467151825017403" />
    <synapse sourceNeuronName = "6" targetNeuronName = "11" weight = "0.19792664177139563" />
    <synapse sourceNeuronName = "6" targetNeuronName = "12" weight = "-0.7306388721223309" />
    <synapse sourceNeuronName = "6" targetNeuronName = "13" weight = "0.899428700575035" />
    <synapse sourceNeuronName = "6" targetNeuronName = "14" weight = "0.3364669409791934" />
    <synapse sourceNeuronName = "6" targetNeuronName = "15" weight = "0.05729490198205878" />
    <synapse sourceNeuronName = "6" targetNeuronName = "16" weight = "-0.28949179863458063" />
    <synapse sourceNeuronName = "7" targetNeuronName = "9" weight = "-0.8943854432210021" />
    <synapse sourceNeuronName = "7" targetNeuronName = "10" weight = "-0.08785352991190987" />
    <synapse sourceNeuronName = "7" targetNeuronName = "11" weight = "0.4799318712505112" />
    <synapse sourceNeuronName = "7" targetNeuronName = "12" weight = "-0.00518110806733163" />
    <synapse sourceNeuronName = "7" targetNeuronName = "13" weight = "0.8117018368961864" />
    <synapse sourceNeuronName = "7" targetNeuronName = "14" weight = "-0.8945605117669353" />
    <synapse sourceNeuronName = "7" targetNeuronName = "15" weight = "0.7937910641832286" />
    <synapse sourceNeuronName = "7" targetNeuronName = "16" weight = "0.7652539275553316" />
    <synapse sourceNeuronName = "8" targetNeuronName = "9" weight = "-0.901805742965273" />
    <synapse sourceNeuronName = "8" targetNeuronName = "10" weight = "0.8090425496116331" />
    <synapse sourceNeuronName = "8" targetNeuronName = "11" weight = "0.7058419846511899" />
    <synapse sourceNeuronName = "8" targetNeuronName = "12" weight = "-0.8400893669379914" />
    <synapse sourceNeuronName = "8" targetNeuronName = "13" weight = "0.8383265008014313" />
    <synapse sourceNeuronName = "8" targetNeuronName = "14" weight = "-0.46556358297270206" />
    <synapse sourceNeuronName = "8" targetNeuronName = "15" weight = "-0.7695162858308049" />
    <synapse sourceNeuronName = "8" targetNeuronName = "16" weight = "0.8000349883811213" />
</neuralNetwork>