<neuralNetwork>
    <neuron name = "0" type = "sensor" linkName = "Torso" />
    <neuron name = "1" type = "sensor" linkName = "BackLeg" />
    <neuron name = "2" type = "sensor" linkName = "FrontLeg" />
    <neuron name = "3" type = "sensor" linkName = "LeftLeg" />
    <neuron name = "4" type = "sensor" linkName = "RightLeg" />
    <neuron name = "5" type = "sensor" linkName = "BackLowerLeg" />
    <neuron name = "6" type = "sensor" linkName = "FrontLowerLeg" />
    <neuron name = "7" type = "sensor" linkName = "LeftLowerLeg" />
    <neuron name = "8" type = "sensor" linkName = "RightLowerLeg" />
    <neuron name = "9" type = "motor"  jointName = "Torso_BackLeg" />
    <neuron name = "10" type = "motor"  jointName = "Torso_FrontLeg" />
    <neuron name = "11" type = "motor"  jointName = "Torso_LeftLeg" />
    <neuron name = "12" type = "motor"  jointName = "Torso_RightLeg" />
    <neuron name = "13" type = "motor"  jointName = "BackLeg_BackLowerLeg" />
    <neuron name = "14" type = "motor"  jointName = "FrontLeg_FrontLowerLeg" />
    <neuron name = "15" type = "motor"  jointName = "LeftLeg_LeftLowerLeg" />
    <neuron name = "16" type = "motor"  jointName = "RightLeg_RightLowerLeg" />
    <synapse sourceNeuronName = "0" targetNeuronName = "9" weight = "0.8062505344712827" />
    <synapse sourceNeuronName = "0" targetNeuronName = "10" weight = "0.9903872049331404" />
    <synapse sourceNeuronName = "0" targetNeuronName = "11" weight = "0.19073312852145796" />
    <synapse sourceNeuronName = "0" targetNeuronName = "12" weight = "-0.44935419883003225" />
    <synapse sourceNeuronName = "0" targetNeuronName = "13" weight = "0.2626141874690944" />
    <synapse sourceNeuronName = "0" targetNeuronName = "14" weight = "0.9578245043159233" />
    <synapse sourceNeuronName = "0" targetNeuronName = "15" weight = "0.7281750825385742" />
    <synapse sourceNeuronName = "0" targetNeuronName = "16" weight = "0.6876923688274406" />
    <synapse sourceNeuronName = "1" targetNeuronName = "9" weight = "0.08718941606841901" />
    <synapse sourceNeuronName = "1" targetNeuronName = "10" weight = "0.8804962679511594" />
    <synapse sourceNeuronName = "1" targetNeuronName = "11" weight = "-0.05627288682678322" />
    <synapse sourceNeuronName = "1" targetNeuronName = "12" weight = "0.3457504061380716" />
    <synapse sourceNeuronName = "1" targetNeuronName = "13" weight = "0.5389542357323744" />
    <synapse sourceNeuronName = "1" targetNeuronName = "14" weight = "0.8180427854517056" />
    <synapse sourceNeuronName = "1" targetNeuronName = "15" weight = "0.2626427573437351" />
    <synapse sourceNeuronName = "1" targetNeuronName = "16" weight = "-0.14599139974321296" />
    <synapse sourceNeuronName = "2" targetNeuronName = "9" weight = "0.9219513798166721" />
    <synapse sourceNeuronName = "2" targetNeuronName = "10" weight = "-0.368397153009135" />
    <synapse sourceNeuronName = "2" targetNeuronName = "11" weight = "0.8967317565902939" />
    <synapse sourceNeuronName = "2" targetNeuronName = "12" weight = "-0.4460864135287159" />
    <synapse sourceNeuronName = "2" targetNeuronName = "13" weight = "-0.9715860350588905" />
    <synapse sourceNeuronName = "2" targetNeuronName = "14" weight = "-0.898439827783925" />
    <synapse sourceNeuronName = "2" targetNeuronName = "15" weight = "-0.16239096360985217" />
    <synapse sourceNeuronName = "2" targetNeuronName = "16" weight = "-0.6182082939158566" />
    <synapse sourceNeuronName = "3" targetNeuronName = "9" weight = "-0.20823200287759414" />
    <synapse sourceNeuronName = "3" targetNeuronName = "10" weight = "-0.139477232903499" />
    <synapse sourceNeuronName = "3" targetNeuronName = "11" weight = "0.028344153350959855" />
    <synapse sourceNeuronName = "3" targetNeuronName = "12" weight = "0.2009870358172321" />
    <synapse sourceNeuronName = "3" targetNeuronName = "13" weight = "-0.9914122223339867" />
    <synapse sourceNeuronName = "3" targetNeuronName = "14" weight = "0.22805393344258018" />
    <synapse sourceNeuronName = "3" targetNeuronName = "15" weight = "-0.0812966992827433" />
    <synapse sourceNeuronName = "3" targetNeuronName = "16" weight = "0.5461604639041557" />
    <synapse sourceNeuronName = "4" targetNeuronName = "9" weight = "-0.9191236739424353" />
    <synapse sourceNeuronName = "4" targetNeuronName = "10" weight = "0.43711244870076227" />
    <synapse sourceNeuronName = "4" targetNeuronName = "11" weight = "-0.3827008091810842" />
    <synapse sourceNeuronName = "4" targetNeuronName = "12" weight = "0.16190659157158005" />
    <synapse sourceNeuronName = "4" targetNeuronName = "13" weight = "0.1348713603845011" />
    <synapse sourceNeuronName = "4" targetNeuronName = "14" weight = "0.2141625201112709" />
    <synapse sourceNeuronName = "4" targetNeuronName = "15" weight = "0.85260705425553" />
    <synapse sourceNeuronName = "4" targetNeuronName = "16" weight = "-0.25632228359832077" />
    <synapse sourceNeuronName = "5" targetNeuronName = "9" weight = "0.6029126018950257" />
    <synapse sourceNeuronName = "5" targetNeuronName = "10" weight = "-0.9539363623303412" />
    <synapse sourceNeuronName = "5" targetNeuronName = "11" weight = "0.6538664882333856" />
    <synapse sourceNeuronName = "5" targetNeuronName = "12" weight = "0.5545814807365173" />
    <synapse sourceNeuronName = "5" targetNeuronName = "13" weight = "0.8068991482014714" />
    <synapse sourceNeuronName = "5" targetNeuronName = "14" weight = "-0.5073117669957092" />
    <synapse sourceNeuronName = "5" targetNeuronName = "15" weight = "-0.5586611253539" />
    <synapse sourceNeuronName = "5" targetNeuronName = "16" weight = "-0.3708381863540491" />
    <synapse sourceNeuronName = "6" targetNeuronName = "9" weight = "0.5072483692350542" />
    <synapse sourceNeuronName = "6" targetNeuronName = "10" weight = "0.21933565778383035" />
    <synapse sourceNeuronName = "6" targetNeuronName = "11" weight = "-0.19427213131603782" />
    <synapse sourceNeuronName = "6" targetNeuronName = "12" weight = "-0.9542606603253256" />
    <synapse sourceNeuronName = "6" targetNeuronName = "13" weight = "-0.5194098828399341" />
    <synapse sourceNeuronName = "6" targetNeuronName = "14" weight = "-0.5665237833502679" />
    <synapse sourceNeuronName = "6" targetNeuronName = "15" weight = "-0.11021649476161666" />
    <synapse sourceNeuronName = "6" targetNeuronName = "16" weight = "0.024911064075349598" />
    <synapse sourceNeuronName = "7" targetNeuronName = "9" weight = "-0.7360967754057111" />
    <synapse sourceNeuronName = "7" targetNeuronName = "10" weight = "-0.0744018716429733" />
    <synapse sourceNeuronName = "7" targetNeuronName = "11" weight = "-0.9695038131398945" />
    <synapse sourceNeuronName = "7" targetNeuronName = "12" weight = "0.23187279199911326" />
    <synapse sourceNeuronName = "7" targetNeuronName = "13" weight = "0.83392237052173" />
    <synapse sourceNeuronName = "7" targetNeuronName = "14" weight = "0.9949480607549905" />
    <synapse sourceNeuronName = "7" targetNeuronName = "15" weight = "0.22752261429983034" />
    <synapse sourceNeuronName = "7" targetNeuronName = "16" weight = "0.7758673437244614" />
    <synapse sourceNeuronName = "8" targetNeuronName = "9" weight = "-0.303766649128165" />
    <synapse sourceNeuronName = "8" targetNeuronName = "10" weight = "0.872588238403549" />
    <synapse sourceNeuronName = "8" targetNeuronName = "11" weight = "-0.40253700704044415" />
    <synapse sourceNeuronName = "8" targetNeuronName = "12" weight = "-0.08394921386811305" />
    <synapse sourceNeuronName = "8" targetNeuronName = "13" weight = "0.8493051281152519" />
    <synapse sourceNeuronName = "8" targetNeuronName = "14" weight = "0.06350928703646552" />
    <synapse sourceNeuronName = "8" targetNeuronName = "15" weight = "-0.7054837493469768" />
    <synapse sourceNeuronName = "8" targetNeuronName = "16" weight = "0.730893673815509" />
</neuralNetwork>