<neuralNetwork>
    <neuron name = "0" type = "sensor" linkName = "Torso" />
    <neuron name = "1" type = "sensor" linkName = "BackLeg" />
    <neuron name = "2" type = "sensor" linkName = "FrontLeg" />
    <neuron name = "3" type = "sensor" linkName = "LeftLeg" />
    <neuron name = "4" type = "sensor" linkName = "RightLeg" />
    <neuron name = "5" type = "sensor" linkName = "BackLowerLeg" />
    <neuron name = "6" type = "sensor" linkName = "FrontLowerLeg" />
    <neuron name = "7" type = "sensor" linkName = "LeftLowerLeg" />
    <neuron name = "8" type = "sensor" linkName = "RightLowerLeg" />
    <neuron name = "9" type = "motor"  jointName = "Torso_BackLeg" />
    <neuron name = "10" type = "motor"  jointName = "Torso_FrontLeg" />
    <neuron name = "11" type = "motor"  jointName = "Torso_LeftLeg" />
    <neuron name = "12" type = "motor"  jointName = "Torso_RightLeg" />
    <neuron name = "13" type = "motor"  jointName = "BackLeg_BackLowerLeg" />
    <neuron name = "14" type = "motor"  jointName = "FrontLeg_FrontLowerLeg" />
    <neuron name = "15" type = "motor"  jointName = "LeftLeg_LeftLowerLeg" />
    <neuron name = "16" type = "motor"  jointName = "RightLeg_RightLowerLeg" />
    <synapse sourceNeuronName = "0" targetNeuronName = "9" weight = "0.0017049057735130102" />
    <synapse sourceNeuronName = "0" targetNeuronName = "10" weight = "-0.35540615269261" />
    <synapse sourceNeuronName = "0" targetNeuronName = "11" weight = "0.1400323865565376" />
    <synapse sourceNeuronName = "0" targetNeuronName = "12" weight = "-0.5878442439135936" />
    <synapse sourceNeuronName = "0" targetNeuronName = "13" weight = "0.6032563591066948" />
    <synapse sourceNeuronName = "0" targetNeuronName = "14" weight = "-0.8404322337049452" />
    <synapse sourceNeuronName = "0" targetNeuronName = "15" weight = "-0.7391683456599694" />
    <synapse sourceNeuronName = "0" targetNeuronName = "16" weight = "0.5337337246650753" />
    <synapse sourceNeuronName = "1" targetNeuronName = "9" weight = "-0.42976740956549087" />
    <synapse sourceNeuronName = "1" targetNeuronName = "10" weight = "0.5435678605347412" />
    <synapse sourceNeuronName = "1" targetNeuronName = "11" weight = "0.3010179018602124" />
    <synapse sourceNeuronName = "1" targetNeuronName = "12" weight = "0.7970143121419164" />
    <synapse sourceNeuronName = "1" targetNeuronName = "13" weight = "-0.24201309849499997" />
    <synapse sourceNeuronName = "1" targetNeuronName = "14" weight = "-0.8125423969617558" />
    <synapse sourceNeuronName = "1" targetNeuronName = "15" weight = "0.8541598896606246" />
    <synapse sourceNeuronName = "1" targetNeuronName = "16" weight = "0.8150115896142831" />
    <synapse sourceNeuronName = "2" targetNeuronName = "9" weight = "-0.19376335262312971" />
    <synapse sourceNeuronName = "2" targetNeuronName = "10" weight = "-0.65890870202996" />
    <synapse sourceNeuronName = "2" targetNeuronName = "11" weight = "-0.8742751282944781" />
    <synapse sourceNeuronName = "2" targetNeuronName = "12" weight = "-0.5549077301886931" />
    <synapse sourceNeuronName = "2" targetNeuronName = "13" weight = "-0.5679323338779425" />
    <synapse sourceNeuronName = "2" targetNeuronName = "14" weight = "0.26716584295641255" />
    <synapse sourceNeuronName = "2" targetNeuronName = "15" weight = "-0.8054411770274978" />
    <synapse sourceNeuronName = "2" targetNeuronName = "16" weight = "0.47799373272988466" />
    <synapse sourceNeuronName = "3" targetNeuronName = "9" weight = "-0.26148132802061363" />
    <synapse sourceNeuronName = "3" targetNeuronName = "10" weight = "0.25111722535337044" />
    <synapse sourceNeuronName = "3" targetNeuronName = "11" weight = "0.7551582364294558" />
    <synapse sourceNeuronName = "3" targetNeuronName = "12" weight = "-0.24529792575358655" />
    <synapse sourceNeuronName = "3" targetNeuronName = "13" weight = "0.10782270991193155" />
    <synapse sourceNeuronName = "3" targetNeuronName = "14" weight = "0.4018897398765062" />
    <synapse sourceNeuronName = "3" targetNeuronName = "15" weight = "-0.7326377702757967" />
    <synapse sourceNeuronName = "3" targetNeuronName = "16" weight = "-0.21731851098209343" />
    <synapse sourceNeuronName = "4" targetNeuronName = "9" weight = "0.35852533898222294" />
    <synapse sourceNeuronName = "4" targetNeuronName = "10" weight = "-0.8164917206987414" />
    <synapse sourceNeuronName = "4" targetNeuronName = "11" weight = "-0.5430401728172711" />
    <synapse sourceNeuronName = "4" targetNeuronName = "12" weight = "0.5257517646785639" />
    <synapse sourceNeuronName = "4" targetNeuronName = "13" weight = "-0.8567141848460926" />
    <synapse sourceNeuronName = "4" targetNeuronName = "14" weight = "-0.7166204319510157" />
    <synapse sourceNeuronName = "4" targetNeuronName = "15" weight = "0.16323416625797216" />
    <synapse sourceNeuronName = "4" targetNeuronName = "16" weight = "0.15925404480715843" />
    <synapse sourceNeuronName = "5" targetNeuronName = "9" weight = "-0.5252075264153022" />
    <synapse sourceNeuronName = "5" targetNeuronName = "10" weight = "-0.18847241444024143" />
    <synapse sourceNeuronName = "5" targetNeuronName = "11" weight = "-0.5651984325168891" />
    <synapse sourceNeuronName = "5" targetNeuronName = "12" weight = "0.7961403676007777" />
    <synapse sourceNeuronName = "5" targetNeuronName = "13" weight = "-0.042570310918628174" />
    <synapse sourceNeuronName = "5" targetNeuronName = "14" weight = "0.3806524264810014" />
    <synapse sourceNeuronName = "5" targetNeuronName = "15" weight = "-0.5549200515911614" />
    <synapse sourceNeuronName = "5" targetNeuronName = "16" weight = "-0.1332129355682019" />
    <synapse sourceNeuronName = "6" targetNeuronName = "9" weight = "-0.9773660700385491" />
    <synapse sourceNeuronName = "6" targetNeuronName = "10" weight = "-0.025121667441856177" />
    <synapse sourceNeuronName = "6" targetNeuronName = "11" weight = "-0.01728067892878915" />
    <synapse sourceNeuronName = "6" targetNeuronName = "12" weight = "-0.3424085159933645" />
    <synapse sourceNeuronName = "6" targetNeuronName = "13" weight = "0.22703507230722542" />
    <synapse sourceNeuronName = "6" targetNeuronName = "14" weight = "0.5732973492245337" />
    <synapse sourceNeuronName = "6" targetNeuronName = "15" weight = "0.45592640911569626" />
    <synapse sourceNeuronName = "6" targetNeuronName = "16" weight = "-0.9974535849184845" />
    <synapse sourceNeuronName = "7" targetNeuronName = "9" weight = "0.5716004972793742" />
    <synapse sourceNeuronName = "7" targetNeuronName = "10" weight = "0.2518546140607094" />
    <synapse sourceNeuronName = "7" targetNeuronName = "11" weight = "0.6320502065659581" />
    <synapse sourceNeuronName = "7" targetNeuronName = "12" weight = "-0.8141597092849975" />
    <synapse sourceNeuronName = "7" targetNeuronName = "13" weight = "-0.9033879509046188" />
    <synapse sourceNeuronName = "7" targetNeuronName = "14" weight = "0.5017673720938349" />
    <synapse sourceNeuronName = "7" targetNeuronName = "15" weight = "-0.8836141684538961" />
    <synapse sourceNeuronName = "7" targetNeuronName = "16" weight = "-0.20867866942839752" />
    <synapse sourceNeuronName = "8" targetNeuronName = "9" weight = "0.9323882429223953" />
    <synapse sourceNeuronName = "8" targetNeuronName = "10" weight = "0.25016043427263734" />
    <synapse sourceNeuronName = "8" targetNeuronName = "11" weight = "-0.17099752300864735" />
    <synapse sourceNeuronName = "8" targetNeuronName = "12" weight = "0.44224465862997353" />
    <synapse sourceNeuronName = "8" targetNeuronName = "13" weight = "0.5629161650777936" />
    <synapse sourceNeuronName = "8" targetNeuronName = "14" weight = "-0.24401451381357497" />
    <synapse sourceNeuronName = "8" targetNeuronName = "15" weight = "0.25770654260955994" />
    <synapse sourceNeuronName = "8" targetNeuronName = "16" weight = "-0.639308518086704" />
</neuralNetwork>