<neuralNetwork>
    <neuron name = "0" type = "sensor" linkName = "Torso" />
    <neuron name = "1" type = "sensor" linkName = "BackLeg" />
    <neuron name = "2" type = "sensor" linkName = "FrontLeg" />
    <neuron name = "3" type = "sensor" linkName = "LeftLeg" />
    <neuron name = "4" type = "sensor" linkName = "RightLeg" />
    <neuron name = "5" type = "sensor" linkName = "BackLowerLeg" />
    <neuron name = "6" type = "sensor" linkName = "FrontLowerLeg" />
    <neuron name = "7" type = "sensor" linkName = "LeftLowerLeg" />
    <neuron name = "8" type = "sensor" linkName = "RightLowerLeg" />
    <neuron name = "9" type = "motor"  jointName = "Torso_BackLeg" />
    <neuron name = "10" type = "motor"  jointName = "Torso_FrontLeg" />
    <neuron name = "11" type = "motor"  jointName = "Torso_LeftLeg" />
    <neuron name = "12" type = "motor"  jointName = "Torso_RightLeg" />
    <neuron name = "13" type = "motor"  jointName = "BackLeg_BackLowerLeg" />
    <neuron name = "14" type = "motor"  jointName = "FrontLeg_FrontLowerLeg" />
    <neuron name = "15" type = "motor"  jointName = "LeftLeg_LeftLowerLeg" />
    <neuron name = "16" type = "motor"  jointName = "RightLeg_RightLowerLeg" />
    <synapse sourceNeuronName = "0" targetNeuronName = "9" weight = "-0.526425915101304" />
    <synapse sourceNeuronName = "0" targetNeuronName = "10" weight = "0.0020634016345051354" />
    <synapse sourceNeuronName = "0" targetNeuronName = "11" weight = "0.23117077741965253" />
    <synapse sourceNeuronName = "0" targetNeuronName = "12" weight = "0.35577126633575284" />
    <synapse sourceNeuronName = "0" targetNeuronName = "13" weight = "0.2664496798703211" />
    <synapse sourceNeuronName = "0" targetNeuronName = "14" weight = "-0.8663672979800556" />
    <synapse sourceNeuronName = "0" targetNeuronName = "15" weight = "-0.35655677102067806" />
    <synapse sourceNeuronName = "0" targetNeuronName = "16" weight = "0.06067395955508936" />
    <synapse sourceNeuronName = "1" targetNeuronName = "9" weight = "-0.36306846005271565" />
    <synapse sourceNeuronName = "1" targetNeuronName = "10" weight = "-0.0730889819227809" />
    <synapse sourceNeuronName = "1" targetNeuronName = "11" weight = "0.5948576035309932" />
    <synapse sourceNeuronName = "1" targetNeuronName = "12" weight = "-0.4999745876301269" />
    <synapse sourceNeuronName = "1" targetNeuronName = "13" weight = "-0.1423455061478398" />
    <synapse sourceNeuronName = "1" targetNeuronName = "14" weight = "-0.4920986364381075" />
    <synapse sourceNeuronName = "1" targetNeuronName = "15" weight = "0.02799943134276206" />
    <synapse sourceNeuronName = "1" targetNeuronName = "16" weight = "0.5610671737566559" />
    <synapse sourceNeuronName = "2" targetNeuronName = "9" weight = "-0.2730119722273059" />
    <synapse sourceNeuronName = "2" targetNeuronName = "10" weight = "0.4652733523952248" />
    <synapse sourceNeuronName = "2" targetNeuronName = "11" weight = "-0.8438212466252475" />
    <synapse sourceNeuronName = "2" targetNeuronName = "12" weight = "-0.2494318480234372" />
    <synapse sourceNeuronName = "2" targetNeuronName = "13" weight = "0.0008811737831995181" />
    <synapse sourceNeuronName = "2" targetNeuronName = "14" weight = "0.9512812817460194" />
    <synapse sourceNeuronName = "2" targetNeuronName = "15" weight = "-0.018061974320725982" />
    <synapse sourceNeuronName = "2" targetNeuronName = "16" weight = "0.21112536746962784" />
    <synapse sourceNeuronName = "3" targetNeuronName = "9" weight = "-0.2631022767345226" />
    <synapse sourceNeuronName = "3" targetNeuronName = "10" weight = "-0.9839893985044494" />
    <synapse sourceNeuronName = "3" targetNeuronName = "11" weight = "0.45591328283831833" />
    <synapse sourceNeuronName = "3" targetNeuronName = "12" weight = "-0.8596975887455893" />
    <synapse sourceNeuronName = "3" targetNeuronName = "13" weight = "-0.2807876755535652" />
    <synapse sourceNeuronName = "3" targetNeuronName = "14" weight = "-0.5606286705720231" />
    <synapse sourceNeuronName = "3" targetNeuronName = "15" weight = "0.6950458282819372" />
    <synapse sourceNeuronName = "3" targetNeuronName = "16" weight = "0.4671949523023209" />
    <synapse sourceNeuronName = "4" targetNeuronName = "9" weight = "-0.37553529761212334" />
    <synapse sourceNeuronName = "4" targetNeuronName = "10" weight = "-0.9170427278428286" />
    <synapse sourceNeuronName = "4" targetNeuronName = "11" weight = "-0.7032249036921003" />
    <synapse sourceNeuronName = "4" targetNeuronName = "12" weight = "-0.02917993314235945" />
    <synapse sourceNeuronName = "4" targetNeuronName = "13" weight = "0.9974548830160681" />
    <synapse sourceNeuronName = "4" targetNeuronName = "14" weight = "-0.8741129027837857" />
    <synapse sourceNeuronName = "4" targetNeuronName = "15" weight = "0.8385539416133725" />
    <synapse sourceNeuronName = "4" targetNeuronName = "16" weight = "-0.16533522190214778" />
    <synapse sourceNeuronName = "5" targetNeuronName = "9" weight = "-0.4696180804360772" />
    <synapse sourceNeuronName = "5" targetNeuronName = "10" weight = "-0.6339090656990429" />
    <synapse sourceNeuronName = "5" targetNeuronName = "11" weight = "-0.055632422486782795" />
    <synapse sourceNeuronName = "5" targetNeuronName = "12" weight = "0.6874203357073587" />
    <synapse sourceNeuronName = "5" targetNeuronName = "13" weight = "0.7384128032813557" />
    <synapse sourceNeuronName = "5" targetNeuronName = "14" weight = "0.42081227013903777" />
    <synapse sourceNeuronName = "5" targetNeuronName = "15" weight = "-0.8492520360170537" />
    <synapse sourceNeuronName = "5" targetNeuronName = "16" weight = "-0.2884711694841766" />
    <synapse sourceNeuronName = "6" targetNeuronName = "9" weight = "-0.06837416466812951" />
    <synapse sourceNeuronName = "6" targetNeuronName = "10" weight = "0.5214713561470357" />
    <synapse sourceNeuronName = "6" targetNeuronName = "11" weight = "-0.7066766548542909" />
    <synapse sourceNeuronName = "6" targetNeuronName = "12" weight = "-0.5240898395587841" />
    <synapse sourceNeuronName = "6" targetNeuronName = "13" weight = "0.7865932690003348" />
    <synapse sourceNeuronName = "6" targetNeuronName = "14" weight = "0.12364467612874241" />
    <synapse sourceNeuronName = "6" targetNeuronName = "15" weight = "-0.9509314983378043" />
    <synapse sourceNeuronName = "6" targetNeuronName = "16" weight = "-0.4723940964630642" />
    <synapse sourceNeuronName = "7" targetNeuronName = "9" weight = "0.991022835252529" />
    <synapse sourceNeuronName = "7" targetNeuronName = "10" weight = "-0.8518963834380773" />
    <synapse sourceNeuronName = "7" targetNeuronName = "11" weight = "-0.7900527018373276" />
    <synapse sourceNeuronName = "7" targetNeuronName = "12" weight = "0.9010370343886565" />
    <synapse sourceNeuronName = "7" targetNeuronName = "13" weight = "-0.29347504590947726" />
    <synapse sourceNeuronName = "7" targetNeuronName = "14" weight = "-0.26277312919186135" />
    <synapse sourceNeuronName = "7" targetNeuronName = "15" weight = "0.014600691564065293" />
    <synapse sourceNeuronName = "7" targetNeuronName = "16" weight = "0.6175465349260065" />
    <synapse sourceNeuronName = "8" targetNeuronName = "9" weight = "0.6785653804571743" />
    <synapse sourceNeuronName = "8" targetNeuronName = "10" weight = "-0.3358658059123898" />
    <synapse sourceNeuronName = "8" targetNeuronName = "11" weight = "0.4011481563279362" />
    <synapse sourceNeuronName = "8" targetNeuronName = "12" weight = "0.9963109315574405" />
    <synapse sourceNeuronName = "8" targetNeuronName = "13" weight = "0.7892187869990279" />
    <synapse sourceNeuronName = "8" targetNeuronName = "14" weight = "-0.7924625037081545" />
    <synapse sourceNeuronName = "8" targetNeuronName = "15" weight = "0.346599761386174" />
    <synapse sourceNeuronName = "8" targetNeuronName = "16" weight = "0.6276164441443726" />
</neuralNetwork>