<neuralNetwork>
    <neuron name = "0" type = "sensor" linkName = "Torso" />
    <neuron name = "1" type = "sensor" linkName = "BackLeg" />
    <neuron name = "2" type = "sensor" linkName = "FrontLeg" />
    <neuron name = "3" type = "sensor" linkName = "LeftLeg" />
    <neuron name = "4" type = "sensor" linkName = "RightLeg" />
    <neuron name = "5" type = "sensor" linkName = "BackLowerLeg" />
    <neuron name = "6" type = "sensor" linkName = "FrontLowerLeg" />
    <neuron name = "7" type = "sensor" linkName = "LeftLowerLeg" />
    <neuron name = "8" type = "sensor" linkName = "RightLowerLeg" />
    <neuron name = "9" type = "motor"  jointName = "Torso_BackLeg" />
    <neuron name = "10" type = "motor"  jointName = "Torso_FrontLeg" />
    <neuron name = "11" type = "motor"  jointName = "Torso_LeftLeg" />
    <neuron name = "12" type = "motor"  jointName = "Torso_RightLeg" />
    <neuron name = "13" type = "motor"  jointName = "BackLeg_BackLowerLeg" />
    <neuron name = "14" type = "motor"  jointName = "FrontLeg_FrontLowerLeg" />
    <neuron name = "15" type = "motor"  jointName = "LeftLeg_LeftLowerLeg" />
    <neuron name = "16" type = "motor"  jointName = "RightLeg_RightLowerLeg" />
    <synapse sourceNeuronName = "0" targetNeuronName = "9" weight = "0.8140361411114314" />
    <synapse sourceNeuronName = "0" targetNeuronName = "10" weight = "0.012228627727072894" />
    <synapse sourceNeuronName = "0" targetNeuronName = "11" weight = "-0.04210155827276085" />
    <synapse sourceNeuronName = "0" targetNeuronName = "12" weight = "-0.5592328685453176" />
    <synapse sourceNeuronName = "0" targetNeuronName = "13" weight = "0.468782986970949" />
    <synapse sourceNeuronName = "0" targetNeuronName = "14" weight = "-0.2468189308331068" />
    <synapse sourceNeuronName = "0" targetNeuronName = "15" weight = "0.12260573035082878" />
    <synapse sourceNeuronName = "0" targetNeuronName = "16" weight = "-0.4951417118358248" />
    <synapse sourceNeuronName = "1" targetNeuronName = "9" weight = "0.10401018691176711" />
    <synapse sourceNeuronName = "1" targetNeuronName = "10" weight = "-0.030939851472401525" />
    <synapse sourceNeuronName = "1" targetNeuronName = "11" weight = "0.6401974526149457" />
    <synapse sourceNeuronName = "1" targetNeuronName = "12" weight = "0.08264524789319538" />
    <synapse sourceNeuronName = "1" targetNeuronName = "13" weight = "0.5233192580389474" />
    <synapse sourceNeuronName = "1" targetNeuronName = "14" weight = "0.35198114651731216" />
    <synapse sourceNeuronName = "1" targetNeuronName = "15" weight = "0.1532739968097654" />
    <synapse sourceNeuronName = "1" targetNeuronName = "16" weight = "0.324900042817881" />
    <synapse sourceNeuronName = "2" targetNeuronName = "9" weight = "0.9986041802461147" />
    <synapse sourceNeuronName = "2" targetNeuronName = "10" weight = "0.1275130243213256" />
    <synapse sourceNeuronName = "2" targetNeuronName = "11" weight = "0.47344698829726095" />
    <synapse sourceNeuronName = "2" targetNeuronName = "12" weight = "0.1941850836112855" />
    <synapse sourceNeuronName = "2" targetNeuronName = "13" weight = "-0.74557954316704" />
    <synapse sourceNeuronName = "2" targetNeuronName = "14" weight = "0.8946451327700928" />
    <synapse sourceNeuronName = "2" targetNeuronName = "15" weight = "0.5418859797888593" />
    <synapse sourceNeuronName = "2" targetNeuronName = "16" weight = "0.4767379036586321" />
    <synapse sourceNeuronName = "3" targetNeuronName = "9" weight = "0.6015889976307365" />
    <synapse sourceNeuronName = "3" targetNeuronName = "10" weight = "0.4115085273548609" />
    <synapse sourceNeuronName = "3" targetNeuronName = "11" weight = "-0.5840486071373894" />
    <synapse sourceNeuronName = "3" targetNeuronName = "12" weight = "-0.8193311815986533" />
    <synapse sourceNeuronName = "3" targetNeuronName = "13" weight = "0.00865528125273074" />
    <synapse sourceNeuronName = "3" targetNeuronName = "14" weight = "0.9082034745171665" />
    <synapse sourceNeuronName = "3" targetNeuronName = "15" weight = "0.06129394894489759" />
    <synapse sourceNeuronName = "3" targetNeuronName = "16" weight = "-0.7917134867576006" />
    <synapse sourceNeuronName = "4" targetNeuronName = "9" weight = "-0.3366165147830016" />
    <synapse sourceNeuronName = "4" targetNeuronName = "10" weight = "-0.5245997102317441" />
    <synapse sourceNeuronName = "4" targetNeuronName = "11" weight = "0.09950055687401771" />
    <synapse sourceNeuronName = "4" targetNeuronName = "12" weight = "-0.9621525542480136" />
    <synapse sourceNeuronName = "4" targetNeuronName = "13" weight = "-0.4962895124016826" />
    <synapse sourceNeuronName = "4" targetNeuronName = "14" weight = "-0.3613882559213095" />
    <synapse sourceNeuronName = "4" targetNeuronName = "15" weight = "0.782257740718163" />
    <synapse sourceNeuronName = "4" targetNeuronName = "16" weight = "0.0891188925402373" />
    <synapse sourceNeuronName = "5" targetNeuronName = "9" weight = "0.0006492544578593495" />
    <synapse sourceNeuronName = "5" targetNeuronName = "10" weight = "-0.13578889980686681" />
    <synapse sourceNeuronName = "5" targetNeuronName = "11" weight = "-0.06430125536918041" />
    <synapse sourceNeuronName = "5" targetNeuronName = "12" weight = "-0.32741167172922214" />
    <synapse sourceNeuronName = "5" targetNeuronName = "13" weight = "-0.2217588627385083" />
    <synapse sourceNeuronName = "5" targetNeuronName = "14" weight = "0.15473070690809432" />
    <synapse sourceNeuronName = "5" targetNeuronName = "15" weight = "0.7160401962266847" />
    <synapse sourceNeuronName = "5" targetNeuronName = "16" weight = "0.3821821071673128" />
    <synapse sourceNeuronName = "6" targetNeuronName = "9" weight = "-0.36443495742827015" />
    <synapse sourceNeuronName = "6" targetNeuronName = "10" weight = "-0.6788603519907133" />
    <synapse sourceNeuronName = "6" targetNeuronName = "11" weight = "0.991890182767655" />
    <synapse sourceNeuronName = "6" targetNeuronName = "12" weight = "0.7534806484682885" />
    <synapse sourceNeuronName = "6" targetNeuronName = "13" weight = "-0.8793582121686152" />
    <synapse sourceNeuronName = "6" targetNeuronName = "14" weight = "-0.6259653566323564" />
    <synapse sourceNeuronName = "6" targetNeuronName = "15" weight = "0.592768145237071" />
    <synapse sourceNeuronName = "6" targetNeuronName = "16" weight = "-0.7193851351008365" />
    <synapse sourceNeuronName = "7" targetNeuronName = "9" weight = "-0.8660910180613979" />
    <synapse sourceNeuronName = "7" targetNeuronName = "10" weight = "-0.5628260209805347" />
    <synapse sourceNeuronName = "7" targetNeuronName = "11" weight = "0.5486641117707391" />
    <synapse sourceNeuronName = "7" targetNeuronName = "12" weight = "-0.4954555387476769" />
    <synapse sourceNeuronName = "7" targetNeuronName = "13" weight = "-0.4493442005076915" />
    <synapse sourceNeuronName = "7" targetNeuronName = "14" weight = "-0.4671039055100592" />
    <synapse sourceNeuronName = "7" targetNeuronName = "15" weight = "0.7668562422079661" />
    <synapse sourceNeuronName = "7" targetNeuronName = "16" weight = "-0.3265523090138551" />
    <synapse sourceNeuronName = "8" targetNeuronName = "9" weight = "-0.7124389895758769" />
    <synapse sourceNeuronName = "8" targetNeuronName = "10" weight = "0.31114383737551377" />
    <synapse sourceNeuronName = "8" targetNeuronName = "11" weight = "-0.684801930898433" />
    <synapse sourceNeuronName = "8" targetNeuronName = "12" weight = "0.276919541862908" />
    <synapse sourceNeuronName = "8" targetNeuronName = "13" weight = "-0.5870717751175103" />
    <synapse sourceNeuronName = "8" targetNeuronName = "14" weight = "0.3716569752367713" />
    <synapse sourceNeuronName = "8" targetNeuronName = "15" weight = "-0.07721923077040982" />
    <synapse sourceNeuronName = "8" targetNeuronName = "16" weight = "-0.2947733002801194" />
</neuralNetwork>