<neuralNetwork>
    <neuron name = "0" type = "sensor" linkName = "Torso" />
    <neuron name = "1" type = "sensor" linkName = "BackLeg" />
    <neuron name = "2" type = "sensor" linkName = "FrontLeg" />
    <neuron name = "3" type = "sensor" linkName = "LeftLeg" />
    <neuron name = "4" type = "sensor" linkName = "RightLeg" />
    <neuron name = "5" type = "sensor" linkName = "BackLowerLeg" />
    <neuron name = "6" type = "sensor" linkName = "FrontLowerLeg" />
    <neuron name = "7" type = "sensor" linkName = "LeftLowerLeg" />
    <neuron name = "8" type = "sensor" linkName = "RightLowerLeg" />
    <neuron name = "9" type = "motor"  jointName = "Torso_BackLeg" />
    <neuron name = "10" type = "motor"  jointName = "Torso_FrontLeg" />
    <neuron name = "11" type = "motor"  jointName = "Torso_LeftLeg" />
    <neuron name = "12" type = "motor"  jointName = "Torso_RightLeg" />
    <neuron name = "13" type = "motor"  jointName = "BackLeg_BackLowerLeg" />
    <neuron name = "14" type = "motor"  jointName = "FrontLeg_FrontLowerLeg" />
    <neuron name = "15" type = "motor"  jointName = "LeftLeg_LeftLowerLeg" />
    <neuron name = "16" type = "motor"  jointName = "RightLeg_RightLowerLeg" />
    <synapse sourceNeuronName = "0" targetNeuronName = "9" weight = "-0.12178873063656082" />
    <synapse sourceNeuronName = "0" targetNeuronName = "10" weight = "-0.22465652347389398" />
    <synapse sourceNeuronName = "0" targetNeuronName = "11" weight = "0.9162469716047752" />
    <synapse sourceNeuronName = "0" targetNeuronName = "12" weight = "-0.8789209441165668" />
    <synapse sourceNeuronName = "0" targetNeuronName = "13" weight = "0.6300330491893951" />
    <synapse sourceNeuronName = "0" targetNeuronName = "14" weight = "0.4327006490470042" />
    <synapse sourceNeuronName = "0" targetNeuronName = "15" weight = "-0.12330110468136612" />
    <synapse sourceNeuronName = "0" targetNeuronName = "16" weight = "-0.08809983998670678" />
    <synapse sourceNeuronName = "1" targetNeuronName = "9" weight = "-0.8616097090150763" />
    <synapse sourceNeuronName = "1" targetNeuronName = "10" weight = "-0.5660375168451668" />
    <synapse sourceNeuronName = "1" targetNeuronName = "11" weight = "-0.6572570361497911" />
    <synapse sourceNeuronName = "1" targetNeuronName = "12" weight = "-0.6585165781663167" />
    <synapse sourceNeuronName = "1" targetNeuronName = "13" weight = "-0.48408264079361074" />
    <synapse sourceNeuronName = "1" targetNeuronName = "14" weight = "0.33704936968318777" />
    <synapse sourceNeuronName = "1" targetNeuronName = "15" weight = "0.39513149288491367" />
    <synapse sourceNeuronName = "1" targetNeuronName = "16" weight = "-0.28316270931684784" />
    <synapse sourceNeuronName = "2" targetNeuronName = "9" weight = "0.2958272149639174" />
    <synapse sourceNeuronName = "2" targetNeuronName = "10" weight = "0.03573705549500383" />
    <synapse sourceNeuronName = "2" targetNeuronName = "11" weight = "-0.6818067430386607" />
    <synapse sourceNeuronName = "2" targetNeuronName = "12" weight = "0.26482704290115233" />
    <synapse sourceNeuronName = "2" targetNeuronName = "13" weight = "0.9675773445133196" />
    <synapse sourceNeuronName = "2" targetNeuronName = "14" weight = "0.24125250572498502" />
    <synapse sourceNeuronName = "2" targetNeuronName = "15" weight = "-0.47306415101921195" />
    <synapse sourceNeuronName = "2" targetNeuronName = "16" weight = "-0.7819561030970366" />
    <synapse sourceNeuronName = "3" targetNeuronName = "9" weight = "-0.6236492749008653" />
    <synapse sourceNeuronName = "3" targetNeuronName = "10" weight = "0.22746242883600165" />
    <synapse sourceNeuronName = "3" targetNeuronName = "11" weight = "-0.9593717510291759" />
    <synapse sourceNeuronName = "3" targetNeuronName = "12" weight = "0.4697022187171187" />
    <synapse sourceNeuronName = "3" targetNeuronName = "13" weight = "-0.8794310756221257" />
    <synapse sourceNeuronName = "3" targetNeuronName = "14" weight = "-0.28581623335204065" />
    <synapse sourceNeuronName = "3" targetNeuronName = "15" weight = "-0.5961791355716499" />
    <synapse sourceNeuronName = "3" targetNeuronName = "16" weight = "-0.5792876450211011" />
    <synapse sourceNeuronName = "4" targetNeuronName = "9" weight = "-0.7879141761392883" />
    <synapse sourceNeuronName = "4" targetNeuronName = "10" weight = "-0.21396387985022813" />
    <synapse sourceNeuronName = "4" targetNeuronName = "11" weight = "-0.5168866831425576" />
    <synapse sourceNeuronName = "4" targetNeuronName = "12" weight = "-0.7326293979435163" />
    <synapse sourceNeuronName = "4" targetNeuronName = "13" weight = "0.7367057319074282" />
    <synapse sourceNeuronName = "4" targetNeuronName = "14" weight = "-0.2377401303589739" />
    <synapse sourceNeuronName = "4" targetNeuronName = "15" weight = "0.07544994236906133" />
    <synapse sourceNeuronName = "4" targetNeuronName = "16" weight = "-0.14781249702178623" />
    <synapse sourceNeuronName = "5" targetNeuronName = "9" weight = "-0.19484476402735584" />
    <synapse sourceNeuronName = "5" targetNeuronName = "10" weight = "0.3616320102747155" />
    <synapse sourceNeuronName = "5" targetNeuronName = "11" weight = "0.6820729493502418" />
    <synapse sourceNeuronName = "5" targetNeuronName = "12" weight = "-0.39359536541677764" />
    <synapse sourceNeuronName = "5" targetNeuronName = "13" weight = "0.8003614786436783" />
    <synapse sourceNeuronName = "5" targetNeuronName = "14" weight = "-0.38210402022429424" />
    <synapse sourceNeuronName = "5" targetNeuronName = "15" weight = "0.15838233286112136" />
    <synapse sourceNeuronName = "5" targetNeuronName = "16" weight = "0.11972734710807464" />
    <synapse sourceNeuronName = "6" targetNeuronName = "9" weight = "-0.2288653185703713" />
    <synapse sourceNeuronName = "6" targetNeuronName = "10" weight = "-0.3292451257474698" />
    <synapse sourceNeuronName = "6" targetNeuronName = "11" weight = "0.35234113237509446" />
    <synapse sourceNeuronName = "6" targetNeuronName = "12" weight = "0.8632027104017079" />
    <synapse sourceNeuronName = "6" targetNeuronName = "13" weight = "0.6504125164752874" />
    <synapse sourceNeuronName = "6" targetNeuronName = "14" weight = "0.3848403333044981" />
    <synapse sourceNeuronName = "6" targetNeuronName = "15" weight = "-0.42193892277377354" />
    <synapse sourceNeuronName = "6" targetNeuronName = "16" weight = "-0.23942056995445116" />
    <synapse sourceNeuronName = "7" targetNeuronName = "9" weight = "-0.4740097584259957" />
    <synapse sourceNeuronName = "7" targetNeuronName = "10" weight = "-0.8842693396709345" />
    <synapse sourceNeuronName = "7" targetNeuronName = "11" weight = "0.3893978954798287" />
    <synapse sourceNeuronName = "7" targetNeuronName = "12" weight = "-0.607845972521075" />
    <synapse sourceNeuronName = "7" targetNeuronName = "13" weight = "0.17627428496822217" />
    <synapse sourceNeuronName = "7" targetNeuronName = "14" weight = "-0.7804115045013169" />
    <synapse sourceNeuronName = "7" targetNeuronName = "15" weight = "-0.09405805042929671" />
    <synapse sourceNeuronName = "7" targetNeuronName = "16" weight = "-0.9475663129687952" />
    <synapse sourceNeuronName = "8" targetNeuronName = "9" weight = "0.18153199620515736" />
    <synapse sourceNeuronName = "8" targetNeuronName = "10" weight = "0.7986855943272511" />
    <synapse sourceNeuronName = "8" targetNeuronName = "11" weight = "0.4013315231280419" />
    <synapse sourceNeuronName = "8" targetNeuronName = "12" weight = "0.2648800750222766" />
    <synapse sourceNeuronName = "8" targetNeuronName = "13" weight = "0.7886504889789092" />
    <synapse sourceNeuronName = "8" targetNeuronName = "14" weight = "0.22183071263038245" />
    <synapse sourceNeuronName = "8" targetNeuronName = "15" weight = "-0.8707994652618221" />
    <synapse sourceNeuronName = "8" targetNeuronName = "16" weight = "0.6313135375124448" />
</neuralNetwork>