<neuralNetwork>
    <neuron name = "0" type = "sensor" linkName = "Torso" />
    <neuron name = "1" type = "sensor" linkName = "BackLeg" />
    <neuron name = "2" type = "sensor" linkName = "FrontLeg" />
    <neuron name = "3" type = "sensor" linkName = "LeftLeg" />
    <neuron name = "4" type = "sensor" linkName = "RightLeg" />
    <neuron name = "5" type = "sensor" linkName = "BackLowerLeg" />
    <neuron name = "6" type = "sensor" linkName = "FrontLowerLeg" />
    <neuron name = "7" type = "sensor" linkName = "LeftLowerLeg" />
    <neuron name = "8" type = "sensor" linkName = "RightLowerLeg" />
    <neuron name = "9" type = "motor"  jointName = "Torso_BackLeg" />
    <neuron name = "10" type = "motor"  jointName = "Torso_FrontLeg" />
    <neuron name = "11" type = "motor"  jointName = "Torso_LeftLeg" />
    <neuron name = "12" type = "motor"  jointName = "Torso_RightLeg" />
    <neuron name = "13" type = "motor"  jointName = "BackLeg_BackLowerLeg" />
    <neuron name = "14" type = "motor"  jointName = "FrontLeg_FrontLowerLeg" />
    <neuron name = "15" type = "motor"  jointName = "LeftLeg_LeftLowerLeg" />
    <neuron name = "16" type = "motor"  jointName = "RightLeg_RightLowerLeg" />
    <synapse sourceNeuronName = "0" targetNeuronName = "9" weight = "0.03489180532612224" />
    <synapse sourceNeuronName = "0" targetNeuronName = "10" weight = "-0.5704124847382817" />
    <synapse sourceNeuronName = "0" targetNeuronName = "11" weight = "-0.32662873115837376" />
    <synapse sourceNeuronName = "0" targetNeuronName = "12" weight = "0.09137224419964207" />
    <synapse sourceNeuronName = "0" targetNeuronName = "13" weight = "-0.8748964209447281" />
    <synapse sourceNeuronName = "0" targetNeuronName = "14" weight = "0.15985970739859967" />
    <synapse sourceNeuronName = "0" targetNeuronName = "15" weight = "0.8549952463368491" />
    <synapse sourceNeuronName = "0" targetNeuronName = "16" weight = "-0.36211173829227206" />
    <synapse sourceNeuronName = "1" targetNeuronName = "9" weight = "-0.23034237236752597" />
    <synapse sourceNeuronName = "1" targetNeuronName = "10" weight = "0.7923077863252219" />
    <synapse sourceNeuronName = "1" targetNeuronName = "11" weight = "-0.6503759858030318" />
    <synapse sourceNeuronName = "1" targetNeuronName = "12" weight = "-0.503596018836098" />
    <synapse sourceNeuronName = "1" targetNeuronName = "13" weight = "0.17383900065537028" />
    <synapse sourceNeuronName = "1" targetNeuronName = "14" weight = "-0.06304811304574809" />
    <synapse sourceNeuronName = "1" targetNeuronName = "15" weight = "0.1653639776144682" />
    <synapse sourceNeuronName = "1" targetNeuronName = "16" weight = "0.808528670423128" />
    <synapse sourceNeuronName = "2" targetNeuronName = "9" weight = "-0.5840995623942811" />
    <synapse sourceNeuronName = "2" targetNeuronName = "10" weight = "-0.9891111427755743" />
    <synapse sourceNeuronName = "2" targetNeuronName = "11" weight = "0.11860759297339984" />
    <synapse sourceNeuronName = "2" targetNeuronName = "12" weight = "0.19502418168071656" />
    <synapse sourceNeuronName = "2" targetNeuronName = "13" weight = "-0.4890527718827278" />
    <synapse sourceNeuronName = "2" targetNeuronName = "14" weight = "0.5293376436711708" />
    <synapse sourceNeuronName = "2" targetNeuronName = "15" weight = "-0.27385537426590156" />
    <synapse sourceNeuronName = "2" targetNeuronName = "16" weight = "-0.3319836362769011" />
    <synapse sourceNeuronName = "3" targetNeuronName = "9" weight = "-0.8150683808612049" />
    <synapse sourceNeuronName = "3" targetNeuronName = "10" weight = "0.8060824172394596" />
    <synapse sourceNeuronName = "3" targetNeuronName = "11" weight = "0.6199314733007764" />
    <synapse sourceNeuronName = "3" targetNeuronName = "12" weight = "-0.4493917324615957" />
    <synapse sourceNeuronName = "3" targetNeuronName = "13" weight = "-0.2639848390656869" />
    <synapse sourceNeuronName = "3" targetNeuronName = "14" weight = "0.6276261408200043" />
    <synapse sourceNeuronName = "3" targetNeuronName = "15" weight = "0.44103696379285506" />
    <synapse sourceNeuronName = "3" targetNeuronName = "16" weight = "-0.07763943861704381" />
    <synapse sourceNeuronName = "4" targetNeuronName = "9" weight = "0.6592092813817254" />
    <synapse sourceNeuronName = "4" targetNeuronName = "10" weight = "-0.5472433891721795" />
    <synapse sourceNeuronName = "4" targetNeuronName = "11" weight = "0.338627103908661" />
    <synapse sourceNeuronName = "4" targetNeuronName = "12" weight = "-0.2125880519179919" />
    <synapse sourceNeuronName = "4" targetNeuronName = "13" weight = "-0.9860590688870936" />
    <synapse sourceNeuronName = "4" targetNeuronName = "14" weight = "-0.9681891094374118" />
    <synapse sourceNeuronName = "4" targetNeuronName = "15" weight = "0.8909802884522879" />
    <synapse sourceNeuronName = "4" targetNeuronName = "16" weight = "-0.7663982846879798" />
    <synapse sourceNeuronName = "5" targetNeuronName = "9" weight = "-0.9981193100670189" />
    <synapse sourceNeuronName = "5" targetNeuronName = "10" weight = "0.7489256924276211" />
    <synapse sourceNeuronName = "5" targetNeuronName = "11" weight = "0.4061049089628008" />
    <synapse sourceNeuronName = "5" targetNeuronName = "12" weight = "0.9500029668347378" />
    <synapse sourceNeuronName = "5" targetNeuronName = "13" weight = "-0.030228202352608147" />
    <synapse sourceNeuronName = "5" targetNeuronName = "14" weight = "0.8925599300900449" />
    <synapse sourceNeuronName = "5" targetNeuronName = "15" weight = "-0.07139493712240785" />
    <synapse sourceNeuronName = "5" targetNeuronName = "16" weight = "-0.9790611516647525" />
    <synapse sourceNeuronName = "6" targetNeuronName = "9" weight = "-0.08988266828433589" />
    <synapse sourceNeuronName = "6" targetNeuronName = "10" weight = "-0.6610651570004851" />
    <synapse sourceNeuronName = "6" targetNeuronName = "11" weight = "-0.1480039685526664" />
    <synapse sourceNeuronName = "6" targetNeuronName = "12" weight = "0.6597168827672784" />
    <synapse sourceNeuronName = "6" targetNeuronName = "13" weight = "-0.8795321602658812" />
    <synapse sourceNeuronName = "6" targetNeuronName = "14" weight = "-0.8502103591073475" />
    <synapse sourceNeuronName = "6" targetNeuronName = "15" weight = "0.46596678803185787" />
    <synapse sourceNeuronName = "6" targetNeuronName = "16" weight = "-0.3648025891472506" />
    <synapse sourceNeuronName = "7" targetNeuronName = "9" weight = "-0.32297003750293607" />
    <synapse sourceNeuronName = "7" targetNeuronName = "10" weight = "0.23090206138984604" />
    <synapse sourceNeuronName = "7" targetNeuronName = "11" weight = "-0.06866414861478565" />
    <synapse sourceNeuronName = "7" targetNeuronName = "12" weight = "-0.10608687673007777" />
    <synapse sourceNeuronName = "7" targetNeuronName = "13" weight = "-0.07283592402047945" />
    <synapse sourceNeuronName = "7" targetNeuronName = "14" weight = "-0.11336218807855869" />
    <synapse sourceNeuronName = "7" targetNeuronName = "15" weight = "0.5441574007899643" />
    <synapse sourceNeuronName = "7" targetNeuronName = "16" weight = "0.30728777759587556" />
    <synapse sourceNeuronName = "8" targetNeuronName = "9" weight = "0.9079852811454203" />
    <synapse sourceNeuronName = "8" targetNeuronName = "10" weight = "-0.1341738922812643" />
    <synapse sourceNeuronName = "8" targetNeuronName = "11" weight = "0.1666111758713753" />
    <synapse sourceNeuronName = "8" targetNeuronName = "12" weight = "0.8974221172621946" />
    <synapse sourceNeuronName = "8" targetNeuronName = "13" weight = "0.4864276859361485" />
    <synapse sourceNeuronName = "8" targetNeuronName = "14" weight = "-0.8039399934284519" />
    <synapse sourceNeuronName = "8" targetNeuronName = "15" weight = "-0.618671720749159" />
    <synapse sourceNeuronName = "8" targetNeuronName = "16" weight = "0.0037823322658741" />
</neuralNetwork>