<neuralNetwork>
    <neuron name = "0" type = "sensor" linkName = "Torso" />
    <neuron name = "1" type = "sensor" linkName = "BackLeg" />
    <neuron name = "2" type = "sensor" linkName = "FrontLeg" />
    <neuron name = "3" type = "sensor" linkName = "LeftLeg" />
    <neuron name = "4" type = "sensor" linkName = "RightLeg" />
    <neuron name = "5" type = "sensor" linkName = "BackLowerLeg" />
    <neuron name = "6" type = "sensor" linkName = "FrontLowerLeg" />
    <neuron name = "7" type = "sensor" linkName = "LeftLowerLeg" />
    <neuron name = "8" type = "sensor" linkName = "RightLowerLeg" />
    <neuron name = "9" type = "motor"  jointName = "Torso_BackLeg" />
    <neuron name = "10" type = "motor"  jointName = "Torso_FrontLeg" />
    <neuron name = "11" type = "motor"  jointName = "Torso_LeftLeg" />
    <neuron name = "12" type = "motor"  jointName = "Torso_RightLeg" />
    <neuron name = "13" type = "motor"  jointName = "BackLeg_BackLowerLeg" />
    <neuron name = "14" type = "motor"  jointName = "FrontLeg_FrontLowerLeg" />
    <neuron name = "15" type = "motor"  jointName = "LeftLeg_LeftLowerLeg" />
    <neuron name = "16" type = "motor"  jointName = "RightLeg_RightLowerLeg" />
    <synapse sourceNeuronName = "0" targetNeuronName = "9" weight = "0.5367777737128026" />
    <synapse sourceNeuronName = "0" targetNeuronName = "10" weight = "-0.7905787162286684" />
    <synapse sourceNeuronName = "0" targetNeuronName = "11" weight = "0.8744388841756259" />
    <synapse sourceNeuronName = "0" targetNeuronName = "12" weight = "-0.8048387657511333" />
    <synapse sourceNeuronName = "0" targetNeuronName = "13" weight = "0.20728247418892076" />
    <synapse sourceNeuronName = "0" targetNeuronName = "14" weight = "0.9056202930332844" />
    <synapse sourceNeuronName = "0" targetNeuronName = "15" weight = "-0.7073047506519858" />
    <synapse sourceNeuronName = "0" targetNeuronName = "16" weight = "0.9314253077449135" />
    <synapse sourceNeuronName = "1" targetNeuronName = "9" weight = "0.4636304640565818" />
    <synapse sourceNeuronName = "1" targetNeuronName = "10" weight = "-0.07918949104629047" />
    <synapse sourceNeuronName = "1" targetNeuronName = "11" weight = "-0.8718997338096321" />
    <synapse sourceNeuronName = "1" targetNeuronName = "12" weight = "0.7563806211282638" />
    <synapse sourceNeuronName = "1" targetNeuronName = "13" weight = "-0.6704943246363273" />
    <synapse sourceNeuronName = "1" targetNeuronName = "14" weight = "-0.9639224180334489" />
    <synapse sourceNeuronName = "1" targetNeuronName = "15" weight = "-0.35354048942863203" />
    <synapse sourceNeuronName = "1" targetNeuronName = "16" weight = "-0.1708091507017293" />
    <synapse sourceNeuronName = "2" targetNeuronName = "9" weight = "0.9401934863044896" />
    <synapse sourceNeuronName = "2" targetNeuronName = "10" weight = "-0.5851233577073223" />
    <synapse sourceNeuronName = "2" targetNeuronName = "11" weight = "0.5828778618573016" />
    <synapse sourceNeuronName = "2" targetNeuronName = "12" weight = "0.0797046731625386" />
    <synapse sourceNeuronName = "2" targetNeuronName = "13" weight = "0.8928042706340573" />
    <synapse sourceNeuronName = "2" targetNeuronName = "14" weight = "0.1355780548577934" />
    <synapse sourceNeuronName = "2" targetNeuronName = "15" weight = "0.871936182096271" />
    <synapse sourceNeuronName = "2" targetNeuronName = "16" weight = "-0.9984619098665752" />
    <synapse sourceNeuronName = "3" targetNeuronName = "9" weight = "0.7108482322273586" />
    <synapse sourceNeuronName = "3" targetNeuronName = "10" weight = "-0.18862474882174474" />
    <synapse sourceNeuronName = "3" targetNeuronName = "11" weight = "-0.04186643973181825" />
    <synapse sourceNeuronName = "3" targetNeuronName = "12" weight = "-0.6423146796163908" />
    <synapse sourceNeuronName = "3" targetNeuronName = "13" weight = "0.5231543883262693" />
    <synapse sourceNeuronName = "3" targetNeuronName = "14" weight = "0.5230112149982071" />
    <synapse sourceNeuronName = "3" targetNeuronName = "15" weight = "-0.2103398294776999" />
    <synapse sourceNeuronName = "3" targetNeuronName = "16" weight = "0.07122455629643532" />
    <synapse sourceNeuronName = "4" targetNeuronName = "9" weight = "-0.7181853895789816" />
    <synapse sourceNeuronName = "4" targetNeuronName = "10" weight = "0.1954104689212317" />
    <synapse sourceNeuronName = "4" targetNeuronName = "11" weight = "0.6392384119240788" />
    <synapse sourceNeuronName = "4" targetNeuronName = "12" weight = "0.00047954409630057704" />
    <synapse sourceNeuronName = "4" targetNeuronName = "13" weight = "-0.9986841885392601" />
    <synapse sourceNeuronName = "4" targetNeuronName = "14" weight = "-0.9295429567632307" />
    <synapse sourceNeuronName = "4" targetNeuronName = "15" weight = "-0.2801555653598298" />
    <synapse sourceNeuronName = "4" targetNeuronName = "16" weight = "0.25123646077512163" />
    <synapse sourceNeuronName = "5" targetNeuronName = "9" weight = "-0.5877801604109034" />
    <synapse sourceNeuronName = "5" targetNeuronName = "10" weight = "-0.958506134263652" />
    <synapse sourceNeuronName = "5" targetNeuronName = "11" weight = "-0.8486654311675224" />
    <synapse sourceNeuronName = "5" targetNeuronName = "12" weight = "0.8135503836155547" />
    <synapse sourceNeuronName = "5" targetNeuronName = "13" weight = "0.36096911627266315" />
    <synapse sourceNeuronName = "5" targetNeuronName = "14" weight = "0.376656087014021" />
    <synapse sourceNeuronName = "5" targetNeuronName = "15" weight = "-0.4012445456344751" />
    <synapse sourceNeuronName = "5" targetNeuronName = "16" weight = "-0.16173093517922155" />
    <synapse sourceNeuronName = "6" targetNeuronName = "9" weight = "0.30365303798920307" />
    <synapse sourceNeuronName = "6" targetNeuronName = "10" weight = "-0.5891306064886463" />
    <synapse sourceNeuronName = "6" targetNeuronName = "11" weight = "-0.07794022096286302" />
    <synapse sourceNeuronName = "6" targetNeuronName = "12" weight = "0.9353685051809975" />
    <synapse sourceNeuronName = "6" targetNeuronName = "13" weight = "0.2301879392194497" />
    <synapse sourceNeuronName = "6" targetNeuronName = "14" weight = "-0.37552221146197073" />
    <synapse sourceNeuronName = "6" targetNeuronName = "15" weight = "0.2987961581809253" />
    <synapse sourceNeuronName = "6" targetNeuronName = "16" weight = "0.2877336210921255" />
    <synapse sourceNeuronName = "7" targetNeuronName = "9" weight = "0.07899704552759523" />
    <synapse sourceNeuronName = "7" targetNeuronName = "10" weight = "-0.235248676189316" />
    <synapse sourceNeuronName = "7" targetNeuronName = "11" weight = "-0.6161407610457224" />
    <synapse sourceNeuronName = "7" targetNeuronName = "12" weight = "0.011621168752769195" />
    <synapse sourceNeuronName = "7" targetNeuronName = "13" weight = "0.3196913873686815" />
    <synapse sourceNeuronName = "7" targetNeuronName = "14" weight = "0.7363922200628881" />
    <synapse sourceNeuronName = "7" targetNeuronName = "15" weight = "-0.31610959267301375" />
    <synapse sourceNeuronName = "7" targetNeuronName = "16" weight = "0.2504623584363417" />
    <synapse sourceNeuronName = "8" targetNeuronName = "9" weight = "0.9325176668237125" />
    <synapse sourceNeuronName = "8" targetNeuronName = "10" weight = "-0.5653788932976325" />
    <synapse sourceNeuronName = "8" targetNeuronName = "11" weight = "0.8120202045535818" />
    <synapse sourceNeuronName = "8" targetNeuronName = "12" weight = "0.11713983068092038" />
    <synapse sourceNeuronName = "8" targetNeuronName = "13" weight = "-0.7733407575035327" />
    <synapse sourceNeuronName = "8" targetNeuronName = "14" weight = "-0.25191760335652713" />
    <synapse sourceNeuronName = "8" targetNeuronName = "15" weight = "-0.4754354087221382" />
    <synapse sourceNeuronName = "8" targetNeuronName = "16" weight = "0.911440368394987" />
</neuralNetwork>