<neuralNetwork>
    <neuron name = "0" type = "sensor" linkName = "Torso" />
    <neuron name = "1" type = "sensor" linkName = "BackLeg" />
    <neuron name = "2" type = "sensor" linkName = "FrontLeg" />
    <neuron name = "3" type = "sensor" linkName = "LeftLeg" />
    <neuron name = "4" type = "sensor" linkName = "RightLeg" />
    <neuron name = "5" type = "sensor" linkName = "BackLowerLeg" />
    <neuron name = "6" type = "sensor" linkName = "FrontLowerLeg" />
    <neuron name = "7" type = "sensor" linkName = "LeftLowerLeg" />
    <neuron name = "8" type = "sensor" linkName = "RightLowerLeg" />
    <neuron name = "9" type = "motor"  jointName = "Torso_BackLeg" />
    <neuron name = "10" type = "motor"  jointName = "Torso_FrontLeg" />
    <neuron name = "11" type = "motor"  jointName = "Torso_LeftLeg" />
    <neuron name = "12" type = "motor"  jointName = "Torso_RightLeg" />
    <neuron name = "13" type = "motor"  jointName = "BackLeg_BackLowerLeg" />
    <neuron name = "14" type = "motor"  jointName = "FrontLeg_FrontLowerLeg" />
    <neuron name = "15" type = "motor"  jointName = "LeftLeg_LeftLowerLeg" />
    <neuron name = "16" type = "motor"  jointName = "RightLeg_RightLowerLeg" />
    <synapse sourceNeuronName = "0" targetNeuronName = "9" weight = "0.3884936923019866" />
    <synapse sourceNeuronName = "0" targetNeuronName = "10" weight = "-0.8641824488259697" />
    <synapse sourceNeuronName = "0" targetNeuronName = "11" weight = "0.9325575135047985" />
    <synapse sourceNeuronName = "0" targetNeuronName = "12" weight = "0.06728497771211406" />
    <synapse sourceNeuronName = "0" targetNeuronName = "13" weight = "-0.220593408588595" />
    <synapse sourceNeuronName = "0" targetNeuronName = "14" weight = "0.6198331973477875" />
    <synapse sourceNeuronName = "0" targetNeuronName = "15" weight = "0.7137092135654923" />
    <synapse sourceNeuronName = "0" targetNeuronName = "16" weight = "0.9929693369388297" />
    <synapse sourceNeuronName = "1" targetNeuronName = "9" weight = "0.3819878487544599" />
    <synapse sourceNeuronName = "1" targetNeuronName = "10" weight = "0.2788938486966641" />
    <synapse sourceNeuronName = "1" targetNeuronName = "11" weight = "-0.24719660798286114" />
    <synapse sourceNeuronName = "1" targetNeuronName = "12" weight = "0.40975603625250323" />
    <synapse sourceNeuronName = "1" targetNeuronName = "13" weight = "-0.34111908196972895" />
    <synapse sourceNeuronName = "1" targetNeuronName = "14" weight = "-0.8468757509620306" />
    <synapse sourceNeuronName = "1" targetNeuronName = "15" weight = "0.7880824015457837" />
    <synapse sourceNeuronName = "1" targetNeuronName = "16" weight = "0.4444646777637531" />
    <synapse sourceNeuronName = "2" targetNeuronName = "9" weight = "-0.6684475382377644" />
    <synapse sourceNeuronName = "2" targetNeuronName = "10" weight = "-0.4995203702631539" />
    <synapse sourceNeuronName = "2" targetNeuronName = "11" weight = "0.2031247341778557" />
    <synapse sourceNeuronName = "2" targetNeuronName = "12" weight = "0.22442946937226704" />
    <synapse sourceNeuronName = "2" targetNeuronName = "13" weight = "0.5629492554604523" />
    <synapse sourceNeuronName = "2" targetNeuronName = "14" weight = "0.21380376687608393" />
    <synapse sourceNeuronName = "2" targetNeuronName = "15" weight = "-0.3940648251269325" />
    <synapse sourceNeuronName = "2" targetNeuronName = "16" weight = "0.13699340246503966" />
    <synapse sourceNeuronName = "3" targetNeuronName = "9" weight = "0.04552529481048695" />
    <synapse sourceNeuronName = "3" targetNeuronName = "10" weight = "-0.9605948319319464" />
    <synapse sourceNeuronName = "3" targetNeuronName = "11" weight = "0.2560976695900439" />
    <synapse sourceNeuronName = "3" targetNeuronName = "12" weight = "-0.48346878453451914" />
    <synapse sourceNeuronName = "3" targetNeuronName = "13" weight = "0.1558981300559854" />
    <synapse sourceNeuronName = "3" targetNeuronName = "14" weight = "0.06146143121684844" />
    <synapse sourceNeuronName = "3" targetNeuronName = "15" weight = "0.8938426157887558" />
    <synapse sourceNeuronName = "3" targetNeuronName = "16" weight = "-0.3858416823173325" />
    <synapse sourceNeuronName = "4" targetNeuronName = "9" weight = "0.1966143349674101" />
    <synapse sourceNeuronName = "4" targetNeuronName = "10" weight = "0.21529312104284815" />
    <synapse sourceNeuronName = "4" targetNeuronName = "11" weight = "-0.5849073523768711" />
    <synapse sourceNeuronName = "4" targetNeuronName = "12" weight = "0.1444709549176939" />
    <synapse sourceNeuronName = "4" targetNeuronName = "13" weight = "0.5389428899190314" />
    <synapse sourceNeuronName = "4" targetNeuronName = "14" weight = "-0.3034549790990868" />
    <synapse sourceNeuronName = "4" targetNeuronName = "15" weight = "0.3992000128416646" />
    <synapse sourceNeuronName = "4" targetNeuronName = "16" weight = "0.3747805272925342" />
    <synapse sourceNeuronName = "5" targetNeuronName = "9" weight = "0.5899974786062672" />
    <synapse sourceNeuronName = "5" targetNeuronName = "10" weight = "-0.32144866979333186" />
    <synapse sourceNeuronName = "5" targetNeuronName = "11" weight = "0.2488920983511025" />
    <synapse sourceNeuronName = "5" targetNeuronName = "12" weight = "0.21770151782720037" />
    <synapse sourceNeuronName = "5" targetNeuronName = "13" weight = "-0.6643234160700531" />
    <synapse sourceNeuronName = "5" targetNeuronName = "14" weight = "-0.9916323382432253" />
    <synapse sourceNeuronName = "5" targetNeuronName = "15" weight = "0.8044657955151906" />
    <synapse sourceNeuronName = "5" targetNeuronName = "16" weight = "0.6989013963353854" />
    <synapse sourceNeuronName = "6" targetNeuronName = "9" weight = "-0.5160548666258167" />
    <synapse sourceNeuronName = "6" targetNeuronName = "10" weight = "-0.4940755129917018" />
    <synapse sourceNeuronName = "6" targetNeuronName = "11" weight = "-0.8765663617539392" />
    <synapse sourceNeuronName = "6" targetNeuronName = "12" weight = "0.8242416335074432" />
    <synapse sourceNeuronName = "6" targetNeuronName = "13" weight = "-0.018877496613184386" />
    <synapse sourceNeuronName = "6" targetNeuronName = "14" weight = "-0.8746328701074904" />
    <synapse sourceNeuronName = "6" targetNeuronName = "15" weight = "-0.28315636192431826" />
    <synapse sourceNeuronName = "6" targetNeuronName = "16" weight = "-0.642800351007258" />
    <synapse sourceNeuronName = "7" targetNeuronName = "9" weight = "0.8812326636722483" />
    <synapse sourceNeuronName = "7" targetNeuronName = "10" weight = "0.8502586935298138" />
    <synapse sourceNeuronName = "7" targetNeuronName = "11" weight = "0.17938278949748265" />
    <synapse sourceNeuronName = "7" targetNeuronName = "12" weight = "0.9387892129374458" />
    <synapse sourceNeuronName = "7" targetNeuronName = "13" weight = "-0.7923215428979586" />
    <synapse sourceNeuronName = "7" targetNeuronName = "14" weight = "-0.8657902940924509" />
    <synapse sourceNeuronName = "7" targetNeuronName = "15" weight = "0.281260588743633" />
    <synapse sourceNeuronName = "7" targetNeuronName = "16" weight = "-0.31559133107743365" />
    <synapse sourceNeuronName = "8" targetNeuronName = "9" weight = "0.9095388793065151" />
    <synapse sourceNeuronName = "8" targetNeuronName = "10" weight = "0.7827868391938695" />
    <synapse sourceNeuronName = "8" targetNeuronName = "11" weight = "0.4332386581384384" />
    <synapse sourceNeuronName = "8" targetNeuronName = "12" weight = "-0.919719795730493" />
    <synapse sourceNeuronName = "8" targetNeuronName = "13" weight = "-0.10803054977320792" />
    <synapse sourceNeuronName = "8" targetNeuronName = "14" weight = "-0.1136004194791509" />
    <synapse sourceNeuronName = "8" targetNeuronName = "15" weight = "-0.35848684984378454" />
    <synapse sourceNeuronName = "8" targetNeuronName = "16" weight = "-0.609889476515421" />
</neuralNetwork>