<neuralNetwork>
    <neuron name = "0" type = "sensor" linkName = "Torso" />
    <neuron name = "1" type = "sensor" linkName = "BackLeg" />
    <neuron name = "2" type = "sensor" linkName = "FrontLeg" />
    <neuron name = "3" type = "sensor" linkName = "LeftLeg" />
    <neuron name = "4" type = "sensor" linkName = "RightLeg" />
    <neuron name = "5" type = "sensor" linkName = "BackLowerLeg" />
    <neuron name = "6" type = "sensor" linkName = "FrontLowerLeg" />
    <neuron name = "7" type = "sensor" linkName = "LeftLowerLeg" />
    <neuron name = "8" type = "sensor" linkName = "RightLowerLeg" />
    <neuron name = "9" type = "motor"  jointName = "Torso_BackLeg" />
    <neuron name = "10" type = "motor"  jointName = "Torso_FrontLeg" />
    <neuron name = "11" type = "motor"  jointName = "Torso_LeftLeg" />
    <neuron name = "12" type = "motor"  jointName = "Torso_RightLeg" />
    <neuron name = "13" type = "motor"  jointName = "BackLeg_BackLowerLeg" />
    <neuron name = "14" type = "motor"  jointName = "FrontLeg_FrontLowerLeg" />
    <neuron name = "15" type = "motor"  jointName = "LeftLeg_LeftLowerLeg" />
    <neuron name = "16" type = "motor"  jointName = "RightLeg_RightLowerLeg" />
    <synapse sourceNeuronName = "0" targetNeuronName = "9" weight = "-0.6972384617870877" />
    <synapse sourceNeuronName = "0" targetNeuronName = "10" weight = "-0.07643301040211181" />
    <synapse sourceNeuronName = "0" targetNeuronName = "11" weight = "0.5606037734594764" />
    <synapse sourceNeuronName = "0" targetNeuronName = "12" weight = "-0.2512251710658868" />
    <synapse sourceNeuronName = "0" targetNeuronName = "13" weight = "-0.5175040328006497" />
    <synapse sourceNeuronName = "0" targetNeuronName = "14" weight = "0.8800587988420652" />
    <synapse sourceNeuronName = "0" targetNeuronName = "15" weight = "0.10118176720414862" />
    <synapse sourceNeuronName = "0" targetNeuronName = "16" weight = "-0.4417413025476826" />
    <synapse sourceNeuronName = "1" targetNeuronName = "9" weight = "0.819978653721416" />
    <synapse sourceNeuronName = "1" targetNeuronName = "10" weight = "-0.804612303956213" />
    <synapse sourceNeuronName = "1" targetNeuronName = "11" weight = "0.447317465058654" />
    <synapse sourceNeuronName = "1" targetNeuronName = "12" weight = "-0.34679279108851624" />
    <synapse sourceNeuronName = "1" targetNeuronName = "13" weight = "0.14001144034752944" />
    <synapse sourceNeuronName = "1" targetNeuronName = "14" weight = "-0.9633286049924381" />
    <synapse sourceNeuronName = "1" targetNeuronName = "15" weight = "0.30098924008080075" />
    <synapse sourceNeuronName = "1" targetNeuronName = "16" weight = "0.7924917941146585" />
    <synapse sourceNeuronName = "2" targetNeuronName = "9" weight = "-0.3203554544714138" />
    <synapse sourceNeuronName = "2" targetNeuronName = "10" weight = "-0.25316600666513445" />
    <synapse sourceNeuronName = "2" targetNeuronName = "11" weight = "0.8761185041991006" />
    <synapse sourceNeuronName = "2" targetNeuronName = "12" weight = "0.6377697754611327" />
    <synapse sourceNeuronName = "2" targetNeuronName = "13" weight = "0.8456100280167709" />
    <synapse sourceNeuronName = "2" targetNeuronName = "14" weight = "-0.11311021321545311" />
    <synapse sourceNeuronName = "2" targetNeuronName = "15" weight = "0.6191888169966844" />
    <synapse sourceNeuronName = "2" targetNeuronName = "16" weight = "0.6317502611988945" />
    <synapse sourceNeuronName = "3" targetNeuronName = "9" weight = "-0.8508537525732909" />
    <synapse sourceNeuronName = "3" targetNeuronName = "10" weight = "-0.27494114810696213" />
    <synapse sourceNeuronName = "3" targetNeuronName = "11" weight = "-0.3331626061160633" />
    <synapse sourceNeuronName = "3" targetNeuronName = "12" weight = "0.016514800054020284" />
    <synapse sourceNeuronName = "3" targetNeuronName = "13" weight = "-0.7830650836242594" />
    <synapse sourceNeuronName = "3" targetNeuronName = "14" weight = "0.21313464188788167" />
    <synapse sourceNeuronName = "3" targetNeuronName = "15" weight = "-0.09018060357980717" />
    <synapse sourceNeuronName = "3" targetNeuronName = "16" weight = "0.45890220306973384" />
    <synapse sourceNeuronName = "4" targetNeuronName = "9" weight = "-0.10231944910746438" />
    <synapse sourceNeuronName = "4" targetNeuronName = "10" weight = "0.6545102179338094" />
    <synapse sourceNeuronName = "4" targetNeuronName = "11" weight = "0.01244012655759752" />
    <synapse sourceNeuronName = "4" targetNeuronName = "12" weight = "-0.817357932512373" />
    <synapse sourceNeuronName = "4" targetNeuronName = "13" weight = "-0.7544029153865872" />
    <synapse sourceNeuronName = "4" targetNeuronName = "14" weight = "0.547548957085058" />
    <synapse sourceNeuronName = "4" targetNeuronName = "15" weight = "-0.9556027600140304" />
    <synapse sourceNeuronName = "4" targetNeuronName = "16" weight = "-0.2984907661165943" />
    <synapse sourceNeuronName = "5" targetNeuronName = "9" weight = "0.8998422346176134" />
    <synapse sourceNeuronName = "5" targetNeuronName = "10" weight = "-0.27654499963981305" />
    <synapse sourceNeuronName = "5" targetNeuronName = "11" weight = "-0.0478335899717528" />
    <synapse sourceNeuronName = "5" targetNeuronName = "12" weight = "0.7353619482754807" />
    <synapse sourceNeuronName = "5" targetNeuronName = "13" weight = "-0.09778809483330542" />
    <synapse sourceNeuronName = "5" targetNeuronName = "14" weight = "0.46368844381081464" />
    <synapse sourceNeuronName = "5" targetNeuronName = "15" weight = "0.8835824534692871" />
    <synapse sourceNeuronName = "5" targetNeuronName = "16" weight = "0.042858533128605325" />
    <synapse sourceNeuronName = "6" targetNeuronName = "9" weight = "-0.28028959648057317" />
    <synapse sourceNeuronName = "6" targetNeuronName = "10" weight = "-0.749578090708793" />
    <synapse sourceNeuronName = "6" targetNeuronName = "11" weight = "-0.2902971155572023" />
    <synapse sourceNeuronName = "6" targetNeuronName = "12" weight = "-0.42704968940533616" />
    <synapse sourceNeuronName = "6" targetNeuronName = "13" weight = "0.9762313108446525" />
    <synapse sourceNeuronName = "6" targetNeuronName = "14" weight = "-0.45028349860286343" />
    <synapse sourceNeuronName = "6" targetNeuronName = "15" weight = "0.632801162557785" />
    <synapse sourceNeuronName = "6" targetNeuronName = "16" weight = "-0.7734832556234943" />
    <synapse sourceNeuronName = "7" targetNeuronName = "9" weight = "0.15134402626754517" />
    <synapse sourceNeuronName = "7" targetNeuronName = "10" weight = "0.9297006077873087" />
    <synapse sourceNeuronName = "7" targetNeuronName = "11" weight = "-0.41255900359298936" />
    <synapse sourceNeuronName = "7" targetNeuronName = "12" weight = "-0.3373481508440177" />
    <synapse sourceNeuronName = "7" targetNeuronName = "13" weight = "0.7287813890057313" />
    <synapse sourceNeuronName = "7" targetNeuronName = "14" weight = "-0.1695752258166987" />
    <synapse sourceNeuronName = "7" targetNeuronName = "15" weight = "-0.41505152926093536" />
    <synapse sourceNeuronName = "7" targetNeuronName = "16" weight = "0.14533805445301184" />
    <synapse sourceNeuronName = "8" targetNeuronName = "9" weight = "-0.5746939556294259" />
    <synapse sourceNeuronName = "8" targetNeuronName = "10" weight = "0.9371092735916056" />
    <synapse sourceNeuronName = "8" targetNeuronName = "11" weight = "0.10886952331472388" />
    <synapse sourceNeuronName = "8" targetNeuronName = "12" weight = "-0.9408607862538783" />
    <synapse sourceNeuronName = "8" targetNeuronName = "13" weight = "0.5648179738637706" />
    <synapse sourceNeuronName = "8" targetNeuronName = "14" weight = "-0.6802102803652421" />
    <synapse sourceNeuronName = "8" targetNeuronName = "15" weight = "-0.9217519539211381" />
    <synapse sourceNeuronName = "8" targetNeuronName = "16" weight = "0.59265708073137" />
</neuralNetwork>