<neuralNetwork>
    <neuron name = "0" type = "sensor" linkName = "Torso" />
    <neuron name = "1" type = "sensor" linkName = "BackLeg" />
    <neuron name = "2" type = "sensor" linkName = "FrontLeg" />
    <neuron name = "3" type = "sensor" linkName = "LeftLeg" />
    <neuron name = "4" type = "sensor" linkName = "RightLeg" />
    <neuron name = "5" type = "sensor" linkName = "BackLowerLeg" />
    <neuron name = "6" type = "sensor" linkName = "FrontLowerLeg" />
    <neuron name = "7" type = "sensor" linkName = "LeftLowerLeg" />
    <neuron name = "8" type = "sensor" linkName = "RightLowerLeg" />
    <neuron name = "9" type = "motor"  jointName = "Torso_BackLeg" />
    <neuron name = "10" type = "motor"  jointName = "Torso_FrontLeg" />
    <neuron name = "11" type = "motor"  jointName = "Torso_LeftLeg" />
    <neuron name = "12" type = "motor"  jointName = "Torso_RightLeg" />
    <neuron name = "13" type = "motor"  jointName = "BackLeg_BackLowerLeg" />
    <neuron name = "14" type = "motor"  jointName = "FrontLeg_FrontLowerLeg" />
    <neuron name = "15" type = "motor"  jointName = "LeftLeg_LeftLowerLeg" />
    <neuron name = "16" type = "motor"  jointName = "RightLeg_RightLowerLeg" />
    <synapse sourceNeuronName = "0" targetNeuronName = "9" weight = "-0.46572986070717826" />
    <synapse sourceNeuronName = "0" targetNeuronName = "10" weight = "-0.13009391125040048" />
    <synapse sourceNeuronName = "0" targetNeuronName = "11" weight = "0.3246723039248216" />
    <synapse sourceNeuronName = "0" targetNeuronName = "12" weight = "-0.8082764768722395" />
    <synapse sourceNeuronName = "0" targetNeuronName = "13" weight = "0.678544938014787" />
    <synapse sourceNeuronName = "0" targetNeuronName = "14" weight = "-0.6471780899958959" />
    <synapse sourceNeuronName = "0" targetNeuronName = "15" weight = "-0.4663998437396184" />
    <synapse sourceNeuronName = "0" targetNeuronName = "16" weight = "0.7168842448630195" />
    <synapse sourceNeuronName = "1" targetNeuronName = "9" weight = "0.8740402462450514" />
    <synapse sourceNeuronName = "1" targetNeuronName = "10" weight = "0.2638911501087502" />
    <synapse sourceNeuronName = "1" targetNeuronName = "11" weight = "-0.2309614971719971" />
    <synapse sourceNeuronName = "1" targetNeuronName = "12" weight = "-0.8740106684813289" />
    <synapse sourceNeuronName = "1" targetNeuronName = "13" weight = "0.23756567644453375" />
    <synapse sourceNeuronName = "1" targetNeuronName = "14" weight = "-0.46192546723249306" />
    <synapse sourceNeuronName = "1" targetNeuronName = "15" weight = "-0.42351000809286554" />
    <synapse sourceNeuronName = "1" targetNeuronName = "16" weight = "-0.4133042440492851" />
    <synapse sourceNeuronName = "2" targetNeuronName = "9" weight = "-0.6459276452463345" />
    <synapse sourceNeuronName = "2" targetNeuronName = "10" weight = "-0.8659790314535452" />
    <synapse sourceNeuronName = "2" targetNeuronName = "11" weight = "0.4230635419371327" />
    <synapse sourceNeuronName = "2" targetNeuronName = "12" weight = "-0.7384534882620879" />
    <synapse sourceNeuronName = "2" targetNeuronName = "13" weight = "-0.055104145896392565" />
    <synapse sourceNeuronName = "2" targetNeuronName = "14" weight = "-0.6857373741001944" />
    <synapse sourceNeuronName = "2" targetNeuronName = "15" weight = "0.8767892061823699" />
    <synapse sourceNeuronName = "2" targetNeuronName = "16" weight = "-0.6922474895586159" />
    <synapse sourceNeuronName = "3" targetNeuronName = "9" weight = "-0.41605326765034767" />
    <synapse sourceNeuronName = "3" targetNeuronName = "10" weight = "0.8190909281385075" />
    <synapse sourceNeuronName = "3" targetNeuronName = "11" weight = "0.20682933197945497" />
    <synapse sourceNeuronName = "3" targetNeuronName = "12" weight = "-0.8282714330046295" />
    <synapse sourceNeuronName = "3" targetNeuronName = "13" weight = "0.7388493550915662" />
    <synapse sourceNeuronName = "3" targetNeuronName = "14" weight = "-0.4084674365130945" />
    <synapse sourceNeuronName = "3" targetNeuronName = "15" weight = "-0.22092777062456914" />
    <synapse sourceNeuronName = "3" targetNeuronName = "16" weight = "-0.11625053286739084" />
    <synapse sourceNeuronName = "4" targetNeuronName = "9" weight = "-0.04072073757635186" />
    <synapse sourceNeuronName = "4" targetNeuronName = "10" weight = "-0.7001152170410609" />
    <synapse sourceNeuronName = "4" targetNeuronName = "11" weight = "-0.7632458238401179" />
    <synapse sourceNeuronName = "4" targetNeuronName = "12" weight = "-0.5365287420055089" />
    <synapse sourceNeuronName = "4" targetNeuronName = "13" weight = "0.9072820493761331" />
    <synapse sourceNeuronName = "4" targetNeuronName = "14" weight = "0.9675373445557882" />
    <synapse sourceNeuronName = "4" targetNeuronName = "15" weight = "-0.21686014536949227" />
    <synapse sourceNeuronName = "4" targetNeuronName = "16" weight = "-0.32453894356757185" />
    <synapse sourceNeuronName = "5" targetNeuronName = "9" weight = "-0.21421340780482123" />
    <synapse sourceNeuronName = "5" targetNeuronName = "10" weight = "-0.5357980769302944" />
    <synapse sourceNeuronName = "5" targetNeuronName = "11" weight = "-0.016368601469889166" />
    <synapse sourceNeuronName = "5" targetNeuronName = "12" weight = "0.1549768019337685" />
    <synapse sourceNeuronName = "5" targetNeuronName = "13" weight = "0.19602203993191858" />
    <synapse sourceNeuronName = "5" targetNeuronName = "14" weight = "0.8412606755300012" />
    <synapse sourceNeuronName = "5" targetNeuronName = "15" weight = "0.42712922366247175" />
    <synapse sourceNeuronName = "5" targetNeuronName = "16" weight = "0.42382944390259825" />
    <synapse sourceNeuronName = "6" targetNeuronName = "9" weight = "-0.9578821573729055" />
    <synapse sourceNeuronName = "6" targetNeuronName = "10" weight = "-0.6853664509533153" />
    <synapse sourceNeuronName = "6" targetNeuronName = "11" weight = "-0.8308656909000351" />
    <synapse sourceNeuronName = "6" targetNeuronName = "12" weight = "0.5455667638277888" />
    <synapse sourceNeuronName = "6" targetNeuronName = "13" weight = "-0.4642809019947305" />
    <synapse sourceNeuronName = "6" targetNeuronName = "14" weight = "0.08199118175039377" />
    <synapse sourceNeuronName = "6" targetNeuronName = "15" weight = "-0.8778575571627554" />
    <synapse sourceNeuronName = "6" targetNeuronName = "16" weight = "-0.010823781595789672" />
    <synapse sourceNeuronName = "7" targetNeuronName = "9" weight = "-0.07801370651853468" />
    <synapse sourceNeuronName = "7" targetNeuronName = "10" weight = "-0.8088815394252362" />
    <synapse sourceNeuronName = "7" targetNeuronName = "11" weight = "-0.9244384997209723" />
    <synapse sourceNeuronName = "7" targetNeuronName = "12" weight = "0.9042590146015712" />
    <synapse sourceNeuronName = "7" targetNeuronName = "13" weight = "0.3635246508705019" />
    <synapse sourceNeuronName = "7" targetNeuronName = "14" weight = "0.5765119737866635" />
    <synapse sourceNeuronName = "7" targetNeuronName = "15" weight = "0.4378107758087064" />
    <synapse sourceNeuronName = "7" targetNeuronName = "16" weight = "0.986012713596794" />
    <synapse sourceNeuronName = "8" targetNeuronName = "9" weight = "-0.39422766015722766" />
    <synapse sourceNeuronName = "8" targetNeuronName = "10" weight = "-0.6939206352673966" />
    <synapse sourceNeuronName = "8" targetNeuronName = "11" weight = "-0.5003364206462029" />
    <synapse sourceNeuronName = "8" targetNeuronName = "12" weight = "0.9500554772906642" />
    <synapse sourceNeuronName = "8" targetNeuronName = "13" weight = "0.07371766805384161" />
    <synapse sourceNeuronName = "8" targetNeuronName = "14" weight = "-0.04609448440920105" />
    <synapse sourceNeuronName = "8" targetNeuronName = "15" weight = "-0.03236712568264255" />
    <synapse sourceNeuronName = "8" targetNeuronName = "16" weight = "-0.2795845681839044" />
</neuralNetwork>