<neuralNetwork>
    <neuron name = "0" type = "sensor" linkName = "Torso" />
    <neuron name = "1" type = "sensor" linkName = "BackLeg" />
    <neuron name = "2" type = "sensor" linkName = "FrontLeg" />
    <neuron name = "3" type = "sensor" linkName = "LeftLeg" />
    <neuron name = "4" type = "sensor" linkName = "RightLeg" />
    <neuron name = "5" type = "sensor" linkName = "BackLowerLeg" />
    <neuron name = "6" type = "sensor" linkName = "FrontLowerLeg" />
    <neuron name = "7" type = "sensor" linkName = "LeftLowerLeg" />
    <neuron name = "8" type = "sensor" linkName = "RightLowerLeg" />
    <neuron name = "9" type = "motor"  jointName = "Torso_BackLeg" />
    <neuron name = "10" type = "motor"  jointName = "Torso_FrontLeg" />
    <neuron name = "11" type = "motor"  jointName = "Torso_LeftLeg" />
    <neuron name = "12" type = "motor"  jointName = "Torso_RightLeg" />
    <neuron name = "13" type = "motor"  jointName = "BackLeg_BackLowerLeg" />
    <neuron name = "14" type = "motor"  jointName = "FrontLeg_FrontLowerLeg" />
    <neuron name = "15" type = "motor"  jointName = "LeftLeg_LeftLowerLeg" />
    <neuron name = "16" type = "motor"  jointName = "RightLeg_RightLowerLeg" />
    <synapse sourceNeuronName = "0" targetNeuronName = "9" weight = "0.6777184133371366" />
    <synapse sourceNeuronName = "0" targetNeuronName = "10" weight = "-0.6169675027531873" />
    <synapse sourceNeuronName = "0" targetNeuronName = "11" weight = "-0.897855502848014" />
    <synapse sourceNeuronName = "0" targetNeuronName = "12" weight = "-0.7620885014275949" />
    <synapse sourceNeuronName = "0" targetNeuronName = "13" weight = "0.9626999904752322" />
    <synapse sourceNeuronName = "0" targetNeuronName = "14" weight = "-0.11895024741823845" />
    <synapse sourceNeuronName = "0" targetNeuronName = "15" weight = "0.4559828124837635" />
    <synapse sourceNeuronName = "0" targetNeuronName = "16" weight = "0.6260708955936127" />
    <synapse sourceNeuronName = "1" targetNeuronName = "9" weight = "-0.3756914261538369" />
    <synapse sourceNeuronName = "1" targetNeuronName = "10" weight = "0.027463722757194775" />
    <synapse sourceNeuronName = "1" targetNeuronName = "11" weight = "-0.7058435973967236" />
    <synapse sourceNeuronName = "1" targetNeuronName = "12" weight = "-0.10195323659236344" />
    <synapse sourceNeuronName = "1" targetNeuronName = "13" weight = "-0.6932467732709147" />
    <synapse sourceNeuronName = "1" targetNeuronName = "14" weight = "0.6462828491240789" />
    <synapse sourceNeuronName = "1" targetNeuronName = "15" weight = "0.2138198866133132" />
    <synapse sourceNeuronName = "1" targetNeuronName = "16" weight = "-0.8520033705724217" />
    <synapse sourceNeuronName = "2" targetNeuronName = "9" weight = "0.37786387573146163" />
    <synapse sourceNeuronName = "2" targetNeuronName = "10" weight = "0.3178133128696259" />
    <synapse sourceNeuronName = "2" targetNeuronName = "11" weight = "0.19280003448179261" />
    <synapse sourceNeuronName = "2" targetNeuronName = "12" weight = "0.640024052262042" />
    <synapse sourceNeuronName = "2" targetNeuronName = "13" weight = "0.6333399534396997" />
    <synapse sourceNeuronName = "2" targetNeuronName = "14" weight = "0.8745911058269278" />
    <synapse sourceNeuronName = "2" targetNeuronName = "15" weight = "-0.9179456180055825" />
    <synapse sourceNeuronName = "2" targetNeuronName = "16" weight = "0.6018618590477081" />
    <synapse sourceNeuronName = "3" targetNeuronName = "9" weight = "-0.3389234181378149" />
    <synapse sourceNeuronName = "3" targetNeuronName = "10" weight = "0.17635818247231327" />
    <synapse sourceNeuronName = "3" targetNeuronName = "11" weight = "-0.8528513024481574" />
    <synapse sourceNeuronName = "3" targetNeuronName = "12" weight = "-0.555749673205788" />
    <synapse sourceNeuronName = "3" targetNeuronName = "13" weight = "-0.732810200138698" />
    <synapse sourceNeuronName = "3" targetNeuronName = "14" weight = "-0.660321519238334" />
    <synapse sourceNeuronName = "3" targetNeuronName = "15" weight = "0.3021763749686033" />
    <synapse sourceNeuronName = "3" targetNeuronName = "16" weight = "-0.36743140054485823" />
    <synapse sourceNeuronName = "4" targetNeuronName = "9" weight = "0.6529633892401987" />
    <synapse sourceNeuronName = "4" targetNeuronName = "10" weight = "-0.8105795461878451" />
    <synapse sourceNeuronName = "4" targetNeuronName = "11" weight = "0.15782650529487663" />
    <synapse sourceNeuronName = "4" targetNeuronName = "12" weight = "0.8515086905876339" />
    <synapse sourceNeuronName = "4" targetNeuronName = "13" weight = "-0.7027057096062435" />
    <synapse sourceNeuronName = "4" targetNeuronName = "14" weight = "-0.6644216618924708" />
    <synapse sourceNeuronName = "4" targetNeuronName = "15" weight = "0.9607594325019226" />
    <synapse sourceNeuronName = "4" targetNeuronName = "16" weight = "0.5018975096600293" />
    <synapse sourceNeuronName = "5" targetNeuronName = "9" weight = "-0.7927684068308107" />
    <synapse sourceNeuronName = "5" targetNeuronName = "10" weight = "0.8160049394637936" />
    <synapse sourceNeuronName = "5" targetNeuronName = "11" weight = "0.656482685343869" />
    <synapse sourceNeuronName = "5" targetNeuronName = "12" weight = "-0.6393434485478071" />
    <synapse sourceNeuronName = "5" targetNeuronName = "13" weight = "-0.1373885580006602" />
    <synapse sourceNeuronName = "5" targetNeuronName = "14" weight = "0.14402293129915145" />
    <synapse sourceNeuronName = "5" targetNeuronName = "15" weight = "0.015563683515433357" />
    <synapse sourceNeuronName = "5" targetNeuronName = "16" weight = "0.559454895306867" />
    <synapse sourceNeuronName = "6" targetNeuronName = "9" weight = "0.6698961453643033" />
    <synapse sourceNeuronName = "6" targetNeuronName = "10" weight = "0.748371777508408" />
    <synapse sourceNeuronName = "6" targetNeuronName = "11" weight = "-0.7914595676751384" />
    <synapse sourceNeuronName = "6" targetNeuronName = "12" weight = "0.48211628855849264" />
    <synapse sourceNeuronName = "6" targetNeuronName = "13" weight = "-0.2287316334082239" />
    <synapse sourceNeuronName = "6" targetNeuronName = "14" weight = "0.8310235932207424" />
    <synapse sourceNeuronName = "6" targetNeuronName = "15" weight = "0.5822984904857127" />
    <synapse sourceNeuronName = "6" targetNeuronName = "16" weight = "0.9366416082933111" />
    <synapse sourceNeuronName = "7" targetNeuronName = "9" weight = "0.010782742596167738" />
    <synapse sourceNeuronName = "7" targetNeuronName = "10" weight = "0.7827130299174054" />
    <synapse sourceNeuronName = "7" targetNeuronName = "11" weight = "0.5097066100204881" />
    <synapse sourceNeuronName = "7" targetNeuronName = "12" weight = "-0.7035147221296745" />
    <synapse sourceNeuronName = "7" targetNeuronName = "13" weight = "-0.20447050424793667" />
    <synapse sourceNeuronName = "7" targetNeuronName = "14" weight = "0.16451063304081104" />
    <synapse sourceNeuronName = "7" targetNeuronName = "15" weight = "-0.47303002592614796" />
    <synapse sourceNeuronName = "7" targetNeuronName = "16" weight = "-0.5807350132868245" />
    <synapse sourceNeuronName = "8" targetNeuronName = "9" weight = "-0.4487698471874575" />
    <synapse sourceNeuronName = "8" targetNeuronName = "10" weight = "0.9025151934501041" />
    <synapse sourceNeuronName = "8" targetNeuronName = "11" weight = "-0.9725613829260729" />
    <synapse sourceNeuronName = "8" targetNeuronName = "12" weight = "-0.7186797145730306" />
    <synapse sourceNeuronName = "8" targetNeuronName = "13" weight = "0.8016194447365683" />
    <synapse sourceNeuronName = "8" targetNeuronName = "14" weight = "0.042727013041109485" />
    <synapse sourceNeuronName = "8" targetNeuronName = "15" weight = "-0.5329121470829423" />
    <synapse sourceNeuronName = "8" targetNeuronName = "16" weight = "0.48599616402349044" />
</neuralNetwork>