<neuralNetwork>
    <neuron name = "0" type = "sensor" linkName = "Torso" />
    <neuron name = "1" type = "sensor" linkName = "BackLeg" />
    <neuron name = "2" type = "sensor" linkName = "FrontLeg" />
    <neuron name = "3" type = "sensor" linkName = "LeftLeg" />
    <neuron name = "4" type = "sensor" linkName = "RightLeg" />
    <neuron name = "5" type = "sensor" linkName = "BackLowerLeg" />
    <neuron name = "6" type = "sensor" linkName = "FrontLowerLeg" />
    <neuron name = "7" type = "sensor" linkName = "LeftLowerLeg" />
    <neuron name = "8" type = "sensor" linkName = "RightLowerLeg" />
    <neuron name = "9" type = "motor"  jointName = "Torso_BackLeg" />
    <neuron name = "10" type = "motor"  jointName = "Torso_FrontLeg" />
    <neuron name = "11" type = "motor"  jointName = "Torso_LeftLeg" />
    <neuron name = "12" type = "motor"  jointName = "Torso_RightLeg" />
    <neuron name = "13" type = "motor"  jointName = "BackLeg_BackLowerLeg" />
    <neuron name = "14" type = "motor"  jointName = "FrontLeg_FrontLowerLeg" />
    <neuron name = "15" type = "motor"  jointName = "LeftLeg_LeftLowerLeg" />
    <neuron name = "16" type = "motor"  jointName = "RightLeg_RightLowerLeg" />
    <synapse sourceNeuronName = "0" targetNeuronName = "9" weight = "0.34453189589819977" />
    <synapse sourceNeuronName = "0" targetNeuronName = "10" weight = "0.7748169724589242" />
    <synapse sourceNeuronName = "0" targetNeuronName = "11" weight = "0.2965080611178992" />
    <synapse sourceNeuronName = "0" targetNeuronName = "12" weight = "0.10349739060366381" />
    <synapse sourceNeuronName = "0" targetNeuronName = "13" weight = "0.18281839706044067" />
    <synapse sourceNeuronName = "0" targetNeuronName = "14" weight = "-0.31485300123944326" />
    <synapse sourceNeuronName = "0" targetNeuronName = "15" weight = "-0.4556478545835172" />
    <synapse sourceNeuronName = "0" targetNeuronName = "16" weight = "-0.7084635352170585" />
    <synapse sourceNeuronName = "1" targetNeuronName = "9" weight = "-0.3557292961491503" />
    <synapse sourceNeuronName = "1" targetNeuronName = "10" weight = "-0.9711244049000602" />
    <synapse sourceNeuronName = "1" targetNeuronName = "11" weight = "-0.9895323973974501" />
    <synapse sourceNeuronName = "1" targetNeuronName = "12" weight = "-0.497166201220844" />
    <synapse sourceNeuronName = "1" targetNeuronName = "13" weight = "-0.34987074886306035" />
    <synapse sourceNeuronName = "1" targetNeuronName = "14" weight = "0.459545363624847" />
    <synapse sourceNeuronName = "1" targetNeuronName = "15" weight = "0.7704370559479057" />
    <synapse sourceNeuronName = "1" targetNeuronName = "16" weight = "0.3341713509739044" />
    <synapse sourceNeuronName = "2" targetNeuronName = "9" weight = "0.027666200942579877" />
    <synapse sourceNeuronName = "2" targetNeuronName = "10" weight = "-0.6124995638352935" />
    <synapse sourceNeuronName = "2" targetNeuronName = "11" weight = "-0.09601547150231715" />
    <synapse sourceNeuronName = "2" targetNeuronName = "12" weight = "0.6911308410972734" />
    <synapse sourceNeuronName = "2" targetNeuronName = "13" weight = "-0.628839453446773" />
    <synapse sourceNeuronName = "2" targetNeuronName = "14" weight = "-0.41777887412596937" />
    <synapse sourceNeuronName = "2" targetNeuronName = "15" weight = "-0.29215595752286494" />
    <synapse sourceNeuronName = "2" targetNeuronName = "16" weight = "0.8391101965178396" />
    <synapse sourceNeuronName = "3" targetNeuronName = "9" weight = "0.21547714446899158" />
    <synapse sourceNeuronName = "3" targetNeuronName = "10" weight = "0.7752247198428086" />
    <synapse sourceNeuronName = "3" targetNeuronName = "11" weight = "0.7508224153567447" />
    <synapse sourceNeuronName = "3" targetNeuronName = "12" weight = "-0.9101223785117556" />
    <synapse sourceNeuronName = "3" targetNeuronName = "13" weight = "0.14092030207681217" />
    <synapse sourceNeuronName = "3" targetNeuronName = "14" weight = "-0.5165656798716345" />
    <synapse sourceNeuronName = "3" targetNeuronName = "15" weight = "-0.2672606990606794" />
    <synapse sourceNeuronName = "3" targetNeuronName = "16" weight = "0.5734228221712252" />
    <synapse sourceNeuronName = "4" targetNeuronName = "9" weight = "-0.38253416806017726" />
    <synapse sourceNeuronName = "4" targetNeuronName = "10" weight = "-0.2494682713087384" />
    <synapse sourceNeuronName = "4" targetNeuronName = "11" weight = "-0.25884680025800777" />
    <synapse sourceNeuronName = "4" targetNeuronName = "12" weight = "-0.9362618039110018" />
    <synapse sourceNeuronName = "4" targetNeuronName = "13" weight = "0.4729346071618745" />
    <synapse sourceNeuronName = "4" targetNeuronName = "14" weight = "-0.5232724453779503" />
    <synapse sourceNeuronName = "4" targetNeuronName = "15" weight = "-0.059903993335369554" />
    <synapse sourceNeuronName = "4" targetNeuronName = "16" weight = "0.06837514457191052" />
    <synapse sourceNeuronName = "5" targetNeuronName = "9" weight = "0.9982288488555766" />
    <synapse sourceNeuronName = "5" targetNeuronName = "10" weight = "-0.5684695205980017" />
    <synapse sourceNeuronName = "5" targetNeuronName = "11" weight = "0.3887444275263401" />
    <synapse sourceNeuronName = "5" targetNeuronName = "12" weight = "0.2827552510096616" />
    <synapse sourceNeuronName = "5" targetNeuronName = "13" weight = "-0.21139823182950002" />
    <synapse sourceNeuronName = "5" targetNeuronName = "14" weight = "0.5578336544503846" />
    <synapse sourceNeuronName = "5" targetNeuronName = "15" weight = "0.3589220660434007" />
    <synapse sourceNeuronName = "5" targetNeuronName = "16" weight = "-0.3465895281733409" />
    <synapse sourceNeuronName = "6" targetNeuronName = "9" weight = "0.14456003762165937" />
    <synapse sourceNeuronName = "6" targetNeuronName = "10" weight = "0.6810257609461008" />
    <synapse sourceNeuronName = "6" targetNeuronName = "11" weight = "0.09268506435374446" />
    <synapse sourceNeuronName = "6" targetNeuronName = "12" weight = "-0.29199891543857026" />
    <synapse sourceNeuronName = "6" targetNeuronName = "13" weight = "-0.3216957812403365" />
    <synapse sourceNeuronName = "6" targetNeuronName = "14" weight = "0.504780958530405" />
    <synapse sourceNeuronName = "6" targetNeuronName = "15" weight = "-0.40409477724023946" />
    <synapse sourceNeuronName = "6" targetNeuronName = "16" weight = "-0.17817940688318679" />
    <synapse sourceNeuronName = "7" targetNeuronName = "9" weight = "-0.7216227685052421" />
    <synapse sourceNeuronName = "7" targetNeuronName = "10" weight = "0.25682018910529614" />
    <synapse sourceNeuronName = "7" targetNeuronName = "11" weight = "-0.7331625853867223" />
    <synapse sourceNeuronName = "7" targetNeuronName = "12" weight = "0.289688053179763" />
    <synapse sourceNeuronName = "7" targetNeuronName = "13" weight = "0.38040264937255763" />
    <synapse sourceNeuronName = "7" targetNeuronName = "14" weight = "0.018113290536131643" />
    <synapse sourceNeuronName = "7" targetNeuronName = "15" weight = "-0.5662747593344764" />
    <synapse sourceNeuronName = "7" targetNeuronName = "16" weight = "-0.4393988622738083" />
    <synapse sourceNeuronName = "8" targetNeuronName = "9" weight = "0.7919637499680094" />
    <synapse sourceNeuronName = "8" targetNeuronName = "10" weight = "0.9426348392696415" />
    <synapse sourceNeuronName = "8" targetNeuronName = "11" weight = "-0.030530066263685596" />
    <synapse sourceNeuronName = "8" targetNeuronName = "12" weight = "0.16126589367298538" />
    <synapse sourceNeuronName = "8" targetNeuronName = "13" weight = "-0.48848906099238465" />
    <synapse sourceNeuronName = "8" targetNeuronName = "14" weight = "0.719506773289935" />
    <synapse sourceNeuronName = "8" targetNeuronName = "15" weight = "-0.05192225283029672" />
    <synapse sourceNeuronName = "8" targetNeuronName = "16" weight = "0.010083129948997405" />
</neuralNetwork>