<neuralNetwork>
    <neuron name = "0" type = "sensor" linkName = "Torso" />
    <neuron name = "1" type = "sensor" linkName = "BackLeg" />
    <neuron name = "2" type = "sensor" linkName = "FrontLeg" />
    <neuron name = "3" type = "sensor" linkName = "LeftLeg" />
    <neuron name = "4" type = "sensor" linkName = "RightLeg" />
    <neuron name = "5" type = "sensor" linkName = "BackLowerLeg" />
    <neuron name = "6" type = "sensor" linkName = "FrontLowerLeg" />
    <neuron name = "7" type = "sensor" linkName = "LeftLowerLeg" />
    <neuron name = "8" type = "sensor" linkName = "RightLowerLeg" />
    <neuron name = "9" type = "motor"  jointName = "Torso_BackLeg" />
    <neuron name = "10" type = "motor"  jointName = "Torso_FrontLeg" />
    <neuron name = "11" type = "motor"  jointName = "Torso_LeftLeg" />
    <neuron name = "12" type = "motor"  jointName = "Torso_RightLeg" />
    <neuron name = "13" type = "motor"  jointName = "BackLeg_BackLowerLeg" />
    <neuron name = "14" type = "motor"  jointName = "FrontLeg_FrontLowerLeg" />
    <neuron name = "15" type = "motor"  jointName = "LeftLeg_LeftLowerLeg" />
    <neuron name = "16" type = "motor"  jointName = "RightLeg_RightLowerLeg" />
    <synapse sourceNeuronName = "0" targetNeuronName = "9" weight = "0.20510535069479285" />
    <synapse sourceNeuronName = "0" targetNeuronName = "10" weight = "0.00939430723986745" />
    <synapse sourceNeuronName = "0" targetNeuronName = "11" weight = "0.32717463436418903" />
    <synapse sourceNeuronName = "0" targetNeuronName = "12" weight = "-0.0705074386016249" />
    <synapse sourceNeuronName = "0" targetNeuronName = "13" weight = "-0.6852075974172898" />
    <synapse sourceNeuronName = "0" targetNeuronName = "14" weight = "0.3302114687575166" />
    <synapse sourceNeuronName = "0" targetNeuronName = "15" weight = "-0.8328354036253691" />
    <synapse sourceNeuronName = "0" targetNeuronName = "16" weight = "0.03878347157006701" />
    <synapse sourceNeuronName = "1" targetNeuronName = "9" weight = "-0.20209035601802317" />
    <synapse sourceNeuronName = "1" targetNeuronName = "10" weight = "0.539700015121303" />
    <synapse sourceNeuronName = "1" targetNeuronName = "11" weight = "0.8459836796259754" />
    <synapse sourceNeuronName = "1" targetNeuronName = "12" weight = "-0.5659820197133187" />
    <synapse sourceNeuronName = "1" targetNeuronName = "13" weight = "0.005073514508452837" />
    <synapse sourceNeuronName = "1" targetNeuronName = "14" weight = "0.551266799547198" />
    <synapse sourceNeuronName = "1" targetNeuronName = "15" weight = "-0.510736535078252" />
    <synapse sourceNeuronName = "1" targetNeuronName = "16" weight = "0.8945863441223019" />
    <synapse sourceNeuronName = "2" targetNeuronName = "9" weight = "-0.6988340984595696" />
    <synapse sourceNeuronName = "2" targetNeuronName = "10" weight = "-0.43775675293931027" />
    <synapse sourceNeuronName = "2" targetNeuronName = "11" weight = "0.8499789999238843" />
    <synapse sourceNeuronName = "2" targetNeuronName = "12" weight = "0.694484002905291" />
    <synapse sourceNeuronName = "2" targetNeuronName = "13" weight = "0.6550259798864673" />
    <synapse sourceNeuronName = "2" targetNeuronName = "14" weight = "-0.6398551763553411" />
    <synapse sourceNeuronName = "2" targetNeuronName = "15" weight = "-0.7354568773538033" />
    <synapse sourceNeuronName = "2" targetNeuronName = "16" weight = "0.6889640928415912" />
    <synapse sourceNeuronName = "3" targetNeuronName = "9" weight = "0.07454549900064444" />
    <synapse sourceNeuronName = "3" targetNeuronName = "10" weight = "-0.8638477708888026" />
    <synapse sourceNeuronName = "3" targetNeuronName = "11" weight = "-0.8253690449493425" />
    <synapse sourceNeuronName = "3" targetNeuronName = "12" weight = "0.16625767336014485" />
    <synapse sourceNeuronName = "3" targetNeuronName = "13" weight = "-0.17461963834723293" />
    <synapse sourceNeuronName = "3" targetNeuronName = "14" weight = "0.08871605430919383" />
    <synapse sourceNeuronName = "3" targetNeuronName = "15" weight = "0.9430675497329113" />
    <synapse sourceNeuronName = "3" targetNeuronName = "16" weight = "-0.14725946776732046" />
    <synapse sourceNeuronName = "4" targetNeuronName = "9" weight = "0.5615020762156768" />
    <synapse sourceNeuronName = "4" targetNeuronName = "10" weight = "-0.041141570709253505" />
    <synapse sourceNeuronName = "4" targetNeuronName = "11" weight = "-0.5283379678668403" />
    <synapse sourceNeuronName = "4" targetNeuronName = "12" weight = "-0.13634494124785168" />
    <synapse sourceNeuronName = "4" targetNeuronName = "13" weight = "-0.15599196319750708" />
    <synapse sourceNeuronName = "4" targetNeuronName = "14" weight = "-0.6633080827625413" />
    <synapse sourceNeuronName = "4" targetNeuronName = "15" weight = "0.6418211312543829" />
    <synapse sourceNeuronName = "4" targetNeuronName = "16" weight = "-0.4732678427937598" />
    <synapse sourceNeuronName = "5" targetNeuronName = "9" weight = "-0.2663273081257693" />
    <synapse sourceNeuronName = "5" targetNeuronName = "10" weight = "-0.02015372535793225" />
    <synapse sourceNeuronName = "5" targetNeuronName = "11" weight = "-0.7909607598624053" />
    <synapse sourceNeuronName = "5" targetNeuronName = "12" weight = "-0.3701336254647507" />
    <synapse sourceNeuronName = "5" targetNeuronName = "13" weight = "0.7581924882580127" />
    <synapse sourceNeuronName = "5" targetNeuronName = "14" weight = "0.08955338451699357" />
    <synapse sourceNeuronName = "5" targetNeuronName = "15" weight = "-0.8162989010032802" />
    <synapse sourceNeuronName = "5" targetNeuronName = "16" weight = "-0.915804282026158" />
    <synapse sourceNeuronName = "6" targetNeuronName = "9" weight = "0.9361149731170144" />
    <synapse sourceNeuronName = "6" targetNeuronName = "10" weight = "0.752012600389208" />
    <synapse sourceNeuronName = "6" targetNeuronName = "11" weight = "-0.18788634672602367" />
    <synapse sourceNeuronName = "6" targetNeuronName = "12" weight = "0.3399013859492279" />
    <synapse sourceNeuronName = "6" targetNeuronName = "13" weight = "-0.08534658330556266" />
    <synapse sourceNeuronName = "6" targetNeuronName = "14" weight = "0.8618102334624131" />
    <synapse sourceNeuronName = "6" targetNeuronName = "15" weight = "-0.520877464383646" />
    <synapse sourceNeuronName = "6" targetNeuronName = "16" weight = "-0.9115216557976069" />
    <synapse sourceNeuronName = "7" targetNeuronName = "9" weight = "-0.9368779176787538" />
    <synapse sourceNeuronName = "7" targetNeuronName = "10" weight = "0.3863530293871613" />
    <synapse sourceNeuronName = "7" targetNeuronName = "11" weight = "-0.3066682463052133" />
    <synapse sourceNeuronName = "7" targetNeuronName = "12" weight = "0.23131056858715815" />
    <synapse sourceNeuronName = "7" targetNeuronName = "13" weight = "0.2367392871713352" />
    <synapse sourceNeuronName = "7" targetNeuronName = "14" weight = "-0.9246109629765711" />
    <synapse sourceNeuronName = "7" targetNeuronName = "15" weight = "-0.5029426312820926" />
    <synapse sourceNeuronName = "7" targetNeuronName = "16" weight = "-0.775085260366065" />
    <synapse sourceNeuronName = "8" targetNeuronName = "9" weight = "0.9570274718015264" />
    <synapse sourceNeuronName = "8" targetNeuronName = "10" weight = "0.34696587415757585" />
    <synapse sourceNeuronName = "8" targetNeuronName = "11" weight = "0.5804358116886459" />
    <synapse sourceNeuronName = "8" targetNeuronName = "12" weight = "-0.10197470043648704" />
    <synapse sourceNeuronName = "8" targetNeuronName = "13" weight = "0.9608906897612273" />
    <synapse sourceNeuronName = "8" targetNeuronName = "14" weight = "0.616984060434653" />
    <synapse sourceNeuronName = "8" targetNeuronName = "15" weight = "0.5003709680975583" />
    <synapse sourceNeuronName = "8" targetNeuronName = "16" weight = "-0.3136225163833377" />
</neuralNetwork>