<neuralNetwork>
    <neuron name = "0" type = "sensor" linkName = "Torso" />
    <neuron name = "1" type = "sensor" linkName = "BackLeg" />
    <neuron name = "2" type = "sensor" linkName = "FrontLeg" />
    <neuron name = "3" type = "sensor" linkName = "LeftLeg" />
    <neuron name = "4" type = "sensor" linkName = "RightLeg" />
    <neuron name = "5" type = "sensor" linkName = "BackLowerLeg" />
    <neuron name = "6" type = "sensor" linkName = "FrontLowerLeg" />
    <neuron name = "7" type = "sensor" linkName = "LeftLowerLeg" />
    <neuron name = "8" type = "sensor" linkName = "RightLowerLeg" />
    <neuron name = "9" type = "motor"  jointName = "Torso_BackLeg" />
    <neuron name = "10" type = "motor"  jointName = "Torso_FrontLeg" />
    <neuron name = "11" type = "motor"  jointName = "Torso_LeftLeg" />
    <neuron name = "12" type = "motor"  jointName = "Torso_RightLeg" />
    <neuron name = "13" type = "motor"  jointName = "BackLeg_BackLowerLeg" />
    <neuron name = "14" type = "motor"  jointName = "FrontLeg_FrontLowerLeg" />
    <neuron name = "15" type = "motor"  jointName = "LeftLeg_LeftLowerLeg" />
    <neuron name = "16" type = "motor"  jointName = "RightLeg_RightLowerLeg" />
    <synapse sourceNeuronName = "0" targetNeuronName = "9" weight = "-0.6366044479750743" />
    <synapse sourceNeuronName = "0" targetNeuronName = "10" weight = "-0.17533827837839122" />
    <synapse sourceNeuronName = "0" targetNeuronName = "11" weight = "0.9819674503981985" />
    <synapse sourceNeuronName = "0" targetNeuronName = "12" weight = "0.7459921984755367" />
    <synapse sourceNeuronName = "0" targetNeuronName = "13" weight = "0.00680325392586667" />
    <synapse sourceNeuronName = "0" targetNeuronName = "14" weight = "0.6340018102776419" />
    <synapse sourceNeuronName = "0" targetNeuronName = "15" weight = "-0.8407133603920833" />
    <synapse sourceNeuronName = "0" targetNeuronName = "16" weight = "0.7097978932980054" />
    <synapse sourceNeuronName = "1" targetNeuronName = "9" weight = "0.020463270980685788" />
    <synapse sourceNeuronName = "1" targetNeuronName = "10" weight = "0.21021246796779192" />
    <synapse sourceNeuronName = "1" targetNeuronName = "11" weight = "0.5741736155327504" />
    <synapse sourceNeuronName = "1" targetNeuronName = "12" weight = "-0.4092293088006851" />
    <synapse sourceNeuronName = "1" targetNeuronName = "13" weight = "0.41320353646821495" />
    <synapse sourceNeuronName = "1" targetNeuronName = "14" weight = "0.2884005325537189" />
    <synapse sourceNeuronName = "1" targetNeuronName = "15" weight = "0.03354739951031882" />
    <synapse sourceNeuronName = "1" targetNeuronName = "16" weight = "0.18521294076402128" />
    <synapse sourceNeuronName = "2" targetNeuronName = "9" weight = "-0.6185097631888363" />
    <synapse sourceNeuronName = "2" targetNeuronName = "10" weight = "0.5080321686170348" />
    <synapse sourceNeuronName = "2" targetNeuronName = "11" weight = "-0.5507534654091073" />
    <synapse sourceNeuronName = "2" targetNeuronName = "12" weight = "0.5618707890077987" />
    <synapse sourceNeuronName = "2" targetNeuronName = "13" weight = "0.3715034546561411" />
    <synapse sourceNeuronName = "2" targetNeuronName = "14" weight = "-0.9428904696765639" />
    <synapse sourceNeuronName = "2" targetNeuronName = "15" weight = "0.43420214726868367" />
    <synapse sourceNeuronName = "2" targetNeuronName = "16" weight = "0.3610318455383781" />
    <synapse sourceNeuronName = "3" targetNeuronName = "9" weight = "-0.3968642568114318" />
    <synapse sourceNeuronName = "3" targetNeuronName = "10" weight = "0.8656299749024616" />
    <synapse sourceNeuronName = "3" targetNeuronName = "11" weight = "-0.23499599474476218" />
    <synapse sourceNeuronName = "3" targetNeuronName = "12" weight = "-0.5317768281056818" />
    <synapse sourceNeuronName = "3" targetNeuronName = "13" weight = "0.9380124855757328" />
    <synapse sourceNeuronName = "3" targetNeuronName = "14" weight = "0.7498374876379077" />
    <synapse sourceNeuronName = "3" targetNeuronName = "15" weight = "-0.32749028485934506" />
    <synapse sourceNeuronName = "3" targetNeuronName = "16" weight = "-0.5213331026978745" />
    <synapse sourceNeuronName = "4" targetNeuronName = "9" weight = "-0.37368102623622845" />
    <synapse sourceNeuronName = "4" targetNeuronName = "10" weight = "-0.9286386154348321" />
    <synapse sourceNeuronName = "4" targetNeuronName = "11" weight = "-0.5715721740579873" />
    <synapse sourceNeuronName = "4" targetNeuronName = "12" weight = "0.590931707301461" />
    <synapse sourceNeuronName = "4" targetNeuronName = "13" weight = "0.6410672997918543" />
    <synapse sourceNeuronName = "4" targetNeuronName = "14" weight = "-0.9365835916387486" />
    <synapse sourceNeuronName = "4" targetNeuronName = "15" weight = "0.268405559069409" />
    <synapse sourceNeuronName = "4" targetNeuronName = "16" weight = "0.8253452929731495" />
    <synapse sourceNeuronName = "5" targetNeuronName = "9" weight = "-0.21790575703528403" />
    <synapse sourceNeuronName = "5" targetNeuronName = "10" weight = "0.2202800545200343" />
    <synapse sourceNeuronName = "5" targetNeuronName = "11" weight = "0.7629446347678097" />
    <synapse sourceNeuronName = "5" targetNeuronName = "12" weight = "-0.3127379430188677" />
    <synapse sourceNeuronName = "5" targetNeuronName = "13" weight = "0.04602829549967957" />
    <synapse sourceNeuronName = "5" targetNeuronName = "14" weight = "0.45207144003541155" />
    <synapse sourceNeuronName = "5" targetNeuronName = "15" weight = "-0.05291654458153516" />
    <synapse sourceNeuronName = "5" targetNeuronName = "16" weight = "0.25367664407369617" />
    <synapse sourceNeuronName = "6" targetNeuronName = "9" weight = "0.6665209590081282" />
    <synapse sourceNeuronName = "6" targetNeuronName = "10" weight = "0.8721058451090005" />
    <synapse sourceNeuronName = "6" targetNeuronName = "11" weight = "-0.04611418306624637" />
    <synapse sourceNeuronName = "6" targetNeuronName = "12" weight = "-0.8051668655845454" />
    <synapse sourceNeuronName = "6" targetNeuronName = "13" weight = "-0.5450050888387443" />
    <synapse sourceNeuronName = "6" targetNeuronName = "14" weight = "-0.14173553656740578" />
    <synapse sourceNeuronName = "6" targetNeuronName = "15" weight = "-0.6782555276741713" />
    <synapse sourceNeuronName = "6" targetNeuronName = "16" weight = "0.3226886857771405" />
    <synapse sourceNeuronName = "7" targetNeuronName = "9" weight = "-0.30723482241653777" />
    <synapse sourceNeuronName = "7" targetNeuronName = "10" weight = "0.2048950039143882" />
    <synapse sourceNeuronName = "7" targetNeuronName = "11" weight = "-0.9585301740398842" />
    <synapse sourceNeuronName = "7" targetNeuronName = "12" weight = "0.9412518806076564" />
    <synapse sourceNeuronName = "7" targetNeuronName = "13" weight = "-0.5002409225295399" />
    <synapse sourceNeuronName = "7" targetNeuronName = "14" weight = "0.24420609268812998" />
    <synapse sourceNeuronName = "7" targetNeuronName = "15" weight = "-0.9083162444484236" />
    <synapse sourceNeuronName = "7" targetNeuronName = "16" weight = "-0.8003136036127403" />
    <synapse sourceNeuronName = "8" targetNeuronName = "9" weight = "-0.16703752324157284" />
    <synapse sourceNeuronName = "8" targetNeuronName = "10" weight = "0.132798248787384" />
    <synapse sourceNeuronName = "8" targetNeuronName = "11" weight = "0.19828246418590134" />
    <synapse sourceNeuronName = "8" targetNeuronName = "12" weight = "0.7426303570584039" />
    <synapse sourceNeuronName = "8" targetNeuronName = "13" weight = "0.8666837547780326" />
    <synapse sourceNeuronName = "8" targetNeuronName = "14" weight = "0.40950272079557726" />
    <synapse sourceNeuronName = "8" targetNeuronName = "15" weight = "-0.02517738636922484" />
    <synapse sourceNeuronName = "8" targetNeuronName = "16" weight = "-0.3764778509652231" />
</neuralNetwork>