<neuralNetwork>
    <neuron name = "0" type = "sensor" linkName = "Torso" />
    <neuron name = "1" type = "sensor" linkName = "BackLeg" />
    <neuron name = "2" type = "sensor" linkName = "FrontLeg" />
    <neuron name = "3" type = "sensor" linkName = "LeftLeg" />
    <neuron name = "4" type = "sensor" linkName = "RightLeg" />
    <neuron name = "5" type = "sensor" linkName = "BackLowerLeg" />
    <neuron name = "6" type = "sensor" linkName = "FrontLowerLeg" />
    <neuron name = "7" type = "sensor" linkName = "LeftLowerLeg" />
    <neuron name = "8" type = "sensor" linkName = "RightLowerLeg" />
    <neuron name = "9" type = "motor"  jointName = "Torso_BackLeg" />
    <neuron name = "10" type = "motor"  jointName = "Torso_FrontLeg" />
    <neuron name = "11" type = "motor"  jointName = "Torso_LeftLeg" />
    <neuron name = "12" type = "motor"  jointName = "Torso_RightLeg" />
    <neuron name = "13" type = "motor"  jointName = "BackLeg_BackLowerLeg" />
    <neuron name = "14" type = "motor"  jointName = "FrontLeg_FrontLowerLeg" />
    <neuron name = "15" type = "motor"  jointName = "LeftLeg_LeftLowerLeg" />
    <neuron name = "16" type = "motor"  jointName = "RightLeg_RightLowerLeg" />
    <synapse sourceNeuronName = "0" targetNeuronName = "9" weight = "0.6569738445376487" />
    <synapse sourceNeuronName = "0" targetNeuronName = "10" weight = "-0.8537858896301211" />
    <synapse sourceNeuronName = "0" targetNeuronName = "11" weight = "0.6457673757790565" />
    <synapse sourceNeuronName = "0" targetNeuronName = "12" weight = "0.5614455561465856" />
    <synapse sourceNeuronName = "0" targetNeuronName = "13" weight = "-0.18519675713255412" />
    <synapse sourceNeuronName = "0" targetNeuronName = "14" weight = "-0.7891890370388579" />
    <synapse sourceNeuronName = "0" targetNeuronName = "15" weight = "-0.013210524513580069" />
    <synapse sourceNeuronName = "0" targetNeuronName = "16" weight = "-0.3569817345837969" />
    <synapse sourceNeuronName = "1" targetNeuronName = "9" weight = "0.3572289617428235" />
    <synapse sourceNeuronName = "1" targetNeuronName = "10" weight = "-0.10144761863970952" />
    <synapse sourceNeuronName = "1" targetNeuronName = "11" weight = "-0.41645610664496213" />
    <synapse sourceNeuronName = "1" targetNeuronName = "12" weight = "-0.5951308623094411" />
    <synapse sourceNeuronName = "1" targetNeuronName = "13" weight = "0.8772687915966242" />
    <synapse sourceNeuronName = "1" targetNeuronName = "14" weight = "-0.5699158955608097" />
    <synapse sourceNeuronName = "1" targetNeuronName = "15" weight = "0.41226600798311885" />
    <synapse sourceNeuronName = "1" targetNeuronName = "16" weight = "0.3430366477681628" />
    <synapse sourceNeuronName = "2" targetNeuronName = "9" weight = "0.7993187041908723" />
    <synapse sourceNeuronName = "2" targetNeuronName = "10" weight = "0.7402727031794865" />
    <synapse sourceNeuronName = "2" targetNeuronName = "11" weight = "-0.41412440597934896" />
    <synapse sourceNeuronName = "2" targetNeuronName = "12" weight = "-0.05714348580780193" />
    <synapse sourceNeuronName = "2" targetNeuronName = "13" weight = "-0.4258898977246479" />
    <synapse sourceNeuronName = "2" targetNeuronName = "14" weight = "-0.9345662382112214" />
    <synapse sourceNeuronName = "2" targetNeuronName = "15" weight = "-0.47085044197391057" />
    <synapse sourceNeuronName = "2" targetNeuronName = "16" weight = "-0.7676936823255804" />
    <synapse sourceNeuronName = "3" targetNeuronName = "9" weight = "-0.4692071429271134" />
    <synapse sourceNeuronName = "3" targetNeuronName = "10" weight = "-0.7590638775664551" />
    <synapse sourceNeuronName = "3" targetNeuronName = "11" weight = "-0.01778071387968394" />
    <synapse sourceNeuronName = "3" targetNeuronName = "12" weight = "0.7370964302921756" />
    <synapse sourceNeuronName = "3" targetNeuronName = "13" weight = "-0.5984158733915177" />
    <synapse sourceNeuronName = "3" targetNeuronName = "14" weight = "0.7171376939281449" />
    <synapse sourceNeuronName = "3" targetNeuronName = "15" weight = "-0.41547422749443075" />
    <synapse sourceNeuronName = "3" targetNeuronName = "16" weight = "-0.4991752562472376" />
    <synapse sourceNeuronName = "4" targetNeuronName = "9" weight = "0.9430231359278838" />
    <synapse sourceNeuronName = "4" targetNeuronName = "10" weight = "-0.664412054731808" />
    <synapse sourceNeuronName = "4" targetNeuronName = "11" weight = "-0.4436138196709525" />
    <synapse sourceNeuronName = "4" targetNeuronName = "12" weight = "0.5290518479593871" />
    <synapse sourceNeuronName = "4" targetNeuronName = "13" weight = "-0.9842786889075845" />
    <synapse sourceNeuronName = "4" targetNeuronName = "14" weight = "0.25136876506821015" />
    <synapse sourceNeuronName = "4" targetNeuronName = "15" weight = "0.09326196360500916" />
    <synapse sourceNeuronName = "4" targetNeuronName = "16" weight = "0.6727119996908695" />
    <synapse sourceNeuronName = "5" targetNeuronName = "9" weight = "-0.5289244273200031" />
    <synapse sourceNeuronName = "5" targetNeuronName = "10" weight = "0.741114619778688" />
    <synapse sourceNeuronName = "5" targetNeuronName = "11" weight = "0.7032155522785539" />
    <synapse sourceNeuronName = "5" targetNeuronName = "12" weight = "-0.4923312252912002" />
    <synapse sourceNeuronName = "5" targetNeuronName = "13" weight = "0.13271409167166426" />
    <synapse sourceNeuronName = "5" targetNeuronName = "14" weight = "-0.6316764982785239" />
    <synapse sourceNeuronName = "5" targetNeuronName = "15" weight = "-0.0490178693647394" />
    <synapse sourceNeuronName = "5" targetNeuronName = "16" weight = "-0.3567135688174321" />
    <synapse sourceNeuronName = "6" targetNeuronName = "9" weight = "0.29545404254885077" />
    <synapse sourceNeuronName = "6" targetNeuronName = "10" weight = "-0.25987443481508987" />
    <synapse sourceNeuronName = "6" targetNeuronName = "11" weight = "-0.4706852917380835" />
    <synapse sourceNeuronName = "6" targetNeuronName = "12" weight = "-0.19482239556212222" />
    <synapse sourceNeuronName = "6" targetNeuronName = "13" weight = "0.5399029303170353" />
    <synapse sourceNeuronName = "6" targetNeuronName = "14" weight = "0.5245613968194536" />
    <synapse sourceNeuronName = "6" targetNeuronName = "15" weight = "0.048404502909586755" />
    <synapse sourceNeuronName = "6" targetNeuronName = "16" weight = "-0.7533487108495516" />
    <synapse sourceNeuronName = "7" targetNeuronName = "9" weight = "-0.28578055308766737" />
    <synapse sourceNeuronName = "7" targetNeuronName = "10" weight = "-0.7066828258552358" />
    <synapse sourceNeuronName = "7" targetNeuronName = "11" weight = "-0.9910341439955153" />
    <synapse sourceNeuronName = "7" targetNeuronName = "12" weight = "-0.7443493818197668" />
    <synapse sourceNeuronName = "7" targetNeuronName = "13" weight = "0.6545350584863256" />
    <synapse sourceNeuronName = "7" targetNeuronName = "14" weight = "0.8554624871170955" />
    <synapse sourceNeuronName = "7" targetNeuronName = "15" weight = "-0.707791121247884" />
    <synapse sourceNeuronName = "7" targetNeuronName = "16" weight = "0.6658222433639642" />
    <synapse sourceNeuronName = "8" targetNeuronName = "9" weight = "-0.948706608587647" />
    <synapse sourceNeuronName = "8" targetNeuronName = "10" weight = "0.5551543072620864" />
    <synapse sourceNeuronName = "8" targetNeuronName = "11" weight = "0.2171802272006742" />
    <synapse sourceNeuronName = "8" targetNeuronName = "12" weight = "-0.5506731585467823" />
    <synapse sourceNeuronName = "8" targetNeuronName = "13" weight = "0.3057601794059728" />
    <synapse sourceNeuronName = "8" targetNeuronName = "14" weight = "-0.13137294452990123" />
    <synapse sourceNeuronName = "8" targetNeuronName = "15" weight = "-0.5677921498538496" />
    <synapse sourceNeuronName = "8" targetNeuronName = "16" weight = "0.37725355962686713" />
</neuralNetwork>