<neuralNetwork>
    <neuron name = "0" type = "sensor" linkName = "Torso" />
    <neuron name = "1" type = "sensor" linkName = "BackLeg" />
    <neuron name = "2" type = "sensor" linkName = "FrontLeg" />
    <neuron name = "3" type = "sensor" linkName = "LeftLeg" />
    <neuron name = "4" type = "sensor" linkName = "RightLeg" />
    <neuron name = "5" type = "sensor" linkName = "BackLowerLeg" />
    <neuron name = "6" type = "sensor" linkName = "FrontLowerLeg" />
    <neuron name = "7" type = "sensor" linkName = "LeftLowerLeg" />
    <neuron name = "8" type = "sensor" linkName = "RightLowerLeg" />
    <neuron name = "9" type = "motor"  jointName = "Torso_BackLeg" />
    <neuron name = "10" type = "motor"  jointName = "Torso_FrontLeg" />
    <neuron name = "11" type = "motor"  jointName = "Torso_LeftLeg" />
    <neuron name = "12" type = "motor"  jointName = "Torso_RightLeg" />
    <neuron name = "13" type = "motor"  jointName = "BackLeg_BackLowerLeg" />
    <neuron name = "14" type = "motor"  jointName = "FrontLeg_FrontLowerLeg" />
    <neuron name = "15" type = "motor"  jointName = "LeftLeg_LeftLowerLeg" />
    <neuron name = "16" type = "motor"  jointName = "RightLeg_RightLowerLeg" />
    <synapse sourceNeuronName = "0" targetNeuronName = "9" weight = "0.09392933150461147" />
    <synapse sourceNeuronName = "0" targetNeuronName = "10" weight = "-0.5223306027176786" />
    <synapse sourceNeuronName = "0" targetNeuronName = "11" weight = "-0.5052439509415791" />
    <synapse sourceNeuronName = "0" targetNeuronName = "12" weight = "0.01948488609846466" />
    <synapse sourceNeuronName = "0" targetNeuronName = "13" weight = "0.8680681214109971" />
    <synapse sourceNeuronName = "0" targetNeuronName = "14" weight = "-0.3288637711543405" />
    <synapse sourceNeuronName = "0" targetNeuronName = "15" weight = "0.4229904824488373" />
    <synapse sourceNeuronName = "0" targetNeuronName = "16" weight = "-0.36256085199100885" />
    <synapse sourceNeuronName = "1" targetNeuronName = "9" weight = "-0.15070660798803748" />
    <synapse sourceNeuronName = "1" targetNeuronName = "10" weight = "-0.6051268209425635" />
    <synapse sourceNeuronName = "1" targetNeuronName = "11" weight = "0.3611809933168917" />
    <synapse sourceNeuronName = "1" targetNeuronName = "12" weight = "0.20631658686155796" />
    <synapse sourceNeuronName = "1" targetNeuronName = "13" weight = "0.1745522781298421" />
    <synapse sourceNeuronName = "1" targetNeuronName = "14" weight = "-0.7712947645855113" />
    <synapse sourceNeuronName = "1" targetNeuronName = "15" weight = "-0.17909272299985135" />
    <synapse sourceNeuronName = "1" targetNeuronName = "16" weight = "-0.6528009877469458" />
    <synapse sourceNeuronName = "2" targetNeuronName = "9" weight = "-0.531826889875805" />
    <synapse sourceNeuronName = "2" targetNeuronName = "10" weight = "-0.9960295562319419" />
    <synapse sourceNeuronName = "2" targetNeuronName = "11" weight = "-0.36431997408052696" />
    <synapse sourceNeuronName = "2" targetNeuronName = "12" weight = "-0.30242864658323" />
    <synapse sourceNeuronName = "2" targetNeuronName = "13" weight = "-0.4114096442358628" />
    <synapse sourceNeuronName = "2" targetNeuronName = "14" weight = "0.09232174539330207" />
    <synapse sourceNeuronName = "2" targetNeuronName = "15" weight = "0.6075329888428591" />
    <synapse sourceNeuronName = "2" targetNeuronName = "16" weight = "-0.8310880441283994" />
    <synapse sourceNeuronName = "3" targetNeuronName = "9" weight = "0.19479616280656087" />
    <synapse sourceNeuronName = "3" targetNeuronName = "10" weight = "-0.7291687333798622" />
    <synapse sourceNeuronName = "3" targetNeuronName = "11" weight = "0.3891407905700899" />
    <synapse sourceNeuronName = "3" targetNeuronName = "12" weight = "0.715270412481525" />
    <synapse sourceNeuronName = "3" targetNeuronName = "13" weight = "0.5710929768706186" />
    <synapse sourceNeuronName = "3" targetNeuronName = "14" weight = "0.9849096107409876" />
    <synapse sourceNeuronName = "3" targetNeuronName = "15" weight = "-0.636920530002415" />
    <synapse sourceNeuronName = "3" targetNeuronName = "16" weight = "0.9529768475511151" />
    <synapse sourceNeuronName = "4" targetNeuronName = "9" weight = "-0.599063825907532" />
    <synapse sourceNeuronName = "4" targetNeuronName = "10" weight = "-0.631515177773045" />
    <synapse sourceNeuronName = "4" targetNeuronName = "11" weight = "-0.2363368331687541" />
    <synapse sourceNeuronName = "4" targetNeuronName = "12" weight = "0.05757781264487094" />
    <synapse sourceNeuronName = "4" targetNeuronName = "13" weight = "-0.4942179381332368" />
    <synapse sourceNeuronName = "4" targetNeuronName = "14" weight = "-0.8256491696923416" />
    <synapse sourceNeuronName = "4" targetNeuronName = "15" weight = "-0.762589684071332" />
    <synapse sourceNeuronName = "4" targetNeuronName = "16" weight = "0.9591618791440488" />
    <synapse sourceNeuronName = "5" targetNeuronName = "9" weight = "-0.02265947448809391" />
    <synapse sourceNeuronName = "5" targetNeuronName = "10" weight = "-0.6120745401005703" />
    <synapse sourceNeuronName = "5" targetNeuronName = "11" weight = "0.41868150152436345" />
    <synapse sourceNeuronName = "5" targetNeuronName = "12" weight = "0.923468795878271" />
    <synapse sourceNeuronName = "5" targetNeuronName = "13" weight = "0.21855025246118154" />
    <synapse sourceNeuronName = "5" targetNeuronName = "14" weight = "-0.5925827910137049" />
    <synapse sourceNeuronName = "5" targetNeuronName = "15" weight = "-0.10028120144852393" />
    <synapse sourceNeuronName = "5" targetNeuronName = "16" weight = "-0.8262628506502181" />
    <synapse sourceNeuronName = "6" targetNeuronName = "9" weight = "0.5368226556562321" />
    <synapse sourceNeuronName = "6" targetNeuronName = "10" weight = "-0.1617274389757848" />
    <synapse sourceNeuronName = "6" targetNeuronName = "11" weight = "0.5565207113444788" />
    <synapse sourceNeuronName = "6" targetNeuronName = "12" weight = "0.7820366625086779" />
    <synapse sourceNeuronName = "6" targetNeuronName = "13" weight = "-0.10551214633415418" />
    <synapse sourceNeuronName = "6" targetNeuronName = "14" weight = "0.21172056313315912" />
    <synapse sourceNeuronName = "6" targetNeuronName = "15" weight = "-0.8582444920519419" />
    <synapse sourceNeuronName = "6" targetNeuronName = "16" weight = "-0.6067823704239117" />
    <synapse sourceNeuronName = "7" targetNeuronName = "9" weight = "0.4541983389500279" />
    <synapse sourceNeuronName = "7" targetNeuronName = "10" weight = "0.23967678869756215" />
    <synapse sourceNeuronName = "7" targetNeuronName = "11" weight = "-0.5273978959192935" />
    <synapse sourceNeuronName = "7" targetNeuronName = "12" weight = "-0.680308906340702" />
    <synapse sourceNeuronName = "7" targetNeuronName = "13" weight = "0.8440953312856607" />
    <synapse sourceNeuronName = "7" targetNeuronName = "14" weight = "-0.8908645956519616" />
    <synapse sourceNeuronName = "7" targetNeuronName = "15" weight = "-0.756498451891958" />
    <synapse sourceNeuronName = "7" targetNeuronName = "16" weight = "0.9558480494946708" />
    <synapse sourceNeuronName = "8" targetNeuronName = "9" weight = "0.20570213237729007" />
    <synapse sourceNeuronName = "8" targetNeuronName = "10" weight = "-0.09080167629402935" />
    <synapse sourceNeuronName = "8" targetNeuronName = "11" weight = "0.2588076170591853" />
    <synapse sourceNeuronName = "8" targetNeuronName = "12" weight = "-0.45802294632958684" />
    <synapse sourceNeuronName = "8" targetNeuronName = "13" weight = "-0.11347651799925584" />
    <synapse sourceNeuronName = "8" targetNeuronName = "14" weight = "0.09834683432262814" />
    <synapse sourceNeuronName = "8" targetNeuronName = "15" weight = "-0.47079307072831766" />
    <synapse sourceNeuronName = "8" targetNeuronName = "16" weight = "0.6223130303795068" />
</neuralNetwork>