<neuralNetwork>
    <neuron name = "0" type = "sensor" linkName = "Torso" />
    <neuron name = "1" type = "sensor" linkName = "BackLeg" />
    <neuron name = "2" type = "sensor" linkName = "FrontLeg" />
    <neuron name = "3" type = "sensor" linkName = "LeftLeg" />
    <neuron name = "4" type = "sensor" linkName = "RightLeg" />
    <neuron name = "5" type = "sensor" linkName = "BackLowerLeg" />
    <neuron name = "6" type = "sensor" linkName = "FrontLowerLeg" />
    <neuron name = "7" type = "sensor" linkName = "LeftLowerLeg" />
    <neuron name = "8" type = "sensor" linkName = "RightLowerLeg" />
    <neuron name = "9" type = "motor"  jointName = "Torso_BackLeg" />
    <neuron name = "10" type = "motor"  jointName = "Torso_FrontLeg" />
    <neuron name = "11" type = "motor"  jointName = "Torso_LeftLeg" />
    <neuron name = "12" type = "motor"  jointName = "Torso_RightLeg" />
    <neuron name = "13" type = "motor"  jointName = "BackLeg_BackLowerLeg" />
    <neuron name = "14" type = "motor"  jointName = "FrontLeg_FrontLowerLeg" />
    <neuron name = "15" type = "motor"  jointName = "LeftLeg_LeftLowerLeg" />
    <neuron name = "16" type = "motor"  jointName = "RightLeg_RightLowerLeg" />
    <synapse sourceNeuronName = "0" targetNeuronName = "9" weight = "0.09618140412712761" />
    <synapse sourceNeuronName = "0" targetNeuronName = "10" weight = "0.0190146344469988" />
    <synapse sourceNeuronName = "0" targetNeuronName = "11" weight = "-0.44758676724481194" />
    <synapse sourceNeuronName = "0" targetNeuronName = "12" weight = "-0.2847736036593691" />
    <synapse sourceNeuronName = "0" targetNeuronName = "13" weight = "0.593435921245608" />
    <synapse sourceNeuronName = "0" targetNeuronName = "14" weight = "0.8803437099213325" />
    <synapse sourceNeuronName = "0" targetNeuronName = "15" weight = "0.8993533657555275" />
    <synapse sourceNeuronName = "0" targetNeuronName = "16" weight = "0.034147914349284436" />
    <synapse sourceNeuronName = "1" targetNeuronName = "9" weight = "0.7600181564009711" />
    <synapse sourceNeuronName = "1" targetNeuronName = "10" weight = "0.6370844475334898" />
    <synapse sourceNeuronName = "1" targetNeuronName = "11" weight = "0.011272862788819449" />
    <synapse sourceNeuronName = "1" targetNeuronName = "12" weight = "-0.4179767389445441" />
    <synapse sourceNeuronName = "1" targetNeuronName = "13" weight = "-0.20395806798288652" />
    <synapse sourceNeuronName = "1" targetNeuronName = "14" weight = "-0.5047589805961241" />
    <synapse sourceNeuronName = "1" targetNeuronName = "15" weight = "-0.7013515097912519" />
    <synapse sourceNeuronName = "1" targetNeuronName = "16" weight = "-0.8842089592102764" />
    <synapse sourceNeuronName = "2" targetNeuronName = "9" weight = "0.5177391413501147" />
    <synapse sourceNeuronName = "2" targetNeuronName = "10" weight = "-0.5729906560941451" />
    <synapse sourceNeuronName = "2" targetNeuronName = "11" weight = "0.9361296264630554" />
    <synapse sourceNeuronName = "2" targetNeuronName = "12" weight = "0.05373588032835386" />
    <synapse sourceNeuronName = "2" targetNeuronName = "13" weight = "-0.4004457008294149" />
    <synapse sourceNeuronName = "2" targetNeuronName = "14" weight = "0.6771506912479972" />
    <synapse sourceNeuronName = "2" targetNeuronName = "15" weight = "0.532582380337385" />
    <synapse sourceNeuronName = "2" targetNeuronName = "16" weight = "-0.22502439722316891" />
    <synapse sourceNeuronName = "3" targetNeuronName = "9" weight = "-0.7445019142921188" />
    <synapse sourceNeuronName = "3" targetNeuronName = "10" weight = "-0.11871982127974468" />
    <synapse sourceNeuronName = "3" targetNeuronName = "11" weight = "-0.37382088418443704" />
    <synapse sourceNeuronName = "3" targetNeuronName = "12" weight = "-0.8131940886053299" />
    <synapse sourceNeuronName = "3" targetNeuronName = "13" weight = "0.49562291979059236" />
    <synapse sourceNeuronName = "3" targetNeuronName = "14" weight = "-0.9863994334879942" />
    <synapse sourceNeuronName = "3" targetNeuronName = "15" weight = "-0.2037979474165048" />
    <synapse sourceNeuronName = "3" targetNeuronName = "16" weight = "-0.1292929895841448" />
    <synapse sourceNeuronName = "4" targetNeuronName = "9" weight = "-0.9498820534768087" />
    <synapse sourceNeuronName = "4" targetNeuronName = "10" weight = "0.3895660586406613" />
    <synapse sourceNeuronName = "4" targetNeuronName = "11" weight = "-0.8764892087677227" />
    <synapse sourceNeuronName = "4" targetNeuronName = "12" weight = "0.04347278866950455" />
    <synapse sourceNeuronName = "4" targetNeuronName = "13" weight = "-0.23642628085908557" />
    <synapse sourceNeuronName = "4" targetNeuronName = "14" weight = "0.5557631247723549" />
    <synapse sourceNeuronName = "4" targetNeuronName = "15" weight = "-0.8488487294877181" />
    <synapse sourceNeuronName = "4" targetNeuronName = "16" weight = "0.7462345455728727" />
    <synapse sourceNeuronName = "5" targetNeuronName = "9" weight = "-0.31086814982255095" />
    <synapse sourceNeuronName = "5" targetNeuronName = "10" weight = "-0.059431657175252006" />
    <synapse sourceNeuronName = "5" targetNeuronName = "11" weight = "-0.9380258681088554" />
    <synapse sourceNeuronName = "5" targetNeuronName = "12" weight = "0.6129253956092091" />
    <synapse sourceNeuronName = "5" targetNeuronName = "13" weight = "-0.5093852521432902" />
    <synapse sourceNeuronName = "5" targetNeuronName = "14" weight = "0.7218338227775332" />
    <synapse sourceNeuronName = "5" targetNeuronName = "15" weight = "-0.5369656839021717" />
    <synapse sourceNeuronName = "5" targetNeuronName = "16" weight = "-0.5506746041938948" />
    <synapse sourceNeuronName = "6" targetNeuronName = "9" weight = "0.4611262247648342" />
    <synapse sourceNeuronName = "6" targetNeuronName = "10" weight = "-0.9987514132636259" />
    <synapse sourceNeuronName = "6" targetNeuronName = "11" weight = "-0.9970315720519172" />
    <synapse sourceNeuronName = "6" targetNeuronName = "12" weight = "-0.9865284637056873" />
    <synapse sourceNeuronName = "6" targetNeuronName = "13" weight = "-0.7785666097109534" />
    <synapse sourceNeuronName = "6" targetNeuronName = "14" weight = "0.3509164857322624" />
    <synapse sourceNeuronName = "6" targetNeuronName = "15" weight = "0.895880426967506" />
    <synapse sourceNeuronName = "6" targetNeuronName = "16" weight = "0.6817772273024689" />
    <synapse sourceNeuronName = "7" targetNeuronName = "9" weight = "-0.052883557462896524" />
    <synapse sourceNeuronName = "7" targetNeuronName = "10" weight = "-0.23977274481886113" />
    <synapse sourceNeuronName = "7" targetNeuronName = "11" weight = "0.07502844793744567" />
    <synapse sourceNeuronName = "7" targetNeuronName = "12" weight = "0.6109191457717271" />
    <synapse sourceNeuronName = "7" targetNeuronName = "13" weight = "-0.04676576806214028" />
    <synapse sourceNeuronName = "7" targetNeuronName = "14" weight = "-0.6159997860978261" />
    <synapse sourceNeuronName = "7" targetNeuronName = "15" weight = "-0.693836306796795" />
    <synapse sourceNeuronName = "7" targetNeuronName = "16" weight = "-0.0985571623793915" />
    <synapse sourceNeuronName = "8" targetNeuronName = "9" weight = "0.8350613180087796" />
    <synapse sourceNeuronName = "8" targetNeuronName = "10" weight = "-0.9564438127808368" />
    <synapse sourceNeuronName = "8" targetNeuronName = "11" weight = "0.957004042043994" />
    <synapse sourceNeuronName = "8" targetNeuronName = "12" weight = "-0.6276920168353277" />
    <synapse sourceNeuronName = "8" targetNeuronName = "13" weight = "-0.7660760294268605" />
    <synapse sourceNeuronName = "8" targetNeuronName = "14" weight = "-0.8551219142387871" />
    <synapse sourceNeuronName = "8" targetNeuronName = "15" weight = "0.9626591938446043" />
    <synapse sourceNeuronName = "8" targetNeuronName = "16" weight = "-0.1311877597102351" />
</neuralNetwork>