<neuralNetwork>
    <neuron name = "0" type = "sensor" linkName = "Torso" />
    <neuron name = "1" type = "sensor" linkName = "BackLeg" />
    <neuron name = "2" type = "sensor" linkName = "FrontLeg" />
    <neuron name = "3" type = "sensor" linkName = "LeftLeg" />
    <neuron name = "4" type = "sensor" linkName = "RightLeg" />
    <neuron name = "5" type = "sensor" linkName = "BackLowerLeg" />
    <neuron name = "6" type = "sensor" linkName = "FrontLowerLeg" />
    <neuron name = "7" type = "sensor" linkName = "LeftLowerLeg" />
    <neuron name = "8" type = "sensor" linkName = "RightLowerLeg" />
    <neuron name = "9" type = "motor"  jointName = "Torso_BackLeg" />
    <neuron name = "10" type = "motor"  jointName = "Torso_FrontLeg" />
    <neuron name = "11" type = "motor"  jointName = "Torso_LeftLeg" />
    <neuron name = "12" type = "motor"  jointName = "Torso_RightLeg" />
    <neuron name = "13" type = "motor"  jointName = "BackLeg_BackLowerLeg" />
    <neuron name = "14" type = "motor"  jointName = "FrontLeg_FrontLowerLeg" />
    <neuron name = "15" type = "motor"  jointName = "LeftLeg_LeftLowerLeg" />
    <neuron name = "16" type = "motor"  jointName = "RightLeg_RightLowerLeg" />
    <synapse sourceNeuronName = "0" targetNeuronName = "9" weight = "0.2831131460810723" />
    <synapse sourceNeuronName = "0" targetNeuronName = "10" weight = "-0.7802214224791604" />
    <synapse sourceNeuronName = "0" targetNeuronName = "11" weight = "0.2776583206789791" />
    <synapse sourceNeuronName = "0" targetNeuronName = "12" weight = "0.07176118692709066" />
    <synapse sourceNeuronName = "0" targetNeuronName = "13" weight = "-0.10784150884525467" />
    <synapse sourceNeuronName = "0" targetNeuronName = "14" weight = "-0.8197798877989317" />
    <synapse sourceNeuronName = "0" targetNeuronName = "15" weight = "0.6499358822971946" />
    <synapse sourceNeuronName = "0" targetNeuronName = "16" weight = "-0.4825361777722419" />
    <synapse sourceNeuronName = "1" targetNeuronName = "9" weight = "-0.9100887743519939" />
    <synapse sourceNeuronName = "1" targetNeuronName = "10" weight = "0.16058965398162006" />
    <synapse sourceNeuronName = "1" targetNeuronName = "11" weight = "-0.9959125980117363" />
    <synapse sourceNeuronName = "1" targetNeuronName = "12" weight = "-0.9857712023505829" />
    <synapse sourceNeuronName = "1" targetNeuronName = "13" weight = "0.2551046057722439" />
    <synapse sourceNeuronName = "1" targetNeuronName = "14" weight = "-0.903836027141427" />
    <synapse sourceNeuronName = "1" targetNeuronName = "15" weight = "0.6174286086367637" />
    <synapse sourceNeuronName = "1" targetNeuronName = "16" weight = "0.49237942240741805" />
    <synapse sourceNeuronName = "2" targetNeuronName = "9" weight = "-0.4787137043066927" />
    <synapse sourceNeuronName = "2" targetNeuronName = "10" weight = "0.02772294283843668" />
    <synapse sourceNeuronName = "2" targetNeuronName = "11" weight = "-0.09220604005387467" />
    <synapse sourceNeuronName = "2" targetNeuronName = "12" weight = "0.28655885735832287" />
    <synapse sourceNeuronName = "2" targetNeuronName = "13" weight = "-0.45571248712362" />
    <synapse sourceNeuronName = "2" targetNeuronName = "14" weight = "0.8465327722074967" />
    <synapse sourceNeuronName = "2" targetNeuronName = "15" weight = "-0.28211109943038926" />
    <synapse sourceNeuronName = "2" targetNeuronName = "16" weight = "0.34091428483087416" />
    <synapse sourceNeuronName = "3" targetNeuronName = "9" weight = "-0.001141391731716901" />
    <synapse sourceNeuronName = "3" targetNeuronName = "10" weight = "0.6119517388652655" />
    <synapse sourceNeuronName = "3" targetNeuronName = "11" weight = "0.534234770705118" />
    <synapse sourceNeuronName = "3" targetNeuronName = "12" weight = "-0.9357989143658063" />
    <synapse sourceNeuronName = "3" targetNeuronName = "13" weight = "-0.46073799270674676" />
    <synapse sourceNeuronName = "3" targetNeuronName = "14" weight = "-0.6841350927175924" />
    <synapse sourceNeuronName = "3" targetNeuronName = "15" weight = "0.6376479707737872" />
    <synapse sourceNeuronName = "3" targetNeuronName = "16" weight = "-0.7722071809360211" />
    <synapse sourceNeuronName = "4" targetNeuronName = "9" weight = "0.12271156126065996" />
    <synapse sourceNeuronName = "4" targetNeuronName = "10" weight = "0.7460389957774953" />
    <synapse sourceNeuronName = "4" targetNeuronName = "11" weight = "-0.853744454950301" />
    <synapse sourceNeuronName = "4" targetNeuronName = "12" weight = "0.12814277729943524" />
    <synapse sourceNeuronName = "4" targetNeuronName = "13" weight = "-0.8566781796145226" />
    <synapse sourceNeuronName = "4" targetNeuronName = "14" weight = "0.3882373650689799" />
    <synapse sourceNeuronName = "4" targetNeuronName = "15" weight = "-0.5737972939186975" />
    <synapse sourceNeuronName = "4" targetNeuronName = "16" weight = "0.05046127043474602" />
    <synapse sourceNeuronName = "5" targetNeuronName = "9" weight = "-0.7421523339760132" />
    <synapse sourceNeuronName = "5" targetNeuronName = "10" weight = "-0.14448130569227136" />
    <synapse sourceNeuronName = "5" targetNeuronName = "11" weight = "0.9457551296656885" />
    <synapse sourceNeuronName = "5" targetNeuronName = "12" weight = "0.19741719641786326" />
    <synapse sourceNeuronName = "5" targetNeuronName = "13" weight = "0.7317824762490184" />
    <synapse sourceNeuronName = "5" targetNeuronName = "14" weight = "-0.2005113804666543" />
    <synapse sourceNeuronName = "5" targetNeuronName = "15" weight = "-0.17946826511544778" />
    <synapse sourceNeuronName = "5" targetNeuronName = "16" weight = "0.023886159299871146" />
    <synapse sourceNeuronName = "6" targetNeuronName = "9" weight = "0.038704359656619" />
    <synapse sourceNeuronName = "6" targetNeuronName = "10" weight = "0.5493077296246371" />
    <synapse sourceNeuronName = "6" targetNeuronName = "11" weight = "-0.6969376280497692" />
    <synapse sourceNeuronName = "6" targetNeuronName = "12" weight = "0.01042195844121041" />
    <synapse sourceNeuronName = "6" targetNeuronName = "13" weight = "0.7779213388928881" />
    <synapse sourceNeuronName = "6" targetNeuronName = "14" weight = "0.6440951478689925" />
    <synapse sourceNeuronName = "6" targetNeuronName = "15" weight = "0.6388115648725456" />
    <synapse sourceNeuronName = "6" targetNeuronName = "16" weight = "-0.2662754143015269" />
    <synapse sourceNeuronName = "7" targetNeuronName = "9" weight = "0.6593437211679085" />
    <synapse sourceNeuronName = "7" targetNeuronName = "10" weight = "-0.11832169195662967" />
    <synapse sourceNeuronName = "7" targetNeuronName = "11" weight = "-0.37783629991095147" />
    <synapse sourceNeuronName = "7" targetNeuronName = "12" weight = "-0.6587431657643197" />
    <synapse sourceNeuronName = "7" targetNeuronName = "13" weight = "0.7371691973033112" />
    <synapse sourceNeuronName = "7" targetNeuronName = "14" weight = "0.17698417450039394" />
    <synapse sourceNeuronName = "7" targetNeuronName = "15" weight = "-0.3789295111843354" />
    <synapse sourceNeuronName = "7" targetNeuronName = "16" weight = "-0.24600104741720097" />
    <synapse sourceNeuronName = "8" targetNeuronName = "9" weight = "0.8474068302123707" />
    <synapse sourceNeuronName = "8" targetNeuronName = "10" weight = "-0.25562323773700246" />
    <synapse sourceNeuronName = "8" targetNeuronName = "11" weight = "0.2734411305017681" />
    <synapse sourceNeuronName = "8" targetNeuronName = "12" weight = "-0.7267614277847756" />
    <synapse sourceNeuronName = "8" targetNeuronName = "13" weight = "-0.00719968826080386" />
    <synapse sourceNeuronName = "8" targetNeuronName = "14" weight = "-0.9996344188114596" />
    <synapse sourceNeuronName = "8" targetNeuronName = "15" weight = "0.49940240874651143" />
    <synapse sourceNeuronName = "8" targetNeuronName = "16" weight = "0.3112270796138692" />
</neuralNetwork>